%YAML:1.0
---
opencv_ml_svm:
   format: 3
   svmType: C_SVC
   kernel:
      type: LINEAR
   C: 3.1250000000000000e+02
   term_criteria: { epsilon:9.9999999999999995e-07, iterations:1000 }
   var_count: 160
   class_count: 2
   class_labels: !!opencv-matrix
      rows: 2
      cols: 1
      dt: i
      data: [ -1, 1 ]
   sv_total: 1
   support_vectors:
      - [ -1.59016542e+01, -6.95627689e+00, 3.24501538e+00,
          -5.88706160e+00, 9.10866642e+00, -7.44103956e+00,
          -3.21058083e+00, 2.37447433e+01, -1.61916428e+01,
          -1.89007664e+01, 3.91387796e+00, -5.93777657e+00,
          -5.43691111e+00, 1.34126167e+01, -1.31634932e+01,
          2.00425949e+01, -4.75437593e+00, 2.74496174e+01,
          3.64635277e+01, -2.83352585e+01, 1.04873619e+01,
          5.55544901e+00, 8.91359043e+00, -1.78417015e+01,
          8.22068977e+00, 2.47468395e+01, -2.71405811e+01,
          1.82683983e+01, -4.11962700e+00, -1.51685209e+01,
          3.24295311e+01, 2.04941559e+01, 8.23944569e+00,
          -2.67584934e+01, 1.24281778e+01, -1.12637320e+01,
          5.90058784e+01, -1.00164881e+01, 1.57121038e+01,
          3.25699186e+00, 3.97040653e+00, -1.43213053e+01,
          8.07774830e+00, 1.00952673e+01, 2.71218467e+00,
          -1.09506912e+01, 3.05380135e+01, -2.33411579e+01,
          -7.69225931e+00, 5.98717880e+00, 9.43444538e+00,
          -2.31399517e+01, -5.14538097e+00, -1.03838110e+01,
          1.94100952e+00, -2.99066582e+01, -2.76741195e+00,
          -3.31342363e+00, 5.23304319e+00, 7.11842442e+00,
          -2.50700340e+01, 2.04968452e+01, 1.17549553e+01,
          4.03492012e+01, -7.81341600e+00, -1.62932644e+01,
          -1.26671038e+01, -2.42157745e+01, -9.83046293e-01,
          -5.36569452e+00, 3.39754601e+01, 1.72793941e+01,
          -1.15197837e+00, 9.23917675e+00, -7.49754238e+00,
          -1.84170723e+01, 8.52152920e+00, 4.49423879e-01,
          -1.45316381e+01, -3.99662209e+00, 5.45015831e+01,
          2.05206609e+00, -1.88474731e+01, -2.42495346e+00,
          -1.76317539e+01, -1.08268623e+01, 9.60472488e+00,
          3.47940826e+01, 9.29152203e+00, 1.32501898e+01, 4.26953793e+00,
          -1.30305471e+01, -3.78535748e+00, -4.82441807e+00,
          1.03906126e+01, -1.58192081e+01, -1.51783667e+01,
          -3.87012596e+01, 1.73821602e+01, -1.05020161e+01,
          -7.30786657e+00, 2.67530441e+00, 1.62906189e+01,
          1.90213089e+01, -3.14793015e+01, 1.90188134e+00,
          -1.79620914e+01, 7.43022823e+00, -2.23598099e+00,
          2.40989923e+00, 9.41209412e+00, -1.77317257e+01,
          -4.93335772e+00, -2.77734795e+01, -1.73280888e+01,
          -1.34660587e+01, 7.86086988e+00, -5.22842646e-01,
          7.97464800e+00, -2.15061512e+01, -1.76295109e+01,
          -7.09716797e+00, 3.08209381e+01, 8.32160473e+00,
          -1.87664013e+01, 2.31349106e+01, -7.98186779e+00,
          -1.04469318e+01, -1.85447865e+01, -8.09685993e+00,
          1.19330502e+01, -9.73691463e+00, -9.49682331e+00,
          -9.60964680e+00, -8.01420784e+00, 1.26556101e+01,
          -3.88604660e+01, 2.27150040e+01, 9.02414036e+00,
          1.86984024e+01, 2.83329058e+00, 1.18848839e+01, 2.73659077e+01,
          -1.08135509e+01, 1.70109024e+01, -1.07830095e+00,
          -4.97167921e+00, -9.12050819e+00, 1.84988728e+01,
          -6.44892883e+00, -1.32002330e+00, -1.87655392e+01,
          -2.91474895e+01, -1.30278740e+01, 3.25960970e+00,
          3.15217209e+00, 1.33748856e+01, -2.50376072e+01,
          4.43715553e+01, 9.34118843e+00 ]
   uncompressed_sv_total: 612
   uncompressed_support_vectors:
      - [ 2.47865613e-03, 8.81299935e-03, 6.60974951e-03, 7.98678026e-03,
          3.02946847e-03, 7.43596815e-03, 3.30487476e-03, 5.23271831e-03,
          9.63921845e-03, 3.30487476e-03, 4.13109362e-03, 3.30487476e-03,
          6.33434346e-03, 3.30487476e-03, 4.40649968e-03, 3.85568710e-03,
          3.58028105e-03, 8.26218689e-04, 1.37703121e-03, 9.63921845e-03,
          1.65243738e-03, 6.60974951e-03, 9.36381146e-03, 3.02946847e-03,
          5.23271831e-03, 2.75406241e-03, 1.01900306e-02, 9.36381146e-03,
          6.88515557e-03, 4.95731225e-03, 8.53759330e-03, 1.98292490e-02,
          6.88515557e-03, 2.20324984e-03, 4.95731225e-03, 7.16056209e-03,
          2.47865613e-03, 1.34949051e-02, 9.08840541e-03, 9.91462450e-03,
          3.58028105e-03, 8.53759330e-03, 7.16056209e-03, 5.23271831e-03,
          9.36381146e-03, 1.04654366e-02, 1.21178739e-02, 2.75406241e-03,
          9.63921845e-03, 4.95731225e-03, 2.75406241e-03, 2.47865613e-03,
          1.10162497e-02, 5.78353088e-03, 1.92784355e-03, 5.23271831e-03,
          2.75406241e-03, 3.85568710e-03, 3.85568710e-03, 4.13109362e-03,
          9.63921845e-03, 1.76259987e-02, 4.40649968e-03, 3.02946847e-03,
          1.37703121e-03, 1.21178739e-02, 7.98678026e-03, 1.34949051e-02,
          4.13109362e-03, 1.90030299e-02, 3.58028105e-03, 7.98678026e-03,
          8.81299935e-03, 4.95731225e-03, 4.68190573e-03, 6.33434346e-03,
          1.65243745e-02, 5.23271831e-03, 4.68190573e-03, 9.36381146e-03,
          4.95731225e-03, 1.92784355e-03, 8.26218724e-03, 9.08840541e-03,
          3.02946847e-03, 4.13109362e-03, 3.85568710e-03, 5.78353088e-03,
          1.48719363e-02, 2.75406241e-03, 4.13109362e-03, 7.71137420e-03,
          3.85568710e-03, 9.63921845e-03, 7.71137420e-03, 8.53759330e-03,
          5.78353088e-03, 7.98678026e-03, 1.37703121e-03, 1.32194990e-02,
          3.58028105e-03, 2.20324984e-03, 5.23271831e-03, 3.85568710e-03,
          8.81299935e-03, 7.98678026e-03, 2.75406241e-03, 5.23271831e-03,
          2.75406241e-03, 7.98678026e-03, 1.15670618e-02, 4.13109362e-03,
          1.65243738e-03, 6.05893694e-03, 1.21178739e-02, 4.68190573e-03,
          1.10162497e-02, 2.47865613e-03, 5.50812483e-03, 2.20324984e-03,
          6.88515557e-03, 8.53759330e-03, 7.16056209e-03, 3.85568710e-03,
          5.23271831e-03, 7.43596815e-03, 8.26218724e-03, 2.75406241e-03,
          1.01900306e-02, 3.30487476e-03, 4.40649968e-03, 4.68190573e-03,
          5.23271831e-03, 4.68190573e-03, 5.78353088e-03, 3.02946847e-03,
          1.01900306e-02, 7.71137420e-03, 4.68190573e-03, 1.67997796e-02,
          7.16056209e-03, 4.68190573e-03, 6.33434346e-03, 3.58028105e-03,
          7.43596815e-03, 8.26218689e-04, 6.60974951e-03, 2.20324984e-03,
          6.60974951e-03, 5.50812483e-03, 4.68190573e-03, 2.20324984e-03,
          1.10162492e-03, 3.02946847e-03, 1.07408427e-02, 4.95731225e-03,
          4.13109362e-03, 1.62489675e-02, 2.20324984e-03, 2.75406241e-03 ]
      - [ 5.17687667e-03, 8.62812810e-03, 8.91573168e-03, 4.88927215e-03,
          3.45125096e-03, 7.19010644e-03, 6.03968929e-03, 7.47771049e-03,
          7.47771049e-03, 5.75208524e-03, 5.17687667e-03, 4.88927215e-03,
          9.49094072e-03, 3.73885524e-03, 4.31406405e-03, 6.03968929e-03,
          3.16364691e-03, 8.62812740e-04, 3.73885524e-03, 6.32729381e-03,
          2.58843834e-03, 7.19010644e-03, 1.06413579e-02, 3.45125096e-03,
          4.02645953e-03, 6.03968929e-03, 9.49094072e-03, 5.75208524e-03,
          9.20333620e-03, 4.31406405e-03, 9.49094072e-03, 1.69686507e-02,
          3.73885524e-03, 4.31406405e-03, 6.03968929e-03, 3.45125096e-03,
          3.73885524e-03, 8.62812810e-03, 4.60166810e-03, 1.06413579e-02,
          3.16364691e-03, 7.19010644e-03, 8.34052358e-03, 2.87604262e-03,
          8.91573168e-03, 1.26545876e-02, 1.12165660e-02, 7.19010644e-03,
          5.17687667e-03, 6.90250192e-03, 3.73885524e-03, 5.46448072e-03,
          1.26545876e-02, 6.32729381e-03, 3.45125096e-03, 4.88927215e-03,
          4.88927215e-03, 2.87604262e-03, 5.75208524e-03, 7.76531501e-03,
          1.23669831e-02, 1.43802129e-02, 5.17687667e-03, 3.16364691e-03,
          3.45125096e-03, 1.32297957e-02, 8.34052358e-03, 9.77854431e-03,
          4.02645953e-03, 8.62812810e-03, 5.75208524e-03, 4.88927215e-03,
          8.34052358e-03, 7.19010644e-03, 5.46448072e-03, 8.05291906e-03,
          1.63934417e-02, 5.75208524e-03, 6.32729381e-03, 7.47771049e-03,
          3.45125096e-03, 1.72562548e-03, 8.62812810e-03, 1.15041705e-02,
          2.01322976e-03, 4.88927215e-03, 6.61489787e-03, 6.32729381e-03,
          1.29421912e-02, 2.58843834e-03, 4.60166810e-03, 6.32729381e-03,
          2.01322976e-03, 8.34052358e-03, 6.03968929e-03, 5.17687667e-03,
          9.20333620e-03, 6.61489787e-03, 1.15041703e-03, 1.09289614e-02,
          4.02645953e-03, 2.58843834e-03, 5.17687667e-03, 4.88927215e-03,
          9.77854431e-03, 8.05291906e-03, 4.02645953e-03, 5.17687667e-03,
          4.88927215e-03, 3.16364691e-03, 9.77854431e-03, 4.02645953e-03,
          3.45125096e-03, 7.76531501e-03, 1.09289614e-02, 3.73885524e-03,
          1.03537533e-02, 3.73885524e-03, 5.17687667e-03, 4.60166810e-03,
          5.17687667e-03, 5.17687667e-03, 5.75208524e-03, 3.73885524e-03,
          4.88927215e-03, 2.30083405e-03, 1.12165660e-02, 4.02645953e-03,
          1.35174002e-02, 5.17687667e-03, 6.32729381e-03, 7.47771049e-03,
          8.34052358e-03, 3.73885524e-03, 4.02645953e-03, 4.31406405e-03,
          8.62812810e-03, 5.46448072e-03, 2.87604262e-03, 1.58182345e-02,
          5.75208524e-03, 4.60166810e-03, 4.88927215e-03, 3.45125096e-03,
          7.19010644e-03, 2.87604262e-03, 5.17687667e-03, 1.43802131e-03,
          9.20333620e-03, 5.46448072e-03, 4.31406405e-03, 1.72562548e-03,
          2.30083405e-03, 3.16364691e-03, 1.17917741e-02, 6.90250192e-03,
          5.46448072e-03, 8.91573168e-03, 1.72562548e-03, 2.58843834e-03 ]
      - [ 3.73007823e-03, 5.76466601e-03, 3.73007823e-03, 1.15293320e-02,
          4.40827431e-03, 5.76466601e-03, 2.37368606e-03, 7.46015646e-03,
          9.15564597e-03, 5.08647040e-03, 4.40827431e-03, 3.39098019e-03,
          1.55985085e-02, 4.06917604e-03, 5.76466601e-03, 6.10376429e-03,
          2.37368606e-03, 4.74737212e-03, 2.71278410e-03, 1.05120381e-02,
          5.08647040e-03, 7.79925426e-03, 8.47745035e-03, 3.05188214e-03,
          5.08647040e-03, 7.12105818e-03, 2.71278410e-03, 5.76466601e-03,
          4.40827431e-03, 6.10376429e-03, 1.01729408e-02, 1.49203129e-02,
          8.47745035e-03, 2.37368606e-03, 9.15564597e-03, 5.42556820e-03,
          4.40827431e-03, 1.22075286e-02, 7.79925426e-03, 5.08647040e-03,
          4.06917604e-03, 8.81654862e-03, 7.12105818e-03, 3.39098019e-03,
          8.13835207e-03, 7.79925426e-03, 1.49203129e-02, 4.40827431e-03,
          6.10376429e-03, 4.06917604e-03, 5.42556820e-03, 4.06917604e-03,
          9.49474424e-03, 6.78196037e-03, 2.71278410e-03, 1.08511364e-02,
          4.40827431e-03, 6.78196037e-03, 5.08647040e-03, 6.44286210e-03,
          8.81654862e-03, 1.49203129e-02, 3.39098019e-03, 4.40827431e-03,
          3.73007823e-03, 7.46015646e-03, 1.25466269e-02, 6.78196037e-03,
          1.69549009e-03, 1.52594103e-02, 3.39098019e-03, 4.40827431e-03,
          6.44286210e-03, 4.06917604e-03, 4.06917604e-03, 6.44286210e-03,
          1.15293320e-02, 7.12105818e-03, 6.78196037e-03, 8.13835207e-03,
          6.44286210e-03, 2.71278410e-03, 1.05120381e-02, 8.81654862e-03,
          2.37368606e-03, 4.74737212e-03, 3.39098019e-03, 6.78196037e-03,
          9.49474424e-03, 4.40827431e-03, 1.35639205e-03, 9.49474424e-03,
          3.05188214e-03, 1.11902347e-02, 5.76466601e-03, 8.47745035e-03,
          6.78196037e-03, 6.78196037e-03, 3.05188214e-03, 1.01729408e-02,
          2.03458802e-03, 1.35639205e-03, 4.06917604e-03, 4.40827431e-03,
          6.78196037e-03, 4.06917604e-03, 2.03458802e-03, 9.83384252e-03,
          5.42556820e-03, 1.49203129e-02, 1.49203129e-02, 3.05188214e-03,
          7.46015646e-03, 4.40827431e-03, 8.13835207e-03, 5.08647040e-03,
          3.39098019e-03, 2.37368606e-03, 8.47745035e-03, 4.74737212e-03,
          4.06917604e-03, 4.40827431e-03, 4.74737212e-03, 4.06917604e-03,
          5.08647040e-03, 1.22075286e-02, 9.15564597e-03, 1.69549009e-03,
          6.78196037e-03, 5.42556820e-03, 5.08647040e-03, 3.73007823e-03,
          5.42556820e-03, 4.74737212e-03, 4.40827431e-03, 3.39098019e-03,
          7.46015646e-03, 8.13835207e-03, 6.78196037e-03, 1.08511364e-02,
          4.06917604e-03, 7.46015646e-03, 6.10376429e-03, 3.73007823e-03,
          6.44286210e-03, 3.73007823e-03, 6.78196037e-03, 2.37368606e-03,
          6.44286210e-03, 7.79925426e-03, 4.40827431e-03, 2.71278410e-03,
          2.03458802e-03, 6.10376429e-03, 7.46015646e-03, 6.44286210e-03,
          5.42556820e-03, 1.49203129e-02, 5.42556820e-03, 3.05188214e-03 ]
      - [ 3.74999992e-03, 9.06249974e-03, 7.18749966e-03, 1.12499995e-02,
          4.06249985e-03, 4.68749972e-03, 3.12499981e-03, 7.81250000e-03,
          7.49999983e-03, 6.24999963e-03, 4.06249985e-03, 4.99999989e-03,
          8.75000004e-03, 5.31250006e-03, 8.12499970e-03, 7.18749966e-03,
          3.43749998e-03, 2.81249988e-03, 6.24999963e-03, 8.43749940e-03,
          5.93749993e-03, 8.43749940e-03, 4.37500002e-03, 4.68749972e-03,
          5.31250006e-03, 6.56249980e-03, 5.93749993e-03, 5.31250006e-03,
          6.56249980e-03, 8.43749940e-03, 7.18749966e-03, 5.31250006e-03,
          9.37499944e-03, 3.74999992e-03, 7.18749966e-03, 7.81250000e-03,
          7.18749966e-03, 1.21874996e-02, 5.93749993e-03, 5.31250006e-03,
          6.87499996e-03, 7.18749966e-03, 6.56249980e-03, 5.31250006e-03,
          5.31250006e-03, 7.81250000e-03, 1.24999993e-02, 7.81250000e-03,
          6.56249980e-03, 1.87499996e-03, 5.62499976e-03, 6.87499996e-03,
          8.43749940e-03, 7.49999983e-03, 2.49999994e-03, 6.24999963e-03,
          6.87499996e-03, 2.81249988e-03, 4.99999989e-03, 5.31250006e-03,
          7.81250000e-03, 1.12499995e-02, 6.56249980e-03, 6.24999963e-03,
          7.49999983e-03, 5.62499976e-03, 7.49999983e-03, 1.09374998e-02,
          3.12499981e-03, 1.24999993e-02, 3.43749998e-03, 4.06249985e-03,
          8.12499970e-03, 5.93749993e-03, 5.31250006e-03, 4.37500002e-03,
          1.28124999e-02, 9.37499944e-03, 5.62499976e-03, 7.49999983e-03,
          9.37499944e-03, 4.37500002e-03, 1.03124995e-02, 3.74999992e-03,
          2.18750001e-03, 4.37500002e-03, 7.18749966e-03, 7.18749966e-03,
          6.56249980e-03, 4.68749972e-03, 3.12499981e-03, 1.15625001e-02,
          4.06249985e-03, 9.68750007e-03, 6.24999963e-03, 1.09374998e-02,
          6.56249980e-03, 9.06249974e-03, 2.18750001e-03, 1.03124995e-02,
          4.37500002e-03, 2.81249988e-03, 5.93749993e-03, 4.06249985e-03,
          4.68749972e-03, 4.68749972e-03, 4.37500002e-03, 8.43749940e-03,
          5.31250006e-03, 1.12499995e-02, 9.68750007e-03, 4.37500002e-03,
          7.49999983e-03, 7.18749966e-03, 4.68749972e-03, 4.68749972e-03,
          5.62499976e-03, 1.87499996e-03, 9.06249974e-03, 2.81249988e-03,
          7.81250000e-03, 4.06249985e-03, 5.62499976e-03, 5.62499976e-03,
          6.87499996e-03, 6.24999963e-03, 7.81250000e-03, 2.18750001e-03,
          4.06249985e-03, 2.49999994e-03, 5.93749993e-03, 4.68749972e-03,
          5.31250006e-03, 5.62499976e-03, 2.81249988e-03, 5.62499976e-03,
          5.31250006e-03, 9.68750007e-03, 8.75000004e-03, 1.24999993e-02,
          5.62499976e-03, 6.87499996e-03, 6.56249980e-03, 4.06249985e-03,
          7.18749966e-03, 3.12499981e-03, 9.37499944e-03, 6.24999986e-04,
          5.31250006e-03, 5.93749993e-03, 8.43749940e-03, 2.18750001e-03,
          3.12499981e-03, 3.43749998e-03, 9.06249974e-03, 3.12499981e-03,
          7.18749966e-03, 7.49999983e-03, 2.81249988e-03, 4.68749972e-03 ]
      - [ 4.20757383e-03, 3.27255740e-03, 1.16877044e-02, 1.21552125e-02,
          7.01262290e-03, 1.87003275e-03, 2.80504907e-03, 4.67508193e-03,
          3.74006550e-03, 1.40252458e-02, 8.41514766e-03, 3.74006550e-03,
          1.40252453e-03, 3.74006550e-03, 1.49602620e-02, 4.67508193e-03,
          7.01262290e-03, 2.80504907e-03, 5.14259003e-03, 7.01262290e-03,
          1.40252453e-03, 1.40252458e-02, 3.27255740e-03, 4.20757383e-03,
          1.12201963e-02, 4.20757383e-03, 2.80504907e-03, 1.40252458e-02,
          6.07760623e-03, 4.67508187e-04, 6.07760623e-03, 9.35016375e-04,
          7.01262290e-03, 8.41514766e-03, 5.61009813e-03, 7.94763956e-03,
          6.54511480e-03, 1.44927539e-02, 2.80504907e-03, 3.27255740e-03,
          4.67508193e-03, 3.27255740e-03, 4.20757383e-03, 6.54511480e-03,
          6.07760623e-03, 4.67508193e-03, 9.35016386e-03, 2.10378692e-02,
          5.14259003e-03, 4.20757383e-03, 8.41514766e-03, 4.67508193e-03,
          1.21552125e-02, 4.67508193e-03, 7.01262290e-03, 1.21552125e-02,
          4.20757383e-03, 6.07760623e-03, 6.07760623e-03, 2.80504907e-03,
          6.07760623e-03, 5.14259003e-03, 5.61009813e-03, 4.20757383e-03,
          3.74006550e-03, 4.67508193e-03, 5.61009813e-03, 8.41514766e-03,
          9.35016375e-04, 8.41514766e-03, 6.07760623e-03, 4.20757383e-03,
          4.20757383e-03, 7.01262290e-03, 2.80504907e-03, 5.14259003e-03,
          6.07760623e-03, 8.88265576e-03, 8.88265576e-03, 1.21552125e-02,
          5.61009813e-03, 4.67508193e-03, 1.44927539e-02, 2.33754097e-03,
          4.20757383e-03, 3.27255740e-03, 5.61009813e-03, 8.41514766e-03,
          4.20757383e-03, 6.54511480e-03, 1.12201963e-02, 6.07760623e-03,
          4.20757383e-03, 4.20757383e-03, 1.87003275e-03, 2.33754097e-03,
          1.82328187e-02, 2.80504907e-03, 2.33754097e-03, 7.01262290e-03,
          1.54277701e-02, 4.20757383e-03, 6.54511480e-03, 5.14259003e-03,
          3.74006550e-03, 3.27255740e-03, 4.67508193e-03, 3.27255740e-03,
          6.54511480e-03, 7.48013100e-03, 4.67508193e-03, 8.41514766e-03,
          4.20757383e-03, 1.26227215e-02, 3.74006550e-03, 1.26227215e-02,
          3.27255740e-03, 5.61009813e-03, 9.35016386e-03, 2.33754097e-03,
          6.54511480e-03, 6.07760623e-03, 5.14259003e-03, 4.20757383e-03,
          1.87003275e-03, 1.26227215e-02, 5.61009813e-03, 7.94763956e-03,
          2.80504907e-03, 5.61009813e-03, 2.33754097e-03, 5.61009813e-03,
          3.74006550e-03, 5.61009813e-03, 7.01262290e-03, 2.80504907e-03,
          4.20757383e-03, 7.94763956e-03, 7.94763956e-03, 1.77653115e-02,
          7.48013100e-03, 8.41514766e-03, 6.54511480e-03, 1.07526882e-02,
          7.01262290e-03, 1.02851801e-02, 4.20757383e-03, 8.88265576e-03,
          3.74006550e-03, 5.14259003e-03, 1.02851801e-02, 2.80504907e-03,
          4.67508193e-03, 3.27255740e-03, 5.61009813e-03, 1.87003275e-03,
          6.07760623e-03, 4.20757383e-03, 3.74006550e-03, 9.81767196e-03 ]
      - [ 3.10834823e-03, 3.55239795e-03, 9.32504423e-03, 1.42095918e-02,
          7.54884584e-03, 5.77264652e-03, 2.22024880e-03, 3.99644766e-03,
          3.10834823e-03, 1.06571941e-02, 8.43694527e-03, 7.54884584e-03,
          1.77619897e-03, 4.44049761e-03, 1.46536417e-02, 3.10834823e-03,
          3.99644766e-03, 2.22024880e-03, 4.44049761e-03, 1.19893430e-02,
          3.10834823e-03, 1.33214919e-02, 5.32859704e-03, 2.22024880e-03,
          2.22024880e-03, 4.88454709e-03, 5.32859704e-03, 9.76909418e-03,
          6.66074594e-03, 2.22024880e-03, 6.66074594e-03, 1.06571941e-02,
          5.32859704e-03, 4.88454709e-03, 4.88454709e-03, 8.88099521e-03,
          7.10479589e-03, 1.42095918e-02, 5.77264652e-03, 2.66429852e-03,
          3.55239795e-03, 4.44049761e-03, 4.88454709e-03, 9.76909418e-03,
          7.10479589e-03, 7.10479589e-03, 3.10834823e-03, 9.32504423e-03,
          4.88454709e-03, 3.99644766e-03, 4.88454709e-03, 3.55239795e-03,
          1.19893430e-02, 4.44049761e-03, 3.55239795e-03, 1.37655418e-02,
          3.99644766e-03, 3.99644766e-03, 5.77264652e-03, 4.88454709e-03,
          7.54884584e-03, 1.11012440e-02, 6.21669646e-03, 3.99644766e-03,
          4.44049761e-03, 4.88454709e-03, 2.66429852e-03, 1.02131441e-02,
          4.44049743e-04, 2.30905861e-02, 2.66429852e-03, 2.22024880e-03,
          7.10479589e-03, 7.54884584e-03, 1.77619897e-03, 7.10479589e-03,
          1.37655418e-02, 7.10479589e-03, 1.82060394e-02, 1.42095918e-02,
          6.21669646e-03, 3.10834823e-03, 1.46536417e-02, 3.10834823e-03,
          1.33214926e-03, 5.77264652e-03, 7.99289532e-03, 6.21669646e-03,
          6.21669646e-03, 5.77264652e-03, 1.11012440e-02, 9.76909418e-03,
          5.32859704e-03, 7.54884584e-03, 3.99644766e-03, 4.88454709e-03,
          1.68738905e-02, 5.32859704e-03, 2.66429852e-03, 6.21669646e-03,
          7.10479589e-03, 1.77619897e-03, 6.66074594e-03, 4.44049761e-03,
          5.77264652e-03, 4.44049761e-03, 2.66429852e-03, 2.22024880e-03,
          4.44049761e-03, 7.10479589e-03, 3.55239795e-03, 7.10479589e-03,
          3.55239795e-03, 1.15452930e-02, 4.88454709e-03, 1.02131441e-02,
          4.88454709e-03, 2.66429852e-03, 1.24333929e-02, 2.22024880e-03,
          8.43694527e-03, 5.32859704e-03, 3.99644766e-03, 3.10834823e-03,
          8.88099486e-04, 1.28774429e-02, 7.10479589e-03, 2.66429852e-03,
          5.77264652e-03, 3.55239795e-03, 2.66429852e-03, 4.88454709e-03,
          6.21669646e-03, 2.66429852e-03, 4.88454709e-03, 5.77264652e-03,
          3.10834823e-03, 5.77264652e-03, 1.15452930e-02, 1.50976917e-02,
          6.21669646e-03, 1.15452930e-02, 3.99644766e-03, 1.02131441e-02,
          1.15452930e-02, 3.99644766e-03, 4.44049761e-03, 4.44049761e-03,
          2.66429852e-03, 5.77264652e-03, 8.43694527e-03, 3.55239795e-03,
          5.32859704e-03, 3.99644766e-03, 5.77264652e-03, 3.55239795e-03,
          3.55239795e-03, 4.88454709e-03, 1.33214926e-03, 7.10479589e-03 ]
      - [ 6.12557447e-03, 3.82848410e-03, 1.03369066e-02, 1.30168460e-02,
          6.50842302e-03, 7.27411965e-03, 6.12557447e-03, 3.44563555e-03,
          5.35987783e-03, 5.74272592e-03, 2.67993892e-03, 3.06278723e-03,
          7.65696820e-03, 2.67993892e-03, 1.22511489e-02, 4.97702928e-03,
          1.91424205e-03, 3.44563555e-03, 3.06278723e-03, 1.03369066e-02,
          7.27411965e-03, 4.59418073e-03, 3.82848410e-03, 5.35987783e-03,
          5.74272592e-03, 6.89127110e-03, 9.18836147e-03, 8.80551338e-03,
          6.50842302e-03, 7.27411965e-03, 6.50842302e-03, 8.42266530e-03,
          1.33996941e-02, 2.29709037e-03, 7.65696820e-03, 1.11026037e-02,
          1.03369066e-02, 1.30168460e-02, 7.27411965e-03, 3.82848410e-03,
          3.44563555e-03, 4.97702928e-03, 3.06278723e-03, 7.65696820e-03,
          7.27411965e-03, 4.97702928e-03, 1.68453306e-02, 4.97702928e-03,
          5.74272592e-03, 2.67993892e-03, 5.74272592e-03, 4.97702928e-03,
          8.42266530e-03, 1.91424205e-03, 7.65696808e-04, 5.74272592e-03,
          4.21133265e-03, 3.06278723e-03, 4.59418073e-03, 6.12557447e-03,
          6.12557447e-03, 1.03369066e-02, 7.27411965e-03, 2.67993892e-03,
          7.27411965e-03, 2.29709037e-03, 7.27411965e-03, 9.57121048e-03,
          1.14854518e-03, 1.64624806e-02, 4.21133265e-03, 2.67993892e-03,
          4.59418073e-03, 5.35987783e-03, 3.82848410e-03, 3.82848410e-03,
          1.33996941e-02, 1.41653912e-02, 9.57121048e-03, 6.89127110e-03,
          5.74272592e-03, 2.67993892e-03, 8.80551338e-03, 6.89127110e-03,
          3.82848410e-03, 3.44563555e-03, 7.27411965e-03, 4.97702928e-03,
          1.18683008e-02, 5.74272592e-03, 5.74272592e-03, 9.18836147e-03,
          5.35987783e-03, 5.74272592e-03, 4.97702928e-03, 9.95405857e-03,
          6.50842302e-03, 7.65696820e-03, 4.21133265e-03, 1.56967845e-02,
          3.06278723e-03, 2.29709037e-03, 4.21133265e-03, 4.21133265e-03,
          3.82848410e-03, 2.29709037e-03, 1.53139362e-03, 8.42266530e-03,
          4.21133265e-03, 1.68453306e-02, 1.41653912e-02, 6.50842302e-03,
          6.89127110e-03, 6.12557447e-03, 5.35987783e-03, 3.44563555e-03,
          2.29709037e-03, 2.67993892e-03, 7.65696820e-03, 0.,
          5.74272592e-03, 3.06278723e-03, 5.35987783e-03, 4.97702928e-03,
          3.06278723e-03, 2.22052075e-02, 8.03981628e-03, 3.44563555e-03,
          4.59418073e-03, 3.82848410e-03, 2.67993892e-03, 4.97702928e-03,
          3.06278723e-03, 6.50842302e-03, 2.67993892e-03, 4.97702928e-03,
          4.97702928e-03, 3.82848410e-03, 1.30168460e-02, 1.30168460e-02,
          8.03981628e-03, 1.22511489e-02, 6.12557447e-03, 3.06278723e-03,
          5.74272592e-03, 3.82848410e-03, 1.18683008e-02, 2.67993892e-03,
          3.44563555e-03, 4.21133265e-03, 1.22511489e-02, 1.91424205e-03,
          3.06278723e-03, 6.50842302e-03, 6.89127110e-03, 4.21133265e-03,
          5.74272592e-03, 8.03981628e-03, 2.67993892e-03, 5.74272592e-03 ]
      - [ 6.83699176e-03, 5.75746689e-03, 5.39762527e-03, 1.11550922e-02,
          6.11730851e-03, 6.83699176e-03, 2.87873344e-03, 7.19683338e-03,
          6.47715013e-03, 7.55667547e-03, 4.67794202e-03, 6.11730851e-03,
          4.67794202e-03, 6.11730851e-03, 7.91651662e-03, 3.59841669e-03,
          6.11730851e-03, 4.31810040e-03, 5.03778365e-03, 8.63620080e-03,
          4.67794202e-03, 7.91651662e-03, 6.11730851e-03, 2.87873344e-03,
          7.55667547e-03, 7.19683338e-03, 8.63620080e-03, 8.27635825e-03,
          9.35588405e-03, 5.39762527e-03, 9.71572567e-03, 6.11730851e-03,
          7.19683338e-03, 1.79920834e-03, 7.91651662e-03, 6.11730851e-03,
          5.75746689e-03, 1.54731926e-02, 5.03778365e-03, 6.47715013e-03,
          3.23857507e-03, 4.31810040e-03, 7.91651662e-03, 7.91651662e-03,
          3.95825831e-03, 7.91651662e-03, 7.55667547e-03, 9.35588405e-03,
          8.27635825e-03, 6.11730851e-03, 3.95825831e-03, 5.39762527e-03,
          9.35588405e-03, 2.51889182e-03, 2.15905020e-03, 6.83699176e-03,
          2.15905020e-03, 3.59841669e-03, 4.67794202e-03, 4.67794202e-03,
          6.11730851e-03, 9.71572567e-03, 6.47715013e-03, 6.47715013e-03,
          3.59841669e-03, 7.55667547e-03, 7.19683338e-03, 1.04354089e-02,
          1.43936672e-03, 1.76322423e-02, 2.15905020e-03, 3.23857507e-03,
          5.39762527e-03, 5.39762527e-03, 3.23857507e-03, 1.00755673e-02,
          1.29543003e-02, 8.27635825e-03, 4.67794202e-03, 1.00755673e-02,
          5.75746689e-03, 2.51889182e-03, 1.33141419e-02, 1.79920834e-03,
          1.43936672e-03, 3.95825831e-03, 7.55667547e-03, 8.63620080e-03,
          8.27635825e-03, 3.95825831e-03, 4.67794202e-03, 1.29543003e-02,
          7.19683338e-03, 7.91651662e-03, 7.55667547e-03, 5.75746689e-03,
          1.18747754e-02, 5.75746689e-03, 2.51889182e-03, 1.11550922e-02,
          2.15905020e-03, 2.51889182e-03, 5.75746689e-03, 5.75746689e-03,
          7.19683338e-03, 5.03778365e-03, 1.43936672e-03, 7.19683338e-03,
          4.67794202e-03, 1.00755673e-02, 1.00755673e-02, 6.11730851e-03,
          3.95825831e-03, 8.27635825e-03, 4.31810040e-03, 5.03778365e-03,
          3.59841669e-03, 3.59841669e-03, 8.63620080e-03, 2.51889182e-03,
          7.19683338e-03, 5.75746689e-03, 6.11730851e-03, 4.67794202e-03,
          3.59841669e-03, 7.19683338e-03, 8.27635825e-03, 2.15905020e-03,
          7.19683338e-03, 4.67794202e-03, 4.67794202e-03, 6.83699176e-03,
          6.11730851e-03, 5.03778365e-03, 2.87873344e-03, 4.31810040e-03,
          8.63620080e-03, 5.75746689e-03, 1.00755673e-02, 1.29543003e-02,
          3.23857507e-03, 5.39762527e-03, 1.07952505e-02, 3.59841669e-03,
          8.27635825e-03, 3.59841669e-03, 2.87873344e-03, 4.31810040e-03,
          6.11730851e-03, 8.27635825e-03, 8.27635825e-03, 5.39762527e-03,
          3.59841669e-03, 2.15905020e-03, 9.71572567e-03, 6.11730851e-03,
          7.91651662e-03, 8.27635825e-03, 4.67794202e-03, 3.59841669e-03 ]
      - [ 1.34168158e-03, 3.13059031e-03, 1.11806793e-02, 1.61001794e-02,
          8.94454401e-03, 2.68336316e-03, 2.68336316e-03, 5.36672631e-03,
          6.70840777e-03, 1.25223612e-02, 4.02504485e-03, 5.81395347e-03,
          1.34168158e-03, 2.68336316e-03, 1.65474061e-02, 3.13059031e-03,
          1.34168158e-03, 4.47227200e-03, 8.49731639e-03, 1.25223612e-02,
          3.57781746e-03, 1.07334526e-02, 5.36672631e-03, 3.57781746e-03,
          2.68336316e-03, 4.47227200e-03, 7.60286208e-03, 8.05008970e-03,
          8.49731639e-03, 8.94454366e-04, 4.02504485e-03, 7.15563493e-03,
          1.02862250e-02, 3.57781746e-03, 3.13059031e-03, 5.36672631e-03,
          6.26118062e-03, 1.56529509e-02, 6.70840777e-03, 4.02504485e-03,
          5.81395347e-03, 2.23613600e-03, 6.70840777e-03, 7.60286208e-03,
          1.34168155e-02, 2.23613600e-03, 5.81395347e-03, 8.05008970e-03,
          4.02504485e-03, 2.68336316e-03, 4.02504485e-03, 6.26118062e-03,
          1.38640422e-02, 3.57781746e-03, 6.70840777e-03, 1.20751336e-02,
          3.13059031e-03, 3.57781746e-03, 3.57781746e-03, 3.13059031e-03,
          8.05008970e-03, 1.16279069e-02, 3.57781746e-03, 5.36672631e-03,
          2.68336316e-03, 3.57781746e-03, 4.47227200e-03, 8.94454401e-03,
          8.94454366e-04, 2.19141319e-02, 3.13059031e-03, 4.47227200e-03,
          4.47227200e-03, 6.26118062e-03, 2.23613600e-03, 4.02504485e-03,
          1.16279069e-02, 6.70840777e-03, 7.60286208e-03, 9.83899832e-03,
          5.36672631e-03, 3.57781746e-03, 1.56529509e-02, 4.02504485e-03,
          1.34168158e-03, 2.68336316e-03, 7.15563493e-03, 6.70840777e-03,
          7.60286208e-03, 3.13059031e-03, 7.15563493e-03, 1.02862250e-02,
          7.15563493e-03, 8.49731639e-03, 3.57781746e-03, 8.05008970e-03,
          1.69946328e-02, 5.36672631e-03, 8.94454366e-04, 1.11806793e-02,
          5.81395347e-03, 5.36672631e-03, 4.02504485e-03, 3.13059031e-03,
          4.47227200e-03, 3.57781746e-03, 1.34168158e-03, 4.47227200e-03,
          6.26118062e-03, 8.94454401e-03, 8.94454401e-03, 1.43112699e-02,
          1.78890873e-03, 9.83899832e-03, 4.91949916e-03, 1.02862250e-02,
          6.26118062e-03, 4.47227200e-03, 1.34168155e-02, 1.34168158e-03,
          4.91949916e-03, 5.36672631e-03, 4.91949916e-03, 2.68336316e-03,
          1.78890873e-03, 8.94454401e-03, 6.26118062e-03, 4.02504485e-03,
          3.13059031e-03, 5.36672631e-03, 1.34168158e-03, 6.26118062e-03,
          1.34168158e-03, 2.68336316e-03, 1.02862250e-02, 2.68336316e-03,
          2.68336316e-03, 6.26118062e-03, 1.34168155e-02, 2.50447225e-02,
          3.57781746e-03, 4.91949916e-03, 4.91949916e-03, 1.16279069e-02,
          1.25223612e-02, 3.13059031e-03, 2.23613600e-03, 7.15563493e-03,
          2.23613600e-03, 8.49731639e-03, 1.16279069e-02, 8.94454366e-04,
          5.81395347e-03, 3.13059031e-03, 5.36672631e-03, 8.49731639e-03,
          4.91949916e-03, 8.94454401e-03, 1.78890873e-03, 6.70840777e-03 ]
      - [ 4.61409381e-03, 5.87248337e-03, 7.55033549e-03, 1.30033558e-02,
          1.00671146e-02, 1.00671146e-02, 2.93624168e-03, 5.03355730e-03,
          5.03355730e-03, 1.34228189e-02, 7.55033549e-03, 5.87248337e-03,
          2.51677865e-03, 7.13087246e-03, 1.84563752e-02, 5.45302033e-03,
          3.77516774e-03, 3.35570471e-03, 8.38926155e-03, 1.21644298e-02,
          4.19463078e-03, 8.38926155e-03, 4.61409381e-03, 2.93624168e-03,
          5.45302033e-03, 5.03355730e-03, 5.45302033e-03, 9.22818761e-03,
          5.87248337e-03, 5.03355730e-03, 7.13087246e-03, 8.38926178e-04,
          8.80872458e-03, 7.13087246e-03, 5.87248337e-03, 7.55033549e-03,
          1.09060407e-02, 1.09060407e-02, 4.61409381e-03, 2.09731539e-03,
          6.29194640e-03, 1.67785236e-03, 3.35570471e-03, 7.96979852e-03,
          7.55033549e-03, 2.93624168e-03, 2.93624168e-03, 1.00671146e-02,
          5.03355730e-03, 3.77516774e-03, 5.03355730e-03, 6.71140943e-03,
          7.96979852e-03, 5.03355730e-03, 2.51677865e-03, 1.42617449e-02,
          1.67785236e-03, 4.19463078e-03, 7.96979852e-03, 4.19463078e-03,
          5.45302033e-03, 4.19463078e-03, 8.80872458e-03, 5.45302033e-03,
          5.87248337e-03, 3.35570471e-03, 3.35570471e-03, 1.34228189e-02,
          1.67785236e-03, 1.51006710e-02, 4.19463078e-03, 2.51677865e-03,
          9.64765064e-03, 8.80872458e-03, 5.45302033e-03, 8.38926155e-03,
          4.61409381e-03, 1.34228189e-02, 9.64765064e-03, 7.96979852e-03,
          1.04865776e-02, 6.71140943e-03, 1.42617449e-02, 8.38926178e-04,
          2.93624168e-03, 3.35570471e-03, 7.55033549e-03, 6.29194640e-03,
          3.77516774e-03, 5.87248337e-03, 5.87248337e-03, 8.38926155e-03,
          7.96979852e-03, 7.13087246e-03, 2.93624168e-03, 1.13255037e-02,
          1.34228189e-02, 5.45302033e-03, 3.77516774e-03, 9.22818761e-03,
          6.29194640e-03, 6.29194640e-03, 6.29194640e-03, 4.61409381e-03,
          3.35570471e-03, 2.93624168e-03, 4.19463078e-03, 2.51677865e-03,
          6.29194640e-03, 8.38926155e-03, 8.38926155e-03, 6.29194640e-03,
          2.51677865e-03, 1.00671146e-02, 8.38926178e-04, 9.22818761e-03,
          2.51677865e-03, 4.19463078e-03, 1.09060407e-02, 2.93624168e-03,
          8.80872458e-03, 2.93624168e-03, 3.77516774e-03, 2.93624168e-03,
          2.93624168e-03, 1.04865776e-02, 8.38926155e-03, 2.51677865e-03,
          2.51677865e-03, 5.03355730e-03, 1.25838933e-03, 9.22818761e-03,
          4.19463078e-03, 5.03355730e-03, 4.19463078e-03, 7.13087246e-03,
          4.19463078e-03, 8.38926155e-03, 8.80872458e-03, 1.04865776e-02,
          2.51677865e-03, 7.13087246e-03, 7.13087246e-03, 5.45302033e-03,
          1.09060407e-02, 5.87248337e-03, 3.77516774e-03, 2.93624168e-03,
          3.77516774e-03, 4.19463078e-03, 1.25838928e-02, 1.67785236e-03,
          5.87248337e-03, 3.77516774e-03, 8.38926155e-03, 3.77516774e-03,
          7.13087246e-03, 4.61409381e-03, 3.77516774e-03, 7.96979852e-03 ]
      - [ 3.88601026e-03, 4.74956818e-03, 8.20379984e-03, 1.46804834e-02,
          3.45423142e-03, 7.34024169e-03, 3.88601026e-03, 3.45423142e-03,
          6.04490517e-03, 5.61312586e-03, 6.90846285e-03, 4.74956818e-03,
          4.31778934e-03, 5.18134702e-03, 4.74956818e-03, 4.74956818e-03,
          3.02245258e-03, 5.18134702e-03, 2.59067351e-03, 6.90846285e-03,
          4.74956818e-03, 9.06735752e-03, 4.31778934e-03, 3.45423142e-03,
          2.59067351e-03, 9.93091520e-03, 3.88601026e-03, 6.90846285e-03,
          7.77202053e-03, 3.88601026e-03, 8.20379984e-03, 5.61312586e-03,
          7.77202053e-03, 4.74956818e-03, 6.47668401e-03, 6.04490517e-03,
          1.03626940e-02, 9.93091520e-03, 6.04490517e-03, 2.59067351e-03,
          4.74956818e-03, 1.29533675e-03, 6.47668401e-03, 9.49913636e-03,
          1.07944729e-02, 5.61312586e-03, 1.20898103e-02, 8.20379984e-03,
          3.02245258e-03, 3.45423142e-03, 4.31778934e-03, 3.45423142e-03,
          1.03626940e-02, 3.45423142e-03, 3.45423142e-03, 1.07944729e-02,
          4.74956818e-03, 2.15889467e-03, 4.31778934e-03, 4.31778934e-03,
          7.77202053e-03, 6.47668401e-03, 7.34024169e-03, 4.31778934e-03,
          3.45423142e-03, 3.88601026e-03, 8.20379984e-03, 9.93091520e-03,
          1.72711571e-03, 1.98618304e-02, 3.45423142e-03, 2.15889467e-03,
          5.18134702e-03, 5.61312586e-03, 5.61312586e-03, 7.34024169e-03,
          1.07944729e-02, 1.72711574e-02, 8.63557868e-03, 7.77202053e-03,
          7.77202053e-03, 3.45423142e-03, 1.68393776e-02, 1.72711571e-03,
          1.29533675e-03, 3.45423142e-03, 6.90846285e-03, 9.06735752e-03,
          3.88601026e-03, 6.04490517e-03, 4.74956818e-03, 1.38169257e-02,
          6.04490517e-03, 4.31778934e-03, 4.31778934e-03, 9.49913636e-03,
          1.20898103e-02, 4.31778934e-03, 3.45423142e-03, 1.42487045e-02,
          5.18134702e-03, 3.02245258e-03, 7.34024169e-03, 4.74956818e-03,
          2.15889467e-03, 4.31778934e-03, 2.59067351e-03, 7.34024169e-03,
          7.34024169e-03, 1.98618304e-02, 9.49913636e-03, 1.03626940e-02,
          6.04490517e-03, 9.49913636e-03, 3.45423142e-03, 5.61312586e-03,
          3.02245258e-03, 2.59067351e-03, 1.12262517e-02, 3.45423142e-03,
          5.18134702e-03, 5.18134702e-03, 4.31778934e-03, 4.31778934e-03,
          5.18134702e-03, 1.55440411e-02, 6.47668401e-03, 2.15889467e-03,
          5.18134702e-03, 7.34024169e-03, 1.72711571e-03, 2.15889467e-03,
          3.88601026e-03, 3.45423142e-03, 3.88601026e-03, 7.34024169e-03,
          5.61312586e-03, 1.42487045e-02, 9.93091520e-03, 1.03626940e-02,
          5.18134702e-03, 9.06735752e-03, 6.04490517e-03, 3.88601026e-03,
          1.12262517e-02, 2.59067351e-03, 8.63557868e-03, 8.63557856e-04,
          3.88601026e-03, 4.74956818e-03, 1.33851469e-02, 3.88601026e-03,
          5.18134702e-03, 4.74956818e-03, 4.74956818e-03, 5.61312586e-03,
          4.74956818e-03, 5.18134702e-03, 3.02245258e-03, 6.47668401e-03 ]
      - [ 5.03862975e-03, 6.71817269e-03, 1.00772595e-02, 1.34363454e-02,
          7.72589864e-03, 7.38999015e-03, 5.03862975e-03, 6.38226420e-03,
          5.71044674e-03, 7.05408165e-03, 5.03862975e-03, 7.38999015e-03,
          3.02317785e-03, 5.37453825e-03, 9.06953309e-03, 6.04635570e-03,
          4.03090380e-03, 8.06180760e-03, 7.05408165e-03, 7.05408165e-03,
          4.36681230e-03, 1.14208935e-02, 5.71044674e-03, 3.02317785e-03,
          6.04635570e-03, 9.06953309e-03, 1.00772595e-02, 5.37453825e-03,
          9.06953309e-03, 3.02317785e-03, 5.71044674e-03, 2.35136040e-03,
          5.37453825e-03, 3.69499507e-03, 4.70272079e-03, 7.38999015e-03,
          8.73362459e-03, 9.74135101e-03, 7.72589864e-03, 3.69499507e-03,
          4.36681230e-03, 3.02317785e-03, 2.01545190e-03, 4.36681230e-03,
          7.05408165e-03, 5.37453825e-03, 6.38226420e-03, 8.39771610e-03,
          5.71044674e-03, 5.71044674e-03, 7.38999015e-03, 8.73362459e-03,
          1.27645284e-02, 6.04635570e-03, 4.03090380e-03, 1.14208935e-02,
          5.71044674e-03, 9.74135101e-03, 4.70272079e-03, 4.70272079e-03,
          4.70272079e-03, 5.03862975e-03, 7.38999015e-03, 9.06953309e-03,
          4.70272079e-03, 5.37453825e-03, 5.71044674e-03, 1.34363454e-02,
          2.01545190e-03, 1.07490765e-02, 4.36681230e-03, 5.03862975e-03,
          5.37453825e-03, 6.71817269e-03, 3.35908635e-03, 6.04635570e-03,
          7.72589864e-03, 8.06180760e-03, 5.71044674e-03, 1.24286199e-02,
          6.38226420e-03, 3.69499507e-03, 9.74135101e-03, 2.68726912e-03,
          3.02317785e-03, 3.69499507e-03, 5.37453825e-03, 7.72589864e-03,
          4.03090380e-03, 8.06180760e-03, 8.73362459e-03, 7.05408165e-03,
          5.37453825e-03, 5.37453825e-03, 3.02317785e-03, 8.06180760e-03,
          1.24286199e-02, 6.71817269e-03, 4.70272079e-03, 9.40544158e-03,
          5.71044674e-03, 5.03862975e-03, 6.04635570e-03, 6.71817269e-03,
          4.36681230e-03, 7.38999015e-03, 3.02317785e-03, 4.03090380e-03,
          4.70272079e-03, 6.04635570e-03, 5.37453825e-03, 7.38999015e-03,
          5.37453825e-03, 1.04131680e-02, 3.69499507e-03, 6.38226420e-03,
          4.36681230e-03, 5.37453825e-03, 8.73362459e-03, 4.70272079e-03,
          7.72589864e-03, 4.36681230e-03, 4.03090380e-03, 3.69499507e-03,
          6.71817269e-03, 9.74135101e-03, 6.71817269e-03, 3.69499507e-03,
          4.70272079e-03, 4.70272079e-03, 4.36681230e-03, 5.71044674e-03,
          2.68726912e-03, 4.70272079e-03, 4.36681230e-03, 5.03862975e-03,
          3.69499507e-03, 1.04131680e-02, 8.39771610e-03, 1.00772595e-02,
          6.38226420e-03, 5.37453825e-03, 7.38999015e-03, 7.05408165e-03,
          1.00772595e-02, 6.38226420e-03, 4.70272079e-03, 3.02317785e-03,
          7.05408165e-03, 8.39771610e-03, 6.38226420e-03, 3.69499507e-03,
          3.69499507e-03, 3.35908635e-03, 6.71817269e-03, 7.72589864e-03,
          7.05408165e-03, 6.38226420e-03, 3.35908635e-03, 6.38226420e-03 ]
      - [ 4.09276970e-03, 4.77489782e-03, 8.86766706e-03, 1.15961805e-02,
          4.09276970e-03, 5.79809025e-03, 4.77489782e-03, 8.18553939e-03,
          6.13915408e-03, 7.84447510e-03, 7.84447510e-03, 7.50341080e-03,
          1.70532055e-03, 5.45702595e-03, 8.86766706e-03, 8.52660276e-03,
          6.82128221e-03, 4.43383353e-03, 1.02319233e-02, 1.29604368e-02,
          4.43383353e-03, 1.19372439e-02, 5.79809025e-03, 4.77489782e-03,
          4.09276970e-03, 6.48021838e-03, 3.75170540e-03, 5.11596166e-03,
          5.79809025e-03, 3.06957704e-03, 4.77489782e-03, 2.72851298e-03,
          7.84447510e-03, 6.82128221e-03, 5.45702595e-03, 7.16234650e-03,
          6.13915408e-03, 1.05729876e-02, 2.72851298e-03, 5.11596166e-03,
          8.52660276e-03, 4.77489782e-03, 4.43383353e-03, 6.82128221e-03,
          7.16234650e-03, 3.41064110e-03, 3.75170540e-03, 9.89085995e-03,
          5.45702595e-03, 5.45702595e-03, 6.82128221e-03, 7.50341080e-03,
          6.82128221e-03, 8.18553939e-03, 6.13915408e-03, 8.18553939e-03,
          4.09276970e-03, 5.45702595e-03, 4.09276970e-03, 6.48021838e-03,
          5.45702595e-03, 6.13915408e-03, 1.09140519e-02, 6.48021838e-03,
          4.09276970e-03, 6.48021838e-03, 5.79809025e-03, 1.12551162e-02,
          2.04638485e-03, 8.52660276e-03, 5.11596166e-03, 2.72851298e-03,
          9.20873135e-03, 6.48021838e-03, 5.45702595e-03, 7.16234650e-03,
          7.84447510e-03, 7.16234650e-03, 6.82128221e-03, 7.50341080e-03,
          6.48021838e-03, 2.72851298e-03, 9.20873135e-03, 2.38744891e-03,
          5.45702595e-03, 5.79809025e-03, 5.45702595e-03, 8.18553939e-03,
          7.50341080e-03, 9.20873135e-03, 5.11596166e-03, 6.48021838e-03,
          5.11596166e-03, 6.13915408e-03, 3.06957704e-03, 6.48021838e-03,
          1.15961805e-02, 5.11596166e-03, 3.75170540e-03, 5.79809025e-03,
          6.48021838e-03, 6.48021838e-03, 3.41064110e-03, 5.11596166e-03,
          3.41064110e-03, 4.09276970e-03, 4.43383353e-03, 2.72851298e-03,
          6.82128221e-03, 5.79809025e-03, 8.86766706e-03, 6.13915408e-03,
          7.16234650e-03, 9.54979565e-03, 2.04638485e-03, 5.79809025e-03,
          3.41064110e-03, 6.13915408e-03, 9.89085995e-03, 4.43383353e-03,
          6.82128221e-03, 6.13915408e-03, 4.09276970e-03, 5.11596166e-03,
          5.79809025e-03, 6.13915408e-03, 6.48021838e-03, 6.13915408e-03,
          2.38744891e-03, 6.13915408e-03, 4.43383353e-03, 6.13915408e-03,
          6.82128221e-03, 6.48021838e-03, 8.86766706e-03, 5.45702595e-03,
          2.38744891e-03, 1.26193725e-02, 1.12551162e-02, 1.12551162e-02,
          2.38744891e-03, 6.48021838e-03, 7.84447510e-03, 1.02319233e-02,
          9.54979565e-03, 7.16234650e-03, 4.43383353e-03, 4.09276970e-03,
          4.77489782e-03, 7.84447510e-03, 9.89085995e-03, 4.77489782e-03,
          8.86766706e-03, 3.41064110e-03, 6.82128221e-03, 6.13915408e-03,
          4.09276970e-03, 6.82128221e-03, 4.09276970e-03, 4.77489782e-03 ]
      - [ 6.29396550e-03, 7.40466546e-03, 8.14513210e-03, 1.40688643e-02,
          7.03443214e-03, 5.18326554e-03, 4.07256605e-03, 5.55349886e-03,
          4.07256605e-03, 8.14513210e-03, 9.62606445e-03, 1.11069977e-02,
          2.96186609e-03, 4.07256605e-03, 1.25879310e-02, 5.18326554e-03,
          4.44279891e-03, 5.18326554e-03, 6.66419882e-03, 9.99629777e-03,
          5.18326554e-03, 1.03665311e-02, 4.07256605e-03, 7.40466546e-03,
          7.40466546e-03, 6.29396550e-03, 5.55349886e-03, 9.62606445e-03,
          7.77489832e-03, 2.96186609e-03, 4.07256605e-03, 1.85116637e-03,
          5.92373218e-03, 4.07256605e-03, 6.66419882e-03, 6.29396550e-03,
          1.03665311e-02, 1.29581643e-02, 6.29396550e-03, 4.44279891e-03,
          5.55349886e-03, 4.81303222e-03, 3.33209941e-03, 7.40466546e-03,
          5.92373218e-03, 3.70233273e-03, 5.92373218e-03, 1.25879310e-02,
          4.44279891e-03, 3.33209941e-03, 4.44279891e-03, 4.81303222e-03,
          9.25583113e-03, 7.77489832e-03, 5.55349886e-03, 1.29581643e-02,
          4.44279891e-03, 6.66419882e-03, 4.07256605e-03, 6.29396550e-03,
          3.70233273e-03, 6.29396550e-03, 7.77489832e-03, 6.29396550e-03,
          6.29396550e-03, 4.44279891e-03, 4.81303222e-03, 9.99629777e-03,
          2.22139945e-03, 1.07367644e-02, 3.33209941e-03, 2.59163277e-03,
          7.03443214e-03, 7.40466546e-03, 3.33209941e-03, 6.29396550e-03,
          7.03443214e-03, 6.29396550e-03, 8.88559781e-03, 1.07367644e-02,
          8.88559781e-03, 4.07256605e-03, 9.25583113e-03, 3.70233261e-04,
          3.70233273e-03, 2.59163277e-03, 7.77489832e-03, 7.03443214e-03,
          5.18326554e-03, 7.40466546e-03, 6.29396550e-03, 8.51536542e-03,
          7.77489832e-03, 6.29396550e-03, 4.44279891e-03, 6.29396550e-03,
          1.11069977e-02, 7.03443214e-03, 4.44279891e-03, 6.29396550e-03,
          6.29396550e-03, 7.03443214e-03, 4.07256605e-03, 4.07256605e-03,
          3.33209941e-03, 7.03443214e-03, 6.29396550e-03, 4.44279891e-03,
          5.92373218e-03, 1.07367644e-02, 7.40466546e-03, 9.99629777e-03,
          4.81303222e-03, 1.14772310e-02, 1.85116637e-03, 6.29396550e-03,
          1.85116637e-03, 5.18326554e-03, 9.62606445e-03, 4.07256605e-03,
          6.66419882e-03, 4.81303222e-03, 6.29396550e-03, 2.59163277e-03,
          4.44279891e-03, 9.99629777e-03, 4.07256605e-03, 4.81303222e-03,
          5.18326554e-03, 5.92373218e-03, 4.07256605e-03, 6.66419882e-03,
          4.81303222e-03, 5.92373218e-03, 7.03443214e-03, 4.44279891e-03,
          6.29396550e-03, 1.14772310e-02, 8.14513210e-03, 8.51536542e-03,
          5.55349886e-03, 6.29396550e-03, 4.07256605e-03, 7.40466546e-03,
          9.25583113e-03, 5.92373218e-03, 5.18326554e-03, 2.96186609e-03,
          3.70233273e-03, 5.92373218e-03, 7.77489832e-03, 4.07256605e-03,
          5.18326554e-03, 4.44279891e-03, 6.29396550e-03, 2.59163277e-03,
          5.18326554e-03, 5.92373218e-03, 6.29396550e-03, 7.03443214e-03 ]
      - [ 3.68154631e-03, 1.84077315e-03, 5.06212609e-03, 1.47261852e-02,
          6.44270610e-03, 5.52231958e-03, 1.84077315e-03, 4.60193306e-03,
          5.06212609e-03, 1.38057983e-02, 6.44270610e-03, 7.36309262e-03,
          9.20386577e-04, 3.68154631e-03, 1.70271508e-02, 6.44270610e-03,
          3.68154631e-03, 3.68154631e-03, 5.52231958e-03, 1.38057983e-02,
          2.76115979e-03, 1.38057983e-02, 4.14173957e-03, 2.76115979e-03,
          4.60193306e-03, 5.98251261e-03, 3.22135305e-03, 1.15048327e-02,
          8.74367263e-03, 9.20386577e-04, 9.20386577e-04, 4.60193289e-04,
          9.66405869e-03, 5.98251261e-03, 3.22135305e-03, 4.60193306e-03,
          9.20386612e-03, 1.97883118e-02, 3.68154631e-03, 9.20386577e-04,
          5.06212609e-03, 4.60193289e-04, 2.76115979e-03, 1.01242522e-02,
          8.74367263e-03, 2.30096653e-03, 5.98251261e-03, 1.05844457e-02,
          3.68154631e-03, 3.22135305e-03, 7.82328565e-03, 2.76115979e-03,
          1.33456057e-02, 3.22135305e-03, 5.06212609e-03, 1.10446392e-02,
          1.38057990e-03, 6.44270610e-03, 4.14173957e-03, 6.44270610e-03,
          2.30096653e-03, 2.76115979e-03, 8.28347914e-03, 5.52231958e-03,
          7.36309262e-03, 2.30096653e-03, 3.68154631e-03, 1.15048327e-02,
          0., 1.28854122e-02, 4.14173957e-03, 3.22135305e-03,
          4.60193306e-03, 4.14173957e-03, 5.98251261e-03, 7.82328565e-03,
          7.82328565e-03, 9.20386612e-03, 1.79475378e-02, 1.15048327e-02,
          6.90289913e-03, 2.76115979e-03, 1.88679248e-02, 0.,
          2.76115979e-03, 4.60193306e-03, 3.22135305e-03, 8.74367263e-03,
          2.30096653e-03, 4.60193306e-03, 1.15048327e-02, 9.66405869e-03,
          6.90289913e-03, 5.98251261e-03, 1.38057990e-03, 7.36309262e-03,
          1.65669583e-02, 4.14173957e-03, 2.30096653e-03, 1.65669583e-02,
          9.20386612e-03, 5.98251261e-03, 8.28347914e-03, 3.68154631e-03,
          1.38057990e-03, 4.14173957e-03, 3.68154631e-03, 5.06212609e-03,
          2.76115979e-03, 7.82328565e-03, 1.05844457e-02, 5.98251261e-03,
          4.60193306e-03, 1.47261852e-02, 9.20386577e-04, 1.01242522e-02,
          4.14173957e-03, 3.22135305e-03, 1.47261852e-02, 3.22135305e-03,
          4.60193306e-03, 4.14173957e-03, 3.68154631e-03, 2.76115979e-03,
          6.90289913e-03, 1.56465713e-02, 4.14173957e-03, 5.52231958e-03,
          1.84077315e-03, 5.52231958e-03, 1.38057990e-03, 7.82328565e-03,
          3.68154631e-03, 5.98251261e-03, 8.74367263e-03, 3.22135305e-03,
          2.30096653e-03, 7.36309262e-03, 1.01242522e-02, 1.38057983e-02,
          5.06212609e-03, 8.74367263e-03, 5.06212609e-03, 1.38057983e-02,
          1.15048327e-02, 5.98251261e-03, 1.84077315e-03, 7.36309262e-03,
          5.98251261e-03, 6.44270610e-03, 1.33456057e-02, 3.68154631e-03,
          4.60193306e-03, 3.22135305e-03, 3.68154631e-03, 3.68154631e-03,
          4.60193306e-03, 5.06212609e-03, 3.68154631e-03, 6.44270610e-03 ]
      - [ 5.39915171e-03, 5.01349801e-03, 7.71307386e-03, 1.04126502e-02,
          5.78480540e-03, 4.24219063e-03, 5.01349801e-03, 6.17045909e-03,
          4.62784432e-03, 1.04126502e-02, 5.39915171e-03, 5.39915171e-03,
          5.01349801e-03, 4.62784432e-03, 1.27265714e-02, 7.71307386e-03,
          2.31392216e-03, 3.08522955e-03, 5.39915171e-03, 9.64134187e-03,
          5.78480540e-03, 1.00269960e-02, 7.71307386e-03, 3.85653693e-03,
          6.17045909e-03, 5.01349801e-03, 5.78480540e-03, 5.39915171e-03,
          6.94176648e-03, 4.24219063e-03, 6.17045909e-03, 3.08522955e-03,
          8.87003541e-03, 3.85653693e-03, 6.17045909e-03, 8.48438125e-03,
          5.39915171e-03, 1.46548403e-02, 6.17045909e-03, 5.78480540e-03,
          5.39915171e-03, 3.08522955e-03, 3.08522955e-03, 5.01349801e-03,
          8.48438125e-03, 5.78480540e-03, 8.48438125e-03, 1.27265714e-02,
          5.78480540e-03, 2.69957585e-03, 4.62784432e-03, 4.24219063e-03,
          9.25568864e-03, 4.62784432e-03, 3.85653693e-03, 9.25568864e-03,
          3.85653693e-03, 3.85653693e-03, 3.47088324e-03, 5.39915171e-03,
          4.24219063e-03, 4.62784432e-03, 8.87003541e-03, 5.39915171e-03,
          8.48438125e-03, 3.85653693e-03, 6.17045909e-03, 8.09872709e-03,
          1.15696108e-03, 1.11839566e-02, 3.08522955e-03, 4.24219063e-03,
          4.62784432e-03, 7.71307386e-03, 3.47088324e-03, 4.24219063e-03,
          7.32742017e-03, 1.15696108e-02, 1.00269960e-02, 1.04126502e-02,
          9.64134187e-03, 4.24219063e-03, 1.15696108e-02, 1.15696108e-03,
          2.31392216e-03, 5.39915171e-03, 6.94176648e-03, 8.48438125e-03,
          1.54261477e-03, 6.17045909e-03, 9.25568864e-03, 6.55611278e-03,
          3.08522955e-03, 6.94176648e-03, 3.08522955e-03, 6.17045909e-03,
          1.61974542e-02, 9.64134187e-03, 5.78480540e-03, 1.15696108e-02,
          5.78480540e-03, 2.31392216e-03, 4.62784432e-03, 4.24219063e-03,
          2.69957585e-03, 2.69957585e-03, 2.31392216e-03, 6.17045909e-03,
          3.47088324e-03, 1.96683388e-02, 9.64134187e-03, 6.55611278e-03,
          5.39915171e-03, 1.00269960e-02, 3.85653693e-03, 9.25568864e-03,
          3.47088324e-03, 4.24219063e-03, 7.71307386e-03, 2.31392216e-03,
          7.71307386e-03, 2.69957585e-03, 6.94176648e-03, 2.31392216e-03,
          6.17045909e-03, 1.50404945e-02, 6.94176648e-03, 3.47088324e-03,
          3.08522955e-03, 5.39915171e-03, 2.31392216e-03, 5.78480540e-03,
          5.39915171e-03, 5.78480540e-03, 6.55611278e-03, 3.85653693e-03,
          4.62784432e-03, 7.32742017e-03, 7.71307386e-03, 9.64134187e-03,
          5.39915171e-03, 6.94176648e-03, 5.39915171e-03, 9.64134187e-03,
          1.54261477e-02, 2.31392216e-03, 4.62784432e-03, 3.85653693e-03,
          4.24219063e-03, 8.09872709e-03, 1.19552650e-02, 3.85653693e-03,
          8.09872709e-03, 5.01349801e-03, 6.17045909e-03, 5.78480540e-03,
          6.94176648e-03, 5.78480540e-03, 5.01349801e-03, 6.94176648e-03 ]
      - [ 6.23330381e-03, 6.67853979e-03, 8.90471973e-03, 1.69189684e-02,
          4.00712388e-03, 3.56188789e-03, 3.56188789e-03, 7.12377578e-03,
          6.67853979e-03, 1.46927871e-02, 7.12377578e-03, 4.00712388e-03,
          3.56188789e-03, 4.89759585e-03, 1.38023160e-02, 4.00712388e-03,
          2.67141592e-03, 4.45235986e-03, 6.23330381e-03, 9.79519170e-03,
          3.11665190e-03, 1.29118431e-02, 3.11665190e-03, 3.56188789e-03,
          4.00712388e-03, 7.56901177e-03, 4.45235986e-03, 5.34283184e-03,
          7.12377578e-03, 2.67141592e-03, 5.78806782e-03, 4.00712388e-03,
          5.34283184e-03, 3.56188789e-03, 5.34283184e-03, 8.90471973e-03,
          1.38023160e-02, 1.20213721e-02, 3.56188789e-03, 3.56188789e-03,
          7.56901177e-03, 2.22617993e-03, 3.56188789e-03, 7.12377578e-03,
          8.01424775e-03, 4.45235986e-03, 8.45948420e-03, 1.73642039e-02,
          4.00712388e-03, 2.22617993e-03, 4.00712388e-03, 7.56901177e-03,
          1.78094395e-02, 2.22617993e-03, 2.67141592e-03, 1.55832600e-02,
          3.56188789e-03, 7.12377578e-03, 4.00712388e-03, 5.78806782e-03,
          3.56188789e-03, 7.56901177e-03, 6.23330381e-03, 4.89759585e-03,
          5.34283184e-03, 2.67141592e-03, 4.89759585e-03, 1.11308992e-02,
          1.78094395e-03, 1.42475516e-02, 6.67853979e-03, 4.89759585e-03,
          4.89759585e-03, 4.45235986e-03, 1.33570796e-03, 6.67853979e-03,
          9.79519170e-03, 9.79519170e-03, 1.15761356e-02, 1.24666076e-02,
          6.67853979e-03, 3.11665190e-03, 1.60284955e-02, 4.45235986e-04,
          4.00712388e-03, 3.56188789e-03, 4.89759585e-03, 7.56901177e-03,
          5.34283184e-03, 5.78806782e-03, 1.46927871e-02, 1.51380235e-02,
          3.56188789e-03, 4.45235986e-03, 3.56188789e-03, 8.45948420e-03,
          1.46927871e-02, 2.67141592e-03, 1.33570796e-03, 1.06856637e-02,
          7.12377578e-03, 3.56188789e-03, 8.01424775e-03, 1.78094395e-03,
          1.78094395e-03, 2.67141592e-03, 1.78094395e-03, 1.78094395e-03,
          6.23330381e-03, 1.29118431e-02, 5.34283184e-03, 9.34995525e-03,
          6.23330381e-03, 1.06856637e-02, 4.45235986e-04, 8.90471973e-03,
          1.78094395e-03, 3.56188789e-03, 9.79519170e-03, 2.67141592e-03,
          7.12377578e-03, 2.67141592e-03, 3.11665190e-03, 3.11665190e-03,
          2.22617993e-03, 1.55832600e-02, 4.00712388e-03, 6.23330381e-03,
          4.45235986e-04, 3.11665190e-03, 4.45235986e-04, 6.23330381e-03,
          5.78806782e-03, 4.89759585e-03, 8.01424775e-03, 4.89759585e-03,
          3.11665190e-03, 7.56901177e-03, 8.90471973e-03, 1.42475516e-02,
          3.11665190e-03, 6.23330381e-03, 4.89759585e-03, 1.06856637e-02,
          1.38023160e-02, 4.89759585e-03, 5.78806782e-03, 5.34283184e-03,
          5.34283184e-03, 6.23330381e-03, 8.01424775e-03, 1.78094395e-03,
          8.01424775e-03, 4.45235986e-03, 4.89759585e-03, 2.67141592e-03,
          5.34283184e-03, 5.78806782e-03, 3.11665190e-03, 5.78806782e-03 ]
      - [ 4.72653611e-03, 3.03848763e-03, 6.41458482e-03, 1.01282923e-02,
          3.37609742e-03, 6.07697526e-03, 1.68804871e-03, 3.37609742e-03,
          7.76502397e-03, 6.75219484e-03, 3.71370697e-03, 5.73936524e-03,
          8.44024308e-03, 4.05131653e-03, 7.42741395e-03, 6.07697526e-03,
          2.36326805e-03, 5.06414613e-03, 3.03848763e-03, 8.10263306e-03,
          4.72653611e-03, 4.72653611e-03, 6.41458482e-03, 3.37609742e-03,
          6.41458482e-03, 7.08980439e-03, 8.77785310e-03, 6.41458482e-03,
          5.40175568e-03, 7.76502397e-03, 5.40175568e-03, 9.11546312e-03,
          7.76502397e-03, 2.02565826e-03, 6.75219484e-03, 7.42741395e-03,
          2.02565826e-03, 9.45307221e-03, 6.41458482e-03, 7.42741395e-03,
          4.38892655e-03, 7.42741395e-03, 6.07697526e-03, 3.71370697e-03,
          9.79068223e-03, 9.45307221e-03, 1.45172188e-02, 6.07697526e-03,
          6.75219484e-03, 4.05131653e-03, 4.72653611e-03, 3.71370697e-03,
          1.04659013e-02, 3.37609742e-03, 4.05131653e-03, 8.44024308e-03,
          3.37609742e-03, 3.03848763e-03, 7.08980439e-03, 6.07697526e-03,
          4.72653611e-03, 1.04659013e-02, 7.08980439e-03, 4.38892655e-03,
          7.08980439e-03, 6.75219484e-03, 7.42741395e-03, 9.11546312e-03,
          3.03848763e-03, 2.32950710e-02, 4.38892655e-03, 3.71370697e-03,
          5.73936524e-03, 6.41458482e-03, 5.73936524e-03, 4.05131653e-03,
          1.04659013e-02, 6.41458482e-03, 9.79068223e-03, 8.10263306e-03,
          7.76502397e-03, 2.36326805e-03, 1.18163405e-02, 2.36326805e-03,
          4.72653611e-03, 4.05131653e-03, 4.38892655e-03, 5.40175568e-03,
          1.65428761e-02, 3.37609742e-03, 6.07697526e-03, 8.44024308e-03,
          5.06414613e-03, 8.44024308e-03, 5.40175568e-03, 9.11546312e-03,
          1.14787305e-02, 8.10263306e-03, 2.36326805e-03, 1.28291696e-02,
          3.71370697e-03, 2.36326805e-03, 6.41458482e-03, 2.36326805e-03,
          6.41458482e-03, 6.07697526e-03, 3.37609742e-03, 1.11411214e-02,
          5.06414613e-03, 1.14787305e-02, 8.10263306e-03, 4.05131653e-03,
          9.79068223e-03, 9.45307221e-03, 7.08980439e-03, 6.75219484e-03,
          5.40175568e-03, 4.38892655e-03, 6.07697526e-03, 1.68804871e-03,
          3.71370697e-03, 6.41458482e-03, 5.40175568e-03, 5.06414613e-03,
          3.71370697e-03, 5.06414613e-03, 8.77785310e-03, 2.36326805e-03,
          7.08980439e-03, 6.75219484e-03, 2.70087784e-03, 4.72653611e-03,
          4.72653611e-03, 4.72653611e-03, 3.37609742e-03, 4.72653611e-03,
          1.04659013e-02, 5.40175568e-03, 7.42741395e-03, 1.75557062e-02,
          5.73936524e-03, 1.68804871e-03, 7.08980439e-03, 4.72653611e-03,
          1.14787305e-02, 2.36326805e-03, 5.40175568e-03, 3.03848763e-03,
          4.05131653e-03, 6.75219484e-03, 7.08980439e-03, 1.68804871e-03,
          5.40175568e-03, 4.05131653e-03, 9.11546312e-03, 5.73936524e-03,
          5.40175568e-03, 7.76502397e-03, 4.72653611e-03, 8.10263306e-03 ]
      - [ 1.92864030e-03, 2.41080043e-03, 1.10896816e-02, 2.31436826e-02,
          5.30376099e-03, 4.82160086e-03, 3.85728059e-03, 8.19672085e-03,
          1.92864030e-03, 1.15718413e-02, 6.75024092e-03, 4.82160086e-03,
          3.85728059e-03, 5.30376099e-03, 1.54291224e-02, 3.85728059e-03,
          9.64320148e-04, 2.41080043e-03, 5.78592066e-03, 1.06075220e-02,
          2.41080043e-03, 1.10896816e-02, 5.30376099e-03, 2.89296033e-03,
          7.71456119e-03, 3.85728059e-03, 5.30376099e-03, 1.01253614e-02,
          5.78592066e-03, 9.64320148e-04, 3.85728059e-03, 2.89296033e-03,
          9.64320148e-04, 4.82160086e-03, 4.33944073e-03, 3.37512046e-03,
          7.23240105e-03, 1.10896816e-02, 7.23240105e-03, 2.89296033e-03,
          8.19672085e-03, 0., 5.78592066e-03, 9.16104112e-03,
          1.10896816e-02, 7.23240105e-03, 3.37512046e-03, 1.01253614e-02,
          2.41080043e-03, 1.44648016e-03, 4.33944073e-03, 2.89296033e-03,
          1.20540019e-02, 3.37512046e-03, 4.82160086e-03, 1.54291224e-02,
          4.82160086e-03, 3.85728059e-03, 3.85728059e-03, 4.82160086e-03,
          5.30376099e-03, 8.19672085e-03, 1.06075220e-02, 1.44648016e-03,
          3.37512046e-03, 3.37512046e-03, 3.37512046e-03, 7.71456119e-03,
          1.92864030e-03, 3.03760841e-02, 1.44648016e-03, 1.92864030e-03,
          4.82160086e-03, 3.37512046e-03, 5.30376099e-03, 6.75024092e-03,
          1.25361616e-02, 7.23240105e-03, 1.92864034e-02, 9.64320172e-03,
          5.78592066e-03, 3.37512046e-03, 1.59112830e-02, 1.92864030e-03,
          4.82160074e-04, 2.41080043e-03, 4.82160086e-03, 8.19672085e-03,
          3.85728059e-03, 4.33944073e-03, 1.39826424e-02, 9.16104112e-03,
          3.85728059e-03, 6.26808079e-03, 9.64320148e-04, 8.67888145e-03,
          1.83220822e-02, 3.85728059e-03, 2.41080043e-03, 1.25361616e-02,
          1.20540019e-02, 1.92864030e-03, 3.85728059e-03, 2.89296033e-03,
          2.89296033e-03, 2.89296033e-03, 2.41080043e-03, 5.30376099e-03,
          7.71456119e-03, 2.89296033e-03, 9.16104112e-03, 7.23240105e-03,
          2.41080043e-03, 1.01253614e-02, 9.64320148e-04, 1.54291224e-02,
          3.85728059e-03, 3.85728059e-03, 1.01253614e-02, 2.89296033e-03,
          3.85728059e-03, 4.33944073e-03, 4.82160086e-03, 4.33944073e-03,
          3.85728059e-03, 1.39826424e-02, 6.75024092e-03, 5.30376099e-03,
          1.92864030e-03, 3.85728059e-03, 2.89296033e-03, 2.89296033e-03,
          6.75024092e-03, 1.92864030e-03, 9.16104112e-03, 2.89296033e-03,
          3.85728059e-03, 7.23240105e-03, 1.06075220e-02, 2.02507228e-02,
          5.30376099e-03, 1.30183222e-02, 8.67888145e-03, 1.15718413e-02,
          8.19672085e-03, 3.85728059e-03, 4.82160086e-03, 3.85728059e-03,
          4.33944073e-03, 7.23240105e-03, 1.20540019e-02, 4.33944073e-03,
          6.26808079e-03, 6.26808079e-03, 6.26808079e-03, 5.78592066e-03,
          2.41080043e-03, 7.71456119e-03, 1.92864030e-03, 7.23240105e-03 ]
      - [ 2.13583931e-03, 4.69884649e-03, 1.06791966e-02, 1.11063644e-02,
          3.41734290e-03, 4.27167863e-03, 3.41734290e-03, 6.40751794e-03,
          5.98035008e-03, 9.39769298e-03, 5.55318221e-03, 5.55318221e-03,
          4.27167863e-03, 7.26185367e-03, 1.06791966e-02, 4.69884649e-03,
          2.99017504e-03, 5.12601435e-03, 6.83468580e-03, 1.06791966e-02,
          2.56300718e-03, 1.02520287e-02, 4.69884649e-03, 1.28150359e-03,
          4.69884649e-03, 2.56300718e-03, 4.69884649e-03, 9.82486084e-03,
          9.39769298e-03, 2.56300718e-03, 6.40751794e-03, 2.13583931e-03,
          7.68902153e-03, 4.27167863e-03, 2.13583931e-03, 5.55318221e-03,
          5.12601435e-03, 1.83682181e-02, 5.12601435e-03, 2.56300718e-03,
          3.84451076e-03, 1.70867145e-03, 4.27167863e-03, 8.97052512e-03,
          8.11618939e-03, 3.84451076e-03, 8.97052512e-03, 1.23878680e-02,
          3.84451076e-03, 4.69884649e-03, 4.27167863e-03, 3.84451076e-03,
          1.19607002e-02, 4.27167863e-03, 5.12601435e-03, 1.19607002e-02,
          5.12601435e-03, 3.41734290e-03, 3.84451076e-03, 3.41734290e-03,
          5.98035008e-03, 3.84451076e-03, 8.97052512e-03, 2.99017504e-03,
          4.69884649e-03, 2.99017504e-03, 5.12601435e-03, 1.15335323e-02,
          2.99017504e-03, 1.83682181e-02, 5.12601435e-03, 5.55318221e-03,
          6.40751794e-03, 7.26185367e-03, 4.69884649e-03, 1.11063644e-02,
          1.06791966e-02, 8.11618939e-03, 9.82486084e-03, 1.19607002e-02,
          5.55318221e-03, 2.56300718e-03, 2.13583931e-02, 1.28150359e-03,
          4.27167863e-04, 2.99017504e-03, 5.55318221e-03, 9.39769298e-03,
          3.41734290e-03, 4.69884649e-03, 1.28150359e-02, 7.68902153e-03,
          2.56300718e-03, 8.54335725e-03, 3.41734290e-03, 5.12601435e-03,
          1.62323788e-02, 2.56300718e-03, 2.99017504e-03, 1.11063644e-02,
          6.40751794e-03, 3.41734290e-03, 8.54335725e-03, 2.99017504e-03,
          3.41734290e-03, 5.12601435e-03, 1.28150359e-03, 3.84451076e-03,
          5.55318221e-03, 8.11618939e-03, 5.55318221e-03, 1.02520287e-02,
          2.13583931e-03, 1.36693716e-02, 1.28150359e-03, 5.98035008e-03,
          2.56300718e-03, 2.99017504e-03, 1.28150359e-02, 3.41734290e-03,
          5.55318221e-03, 4.27167863e-03, 5.55318221e-03, 4.69884649e-03,
          4.27167863e-03, 1.15335323e-02, 1.11063644e-02, 2.99017504e-03,
          2.13583931e-03, 5.98035008e-03, 1.70867145e-03, 5.98035008e-03,
          4.27167863e-03, 4.69884649e-03, 1.15335323e-02, 8.54335725e-04,
          2.99017504e-03, 9.39769298e-03, 1.15335323e-02, 1.83682181e-02,
          9.39769298e-03, 8.11618939e-03, 6.83468580e-03, 7.26185367e-03,
          1.79410502e-02, 4.69884649e-03, 7.26185367e-03, 3.41734290e-03,
          4.27167863e-03, 8.54335725e-03, 8.54335725e-03, 1.70867145e-03,
          3.84451076e-03, 4.69884649e-03, 8.97052512e-03, 6.40751794e-03,
          5.55318221e-03, 5.55318221e-03, 1.28150359e-03, 3.41734290e-03 ]
      - [ 5.27169509e-03, 5.27169509e-03, 1.01378746e-02, 1.74371451e-02,
          4.46066493e-03, 9.32684448e-03, 5.27169509e-03, 8.51581525e-03,
          3.64963501e-03, 8.11029971e-03, 7.29927002e-03, 3.64963501e-03,
          5.67720970e-03, 7.70478463e-03, 1.45985400e-02, 5.27169509e-03,
          2.83860485e-03, 3.64963501e-03, 3.64963501e-03, 1.25709651e-02,
          5.27169509e-03, 8.11029971e-03, 7.29927002e-03, 2.83860485e-03,
          5.67720970e-03, 5.67720970e-03, 5.27169509e-03, 8.11029971e-03,
          6.08272478e-03, 1.62205996e-03, 7.70478463e-03, 3.64963501e-03,
          7.70478463e-03, 3.64963501e-03, 4.86618001e-03, 6.48823986e-03,
          6.08272478e-03, 1.21654496e-02, 6.08272478e-03, 2.83860485e-03,
          6.48823986e-03, 2.43309001e-03, 4.46066493e-03, 7.70478463e-03,
          6.89375494e-03, 6.08272478e-03, 6.89375494e-03, 1.01378746e-02,
          5.67720970e-03, 4.86618001e-03, 4.46066493e-03, 4.05514985e-03,
          8.51581525e-03, 2.43309001e-03, 3.24411993e-03, 1.25709651e-02,
          5.27169509e-03, 3.24411993e-03, 5.27169509e-03, 4.46066493e-03,
          7.70478463e-03, 7.70478463e-03, 6.08272478e-03, 4.05514985e-03,
          9.32684448e-03, 2.02757493e-03, 5.27169509e-03, 9.73236002e-03,
          0., 1.82481743e-02, 2.83860485e-03, 1.62205996e-03,
          5.27169509e-03, 5.27169509e-03, 2.43309001e-03, 7.29927002e-03,
          8.92132986e-03, 1.17599349e-02, 1.21654496e-02, 8.51581525e-03,
          8.92132986e-03, 3.24411993e-03, 1.74371451e-02, 4.05514991e-04,
          2.43309001e-03, 2.83860485e-03, 7.70478463e-03, 7.70478463e-03,
          4.46066493e-03, 6.48823986e-03, 5.67720970e-03, 1.13544194e-02,
          6.08272478e-03, 4.46066493e-03, 4.46066493e-03, 8.11029971e-03,
          1.45985400e-02, 4.05514985e-03, 1.21654500e-03, 1.13544194e-02,
          4.86618001e-03, 2.83860485e-03, 7.70478463e-03, 2.43309001e-03,
          2.43309001e-03, 3.24411993e-03, 2.83860485e-03, 5.27169509e-03,
          5.27169509e-03, 1.70316305e-02, 9.73236002e-03, 8.51581525e-03,
          6.08272478e-03, 7.70478463e-03, 5.27169509e-03, 5.67720970e-03,
          2.83860485e-03, 3.24411993e-03, 9.73236002e-03, 2.02757493e-03,
          7.70478463e-03, 5.67720970e-03, 3.24411993e-03, 4.05514985e-03,
          6.08272478e-03, 1.37875099e-02, 9.32684448e-03, 2.83860485e-03,
          3.24411993e-03, 3.64963501e-03, 8.11029982e-04, 3.64963501e-03,
          6.89375494e-03, 4.05514985e-03, 6.48823986e-03, 3.64963501e-03,
          5.27169509e-03, 9.32684448e-03, 9.73236002e-03, 9.32684448e-03,
          6.08272478e-03, 6.08272478e-03, 5.67720970e-03, 1.01378746e-02,
          1.13544194e-02, 5.27169509e-03, 4.05514985e-03, 3.64963501e-03,
          6.48823986e-03, 6.48823986e-03, 1.05433902e-02, 2.83860485e-03,
          3.64963501e-03, 2.43309001e-03, 5.67720970e-03, 6.08272478e-03,
          7.70478463e-03, 6.08272478e-03, 2.43309001e-03, 7.70478463e-03 ]
      - [ 2.96589220e-03, 1.48294610e-03, 8.89767613e-03, 1.97726134e-02,
          6.42609969e-03, 2.47157668e-03, 9.88630694e-04, 2.47157668e-03,
          3.46020749e-03, 1.23578841e-02, 8.40336084e-03, 3.95452278e-03,
          1.48294610e-03, 3.95452278e-03, 1.43351452e-02, 6.42609969e-03,
          2.96589220e-03, 2.96589220e-03, 5.93178440e-03, 1.08749373e-02,
          1.48294610e-03, 5.93178440e-03, 3.46020749e-03, 2.47157668e-03,
          4.44883807e-03, 3.95452278e-03, 4.44883807e-03, 1.33465147e-02,
          8.89767613e-03, 4.94315347e-04, 6.42609969e-03, 3.95452278e-03,
          8.40336084e-03, 6.92041498e-03, 4.94315336e-03, 4.44883807e-03,
          6.92041498e-03, 1.73010379e-02, 4.44883807e-03, 1.97726139e-03,
          5.43746864e-03, 9.88630694e-04, 1.97726139e-03, 7.41473027e-03,
          1.23578841e-02, 2.96589220e-03, 2.47157668e-03, 1.08749373e-02,
          4.94315336e-03, 2.96589220e-03, 5.93178440e-03, 6.92041498e-03,
          1.38408300e-02, 5.43746864e-03, 2.47157668e-03, 1.63124073e-02,
          4.44883807e-03, 4.94315336e-03, 6.42609969e-03, 3.46020749e-03,
          4.44883807e-03, 8.89767613e-03, 8.40336084e-03, 5.43746864e-03,
          3.46020749e-03, 4.44883807e-03, 2.47157668e-03, 7.41473027e-03,
          1.48294610e-03, 2.27385052e-02, 2.47157668e-03, 4.94315347e-04,
          5.43746864e-03, 8.89767613e-03, 1.97726139e-03, 7.90904555e-03,
          1.13692526e-02, 8.40336084e-03, 9.39199142e-03, 2.12555602e-02,
          1.03806220e-02, 1.48294610e-03, 1.18635688e-02, 9.88630694e-04,
          2.96589220e-03, 6.92041498e-03, 8.40336084e-03, 6.42609969e-03,
          2.47157668e-03, 7.41473027e-03, 8.40336084e-03, 6.92041498e-03,
          3.46020749e-03, 5.43746864e-03, 1.97726139e-03, 6.92041498e-03,
          1.53237758e-02, 3.95452278e-03, 2.47157668e-03, 1.28521994e-02,
          8.89767613e-03, 3.95452278e-03, 7.90904555e-03, 4.44883807e-03,
          9.88630694e-04, 2.47157668e-03, 1.48294610e-03, 3.95452278e-03,
          8.89767613e-03, 7.41473027e-03, 5.93178440e-03, 1.43351452e-02,
          4.94315336e-03, 1.63124073e-02, 2.47157668e-03, 7.90904555e-03,
          2.47157668e-03, 3.95452278e-03, 1.33465147e-02, 4.44883807e-03,
          5.43746864e-03, 1.48294610e-03, 5.43746864e-03, 2.47157668e-03,
          1.97726139e-03, 1.33465147e-02, 5.43746864e-03, 3.95452278e-03,
          6.92041498e-03, 7.41473027e-03, 1.48294610e-03, 5.93178440e-03,
          1.97726139e-03, 5.43746864e-03, 8.40336084e-03, 4.94315336e-03,
          1.97726139e-03, 5.43746864e-03, 8.40336084e-03, 1.97726134e-02,
          4.44883807e-03, 8.40336084e-03, 2.47157668e-03, 1.08749373e-02,
          1.38408300e-02, 4.94315336e-03, 3.95452278e-03, 3.95452278e-03,
          4.94315336e-03, 6.42609969e-03, 1.63124073e-02, 3.46020749e-03,
          3.46020749e-03, 3.95452278e-03, 3.95452278e-03, 5.93178440e-03,
          4.44883807e-03, 4.44883807e-03, 2.96589220e-03, 8.89767613e-03 ]
      - [ 5.67802275e-03, 6.34602550e-03, 8.01603217e-03, 1.03540421e-02,
          8.35003331e-03, 5.01002045e-03, 1.00200402e-03, 7.34802987e-03,
          7.34802987e-03, 1.00200409e-02, 9.01803654e-03, 3.00601218e-03,
          2.33800942e-03, 4.34201770e-03, 8.35003331e-03, 5.01002045e-03,
          5.01002045e-03, 2.33800942e-03, 7.34802987e-03, 9.01803654e-03,
          5.67802275e-03, 9.68603883e-03, 9.35203768e-03, 2.33800942e-03,
          9.35203768e-03, 3.00601218e-03, 8.01603217e-03, 7.34802987e-03,
          3.34001356e-03, 5.01002045e-03, 6.01202436e-03, 5.34402160e-03,
          6.01202436e-03, 5.67802275e-03, 5.01002045e-03, 6.34602550e-03,
          8.01603217e-03, 1.43620577e-02, 6.01202436e-03, 4.00801608e-03,
          4.67601884e-03, 5.34402160e-03, 5.34402160e-03, 6.68002712e-03,
          7.68203102e-03, 5.34402160e-03, 4.67601884e-03, 1.10220443e-02,
          7.34802987e-03, 4.00801608e-03, 3.00601218e-03, 3.67401494e-03,
          1.13560455e-02, 4.00801608e-03, 2.00400804e-03, 1.33600542e-02,
          4.00801608e-03, 4.67601884e-03, 6.34602550e-03, 3.67401494e-03,
          7.68203102e-03, 1.00200409e-02, 6.34602550e-03, 6.01202436e-03,
          4.00801608e-03, 5.67802275e-03, 4.67601884e-03, 7.34802987e-03,
          2.67201080e-03, 2.10420843e-02, 2.33800942e-03, 3.34001356e-03,
          6.01202436e-03, 7.01402826e-03, 3.67401494e-03, 1.23580499e-02,
          8.35003331e-03, 4.67601884e-03, 1.06880432e-02, 1.03540421e-02,
          6.01202436e-03, 2.67201080e-03, 1.23580499e-02, 3.00601218e-03,
          2.33800942e-03, 6.34602550e-03, 5.67802275e-03, 6.34602550e-03,
          5.34402160e-03, 4.67601884e-03, 5.34402160e-03, 1.23580499e-02,
          7.01402826e-03, 7.34802987e-03, 4.34201770e-03, 6.68002712e-03,
          1.33600542e-02, 7.01402826e-03, 2.67201080e-03, 9.01803654e-03,
          3.34001356e-03, 5.01002045e-03, 3.34001356e-03, 5.67802275e-03,
          2.00400804e-03, 6.01202436e-03, 3.67401494e-03, 5.34402160e-03,
          5.34402160e-03, 3.67401494e-03, 4.67601884e-03, 5.67802275e-03,
          3.00601218e-03, 1.40280565e-02, 3.67401494e-03, 8.35003331e-03,
          4.00801608e-03, 5.67802275e-03, 1.03540421e-02, 5.34402160e-03,
          7.34802987e-03, 5.67802275e-03, 7.01402826e-03, 4.00801608e-03,
          5.01002045e-03, 9.35203768e-03, 7.34802987e-03, 4.34201770e-03,
          4.00801608e-03, 5.34402160e-03, 2.00400804e-03, 5.34402160e-03,
          6.68002712e-03, 5.01002045e-03, 7.68203102e-03, 4.00801608e-03,
          6.34602550e-03, 9.68603883e-03, 6.34602550e-03, 1.67000666e-02,
          4.00801608e-03, 3.34001356e-03, 7.68203102e-03, 8.01603217e-03,
          1.10220443e-02, 4.34201770e-03, 5.01002045e-03, 3.34001356e-03,
          6.01202436e-03, 7.34802987e-03, 6.68002712e-03, 4.00801608e-03,
          5.01002045e-03, 4.34201770e-03, 7.68203102e-03, 3.67401494e-03,
          5.67802275e-03, 7.68203102e-03, 4.34201770e-03, 5.67802275e-03 ]
      - [ 3.55871883e-03, 1.33451959e-03, 6.22775778e-03, 1.33451959e-02,
          4.00355877e-03, 2.66903918e-03, 1.33451959e-03, 6.67259796e-03,
          5.33807836e-03, 9.78647638e-03, 4.00355877e-03, 5.33807836e-03,
          7.56227737e-03, 2.66903918e-03, 1.15658361e-02, 3.11387889e-03,
          3.11387889e-03, 3.11387889e-03, 3.55871883e-03, 9.34163667e-03,
          4.00355877e-03, 5.78291807e-03, 7.56227737e-03, 2.22419924e-03,
          4.00355877e-03, 4.00355877e-03, 8.89679696e-03, 6.67259796e-03,
          7.11743766e-03, 3.55871883e-03, 6.67259796e-03, 1.06761567e-02,
          4.00355877e-03, 4.44839848e-03, 2.22419924e-03, 8.45195726e-03,
          5.78291807e-03, 1.73487552e-02, 5.78291807e-03, 6.22775778e-03,
          5.78291807e-03, 4.00355877e-03, 3.11387889e-03, 7.11743766e-03,
          8.45195726e-03, 4.00355877e-03, 5.33807836e-03, 6.67259796e-03,
          4.89323819e-03, 4.00355877e-03, 3.11387889e-03, 3.11387889e-03,
          1.29003562e-02, 1.77935942e-03, 2.66903918e-03, 1.33451959e-02,
          2.22419924e-03, 3.11387889e-03, 4.44839848e-03, 4.89323819e-03,
          8.00711755e-03, 1.02313170e-02, 8.89679696e-03, 2.22419924e-03,
          5.33807836e-03, 6.22775778e-03, 2.22419924e-03, 6.67259796e-03,
          1.77935942e-03, 2.93594301e-02, 2.66903918e-03, 4.44839848e-03,
          5.33807836e-03, 2.22419924e-03, 4.00355877e-03, 5.33807836e-03,
          1.37900356e-02, 8.00711755e-03, 9.34163667e-03, 1.02313170e-02,
          4.44839848e-03, 2.66903918e-03, 1.29003562e-02, 4.89323819e-03,
          4.44839854e-04, 4.00355877e-03, 4.89323819e-03, 1.24555156e-02,
          8.89679696e-03, 2.66903918e-03, 8.45195726e-03, 1.42348753e-02,
          4.44839848e-03, 6.67259796e-03, 2.66903918e-03, 1.11209964e-02,
          1.24555156e-02, 6.22775778e-03, 0., 1.86832733e-02,
          7.11743766e-03, 3.55871883e-03, 2.66903918e-03, 4.44839848e-03,
          3.55871883e-03, 6.67259796e-03, 2.22419924e-03, 4.44839848e-03,
          7.56227737e-03, 1.37900356e-02, 1.42348753e-02, 8.89679696e-03,
          4.00355877e-03, 1.02313170e-02, 3.55871883e-03, 5.78291807e-03,
          3.55871883e-03, 3.55871883e-03, 1.02313170e-02, 3.55871883e-03,
          4.89323819e-03, 4.44839848e-03, 3.11387889e-03, 8.89679708e-04,
          4.00355877e-03, 1.37900356e-02, 4.00355877e-03, 1.77935942e-03,
          3.11387889e-03, 5.78291807e-03, 1.77935942e-03, 4.00355877e-03,
          5.33807836e-03, 6.67259796e-03, 4.44839848e-03, 5.78291807e-03,
          2.66903918e-03, 1.11209964e-02, 6.22775778e-03, 2.44661923e-02,
          6.22775778e-03, 4.89323819e-03, 6.22775778e-03, 1.06761567e-02,
          1.42348753e-02, 5.78291807e-03, 8.00711755e-03, 5.78291807e-03,
          5.33807836e-03, 9.34163667e-03, 7.56227737e-03, 1.77935942e-03,
          4.00355877e-03, 3.55871883e-03, 6.22775778e-03, 8.89679696e-03,
          5.33807836e-03, 9.78647638e-03, 8.89679708e-04, 5.78291807e-03 ]
      - [ 1.49328029e-03, 4.47984086e-03, 8.46192148e-03, 1.49328019e-02,
          6.47088094e-03, 3.98208061e-03, 1.49328029e-03, 7.46640097e-03,
          4.47984086e-03, 8.95968173e-03, 6.47088094e-03, 5.97312115e-03,
          1.49328029e-03, 3.98208061e-03, 2.23992039e-02, 5.47536090e-03,
          1.49328029e-03, 5.47536090e-03, 6.47088094e-03, 1.49328019e-02,
          4.97760077e-04, 6.96864119e-03, 7.96416122e-03, 2.48880032e-03,
          4.97760065e-03, 4.47984086e-03, 4.97760065e-03, 8.95968173e-03,
          4.97760065e-03, 1.49328029e-03, 6.47088094e-03, 5.97312115e-03,
          9.45744105e-03, 8.46192148e-03, 1.49328029e-03, 7.96416122e-03,
          5.97312115e-03, 1.69238430e-02, 6.47088094e-03, 3.98208061e-03,
          6.96864119e-03, 1.49328029e-03, 3.98208061e-03, 1.19462423e-02,
          7.96416122e-03, 2.48880032e-03, 5.97312115e-03, 8.95968173e-03,
          5.47536090e-03, 1.49328029e-03, 1.49328029e-03, 5.47536090e-03,
          1.09507218e-02, 3.98208061e-03, 3.48432059e-03, 1.74216032e-02,
          3.48432059e-03, 3.48432059e-03, 3.98208061e-03, 6.47088094e-03,
          5.47536090e-03, 4.97760065e-03, 4.47984086e-03, 4.97760065e-03,
          3.48432059e-03, 3.98208061e-03, 3.48432059e-03, 7.96416122e-03,
          0., 2.23992039e-02, 9.95520153e-04, 1.99104031e-03,
          5.97312115e-03, 3.98208061e-03, 2.48880032e-03, 7.96416122e-03,
          8.95968173e-03, 8.95968173e-03, 1.24440016e-02, 1.09507218e-02,
          3.48432059e-03, 3.98208061e-03, 2.38924846e-02, 1.49328029e-03,
          4.97760077e-04, 2.98656058e-03, 6.47088094e-03, 8.46192148e-03,
          2.48880032e-03, 6.47088094e-03, 1.19462423e-02, 7.96416122e-03,
          3.98208061e-03, 4.97760065e-03, 1.49328029e-03, 3.98208061e-03,
          2.23992039e-02, 3.98208061e-03, 1.49328029e-03, 1.44350426e-02,
          7.46640097e-03, 4.47984086e-03, 3.48432059e-03, 3.98208061e-03,
          2.48880032e-03, 1.99104031e-03, 2.48880032e-03, 5.97312115e-03,
          5.47536090e-03, 1.04529615e-02, 7.46640097e-03, 1.14484821e-02,
          3.48432059e-03, 1.49328019e-02, 1.49328029e-03, 9.95520130e-03,
          3.48432059e-03, 1.99104031e-03, 1.04529615e-02, 3.48432059e-03,
          6.47088094e-03, 3.48432059e-03, 3.98208061e-03, 2.98656058e-03,
          2.98656058e-03, 2.09059231e-02, 5.47536090e-03, 4.97760065e-03,
          3.48432059e-03, 3.48432059e-03, 1.99104031e-03, 6.96864119e-03,
          2.98656058e-03, 2.98656058e-03, 9.45744105e-03, 1.49328029e-03,
          2.98656058e-03, 6.96864119e-03, 7.96416122e-03, 2.23992039e-02,
          6.47088094e-03, 6.96864119e-03, 4.97760065e-03, 1.59283224e-02,
          9.45744105e-03, 4.97760065e-03, 5.47536090e-03, 3.48432059e-03,
          3.48432059e-03, 6.47088094e-03, 9.45744105e-03, 3.98208061e-03,
          2.48880032e-03, 4.47984086e-03, 5.97312115e-03, 5.97312115e-03,
          3.98208061e-03, 8.95968173e-03, 1.99104031e-03, 6.96864119e-03 ]
      - [ 3.81194428e-03, 2.96484539e-03, 8.47098697e-03, 1.01651847e-02,
          8.89453664e-03, 3.81194428e-03, 2.96484539e-03, 5.08259237e-03,
          3.38839483e-03, 1.22829312e-02, 1.18593816e-02, 8.04743730e-03,
          1.27064809e-03, 6.77678967e-03, 1.10122832e-02, 6.77678967e-03,
          3.38839483e-03, 3.38839483e-03, 9.74163506e-03, 1.18593816e-02,
          6.35324046e-03, 1.22829312e-02, 4.23549348e-03, 4.65904269e-03,
          5.50614158e-03, 4.23549348e-03, 3.81194428e-03, 1.05887335e-02,
          8.04743730e-03, 3.81194428e-03, 2.11774674e-03, 2.54129618e-03,
          6.77678967e-03, 6.77678967e-03, 4.23549348e-03, 8.04743730e-03,
          7.62388855e-03, 8.04743730e-03, 8.89453664e-03, 1.69419742e-03,
          7.20033888e-03, 2.11774674e-03, 3.38839483e-03, 7.62388855e-03,
          5.08259237e-03, 4.23549348e-03, 8.89453664e-03, 2.11774670e-02,
          5.92969079e-03, 5.08259237e-03, 4.65904269e-03, 6.35324046e-03,
          1.05887335e-02, 3.38839483e-03, 6.77678967e-03, 1.73655227e-02,
          4.65904269e-03, 8.47098697e-03, 3.81194428e-03, 2.96484539e-03,
          4.65904269e-03, 5.08259237e-03, 8.04743730e-03, 6.35324046e-03,
          2.54129618e-03, 3.38839483e-03, 1.69419742e-03, 7.62388855e-03,
          2.54129618e-03, 8.89453664e-03, 4.23549348e-03, 3.38839483e-03,
          4.23549348e-03, 7.62388855e-03, 3.81194428e-03, 8.47098697e-03,
          5.92969079e-03, 5.50614158e-03, 1.27064809e-02, 1.27064809e-02,
          9.74163506e-03, 4.23549348e-03, 1.31300297e-02, 4.23549354e-04,
          2.11774674e-03, 5.92969079e-03, 5.92969079e-03, 8.89453664e-03,
          2.11774674e-03, 6.77678967e-03, 8.04743730e-03, 6.77678967e-03,
          5.50614158e-03, 4.65904269e-03, 2.54129618e-03, 6.77678967e-03,
          2.32952144e-02, 5.92969079e-03, 1.69419742e-03, 5.92969079e-03,
          1.05887335e-02, 6.35324046e-03, 5.50614158e-03, 4.23549348e-03,
          1.69419742e-03, 2.54129618e-03, 3.38839483e-03, 1.69419742e-03,
          4.65904269e-03, 7.62388855e-03, 3.38839483e-03, 1.31300297e-02,
          2.11774674e-03, 1.73655227e-02, 1.27064809e-03, 1.10122832e-02,
          2.96484539e-03, 3.38839483e-03, 1.10122832e-02, 1.27064809e-03,
          6.35324046e-03, 2.54129618e-03, 5.08259237e-03, 2.96484539e-03,
          3.81194428e-03, 1.05887335e-02, 2.96484539e-03, 9.31808539e-03,
          0., 4.65904269e-03, 8.47098709e-04, 5.08259237e-03,
          4.23549348e-03, 5.50614158e-03, 1.01651847e-02, 6.35324046e-03,
          1.69419742e-03, 9.31808539e-03, 6.77678967e-03, 1.14358328e-02,
          5.50614158e-03, 7.20033888e-03, 4.65904269e-03, 1.18593816e-02,
          1.14358328e-02, 3.81194428e-03, 3.38839483e-03, 7.62388855e-03,
          4.65904269e-03, 8.04743730e-03, 7.62388855e-03, 2.54129618e-03,
          1.44006778e-02, 6.35324046e-03, 4.65904269e-03, 3.38839483e-03,
          5.92969079e-03, 3.38839483e-03, 2.96484539e-03, 9.74163506e-03 ]
      - [ 3.33456835e-03, 2.59355316e-03, 7.41015188e-03, 1.48203038e-02,
          4.81659872e-03, 3.70507594e-03, 2.22304557e-03, 4.44609113e-03,
          6.29862910e-03, 7.03964429e-03, 2.96406075e-03, 4.07558354e-03,
          9.63319745e-03, 4.44609113e-03, 1.37087815e-02, 3.70507594e-03,
          2.96406075e-03, 4.07558354e-03, 4.44609113e-03, 1.18562430e-02,
          7.41015188e-03, 5.55761391e-03, 5.18710632e-03, 3.33456835e-03,
          5.55761391e-03, 1.03742126e-02, 5.18710632e-03, 9.26269032e-03,
          2.96406075e-03, 3.70507594e-03, 6.66913670e-03, 4.44609113e-03,
          1.00037046e-02, 3.70507594e-03, 7.41015188e-03, 1.40792886e-02,
          1.14857350e-02, 1.25972582e-02, 9.63319745e-03, 4.81659872e-03,
          3.33456835e-03, 3.70507594e-03, 4.81659872e-03, 1.00037046e-02,
          7.03964429e-03, 5.92812151e-03, 8.89218226e-03, 1.03742126e-02,
          3.70507594e-03, 4.07558354e-03, 3.70507594e-03, 5.92812151e-03,
          9.63319745e-03, 3.33456835e-03, 2.96406075e-03, 9.63319745e-03,
          2.96406075e-03, 3.33456835e-03, 4.07558354e-03, 6.66913670e-03,
          4.44609113e-03, 6.66913670e-03, 4.81659872e-03, 2.96406075e-03,
          9.63319745e-03, 5.55761391e-03, 4.81659872e-03, 1.00037046e-02,
          3.70507594e-04, 1.81548726e-02, 4.81659872e-03, 3.70507594e-03,
          5.92812151e-03, 6.29862910e-03, 2.22304557e-03, 4.44609113e-03,
          1.03742126e-02, 1.00037046e-02, 1.25972582e-02, 6.66913670e-03,
          7.78065948e-03, 3.70507594e-03, 1.03742126e-02, 7.41015188e-04,
          2.96406075e-03, 4.07558354e-03, 4.81659872e-03, 5.92812151e-03,
          5.55761391e-03, 3.33456835e-03, 5.55761391e-03, 9.26269032e-03,
          5.18710632e-03, 7.03964429e-03, 7.03964429e-03, 9.63319745e-03,
          8.15116707e-03, 5.18710632e-03, 4.44609113e-03, 1.66728422e-02,
          5.18710632e-03, 2.59355316e-03, 3.70507594e-03, 4.44609113e-03,
          2.59355316e-03, 3.33456835e-03, 4.07558354e-03, 9.63319745e-03,
          5.92812151e-03, 2.07484253e-02, 1.00037046e-02, 6.29862910e-03,
          7.03964429e-03, 6.66913670e-03, 1.85253797e-03, 5.92812151e-03,
          3.70507594e-03, 2.59355316e-03, 5.55761391e-03, 1.48203038e-03,
          4.44609113e-03, 4.07558354e-03, 4.44609113e-03, 3.33456835e-03,
          2.22304557e-03, 1.85253806e-02, 7.78065948e-03, 3.33456835e-03,
          1.85253797e-03, 5.55761391e-03, 1.48203038e-03, 3.70507594e-03,
          5.92812151e-03, 4.81659872e-03, 4.44609113e-03, 2.22304557e-03,
          3.33456835e-03, 1.03742126e-02, 9.63319745e-03, 1.00037046e-02,
          4.44609113e-03, 1.00037046e-02, 8.52167420e-03, 1.07447207e-02,
          1.03742126e-02, 3.33456835e-03, 1.03742126e-02, 1.85253797e-03,
          4.07558354e-03, 5.92812151e-03, 1.40792886e-02, 2.96406075e-03,
          2.22304557e-03, 5.92812151e-03, 7.41015188e-03, 4.07558354e-03,
          8.15116707e-03, 8.15116707e-03, 4.44609113e-03, 1.00037046e-02 ]
      - [ 5.10677788e-03, 2.32126284e-03, 6.96378807e-03, 1.25348186e-02,
          7.89229292e-03, 2.32126284e-03, 3.71402036e-03, 6.96378807e-03,
          2.78551527e-03, 8.35654605e-03, 7.89229292e-03, 7.42804073e-03,
          2.78551527e-03, 6.49953540e-03, 1.90343540e-02, 4.64252569e-03,
          5.10677788e-03, 5.57103055e-03, 6.49953540e-03, 9.28505138e-03,
          4.17827303e-03, 9.74930357e-03, 3.24976770e-03, 4.17827303e-03,
          4.17827303e-03, 6.03528321e-03, 4.64252569e-03, 7.42804073e-03,
          6.03528321e-03, 9.28505091e-04, 3.24976770e-03, 9.28505091e-04,
          5.10677788e-03, 2.78551527e-03, 7.42804073e-03, 1.02135558e-02,
          4.64252569e-03, 1.29990708e-02, 2.78551527e-03, 1.85701018e-03,
          7.42804073e-03, 4.64252545e-04, 4.64252569e-03, 7.89229292e-03,
          8.82079825e-03, 6.96378807e-03, 4.64252569e-03, 1.62488390e-02,
          4.64252569e-03, 1.85701018e-03, 6.03528321e-03, 4.17827303e-03,
          1.39275761e-02, 2.32126284e-03, 6.03528321e-03, 1.43918293e-02,
          4.17827303e-03, 4.64252569e-03, 3.71402036e-03, 5.57103055e-03,
          3.71402036e-03, 3.71402036e-03, 5.10677788e-03, 7.42804073e-03,
          6.96378807e-03, 3.24976770e-03, 4.17827303e-03, 7.42804073e-03,
          4.64252545e-04, 2.08913647e-02, 3.71402036e-03, 3.24976770e-03,
          4.17827303e-03, 7.89229292e-03, 5.57103055e-03, 8.82079825e-03,
          4.17827303e-03, 5.10677788e-03, 1.76415965e-02, 1.29990708e-02,
          1.16063133e-02, 5.10677788e-03, 1.48560815e-02, 9.28505091e-04,
          3.24976770e-03, 3.24976770e-03, 7.42804073e-03, 1.06778089e-02,
          2.78551527e-03, 3.71402036e-03, 1.06778089e-02, 6.03528321e-03,
          4.64252569e-03, 4.64252569e-03, 2.32126284e-03, 6.96378807e-03,
          1.34633239e-02, 5.57103055e-03, 3.24976770e-03, 1.29990708e-02,
          1.11420611e-02, 5.57103055e-03, 6.49953540e-03, 5.57103055e-03,
          1.39275764e-03, 1.39275764e-03, 5.10677788e-03, 1.39275764e-03,
          6.49953540e-03, 6.03528321e-03, 5.57103055e-03, 1.48560815e-02,
          4.64252569e-03, 1.29990708e-02, 3.24976770e-03, 1.11420611e-02,
          3.24976770e-03, 1.85701018e-03, 1.16063133e-02, 4.64252569e-03,
          5.57103055e-03, 2.78551527e-03, 4.64252569e-03, 3.24976770e-03,
          3.24976770e-03, 1.43918293e-02, 6.03528321e-03, 5.57103055e-03,
          4.17827303e-03, 5.57103055e-03, 1.85701018e-03, 6.03528321e-03,
          1.39275764e-03, 6.03528321e-03, 1.16063133e-02, 6.49953540e-03,
          1.39275764e-03, 1.25348186e-02, 9.74930357e-03, 1.43918293e-02,
          3.71402036e-03, 5.57103055e-03, 7.42804073e-03, 9.28505138e-03,
          1.39275761e-02, 3.71402036e-03, 4.64252569e-03, 5.57103055e-03,
          2.78551527e-03, 1.02135558e-02, 9.28505138e-03, 2.32126284e-03,
          2.78551527e-03, 5.10677788e-03, 4.17827303e-03, 4.17827303e-03,
          6.03528321e-03, 4.17827303e-03, 2.78551527e-03, 5.57103055e-03 ]
      - [ 3.51213268e-03, 4.15070215e-03, 7.02426536e-03, 7.02426536e-03,
          9.89782903e-03, 7.02426536e-03, 6.70498051e-03, 7.02426536e-03,
          6.38569612e-03, 7.98211992e-03, 9.57854372e-03, 6.70498051e-03,
          7.98211992e-03, 5.74712642e-03, 7.34355021e-03, 7.66283507e-03,
          4.78927186e-03, 4.78927186e-03, 4.46998700e-03, 4.46998700e-03,
          7.34355021e-03, 8.62068962e-03, 9.25925933e-03, 5.42784156e-03,
          4.78927186e-03, 9.25925933e-03, 6.06641127e-03, 4.15070215e-03,
          9.89782903e-03, 6.06641127e-03, 8.93997401e-03, 2.23499350e-03,
          9.57854372e-03, 7.02426536e-03, 4.15070215e-03, 5.74712642e-03,
          7.98211992e-03, 9.25925933e-03, 7.34355021e-03, 5.74712642e-03,
          6.70498051e-03, 6.06641127e-03, 7.02426536e-03, 4.78927186e-03,
          4.15070215e-03, 5.42784156e-03, 9.25925933e-03, 5.74712642e-03,
          6.70498051e-03, 7.02426536e-03, 7.66283507e-03, 5.74712642e-03,
          6.38569612e-03, 4.46998700e-03, 3.51213268e-03, 7.02426536e-03,
          5.42784156e-03, 3.83141753e-03, 4.78927186e-03, 7.34355021e-03,
          6.38569612e-03, 1.05363978e-02, 5.10855671e-03, 6.06641127e-03,
          5.42784156e-03, 4.15070215e-03, 8.93997401e-03, 9.57854372e-03,
          1.91570877e-03, 7.66283507e-03, 6.06641127e-03, 6.06641127e-03,
          8.30140430e-03, 7.98211992e-03, 4.15070215e-03, 7.66283507e-03,
          4.46998700e-03, 8.30140430e-03, 6.06641127e-03, 7.34355021e-03,
          8.30140430e-03, 5.42784156e-03, 8.62068962e-03, 3.19284806e-03,
          3.19284806e-03, 3.19284806e-03, 5.74712642e-03, 5.74712642e-03,
          5.74712642e-03, 6.70498051e-03, 4.15070215e-03, 6.06641127e-03,
          6.06641127e-03, 6.38569612e-03, 6.06641127e-03, 6.70498051e-03,
          7.98211992e-03, 1.14942528e-02, 4.46998700e-03, 6.38569612e-03,
          5.74712642e-03, 5.10855671e-03, 6.38569612e-03, 7.02426536e-03,
          3.83141753e-03, 6.38569612e-03, 5.10855671e-03, 6.70498051e-03,
          6.38569612e-03, 7.98211992e-03, 1.18135372e-02, 5.10855671e-03,
          5.74712642e-03, 5.74712642e-03, 3.83141753e-03, 4.46998700e-03,
          5.74712642e-03, 6.70498051e-03, 5.42784156e-03, 3.19284806e-03,
          6.70498051e-03, 5.42784156e-03, 4.46998700e-03, 7.66283507e-03,
          7.34355021e-03, 5.74712642e-03, 5.74712642e-03, 5.42784156e-03,
          7.02426536e-03, 6.06641127e-03, 3.51213268e-03, 6.70498051e-03,
          9.25925933e-03, 5.42784156e-03, 4.78927186e-03, 4.78927186e-03,
          4.15070215e-03, 7.66283507e-03, 5.10855671e-03, 7.34355021e-03,
          7.02426536e-03, 8.30140430e-03, 7.02426536e-03, 6.06641127e-03,
          6.06641127e-03, 5.74712642e-03, 5.42784156e-03, 6.38569612e-03,
          6.38569612e-03, 7.02426536e-03, 4.78927186e-03, 5.42784156e-03,
          6.06641127e-03, 6.06641127e-03, 4.15070215e-03, 4.46998700e-03,
          7.34355021e-03, 6.38569612e-03, 4.15070215e-03, 4.78927186e-03 ]
      - [ 4.27960046e-03, 4.27960046e-03, 4.75511188e-03, 9.03471280e-03,
          5.23062330e-03, 1.42653356e-03, 3.32857831e-03, 4.27960046e-03,
          5.70613425e-03, 1.04612466e-02, 1.23632904e-02, 5.70613425e-03,
          5.70613425e-03, 3.80408950e-03, 9.03471280e-03, 5.70613425e-03,
          3.80408950e-03, 3.32857831e-03, 5.23062330e-03, 8.55920091e-03,
          4.27960046e-03, 7.13266805e-03, 8.08368996e-03, 1.90204475e-03,
          6.18164521e-03, 5.70613425e-03, 5.23062330e-03, 8.55920091e-03,
          5.23062330e-03, 4.75511188e-03, 8.08368996e-03, 8.08368996e-03,
          7.60817900e-03, 3.32857831e-03, 5.23062330e-03, 7.13266805e-03,
          4.75511188e-03, 8.55920091e-03, 6.65715663e-03, 4.27960046e-03,
          5.23062330e-03, 1.90204475e-03, 8.08368996e-03, 5.23062330e-03,
          6.65715663e-03, 4.27960046e-03, 6.18164521e-03, 2.23490261e-02,
          8.08368996e-03, 4.75511188e-03, 4.75511188e-03, 7.60817900e-03,
          9.51022375e-03, 1.90204475e-03, 5.70613425e-03, 1.04612466e-02,
          3.32857831e-03, 4.27960046e-03, 6.18164521e-03, 2.85306713e-03,
          3.80408950e-03, 7.13266805e-03, 3.80408950e-03, 3.80408950e-03,
          4.27960046e-03, 5.70613425e-03, 8.08368996e-03, 1.09367575e-02,
          2.85306713e-03, 1.71184018e-02, 3.32857831e-03, 3.80408950e-03,
          5.70613425e-03, 6.65715663e-03, 4.27960046e-03, 9.03471280e-03,
          9.98573471e-03, 6.65715663e-03, 1.42653361e-02, 9.03471280e-03,
          4.75511188e-03, 3.32857831e-03, 1.28388023e-02, 6.18164521e-03,
          1.42653356e-03, 5.70613425e-03, 7.60817900e-03, 1.09367575e-02,
          7.60817900e-03, 4.27960046e-03, 7.13266805e-03, 5.70613425e-03,
          4.27960046e-03, 3.80408950e-03, 1.42653356e-03, 3.80408950e-03,
          1.09367575e-02, 5.70613425e-03, 5.23062330e-03, 7.13266805e-03,
          6.65715663e-03, 6.18164521e-03, 7.60817900e-03, 5.23062330e-03,
          2.85306713e-03, 5.23062330e-03, 3.32857831e-03, 5.70613425e-03,
          3.80408950e-03, 1.09367575e-02, 1.04612466e-02, 3.80408950e-03,
          4.27960046e-03, 1.18877795e-02, 3.80408950e-03, 1.80694256e-02,
          2.37755594e-03, 3.32857831e-03, 9.98573471e-03, 5.70613425e-03,
          1.09367575e-02, 2.85306713e-03, 4.75511188e-03, 2.37755594e-03,
          3.80408950e-03, 9.98573471e-03, 4.75511188e-03, 9.51022375e-03,
          2.37755594e-03, 5.23062330e-03, 2.85306713e-03, 4.75511188e-03,
          2.85306713e-03, 5.23062330e-03, 6.18164521e-03, 3.80408950e-03,
          3.32857831e-03, 1.04612466e-02, 5.70613425e-03, 1.75939146e-02,
          3.80408950e-03, 7.13266805e-03, 5.70613425e-03, 8.55920091e-03,
          1.04612466e-02, 5.70613425e-03, 5.70613425e-03, 9.03471280e-03,
          6.65715663e-03, 5.70613425e-03, 7.13266805e-03, 3.80408950e-03,
          5.70613425e-03, 3.80408950e-03, 8.08368996e-03, 6.65715663e-03,
          4.75511188e-03, 7.60817900e-03, 2.37755594e-03, 4.75511188e-03 ]
      - [ 5.71102276e-03, 7.42432941e-03, 4.85436898e-03, 8.28098226e-03,
          4.56881803e-03, 5.99657372e-03, 3.14106233e-03, 5.42547135e-03,
          8.28098226e-03, 4.56881803e-03, 6.28212467e-03, 5.13992039e-03,
          6.28212467e-03, 5.71102276e-03, 9.70873795e-03, 7.99543131e-03,
          4.85436898e-03, 3.99771566e-03, 2.85551138e-03, 6.56767609e-03,
          4.56881803e-03, 5.13992039e-03, 6.56767609e-03, 4.85436898e-03,
          5.99657372e-03, 5.13992039e-03, 6.56767609e-03, 5.71102276e-03,
          4.28326707e-03, 9.13763605e-03, 7.13877799e-03, 4.56881803e-03,
          5.71102276e-03, 4.56881803e-03, 6.28212467e-03, 5.42547135e-03,
          6.28212467e-03, 5.71102276e-03, 7.42432941e-03, 8.56653415e-03,
          7.70988036e-03, 5.99657372e-03, 5.42547135e-03, 5.42547135e-03,
          9.70873795e-03, 1.17075965e-02, 9.42318700e-03, 3.71216470e-03,
          5.13992039e-03, 6.28212467e-03, 3.14106233e-03, 6.28212467e-03,
          8.56653415e-03, 6.28212467e-03, 2.28440901e-03, 5.71102276e-03,
          1.05653917e-02, 3.14106233e-03, 4.85436898e-03, 4.28326707e-03,
          8.85208510e-03, 5.42547135e-03, 5.71102276e-03, 6.28212467e-03,
          3.99771566e-03, 9.70873795e-03, 9.70873795e-03, 8.56653415e-03,
          5.99657372e-03, 7.99543131e-03, 7.42432941e-03, 7.42432941e-03,
          8.85208510e-03, 6.56767609e-03, 4.85436898e-03, 6.56767609e-03,
          8.56653415e-03, 5.13992039e-03, 7.42432941e-03, 6.56767609e-03,
          9.13763605e-03, 5.99657372e-03, 7.13877799e-03, 5.13992039e-03,
          4.28326707e-03, 6.28212467e-03, 4.85436898e-03, 8.28098226e-03,
          7.13877799e-03, 7.42432941e-03, 3.99771566e-03, 8.85208510e-03,
          5.42547135e-03, 7.99543131e-03, 6.85322704e-03, 8.28098226e-03,
          6.56767609e-03, 8.85208510e-03, 3.71216470e-03, 9.13763605e-03,
          3.42661352e-03, 4.85436898e-03, 5.99657372e-03, 9.42318700e-03,
          6.56767609e-03, 8.85208510e-03, 5.71102276e-03, 6.28212467e-03,
          5.42547135e-03, 4.85436898e-03, 7.99543131e-03, 5.99657372e-03,
          6.28212467e-03, 7.99543131e-03, 4.85436898e-03, 4.85436898e-03,
          5.42547135e-03, 5.71102276e-03, 4.85436898e-03, 3.99771566e-03,
          5.42547135e-03, 6.28212467e-03, 6.28212467e-03, 7.70988036e-03,
          6.85322704e-03, 5.13992039e-03, 7.70988036e-03, 2.85551138e-03,
          5.99657372e-03, 7.70988036e-03, 7.70988036e-03, 6.56767609e-03,
          5.42547135e-03, 6.56767609e-03, 4.85436898e-03, 5.13992039e-03,
          4.28326707e-03, 8.28098226e-03, 8.85208510e-03, 8.85208510e-03,
          6.85322704e-03, 6.56767609e-03, 6.28212467e-03, 4.28326707e-03,
          5.13992039e-03, 3.71216470e-03, 4.85436898e-03, 2.56996020e-03,
          5.71102276e-03, 7.13877799e-03, 6.85322704e-03, 3.99771566e-03,
          3.14106233e-03, 5.42547135e-03, 1.05653917e-02, 5.71102276e-03,
          8.28098226e-03, 7.42432941e-03, 4.28326707e-03, 3.42661352e-03 ]
      - [ 3.12066590e-03, 5.20110969e-03, 6.58807252e-03, 1.14424415e-02,
          4.85436898e-03, 5.54785039e-03, 6.24133181e-03, 3.81414709e-03,
          7.62829417e-03, 9.01525654e-03, 5.20110969e-03, 5.54785039e-03,
          4.85436898e-03, 4.16088756e-03, 5.54785039e-03, 5.54785039e-03,
          3.81414709e-03, 4.16088756e-03, 5.20110969e-03, 9.01525654e-03,
          4.85436898e-03, 6.24133181e-03, 5.89459110e-03, 6.93481322e-03,
          4.50762827e-03, 4.16088756e-03, 7.62829417e-03, 4.50762827e-03,
          7.62829417e-03, 7.28155347e-03, 7.62829417e-03, 5.54785039e-03,
          7.97503535e-03, 5.20110969e-03, 9.01525654e-03, 7.62829417e-03,
          1.00554787e-02, 1.17891822e-02, 4.85436898e-03, 6.93481322e-03,
          3.12066590e-03, 5.20110969e-03, 7.62829417e-03, 6.93481322e-03,
          4.50762827e-03, 9.36199725e-03, 8.32177512e-03, 9.70873795e-03,
          5.89459110e-03, 3.12066590e-03, 7.62829417e-03, 7.28155347e-03,
          1.00554787e-02, 4.50762827e-03, 4.50762827e-03, 9.01525654e-03,
          2.08044378e-03, 4.85436898e-03, 8.66851583e-03, 5.54785039e-03,
          9.70873795e-03, 1.07489601e-02, 4.16088756e-03, 2.77392520e-03,
          2.42718449e-03, 5.89459110e-03, 6.58807252e-03, 7.28155347e-03,
          3.46740661e-03, 1.62968114e-02, 4.16088756e-03, 4.85436898e-03,
          5.89459110e-03, 5.89459110e-03, 5.20110969e-03, 5.54785039e-03,
          1.31761450e-02, 9.70873795e-03, 7.62829417e-03, 4.85436898e-03,
          9.70873795e-03, 4.85436898e-03, 7.62829417e-03, 1.38696260e-03,
          2.42718449e-03, 6.58807252e-03, 5.20110969e-03, 7.97503535e-03,
          6.58807252e-03, 4.50762827e-03, 5.89459110e-03, 8.66851583e-03,
          7.97503535e-03, 7.62829417e-03, 2.42718449e-03, 6.93481322e-03,
          1.17891822e-02, 4.16088756e-03, 6.24133181e-03, 8.32177512e-03,
          6.58807252e-03, 3.46740661e-03, 4.85436898e-03, 3.81414709e-03,
          6.58807252e-03, 4.50762827e-03, 5.20110969e-03, 5.54785039e-03,
          3.81414709e-03, 9.36199725e-03, 1.24826636e-02, 5.89459110e-03,
          6.58807252e-03, 1.10957008e-02, 6.24133181e-03, 3.46740661e-03,
          4.50762827e-03, 3.46740661e-03, 1.04022194e-02, 2.42718449e-03,
          4.85436898e-03, 4.85436898e-03, 5.20110969e-03, 3.46740661e-03,
          6.24133181e-03, 9.36199725e-03, 7.28155347e-03, 3.81414709e-03,
          6.93481322e-03, 5.20110969e-03, 3.81414709e-03, 6.58807252e-03,
          7.62829417e-03, 2.77392520e-03, 5.89459110e-03, 5.20110969e-03,
          5.89459110e-03, 5.89459110e-03, 6.58807252e-03, 1.21359229e-02,
          6.24133181e-03, 6.58807252e-03, 7.62829417e-03, 9.36199725e-03,
          6.93481322e-03, 2.42718449e-03, 8.32177512e-03, 2.42718449e-03,
          4.50762827e-03, 6.24133181e-03, 1.00554787e-02, 1.38696260e-03,
          2.42718449e-03, 3.81414709e-03, 6.24133181e-03, 6.58807252e-03,
          7.28155347e-03, 7.28155347e-03, 5.20110969e-03, 5.20110969e-03 ]
      - [ 3.02216248e-03, 6.71591656e-03, 7.72330398e-03, 5.03693754e-03,
          4.02955012e-03, 5.70852915e-03, 2.01477506e-03, 5.03693754e-03,
          1.17528541e-02, 4.36534593e-03, 4.70114173e-03, 3.35795828e-03,
          6.04432495e-03, 5.37273334e-03, 6.71591656e-03, 5.70852915e-03,
          4.02955012e-03, 4.36534593e-03, 5.37273334e-03, 9.06648766e-03,
          6.71591656e-03, 6.38012076e-03, 7.38750817e-03, 5.03693754e-03,
          4.36534593e-03, 6.71591656e-03, 6.04432495e-03, 6.04432495e-03,
          7.38750817e-03, 7.72330398e-03, 8.05910025e-03, 6.38012076e-03,
          8.05910025e-03, 3.35795828e-03, 8.05910025e-03, 9.06648766e-03,
          6.38012076e-03, 4.70114173e-03, 5.70852915e-03, 8.05910025e-03,
          4.02955012e-03, 8.39489605e-03, 6.04432495e-03, 4.36534593e-03,
          5.70852915e-03, 9.06648766e-03, 8.73069186e-03, 6.04432495e-03,
          1.07454667e-02, 7.72330398e-03, 7.05171237e-03, 5.37273334e-03,
          5.70852915e-03, 7.05171237e-03, 4.36534593e-03, 4.36534593e-03,
          6.38012076e-03, 5.03693754e-03, 4.70114173e-03, 6.04432495e-03,
          8.73069186e-03, 8.73069186e-03, 5.37273334e-03, 5.70852915e-03,
          4.02955012e-03, 7.38750817e-03, 7.72330398e-03, 7.72330398e-03,
          2.35057087e-03, 1.10812625e-02, 7.05171237e-03, 8.05910025e-03,
          7.72330398e-03, 3.02216248e-03, 6.38012076e-03, 3.02216248e-03,
          8.73069186e-03, 4.70114173e-03, 9.40228347e-03, 5.70852915e-03,
          8.05910025e-03, 4.70114173e-03, 6.71591656e-03, 1.17528541e-02,
          3.69375409e-03, 6.38012076e-03, 5.70852915e-03, 6.38012076e-03,
          1.07454667e-02, 3.69375409e-03, 2.01477506e-03, 1.24244457e-02,
