%YAML:1.0
---
opencv_ml_svm:
   format: 3
   svmType: C_SVC
   kernel:
      type: LINEAR
   C: 1.
   term_criteria: { epsilon:9.9999999999999995e-07, iterations:100 }
   var_count: 160
   class_count: 2
   class_labels: !!opencv-matrix
      rows: 2
      cols: 1
      dt: i
      data: [ -1, 1 ]
   sv_total: 1
   support_vectors:
      - [ 1.11718453e-01, -5.37744015e-02, -6.65078878e-01,
          8.64692181e-02, -1.91630408e-01, -8.47887769e-02,
          -2.08665691e-02, 1.65906429e-01, -2.09350847e-02,
          1.01539396e-01, -4.64805096e-01, 2.94037610e-02,
          -3.71466130e-01, 1.50279537e-01, -5.14034510e-01,
          2.26094633e-01, 1.73847586e-01, 1.05439007e-01, 2.90392429e-01,
          -1.63386106e-01, -4.06031787e-01, -3.54839027e-01,
          1.13786474e-01, 1.81926697e-01, -3.57545167e-02,
          -3.00478399e-01, 4.32041474e-02, -3.64270777e-01,
          2.04542857e-02, 1.57842450e-02, -2.82097273e-02,
          1.21763200e-02, 9.64245126e-02, -4.03857112e-01,
          1.34349957e-01, -5.28486706e-02, -1.02333300e-01,
          -4.30535264e-02, -8.82018924e-01, 6.12898543e-03,
          -1.27800271e-01, -1.67364866e-01, 1.13337554e-01,
          -6.21685348e-02, 2.06157230e-02, 9.49022919e-02,
          9.71410200e-02, 1.87816113e-01, 1.00482360e-01, 3.20718661e-02,
          -2.06438169e-01, 1.01571716e-01, 2.40958557e-01,
          1.28953770e-01, 5.41158803e-02, 1.53282527e-02, 1.26756445e-01,
          -1.02385156e-01, 3.53555739e-01, 1.12206317e-01,
          8.43815133e-03, -1.11263301e-02, 8.20244402e-02,
          1.87080458e-01, -4.53138262e-01, 2.80796051e-01,
          3.00305307e-01, 7.68053234e-02, 1.27202615e-01,
          -3.77427101e-01, -8.08079203e-04, 1.20808026e-02,
          -6.31791428e-02, 3.43876719e-01, -3.70163679e-01,
          3.22262168e-01, -1.97653979e-01, 9.60279405e-02,
          -3.89952259e-03, 2.75537789e-01, -4.88216698e-01,
          9.03424770e-02, -4.55845743e-02, 1.60493091e-01,
          4.43195645e-03, 2.10165009e-01, 4.78574932e-02,
          -4.80350852e-02, 1.41638115e-01, 2.56851017e-01,
          1.06128948e-02, 8.52123052e-02, 5.63173816e-02, 2.66822308e-01,
          1.18582577e-01, 9.24640968e-02, 1.28005460e-01,
          -4.86156484e-03, -3.96414362e-02, 2.36776825e-02,
          1.96431398e-01, 1.00140683e-01, 1.49900705e-01, 3.57120000e-02,
          5.01980521e-02, -2.16790527e-01, -8.98393616e-02,
          -7.52797604e-01, 2.74694636e-02, 7.57342055e-02,
          9.52018350e-02, 1.87616572e-01, 1.76841175e-04, 1.06776088e-01,
          1.64980933e-01, -3.52516085e-01, 8.94221067e-02,
          1.90323278e-01, -3.08964014e-01, -5.01636267e-01,
          -6.09751642e-02, 1.39119625e-01, -2.24897899e-02,
          1.71805918e-02, 9.94421393e-02, -2.23330006e-01,
          1.78417396e-02, 2.11407438e-01, 1.51109263e-01,
          -5.28439544e-02, 4.67326585e-03, 2.75623007e-03,
          1.93748549e-01, 3.01337261e-02, 1.83325522e-02, 6.78584576e-02,
          3.05663884e-01, -4.42085750e-02, 5.67078926e-02,
          4.72648740e-02, -4.63008612e-01, 1.11294784e-01,
          -6.43567368e-02, -3.02086882e-02, 8.08160007e-02,
          2.83954199e-02, 7.33302236e-02, -5.28659336e-02,
          1.81883365e-01, 1.23344161e-01, 2.03660116e-01, 2.10882336e-01,
          -5.32152168e-02, -7.83696026e-02, 2.72655249e-01,
          2.88826615e-01, -6.56547174e-02, -2.96691120e-01,
          8.54934007e-02, -1.19841374e-01 ]
   uncompressed_sv_total: 200
   uncompressed_support_vectors:
      - [ 0., 0., 0., 0., 9.52380970e-02, 0., 0., 0., 0., 0., 0., 0., 0.,
          0., 0., 9.52380970e-02, 0., 0., 0., 0., 0., 0., 0., 0., 0., 0.,
          4.76190485e-02, 0., 0., 0., 0., 0., 0., 0., 0., 0., 0.,
          1.42857149e-01, 0., 0., 0., 0., 0., 0., 0., 0., 0., 0., 0., 0.,
          0., 0., 4.76190485e-02, 0., 0., 0., 0., 4.76190485e-02, 0., 0.,
          0., 0., 0., 0., 0., 0., 0., 0., 0., 0., 0., 0., 0., 0.,
          4.76190485e-02, 0., 0., 2.85714298e-01, 0., 0., 0., 0., 0., 0.,
          0., 0., 0., 0., 0., 0., 0., 0., 0., 0., 0., 0., 0., 0., 0., 0.,
          0., 0., 0., 0., 0., 4.76190485e-02, 0., 0., 0., 0., 0., 0., 0.,
          0., 0., 0., 0., 0., 0., 0., 0., 0., 0., 0., 0., 0., 0., 0., 0.,
          0., 0., 0., 0., 0., 0., 0., 0., 4.76190485e-02, 0., 0., 0., 0.,
          0., 0., 0., 0., 0., 0., 0., 0., 0., 0., 0., 0., 0., 0., 0., 0.,
          9.52380970e-02, 0. ]
      - [ 2.83286115e-03, 2.83286115e-03, 7.08215311e-03, 7.08215311e-03,
          1.13314446e-02, 2.83286115e-03, 4.24929149e-03, 2.83286115e-03,
          8.49858299e-03, 8.49858299e-03, 1.41643062e-02, 9.91501380e-03,
          4.24929149e-03, 8.49858299e-03, 2.83286115e-03, 1.69971660e-02,
          7.08215311e-03, 0., 8.49858299e-03, 1.55807361e-02,
          1.27478754e-02, 5.66572230e-03, 4.24929149e-03, 3.54107656e-02,
          1.41643058e-03, 1.13314446e-02, 8.49858299e-03, 1.41643058e-03,
          1.41643062e-02, 2.83286115e-03, 4.24929149e-03, 1.55807361e-02,
          7.08215311e-03, 5.66572230e-03, 0., 1.41643058e-03,
          2.83286115e-03, 8.49858299e-03, 1.41643058e-03, 2.83286115e-03,
          4.24929149e-03, 1.41643058e-03, 4.24929149e-03, 1.27478754e-02,
          2.83286115e-03, 1.13314446e-02, 7.08215311e-03, 1.27478754e-02,
          9.91501380e-03, 7.08215311e-03, 9.91501380e-03, 0.,
          4.24929149e-03, 2.83286115e-03, 5.66572230e-03, 1.41643058e-03,
          8.49858299e-03, 2.54957508e-02, 9.91501380e-03, 1.41643058e-03,
          8.49858299e-03, 9.91501380e-03, 8.49858299e-03, 4.24929149e-03,
          1.41643058e-03, 2.83286115e-03, 2.83286115e-03, 4.24929149e-03,
          4.24929149e-03, 4.24929149e-03, 5.66572230e-03, 4.24929149e-03,
          4.24929149e-03, 2.83286115e-03, 5.66572230e-03, 1.41643058e-03,
          4.24929149e-03, 1.13314446e-02, 1.41643058e-03, 2.83286115e-03,
          1.27478754e-02, 0., 1.41643058e-03, 2.83286115e-03,
          2.69121807e-02, 4.24929149e-03, 5.66572230e-03, 7.08215311e-03,
          7.08215311e-03, 2.83286115e-03, 8.49858299e-03, 4.24929149e-03,
          5.66572230e-03, 5.66572230e-03, 1.41643058e-03, 0.,
          1.41643058e-03, 5.66572230e-03, 7.08215311e-03, 2.83286115e-03,
          4.24929149e-03, 4.24929149e-03, 4.24929149e-03, 4.24929149e-03,
          4.24929149e-03, 1.41643062e-02, 1.41643058e-03, 2.83286115e-03,
          4.24929149e-03, 1.69971660e-02, 7.08215311e-03, 7.08215311e-03,
          2.12464593e-02, 2.83286115e-03, 1.41643058e-03, 1.27478754e-02,
          0., 5.66572230e-03, 4.24929149e-03, 1.13314446e-02,
          7.08215311e-03, 1.41643062e-02, 4.24929149e-03, 1.41643058e-03,
          2.83286115e-03, 2.83286115e-03, 1.41643058e-03, 1.41643062e-02,
          1.41643058e-03, 2.83286115e-03, 0., 4.24929149e-03,
          1.41643058e-03, 2.83286115e-03, 1.27478754e-02, 9.91501380e-03,
          5.66572230e-03, 9.91501380e-03, 5.66572230e-03, 2.12464593e-02,
          1.27478754e-02, 1.41643058e-03, 7.08215311e-03, 1.27478754e-02,
          5.66572230e-03, 0., 5.66572230e-03, 4.24929149e-03, 0.,
          7.08215311e-03, 2.83286115e-03, 4.24929149e-03, 2.83286115e-03,
          0., 2.83286115e-03, 5.66572230e-03, 2.83286115e-03,
          4.24929149e-03, 1.41643058e-03, 1.13314446e-02 ]
      - [ 0., 0., 0., 0., 0., 0., 0., 0., 0., 0., 0., 3.33333343e-01, 0.,
          0., 0., 0., 0., 0., 0., 0., 0., 0., 0., 0., 0., 0., 0., 0., 0.,
          0., 0., 0., 0., 0., 0., 0., 0., 0., 0., 0., 0., 0., 0., 0., 0.,
          0., 0., 0., 0., 3.33333343e-01, 0., 0., 0., 0., 0., 0., 0., 0.,
          0., 0., 0., 0., 0., 0., 0., 0., 0., 0., 0., 0., 0., 0., 0., 0.,
          0., 0., 0., 0., 0., 0., 0., 0., 0., 0., 0., 0., 0., 0., 0., 0.,
          0., 0., 0., 0., 0., 0., 0., 0., 0., 0., 0., 0., 0., 0., 0.,
          3.33333343e-01, 0., 0., 0., 0., 0., 0., 0., 0., 0., 0., 0., 0.,
          0., 0., 0., 0., 0., 0., 0., 0., 0., 0., 0., 0., 0., 0., 0., 0.,
          0., 0., 0., 0., 0., 0., 0., 0., 0., 0., 0., 0., 0., 0., 0., 0.,
          0., 0., 0., 0., 0., 0., 0., 0., 0., 0. ]
      - [ 0., 1.52671756e-03, 9.16030537e-03, 1.52671756e-03,
          2.29007639e-02, 0., 1.52671756e-03, 4.58015269e-03,
          3.05343512e-03, 6.10687025e-03, 1.52671756e-03, 3.05343512e-03,
          0., 3.05343512e-03, 1.06870234e-02, 2.29007639e-02,
          1.22137405e-02, 7.63358781e-03, 4.58015269e-03, 3.05343512e-03,
          2.29007639e-02, 1.52671756e-03, 1.67938937e-02, 2.59541981e-02,
          1.52671756e-03, 6.10687025e-03, 1.83206107e-02, 4.58015269e-03,
          3.05343512e-03, 0., 1.98473278e-02, 3.05343512e-03,
          4.58015269e-03, 7.63358781e-03, 9.16030537e-03, 4.58015269e-03,
          0., 1.67938937e-02, 3.05343512e-03, 0., 1.37404576e-02, 0.,
          3.05343512e-03, 4.58015269e-03, 0., 1.98473278e-02,
          1.52671756e-03, 1.22137405e-02, 3.05343512e-02, 1.52671756e-02,
          0., 1.52671756e-02, 7.63358781e-03, 6.10687025e-03,
          1.06870234e-02, 1.52671756e-03, 1.52671756e-03, 1.67938937e-02,
          0., 6.10687025e-03, 2.13740468e-02, 3.05343512e-03,
          4.58015269e-03, 0., 4.58015269e-03, 1.52671756e-03,
          1.52671756e-03, 1.67938937e-02, 0., 1.52671756e-03,
          7.63358781e-03, 1.52671756e-03, 0., 1.06870234e-02,
          3.05343512e-03, 0., 6.10687025e-03, 2.74809152e-02, 0.,
          4.58015269e-03, 6.10687025e-03, 0., 0., 3.05343512e-03,
          4.88549620e-02, 4.58015269e-03, 1.52671756e-03, 1.52671756e-03,
          3.05343512e-03, 6.10687025e-03, 3.05343512e-03, 0., 0.,
          1.52671756e-03, 0., 7.63358781e-03, 1.52671756e-03,
          3.05343512e-03, 1.52671756e-03, 1.52671756e-03, 0.,
          7.63358781e-03, 4.58015269e-03, 7.63358781e-03, 1.06870234e-02,
          1.37404576e-02, 1.06870234e-02, 3.05343512e-03, 0.,
          4.58015269e-03, 1.52671756e-03, 3.05343512e-03, 1.22137405e-02,
          1.52671756e-03, 1.52671756e-03, 1.22137405e-02, 1.06870234e-02,
          6.10687025e-03, 0., 2.44274810e-02, 3.05343512e-03,
          4.58015269e-03, 4.58015269e-03, 0., 3.05343512e-03, 0.,
          1.52671756e-03, 3.05343512e-03, 0., 0., 4.58015269e-03,
          3.05343512e-03, 4.58015269e-03, 3.05343512e-03, 1.52671756e-03,
          1.52671756e-03, 9.16030537e-03, 1.83206107e-02, 1.98473278e-02,
          0., 1.06870234e-02, 0., 4.58015269e-03, 9.16030537e-03,
          4.58015269e-03, 0., 1.52671756e-03, 1.52671756e-03,
          1.52671756e-03, 0., 7.63358781e-03, 6.10687025e-03,
          1.22137405e-02, 1.52671756e-03, 0., 7.63358781e-03,
          3.05343512e-03, 1.83206107e-02, 2.13740468e-02, 1.52671756e-03 ]
      - [ 0., 0., 0., 0., 3.84615399e-02, 0., 0., 0., 0., 0., 0.,
          3.84615399e-02, 0., 0., 0., 0., 0., 0., 0., 3.84615399e-02, 0.,
          0., 0., 0., 0., 0., 3.84615399e-02, 0., 0., 0., 3.84615399e-02,
          0., 0., 0., 0., 0., 0., 3.84615399e-02, 0., 0., 0., 0., 0., 0.,
          0., 0., 3.84615399e-02, 0., 0., 0., 3.84615399e-02, 0., 0., 0.,
          0., 0., 0., 0., 0., 0., 3.84615399e-02, 3.84615399e-02, 0., 0.,
          0., 0., 0., 0., 0., 0., 0., 0., 0., 0., 0., 0., 0.,
          7.69230798e-02, 3.84615399e-02, 0., 3.84615399e-02, 0., 0., 0.,
          0., 0., 0., 3.84615399e-02, 0., 0., 0., 0., 0., 0., 0.,
          3.84615399e-02, 0., 0., 0., 0., 0., 3.84615399e-02, 0., 0., 0.,
          0., 0., 0., 0., 0., 0., 0., 0., 0., 0., 0., 0., 0., 0.,
          3.84615399e-02, 7.69230798e-02, 0., 0., 0., 0., 0., 0., 0., 0.,
          0., 0., 0., 3.84615399e-02, 0., 0., 3.84615399e-02, 0., 0., 0.,
          0., 0., 0., 0., 0., 0., 0., 0., 0., 0., 0., 0., 7.69230798e-02,
          0., 0., 0., 0., 0., 0., 3.84615399e-02, 3.84615399e-02 ]
      - [ 0., 0., 1.02040814e-02, 0., 1.53061226e-02, 5.10204071e-03, 0.,
          5.10204071e-03, 0., 0., 0., 5.10204071e-03, 5.10204071e-03,
          5.10204071e-03, 0., 2.55102031e-02, 5.10204071e-03,
          1.02040814e-02, 0., 0., 4.08163257e-02, 1.02040814e-02, 0.,
          1.02040814e-02, 0., 0., 1.53061226e-02, 0., 0., 5.10204071e-03,
          5.10204071e-03, 0., 1.02040814e-02, 1.02040814e-02, 0.,
          1.02040814e-02, 0., 3.06122452e-02, 0., 0., 2.55102031e-02, 0.,
          0., 5.10204071e-03, 0., 5.10204071e-03, 1.53061226e-02,
          5.10204071e-03, 2.55102031e-02, 1.53061226e-02, 0.,
          1.02040814e-02, 1.02040814e-02, 5.10204071e-03, 0., 0.,
          1.02040814e-02, 0., 0., 1.53061226e-02, 1.53061226e-02, 0.,
          1.53061226e-02, 5.10204071e-03, 0., 0., 0., 1.02040814e-02,
          5.10204071e-03, 0., 5.10204071e-03, 0., 1.53061226e-02,
          1.02040814e-02, 5.10204071e-03, 5.10204071e-03, 5.10204071e-03,
          5.10204071e-03, 1.02040814e-02, 0., 5.10204071e-03, 0., 0.,
          5.10204071e-03, 1.02040814e-02, 1.02040814e-02, 0.,
          1.02040814e-02, 5.10204071e-03, 1.53061226e-02, 5.10204071e-03,
          1.02040814e-02, 5.10204071e-03, 1.53061226e-02, 0., 0., 0., 0.,
          0., 0., 0., 5.10204071e-03, 3.06122452e-02, 5.10204071e-03, 0.,
          3.06122452e-02, 1.53061226e-02, 0., 0., 0., 5.10204071e-03, 0.,
          2.55102031e-02, 1.02040814e-02, 0., 3.06122452e-02,
          1.02040814e-02, 5.10204071e-03, 0., 1.02040814e-02, 0., 0.,
          1.02040814e-02, 0., 5.10204071e-03, 0., 0., 1.02040814e-02,
          5.10204071e-03, 0., 5.10204071e-03, 0., 1.02040814e-02,
          5.10204071e-03, 5.10204071e-03, 0., 5.10204071e-03,
          1.53061226e-02, 5.10204071e-03, 5.10204071e-03, 2.04081628e-02,
          5.10204071e-03, 1.02040814e-02, 5.10204071e-03, 0., 0., 0., 0.,
          0., 1.02040814e-02, 1.02040814e-02, 1.53061226e-02,
          1.02040814e-02, 0., 5.10204071e-03, 5.10204071e-03, 0.,
          2.04081628e-02, 1.53061226e-02, 0. ]
      - [ 0., 0., 7.22021656e-03, 0., 3.61010828e-03, 3.61010828e-03, 0.,
          3.61010828e-03, 0., 3.61010828e-03, 0., 7.22021656e-03,
          3.61010828e-03, 7.22021656e-03, 3.61010828e-03, 1.44404331e-02,
          7.22021656e-03, 3.61010828e-03, 3.61010828e-03, 1.08303251e-02,
          1.44404331e-02, 0., 1.08303251e-02, 4.33213003e-02,
          7.22021656e-03, 0., 2.16606501e-02, 0., 7.22021656e-03, 0.,
          1.80505421e-02, 1.44404331e-02, 7.22021656e-03, 7.22021656e-03,
          7.22021656e-03, 7.22021656e-03, 0., 1.44404331e-02, 0., 0.,
          3.61010828e-03, 7.22021656e-03, 0., 1.44404331e-02,
          3.61010828e-03, 3.61010828e-03, 0., 1.80505421e-02, 0.,
          3.61010828e-03, 0., 7.22021656e-03, 1.08303251e-02,
          3.61010828e-03, 3.61010828e-03, 0., 7.22021656e-03,
          1.08303251e-02, 3.61010828e-03, 0., 7.22021656e-03, 0.,
          1.08303251e-02, 0., 0., 3.61010828e-03, 3.61010828e-03,
          7.22021656e-03, 0., 0., 0., 0., 0., 0., 3.61010828e-03,
          3.61010828e-03, 0., 1.80505421e-02, 0., 3.61010828e-03,
          1.08303251e-02, 0., 0., 2.16606501e-02, 6.49819523e-02,
          3.61010828e-03, 7.22021656e-03, 3.61010828e-03, 0.,
          3.61010828e-03, 3.61010828e-03, 0., 1.08303251e-02, 0., 0., 0.,
          0., 3.61010828e-03, 0., 3.61010828e-03, 0., 7.22021656e-03, 0.,
          0., 0., 7.22021656e-03, 7.22021656e-03, 3.61010828e-03,
          3.61010828e-03, 1.80505421e-02, 7.22021656e-03, 0.,
          3.97111923e-02, 7.22021656e-03, 0., 1.80505421e-02,
          3.61010828e-03, 3.61010828e-03, 7.22021656e-03, 1.44404331e-02,
          3.61010828e-03, 1.44404331e-02, 3.61010828e-03, 1.08303251e-02,
          3.61010828e-03, 3.61010828e-03, 0., 1.08303251e-02,
          3.61010828e-03, 3.61010828e-03, 7.22021656e-03, 0.,
          7.22021656e-03, 0., 3.97111923e-02, 0., 3.61010828e-03,
          2.88808662e-02, 1.80505421e-02, 3.24909762e-02, 1.08303251e-02,
          3.61010828e-03, 0., 1.80505421e-02, 7.22021656e-03, 0.,
          7.22021656e-03, 7.22021656e-03, 0., 7.22021656e-03, 0., 0.,
          1.08303251e-02, 0., 3.61010828e-03, 3.61010828e-03, 0.,
          7.22021656e-03, 7.22021656e-03, 0. ]
      - [ 0., 0., 1.40845068e-02, 0., 1.40845068e-02, 0., 0., 0.,
          1.40845068e-02, 0., 0., 1.40845068e-02, 0., 2.81690136e-02,
          1.40845068e-02, 4.22535203e-02, 0., 0., 0., 1.40845068e-02,
          4.22535203e-02, 0., 1.40845068e-02, 0., 0., 0., 1.40845068e-02,
          0., 5.63380271e-02, 0., 0., 8.45070407e-02, 0., 0., 0., 0., 0.,
          1.40845068e-02, 0., 0., 1.40845068e-02, 0., 0., 0., 0.,
          1.40845068e-02, 0., 0., 0., 0., 0., 0., 1.40845068e-02, 0.,
          1.40845068e-02, 0., 0., 4.22535203e-02, 0., 1.40845068e-02, 0.,
          1.40845068e-02, 0., 0., 0., 0., 0., 1.40845068e-02, 0., 0., 0.,
          0., 0., 1.40845068e-02, 4.22535203e-02, 0., 0., 2.81690136e-02,
          1.40845068e-02, 0., 0., 0., 0., 1.40845068e-02, 1.40845068e-02,
          0., 1.40845068e-02, 1.40845068e-02, 1.40845068e-02, 0., 0., 0.,
          0., 0., 2.81690136e-02, 0., 0., 0., 0., 0., 0., 1.40845068e-02,
          1.40845068e-02, 1.40845068e-02, 1.40845068e-02, 0., 0., 0.,
          1.40845068e-02, 0., 0., 1.40845068e-02, 0., 0., 0., 0.,
          1.40845068e-02, 0., 0., 1.40845068e-02, 0., 0., 0.,
          1.40845068e-02, 0., 0., 0., 0., 1.40845068e-02, 0., 0., 0., 0.,
          1.40845068e-02, 0., 0., 0., 5.63380271e-02, 0., 0., 0., 0.,
          1.40845068e-02, 0., 0., 1.40845068e-02, 0., 0., 0.,
          2.81690136e-02, 0., 0., 0., 0., 0., 1.40845068e-02, 0., 0., 0.,
          0. ]
      - [ 0., 7.63358781e-03, 7.63358781e-03, 7.63358781e-03,
          4.58015278e-02, 0., 0., 7.63358781e-03, 7.63358781e-03, 0., 0.,
          0., 7.63358781e-03, 0., 7.63358781e-03, 1.52671756e-02,
          7.63358781e-03, 0., 0., 0., 6.10687025e-02, 7.63358781e-03,
          1.52671756e-02, 1.52671756e-02, 0., 0., 0., 0., 0., 0.,
          7.63358781e-03, 0., 0., 1.52671756e-02, 7.63358781e-03, 0.,
          1.52671756e-02, 3.81679386e-02, 0., 0., 3.05343512e-02, 0., 0.,
          1.52671756e-02, 1.52671756e-02, 0., 7.63358781e-03,
          7.63358781e-03, 1.52671756e-02, 0., 0., 1.52671756e-02,
          7.63358781e-03, 7.63358781e-03, 7.63358781e-03, 0.,
          7.63358781e-03, 0., 0., 7.63358781e-03, 1.52671756e-02, 0., 0.,
          0., 0., 7.63358781e-03, 0., 3.81679386e-02, 0., 0., 0., 0., 0.,
          0., 0., 0., 7.63358781e-03, 2.29007639e-02, 1.52671756e-02, 0.,
          0., 0., 0., 0., 3.81679386e-02, 0., 7.63358781e-03, 0., 0., 0.,
          0., 0., 1.52671756e-02, 0., 7.63358781e-03, 7.63358781e-03, 0.,
          7.63358781e-03, 0., 0., 1.52671756e-02, 2.29007639e-02,
          7.63358781e-03, 0., 7.63358781e-03, 3.05343512e-02,
          1.52671756e-02, 0., 7.63358781e-03, 7.63358781e-03,
          1.52671756e-02, 0., 7.63358781e-03, 7.63358781e-03, 0.,
          7.63358781e-03, 0., 0., 0., 0., 0., 0., 0., 0., 0., 0., 0.,
          2.29007639e-02, 0., 0., 7.63358781e-03, 1.52671756e-02,
          7.63358781e-03, 0., 0., 0., 7.63358781e-03, 0., 2.29007639e-02,
          0., 1.52671756e-02, 0., 0., 7.63358781e-03, 0., 0., 0.,
          7.63358781e-03, 7.63358781e-03, 0., 0., 7.63358781e-03,
          1.52671756e-02, 0., 7.63358781e-03, 7.63358781e-03, 0.,
          3.05343512e-02, 1.52671756e-02, 0. ]
      - [ 0., 2.32558139e-03, 9.30232555e-03, 2.32558139e-03,
          3.02325580e-02, 4.65116277e-03, 0., 2.32558139e-03, 0.,
          6.97674416e-03, 0., 9.30232555e-03, 2.32558139e-03,
          2.32558139e-03, 2.32558139e-03, 2.09302325e-02, 2.32558139e-03,
          0., 4.65116277e-03, 4.65116277e-03, 1.39534883e-02, 0.,
          9.30232555e-03, 4.41860482e-02, 6.97674416e-03, 4.65116277e-03,
          2.55813953e-02, 4.65116277e-03, 0., 9.30232555e-03,
          6.97674416e-03, 0., 2.32558139e-03, 1.16279069e-02,
          6.97674416e-03, 0., 0., 2.32558139e-02, 4.65116277e-03,
          4.65116277e-03, 1.16279069e-02, 0., 0., 6.97674416e-03, 0.,
          1.62790697e-02, 1.16279069e-02, 9.30232555e-03, 2.09302325e-02,
          1.16279069e-02, 2.32558139e-03, 1.16279069e-02, 1.62790697e-02,
          2.32558139e-03, 6.97674416e-03, 2.32558139e-03, 4.65116277e-03,
          1.39534883e-02, 0., 9.30232555e-03, 1.39534883e-02, 0.,
          2.32558139e-03, 2.32558139e-03, 6.97674416e-03, 2.32558139e-03,
          0., 4.65116277e-03, 0., 4.65116277e-03, 2.32558139e-03,
          2.32558139e-03, 0., 4.65116277e-03, 2.32558139e-03,
          2.32558139e-03, 0., 3.95348817e-02, 6.97674416e-03,
          2.32558139e-03, 1.62790697e-02, 0., 0., 6.97674416e-03,
          3.02325580e-02, 2.32558139e-03, 0., 2.32558139e-03,
          4.65116277e-03, 4.65116277e-03, 4.65116277e-03, 2.32558139e-03,
          2.32558139e-03, 4.65116277e-03, 4.65116277e-03, 6.97674416e-03,
          0., 2.32558139e-03, 0., 2.32558139e-03, 2.32558139e-03,
          1.86046511e-02, 6.97674416e-03, 2.32558139e-03, 4.65116277e-03,
          2.55813953e-02, 4.65116277e-03, 4.65116277e-03, 9.30232555e-03,
          2.32558139e-03, 4.65116277e-03, 2.32558139e-03, 9.30232555e-03,
          2.32558139e-03, 0., 1.86046511e-02, 1.39534883e-02,
          6.97674416e-03, 0., 1.16279069e-02, 0., 2.32558139e-03, 0., 0.,
          2.32558139e-03, 0., 0., 2.32558139e-03, 0., 0., 4.65116277e-03,
          2.32558139e-03, 1.39534883e-02, 2.32558139e-03, 0.,
          2.32558139e-03, 4.65116277e-03, 3.02325580e-02, 9.30232555e-03,
          2.32558139e-03, 1.39534883e-02, 1.16279069e-02, 4.65116277e-03,
          4.65116277e-03, 6.97674416e-03, 4.65116277e-03, 0., 0.,
          2.32558139e-03, 2.32558139e-03, 6.97674416e-03, 1.16279069e-02,
          1.86046511e-02, 4.65116277e-03, 0., 4.65116277e-03,
          9.30232555e-03, 1.16279069e-02, 9.30232555e-03, 0. ]
      - [ 0., 0., 0., 0., 0., 0., 0., 0., 0., 0., 0., 0., 0., 0., 0., 0.,
          0., 0., 3.12500000e-02, 3.12500000e-02, 6.25000000e-02, 0.,
          3.12500000e-02, 3.12500000e-02, 0., 0., 0., 0., 0., 0.,
          3.12500000e-02, 0., 3.12500000e-02, 0., 3.12500000e-02,
          6.25000000e-02, 0., 0., 0., 0., 0., 3.12500000e-02, 0.,
          3.12500000e-02, 0., 0., 0., 0., 0., 0., 0., 0., 0., 0.,
          6.25000000e-02, 0., 0., 0., 0., 0., 6.25000000e-02, 0.,
          3.12500000e-02, 0., 0., 0., 0., 0., 0., 0., 0., 0., 0., 0., 0.,
          0., 3.12500000e-02, 0., 0., 3.12500000e-02, 0., 0., 0., 0.,
          2.18750000e-01, 0., 0., 0., 0., 0., 0., 0., 0., 0., 0., 0., 0.,
          3.12500000e-02, 0., 0., 0., 0., 0., 0., 0., 0., 0., 0., 0., 0.,
          0., 0., 3.12500000e-02, 0., 0., 0., 0., 0., 0., 3.12500000e-02,
          0., 0., 0., 0., 0., 0., 0., 0., 0., 0., 0., 0., 0., 0., 0., 0.,
          0., 0., 0., 0., 0., 0., 0., 3.12500000e-02, 0., 0., 0., 0., 0.,
          0., 0., 0., 0., 0., 0., 0., 0., 3.12500000e-02, 0., 0. ]
      - [ 0., 0., 0., 0., 1.61662810e-02, 2.30946881e-03, 0.,
          2.30946881e-03, 4.61893762e-03, 4.61893762e-03, 2.30946881e-03,
          0., 4.61893762e-03, 1.38568133e-02, 4.61893762e-03,
          3.00230943e-02, 2.30946881e-03, 4.61893762e-03, 4.61893762e-03,
          9.23787523e-03, 1.15473438e-02, 4.61893762e-03, 1.38568133e-02,
          6.46651238e-02, 0., 4.61893762e-03, 1.38568133e-02, 0.,
          2.30946881e-03, 2.30946881e-03, 9.23787523e-03, 2.07852200e-02,
          1.61662810e-02, 2.30946881e-03, 0., 0., 0., 1.84757505e-02, 0.,
          0., 6.92840666e-03, 0., 0., 1.84757505e-02, 2.30946881e-03, 0.,
          0., 2.30946881e-03, 9.23787523e-03, 0., 2.30946881e-03, 0.,
          1.15473438e-02, 2.30946881e-03, 2.30946881e-03, 0.,
          2.30946881e-03, 2.07852200e-02, 9.23787523e-03, 2.30946881e-03,
          4.61893762e-03, 6.92840666e-03, 4.61893762e-03, 0., 0.,
          2.30946881e-03, 0., 0., 2.30946881e-03, 0., 2.30946881e-03,
          2.30946881e-03, 0., 9.23787523e-03, 2.30946881e-03,
          4.61893762e-03, 0., 3.92609686e-02, 2.30946881e-03,
          2.30946881e-03, 2.30946876e-02, 0., 0., 9.23787523e-03,
          9.00692865e-02, 9.23787523e-03, 4.61893762e-03, 6.92840666e-03,
          2.30946881e-03, 4.61893762e-03, 2.30946881e-03, 2.30946881e-03,
          6.92840666e-03, 1.38568133e-02, 0., 0., 0., 2.30946881e-03,
          2.30946881e-03, 0., 2.30946881e-03, 2.30946881e-03,
          4.61893762e-03, 6.92840666e-03, 2.30946881e-03, 1.15473438e-02,
          0., 0., 0., 2.07852200e-02, 2.30946876e-02, 6.92840666e-03,
          1.84757505e-02, 6.92840666e-03, 0., 1.61662810e-02,
          6.92840666e-03, 9.23787523e-03, 0., 2.30946876e-02, 0.,
          1.38568133e-02, 0., 2.30946881e-03, 4.61893762e-03, 0., 0.,
          1.84757505e-02, 2.30946881e-03, 0., 2.30946881e-03,
          2.30946881e-03, 2.30946881e-03, 4.61893762e-03, 4.61893762e-03,
          6.92840666e-03, 0., 1.15473438e-02, 9.23787523e-03,
          2.54041571e-02, 4.61893762e-03, 2.30946881e-03, 0.,
          1.15473438e-02, 4.61893762e-03, 0., 0., 9.23787523e-03,
          2.30946881e-03, 1.38568133e-02, 2.30946881e-03, 2.30946881e-03,
          0., 0., 0., 0., 0., 4.61893762e-03, 1.38568133e-02,
          6.92840666e-03 ]
      - [ 4.52488707e-03, 3.39366542e-03, 4.52488707e-03, 1.58371050e-02,
          2.26244354e-03, 3.39366542e-03, 4.52488707e-03, 6.78733084e-03,
          6.78733084e-03, 2.26244354e-03, 5.65610873e-03, 6.78733084e-03,
          3.39366542e-03, 1.13122177e-03, 3.39366542e-03, 2.26244354e-03,
          1.13122175e-02, 5.65610873e-03, 7.91855250e-03, 5.65610873e-03,
          3.84615399e-02, 4.52488707e-03, 9.04977415e-03, 9.04977415e-03,
          2.26244354e-03, 2.26244354e-03, 2.26244354e-03, 2.26244354e-03,
          6.78733084e-03, 1.13122177e-03, 2.26244354e-03, 2.26244354e-03,
          1.01809958e-02, 0., 6.78733084e-03, 2.26244349e-02,
          3.39366542e-03, 4.52488707e-03, 4.52488707e-03, 7.91855250e-03,
          5.65610873e-03, 4.52488707e-03, 3.39366542e-03, 7.91855250e-03,
          1.01809958e-02, 1.47058833e-02, 9.04977415e-03, 7.91855250e-03,
          1.80995483e-02, 2.26244354e-03, 3.39366542e-03, 1.13122175e-02,
          2.26244354e-03, 7.91855250e-03, 1.47058833e-02, 1.13122177e-03,
          7.91855250e-03, 7.91855250e-03, 1.13122177e-03, 1.13122177e-03,
          1.92307699e-02, 3.39366542e-03, 3.39366542e-03, 2.26244354e-03,
          5.65610873e-03, 5.65610873e-03, 4.52488707e-03, 4.52488707e-03,
          1.80995483e-02, 7.91855250e-03, 6.78733084e-03, 2.26244354e-03,
          4.52488707e-03, 4.52488707e-03, 3.39366542e-03, 2.26244354e-03,
          2.26244354e-03, 4.52488707e-03, 4.52488707e-03, 6.78733084e-03,
          6.78733084e-03, 6.78733084e-03, 4.52488707e-03, 2.03619916e-02,
          1.47058833e-02, 4.52488707e-03, 6.78733084e-03, 7.91855250e-03,
          6.78733084e-03, 1.13122177e-03, 2.03619916e-02, 5.65610873e-03,
          1.01809958e-02, 3.39366542e-03, 7.91855250e-03, 5.65610873e-03,
          2.26244354e-03, 1.13122177e-03, 1.13122177e-03, 3.39366542e-03,
          6.78733084e-03, 1.24434391e-02, 1.13122177e-03, 1.01809958e-02,
          3.39366542e-03, 2.26244354e-03, 3.39366542e-03, 5.65610873e-03,
          3.39366542e-03, 6.78733084e-03, 7.91855250e-03, 0.,
          4.52488707e-03, 2.26244354e-03, 1.13122175e-02, 4.52488707e-03,
          0., 1.47058833e-02, 1.13122177e-03, 1.35746617e-02,
          1.35746617e-02, 2.26244354e-03, 1.24434391e-02, 3.39366542e-03,
          2.26244354e-03, 2.26244354e-03, 5.65610873e-03, 4.52488707e-03,
          2.26244354e-03, 3.39366542e-03, 2.26244354e-03, 5.65610873e-03,
          1.13122177e-03, 1.13122177e-03, 2.26244354e-03, 5.65610873e-03,
          1.35746617e-02, 9.04977415e-03, 9.04977415e-03, 2.26244354e-03,
          5.65610873e-03, 2.26244354e-03, 3.39366542e-03, 1.80995483e-02,
          1.24434391e-02, 2.26244354e-03, 3.39366542e-03, 1.13122175e-02,
          2.26244354e-03, 1.13122177e-03, 4.52488707e-03, 1.58371050e-02,
          5.65610873e-03, 1.13122177e-03, 4.52488707e-03, 1.01809958e-02,
          0., 1.24434391e-02, 1.13122177e-03, 1.24434391e-02 ]
      - [ 0., 0., 0., 0., 7.93650821e-02, 1.58730168e-02, 0., 0.,
          1.58730168e-02, 0., 0., 0., 0., 0., 0., 3.17460336e-02,
          1.58730168e-02, 0., 0., 0., 3.17460336e-02, 0., 0., 0., 0., 0.,
          0., 0., 1.58730168e-02, 1.58730168e-02, 3.17460336e-02,
          1.58730168e-02, 0., 0., 1.58730168e-02, 1.58730168e-02, 0.,
          6.34920672e-02, 0., 0., 0., 0., 0., 0., 0., 0., 0.,
          1.58730168e-02, 3.17460336e-02, 0., 0., 0., 0., 0.,
          1.58730168e-02, 0., 0., 0., 0., 1.58730168e-02, 3.17460336e-02,
          0., 0., 0., 0., 0., 0., 0., 0., 1.58730168e-02, 1.58730168e-02,
          0., 0., 0., 0., 0., 0., 1.58730168e-02, 0., 0., 1.58730168e-02,
          0., 0., 0., 1.58730168e-02, 0., 0., 0., 0., 1.58730168e-02, 0.,
          0., 0., 0., 0., 0., 0., 0., 0., 0., 0., 0., 0., 1.58730168e-02,
          0., 3.17460336e-02, 1.58730168e-02, 0., 0., 1.58730168e-02, 0.,
          0., 0., 0., 0., 0., 1.58730168e-02, 0., 0., 3.17460336e-02, 0.,
          1.58730168e-02, 1.58730168e-02, 1.58730168e-02, 0., 0., 0., 0.,
          0., 0., 1.58730168e-02, 0., 0., 0., 7.93650821e-02,
          1.58730168e-02, 1.58730168e-02, 6.34920672e-02, 1.58730168e-02,
          0., 0., 0., 1.58730168e-02, 0., 0., 0., 0., 0., 0., 0.,
          3.17460336e-02, 0., 0., 0., 0., 0., 0., 0., 0., 0. ]
      - [ 0., 0., 0., 0., 2.02020202e-02, 0., 0., 1.01010101e-02, 0., 0.,
          1.01010101e-02, 0., 0., 1.01010101e-02, 0., 0., 2.02020202e-02,
          0., 0., 0., 3.03030312e-02, 1.01010101e-02, 3.03030312e-02,
          3.03030312e-02, 0., 0., 0., 0., 0., 1.01010101e-02,
          2.02020202e-02, 1.01010101e-02, 0., 3.03030312e-02,
          2.02020202e-02, 2.02020202e-02, 0., 3.03030312e-02, 0., 0.,
          4.04040404e-02, 0., 1.01010101e-02, 1.01010101e-02, 0.,
          2.02020202e-02, 0., 0., 3.03030312e-02, 2.02020202e-02, 0.,
          3.03030312e-02, 0., 0., 0., 0., 1.01010101e-02, 0., 0.,
          2.02020202e-02, 2.02020202e-02, 0., 0., 0., 0., 0., 0., 0., 0.,
          0., 0., 0., 1.01010101e-02, 1.01010101e-02, 0., 0., 0.,
          1.01010101e-02, 0., 0., 0., 0., 0., 0., 3.03030312e-02,
          2.02020202e-02, 0., 1.01010101e-02, 0., 0., 3.03030312e-02, 0.,
          0., 0., 0., 1.01010101e-02, 0., 0., 0., 0., 1.01010101e-02, 0.,
          0., 2.02020202e-02, 1.01010101e-02, 4.04040404e-02, 0., 0., 0.,
          1.01010101e-02, 0., 0., 4.04040404e-02, 0., 0., 1.01010101e-02,
          2.02020202e-02, 0., 0., 3.03030312e-02, 1.01010101e-02, 0.,
          1.01010101e-02, 0., 0., 0., 0., 0., 1.01010101e-02, 0., 0., 0.,
          0., 0., 0., 0., 2.02020202e-02, 2.02020202e-02, 2.02020202e-02,
          0., 1.01010101e-02, 0., 0., 0., 0., 0., 0., 0., 0., 0.,
          1.01010101e-02, 0., 0., 0., 0., 2.02020202e-02, 0.,
          1.01010101e-02, 0., 1.01010101e-02 ]
      - [ 0., 0., 0., 0., 0., 0., 0., 0., 0., 0., 2.17391308e-02, 0., 0.,
          0., 0., 0., 0., 0., 0., 4.34782617e-02, 0., 2.17391308e-02,
          2.17391308e-02, 6.52173907e-02, 0., 0., 0., 0., 0.,
          2.17391308e-02, 8.69565234e-02, 2.17391308e-02, 0., 0.,
          2.17391308e-02, 2.17391308e-02, 0., 0., 0., 0., 0., 0., 0., 0.,
          0., 0., 2.17391308e-02, 0., 4.34782617e-02, 0., 0.,
          2.17391308e-02, 0., 0., 0., 0., 2.17391308e-02, 4.34782617e-02,
          0., 0., 1.08695656e-01, 0., 0., 0., 0., 0., 0., 0., 0., 0., 0.,
          0., 0., 0., 0., 0., 0., 0., 0., 0., 2.17391308e-02, 0., 0.,
          2.17391308e-02, 4.34782617e-02, 0., 0., 0., 0., 0., 0., 0., 0.,
          0., 0., 0., 2.17391308e-02, 0., 0., 0., 2.17391308e-02, 0., 0.,
          0., 0., 2.17391308e-02, 0., 0., 0., 0., 4.34782617e-02, 0.,
          8.69565234e-02, 0., 0., 0., 0., 0., 0., 2.17391308e-02, 0., 0.,
          0., 0., 0., 0., 0., 0., 0., 0., 0., 0., 0., 0., 0.,
          2.17391308e-02, 0., 0., 0., 0., 2.17391308e-02, 0., 0., 0., 0.,
          0., 0., 0., 0., 0., 0., 0., 0., 0., 0., 0., 0., 2.17391308e-02,
          0., 2.17391308e-02 ]
      - [ 0., 0., 0., 0., 0., 0., 0., 0., 0., 0., 0., 0., 0., 0., 0., 0.,
          0., 0., 0., 0., 1.99999996e-02, 1.99999996e-02, 3.99999991e-02,
          1.19999997e-01, 0., 0., 0., 0., 0., 0., 3.99999991e-02, 0.,
          1.99999996e-02, 1.99999996e-02, 0., 5.99999987e-02,
          1.99999996e-02, 0., 0., 0., 0., 0., 0., 0., 0., 0., 0., 0.,
          1.99999996e-02, 0., 1.99999996e-02, 0., 0., 0., 0., 0., 0.,
          1.99999996e-02, 0., 1.99999996e-02, 1.99999996e-02, 0., 0., 0.,
          0., 0., 0., 1.99999996e-02, 0., 0., 0., 0., 0., 0., 0., 0., 0.,
          0., 0., 0., 1.99999996e-02, 0., 0., 0., 7.99999982e-02, 0., 0.,
          0., 0., 0., 0., 0., 0., 0., 0., 3.99999991e-02, 1.99999996e-02,
          0., 0., 1.99999996e-02, 0., 0., 0., 1.99999996e-02, 0., 0., 0.,
          0., 0., 0., 0., 0., 0., 0., 0., 3.99999991e-02, 0., 0., 0.,
          3.99999991e-02, 0., 0., 0., 0., 0., 1.99999996e-02, 0.,
          1.99999996e-02, 0., 0., 1.99999996e-02, 1.99999996e-02, 0., 0.,
          7.99999982e-02, 0., 1.99999996e-02, 0., 0., 0., 0., 0., 0., 0.,
          0., 0., 1.99999996e-02, 0., 0., 0., 0., 0., 0., 0.,
          1.99999996e-02, 0., 0., 1.99999996e-02, 0., 0. ]
      - [ 0., 0., 2.22222228e-02, 0., 4.44444455e-02, 0., 0., 0., 0., 0.,
          2.22222228e-02, 0., 0., 0., 0., 2.22222228e-02, 0., 0., 0., 0.,
          4.44444455e-02, 0., 0., 2.22222228e-02, 0., 0., 2.22222228e-02,
          0., 0., 0., 0., 0., 0., 0., 0., 0., 0., 2.00000003e-01, 0., 0.,
          4.44444455e-02, 0., 0., 0., 0., 0., 0., 0., 0., 2.22222228e-02,
          0., 0., 8.88888910e-02, 0., 0., 0., 0., 0., 0., 0., 0., 0., 0.,
          0., 0., 0., 0., 0., 0., 0., 0., 0., 0., 0., 2.22222228e-02, 0.,
          0., 1.55555561e-01, 0., 0., 2.22222228e-02, 0., 0., 0., 0., 0.,
          0., 2.22222228e-02, 0., 2.22222228e-02, 0., 0., 0., 0., 0., 0.,
          0., 0., 0., 0., 0., 0., 0., 0., 0., 1.33333340e-01, 0., 0., 0.,
          0., 0., 0., 0., 0., 0., 2.22222228e-02, 0., 0., 0., 0., 0., 0.,
          0., 0., 0., 0., 0., 0., 0., 0., 0., 0., 0., 0., 0., 0., 0., 0.,
          0., 0., 0., 0., 0., 0., 0., 0., 0., 0., 0., 0., 0., 0., 0., 0.,
          0., 0., 0., 0., 4.44444455e-02, 0. ]
      - [ 0., 0., 1.01522841e-02, 0., 3.55329961e-02, 1.01522841e-02, 0.,
          1.01522841e-02, 2.03045681e-02, 5.07614203e-03, 1.52284261e-02,
          0., 0., 0., 0., 3.55329961e-02, 1.01522841e-02, 0., 0.,
          1.52284261e-02, 1.01522841e-02, 5.07614203e-03, 0.,
          1.01522841e-02, 0., 3.04568522e-02, 3.55329961e-02, 0., 0., 0.,
          5.07614203e-03, 4.06091362e-02, 0., 5.07614203e-03, 0.,
          5.07614203e-03, 0., 5.07614203e-02, 0., 0., 2.03045681e-02, 0.,
          0., 0., 0., 2.03045681e-02, 0., 5.07614203e-03, 0.,
          5.07614203e-03, 0., 0., 2.03045681e-02, 0., 0., 0., 0.,
          4.56852764e-02, 0., 0., 0., 1.01522841e-02, 0., 0., 0., 0., 0.,
          5.07614203e-03, 0., 0., 0., 0., 0., 0., 2.53807101e-02, 0., 0.,
          1.42131984e-01, 1.01522841e-02, 0., 2.03045681e-02, 0., 0., 0.,
          0., 0., 0., 0., 1.01522841e-02, 0., 5.07614203e-03, 0., 0., 0.,
          5.07614203e-03, 5.07614203e-03, 0., 5.07614203e-03, 0., 0., 0.,
          5.07614203e-03, 0., 0., 0., 6.59898445e-02, 0., 0., 0., 0., 0.,
          2.53807101e-02, 0., 0., 0., 1.01522841e-02, 5.07614203e-03, 0.,
          0., 0., 1.01522841e-02, 0., 0., 0., 0., 0., 0., 0., 0., 0., 0.,
          5.07614203e-03, 0., 1.01522841e-02, 0., 1.01522841e-02, 0.,
          2.03045681e-02, 1.01522841e-02, 0., 1.01522841e-02, 0., 0., 0.,
          0., 0., 0., 0., 0., 0., 0., 0., 0., 5.07614203e-03,
          5.07614203e-03, 0., 5.07614203e-03, 0., 6.59898445e-02,
          5.07614203e-03 ]
      - [ 9.03342385e-04, 3.61336954e-03, 4.51671192e-03, 5.42005431e-03,
          1.17434505e-02, 2.71002715e-03, 4.51671192e-03, 9.03342385e-03,
          1.26467934e-02, 7.22673908e-03, 1.53568201e-02, 5.42005431e-03,
          2.71002715e-03, 5.42005431e-03, 1.80668477e-03, 1.80668477e-02,
          7.22673908e-03, 4.51671192e-03, 2.71002715e-03, 1.80668477e-02,
          9.03342385e-03, 1.08401086e-02, 2.71002715e-03, 1.17434505e-02,
          9.03342385e-04, 5.42005431e-03, 9.03342385e-03, 2.71002715e-03,
          1.35501362e-02, 2.71002715e-03, 4.51671192e-03, 3.07136402e-02,
          2.71002715e-03, 3.61336954e-03, 2.71002715e-03, 9.03342385e-03,
          2.71002715e-03, 1.08401086e-02, 0., 1.80668477e-03,
          3.61336954e-03, 2.71002715e-03, 2.71002715e-03, 3.61336954e-03,
          1.80668477e-03, 7.22673908e-03, 2.71002715e-03, 4.51671192e-03,
          4.51671192e-03, 6.32339669e-03, 1.53568201e-02, 3.61336954e-03,
          1.62601620e-02, 2.71002715e-03, 3.61336954e-03, 1.80668477e-03,
          1.17434505e-02, 1.62601620e-02, 3.16169821e-02, 1.80668477e-03,
          5.42005431e-03, 9.03342385e-03, 9.03342385e-04, 1.80668477e-03,
          2.71002715e-03, 9.03342385e-04, 3.61336954e-03, 3.61336954e-03,
          6.32339669e-03, 5.42005431e-03, 9.03342385e-04, 3.61336954e-03,
          2.71002715e-03, 3.61336954e-03, 9.93676670e-03, 9.03342385e-04,
          6.32339669e-03, 1.44534782e-02, 2.71002715e-03, 3.61336954e-03,
          5.42005431e-03, 3.61336954e-03, 9.03342385e-04, 6.32339669e-03,
          1.53568201e-02, 4.51671192e-03, 9.03342385e-03, 2.16802172e-02,
          9.03342385e-04, 3.61336954e-03, 7.22673908e-03, 2.71002715e-03,
          4.51671192e-03, 3.61336954e-03, 9.03342385e-04, 5.42005431e-03,
          1.80668477e-03, 4.51671192e-03, 5.42005431e-03, 3.61336954e-03,
          3.61336954e-03, 4.51671192e-03, 2.71002715e-03, 1.80668477e-03,
          1.80668477e-03, 1.26467934e-02, 1.80668477e-03, 4.51671192e-03,
          9.03342385e-03, 3.61336954e-03, 6.32339669e-03, 2.61969287e-02,
          9.03342385e-03, 9.03342385e-04, 3.61336954e-03, 8.13008100e-03,
          0., 4.51671192e-03, 9.03342385e-03, 7.22673908e-03,
          9.93676670e-03, 3.61336954e-03, 5.42005431e-03, 9.03342385e-03,
          9.03342385e-04, 9.03342385e-03, 1.80668477e-03, 3.61336954e-03,
          3.61336954e-03, 2.71002715e-03, 1.80668477e-03, 1.08401086e-02,
          9.03342385e-04, 1.80668477e-03, 2.80036144e-02, 2.71002725e-02,
          5.42005431e-03, 9.93676670e-03, 6.32339669e-03, 1.89701896e-02,
          4.51671192e-03, 0., 1.80668477e-03, 2.71002715e-03,
          6.32339669e-03, 9.03342385e-04, 4.51671192e-03, 5.42005431e-03,
          9.03342385e-04, 1.80668477e-03, 1.80668477e-03, 5.42005431e-03,
          2.71002715e-03, 9.93676670e-03, 8.13008100e-03, 5.42005431e-03,
          6.32339669e-03, 2.71002715e-03, 8.13008100e-03, 1.35501362e-02 ]
      - [ 0., 0., 0., 0., 3.19148935e-02, 0., 2.12765951e-02, 0.,
          1.06382975e-02, 0., 0., 0., 1.06382975e-02, 0., 0., 0., 0.,
          3.19148935e-02, 1.06382975e-02, 0., 0., 1.06382975e-02, 0.,
          1.06382975e-02, 1.06382975e-02, 0., 0., 0., 6.38297871e-02, 0.,
          0., 0., 1.06382975e-02, 0., 0., 3.19148935e-02, 0.,
          1.06382975e-02, 0., 0., 0., 1.06382975e-02, 0., 0., 0.,
          1.06382975e-02, 0., 0., 0., 0., 2.12765951e-02, 0.,
          2.12765951e-02, 0., 3.19148935e-02, 1.06382975e-02,
          1.06382975e-02, 0., 0., 1.06382975e-02, 0., 2.12765951e-02,
          1.06382975e-02, 0., 0., 0., 1.06382975e-02, 2.12765951e-02, 0.,
          0., 0., 0., 0., 0., 0., 0., 0., 0., 0., 0., 0., 0., 0., 0.,
          3.19148935e-02, 0., 1.06382975e-02, 0., 0., 1.06382975e-02, 0.,
          0., 0., 0., 0., 0., 0., 2.12765951e-02, 0., 1.06382975e-02,
          2.12765951e-02, 0., 0., 1.06382975e-02, 0., 1.06382975e-02, 0.,
          0., 0., 1.06382975e-02, 0., 0., 1.06382975e-02, 1.06382975e-02,
          0., 0., 0., 0., 6.38297871e-02, 3.19148935e-02, 0., 0., 0.,
          2.12765951e-02, 0., 1.06382975e-02, 0., 1.06382975e-02, 0.,
          2.12765951e-02, 1.06382975e-02, 0., 0., 0., 6.38297871e-02,
          2.12765951e-02, 0., 1.06382975e-02, 2.12765951e-02, 0., 0., 0.,
          0., 0., 0., 0., 1.06382975e-02, 1.06382975e-02, 0., 0.,
          1.06382975e-02, 0., 0., 0., 0., 1.06382975e-02, 0.,
          1.06382975e-02, 1.06382975e-02, 3.19148935e-02 ]
      - [ 3.97614343e-03, 3.31345270e-03, 2.65076221e-03, 3.31345270e-03,
          1.06030488e-02, 5.30152442e-03, 6.62690541e-03, 3.31345270e-03,
          1.25911208e-02, 6.62690541e-03, 1.12657398e-02, 1.98807172e-03,
          4.63883393e-03, 3.31345270e-03, 2.65076221e-03, 1.52418828e-02,
          7.95228686e-03, 4.63883393e-03, 4.63883393e-03, 2.78330036e-02,
          7.95228686e-03, 7.28959590e-03, 1.98807172e-03, 1.72299538e-02,
          1.98807172e-03, 1.19284298e-02, 1.85553357e-02, 2.65076221e-03,
          3.44599076e-02, 3.97614343e-03, 3.97614343e-03, 3.37972194e-02,
          3.31345270e-03, 1.98807172e-03, 5.30152442e-03, 7.95228686e-03,
          6.62690552e-04, 1.32538108e-02, 0., 1.98807172e-03,
          7.28959590e-03, 7.95228686e-03, 6.62690552e-04, 2.65076221e-03,
          4.63883393e-03, 4.63883393e-03, 3.31345270e-03, 2.65076221e-03,
          1.78926457e-02, 5.30152442e-03, 8.61497689e-03, 3.31345270e-03,
          7.28959590e-03, 1.98807172e-03, 6.62690552e-04, 8.61497689e-03,
          6.62690541e-03, 2.84956936e-02, 1.85553357e-02, 6.62690552e-04,
          6.62690541e-03, 7.95228686e-03, 7.95228686e-03, 3.31345270e-03,
          6.62690552e-04, 1.98807172e-03, 2.65076221e-03, 7.95228686e-03,
          2.65076221e-03, 6.62690552e-04, 2.65076221e-03, 1.98807172e-03,
          6.62690541e-03, 4.63883393e-03, 1.12657398e-02, 6.62690552e-04,
          3.31345270e-03, 1.78926457e-02, 3.31345270e-03, 3.31345270e-03,
          4.63883393e-03, 1.32538110e-03, 6.62690552e-04, 3.31345270e-03,
          1.39165018e-02, 1.32538110e-03, 1.32538110e-03, 1.52418828e-02,
          2.65076221e-03, 3.97614343e-03, 7.28959590e-03, 3.31345270e-03,
          1.98807172e-03, 5.96421491e-03, 1.98807172e-03, 3.31345270e-03,
          3.31345270e-03, 4.63883393e-03, 7.95228686e-03, 5.96421491e-03,
          6.62690552e-04, 5.30152442e-03, 3.31345270e-03, 3.31345270e-03,
          3.31345270e-03, 6.62690541e-03, 6.62690552e-04, 6.62690552e-04,
          1.45791918e-02, 2.65076221e-03, 3.97614343e-03, 7.95228686e-03,
          9.94035788e-03, 5.96421491e-03, 6.62690541e-03, 3.97614343e-03,
          1.32538110e-03, 5.30152442e-03, 1.06030488e-02, 8.61497689e-03,
          7.95228686e-03, 5.96421491e-03, 5.96421491e-03, 1.59045737e-02,
          3.31345270e-03, 3.31345270e-03, 1.32538110e-03, 3.31345270e-03,
          4.63883393e-03, 6.62690552e-04, 6.62690552e-04, 3.97614343e-03,
          2.65076221e-03, 1.45791918e-02, 2.25314796e-02, 1.39165018e-02,
          2.65076221e-03, 8.61497689e-03, 5.30152442e-03, 1.85553357e-02,
          5.30152442e-03, 1.98807172e-03, 6.62690552e-04, 6.62690552e-04,
          1.98807172e-03, 1.32538110e-03, 8.61497689e-03, 1.12657398e-02,
          0., 4.63883393e-03, 2.65076221e-03, 2.65076221e-03,
          3.97614343e-03, 4.63883393e-03, 1.98807172e-03, 3.31345270e-03,
          5.96421491e-03, 8.61497689e-03, 6.62690541e-03, 1.52418828e-02 ]
      - [ 0., 0., 0., 0., 0., 0., 2.15053763e-02, 0., 0., 0., 0., 0., 0.,
          0., 0., 0., 0., 0., 0., 2.15053763e-02, 0., 0., 0.,
          3.22580636e-02, 0., 0., 0., 0., 1.82795703e-01, 0., 0., 0., 0.,
          0., 0., 2.15053763e-02, 0., 0., 0., 0., 0., 1.07526882e-02, 0.,
          0., 0., 0., 0., 0., 1.07526882e-02, 1.07526882e-02,
          5.37634417e-02, 0., 0., 0., 0., 0., 0., 1.07526882e-02, 0., 0.,
          0., 0., 1.07526882e-02, 0., 0., 0., 0., 1.07526882e-02, 0., 0.,
          0., 0., 1.07526882e-02, 0., 0., 0., 0., 0., 0., 0., 0., 0., 0.,
          0., 5.37634417e-02, 0., 0., 0., 0., 0., 0., 0., 2.15053763e-02,
          0., 0., 0., 0., 0., 2.15053763e-02, 0., 0., 0., 0., 0., 0.,
          1.07526882e-02, 0., 0., 1.07526882e-02, 0., 0., 0., 0., 0.,
          1.07526882e-02, 0., 0., 0., 4.30107526e-02, 0., 0., 0., 0.,
          7.52688199e-02, 0., 0., 0., 1.07526882e-02, 0., 0., 0., 0., 0.,
          0., 2.36559138e-01, 1.07526882e-02, 0., 1.07526882e-02, 0., 0.,
          0., 1.07526882e-02, 0., 0., 0., 1.07526882e-02, 1.07526882e-02,
          3.22580636e-02, 0., 0., 0., 0., 0., 0., 0., 0., 0., 0.,
          1.07526882e-02, 0. ]
      - [ 0., 2.90697673e-03, 5.81395347e-03, 2.90697673e-03,
          1.16279069e-02, 2.90697673e-03, 2.90697673e-03, 5.81395347e-03,
          8.72093067e-03, 0., 0., 5.81395347e-03, 0., 2.90697673e-03,
          2.90697673e-03, 0., 2.90697673e-03, 0., 1.16279069e-02, 0.,
          5.81395347e-03, 0., 1.74418613e-02, 1.45348832e-02, 0., 0.,
          5.81395347e-03, 8.72093067e-03, 2.90697673e-03, 0.,
          1.16279069e-02, 0., 8.72093067e-03, 2.90697673e-03,
          1.74418613e-02, 1.16279069e-02, 0., 2.90697673e-03, 0.,
          2.90697673e-03, 5.81395347e-03, 0., 2.90697673e-03,
          2.61627901e-02, 5.81395347e-03, 0., 2.90697673e-03,
          1.45348832e-02, 2.61627901e-02, 8.72093067e-03, 2.90697673e-03,
          2.03488376e-02, 2.90697673e-03, 1.16279069e-02, 2.32558139e-02,
          2.90697673e-03, 0., 5.81395347e-03, 0., 5.81395347e-03,
          3.19767445e-02, 0., 1.74418613e-02, 5.81395347e-03, 0., 0., 0.,
          2.03488376e-02, 5.81395347e-03, 1.16279069e-02, 1.16279069e-02,
          2.90697673e-03, 5.81395347e-03, 2.90697673e-03, 0.,
          2.90697673e-03, 0., 2.90697673e-03, 0., 1.74418613e-02,
          1.74418613e-02, 0., 5.81395347e-03, 1.16279069e-02,
          1.16279069e-02, 1.16279069e-02, 1.16279069e-02, 5.81395347e-03,
          5.81395347e-03, 0., 5.81395347e-03, 2.90697673e-03, 0., 0.,
          5.81395347e-03, 2.90697673e-03, 0., 0., 2.90697673e-03,
          2.90697673e-03, 1.16279069e-02, 2.32558139e-02, 8.72093067e-03,
          2.03488376e-02, 5.81395347e-03, 0., 2.90697673e-03,
          5.81395347e-03, 2.90697673e-03, 1.74418613e-02, 1.16279069e-02,
          0., 5.81395347e-03, 2.90697673e-03, 2.90697673e-03,
          8.72093067e-03, 2.90697673e-03, 2.90697673e-03, 1.16279069e-02,
          3.19767445e-02, 0., 5.81395347e-03, 0., 2.90697673e-03,
          8.72093067e-03, 8.72093067e-03, 0., 1.45348832e-02,
          2.90697673e-03, 0., 0., 0., 5.81395347e-03, 0., 2.61627901e-02,
          0., 2.90697673e-03, 1.74418613e-02, 8.72093067e-03, 0.,
          8.72093067e-03, 0., 0., 8.72093067e-03, 8.72093067e-03,
          1.16279069e-02, 2.90697673e-03, 8.72093067e-03, 8.72093067e-03,
          0., 0., 1.45348832e-02, 0., 0., 5.81395347e-03, 1.16279069e-02,
          0., 1.74418613e-02, 2.90697673e-03, 8.72093067e-03 ]
      - [ 1.01010101e-02, 0., 0., 0., 1.01010101e-02, 0., 0., 0.,
          2.02020202e-02, 0., 0., 0., 0., 0., 0., 0., 3.03030312e-02,
          1.01010101e-02, 0., 5.05050495e-02, 0., 0., 0., 7.07070678e-02,
          0., 0., 0., 0., 3.03030312e-02, 2.02020202e-02, 1.01010101e-02,
          3.03030312e-02, 0., 1.01010101e-02, 0., 0., 0., 0., 0., 0., 0.,
          0., 0., 0., 0., 1.01010101e-02, 1.01010101e-02, 0.,
          1.01010101e-02, 1.01010101e-02, 4.04040404e-02, 3.03030312e-02,
          0., 0., 1.01010101e-02, 0., 0., 3.03030312e-02, 2.02020202e-02,
          0., 0., 0., 1.01010101e-02, 0., 0., 0., 0., 1.01010101e-02, 0.,
          0., 1.01010101e-02, 0., 0., 0., 1.01010101e-02, 0., 0., 0., 0.,
          1.01010101e-02, 1.01010101e-02, 0., 1.01010101e-02, 0.,
          7.07070678e-02, 0., 0., 2.02020202e-02, 0., 0., 0., 0.,
          1.01010101e-02, 1.01010101e-02, 1.01010101e-02, 0., 0., 0.,
          1.01010101e-02, 0., 0., 0., 0., 0., 0., 0., 0., 0., 0., 0., 0.,
          1.01010101e-02, 4.04040404e-02, 1.01010101e-02, 0., 0., 0.,
          1.01010101e-02, 2.02020202e-02, 2.02020202e-02, 0., 0.,
          1.01010101e-02, 1.01010101e-02, 0., 1.01010101e-02, 0., 0., 0.,
          1.01010101e-02, 0., 0., 0., 0., 3.03030312e-02, 0., 0., 0.,
          2.02020202e-02, 3.03030312e-02, 2.02020202e-02, 0., 0.,
          1.01010101e-02, 1.01010101e-02, 0., 0., 0., 1.01010101e-02, 0.,
          0., 0., 0., 0., 0., 1.01010101e-02, 1.01010101e-02,
          1.01010101e-02, 0., 1.01010101e-02 ]
      - [ 0., 0., 0., 0., 0., 0., 0., 0., 0., 0., 0., 0., 0., 0., 0., 0.,
          0., 0., 0., 0., 0., 0., 0., 0., 0., 0., 0., 0., 0., 0., 0., 0.,
          0., 0., 0., 1., 0., 0., 0., 0., 0., 0., 0., 0., 0., 0., 0., 0.,
          0., 0., 0., 0., 0., 0., 0., 0., 0., 0., 0., 0., 0., 0., 0., 0.,
          0., 0., 0., 0., 0., 0., 0., 0., 0., 0., 0., 0., 0., 0., 0., 0.,
          0., 0., 0., 0., 0., 0., 0., 0., 0., 0., 0., 0., 0., 0., 0., 0.,
          0., 0., 0., 0., 0., 0., 0., 0., 0., 0., 0., 0., 0., 0., 0., 0.,
          0., 0., 0., 0., 0., 0., 0., 0., 0., 0., 0., 0., 0., 0., 0., 0.,
          0., 0., 0., 0., 0., 0., 0., 0., 0., 0., 0., 0., 0., 0., 0., 0.,
          0., 0., 0., 0., 0., 0., 0., 0., 0., 0., 0., 0., 0., 0., 0., 0. ]
      - [ 0., 0., 0., 0., 0., 0., 0., 0., 0., 0., 0., 0., 0., 0., 0., 0.,
          0., 0., 0., 0., 0., 0., 0., 0., 0., 0., 0., 0., 0., 0., 0., 0.,
          0., 0., 0., 4.00000006e-01, 0., 0., 0., 0., 0., 0., 0.,
          2.00000003e-01, 0., 0., 0., 0., 0., 0., 0., 0., 0., 0., 0., 0.,
          0., 0., 0., 0., 0., 0., 0., 0., 0., 0., 0., 0., 0., 0., 0., 0.,
          0., 0., 0., 0., 0., 0., 0., 0., 0., 0., 0., 0., 0., 0., 0., 0.,
          0., 0., 0., 0., 0., 0., 0., 0., 0., 0., 0., 0., 0.,
          2.00000003e-01, 0., 0., 0., 0., 0., 0., 0., 0., 0., 0., 0., 0.,
          0., 0., 0., 0., 0., 0., 0., 0., 0., 0., 0., 0., 0., 0., 0., 0.,
          0., 0., 0., 0., 0., 0., 0., 0., 0., 0., 0., 0., 2.00000003e-01,
          0., 0., 0., 0., 0., 0., 0., 0., 0., 0., 0., 0., 0., 0., 0., 0.,
          0. ]
      - [ 0., 0., 0., 0., 0., 0., 0., 0., 0., 0., 0., 0., 0., 0., 0., 0.,
          2.50000000e-01, 0., 0., 0., 0., 0., 0., 0., 0., 0., 0., 0., 0.,
          0., 0., 0., 0., 0., 0., 2.50000000e-01, 0., 0., 0., 0., 0., 0.,
          0., 0., 0., 0., 0., 0., 0., 0., 0., 0., 0., 0., 0., 0., 0., 0.,
          0., 0., 0., 0., 0., 0., 0., 0., 0., 0., 0., 0., 0., 0., 0., 0.,
          0., 0., 0., 0., 0., 0., 0., 0., 0., 0., 0., 0., 0., 0., 0., 0.,
          0., 0., 0., 0., 0., 0., 0., 0., 0., 0., 0., 0., 0., 0., 0., 0.,
          0., 0., 0., 0., 0., 0., 0., 0., 0., 0., 0., 0., 5.00000000e-01,
          0., 0., 0., 0., 0., 0., 0., 0., 0., 0., 0., 0., 0., 0., 0., 0.,
          0., 0., 0., 0., 0., 0., 0., 0., 0., 0., 0., 0., 0., 0., 0., 0.,
          0., 0., 0., 0., 0., 0., 0., 0., 0. ]
      - [ 4.25531901e-03, 0., 2.83687934e-03, 1.41843967e-03,
          2.26950347e-02, 2.83687934e-03, 4.25531901e-03, 2.83687934e-03,
          1.27659570e-02, 2.83687934e-03, 9.92907770e-03, 5.67375869e-03,
          4.25531901e-03, 2.83687934e-03, 0., 9.92907770e-03, 0., 0.,
          4.25531901e-03, 3.82978693e-02, 2.83687934e-03, 4.25531901e-03,
          1.56028364e-02, 2.69503538e-02, 4.25531901e-03, 4.25531901e-03,
          1.13475174e-02, 0., 4.25531901e-03, 1.41843967e-03,
          5.67375869e-03, 2.41134744e-02, 1.41843967e-03, 2.83687934e-03,
          8.51063803e-03, 7.09219836e-03, 0., 1.56028364e-02, 0., 0.,
          9.92907770e-03, 5.67375869e-03, 0., 1.27659570e-02,
          4.25531901e-03, 7.09219836e-03, 0., 0., 2.83687934e-03,
          1.41843967e-03, 1.41843967e-02, 7.09219836e-03, 5.67375869e-03,
          1.41843967e-03, 5.67375869e-03, 1.41843967e-03, 7.09219836e-03,
          4.25531901e-02, 1.41843967e-02, 1.41843967e-03, 9.92907770e-03,
          8.51063803e-03, 1.41843967e-03, 1.41843967e-03, 0.,
          4.25531901e-03, 5.67375869e-03, 8.51063803e-03, 2.83687934e-03,
          4.25531901e-03, 0., 5.67375869e-03, 5.67375869e-03,
          2.83687934e-03, 5.67375869e-03, 5.67375869e-03, 0.,
          9.92907770e-03, 2.83687934e-03, 4.25531901e-03, 1.13475174e-02,
          0., 0., 2.83687934e-03, 1.56028364e-02, 2.83687934e-03, 0.,
          1.13475174e-02, 1.41843967e-03, 5.67375869e-03, 1.56028364e-02,
          1.41843967e-03, 4.25531901e-03, 4.25531901e-03, 4.25531901e-03,
          2.83687934e-03, 1.41843967e-03, 1.41843967e-03, 2.12765951e-02,
          2.83687934e-03, 5.67375869e-03, 5.67375869e-03, 4.25531901e-03,
          1.13475174e-02, 1.41843967e-03, 1.27659570e-02, 1.41843967e-03,
          0., 1.13475174e-02, 8.51063803e-03, 7.09219836e-03,
          1.27659570e-02, 1.84397157e-02, 5.67375869e-03, 4.25531901e-03,
          7.09219836e-03, 8.51063803e-03, 2.83687934e-03, 1.41843967e-02,
          8.51063803e-03, 1.41843967e-03, 1.41843967e-03, 5.67375869e-03,
          2.12765951e-02, 1.41843967e-03, 2.83687934e-03, 1.41843967e-03,
          4.25531901e-03, 0., 5.67375869e-03, 0., 5.67375869e-03,
          5.67375869e-03, 1.84397157e-02, 3.26241106e-02, 8.51063803e-03,
          1.41843967e-03, 2.83687934e-03, 2.83687934e-03, 1.84397157e-02,
          5.67375869e-03, 0., 4.25531901e-03, 7.09219836e-03, 0.,
          2.83687934e-03, 4.25531901e-03, 4.25531901e-03, 0., 0.,
          8.51063803e-03, 4.25531901e-03, 7.09219836e-03, 1.41843967e-03,
          0., 2.83687934e-03, 5.67375869e-03, 5.67375869e-03,
          1.13475174e-02, 1.41843967e-02 ]
      - [ 2.60756188e-03, 0., 5.21512376e-03, 5.21512376e-03,
          2.21642759e-02, 3.91134294e-03, 6.51890459e-03, 5.21512376e-03,
          1.30378092e-02, 2.60756188e-03, 3.91134294e-03, 3.91134294e-03,
          3.91134294e-03, 1.17340283e-02, 1.30378094e-03, 2.60756183e-02,
          5.21512376e-03, 1.30378094e-03, 2.60756188e-03, 3.52020860e-02,
          1.30378094e-03, 9.12646670e-03, 1.04302475e-02, 2.99869608e-02,
          1.30378094e-03, 3.91134294e-03, 7.82268587e-03, 1.30378094e-03,
          1.30378092e-02, 3.91134294e-03, 7.82268587e-03, 2.47718375e-02,
          3.91134294e-03, 0., 2.60756188e-03, 6.51890459e-03, 0.,
          1.56453717e-02, 1.30378094e-03, 1.30378094e-03, 3.91134294e-03,
          3.91134294e-03, 1.30378094e-03, 1.30378092e-02, 2.60756188e-03,
          3.91134294e-03, 1.30378094e-03, 1.30378094e-03, 1.69491526e-02,
          1.04302475e-02, 1.17340283e-02, 1.04302475e-02, 1.69491526e-02,
          0., 5.21512376e-03, 1.30378094e-03, 3.91134294e-03,
          4.04172093e-02, 2.08604950e-02, 6.51890459e-03, 7.82268587e-03,
          6.51890459e-03, 7.82268587e-03, 0., 0., 0., 3.91134294e-03,
          1.04302475e-02, 5.21512376e-03, 3.91134294e-03, 2.60756188e-03,
          1.30378094e-03, 3.91134294e-03, 1.30378094e-03, 9.12646670e-03,
          5.21512376e-03, 0., 1.82529334e-02, 1.30378094e-03,
          5.21512376e-03, 9.12646670e-03, 0., 0., 2.60756188e-03,
          1.95567142e-02, 2.60756188e-03, 1.30378094e-03, 7.82268587e-03,
          0., 6.51890459e-03, 7.82268587e-03, 0., 2.60756188e-03,
          6.51890459e-03, 5.21512376e-03, 1.30378094e-03, 0.,
          1.30378094e-03, 1.69491526e-02, 1.30378094e-03, 3.91134294e-03,
          5.21512376e-03, 3.91134294e-03, 2.60756188e-03, 3.91134294e-03,
          1.56453717e-02, 1.30378094e-03, 0., 7.82268587e-03,
          6.51890459e-03, 5.21512376e-03, 1.04302475e-02, 1.43415900e-02,
          1.30378094e-03, 2.60756188e-03, 2.08604950e-02, 1.30378094e-03,
          7.82268587e-03, 6.51890459e-03, 1.17340283e-02, 1.30378094e-03,
          7.82268587e-03, 2.60756188e-03, 7.82268587e-03, 1.30378094e-03,
          3.91134294e-03, 1.30378094e-03, 7.82268587e-03, 2.60756188e-03,
          2.60756188e-03, 0., 0., 3.91134294e-03, 1.17340283e-02,
          1.95567142e-02, 7.82268587e-03, 2.60756188e-03, 1.17340283e-02,
          5.21512376e-03, 1.95567142e-02, 9.12646670e-03, 0.,
          3.91134294e-03, 6.51890459e-03, 1.30378094e-03, 0.,
          2.60756188e-03, 2.60756188e-03, 1.30378094e-03, 3.91134294e-03,
          3.91134294e-03, 6.51890459e-03, 1.30378094e-03, 0.,
          2.60756188e-03, 2.60756188e-03, 1.30378094e-03, 6.51890459e-03,
          1.43415900e-02, 5.21512376e-03 ]
      - [ 0., 0., 0., 0., 0., 0., 3.33333343e-01, 0., 0., 0., 0., 0., 0.,
          0., 0., 0., 0., 0., 0., 0., 0., 0., 0., 0., 0., 0., 0., 0., 0.,
          0., 0., 0., 0., 0., 0., 3.33333343e-01, 0., 0., 0., 0., 0., 0.,
          0., 0., 0., 0., 0., 0., 0., 0., 0., 0., 0., 0., 0., 0., 0., 0.,
          0., 0., 0., 0., 0., 0., 0., 0., 0., 0., 0., 0., 0., 0., 0., 0.,
          0., 0., 0., 0., 0., 0., 0., 0., 0., 0., 0., 0., 0., 0., 0., 0.,
          0., 0., 0., 0., 0., 0., 0., 0., 0., 0., 0., 0., 0., 0., 0., 0.,
          0., 0., 0., 0., 0., 0., 0., 0., 0., 0., 1.66666672e-01, 0., 0.,
          0., 0., 0., 0., 1.66666672e-01, 0., 0., 0., 0., 0., 0., 0., 0.,
          0., 0., 0., 0., 0., 0., 0., 0., 0., 0., 0., 0., 0., 0., 0., 0.,
          0., 0., 0., 0., 0., 0., 0., 0., 0., 0., 0., 0. ]
      - [ 0., 0., 0., 0., 4.76190485e-02, 0., 4.76190485e-02, 0., 0., 0.,
          0., 0., 0., 0., 0., 0., 0., 0., 0., 1.90476194e-01, 0., 0., 0.,
          0., 0., 0., 0., 0., 0., 0., 0., 9.52380970e-02, 0., 0., 0.,
          9.52380970e-02, 0., 0., 0., 0., 0., 0., 0., 0., 0., 0., 0., 0.,
          0., 0., 0., 0., 0., 0., 0., 0., 0., 9.52380970e-02, 0., 0., 0.,
          0., 0., 4.76190485e-02, 0., 0., 0., 0., 0., 0., 0., 0., 0., 0.,
          0., 0., 0., 0., 0., 0., 0., 0., 0., 0., 0., 0., 0., 0., 0., 0.,
          0., 0., 0., 0., 0., 0., 0., 0., 0., 0., 0., 0., 0., 0., 0.,
          4.76190485e-02, 0., 0., 0., 0., 0., 0., 0., 0., 0., 0., 0., 0.,
          0., 0., 0., 0., 0., 0., 0., 0., 0., 0., 0., 0., 0., 0., 0., 0.,
          1.42857149e-01, 0., 0., 0., 0., 1.42857149e-01, 0., 0., 0., 0.,
          0., 0., 0., 0., 0., 0., 0., 0., 0., 0., 4.76190485e-02, 0., 0.,
          0., 0., 0. ]
      - [ 6.21118024e-03, 0., 2.07039341e-03, 2.07039341e-03,
          6.21118024e-03, 0., 6.21118024e-03, 0., 4.14078683e-03, 0.,
          1.24223605e-02, 0., 2.07039341e-03, 0., 0., 0., 2.07039341e-03,
          6.21118024e-03, 6.21118024e-03, 3.31262946e-02, 6.21118024e-03,
          0., 0., 4.14078683e-03, 0., 2.07039341e-03, 6.21118024e-03, 0.,
          1.22153208e-01, 0., 0., 1.86335407e-02, 8.28157365e-03,
          2.07039341e-03, 0., 3.31262946e-02, 0., 2.07039341e-03, 0., 0.,
          2.07039341e-03, 1.44927539e-02, 2.07039341e-03, 0.,
          1.03519671e-02, 0., 4.14078683e-03, 2.07039341e-03,
          2.07039341e-03, 2.07039341e-03, 3.93374749e-02, 2.07039341e-03,
          0., 2.07039341e-03, 2.07039341e-03, 6.21118024e-03, 0.,
          2.07039341e-03, 3.10559012e-02, 0., 1.03519671e-02,
          8.28157365e-03, 4.14078683e-03, 2.07039341e-03, 0., 0.,
          2.07039341e-03, 0., 0., 0., 0., 0., 0., 0., 8.28157365e-03,
          2.07039341e-03, 2.07039341e-03, 2.07039341e-03, 0.,
          4.14078683e-03, 2.07039341e-03, 0., 0., 0., 2.69151144e-02,
          2.07039341e-03, 0., 6.21118024e-03, 2.07039341e-03,
          2.07039341e-03, 0., 0., 0., 4.14078683e-03, 2.07039341e-03,
          6.21118024e-03, 0., 6.21118024e-03, 2.27743275e-02, 0., 0., 0.,
          0., 4.14078683e-03, 0., 2.07039341e-03, 0., 0., 2.89855078e-02,
          2.07039341e-03, 0., 2.07039341e-03, 2.07039341e-03,
          2.07039341e-03, 6.21118024e-03, 0., 0., 0., 5.38302287e-02,
          6.21118024e-03, 4.14078683e-03, 0., 8.28157365e-03,
          4.14078683e-02, 0., 2.07039341e-03, 0., 2.07039341e-03, 0.,
          6.21118024e-03, 0., 4.14078683e-03, 0., 4.14078683e-03,
          1.49068326e-01, 1.44927539e-02, 4.14078683e-03, 0., 0.,
          2.27743275e-02, 0., 2.07039341e-03, 0., 0., 0., 0.,
          2.07039341e-02, 1.86335407e-02, 2.07039341e-03, 0., 0., 0.,
          4.14078683e-03, 2.07039341e-03, 4.14078683e-03, 0.,
          6.21118024e-03, 1.65631473e-02, 0., 4.14078683e-03 ]
      - [ 3.06748459e-03, 0., 6.13496918e-03, 6.13496918e-03, 0., 0.,
          3.06748459e-03, 1.22699384e-02, 3.06748459e-03, 0., 0., 0., 0.,
          3.06748459e-03, 1.53374225e-02, 0., 3.06748459e-03,
          6.13496918e-03, 9.20245424e-03, 0., 3.06748450e-02, 0.,
          1.84049085e-02, 1.53374225e-02, 3.06748459e-03, 0.,
          6.13496918e-03, 0., 0., 3.06748459e-03, 2.45398767e-02, 0.,
          1.53374225e-02, 6.13496918e-03, 1.22699384e-02, 6.13496918e-03,
          0., 3.06748459e-03, 0., 0., 6.13496918e-03, 0., 3.06748459e-03,
          2.45398767e-02, 1.53374225e-02, 1.22699384e-02, 3.06748459e-03,
          2.45398767e-02, 4.60122675e-02, 6.13496918e-03, 0.,
          6.13496918e-03, 0., 9.20245424e-03, 2.45398767e-02, 0.,
          6.13496918e-03, 6.13496918e-03, 0., 3.06748459e-03,
          4.29447852e-02, 0., 3.06748459e-03, 6.13496918e-03,
          3.06748459e-03, 9.20245424e-03, 3.06748459e-03, 2.45398767e-02,
          6.13496918e-03, 3.06748459e-03, 9.20245424e-03, 0., 0.,
          3.06748459e-03, 0., 0., 3.06748459e-03, 0., 0., 6.13496918e-03,
          0., 1.84049085e-02, 0., 6.13496918e-03, 1.22699384e-02,
          3.06748459e-03, 6.13496918e-03, 9.20245424e-03, 0., 0.,
          1.22699384e-02, 0., 0., 3.06748459e-03, 0., 6.13496918e-03,
          3.06748459e-03, 0., 3.06748459e-03, 9.20245424e-03,
          1.53374225e-02, 6.13496918e-03, 3.06748459e-03, 1.84049085e-02,
          0., 0., 0., 3.06748459e-03, 6.13496918e-03, 3.06748459e-03,
          1.22699384e-02, 0., 1.22699384e-02, 6.13496918e-03,
          1.22699384e-02, 3.06748459e-03, 3.06748459e-03, 6.13496918e-03,
          6.13496918e-03, 1.53374225e-02, 6.13496918e-03, 0.,
          1.22699384e-02, 0., 1.22699384e-02, 3.06748459e-03, 0.,
          3.06748459e-03, 1.22699384e-02, 3.06748459e-03, 3.06748459e-03,
          3.06748459e-03, 0., 0., 0., 0., 3.06748459e-03, 4.60122675e-02,
          1.84049085e-02, 0., 1.53374225e-02, 3.06748459e-03,
          9.20245424e-03, 1.84049085e-02, 9.20245424e-03, 0., 0.,
          6.13496918e-03, 3.06748459e-03, 6.13496918e-03, 0.,
          3.06748459e-03, 3.06748459e-03, 3.06748459e-03, 6.13496918e-03,
          1.22699384e-02, 3.06748459e-03, 9.20245424e-03, 3.06748459e-03,
          3.06748459e-03 ]
      - [ 0., 0., 0., 0., 0., 0., 0., 0., 0., 0., 0., 0., 0., 0., 0., 0.,
          0., 0., 0., 0., 0., 0., 0., 0., 0., 0., 0., 0., 0., 0., 0., 0.,
          0., 0., 0., 0., 0., 0., 0., 0., 5.00000000e-01, 0., 0., 0., 0.,
          0., 0., 0., 0., 0., 0., 0., 0., 0., 0., 0., 0., 0., 0., 0., 0.,
          0., 0., 0., 0., 0., 0., 0., 0., 0., 0., 0., 0., 0., 0., 0., 0.,
          0., 0., 0., 5.00000000e-01, 0., 0., 0., 0., 0., 0., 0., 0., 0.,
          0., 0., 0., 0., 0., 0., 0., 0., 0., 0., 0., 0., 0., 0., 0., 0.,
          0., 0., 0., 0., 0., 0., 0., 0., 0., 0., 0., 0., 0., 0., 0., 0.,
          0., 0., 0., 0., 0., 0., 0., 0., 0., 0., 0., 0., 0., 0., 0., 0.,
          0., 0., 0., 0., 0., 0., 0., 0., 0., 0., 0., 0., 0., 0., 0., 0.,
          0., 0., 0., 0., 0., 0. ]
      - [ 4.54545440e-03, 2.27272720e-03, 6.81818184e-03, 1.87499989e-02,
          4.54545440e-03, 3.40909092e-03, 3.97727266e-03, 5.68181789e-03,
          5.11363614e-03, 2.84090894e-03, 2.84090894e-03, 6.24999963e-03,
          1.13636360e-03, 3.40909092e-03, 1.02272723e-02, 0.,
          3.40909092e-03, 1.24999993e-02, 6.81818184e-03, 2.27272720e-03,
          1.19318180e-02, 2.84090894e-03, 3.97727266e-03, 6.81818184e-03,
          2.84090894e-03, 2.27272720e-03, 2.27272720e-03, 0.,
          1.13636360e-03, 3.97727266e-03, 3.97727266e-03, 1.13636360e-03,
          1.53409084e-02, 2.84090894e-03, 7.95454532e-03, 1.42045449e-02,
          3.40909092e-03, 3.97727266e-03, 5.68181800e-04, 5.11363614e-03,
          5.11363614e-03, 1.30681815e-02, 3.97727266e-03, 5.11363614e-03,
          1.19318180e-02, 3.40909092e-03, 5.11363614e-03, 1.64772719e-02,
          1.02272723e-02, 5.68181789e-03, 6.81818184e-03, 5.68181789e-03,
          3.40909092e-03, 1.59090906e-02, 1.81818176e-02, 2.84090894e-03,
          8.52272660e-03, 2.27272720e-03, 0., 1.13636360e-03,
          1.24999993e-02, 5.68181800e-04, 1.76136363e-02, 6.24999963e-03,
          0., 3.97727266e-03, 5.68181789e-03, 1.13636358e-02,
          1.02272723e-02, 7.38636358e-03, 7.95454532e-03, 6.24999963e-03,
          3.97727266e-03, 1.47727272e-02, 2.84090894e-03, 5.68181789e-03,
          3.97727266e-03, 0., 1.70454546e-03, 1.02272723e-02,
          4.54545440e-03, 9.09090880e-03, 2.84090894e-03, 7.38636358e-03,
          1.02272723e-02, 9.65909101e-03, 1.24999993e-02, 1.07954545e-02,
          3.40909092e-03, 3.40909092e-03, 5.68181789e-03, 2.84090894e-03,
          7.38636358e-03, 5.11363614e-03, 2.84090894e-03, 5.68181789e-03,
          1.30681815e-02, 5.11363614e-03, 1.13636360e-03, 9.09090880e-03,
          3.40909092e-03, 6.81818184e-03, 1.13636360e-03, 1.70454532e-02,
          9.09090880e-03, 3.40909092e-03, 3.40909092e-03, 3.97727266e-03,
          1.19318180e-02, 6.24999963e-03, 8.52272660e-03, 0.,
          7.38636358e-03, 5.68181789e-03, 3.52272727e-02, 5.11363614e-03,
          0., 1.19318180e-02, 6.24999963e-03, 1.87499989e-02,
          6.81818184e-03, 3.97727266e-03, 5.11363614e-03, 4.54545440e-03,
          5.68181789e-03, 9.09090880e-03, 5.68181800e-04, 6.24999963e-03,
          3.40909092e-03, 6.24999963e-03, 7.38636358e-03, 5.11363614e-03,
          2.27272720e-03, 5.68181800e-04, 0., 2.84090894e-03,
          6.81818184e-03, 2.38636360e-02, 8.52272660e-03, 0.,
          3.40909092e-03, 3.40909092e-03, 1.70454546e-03, 5.11363614e-03,
          5.68181789e-03, 3.40909092e-03, 2.84090894e-03, 1.59090906e-02,
          2.84090894e-03, 2.84090894e-03, 5.68181800e-04, 9.09090880e-03,
          6.81818184e-03, 1.13636360e-03, 1.13636358e-02, 8.52272660e-03,
          5.11363614e-03, 1.13636358e-02, 1.13636360e-03, 1.02272723e-02 ]
      - [ 1.57038700e-02, 3.05664632e-02, 1.68255763e-03, 5.60852524e-04,
          1.40213128e-03, 2.24341005e-02, 1.26191815e-02, 1.12170505e-03,
          1.96298375e-03, 9.81491897e-03, 1.68255763e-03, 1.12170505e-03,
          2.41166577e-02, 1.12170505e-03, 2.24341010e-03, 0.,
          2.52383645e-03, 1.06561976e-02, 2.80426256e-03, 2.52383645e-03,
          5.60852524e-04, 5.60852524e-04, 1.40213128e-03, 0.,
          2.88839042e-02, 1.43017396e-02, 2.80426262e-04, 1.26191815e-02,
          0., 1.43017396e-02, 2.80426262e-04, 5.60852524e-04, 0.,
          1.40213128e-03, 3.08468891e-03, 5.60852524e-04, 2.80426256e-02,
          1.40213128e-03, 1.54234441e-02, 1.54234441e-02, 5.60852524e-04,
          3.92596750e-03, 2.07515433e-02, 0., 1.12170505e-03,
          2.24341010e-03, 5.60852524e-04, 1.40213128e-03, 0.,
          1.12170505e-03, 1.12170505e-03, 4.76724654e-03, 2.52383645e-03,
          0., 0., 2.52383631e-02, 2.80426262e-04, 5.60852524e-04, 0.,
          2.80426256e-03, 2.80426262e-04, 1.20583288e-02, 0.,
          1.68255754e-02, 2.04711165e-02, 1.73864290e-02, 1.17779030e-02,
          2.24341010e-03, 0., 5.60852524e-04, 1.68255763e-03,
          2.86034793e-02, 1.99102648e-02, 2.80426262e-04, 1.03757717e-02,
          2.24341010e-03, 2.27145273e-02, 0., 1.37408869e-02,
          1.40213128e-03, 5.60852524e-04, 8.41278816e-04, 2.10319702e-02,
          2.80426262e-04, 0., 2.80426262e-04, 0., 5.60852524e-04,
          1.51430182e-02, 5.32809878e-03, 2.80426262e-04, 1.48625923e-02,
          0., 3.92596750e-03, 2.13123951e-02, 1.40213128e-03,
          6.16937783e-03, 1.93494130e-02, 4.20639385e-03, 1.99102648e-02,
          3.36511526e-03, 0., 6.16937783e-03, 0., 1.34604611e-02,
          3.92596750e-03, 7.85193499e-03, 1.96298375e-03, 1.40213128e-03,
          2.80426262e-04, 0., 2.80426262e-04, 1.12170505e-03,
          7.01065641e-03, 2.80426262e-04, 1.96298375e-03, 4.48682019e-03,
          2.80426262e-04, 1.12170505e-03, 4.48682019e-03, 1.68255763e-03,
          3.92596750e-03, 1.96298375e-03, 7.85193499e-03, 1.26191815e-02,
          1.17779030e-02, 2.01906916e-02, 8.41278816e-04, 1.59842968e-02,
          1.12170505e-03, 2.13123951e-02, 5.60852524e-04, 6.16937783e-03,
          6.16937783e-03, 2.80426262e-04, 8.41278816e-04, 8.41278816e-04,
          0., 2.80426262e-04, 2.24341010e-03, 2.80426262e-04,
          1.90689862e-02, 1.43017396e-02, 2.80426262e-04, 0.,
          8.41278769e-03, 1.26191815e-02, 8.41278816e-04, 2.41166577e-02,
          1.96298375e-03, 7.85193499e-03, 0., 1.12170505e-03,
          1.54234441e-02, 1.43017396e-02, 0., 2.27145273e-02,
          2.24341010e-03, 5.04767289e-03, 5.60852524e-04 ]
      - [ 0., 6.25000000e-02, 0., 0., 0., 0., 0., 0., 0., 0., 0., 0., 0.,
          0., 0., 0., 0., 1.25000000e-01, 0., 0., 0., 0., 0., 0., 0., 0.,
          0., 0., 0., 0., 0., 0., 0., 0., 0., 0., 6.25000000e-02, 0., 0.,
          0., 0., 0., 0., 0., 0., 0., 0., 0., 0., 0., 0., 0., 0., 0., 0.,
          0., 0., 0., 0., 0., 0., 0., 0., 0., 0., 0., 0., 0., 0., 0., 0.,
          0., 6.25000000e-02, 0., 0., 0., 6.25000000e-02, 0., 0., 0., 0.,
          0., 6.25000000e-02, 0., 0., 0., 0., 0., 0., 0., 0., 0., 0., 0.,
          0., 0., 1.25000000e-01, 0., 0., 0., 0., 0., 0., 0., 0., 0., 0.,
          0., 0., 0., 0., 0., 0., 0., 0., 0., 6.25000000e-02, 0., 0., 0.,
          0., 0., 0., 0., 0., 1.25000000e-01, 0., 0., 6.25000000e-02, 0.,
          0., 0., 0., 0., 0., 0., 0., 0., 0., 0., 0., 0., 6.25000000e-02,
          0., 0., 0., 0., 0., 0., 0., 0., 0., 0., 6.25000000e-02, 0., 0.,
          6.25000000e-02, 0., 0., 0. ]
      - [ 0., 0., 0., 0., 0., 0., 0., 0., 0., 0., 0., 0., 0., 0., 0., 0.,
          0., 0., 0., 0., 0., 0., 0., 0., 0., 0., 0., 0., 0., 0., 0., 0.,
          0., 5.00000000e-01, 0., 0., 0., 0., 0., 0., 0., 0., 0., 0., 0.,
          0., 0., 0., 0., 0., 0., 0., 0., 0., 0., 0., 0., 0., 0., 0., 0.,
          0., 0., 0., 0., 0., 0., 0., 0., 0., 0., 0., 0., 0., 0., 0., 0.,
          0., 0., 0., 0., 0., 0., 0., 0., 0., 0., 0., 0., 0., 0., 0., 0.,
          0., 0., 0., 0., 0., 0., 0., 0., 0., 0., 0., 0., 5.00000000e-01,
          0., 0., 0., 0., 0., 0., 0., 0., 0., 0., 0., 0., 0., 0., 0., 0.,
          0., 0., 0., 0., 0., 0., 0., 0., 0., 0., 0., 0., 0., 0., 0., 0.,
          0., 0., 0., 0., 0., 0., 0., 0., 0., 0., 0., 0., 0., 0., 0., 0.,
          0., 0., 0., 0., 0., 0. ]
      - [ 0., 0., 0., 0., 0., 0., 0., 0., 0., 0., 0., 0., 0., 0., 0., 0.,
          0., 0., 0., 0., 0., 0., 0., 0., 0., 0., 0., 5.00000000e-01, 0.,
          0., 0., 0., 0., 0., 0., 0., 0., 0., 0., 0., 0., 0., 0., 0., 0.,
          0., 0., 0., 0., 0., 0., 0., 0., 0., 0., 0., 0., 0., 0., 0., 0.,
          0., 0., 0., 5.00000000e-01, 0., 0., 0., 0., 0., 0., 0., 0., 0.,
          0., 0., 0., 0., 0., 0., 0., 0., 0., 0., 0., 0., 0., 0., 0., 0.,
          0., 0., 0., 0., 0., 0., 0., 0., 0., 0., 0., 0., 0., 0., 0., 0.,
          0., 0., 0., 0., 0., 0., 0., 0., 0., 0., 0., 0., 0., 0., 0., 0.,
          0., 0., 0., 0., 0., 0., 0., 0., 0., 0., 0., 0., 0., 0., 0., 0.,
          0., 0., 0., 0., 0., 0., 0., 0., 0., 0., 0., 0., 0., 0., 0., 0.,
          0., 0., 0., 0., 0., 0. ]
      - [ 5.96158113e-03, 4.41598613e-03, 1.21439612e-02, 3.75358807e-03,
          8.16957373e-03, 8.39037355e-03, 6.84477808e-03, 7.50717614e-03,
          2.00927351e-02, 1.41311549e-02, 2.31839251e-02, 3.75358807e-03,
          9.27357003e-03, 6.62397884e-04, 8.83197179e-04, 1.98719371e-03,
          4.19518678e-03, 3.97438742e-03, 1.32479577e-03, 1.17023624e-02,
          2.20799295e-04, 9.49436985e-03, 0., 0., 6.84477808e-03,
          2.16383301e-02, 5.07838372e-03, 3.53278872e-03, 1.54559501e-03,
          7.06557743e-03, 0., 4.59262542e-02, 0., 4.19518678e-03,
          6.62397884e-04, 8.83197179e-04, 7.72797549e-03, 8.16957373e-03,
          1.54559501e-03, 2.42879218e-03, 3.09119001e-03, 1.98719371e-03,
          2.87039089e-03, 2.20799295e-04, 4.19518678e-03, 3.31198936e-03,
          1.10399653e-03, 2.64959154e-03, 6.62397884e-04, 1.12607637e-02,
          2.64959154e-03, 8.83197179e-04, 1.98719371e-03, 1.32479577e-03,
          8.83197179e-04, 1.28063587e-02, 1.05983661e-02, 1.34687573e-02,
          8.85405168e-02, 4.41598590e-04, 1.76639436e-03, 2.36255247e-02,
          0., 2.64959154e-03, 1.98719371e-03, 2.20799306e-03,
          3.53278872e-03, 1.76639436e-03, 1.54559501e-03, 4.41598613e-03,
          8.83197179e-04, 9.71516874e-03, 5.07838372e-03, 1.54559501e-03,
          1.89887397e-02, 2.20799295e-04, 7.06557743e-03, 2.87039089e-03,
          6.84477808e-03, 6.62397884e-04, 1.10399653e-03, 4.19518678e-03,
          4.63678502e-03, 1.54559501e-03, 0., 2.64959154e-03,
          8.83197179e-04, 1.14815636e-02, 2.42879218e-03, 4.41598613e-03,
          6.84477808e-03, 8.83197179e-04, 1.98719371e-03, 1.98719371e-03,
          6.18238002e-03, 4.41598613e-03, 2.20799306e-03, 1.21439612e-02,
          1.12607637e-02, 8.16957373e-03, 6.62397884e-04, 0.,
          1.10399653e-03, 8.83197179e-04, 5.29918307e-03, 7.06557743e-03,
          2.64959154e-03, 5.07838372e-03, 4.19518678e-03, 0.,
          1.32479577e-03, 8.14749375e-02, 1.32479577e-03, 1.54559501e-03,
          6.62397884e-04, 1.10399653e-03, 4.41598590e-04, 1.32479577e-03,
          3.75358807e-03, 3.75358807e-03, 1.17023624e-02, 8.83197179e-04,
          1.25855599e-02, 7.72797549e-03, 3.53278872e-03, 6.18238002e-03,
          2.42879218e-03, 2.20799295e-04, 4.41598613e-03, 7.28637679e-03,
          6.84477808e-03, 1.45727536e-02, 6.62397884e-04, 1.05983661e-02,
          4.19518678e-03, 2.40671225e-02, 2.64959154e-03, 2.87039089e-03,
          2.20799306e-03, 3.28990966e-02, 2.42879218e-03, 6.40317937e-03,
          2.87039089e-03, 0., 2.87039089e-03, 1.32479577e-03,
          9.49436985e-03, 4.41598613e-03, 4.41598613e-03, 0.,
          2.20799306e-03, 8.83197179e-04, 5.51998243e-03, 5.29918307e-03,
          5.29918307e-03, 6.62397884e-04, 1.70015451e-02, 1.54559501e-03,
          1.76639436e-03, 1.23647600e-02 ]
      - [ 0., 0., 0., 0., 1.66666672e-01, 0., 0., 0., 0., 0., 0., 0., 0.,
          0., 0., 8.33333358e-02, 0., 0., 0., 0., 0., 0., 0., 0., 0., 0.,
          0., 0., 0., 0., 0., 0., 0., 0., 0., 0., 0., 8.33333358e-02, 0.,
          0., 0., 0., 0., 0., 0., 0., 0., 0., 0., 8.33333358e-02, 0., 0.,
          0., 0., 0., 0., 0., 0., 0., 0., 0., 0., 0., 0., 0., 0., 0., 0.,
          0., 8.33333358e-02, 0., 0., 0., 0., 0., 0., 8.33333358e-02, 0.,
          0., 0., 0., 0., 0., 0., 0., 0., 0., 0., 0., 0., 0.,
          8.33333358e-02, 0., 0., 0., 8.33333358e-02, 0., 0., 0., 0., 0.,
          0., 0., 0., 0., 8.33333358e-02, 0., 0., 0., 0., 0., 0., 0., 0.,
          0., 8.33333358e-02, 0., 0., 0., 0., 0., 0., 0., 0., 0., 0., 0.,
          0., 0., 0., 0., 0., 0., 0., 0., 0., 0., 0., 0., 0., 0., 0., 0.,
          0., 0., 0., 0., 0., 0., 0., 8.33333358e-02, 0., 0., 0., 0., 0.,
          0., 0., 0., 0. ]
      - [ 0., 0., 0., 0., 0., 0., 0., 0., 0., 0., 0., 0., 0., 0., 0., 0.,
          0., 0., 0., 0., 0., 0., 0., 0., 0., 0., 0., 0., 0., 0., 0., 0.,
          0., 0., 0., 0., 0., 0., 0., 0., 0., 0., 0., 0., 0., 0., 0., 0.,
          0., 0., 0., 0., 0., 0., 0., 0., 0., 0., 0., 0., 0., 0., 0., 0.,
          0., 0., 0., 0., 0., 0., 0., 0., 0., 0., 0., 0., 0., 0., 0., 0.,
          0., 0., 0., 0., 0., 0., 0., 0., 0., 0., 0., 0., 0., 0., 0., 0.,
          0., 0., 0., 0., 0., 0., 0., 0., 0., 0., 0., 0., 0., 0., 0., 0.,
          0., 0., 0., 0., 0., 0., 0., 0., 0., 0., 0., 0., 0., 0., 0., 0.,
          0., 0., 0., 0., 0., 0., 0., 0., 0., 0., 0., 0., 1., 0., 0., 0.,
          0., 0., 0., 0., 0., 0., 0., 0., 0., 0., 0., 0., 0., 0., 0., 0. ]
      - [ 0., 0., 0., 0., 0., 0., 0., 0., 0., 0., 0., 0., 0., 0., 0., 0.,
          0., 0., 0., 0., 3.33333343e-01, 0., 0., 0., 0., 0., 0., 0., 0.,
          0., 0., 0., 0., 0., 0., 0., 0., 0., 0., 0., 0., 0., 0., 0., 0.,
          0., 0., 0., 0., 0., 0., 0., 0., 0., 0., 0., 0., 0., 0., 0., 0.,
          0., 0., 0., 0., 0., 0., 0., 0., 0., 0., 0., 0., 0., 0., 0., 0.,
          6.66666687e-01, 0., 0., 0., 0., 0., 0., 0., 0., 0., 0., 0., 0.,
          0., 0., 0., 0., 0., 0., 0., 0., 0., 0., 0., 0., 0., 0., 0., 0.,
          0., 0., 0., 0., 0., 0., 0., 0., 0., 0., 0., 0., 0., 0., 0., 0.,
          0., 0., 0., 0., 0., 0., 0., 0., 0., 0., 0., 0., 0., 0., 0., 0.,
          0., 0., 0., 0., 0., 0., 0., 0., 0., 0., 0., 0., 0., 0., 0., 0.,
          0., 0., 0., 0., 0., 0. ]
      - [ 2.80898879e-03, 1.12359552e-02, 2.80898879e-03, 8.42696615e-03,
          5.61797759e-03, 5.61797759e-03, 1.12359552e-02, 1.12359552e-02,
          2.80898879e-03, 2.80898879e-03, 8.42696615e-03, 1.12359552e-02,
          5.61797759e-03, 0., 5.61797759e-03, 0., 8.42696615e-03,
          1.68539323e-02, 1.12359552e-02, 2.80898879e-03, 5.61797759e-03,
          1.12359552e-02, 2.80898879e-03, 0., 5.61797759e-03,
          2.80898879e-03, 0., 0., 0., 0., 0., 2.80898879e-03, 0.,
          5.61797759e-03, 5.61797759e-03, 5.61797759e-03, 1.68539323e-02,
          0., 2.80898879e-03, 1.12359552e-02, 2.80898879e-03,
          1.12359552e-02, 1.68539323e-02, 0., 2.80898879e-03,
          5.61797759e-03, 2.80898879e-03, 1.40449442e-02, 1.40449442e-02,
          8.42696615e-03, 1.12359552e-02, 5.61797759e-03, 2.80898879e-03,
          5.61797759e-03, 8.42696615e-03, 1.68539323e-02, 2.80898879e-03,
          0., 0., 2.80898879e-03, 2.80898879e-03, 5.61797759e-03,
          8.42696615e-03, 1.68539323e-02, 5.61797759e-03, 1.40449442e-02,
          1.68539323e-02, 2.80898879e-03, 2.80898879e-03, 1.68539323e-02,
          5.61797759e-03, 8.42696615e-03, 5.61797759e-03, 0., 0.,
          2.80898879e-03, 1.12359552e-02, 0., 0., 5.61797759e-03, 0.,
          1.12359552e-02, 1.68539323e-02, 2.80898879e-03, 0., 0.,
          2.80898879e-03, 5.61797759e-03, 1.12359552e-02, 2.80898879e-03,
          2.80898879e-03, 5.61797759e-03, 0., 2.80898879e-03,
          1.40449442e-02, 2.80898879e-03, 2.52808984e-02, 0.,
          8.42696615e-03, 1.40449442e-02, 5.61797759e-03, 2.80898879e-03,
          0., 5.61797759e-03, 1.96629222e-02, 8.42696615e-03,
          8.42696615e-03, 1.68539323e-02, 2.80898879e-03, 0.,
          5.61797759e-03, 0., 0., 2.80898879e-03, 2.80898879e-03,
          5.61797759e-03, 0., 2.80898879e-03, 8.42696615e-03,
          1.40449442e-02, 8.42696615e-03, 2.80898879e-03, 2.80898879e-03,
          1.40449442e-02, 1.12359552e-02, 1.68539323e-02, 5.61797759e-03,
          0., 2.52808984e-02, 1.12359552e-02, 0., 2.80898879e-03,
          2.80898879e-03, 0., 1.12359552e-02, 2.80898879e-03,
          1.40449442e-02, 1.68539323e-02, 5.61797759e-03, 0.,
          5.61797759e-03, 1.12359552e-02, 8.42696615e-03, 0.,
          5.61797759e-03, 8.42696615e-03, 5.61797759e-03, 5.61797759e-03,
          8.42696615e-03, 0., 0., 0., 8.42696615e-03, 2.80898879e-03,
          4.49438207e-02, 2.80898879e-03, 2.80898879e-03, 0., 0.,
          2.80898879e-03 ]
      - [ 4.44115466e-03, 1.77646186e-02, 2.22057733e-03, 9.62250121e-03,
          0., 3.70096206e-03, 4.44115466e-03, 4.44115466e-03,
          6.66173175e-03, 5.92153938e-03, 1.48038485e-03, 1.40636563e-02,
          9.62250121e-03, 2.96076969e-03, 1.48038485e-03, 0.,
          1.77646186e-02, 5.10732755e-02, 2.96076969e-03, 0.,
          1.48038485e-03, 8.14211648e-03, 0., 0., 9.62250121e-03,
          2.96076969e-03, 0., 4.44115466e-03, 0., 8.14211648e-03, 0., 0.,
          0., 7.40192411e-03, 0., 1.40636563e-02, 4.14507762e-02, 0.,
          1.03626940e-02, 1.85048115e-02, 7.40192423e-04, 4.44115466e-03,
          1.55440411e-02, 0., 5.18134702e-03, 8.14211648e-03, 0.,
          3.70096206e-03, 0., 3.70096206e-03, 7.40192423e-04, 0., 0.,
          1.48038485e-03, 7.40192423e-04, 2.36861575e-02, 8.88230931e-03,
          0., 0., 0., 0., 0., 0., 1.11028859e-02, 1.03626940e-02,
          5.18134702e-03, 2.51665432e-02, 0., 4.44115466e-03,
          9.62250121e-03, 1.48038485e-03, 8.88230931e-03, 4.44115466e-03,
          0., 7.40192423e-04, 7.40192423e-04, 5.99555857e-02, 0.,
          2.22057733e-03, 0., 7.40192423e-04, 2.14655809e-02,
          1.48038482e-02, 2.22057733e-03, 0., 1.48038485e-03,
          5.18134702e-03, 2.96076969e-03, 6.66173175e-03, 7.40192423e-04,
          3.70096206e-03, 5.18134702e-03, 1.48038485e-03, 2.22057733e-03,
          2.96076969e-03, 1.18430788e-02, 1.77646186e-02, 4.44115466e-03,
          0., 4.14507762e-02, 0., 0., 0., 0., 1.99851952e-02,
          7.40192423e-04, 6.66173175e-03, 2.07253881e-02, 7.40192423e-04,
          0., 1.48038485e-03, 0., 0., 5.18134702e-03, 2.22057733e-03,
          7.40192423e-04, 0., 2.96076969e-03, 2.96076969e-03, 0.,
          1.92450024e-02, 7.40192423e-04, 1.18430788e-02, 2.96076969e-03,
          1.48038482e-02, 3.18282731e-02, 1.62842330e-02, 0.,
          7.40192423e-04, 5.18134702e-03, 1.18430788e-02, 1.62842330e-02,
          0., 7.40192423e-04, 0., 1.48038485e-03, 7.40192411e-03, 0., 0.,
          0., 0., 3.40488516e-02, 3.70096206e-03, 0., 5.18134702e-03,
          1.48038485e-03, 8.14211648e-03, 2.22057733e-03, 1.55440411e-02,
          0., 0., 0., 5.92153938e-03, 4.44115466e-03, 4.44115438e-02, 0.,
          9.62250121e-03, 0., 0., 3.70096206e-03 ]
      - [ 0., 0., 0., 0., 0., 0., 0., 0., 0., 0., 0., 0., 0., 0., 0., 0.,
          0., 0., 0., 0., 0., 0., 0., 0., 0., 0., 0., 0., 0., 0., 0., 0.,
          0., 0., 0., 0., 0., 0., 0., 0., 0., 0., 0., 0., 0., 0., 0., 0.,
          0., 0., 6.66666687e-01, 0., 0., 0., 0., 0., 0., 0., 0., 0., 0.,
          0., 0., 0., 0., 0., 0., 0., 0., 0., 0., 0., 0., 0., 0., 0., 0.,
          0., 0., 0., 0., 0., 0., 0., 0., 0., 0., 0., 0., 0., 0., 0., 0.,
          0., 0., 0., 0., 0., 0., 0., 0., 0., 0., 0., 0., 0., 0., 0., 0.,
          0., 0., 0., 0., 0., 0., 0., 0., 0., 3.33333343e-01, 0., 0., 0.,
          0., 0., 0., 0., 0., 0., 0., 0., 0., 0., 0., 0., 0., 0., 0., 0.,
          0., 0., 0., 0., 0., 0., 0., 0., 0., 0., 0., 0., 0., 0., 0., 0.,
          0., 0., 0., 0., 0., 0. ]
      - [ 0., 0., 0., 0., 0., 0., 0., 0., 0., 0., 0., 0., 0., 0., 0., 0.,
          0., 0., 0., 0., 0., 0., 0., 0., 0., 0., 0., 0., 0., 0., 0., 0.,
          0., 0., 0., 3.33333343e-01, 0., 0., 0., 0., 0., 3.33333343e-01,
          0., 0., 0., 0., 0., 0., 0., 0., 0., 0., 0., 0., 0., 0., 0., 0.,
          0., 0., 0., 0., 0., 0., 0., 0., 0., 0., 0., 0., 0., 0., 0., 0.,
          0., 0., 0., 0., 0., 0., 0., 0., 0., 0., 0., 0., 0., 0., 0., 0.,
          0., 0., 0., 0., 0., 0., 0., 0., 3.33333343e-01, 0., 0., 0., 0.,
          0., 0., 0., 0., 0., 0., 0., 0., 0., 0., 0., 0., 0., 0., 0., 0.,
          0., 0., 0., 0., 0., 0., 0., 0., 0., 0., 0., 0., 0., 0., 0., 0.,
          0., 0., 0., 0., 0., 0., 0., 0., 0., 0., 0., 0., 0., 0., 0., 0.,
          0., 0., 0., 0., 0., 0., 0., 0., 0. ]
      - [ 0., 0., 0., 0., 0., 0., 0., 0., 0., 0., 0., 0., 0., 0., 0., 0.,
          0., 0., 0., 0., 0., 0., 0., 0., 0., 0., 0., 0., 0., 0., 0., 0.,
          0., 0., 0., 0., 0., 0., 0., 0., 0., 9.09090936e-02, 0., 0., 0.,
          0., 0., 0., 0., 0., 0., 0., 0., 0., 0., 0., 0., 0., 0., 0., 0.,
          0., 0., 0., 0., 0., 0., 1.81818187e-01, 0., 0., 9.09090936e-02,
          0., 0., 0., 0., 0., 0., 0., 0., 0., 9.09090936e-02, 0., 0., 0.,
          0., 0., 0., 0., 0., 0., 0., 0., 0., 0., 0., 0., 0., 0., 0., 0.,
          0., 0., 0., 0., 0., 0., 0., 0., 0., 1.81818187e-01, 0., 0., 0.,
          0., 0., 0., 0., 0., 0., 0., 0., 9.09090936e-02, 0., 0., 0.,
          9.09090936e-02, 0., 0., 0., 0., 0., 0., 0., 0., 0., 0., 0., 0.,
          0., 0., 0., 0., 0., 0., 0., 0., 0., 0., 0., 9.09090936e-02, 0.,
          0., 0., 0., 0., 0., 0., 9.09090936e-02, 0., 0. ]
      - [ 0., 0., 0., 0., 0., 0., 0., 0., 0., 0., 0., 0., 0., 0., 0., 0.,
          0., 0., 0., 0., 0., 0., 0., 0., 0., 0., 0., 0., 0., 0., 0., 0.,
          0., 0., 0., 0., 0., 0., 0., 0., 0., 0., 0., 0., 0., 0., 0., 0.,
          0., 0., 0., 0., 0., 0., 0., 0., 0., 0., 0., 0., 0., 0., 0., 0.,
          0., 0., 0., 0., 0., 0., 0., 0., 0., 0., 0., 0., 0., 0., 0., 0.,
          5.00000000e-01, 0., 0., 0., 0., 0., 0., 0., 0., 0., 0., 0., 0.,
          0., 0., 0., 0., 0., 0., 0., 0., 0., 0., 0., 0., 0., 0., 0., 0.,
          0., 0., 0., 0., 0., 0., 0., 0., 0., 0., 0., 0., 0., 0., 0., 0.,
          0., 0., 0., 0., 0., 0., 0., 0., 0., 0., 0., 0., 0., 0., 0., 0.,
          0., 0., 0., 0., 0., 0., 0., 0., 0., 0., 0., 5.00000000e-01, 0.,
          0., 0., 0., 0., 0., 0. ]
      - [ 0., 0., 0., 0., 0., 0., 0., 0., 0., 0., 0., 0., 0., 0.,
          1.25000000e-01, 0., 0., 0., 0., 0., 0., 0., 0., 0., 0., 0., 0.,
          0., 0., 0., 0., 0., 0., 0., 0., 2.50000000e-01, 0., 0., 0., 0.,
          0., 1.25000000e-01, 0., 0., 0., 0., 0., 0., 0., 0., 0., 0., 0.,
          0., 0., 0., 0., 0., 0., 0., 0., 0., 0., 0., 0., 0.,
          1.25000000e-01, 0., 0., 0., 0., 0., 0., 0., 0., 0., 0., 0., 0.,
          0., 0., 0., 0., 0., 0., 0., 0., 0., 0., 0., 0., 0., 0., 0., 0.,
          0., 1.25000000e-01, 0., 0., 0., 0., 0., 0., 0., 0., 0., 0., 0.,
          0., 0., 0., 0., 0., 0., 0., 0., 0., 0., 0., 0., 0., 0., 0., 0.,
          0., 1.25000000e-01, 0., 0., 0., 0., 0., 0., 0., 0., 0., 0., 0.,
          0., 0., 0., 0., 0., 0., 0., 0., 1.25000000e-01, 0., 0., 0., 0.,
          0., 0., 0., 0., 0., 0., 0., 0., 0., 0. ]
      - [ 1.29310340e-02, 4.31034481e-03, 0., 4.31034481e-03, 0., 0.,
          8.62068962e-03, 0., 4.31034481e-03, 8.62068962e-03, 0.,
          4.31034481e-03, 0., 4.31034481e-03, 1.29310340e-02, 0.,
          4.31034481e-03, 1.29310340e-02, 4.31034490e-02, 0.,
          4.31034481e-03, 4.31034481e-03, 0., 0., 0., 0., 0., 0., 0., 0.,
          0., 0., 4.31034481e-03, 4.31034481e-03, 1.29310340e-02,
          1.76724136e-01, 0., 0., 0., 8.62068962e-03, 4.31034481e-03,
          1.29310340e-02, 0., 4.31034481e-03, 0., 8.62068962e-03,
          8.62068962e-03, 0., 4.31034481e-03, 0., 4.31034490e-02,
          4.31034481e-03, 0., 4.31034481e-03, 8.62068962e-03, 0., 0., 0.,
          0., 0., 0., 0., 0., 2.15517245e-02, 4.31034481e-03,
          8.62068962e-03, 8.62068962e-03, 4.31034481e-03, 2.15517245e-02,
          0., 2.15517245e-02, 0., 0., 0., 0., 8.62068962e-03,
          1.72413792e-02, 0., 0., 3.44827585e-02, 0., 1.72413792e-02,
          8.62068962e-03, 4.31034481e-03, 0., 4.31034481e-03,
          1.29310340e-02, 4.31034481e-03, 0., 0., 4.31034481e-03,
          8.62068962e-03, 4.31034481e-03, 0., 8.62068962e-03, 0.,
          2.58620679e-02, 0., 0., 0., 0., 8.62068962e-03, 0.,
          8.62068962e-03, 1.29310340e-02, 0., 4.31034481e-03,
          1.29310340e-02, 0., 1.29310340e-02, 2.15517245e-02, 0., 0.,
          4.31034481e-03, 4.31034481e-03, 0., 0., 4.31034481e-03,
          3.87931019e-02, 8.62068962e-03, 1.29310340e-02, 0.,
          8.62068962e-03, 1.29310340e-02, 4.31034481e-03, 1.29310340e-02,
          0., 1.29310340e-02, 0., 8.62068962e-03, 0., 0., 0., 0.,
          4.31034481e-03, 0., 0., 0., 4.31034481e-03, 0., 0.,
          4.31034481e-03, 0., 0., 0., 4.31034481e-03, 1.29310340e-02, 0.,
          0., 0., 0., 1.29310340e-02, 0., 0., 3.01724132e-02,
          4.31034481e-03, 8.62068962e-03, 0., 0., 0. ]
      - [ 0., 0., 0., 0., 0., 0., 0., 0., 0., 0., 0., 0., 0., 0., 0., 0.,
          0., 8.69565234e-02, 4.34782617e-02, 0., 0., 0., 0., 0., 0., 0.,
          0., 0., 0., 0., 0., 0., 0., 0., 0., 2.17391312e-01, 0., 0., 0.,
          0., 0., 1.30434781e-01, 0., 0., 0., 0., 0., 0., 0., 0.,
          4.34782617e-02, 4.34782617e-02, 0., 0., 0., 0., 0., 0., 0., 0.,
          0., 0., 0., 0., 0., 0., 4.34782617e-02, 0., 0., 0., 0., 0., 0.,
          0., 0., 0., 0., 0., 0., 0., 0., 0., 0., 0., 0., 0., 0., 0., 0.,
          0., 0., 0., 0., 0., 0., 0., 0., 0., 0., 0., 0., 0., 0., 0., 0.,
          0., 0., 0., 0., 0., 0., 0., 0., 0., 0., 0., 0., 0.,
          4.34782617e-02, 0., 0., 0., 0., 0., 0., 1.73913047e-01, 0., 0.,
          4.34782617e-02, 4.34782617e-02, 0., 0., 0., 0., 0., 0., 0., 0.,
          0., 0., 0., 0., 0., 0., 4.34782617e-02, 0., 0., 0., 0., 0., 0.,
          0., 0., 0., 4.34782617e-02, 0., 0., 0., 0., 0. ]
      - [ 0., 0., 0., 0., 0., 0., 0., 0., 0., 0., 0., 0., 0., 0., 0., 0.,
          0., 2.04081628e-02, 2.04081628e-02, 2.04081628e-02, 0., 0., 0.,
          2.04081628e-02, 0., 0., 0., 0., 0., 0., 0., 0., 0., 0., 0.,
          5.71428537e-01, 0., 0., 0., 0., 0., 2.04081628e-02, 0., 0., 0.,
          2.04081628e-02, 0., 0., 0., 0., 2.04081628e-02, 0., 0., 0., 0.,
          0., 0., 0., 0., 0., 0., 0., 0., 0., 0., 0., 2.04081628e-02,
          2.04081628e-02, 0., 0., 0., 0., 0., 0., 0., 0., 0., 0., 0.,
          2.04081628e-02, 0., 0., 0., 0., 0., 0., 0., 0., 0., 0., 0., 0.,
          0., 0., 0., 0., 8.16326514e-02, 0., 0., 0., 0., 0., 0., 0., 0.,
          0., 0., 0., 0., 0., 0., 0., 0., 0., 0., 0., 0., 0.,
          2.04081628e-02, 2.04081628e-02, 0., 0., 0., 0., 0.,
          4.08163257e-02, 0., 0., 0., 0., 0., 0., 0., 0., 0., 0., 0., 0.,
          0., 0., 0., 0., 0., 0., 0., 2.04081628e-02, 0., 0., 0., 0., 0.,
          0., 0., 0., 4.08163257e-02, 0., 0., 0., 0., 0. ]
      - [ 0., 0., 0., 0., 0., 0., 0., 0., 0., 0., 0., 0., 0., 0., 0., 0.,
          0., 0., 0., 0., 0., 0., 0., 0., 0., 0., 0., 0., 0., 0., 0., 0.,
          0., 0., 0., 0., 0., 0., 0., 0., 0., 0., 0., 0., 0., 0., 0., 0.,
          0., 0., 0., 0., 0., 0., 0., 0., 0., 0., 0., 0., 0., 0., 0., 0.,
          0., 0., 0., 0., 0., 0., 0., 0., 0., 0., 0., 0., 0., 0., 0., 0.,
          0., 0., 0., 0., 0., 0., 0., 0., 0., 0., 0., 0., 0., 0., 0., 0.,
          0., 0., 0., 0., 0., 0., 0., 0., 0., 0., 0., 1., 0., 0., 0., 0.,
          0., 0., 0., 0., 0., 0., 0., 0., 0., 0., 0., 0., 0., 0., 0., 0.,
          0., 0., 0., 0., 0., 0., 0., 0., 0., 0., 0., 0., 0., 0., 0., 0.,
          0., 0., 0., 0., 0., 0., 0., 0., 0., 0., 0., 0., 0., 0., 0., 0. ]
      - [ 6.87285233e-03, 2.06185579e-02, 0., 1.03092790e-02, 0., 0.,
          3.43642617e-03, 3.43642617e-03, 3.43642617e-03, 6.87285233e-03,
          0., 6.87285233e-03, 1.37457047e-02, 1.03092790e-02,
          3.43642617e-03, 0., 1.37457047e-02, 8.59106556e-02,
          1.37457047e-02, 0., 0., 6.87285233e-03, 0., 0., 3.43642617e-03,
          0., 0., 1.03092790e-02, 0., 0., 0., 0., 0., 1.03092790e-02,
          1.71821304e-02, 3.09278350e-02, 2.74914093e-02, 0.,
          2.06185579e-02, 6.87285233e-03, 0., 1.03092790e-02,
          4.12371159e-02, 0., 0., 2.06185579e-02, 3.43642617e-03, 0., 0.,
          3.43642617e-03, 6.87285233e-03, 3.43642617e-03, 3.43642617e-03,
          0., 0., 2.40549836e-02, 3.43642617e-03, 0., 0., 0., 0., 0., 0.,
          3.43642617e-03, 6.87285233e-03, 1.03092790e-02, 2.74914093e-02,
          0., 3.43642617e-03, 6.87285233e-03, 3.43642617e-03,
          1.03092790e-02, 3.43642617e-03, 3.43642617e-03, 3.43642617e-03,
          0., 4.81099673e-02, 0., 3.43642617e-03, 3.43642617e-03, 0.,
          1.71821304e-02, 2.06185579e-02, 3.43642617e-03, 0.,
          3.43642617e-03, 3.43642617e-03, 0., 1.37457047e-02, 0.,
          3.43642617e-03, 0., 0., 3.43642617e-03, 3.43642617e-03,
          6.87285233e-03, 1.37457047e-02, 3.43642617e-03, 0.,
          3.43642607e-02, 0., 0., 3.43642617e-03, 0., 2.06185579e-02, 0.,
          3.43642617e-03, 0., 0., 0., 0., 0., 0., 6.87285233e-03, 0., 0.,
          0., 3.43642617e-03, 6.87285233e-03, 6.87285233e-03,
          1.71821304e-02, 0., 0., 3.43642617e-03, 1.03092790e-02,
          2.74914093e-02, 2.06185579e-02, 3.43642617e-03, 3.43642617e-03,
          0., 1.03092790e-02, 6.87285233e-03, 0., 0., 0., 0., 0.,
          3.43642617e-03, 0., 0., 0., 1.71821304e-02, 6.87285233e-03, 0.,
          6.87285233e-03, 0., 1.37457047e-02, 0., 1.37457047e-02, 0.,
          3.43642617e-03, 0., 3.43642617e-03, 6.87285233e-03,
          3.43642607e-02, 0., 3.43642617e-03, 6.87285233e-03, 0., 0. ]
      - [ 5.78034669e-03, 2.02312134e-02, 0., 1.15606934e-02, 0.,
          8.67052004e-03, 5.78034669e-03, 5.78034669e-03, 0., 0., 0.,
          1.15606934e-02, 2.89017335e-03, 2.89017335e-03, 2.89017335e-03,
          0., 2.31213868e-02, 7.51445070e-02, 2.89017335e-03, 0., 0.,
          8.67052004e-03, 2.89017335e-03, 0., 8.67052004e-03,
          5.78034669e-03, 0., 2.89017335e-03, 0., 5.78034669e-03, 0., 0.,
          0., 8.67052004e-03, 5.78034669e-03, 2.31213868e-02,
          2.31213868e-02, 0., 1.15606934e-02, 0., 5.78034669e-03,
          8.67052004e-03, 8.67052004e-03, 0., 5.78034669e-03,
          2.89017335e-03, 2.89017335e-03, 0., 0., 2.89017335e-03, 0.,
          8.67052004e-03, 0., 2.89017335e-03, 0., 2.02312134e-02,
          5.78034669e-03, 0., 0., 0., 2.89017335e-03, 0., 0.,
          1.44508667e-02, 2.89017335e-03, 5.78034669e-03, 2.02312134e-02,
          0., 2.89017335e-03, 1.15606934e-02, 1.44508667e-02,
          1.73410401e-02, 2.89017335e-03, 0., 0., 0., 4.91329469e-02, 0.,
          2.89017335e-03, 0., 0., 3.17919068e-02, 2.02312134e-02,
          2.89017335e-03, 0., 0., 2.89017335e-03, 0., 1.44508667e-02, 0.,
          8.67052004e-03, 1.15606934e-02, 0., 0., 2.89017335e-03,
          2.89017335e-03, 2.60115601e-02, 5.78034669e-03, 2.89017335e-03,
          3.17919068e-02, 0., 0., 0., 2.89017335e-03, 1.73410401e-02,
          2.89017335e-03, 2.89017335e-03, 2.60115601e-02, 2.89017335e-03,
          0., 2.89017335e-03, 0., 2.89017335e-03, 8.67052004e-03,
          2.89017335e-03, 2.89017335e-03, 0., 2.89017335e-03,
          2.89017335e-03, 1.73410401e-02, 2.89017335e-03, 0.,
          8.67052004e-03, 2.89017335e-03, 2.02312134e-02, 2.02312134e-02,
          1.73410401e-02, 0., 5.78034669e-03, 1.15606934e-02,
          2.89017335e-03, 2.89017335e-03, 0., 0., 0., 0., 2.89017335e-03,
          0., 0., 0., 0., 2.89017335e-02, 2.89017335e-03, 0., 0., 0.,
          2.89017335e-03, 2.89017335e-03, 1.73410401e-02, 0., 0., 0.,
          5.78034669e-03, 5.78034669e-03, 4.33526002e-02, 0.,
          8.67052004e-03, 5.78034669e-03, 0., 5.78034669e-03 ]
      - [ 0., 0., 0., 0., 0., 0., 0., 0., 0., 0., 0., 0., 0., 0.,
          5.00000000e-01, 0., 0., 0., 0., 0., 0., 0., 0., 0., 0., 0., 0.,
          0., 0., 0., 0., 0., 0., 0., 0., 0., 0., 0., 0., 0., 0., 0., 0.,
          0., 0., 0., 0., 0., 0., 0., 0., 0., 0., 0., 0., 0., 0., 0., 0.,
          0., 0., 0., 0., 0., 0., 0., 0., 0., 0., 0., 0., 0., 0., 0., 0.,
          0., 0., 0., 0., 0., 0., 0., 0., 0., 0., 0., 0., 0., 0., 0., 0.,
          0., 0., 0., 0., 0., 0., 0., 0., 0., 0., 0., 0., 0., 0., 0., 0.,
          0., 0., 0., 0., 0., 0., 0., 0., 0., 0., 0., 0., 5.00000000e-01,
          0., 0., 0., 0., 0., 0., 0., 0., 0., 0., 0., 0., 0., 0., 0., 0.,
          0., 0., 0., 0., 0., 0., 0., 0., 0., 0., 0., 0., 0., 0., 0., 0.,
          0., 0., 0., 0., 0., 0., 0., 0. ]
      - [ 0., 0., 1., 0., 0., 0., 0., 0., 0., 0., 0., 0., 0., 0., 0., 0.,
          0., 0., 0., 0., 0., 0., 0., 0., 0., 0., 0., 0., 0., 0., 0., 0.,
          0., 0., 0., 0., 0., 0., 0., 0., 0., 0., 0., 0., 0., 0., 0., 0.,
          0., 0., 0., 0., 0., 0., 0., 0., 0., 0., 0., 0., 0., 0., 0., 0.,
          0., 0., 0., 0., 0., 0., 0., 0., 0., 0., 0., 0., 0., 0., 0., 0.,
          0., 0., 0., 0., 0., 0., 0., 0., 0., 0., 0., 0., 0., 0., 0., 0.,
          0., 0., 0., 0., 0., 0., 0., 0., 0., 0., 0., 0., 0., 0., 0., 0.,
          0., 0., 0., 0., 0., 0., 0., 0., 0., 0., 0., 0., 0., 0., 0., 0.,
          0., 0., 0., 0., 0., 0., 0., 0., 0., 0., 0., 0., 0., 0., 0., 0.,
          0., 0., 0., 0., 0., 0., 0., 0., 0., 0., 0., 0., 0., 0., 0., 0. ]
      - [ 0., 0., 0., 0., 0., 0., 0., 0., 0., 0., 0., 0., 0., 0., 0., 0.,
          0., 0., 0., 0., 0., 0., 0., 0., 0., 0., 0., 0., 0., 0., 0., 0.,
          0., 0., 0., 0., 0., 0., 1., 0., 0., 0., 0., 0., 0., 0., 0., 0.,
          0., 0., 0., 0., 0., 0., 0., 0., 0., 0., 0., 0., 0., 0., 0., 0.,
          0., 0., 0., 0., 0., 0., 0., 0., 0., 0., 0., 0., 0., 0., 0., 0.,
          0., 0., 0., 0., 0., 0., 0., 0., 0., 0., 0., 0., 0., 0., 0., 0.,
          0., 0., 0., 0., 0., 0., 0., 0., 0., 0., 0., 0., 0., 0., 0., 0.,
          0., 0., 0., 0., 0., 0., 0., 0., 0., 0., 0., 0., 0., 0., 0., 0.,
          0., 0., 0., 0., 0., 0., 0., 0., 0., 0., 0., 0., 0., 0., 0., 0.,
          0., 0., 0., 0., 0., 0., 0., 0., 0., 0., 0., 0., 0., 0., 0., 0. ]
      - [ 0., 0., 0., 0., 1.03092780e-02, 0., 0., 0., 0., 0., 0.,
          2.06185561e-02, 0., 0., 0., 0., 0., 0., 0., 0., 8.24742243e-02,
          0., 0., 1.03092780e-02, 1.03092780e-02, 0., 0., 1.03092780e-02,
          0., 1.03092780e-02, 2.06185561e-02, 0., 0., 2.06185561e-02,
          1.03092780e-02, 0., 0., 3.09278332e-02, 0., 0., 1.03092780e-02,
          0., 0., 0., 0., 1.03092780e-02, 0., 1.03092780e-02,
          3.09278332e-02, 3.09278332e-02, 0., 1.03092780e-02,
          3.09278332e-02, 1.03092780e-02, 2.06185561e-02, 0., 0., 0., 0.,
          1.03092780e-02, 0., 0., 0., 0., 3.09278332e-02, 0., 0.,
          2.06185561e-02, 0., 1.03092780e-02, 2.06185561e-02, 0., 0., 0.,
          0., 0., 1.03092780e-02, 0., 0., 0., 0., 0., 0., 1.03092780e-02,
          1.03092780e-02, 0., 0., 1.03092780e-02, 0., 5.15463911e-02, 0.,
          0., 0., 0., 0., 1.03092780e-02, 0., 0., 0., 0., 0.,
          3.09278332e-02, 2.06185561e-02, 0., 1.03092780e-02,
          3.09278332e-02, 2.06185561e-02, 0., 0., 1.03092780e-02, 0., 0.,
          0., 0., 0., 3.09278332e-02, 1.03092780e-02, 0., 0.,
          1.03092780e-02, 0., 0., 1.03092780e-02, 0., 2.06185561e-02, 0.,
          0., 0., 0., 0., 1.03092780e-02, 1.03092780e-02, 2.06185561e-02,
          0., 0., 0., 0., 0., 1.03092780e-02, 0., 0., 0., 2.06185561e-02,
          0., 0., 0., 0., 0., 2.06185561e-02, 1.03092780e-02,
          3.09278332e-02, 0., 2.06185561e-02, 0., 0., 0., 0.,
          1.03092780e-02, 2.06185561e-02, 1.03092780e-02 ]
      - [ 0., 0., 0., 0., 0., 0., 0., 0., 0., 0., 0., 0., 0., 0., 0., 0.,
          0., 0., 0., 0., 0., 0., 0., 0., 0., 0., 0., 0., 0., 0., 0., 0.,
          0., 0., 0., 0., 0., 0., 0., 0., 0., 0., 0., 0., 0., 0., 0., 0.,
          0., 0., 0., 0., 0., 0., 0., 0., 0., 0., 0., 0., 0., 0., 0., 0.,
          0., 0., 0., 0., 0., 1., 0., 0., 0., 0., 0., 0., 0., 0., 0., 0.,
          0., 0., 0., 0., 0., 0., 0., 0., 0., 0., 0., 0., 0., 0., 0., 0.,
          0., 0., 0., 0., 0., 0., 0., 0., 0., 0., 0., 0., 0., 0., 0., 0.,
          0., 0., 0., 0., 0., 0., 0., 0., 0., 0., 0., 0., 0., 0., 0., 0.,
          0., 0., 0., 0., 0., 0., 0., 0., 0., 0., 0., 0., 0., 0., 0., 0.,
          0., 0., 0., 0., 0., 0., 0., 0., 0., 0., 0., 0., 0., 0., 0., 0. ]
      - [ 1.08394250e-02, 1.34862615e-02, 4.66347346e-03, 1.15956645e-02,
          8.82278779e-04, 7.68842967e-03, 1.38643812e-02, 1.09654646e-02,
          6.30199118e-03, 6.55407086e-03, 6.80615054e-03, 1.22258635e-02,
          8.82278755e-03, 4.78951354e-03, 5.29367290e-03, 0.,
          8.44466873e-03, 1.44945802e-02, 7.31030991e-03, 6.30199153e-04,
          3.78119468e-04, 1.22258635e-02, 0., 0., 6.17595157e-03,
          4.28535417e-03, 3.78119468e-04, 5.29367290e-03, 0.,
          7.43634999e-03, 0., 3.78119468e-04, 2.52079655e-04,
          1.04613053e-02, 2.89891614e-03, 1.51247787e-03, 1.90320145e-02,
          1.38643815e-03, 1.10915052e-02, 1.33602219e-02, 6.17595157e-03,
          6.42803125e-03, 1.37383416e-02, 7.56238936e-04, 9.20090731e-03,
          5.92387188e-03, 3.52911511e-03, 1.34862615e-02, 1.26039828e-04,
          5.16763283e-03, 1.76455756e-03, 2.52079661e-03, 2.52079655e-04,
          6.42803125e-03, 2.26871693e-03, 1.26039824e-02, 9.07486770e-03,
          1.26039828e-04, 0., 6.30199153e-04, 5.04159310e-04,
          4.53743385e-03, 1.26039828e-04, 8.06654897e-03, 6.42803125e-03,
          4.41139378e-03, 1.95361730e-02, 5.04159310e-04, 6.80615054e-03,
          1.00831864e-02, 5.29367290e-03, 1.27300229e-02, 9.95714683e-03,
          4.53743385e-03, 2.14267708e-03, 2.77287629e-03, 1.68893375e-02,
          0., 4.41139378e-03, 3.02495575e-03, 2.77287629e-03,
          1.87799335e-02, 1.29821021e-02, 4.53743385e-03, 0.,
          4.28535417e-03, 8.94882809e-03, 8.19258858e-03, 9.57902707e-03,
          2.01663724e-03, 7.81446975e-03, 6.80615054e-03, 4.28535417e-03,
          2.77287629e-03, 1.10915052e-02, 1.33602219e-02, 1.24779427e-02,
          9.20090731e-03, 1.00831862e-03, 1.60070583e-02, 1.89059740e-03,
          3.15099559e-03, 1.51247787e-03, 2.52079661e-03, 1.27300229e-02,
          3.65515496e-03, 6.42803125e-03, 1.17217042e-02, 6.42803125e-03,
          3.78119468e-04, 3.90723487e-03, 0., 1.26039828e-04,
          1.04613053e-02, 1.89059740e-03, 1.89059740e-03, 8.82278779e-04,
          5.67179220e-03, 1.63851772e-03, 7.56238936e-04, 1.20998230e-02,
          2.01663724e-03, 1.62591375e-02, 6.30199118e-03, 9.83110629e-03,
          1.92840938e-02, 1.55028990e-02, 7.56238936e-04, 3.78119480e-03,
          6.93219062e-03, 6.93219062e-03, 1.29821021e-02, 1.13435846e-03,
          1.00831862e-03, 2.52079655e-04, 4.03327448e-03, 1.56289395e-02,
