%YAML:1.0
---
opencv_ml_svm:
   format: 3
   svmType: C_SVC
   kernel:
      type: LINEAR
   C: 1.2500000000000000e+01
   term_criteria: { epsilon:9.9999999999999995e-07, iterations:1000 }
   var_count: 200
   class_count: 2
   class_labels: !!opencv-matrix
      rows: 2
      cols: 1
      dt: i
      data: [ -1, 1 ]
   sv_total: 1
   support_vectors:
      - [ -8.08376133e-01, 6.81300759e-01, 6.05626106e-02,
          -8.12575340e-01, 1.63931966e+00, 4.67717737e-01,
          6.61920607e-01, 2.36116219e+00, -1.16899264e+00,
          -3.89642417e-01, -1.29462087e+00, -7.23450065e-01,
          -6.17652655e-01, 4.34665412e-01, -2.12970495e+00,
          4.31104094e-01, -3.67400162e-02, -7.97257364e-01,
          2.38681889e+00, 7.82399297e-01, -8.60877112e-02,
          -1.63229108e+00, -2.16271192e-01, -7.50411153e-01,
          -1.70820570e+00, -1.94272980e-01, 1.11228895e+00,
          9.84314322e-01, -1.09214830e+00, -1.16099380e-01,
          2.53633410e-01, 3.49224955e-01, 2.04808831e+00, 7.93297470e-01,
          2.90020615e-01, 9.18109715e-01, -2.74907517e+00,
          -9.51484442e-01, -1.54392421e+00, 5.62660277e-01,
          5.05955160e-01, 1.73821047e-01, -2.52997804e+00,
          -2.46642423e+00, -7.25711644e-01, -1.15299726e+00,
          -4.25283670e-01, 8.94346178e-01, 1.01334870e+00,
          -1.72249973e+00, 2.87763906e+00, 6.73039377e-01,
          -3.32769483e-01, -1.90536261e+00, -2.07539767e-01,
          1.45152318e+00, -1.59311309e-01, 4.66831177e-01,
          2.90825891e+00, -1.30905285e-01, -1.24988103e+00,
          2.38025382e-01, -1.43230468e-01, -6.30015790e-01,
          1.12812054e+00, 7.15875089e-01, 9.76498961e-01,
          -4.36893493e-01, -2.14616871e+00, 6.85275853e-01,
          -4.70956981e-01, -2.91331373e-02, 8.10141444e-01,
          1.76877999e+00, 7.29961932e-01, -2.77579486e-01,
          2.40130496e+00, 2.93484509e-01, 2.08204532e+00, 1.24646759e+00,
          7.16996729e-01, 3.57091129e-01, -8.67596120e-02,
          4.56007242e-01, 4.75950271e-01, -1.24946511e+00,
          -1.01867843e+00, -1.47438323e+00, -7.59149864e-02,
          -1.13445222e+00, -5.58067739e-01, -9.17961895e-01,
          1.08541501e+00, 1.23532903e+00, 7.08391786e-01, 5.36298156e-01,
          -7.16925800e-01, -9.77697253e-01, 2.96452343e-01,
          -4.67375189e-01, -2.43049026e-01, 6.42283499e-01,
          -2.06912422e+00, 9.87578094e-01, 2.16229939e+00,
          1.05628574e+00, 9.70353186e-01, -3.52683812e-01,
          4.33953822e-01, -3.19896936e-01, -2.05079222e+00,
          -2.48256803e+00, 1.59756958e-01, -2.03754932e-01,
          -4.85498041e-01, 1.01163828e+00, 1.48421133e+00,
          2.58671832e+00, -9.55979884e-01, 1.02204472e-01,
          1.04510653e+00, -7.06331670e-01, 2.89153528e+00,
          -1.52085590e+00, 2.19846034e+00, -1.27942383e-01,
          -6.29238561e-02, -2.24369955e+00, -1.35912091e-01,
          1.67574382e+00, -2.16874290e+00, 8.76332760e-01,
          -8.86348188e-01, 6.34682715e-01, 7.70379663e-01,
          -6.38529062e-02, -7.73695290e-01, 2.31177235e+00,
          -1.30109504e-01, 4.57632452e-01, -1.09918034e+00,
          1.14474344e+00, -1.87566742e-01, -3.28416944e-01,
          9.86898541e-01, 8.86843324e-01, -6.19155109e-01,
          -2.62118906e-01, -3.27077270e-01, 2.35507798e+00,
          -1.14184320e+00, -9.09011722e-01, -1.62597013e+00,
          -6.08061135e-01, -1.52469206e+00, 1.74497688e+00,
          8.95303249e-01, -2.06737444e-01, 1.71203518e+00,
          -5.74587047e-01, -1.43915844e+00, -1.54925299e+00,
          4.12583828e-01, -6.53744996e-01, -1.39141992e-01,
          -1.15467381e+00, -1.06826961e+00, -1.06892586e+00,
          9.94055092e-01, 4.28082615e-01, -2.12360304e-02,
          -1.43460810e+00, -5.75220585e-02, -1.49810612e-01,
          -8.92197669e-01, 5.94097793e-01, -1.13681823e-01,
          -1.54908121e+00, 2.97415793e-01, -1.70690858e+00,
          -1.38517439e+00, -2.44067073e+00, 2.08907533e+00,
          1.21880484e+00, 3.20850879e-01, 2.86909074e-01, 1.34699166e+00,
          2.00824070e+00, 3.18875313e+00, 8.11583579e-01,
          -1.31596649e+00, 2.61169720e+00, -2.01927090e+00,
          -5.24164259e-01, -1.47624779e+00, 1.11982238e+00,
          -1.27298608e-01, 6.15541518e-01, -3.47350836e+00,
          -8.58293772e-01 ]
   uncompressed_sv_total: 540
   uncompressed_support_vectors:
      - [ 0., 0., 0., 0., 0., 0., 0., 0., 0., 0., 0., 0., 0., 0., 0., 0.,
          0., 0., 0., 0., 0., 0., 0., 0., 0., 0., 0., 4.76190485e-02, 0.,
          0., 0., 0., 0., 0., 0., 2.38095239e-01, 0., 0., 0., 0.,
          9.52380970e-02, 0., 4.76190485e-02, 0., 0., 0., 0., 0., 0., 0.,
          0., 0., 0., 0., 0., 0., 0., 0., 0., 4.76190485e-02, 0., 0., 0.,
          0., 0., 0., 0., 0., 0., 0., 0., 0., 0., 0., 0., 0., 0., 0., 0.,
          0., 0., 0., 0., 0., 0., 0., 0., 0., 0., 0., 0., 0., 0., 0., 0.,
          0., 0., 0., 0., 0., 0., 4.76190485e-02, 0., 0., 0., 0., 0., 0.,
          0., 0., 0., 0., 0., 0., 0., 0., 4.76190485e-02, 0., 0., 0., 0.,
          0., 0., 0., 0., 0., 0., 0., 0., 0., 0., 0., 0., 0., 0., 0., 0.,
          0., 0., 0., 0., 0., 0., 0., 0., 0., 0., 0., 0., 0.,
          4.76190485e-02, 0., 0., 0., 0., 0., 0., 0., 0., 0., 0., 0., 0.,
          0., 0., 0., 0., 0., 0., 0., 0., 0., 0., 0., 0., 0., 0., 0., 0.,
          0., 0., 0., 9.52380970e-02, 0., 0., 0., 0., 0., 0., 0., 0., 0.,
          2.38095239e-01, 0., 0., 0., 4.76190485e-02, 0., 0., 0. ]
      - [ 0., 0., 0., 0., 0., 0., 0., 0., 7.69230798e-02, 0., 0., 0., 0.,
          0., 0., 0., 0., 0., 0., 1.53846160e-01, 0., 0., 0., 0., 0., 0.,
          0., 0., 0., 0., 0., 0., 0., 0., 0., 1.53846160e-01, 0., 0., 0.,
          0., 0., 0., 0., 0., 0., 0., 0., 0., 0., 0., 0., 0., 0., 0., 0.,
          0., 0., 0., 0., 0., 0., 0., 0., 0., 0., 0., 0., 0.,
          7.69230798e-02, 0., 0., 0., 0., 0., 0., 0., 0., 0., 0., 0., 0.,
          0., 0., 0., 0., 0., 0., 0., 0., 0., 0., 0., 0., 0., 0., 0., 0.,
          0., 0., 0., 7.69230798e-02, 0., 3.84615391e-01, 0., 0., 0., 0.,
          0., 0., 0., 0., 0., 0., 0., 0., 0., 7.69230798e-02, 0., 0., 0.,
          0., 0., 0., 0., 0., 0., 0., 0., 0., 0., 0., 0., 0., 0., 0., 0.,
          0., 0., 0., 0., 0., 0., 0., 0., 0., 0., 0., 0., 0., 0., 0., 0.,
          0., 0., 0., 0., 0., 0., 0., 0., 0., 0., 0., 0., 0., 0., 0., 0.,
          0., 0., 0., 0., 0., 0., 0., 0., 0., 0., 0., 0., 0., 0., 0., 0.,
          0., 0., 0., 0., 0., 0., 0., 0., 0., 0., 0., 0., 0., 0., 0., 0. ]
      - [ 3.86100379e-03, 1.54440152e-02, 3.86100379e-03, 3.86100379e-03,
          0., 3.86100379e-03, 0., 3.86100379e-03, 1.54440152e-02, 0.,
          7.72200758e-03, 0., 7.72200758e-03, 3.86100379e-03,
          7.72200758e-03, 3.86100379e-03, 0., 0., 1.54440152e-02,
          1.15830116e-02, 7.72200758e-03, 0., 7.72200758e-03,
          3.86100379e-03, 0., 3.86100379e-03, 0., 1.15830116e-02, 0.,
          3.86100379e-03, 7.72200758e-03, 0., 7.72200758e-03, 0.,
          1.15830116e-02, 0., 3.86100379e-03, 3.86100379e-03, 0., 0.,
          3.86100379e-03, 7.72200758e-03, 1.93050187e-02, 3.86100379e-03,
          0., 7.72200758e-03, 7.72200758e-03, 1.54440152e-02, 0., 0.,
          3.86100379e-03, 0., 0., 3.86100379e-03, 0., 0., 0.,
          7.72200758e-03, 7.72200758e-03, 0., 0., 1.54440152e-02,
          3.86100379e-03, 3.86100379e-03, 3.86100379e-03, 0.,
          7.72200758e-03, 3.86100379e-03, 2.31660232e-02, 0., 0.,
          7.72200758e-03, 0., 0., 3.86100379e-03, 0., 3.86100379e-03,
          3.86100379e-03, 0., 3.86100379e-03, 0., 0., 3.86100379e-03, 0.,
          7.72200758e-03, 0., 0., 7.72200758e-03, 7.72200758e-03,
          3.86100379e-03, 3.86100379e-03, 3.86100379e-03, 1.54440152e-02,
          7.72200758e-03, 3.86100379e-03, 0., 0., 3.86100379e-03,
          3.86100379e-03, 0., 1.15830116e-02, 1.93050187e-02,
          2.70270258e-02, 0., 3.86100379e-03, 0., 7.72200758e-03, 0.,
          1.54440152e-02, 3.86100379e-03, 3.86100379e-03, 3.86100379e-03,
          3.86100379e-03, 3.86100379e-03, 7.72200758e-03, 0.,
          1.54440152e-02, 1.93050187e-02, 0., 0., 3.86100379e-03, 0., 0.,
          1.93050187e-02, 3.86100379e-03, 1.93050187e-02, 0.,
          7.72200758e-03, 3.86100379e-03, 3.86100379e-03, 7.72200758e-03,
          0., 7.72200758e-03, 0., 3.86100379e-03, 0., 3.86100379e-03, 0.,
          3.86100379e-03, 3.86100379e-03, 3.86100379e-03, 3.86100379e-03,
          3.86100379e-03, 3.86100379e-03, 3.86100379e-03, 2.31660232e-02,
          0., 0., 0., 7.72200758e-03, 0., 3.86100379e-03, 0., 0.,
          1.93050187e-02, 0., 1.15830116e-02, 1.54440152e-02, 0., 0.,
          1.15830116e-02, 7.72200758e-03, 3.86100379e-03, 7.72200758e-03,
          1.15830116e-02, 3.86100379e-03, 1.54440152e-02, 3.86100379e-03,
          0., 0., 0., 7.72200758e-03, 3.86100379e-03, 7.72200758e-03,
          1.15830116e-02, 7.72200758e-03, 0., 7.72200758e-03, 0.,
          7.72200758e-03, 7.72200758e-03, 0., 7.72200758e-03,
          3.86100379e-03, 3.86100379e-03, 3.86100379e-03, 0.,
          3.86100379e-03, 3.86100379e-03, 3.86100379e-03, 7.72200758e-03,
          1.15830116e-02, 1.15830116e-02, 3.86100379e-03, 0.,
          3.86100379e-03, 3.86100379e-03, 7.72200758e-03, 7.72200758e-03,
          1.54440152e-02 ]
      - [ 7.69230817e-03, 5.12820529e-03, 7.69230817e-03, 5.12820529e-03,
          2.56410264e-03, 2.56410264e-03, 1.28205132e-03, 0.,
          6.41025649e-03, 3.84615408e-03, 2.56410264e-03, 0.,
          3.84615408e-03, 2.56410264e-03, 1.02564106e-02, 0.,
          6.41025649e-03, 5.12820529e-03, 2.56410264e-03, 7.69230817e-03,
          1.28205132e-03, 6.41025649e-03, 0., 3.84615408e-03,
          3.84615408e-03, 0., 6.41025649e-03, 2.56410260e-02,
          6.41025649e-03, 1.92307699e-02, 7.69230817e-03, 0.,
          1.28205132e-03, 1.66666675e-02, 0., 5.12820529e-03,
          1.28205132e-03, 1.28205132e-03, 1.28205132e-03, 2.05128212e-02,
          7.69230817e-03, 1.02564106e-02, 3.84615408e-03, 2.56410264e-03,
          3.84615408e-03, 3.84615408e-03, 3.84615408e-03, 5.12820529e-03,
          1.28205132e-03, 3.84615408e-03, 7.69230817e-03, 1.28205132e-03,
          8.97435937e-03, 1.28205132e-03, 5.12820529e-03, 1.02564106e-02,
          2.56410264e-03, 2.56410264e-03, 1.28205132e-03, 2.17948724e-02,
          1.28205132e-03, 3.84615408e-03, 2.56410264e-03, 2.56410264e-03,
          7.69230817e-03, 2.56410264e-03, 3.84615408e-03, 1.28205132e-03,
          1.02564106e-02, 0., 2.56410264e-03, 2.56410264e-03,
          5.12820529e-03, 1.28205132e-03, 3.84615408e-03, 1.28205132e-03,
          0., 3.84615408e-03, 1.28205132e-03, 1.02564106e-02,
          1.02564106e-02, 2.56410264e-03, 0., 2.82051284e-02,
          5.12820529e-03, 7.69230817e-03, 3.84615408e-03, 8.97435937e-03,
          3.84615408e-03, 8.97435937e-03, 2.56410264e-03, 5.12820529e-03,
          3.84615408e-03, 5.12820529e-03, 2.56410264e-03, 2.56410264e-03,
          0., 0., 2.56410264e-03, 0., 6.41025649e-03, 3.58974375e-02,
          1.79487187e-02, 7.69230817e-03, 1.28205132e-03, 7.69230817e-03,
          1.28205132e-03, 5.12820529e-03, 1.28205132e-03, 6.41025649e-03,
          3.84615408e-03, 1.28205132e-03, 1.28205132e-03, 2.56410264e-03,
          2.56410264e-03, 3.84615408e-03, 2.30769236e-02, 1.41025642e-02,
          5.12820529e-03, 3.84615408e-03, 5.12820529e-03, 2.56410264e-03,
          2.56410264e-03, 3.84615408e-03, 6.41025649e-03, 3.84615408e-03,
          2.56410264e-03, 1.02564106e-02, 2.56410264e-03, 2.56410264e-03,
          5.12820529e-03, 5.12820529e-03, 0., 3.84615408e-03,
          6.41025649e-03, 0., 3.84615408e-03, 1.28205132e-03,
          6.41025649e-03, 1.28205132e-03, 1.02564106e-02, 0.,
          1.28205132e-03, 8.97435937e-03, 3.84615408e-03, 3.84615408e-03,
          2.56410264e-03, 0., 0., 2.56410264e-03, 3.84615408e-03,
          1.66666675e-02, 3.84615408e-03, 2.56410264e-03, 2.56410264e-03,
          6.41025649e-03, 0., 0., 5.12820529e-03, 0., 1.28205132e-03,
          1.28205130e-02, 1.02564106e-02, 2.56410264e-03, 1.28205132e-03,
          7.69230817e-03, 1.02564106e-02, 1.28205132e-03, 1.28205132e-03,
          2.56410264e-03, 1.28205132e-03, 5.12820529e-03, 7.69230817e-03,
          3.84615408e-03, 2.56410264e-03, 2.56410264e-03, 1.28205132e-03,
          5.12820529e-03, 2.56410264e-03, 1.02564106e-02, 3.84615408e-03,
          2.56410264e-03, 1.53846163e-02, 7.69230817e-03, 0.,
          8.97435937e-03, 0., 1.28205132e-03, 2.56410264e-03,
          2.56410264e-03, 8.97435937e-03, 0., 2.30769236e-02,
          1.28205132e-03, 2.56410264e-03, 3.84615408e-03, 6.41025649e-03,
          3.84615408e-03, 8.97435937e-03, 7.69230817e-03 ]
      - [ 0., 0., 0., 0., 0., 0., 0., 0., 0., 0., 0., 0., 0., 0., 0., 0.,
          0., 0., 0., 0., 0., 0., 0., 0., 0., 0., 0., 0., 0., 0., 0., 0.,
          0., 0., 0., 0., 0., 0., 0., 0., 0., 0., 0., 0., 0., 0., 0., 0.,
          0., 0., 3.33333343e-01, 0., 0., 0., 0., 0., 0., 0., 0., 0., 0.,
          0., 0., 0., 0., 0., 0., 0., 0., 0., 0., 0., 0., 0., 0., 0., 0.,
          0., 0., 0., 0., 0., 0., 0., 0., 0., 0., 0., 0., 0., 0., 0., 0.,
          0., 0., 0., 0., 0., 0., 0., 0., 0., 6.66666687e-01, 0., 0., 0.,
          0., 0., 0., 0., 0., 0., 0., 0., 0., 0., 0., 0., 0., 0., 0., 0.,
          0., 0., 0., 0., 0., 0., 0., 0., 0., 0., 0., 0., 0., 0., 0., 0.,
          0., 0., 0., 0., 0., 0., 0., 0., 0., 0., 0., 0., 0., 0., 0., 0.,
          0., 0., 0., 0., 0., 0., 0., 0., 0., 0., 0., 0., 0., 0., 0., 0.,
          0., 0., 0., 0., 0., 0., 0., 0., 0., 0., 0., 0., 0., 0., 0., 0.,
          0., 0., 0., 0., 0., 0., 0., 0., 0., 0., 0., 0., 0., 0. ]
      - [ 7.63358781e-03, 9.16030537e-03, 1.52671756e-03, 1.06870234e-02,
          0., 1.52671756e-03, 0., 0., 3.05343512e-03, 1.52671756e-03,
          9.16030537e-03, 1.52671756e-03, 0., 7.63358781e-03,
          9.16030537e-03, 0., 1.52671756e-03, 4.58015269e-03,
          3.05343512e-03, 1.83206107e-02, 1.52671756e-03, 0.,
          3.05343512e-03, 7.63358781e-03, 3.05343512e-03, 0., 0.,
          1.37404576e-02, 4.58015269e-03, 2.74809152e-02, 4.58015269e-03,
          1.52671756e-03, 3.05343512e-03, 1.52671756e-02, 7.63358781e-03,
          2.29007639e-02, 0., 0., 1.52671756e-03, 4.27480936e-02,
          1.06870234e-02, 9.16030537e-03, 6.10687025e-03, 4.58015269e-03,
          0., 0., 1.52671756e-02, 0., 0., 1.52671756e-03, 6.10687025e-03,
          3.05343512e-03, 1.52671756e-02, 1.52671756e-03, 1.52671756e-03,
          0., 1.52671756e-03, 6.10687025e-03, 4.58015269e-03,
          2.44274810e-02, 1.22137405e-02, 7.63358781e-03, 0.,
          1.06870234e-02, 3.05343512e-03, 1.52671756e-03, 1.98473278e-02,
          6.10687025e-03, 7.63358781e-03, 0., 0., 0., 7.63358781e-03, 0.,
          0., 1.52671756e-03, 0., 1.06870234e-02, 1.52671756e-03,
          7.63358781e-03, 0., 0., 0., 7.63358781e-03, 4.58015269e-03,
          1.52671756e-03, 1.52671756e-03, 0., 9.16030537e-03,
          1.06870234e-02, 3.05343512e-03, 1.52671756e-03, 0.,
          9.16030537e-03, 3.05343512e-03, 1.52671756e-03, 3.05343512e-03,
          3.05343512e-03, 1.98473278e-02, 3.05343512e-03, 3.05343512e-03,
          1.83206107e-02, 1.67938937e-02, 3.05343512e-03, 3.05343512e-03,
          3.05343512e-03, 1.52671756e-03, 3.05343512e-03, 7.63358781e-03,
          1.06870234e-02, 0., 1.52671756e-03, 0., 1.52671756e-03,
          1.52671756e-03, 3.05343512e-03, 1.83206107e-02, 4.58015269e-03,
          1.52671756e-03, 0., 1.52671756e-03, 0., 0., 4.58015269e-03,
          4.58015269e-03, 3.05343512e-03, 1.52671756e-03, 1.06870234e-02,
          3.05343512e-03, 0., 3.05343512e-03, 4.58015269e-03,
          7.63358781e-03, 6.10687025e-03, 1.06870234e-02, 1.52671756e-03,
          7.63358781e-03, 0., 7.63358781e-03, 3.05343512e-03,
          3.05343512e-03, 0., 3.05343512e-03, 1.52671756e-03,
          4.58015269e-03, 6.10687025e-03, 1.52671756e-03, 0., 0.,
          3.05343512e-03, 0., 3.05343512e-03, 4.58015269e-03, 0.,
          2.13740468e-02, 3.05343512e-03, 1.52671756e-03, 4.58015269e-03,
          4.58015269e-03, 0., 1.22137405e-02, 2.13740468e-02,
          1.52671756e-02, 3.05343512e-03, 1.52671756e-03, 1.52671756e-03,
          7.63358781e-03, 1.22137405e-02, 0., 0., 7.63358781e-03,
          1.52671756e-03, 4.58015269e-03, 4.58015269e-03, 1.52671756e-03,
          1.52671756e-03, 0., 4.58015269e-03, 1.52671756e-03,
          4.58015269e-03, 4.58015269e-03, 1.06870234e-02, 1.67938937e-02,
          6.10687025e-03, 0., 0., 0., 7.63358781e-03, 1.52671756e-03,
          1.37404576e-02, 0., 3.05343512e-03, 1.22137405e-02,
          3.05343512e-03, 7.63358781e-03, 3.05343512e-03, 1.52671756e-03,
          4.58015269e-03, 0., 6.10687025e-03 ]
      - [ 0., 0., 0., 0., 0., 0., 0., 0., 0., 0., 0., 0., 0., 0., 0., 0.,
          3.84615399e-02, 0., 0., 0., 3.84615399e-02, 0., 0., 0., 0., 0.,
          0., 0., 0., 0., 0., 0., 0., 3.84615399e-02, 0., 3.84615399e-02,
          0., 0., 0., 0., 3.84615399e-02, 3.84615399e-02, 0., 0., 0., 0.,
          0., 0., 0., 0., 0., 0., 0., 3.84615399e-02, 0., 0., 0., 0., 0.,
          0., 0., 3.84615399e-02, 0., 0., 0., 0., 0., 0., 0., 0., 0., 0.,
          0., 0., 3.84615399e-02, 0., 0., 3.84615399e-02, 0., 0., 0., 0.,
          0., 0., 0., 0., 0., 0., 0., 3.84615399e-02, 0., 0., 0.,
          3.84615399e-02, 3.84615399e-02, 0., 0., 0., 0., 0., 0.,
          3.84615399e-02, 0., 0., 0., 0., 0., 0., 0., 0., 0., 0.,
          3.84615399e-02, 0., 0., 3.84615399e-02, 0., 0., 0., 0., 0., 0.,
          0., 0., 0., 0., 0., 0., 0., 0., 0., 3.84615399e-02, 0., 0., 0.,
          0., 3.84615399e-02, 0., 0., 0., 0., 0., 0., 0., 3.84615399e-02,
          0., 0., 0., 0., 0., 0., 0., 0., 0., 0., 0., 0., 0., 0., 0., 0.,
          3.84615399e-02, 0., 0., 0., 0., 0., 0., 0., 0., 0.,
          3.84615399e-02, 0., 0., 0., 0., 0., 0., 0., 0., 0., 0., 0., 0.,
          0., 3.84615399e-02, 0., 0., 0., 0., 0., 0., 7.69230798e-02, 0.,
          0., 0., 0., 0., 3.84615399e-02, 3.84615399e-02 ]
      - [ 0., 1.24223605e-02, 0., 0., 0., 0., 0., 0., 1.24223605e-02,
          6.21118024e-03, 6.21118024e-03, 0., 6.21118024e-03,
          6.21118024e-03, 0., 0., 1.24223605e-02, 0., 1.24223605e-02,
          4.96894419e-02, 6.21118024e-03, 1.86335407e-02, 0., 0., 0., 0.,
          0., 1.24223605e-02, 0., 1.24223605e-02, 1.86335407e-02, 0., 0.,
          6.21118024e-03, 6.21118024e-03, 0., 6.21118024e-03, 0., 0.,
          6.21118024e-03, 0., 1.24223605e-02, 6.21118024e-03, 0., 0.,
          6.21118024e-03, 6.21118024e-03, 0., 0., 1.24223605e-02,
          1.24223605e-02, 1.24223605e-02, 6.21118024e-03, 6.21118024e-03,
          0., 0., 0., 6.21118024e-03, 1.86335407e-02, 1.86335407e-02, 0.,
          0., 0., 0., 0., 0., 1.86335407e-02, 6.21118024e-03,
          1.24223605e-02, 0., 6.21118024e-03, 0., 6.21118024e-03, 0., 0.,
          0., 0., 0., 0., 6.21118024e-03, 0., 0., 0., 0., 0., 0.,
          6.21118024e-03, 1.24223605e-02, 1.24223605e-02, 0., 0., 0., 0.,
          1.24223605e-02, 0., 0., 0., 0., 6.21118024e-03, 1.86335407e-02,
          0., 6.83229864e-02, 1.86335407e-02, 0., 0., 0., 0., 0., 0.,
          1.24223605e-02, 0., 0., 0., 0., 0., 6.21118024e-03,
          3.10559012e-02, 6.21118024e-03, 0., 6.21118024e-03, 0.,
          6.21118024e-03, 0., 0., 0., 0., 6.21118024e-03, 0.,
          6.21118024e-03, 6.21118024e-03, 6.21118024e-03, 0., 0.,
          1.24223605e-02, 6.21118024e-03, 0., 6.21118024e-03, 0., 0., 0.,
          1.24223605e-02, 0., 1.24223605e-02, 0., 1.24223605e-02,
          3.10559012e-02, 0., 0., 0., 0., 0., 1.24223605e-02, 0., 0.,
          1.86335407e-02, 6.21118024e-03, 0., 0., 6.21118024e-03, 0.,
          6.21118024e-03, 1.24223605e-02, 6.21118024e-03, 0.,
          6.21118024e-03, 6.21118024e-03, 6.21118024e-03, 0., 0., 0.,
          1.24223605e-02, 6.21118024e-03, 0., 6.21118024e-03, 0.,
          6.21118024e-03, 0., 1.24223605e-02, 1.24223605e-02,
          6.21118024e-03, 1.24223605e-02, 0., 0., 1.86335407e-02, 0.,
          6.21118024e-03, 0., 0., 0., 0., 1.24223605e-02, 0.,
          3.10559012e-02, 0., 0., 0., 1.86335407e-02, 0., 1.24223605e-02,
          0. ]
      - [ 8.79765395e-03, 5.86510263e-03, 2.93255132e-03, 5.86510263e-03,
          2.93255132e-03, 0., 0., 2.93255132e-03, 5.86510263e-03,
          2.93255132e-03, 0., 0., 0., 0., 8.79765395e-03, 0.,
          2.93255132e-03, 5.86510263e-03, 2.93255132e-03, 8.79765395e-03,
          2.93255132e-03, 0., 0., 2.93255132e-03, 2.93255132e-03, 0., 0.,
          5.86510263e-03, 0., 2.34604105e-02, 2.93255132e-03, 0., 0.,
          1.46627566e-02, 2.93255132e-03, 2.34604105e-02, 0., 0., 0.,
          2.05278583e-02, 1.46627566e-02, 5.86510263e-03, 8.79765395e-03,
          2.93255132e-03, 2.93255132e-03, 2.93255132e-03, 2.34604105e-02,
          0., 0., 0., 8.79765395e-03, 0., 2.93255132e-03, 0., 0.,
          5.86510263e-03, 0., 0., 2.93255132e-03, 2.63929628e-02,
          8.79765395e-03, 2.93255132e-03, 2.93255132e-03, 1.17302053e-02,
          0., 0., 1.46627566e-02, 8.79765395e-03, 3.22580636e-02, 0.,
          2.93255132e-03, 2.93255132e-03, 1.75953079e-02, 0.,
          2.93255132e-03, 2.93255132e-03, 2.93255132e-03, 2.93255132e-03,
          0., 5.86510263e-03, 0., 0., 0., 1.17302053e-02, 8.79765395e-03,
          2.93255132e-03, 0., 0., 2.05278583e-02, 1.17302053e-02, 0.,
          2.93255132e-03, 0., 5.86510263e-03, 2.93255132e-03, 0.,
          2.93255132e-03, 2.93255132e-03, 2.63929628e-02, 0., 0.,
          2.63929628e-02, 2.63929628e-02, 0., 2.93255132e-03,
          8.79765395e-03, 2.93255132e-03, 0., 5.86510263e-03,
          8.79765395e-03, 2.93255132e-03, 2.93255132e-03, 0., 0., 0.,
          8.79765395e-03, 2.63929628e-02, 2.05278583e-02, 0., 0., 0.,
          2.93255132e-03, 0., 0., 8.79765395e-03, 8.79765395e-03,
          2.93255132e-03, 2.93255132e-03, 0., 0., 1.17302053e-02, 0.,
          5.86510263e-03, 0., 5.86510263e-03, 0., 5.86510263e-03, 0.,
          2.93255132e-03, 2.93255132e-03, 2.93255132e-03, 0., 0.,
          2.93255132e-03, 2.34604105e-02, 2.93255132e-03, 2.93255132e-03,
          0., 0., 0., 0., 2.93255132e-03, 0., 5.86510263e-03,
          2.93255132e-02, 0., 0., 2.93255132e-03, 5.86510263e-03, 0.,
          5.86510263e-03, 2.34604105e-02, 2.93255132e-02, 0.,
          2.93255132e-03, 2.93255132e-03, 8.79765395e-03, 5.86510263e-03,
          0., 0., 1.46627566e-02, 0., 2.93255132e-03, 5.86510263e-03,
          2.93255132e-03, 0., 0., 8.79765395e-03, 2.93255132e-03,
          2.93255132e-03, 2.93255132e-03, 0., 1.75953079e-02,
          8.79765395e-03, 0., 0., 0., 2.93255132e-03, 0., 1.75953079e-02,
          2.93255132e-03, 0., 5.86510263e-03, 5.86510263e-03,
          2.93255132e-03, 0., 8.79765395e-03, 5.86510263e-03,
          8.79765395e-03, 0. ]
      - [ 8.19672085e-03, 8.19672085e-03, 0., 4.09836043e-03,
          4.09836043e-03, 0., 4.09836043e-03, 0., 2.04918012e-02,
          4.09836043e-03, 8.19672085e-03, 0., 0., 1.63934417e-02, 0.,
          8.19672085e-03, 4.09836043e-03, 0., 4.09836043e-03,
          8.19672085e-03, 0., 0., 8.19672085e-03, 4.09836043e-03,
          4.09836043e-03, 0., 0., 8.19672085e-03, 0., 4.09836043e-03,
          1.63934417e-02, 0., 0., 0., 4.09836043e-03, 4.09836043e-03,
          1.63934417e-02, 4.09836043e-03, 1.22950813e-02, 0.,
          4.09836043e-03, 4.09836043e-03, 1.63934417e-02, 0., 0.,
          4.09836043e-03, 0., 0., 0., 0., 2.86885239e-02, 0.,
          4.09836043e-03, 0., 0., 0., 4.09836043e-03, 4.09836043e-03,
          2.86885239e-02, 4.09836043e-03, 0., 8.19672085e-03, 0.,
          8.19672085e-03, 0., 0., 1.22950813e-02, 0., 8.19672085e-03, 0.,
          0., 1.22950813e-02, 1.63934417e-02, 0., 0., 0., 0.,
          1.22950813e-02, 8.19672085e-03, 4.09836043e-03, 0., 0., 0., 0.,
          4.09836043e-03, 0., 4.09836043e-03, 0., 1.63934417e-02, 0., 0.,
          8.19672085e-03, 0., 2.45901626e-02, 8.19672085e-03, 0., 0.,
          4.09836043e-03, 4.09836043e-03, 8.19672085e-03, 4.09836043e-03,
          2.45901626e-02, 2.45901626e-02, 0., 0., 0., 0., 0.,
          8.19672085e-03, 4.09836043e-03, 8.19672085e-03, 0., 0.,
          4.09836043e-03, 0., 1.22950813e-02, 8.19672085e-03,
          1.63934417e-02, 0., 0., 4.09836043e-03, 4.09836043e-03, 0.,
          8.19672085e-03, 0., 0., 4.09836043e-03, 4.09836043e-03, 0., 0.,
          1.22950813e-02, 8.19672085e-03, 4.09836043e-03, 1.22950813e-02,
          8.19672085e-03, 4.09836043e-03, 1.22950813e-02, 4.09836043e-03,
          4.09836043e-03, 4.09836043e-03, 0., 0., 4.09836043e-03, 0.,
          1.22950813e-02, 0., 0., 0., 4.09836043e-03, 8.19672085e-03,
          4.09836043e-03, 0., 4.09836043e-03, 0., 1.02459013e-01, 0., 0.,
          4.09836043e-03, 4.09836043e-03, 4.09836043e-03, 4.09836043e-03,
          0., 4.09836043e-03, 8.19672085e-03, 4.09836043e-03, 0.,
          1.63934417e-02, 1.22950813e-02, 0., 0., 0., 8.19672085e-03,
          1.22950813e-02, 0., 0., 0., 0., 0., 0., 0., 0., 0., 0.,
          1.63934417e-02, 0., 4.09836043e-03, 0., 4.09836043e-03,
          8.19672085e-03, 1.63934417e-02, 8.19672085e-03, 4.09836043e-03,
          8.19672085e-03, 0., 4.09836043e-03, 8.19672085e-03,
          4.09836043e-03, 8.19672085e-03, 4.09836043e-03, 4.09836043e-03 ]
      - [ 0., 0., 0., 0., 0., 0., 0., 0., 0., 0., 0., 0., 0., 0.,
          3.84615399e-02, 0., 0., 0., 0., 0., 0., 0., 0., 0., 0., 0., 0.,
          3.84615399e-02, 0., 0., 0., 0., 0., 0., 7.69230798e-02, 0., 0.,
          0., 0., 0., 0., 0., 0., 0., 0., 0., 0., 0., 0., 0., 0., 0.,
          7.69230798e-02, 0., 0., 0., 0., 0., 3.84615399e-02, 0., 0., 0.,
          0., 0., 0., 0., 1.15384623e-01, 0., 3.84615399e-02, 0., 0., 0.,
          7.69230798e-02, 0., 0., 0., 0., 0., 0., 0., 0., 0., 0., 0., 0.,
          0., 0., 0., 0., 0., 0., 0., 0., 0., 0., 0., 0., 0.,
          3.84615399e-02, 0., 0., 0., 0., 0., 0., 0., 0., 0., 0., 0., 0.,
          0., 0., 0., 0., 0., 0., 0., 3.84615399e-02, 0., 0., 0., 0., 0.,
          0., 0., 0., 0., 0., 0., 0., 3.84615399e-02, 0., 0., 0., 0., 0.,
          0., 0., 0., 0., 0., 0., 0., 0., 0., 0., 0., 0., 0., 0., 0., 0.,
          3.84615399e-02, 2.30769247e-01, 0., 0., 0., 0., 0., 0., 0., 0.,
          0., 0., 0., 0., 0., 0., 0., 0., 0., 0., 0., 0., 0., 0., 0., 0.,
          0., 0., 0., 0., 0., 0., 0., 0., 0., 0., 0., 0., 0., 0., 0.,
          3.84615399e-02, 0., 0., 3.84615399e-02, 0., 3.84615399e-02 ]
      - [ 2.36406620e-03, 1.41843967e-02, 0., 4.72813239e-03,
          2.36406620e-03, 0., 0., 2.36406620e-03, 7.09219836e-03, 0., 0.,
          4.72813239e-03, 4.72813239e-03, 7.09219836e-03, 1.41843967e-02,
          0., 0., 4.72813239e-03, 1.18203312e-02, 1.89125296e-02,
          2.36406620e-03, 0., 2.36406620e-03, 2.36406620e-03,
          9.45626479e-03, 0., 0., 4.72813239e-03, 0., 2.12765951e-02,
          7.09219836e-03, 4.72813239e-03, 2.36406620e-03, 1.18203312e-02,
          4.72813239e-03, 7.09219836e-03, 4.72813239e-03, 4.72813239e-03,
          1.18203312e-02, 2.36406620e-03, 7.09219836e-03, 1.65484641e-02,
          1.41843967e-02, 0., 0., 7.09219836e-03, 1.18203312e-02, 0., 0.,
          0., 7.09219836e-03, 7.09219836e-03, 7.09219836e-03, 0.,
          2.36406620e-03, 2.36406620e-03, 2.36406620e-03, 4.72813239e-03,
          2.36406620e-03, 7.09219836e-03, 2.36406620e-03, 9.45626479e-03,
          2.36406620e-03, 7.09219836e-03, 0., 0., 4.72813239e-03,
          4.72813239e-03, 2.60047279e-02, 0., 0., 2.36406620e-03,
          9.45626479e-03, 0., 0., 4.72813239e-03, 0., 9.45626479e-03,
          7.09219836e-03, 1.18203312e-02, 0., 0., 0., 0., 4.72813239e-03,
          4.72813239e-03, 2.36406620e-03, 0., 4.72813239e-03,
          2.36406620e-03, 0., 4.72813239e-03, 0., 1.41843967e-02,
          9.45626479e-03, 2.36406620e-03, 0., 7.09219836e-03,
          7.09219836e-03, 7.09219836e-03, 0., 1.65484641e-02,
          2.36406624e-02, 0., 2.36406620e-03, 0., 4.72813239e-03,
          4.72813239e-03, 2.36406620e-03, 1.18203312e-02, 0.,
          4.72813239e-03, 4.72813239e-03, 0., 2.36406620e-03,
          1.18203312e-02, 2.60047279e-02, 9.45626479e-03, 0.,
          2.36406620e-03, 2.36406620e-03, 0., 0., 0., 2.36406620e-03,
          7.09219836e-03, 9.45626479e-03, 7.09219836e-03, 0.,
          4.72813239e-03, 4.72813239e-03, 2.36406620e-03, 2.36406620e-03,
          1.41843967e-02, 7.09219836e-03, 2.36406620e-03, 4.72813239e-03,
          7.09219836e-03, 9.45626479e-03, 2.36406620e-03, 0., 0.,
          4.72813239e-03, 2.36406620e-03, 9.45626479e-03, 4.72813239e-03,
          4.72813239e-03, 2.36406620e-03, 7.09219836e-03, 7.09219836e-03,
          0., 0., 2.36406620e-03, 0., 2.83687934e-02, 0., 4.72813239e-03,
          7.09219836e-03, 9.45626479e-03, 4.72813239e-03, 2.36406620e-03,
          1.41843967e-02, 2.36406620e-03, 4.72813239e-03, 0., 0.,
          7.09219836e-03, 2.36406620e-03, 4.72813239e-03, 0.,
          1.65484641e-02, 0., 4.72813239e-03, 4.72813239e-03,
          4.72813239e-03, 2.36406620e-03, 2.36406620e-03, 1.18203312e-02,
          0., 0., 4.72813239e-03, 4.72813239e-03, 2.36406620e-03,
          1.18203312e-02, 2.36406620e-03, 2.36406620e-03, 0.,
          2.36406620e-03, 7.09219836e-03, 1.18203312e-02, 2.36406620e-03,
          0., 2.12765951e-02, 7.09219836e-03, 1.65484641e-02,
          4.72813239e-03, 2.36406620e-03, 1.41843967e-02, 0.,
          4.72813239e-03 ]
      - [ 0., 4.95049497e-03, 0., 0., 4.95049497e-03, 0., 0., 0.,
          4.95049497e-03, 4.95049497e-03, 4.95049497e-03, 0., 0.,
          9.90098994e-03, 2.97029689e-02, 4.95049497e-03, 9.90098994e-03,
          9.90098994e-03, 4.95049497e-03, 4.95049497e-03, 0., 0.,
          4.95049497e-03, 0., 4.95049497e-03, 0., 9.90098994e-03,
          4.95049497e-03, 1.48514844e-02, 9.90098994e-03, 4.95049497e-03,
          4.95049497e-03, 0., 4.95049497e-03, 9.90098994e-03,
          4.95049497e-03, 4.95049497e-03, 4.95049497e-03, 0.,
          3.96039598e-02, 4.95049497e-03, 9.90098994e-03, 1.98019799e-02,
          0., 0., 0., 1.48514844e-02, 4.95049497e-03, 0., 9.90098994e-03,
          4.95049497e-03, 4.95049497e-03, 1.98019799e-02, 0., 0., 0., 0.,
          0., 0., 1.48514844e-02, 0., 4.95049497e-03, 0., 4.95049497e-03,
          0., 0., 0., 9.90098994e-03, 4.95049497e-03, 4.95049497e-03,
          9.90098994e-03, 0., 4.95049497e-03, 0., 4.95049497e-03,
          9.90098994e-03, 0., 0., 0., 9.90098994e-03, 0., 0., 0.,
          2.47524753e-02, 4.95049497e-03, 0., 0., 0., 0., 0.,
          4.95049497e-03, 0., 0., 0., 9.90098994e-03, 0., 4.95049497e-03,
          9.90098994e-03, 1.48514844e-02, 4.95049497e-03, 4.95049497e-03,
          4.95049497e-03, 2.47524753e-02, 0., 1.48514844e-02,
          4.95049497e-03, 4.95049497e-03, 4.95049497e-03, 0., 0.,
          1.98019799e-02, 9.90098994e-03, 0., 0., 4.95049497e-03,
          4.95049497e-03, 1.48514844e-02, 9.90098994e-03, 0., 0.,
          4.95049497e-03, 4.95049497e-03, 9.90098994e-03, 0.,
          1.98019799e-02, 0., 4.95049497e-03, 0., 0., 0., 0., 0.,
          9.90098994e-03, 9.90098994e-03, 0., 0., 4.95049497e-03,
          1.48514844e-02, 0., 0., 4.95049497e-03, 0., 4.95049497e-03, 0.,
          0., 4.95049497e-03, 9.90098994e-03, 0., 0., 0., 0., 0.,
          4.95049497e-03, 0., 5.94059378e-02, 4.95049497e-03,
          9.90098994e-03, 0., 4.95049497e-03, 0., 9.90098994e-03,
          1.48514844e-02, 9.90098994e-03, 0., 0., 4.95049497e-03,
          1.48514844e-02, 4.95049497e-03, 9.90098994e-03, 4.95049497e-03,
          9.90098994e-03, 0., 0., 9.90098994e-03, 4.95049497e-03, 0., 0.,
          0., 4.95049497e-03, 4.95049497e-03, 0., 0., 0., 4.95049497e-03,
          0., 0., 0., 1.48514844e-02, 1.48514844e-02, 0., 4.95049497e-03,
          0., 9.90098994e-03, 4.95049497e-03, 1.48514844e-02, 0.,
          4.95049497e-03, 4.95049497e-03, 4.95049497e-03, 0. ]
      - [ 0., 0., 0., 0., 0., 0., 0., 0., 4.76190485e-02, 0., 0., 0., 0.,
          0., 0., 0., 0., 0., 0., 9.52380970e-02, 0., 0., 0., 0., 0., 0.,
          0., 0., 0., 0., 0., 0., 0., 0., 0., 0., 0., 0., 0.,
          4.76190485e-02, 0., 4.76190485e-02, 0., 0., 0., 0., 0., 0., 0.,
          4.76190485e-02, 0., 0., 0., 0., 0., 0., 0., 0., 4.76190485e-02,
          0., 0., 0., 0., 0., 0., 0., 0., 0., 0., 0., 0., 0., 0., 0., 0.,
          0., 0., 0., 0., 0., 0., 0., 0., 0., 4.76190485e-02, 0., 0., 0.,
          0., 0., 0., 0., 0., 0., 0., 0., 0., 0., 0., 0., 4.76190485e-02,
          4.76190485e-02, 0., 0., 0., 0., 0., 0., 0., 0., 0., 0., 0., 0.,
          0., 0., 4.76190485e-02, 4.76190485e-02, 0., 0., 0., 0., 0.,
          4.76190485e-02, 0., 0., 0., 0., 0., 0., 0., 0., 0., 0., 0., 0.,
          0., 0., 0., 0., 0., 0., 0., 0., 0., 0., 0., 0., 0., 0., 0., 0.,
          0., 0., 2.85714298e-01, 0., 0., 0., 0., 0., 0., 0., 0., 0., 0.,
          0., 4.76190485e-02, 0., 0., 0., 0., 0., 0., 0., 0., 0., 0., 0.,
          0., 0., 0., 0., 0., 0., 0., 0., 0., 0., 0., 0., 0., 0.,
          4.76190485e-02, 0., 0., 0., 0., 0., 0., 0. ]
      - [ 7.63358781e-03, 7.63358781e-03, 0., 0., 7.63358781e-03, 0., 0.,
          0., 0., 0., 7.63358781e-03, 0., 0., 7.63358781e-03, 0., 0.,
          7.63358781e-03, 7.63358781e-03, 0., 3.05343512e-02, 0., 0., 0.,
          0., 0., 0., 0., 0., 0., 1.52671756e-02, 7.63358781e-03,
          1.52671756e-02, 7.63358781e-03, 0., 7.63358781e-03,
          1.52671756e-02, 0., 0., 7.63358781e-03, 3.05343512e-02,
          7.63358781e-03, 2.29007639e-02, 7.63358781e-03, 7.63358781e-03,
          0., 7.63358781e-03, 3.81679386e-02, 0., 0., 0., 7.63358781e-03,
          0., 2.29007639e-02, 0., 0., 0., 1.52671756e-02, 1.52671756e-02,
          1.52671756e-02, 7.63358781e-03, 0., 7.63358781e-03,
          7.63358781e-03, 0., 0., 0., 1.52671756e-02, 0., 2.29007639e-02,
          0., 0., 0., 1.52671756e-02, 0., 0., 0., 0., 0., 0., 0., 0.,
          7.63358781e-03, 0., 0., 0., 2.29007639e-02, 0., 0.,
          7.63358781e-03, 0., 0., 0., 0., 7.63358781e-03, 2.29007639e-02,
          7.63358781e-03, 0., 0., 1.52671756e-02, 0., 0., 0.,
          1.52671756e-02, 0., 0., 0., 0., 0., 1.52671756e-02, 0., 0., 0.,
          7.63358781e-03, 0., 0., 0., 2.29007639e-02, 7.63358781e-03, 0.,
          0., 0., 0., 0., 0., 7.63358781e-03, 0., 0., 1.52671756e-02, 0.,
          0., 1.52671756e-02, 7.63358781e-03, 7.63358781e-03, 0.,
          7.63358781e-03, 0., 0., 0., 0., 0., 0., 0., 0., 0.,
          7.63358781e-03, 0., 0., 0., 0., 0., 0., 0., 1.52671756e-02, 0.,
          5.34351133e-02, 7.63358781e-03, 0., 0., 0., 0., 1.52671756e-02,
          2.29007639e-02, 3.81679386e-02, 0., 0., 0., 1.52671756e-02, 0.,
          0., 0., 0., 7.63358781e-03, 0., 0., 0., 0., 0., 1.52671756e-02,
          1.52671756e-02, 0., 7.63358781e-03, 1.52671756e-02,
          1.52671756e-02, 1.52671756e-02, 0., 0., 0., 0., 1.52671756e-02,
          7.63358781e-03, 7.63358781e-03, 0., 1.52671756e-02, 0., 0., 0.,
          1.52671756e-02, 1.52671756e-02, 0., 0. ]
      - [ 0., 0., 0., 0., 0., 0., 0., 0., 0., 0., 0., 0., 0., 0., 0., 0.,
          0., 0., 0., 0., 0., 0., 0., 0., 0., 0., 0., 0., 0., 0., 0., 0.,
          0., 0., 0., 0., 0., 0., 0., 0., 0., 0., 0., 0., 0., 0., 0., 0.,
          0., 0., 0., 0., 0., 0., 0., 0., 0., 0., 0., 5.00000000e-01, 0.,
          0., 0., 0., 0., 0., 0., 0., 0., 0., 0., 0., 0., 0., 0., 0., 0.,
          0., 0., 0., 0., 0., 0., 0., 0., 0., 0., 0., 0., 0., 0., 0., 0.,
          0., 0., 0., 0., 0., 0., 0., 0., 0., 5.00000000e-01, 0., 0., 0.,
          0., 0., 0., 0., 0., 0., 0., 0., 0., 0., 0., 0., 0., 0., 0., 0.,
          0., 0., 0., 0., 0., 0., 0., 0., 0., 0., 0., 0., 0., 0., 0., 0.,
          0., 0., 0., 0., 0., 0., 0., 0., 0., 0., 0., 0., 0., 0., 0., 0.,
          0., 0., 0., 0., 0., 0., 0., 0., 0., 0., 0., 0., 0., 0., 0., 0.,
          0., 0., 0., 0., 0., 0., 0., 0., 0., 0., 0., 0., 0., 0., 0., 0.,
          0., 0., 0., 0., 0., 0., 0., 0., 0., 0., 0., 0., 0., 0. ]
      - [ 0., 6.97674416e-03, 0., 0., 2.32558139e-03, 2.32558139e-03, 0.,
          2.32558139e-03, 2.32558139e-03, 2.32558139e-03, 6.97674416e-03,
          2.32558139e-03, 0., 2.32558139e-03, 4.65116277e-03, 0.,
          2.32558139e-03, 4.65116277e-03, 1.16279069e-02, 1.86046511e-02,
          0., 0., 0., 0., 0., 0., 0., 1.16279069e-02, 0., 2.32558139e-02,
          1.62790697e-02, 0., 0., 2.79069766e-02, 4.65116277e-03,
          2.79069766e-02, 4.65116277e-03, 2.32558139e-03, 2.32558139e-03,
          2.32558139e-02, 9.30232555e-03, 9.30232555e-03, 1.39534883e-02,
          6.97674416e-03, 0., 4.65116277e-03, 4.65116277e-03,
          2.32558139e-03, 0., 4.65116277e-03, 9.30232555e-03,
          4.65116277e-03, 6.97674416e-03, 6.97674416e-03, 2.32558139e-03,
          4.65116277e-03, 2.32558139e-03, 1.16279069e-02, 0.,
          4.18604650e-02, 4.65116277e-03, 4.65116277e-03, 0.,
          6.97674416e-03, 0., 0., 1.39534883e-02, 2.32558139e-03,
          2.55813953e-02, 0., 0., 0., 6.97674416e-03, 0., 6.97674416e-03,
          4.65116277e-03, 0., 0., 4.65116277e-03, 1.16279069e-02,
          2.32558139e-03, 0., 0., 2.32558139e-03, 0., 9.30232555e-03, 0.,
          0., 4.65116277e-03, 1.39534883e-02, 0., 4.65116277e-03, 0.,
          1.16279069e-02, 4.65116277e-03, 2.32558139e-03, 0.,
          1.62790697e-02, 2.32558139e-03, 6.97674416e-03, 0.,
          2.79069766e-02, 9.30232555e-03, 0., 2.32558139e-03,
          4.65116277e-03, 2.32558139e-03, 2.32558139e-03, 9.30232555e-03,
          1.16279069e-02, 2.32558139e-03, 2.32558139e-03, 0.,
          4.65116277e-03, 0., 6.97674416e-03, 3.02325580e-02,
          1.39534883e-02, 0., 0., 4.65116277e-03, 0., 0., 4.65116277e-03,
          2.32558139e-03, 1.39534883e-02, 2.32558139e-03, 1.16279069e-02,
          2.32558139e-03, 0., 4.65116277e-03, 4.65116277e-03,
          2.32558139e-03, 4.65116277e-03, 9.30232555e-03, 2.32558139e-03,
          1.39534883e-02, 6.97674416e-03, 4.65116277e-03, 4.65116277e-03,
          0., 0., 9.30232555e-03, 2.32558139e-03, 0., 9.30232555e-03,
          4.65116277e-03, 0., 0., 0., 0., 2.32558139e-03, 2.32558139e-03,
          0., 9.30232555e-03, 2.32558139e-03, 2.32558139e-03,
          6.97674416e-03, 2.32558139e-03, 2.32558139e-03, 2.32558139e-03,
          1.16279069e-02, 9.30232555e-03, 4.65116277e-03, 2.32558139e-03,
          0., 9.30232555e-03, 6.97674416e-03, 0., 2.32558139e-03,
          4.65116277e-03, 0., 4.65116277e-03, 2.32558139e-03, 0., 0., 0.,
          6.97674416e-03, 2.32558139e-03, 2.32558139e-03, 2.32558139e-03,
          4.65116277e-03, 1.62790697e-02, 1.16279069e-02, 0.,
          6.97674416e-03, 0., 2.32558139e-03, 2.32558139e-03,
          6.97674416e-03, 0., 9.30232555e-03, 1.86046511e-02, 0.,
          6.97674416e-03, 0., 1.16279069e-02, 4.65116277e-03, 0., 0. ]
      - [ 1.14942528e-02, 0., 0., 0., 0., 0., 0., 0., 0., 0., 0., 0., 0.,
          1.14942528e-02, 2.29885057e-02, 0., 1.14942528e-02,
          3.44827585e-02, 0., 0., 1.14942528e-02, 2.29885057e-02, 0., 0.,
          0., 0., 0., 0., 0., 3.44827585e-02, 1.14942528e-02, 0., 0., 0.,
          1.14942528e-02, 0., 0., 0., 0., 1.14942528e-02, 0.,
          1.14942528e-02, 1.14942528e-02, 0., 1.14942528e-02, 0.,
          2.29885057e-02, 0., 0., 0., 0., 0., 0., 0., 0., 0., 0., 0.,
          1.14942528e-02, 2.29885057e-02, 0., 0., 1.14942528e-02,
          2.29885057e-02, 0., 0., 3.44827585e-02, 1.14942528e-02, 0.,
          1.14942528e-02, 0., 1.14942528e-02, 0., 0., 2.29885057e-02, 0.,
          1.14942528e-02, 1.14942528e-02, 1.14942528e-02, 1.14942528e-02,
          0., 0., 0., 0., 0., 0., 0., 1.14942528e-02, 0., 0., 0.,
          2.29885057e-02, 0., 1.14942528e-02, 1.14942528e-02, 0., 0., 0.,
          2.29885057e-02, 3.44827585e-02, 0., 1.14942528e-02, 0., 0., 0.,
          0., 0., 1.14942528e-02, 1.14942528e-02, 0., 0., 0., 0., 0., 0.,
          0., 0., 0., 0., 0., 0., 0., 0., 0., 2.29885057e-02, 0.,
          1.14942528e-02, 0., 0., 1.14942528e-02, 1.14942528e-02, 0., 0.,
          0., 0., 0., 0., 0., 0., 0., 0., 0., 0., 2.29885057e-02,
          1.14942528e-02, 1.14942528e-02, 0., 0., 0., 0., 0., 0.,
          1.14942528e-02, 0., 1.14942528e-02, 0., 0., 0., 0., 0., 0.,
          3.44827585e-02, 2.29885057e-02, 0., 0., 0., 0., 0.,
          1.14942528e-02, 0., 0., 1.14942528e-02, 0., 4.59770113e-02, 0.,
          0., 1.14942528e-02, 1.14942528e-02, 1.14942528e-02, 0., 0., 0.,
          0., 0., 0., 1.14942528e-02, 0., 0., 1.14942528e-02,
          2.29885057e-02, 0., 0., 0., 0., 1.14942528e-02, 1.14942528e-02,
          0., 1.14942528e-02, 0., 2.29885057e-02 ]
      - [ 0., 0., 0., 0., 0., 0., 0., 0., 0., 0., 0., 0., 0., 0., 0., 0.,
          0., 0., 0., 0., 0., 0., 0., 0., 0., 0., 0., 0., 1., 0., 0., 0.,
          0., 0., 0., 0., 0., 0., 0., 0., 0., 0., 0., 0., 0., 0., 0., 0.,
          0., 0., 0., 0., 0., 0., 0., 0., 0., 0., 0., 0., 0., 0., 0., 0.,
          0., 0., 0., 0., 0., 0., 0., 0., 0., 0., 0., 0., 0., 0., 0., 0.,
          0., 0., 0., 0., 0., 0., 0., 0., 0., 0., 0., 0., 0., 0., 0., 0.,
          0., 0., 0., 0., 0., 0., 0., 0., 0., 0., 0., 0., 0., 0., 0., 0.,
          0., 0., 0., 0., 0., 0., 0., 0., 0., 0., 0., 0., 0., 0., 0., 0.,
          0., 0., 0., 0., 0., 0., 0., 0., 0., 0., 0., 0., 0., 0., 0., 0.,
          0., 0., 0., 0., 0., 0., 0., 0., 0., 0., 0., 0., 0., 0., 0., 0.,
          0., 0., 0., 0., 0., 0., 0., 0., 0., 0., 0., 0., 0., 0., 0., 0.,
          0., 0., 0., 0., 0., 0., 0., 0., 0., 0., 0., 0., 0., 0., 0., 0.,
          0., 0., 0., 0., 0., 0., 0., 0. ]
      - [ 0., 0., 0., 0., 0., 0., 0., 0., 0., 0., 0., 0., 0., 0., 0., 0.,
          0., 0., 0., 6.66666701e-02, 0., 0., 0., 0., 0., 0., 0., 0.,
          1.33333340e-01, 0., 0., 0., 0., 0., 6.66666701e-02, 0., 0., 0.,
          0., 0., 0., 0., 0., 0., 0., 0., 0., 0., 0., 0., 0., 0., 0., 0.,
          0., 0., 0., 0., 0., 0., 0., 0., 0., 0., 0., 0., 6.66666701e-02,
          0., 6.66666701e-02, 0., 0., 0., 0., 0., 0., 0., 0.,
          6.66666701e-02, 0., 0., 0., 0., 0., 0., 0., 0., 0., 0., 0., 0.,
          0., 0., 0., 6.66666701e-02, 0., 0., 0., 0., 0., 6.66666701e-02,
          0., 0., 6.66666701e-02, 0., 0., 0., 0., 0., 0., 0., 0., 0., 0.,
          0., 0., 0., 6.66666701e-02, 6.66666701e-02, 0., 0., 0., 0., 0.,
          0., 0., 0., 0., 0., 0., 0., 6.66666701e-02, 0., 0., 0.,
          6.66666701e-02, 0., 0., 0., 0., 0., 0., 0., 0., 0., 0., 0., 0.,
          0., 0., 0., 0., 0., 0., 0., 0., 0., 0., 0., 0., 0., 0., 0., 0.,
          0., 0., 0., 0., 0., 0., 0., 0., 0., 0., 0., 0., 0., 0., 0., 0.,
          0., 0., 0., 0., 6.66666701e-02, 0., 0., 0., 0., 0., 0., 0., 0.,
          0., 0., 0., 0., 0., 0., 0., 0. ]
      - [ 9.22818761e-03, 4.19463078e-03, 0., 8.38926155e-03,
          1.09060407e-02, 0., 5.03355730e-03, 1.67785236e-03,
          5.87248337e-03, 7.55033549e-03, 2.51677865e-03, 1.67785236e-03,
          5.03355730e-03, 4.19463078e-03, 4.19463078e-03, 0.,
          2.51677865e-03, 6.71140943e-03, 1.67785236e-03, 0.,
          5.87248337e-03, 6.71140943e-03, 6.71140943e-03, 2.51677865e-03,
          1.67785236e-03, 5.87248337e-03, 5.87248337e-03, 1.67785236e-03,
          1.76174492e-02, 9.22818761e-03, 1.67785236e-03, 1.51006710e-02,
          2.51677865e-03, 3.35570471e-03, 9.22818761e-03, 0.,
          5.87248337e-03, 1.67785236e-03, 7.55033549e-03, 1.00671146e-02,
          0., 9.22818761e-03, 8.38926178e-04, 5.03355730e-03,
          3.35570471e-03, 8.38926178e-04, 8.38926155e-03, 7.55033549e-03,
          6.71140943e-03, 2.51677865e-03, 5.87248337e-03, 3.35570471e-03,
          3.35570471e-03, 8.38926178e-04, 8.38926178e-04, 1.67785236e-03,
          8.38926178e-04, 1.67785236e-03, 9.22818761e-03, 4.19463078e-03,
          3.35570471e-03, 7.55033549e-03, 1.17449667e-02, 8.38926155e-03,
          1.67785236e-03, 5.87248337e-03, 5.87248337e-03, 8.38926155e-03,
          1.00671146e-02, 6.71140943e-03, 1.09060407e-02, 0.,
          1.67785236e-03, 5.03355730e-03, 1.59395970e-02, 4.19463078e-03,
          5.03355730e-03, 2.51677865e-03, 2.51677865e-03, 1.67785236e-03,
          8.38926178e-04, 3.35570471e-03, 1.67785236e-03, 0.,
          1.67785236e-03, 2.51677865e-03, 2.51677865e-03, 5.03355730e-03,
          6.71140943e-03, 0., 2.51677865e-03, 6.71140943e-03, 0.,
          6.71140943e-03, 7.55033549e-03, 3.35570471e-03, 1.67785236e-03,
          0., 5.03355730e-03, 7.55033549e-03, 8.38926178e-04,
          3.35570471e-03, 6.71140943e-03, 0., 2.51677865e-03,
          1.67785236e-03, 5.87248337e-03, 5.03355730e-03, 4.19463078e-03,
          1.17449667e-02, 2.51677865e-03, 5.87248337e-03, 7.55033549e-03,
          3.35570471e-03, 5.87248337e-03, 8.38926178e-04, 8.38926178e-04,
          1.17449667e-02, 1.67785236e-03, 6.71140943e-03, 5.03355730e-03,
          7.55033549e-03, 4.19463078e-03, 0., 6.71140943e-03,
          3.35570471e-03, 3.35570471e-03, 3.35570471e-03, 8.38926178e-04,
          1.67785236e-03, 9.22818761e-03, 5.87248337e-03, 2.51677865e-03,
          5.87248337e-03, 8.38926178e-04, 1.67785236e-03, 2.51677865e-03,
          1.67785236e-03, 1.67785236e-03, 2.51677865e-03, 6.71140943e-03,
          1.67785236e-03, 3.35570471e-03, 1.00671146e-02, 4.19463078e-03,
          4.19463078e-03, 4.19463078e-03, 9.22818761e-03, 3.35570471e-03,
          8.38926178e-04, 0., 0., 4.19463078e-03, 1.25838928e-02,
          4.53020148e-02, 2.51677865e-03, 9.22818761e-03, 2.51677865e-03,
          4.19463078e-03, 7.55033549e-03, 7.55033549e-03, 1.17449667e-02,
          4.19463078e-03, 6.71140943e-03, 2.51677865e-03, 4.19463078e-03,
          1.17449667e-02, 6.71140943e-03, 1.67785231e-02, 1.42617449e-02,
          2.51677865e-03, 4.19463078e-03, 4.19463078e-03, 1.09060407e-02,
          1.51006710e-02, 8.38926178e-04, 2.51677865e-03, 4.19463078e-03,
          4.19463078e-03, 4.19463078e-03, 6.71140943e-03, 5.03355730e-03,
          0., 5.87248337e-03, 1.00671146e-02, 6.71140943e-03,
          4.19463078e-03, 4.19463078e-03, 6.71140943e-03, 7.55033549e-03,
          8.38926178e-04, 2.51677865e-03, 2.51677865e-03, 3.35570471e-03,
          1.09060407e-02, 3.35570471e-03, 1.67785236e-03, 1.00671146e-02,
          4.19463078e-03, 5.87248337e-03 ]
      - [ 6.16966607e-03, 4.11311071e-03, 3.08483304e-03, 9.76863783e-03,
          8.22622143e-03, 4.11311071e-03, 2.05655536e-03, 2.57069431e-03,
          4.11311071e-03, 1.18251937e-02, 4.62724967e-03, 3.59897176e-03,
          9.25449934e-03, 1.02827768e-03, 6.68380503e-03, 2.05655536e-03,
          3.59897176e-03, 4.11311071e-03, 1.02827768e-03, 0.,
          7.19794352e-03, 8.22622143e-03, 6.16966607e-03, 4.11311071e-03,
          1.02827768e-03, 4.11311071e-03, 7.71208247e-03, 2.05655536e-03,
          8.74035992e-03, 1.18251937e-02, 4.62724967e-03, 1.43958870e-02,
          1.54241652e-03, 1.54241652e-03, 3.59897176e-03, 0.,
          3.08483304e-03, 5.65552711e-03, 9.25449934e-03, 2.57069431e-03,
          1.54241652e-03, 7.19794352e-03, 5.14138839e-04, 3.59897176e-03,
          6.16966607e-03, 4.11311071e-03, 2.05655536e-03, 7.71208247e-03,
          4.11311071e-03, 6.16966607e-03, 6.68380503e-03, 2.57069431e-03,
          3.08483304e-03, 1.54241652e-03, 3.08483304e-03, 1.54241652e-03,
          4.11311071e-03, 1.54241652e-03, 6.16966607e-03, 1.54241652e-03,
          3.08483304e-03, 7.19794352e-03, 7.71208247e-03, 1.28534706e-02,
          3.08483304e-03, 5.65552711e-03, 3.08483304e-03, 3.59897176e-03,
          3.08483304e-03, 6.16966607e-03, 7.71208247e-03, 3.08483304e-03,
          3.59897176e-03, 2.57069431e-03, 8.22622143e-03, 2.57069431e-03,
          4.62724967e-03, 3.59897176e-03, 4.11311071e-03, 1.54241652e-03,
          0., 2.05655536e-03, 3.08483304e-03, 1.54241652e-03,
          6.16966607e-03, 1.54241652e-03, 4.11311071e-03, 6.68380503e-03,
          6.16966607e-03, 1.02827768e-03, 4.11311071e-03, 6.68380503e-03,
          0., 1.18251937e-02, 1.13110542e-02, 3.08483304e-03,
          3.59897176e-03, 4.62724967e-03, 3.08483304e-03, 4.11311071e-03,
          0., 2.05655536e-03, 3.59897176e-03, 0., 2.57069431e-03,
          5.14138839e-04, 2.05655536e-03, 4.11311071e-03, 2.57069431e-03,
          1.43958870e-02, 7.71208247e-03, 4.62724967e-03, 9.25449934e-03,
          0., 1.13110542e-02, 4.11311071e-03, 3.08483304e-03,
          8.22622143e-03, 0., 8.74035992e-03, 7.71208247e-03,
          5.14138862e-03, 6.16966607e-03, 1.02827768e-03, 5.65552711e-03,
          4.11311071e-03, 4.11311071e-03, 6.16966607e-03, 2.57069431e-03,
          4.62724967e-03, 1.07969157e-02, 5.65552711e-03, 4.62724967e-03,
          2.05655536e-03, 1.54241652e-03, 6.68380503e-03, 5.14138862e-03,
          3.59897176e-03, 2.05655536e-03, 3.59897176e-03, 6.16966607e-03,
          4.11311071e-03, 2.57069431e-03, 8.22622143e-03, 5.14138862e-03,
          3.59897176e-03, 8.22622143e-03, 1.28534706e-02, 1.54241652e-03,
          3.08483304e-03, 0., 1.02827768e-03, 2.57069431e-03,
          1.18251937e-02, 4.57583554e-02, 2.05655536e-03, 9.25449934e-03,
          3.08483304e-03, 5.65552711e-03, 8.74035992e-03, 2.05655536e-03,
          6.16966607e-03, 4.11311071e-03, 1.02827772e-02, 2.05655536e-03,
          3.08483304e-03, 6.68380503e-03, 4.62724967e-03, 9.76863783e-03,
          8.74035992e-03, 2.05655536e-03, 8.22622143e-03, 1.54241652e-03,
          8.74035992e-03, 1.59383044e-02, 3.08483304e-03, 1.54241652e-03,
          5.65552711e-03, 3.59897176e-03, 5.14138862e-03, 4.62724967e-03,
          5.65552711e-03, 0., 1.28534706e-02, 1.07969157e-02,
          6.16966607e-03, 5.65552711e-03, 5.14138862e-03, 4.62724967e-03,
          6.68380503e-03, 4.11311071e-03, 4.62724967e-03, 1.54241652e-03,
          2.57069431e-03, 1.02827772e-02, 2.05655536e-03, 5.14138839e-04,
          8.22622143e-03, 2.57069431e-03, 4.11311071e-03 ]
      - [ 7.61904754e-03, 3.80952377e-03, 1.90476188e-03, 1.90476179e-02,
          5.71428565e-03, 0., 1.90476188e-03, 1.90476188e-03,
          1.33333337e-02, 7.61904754e-03, 3.80952377e-03, 3.80952377e-03,
          3.80952377e-03, 3.80952377e-03, 3.80952377e-03, 1.90476188e-03,
          7.61904754e-03, 1.90476188e-03, 3.80952377e-03, 3.80952377e-03,
          7.61904754e-03, 3.80952377e-03, 3.80952377e-03, 3.80952377e-03,
          1.90476188e-03, 1.90476188e-03, 1.90476188e-03, 5.71428565e-03,
          7.61904754e-03, 2.09523812e-02, 7.61904754e-03, 9.52380896e-03,
          0., 3.80952377e-03, 1.90476188e-03, 3.80952377e-03,
          3.80952377e-03, 0., 9.52380896e-03, 9.52380896e-03, 0.,
          1.14285713e-02, 1.90476188e-03, 3.80952377e-03, 1.90476188e-03,
          0., 1.33333337e-02, 5.71428565e-03, 5.71428565e-03, 0.,
          3.80952377e-03, 9.52380896e-03, 1.33333337e-02, 1.90476188e-03,
          1.90476188e-03, 1.90476188e-03, 1.90476188e-03, 3.80952377e-03,
          1.52380951e-02, 1.90476188e-03, 3.80952377e-03, 1.52380951e-02,
          9.52380896e-03, 5.71428565e-03, 0., 3.80952377e-03,
          5.71428565e-03, 0., 9.52380896e-03, 9.52380896e-03, 0., 0.,
          5.71428565e-03, 3.80952377e-03, 5.71428565e-03, 7.61904754e-03,
          1.90476188e-03, 3.80952377e-03, 3.80952377e-03, 5.71428565e-03,
          0., 0., 1.90476188e-03, 3.80952377e-03, 0., 1.90476188e-03, 0.,
          5.71428565e-03, 0., 0., 0., 1.14285713e-02, 0., 7.61904754e-03,
          1.90476188e-03, 3.80952377e-03, 0., 0., 7.61904754e-03,
          2.85714287e-02, 0., 5.71428565e-03, 3.80952377e-03, 0.,
          1.90476188e-03, 1.90476188e-03, 5.71428565e-03, 3.80952377e-03,
          9.52380896e-03, 1.33333337e-02, 5.71428565e-03, 0.,
          7.61904754e-03, 1.90476188e-03, 1.14285713e-02, 3.80952377e-03,
          3.80952377e-03, 1.90476179e-02, 0., 3.80952377e-03,
          3.80952377e-03, 3.80952377e-03, 3.80952377e-03, 0.,
          3.80952377e-03, 1.90476188e-03, 3.80952377e-03, 5.71428565e-03,
          0., 0., 1.33333337e-02, 5.71428565e-03, 0., 5.71428565e-03,
          1.90476188e-03, 1.90476188e-03, 5.71428565e-03, 0., 0.,
          1.90476188e-03, 0., 0., 1.90476188e-03, 1.90476188e-03,
          7.61904754e-03, 1.90476188e-03, 1.33333337e-02, 9.52380896e-03,
          5.71428565e-03, 1.90476188e-03, 0., 3.80952377e-03, 0.,
          1.90476188e-03, 8.19047615e-02, 1.90476188e-03, 5.71428565e-03,
          0., 1.90476188e-03, 9.52380896e-03, 5.71428565e-03,
          1.52380951e-02, 3.80952377e-03, 9.52380896e-03, 0.,
          1.90476188e-03, 1.71428565e-02, 7.61904754e-03, 7.61904754e-03,
          1.14285713e-02, 7.61904754e-03, 0., 0., 7.61904754e-03,
          1.90476188e-03, 7.61904754e-03, 1.90476188e-03, 3.80952377e-03,
          5.71428565e-03, 5.71428565e-03, 0., 0., 1.90476188e-03,
          1.52380951e-02, 7.61904754e-03, 3.80952377e-03, 5.71428565e-03,
          1.90476188e-03, 0., 7.61904754e-03, 3.80952377e-03,
          1.90476188e-03, 0., 0., 3.80952377e-03, 0., 3.80952377e-03,
          7.61904754e-03, 3.80952377e-03, 9.52380896e-03 ]
      - [ 4.13793139e-03, 4.13793139e-03, 9.65517294e-03, 6.89655170e-03,
          6.89655170e-03, 2.75862077e-03, 2.75862077e-03, 4.13793139e-03,
          6.89655170e-03, 1.37931039e-03, 1.24137932e-02, 5.51724155e-03,
          4.13793139e-03, 1.51724145e-02, 1.10344831e-02, 0., 0.,
          5.51724155e-03, 1.37931039e-03, 8.27586278e-03, 2.75862077e-03,
          5.51724155e-03, 4.13793139e-03, 5.51724155e-03, 1.37931039e-03,
          1.37931039e-03, 5.51724155e-03, 1.10344831e-02, 6.89655170e-03,
          9.65517294e-03, 4.13793139e-03, 9.65517294e-03, 0.,
          2.75862077e-03, 5.51724155e-03, 0., 2.75862077e-03,
          1.37931039e-03, 1.10344831e-02, 3.31034511e-02, 1.37931039e-03,
          2.75862077e-03, 4.13793139e-03, 1.37931039e-03, 1.37931039e-03,
          8.27586278e-03, 0., 8.27586278e-03, 1.37931039e-03,
          2.75862077e-03, 2.75862077e-03, 2.75862077e-03, 4.13793139e-03,
          5.51724155e-03, 2.75862077e-03, 1.37931039e-03, 2.75862077e-03,
          1.37931039e-03, 5.51724155e-03, 2.20689662e-02, 1.37931039e-03,
          1.24137932e-02, 2.75862077e-03, 2.75862077e-03, 8.27586278e-03,
          2.75862077e-03, 4.13793139e-03, 6.89655170e-03, 9.65517294e-03,
          2.75862077e-03, 6.89655170e-03, 4.13793139e-03, 5.51724155e-03,
          4.13793139e-03, 4.13793139e-03, 6.89655170e-03, 5.51724155e-03,
          1.37931039e-03, 4.13793139e-03, 1.10344831e-02, 4.13793139e-03,
          4.13793139e-03, 0., 5.51724155e-03, 5.51724155e-03,
          2.75862077e-03, 5.51724155e-03, 4.13793139e-03, 6.89655170e-03,
          4.13793139e-03, 5.51724155e-03, 0., 1.37931039e-03,
          1.37931034e-02, 9.65517294e-03, 1.37931039e-03, 2.75862077e-03,
          1.37931039e-03, 5.51724155e-03, 4.13793139e-03, 6.89655170e-03,
          1.37931034e-02, 5.51724155e-03, 2.75862077e-03, 2.75862077e-03,
          5.51724155e-03, 4.13793139e-03, 5.51724155e-03, 4.13793139e-03,
          1.37931034e-02, 8.27586278e-03, 1.37931039e-03, 4.13793139e-03,
          0., 1.37931039e-03, 2.75862077e-03, 1.37931039e-03,
          9.65517294e-03, 8.27586278e-03, 4.13793139e-03, 8.27586278e-03,
          5.51724155e-03, 0., 2.75862077e-03, 2.75862077e-03,
          2.75862077e-03, 0., 1.10344831e-02, 0., 2.75862077e-03,
          8.27586278e-03, 8.27586278e-03, 2.75862077e-03, 1.37931039e-03,
          0., 1.37931039e-03, 2.75862077e-03, 1.37931039e-03,
          4.13793139e-03, 4.13793139e-03, 9.65517294e-03, 0.,
          4.13793139e-03, 1.24137932e-02, 6.89655170e-03, 2.75862077e-03,
          1.37931039e-03, 6.89655170e-03, 2.75862077e-03, 1.37931039e-03,
          5.51724155e-03, 1.10344831e-02, 4.13793139e-03, 4.13793139e-03,
          2.89655179e-02, 0., 6.89655170e-03, 2.75862077e-03,
          4.13793139e-03, 5.51724155e-03, 1.37931039e-03, 8.27586278e-03,
          0., 6.89655170e-03, 4.13793139e-03, 9.65517294e-03,
          1.24137932e-02, 4.13793139e-03, 2.75862077e-03, 6.89655170e-03,
          0., 8.27586278e-03, 2.75862077e-03, 1.24137932e-02,
          4.13793139e-03, 2.75862077e-03, 1.37931039e-03, 4.13793139e-03,
          4.13793139e-03, 8.27586278e-03, 4.13793139e-03, 4.13793139e-03,
          6.89655170e-03, 6.89655170e-03, 4.13793139e-03, 4.13793139e-03,
          1.37931039e-03, 6.89655170e-03, 1.37931039e-03, 1.37931039e-03,
          4.13793139e-03, 2.75862077e-03, 1.37931039e-03, 0.,
          8.27586278e-03, 2.75862077e-03, 0., 1.10344831e-02,
          5.51724155e-03, 4.13793139e-03 ]
      - [ 2.96296296e-03, 2.96296296e-03, 4.44444455e-03, 5.92592591e-03,
          5.92592591e-03, 1.48148148e-03, 1.48148148e-03, 1.48148148e-03,
          1.03703700e-02, 8.88888910e-03, 4.44444455e-03, 0.,
          2.96296296e-03, 1.48148148e-03, 2.96296296e-03, 5.92592591e-03,
          4.44444455e-03, 1.48148148e-03, 1.48148148e-03, 1.48148148e-03,
          1.48148148e-03, 2.96296296e-03, 4.44444455e-03, 2.96296296e-03,
          7.40740728e-03, 4.44444455e-03, 7.40740728e-03, 2.96296296e-03,
          5.92592591e-03, 1.48148146e-02, 5.92592591e-03, 4.44444455e-03,
          4.44444455e-03, 1.48148148e-03, 4.44444455e-03, 0.,
          2.96296296e-03, 1.48148148e-03, 4.44444455e-03, 3.11111119e-02,
          0., 8.88888910e-03, 0., 1.48148148e-03, 4.44444455e-03,
          2.96296296e-03, 5.92592591e-03, 4.44444455e-03, 4.44444455e-03,
          0., 1.33333337e-02, 7.40740728e-03, 1.03703700e-02, 0.,
          1.48148148e-03, 0., 2.96296296e-03, 2.96296296e-03,
          1.03703700e-02, 2.51851846e-02, 4.44444455e-03, 5.92592591e-03,
          5.92592591e-03, 1.03703700e-02, 7.40740728e-03, 7.40740728e-03,
          8.88888910e-03, 5.92592591e-03, 8.88888910e-03, 5.92592591e-03,
          1.48148148e-03, 0., 4.44444455e-03, 2.96296296e-03,
          4.44444455e-03, 1.48148148e-03, 4.44444455e-03, 2.96296296e-03,
          4.44444455e-03, 5.92592591e-03, 1.48148148e-03, 0.,
          2.96296296e-03, 1.48148148e-03, 1.48148148e-03, 2.96296296e-03,
          0., 4.44444455e-03, 5.92592591e-03, 1.48148148e-03,
          1.48148148e-03, 4.44444455e-03, 0., 7.40740728e-03,
          7.40740728e-03, 0., 1.48148148e-03, 1.48148148e-03,
          4.44444455e-03, 1.18518518e-02, 2.96296296e-03, 7.40740728e-03,
          2.07407400e-02, 0., 1.48148148e-03, 1.48148148e-03,
          1.48148148e-03, 5.92592591e-03, 1.18518518e-02, 1.03703700e-02,
          4.44444455e-03, 4.44444455e-03, 1.48148148e-03, 1.48148148e-03,
          5.92592591e-03, 8.88888910e-03, 2.96296296e-03, 1.18518518e-02,
          0., 2.96296296e-03, 1.48148146e-02, 4.44444455e-03,
          2.96296296e-03, 0., 5.92592591e-03, 5.92592591e-03,
          1.48148148e-03, 7.40740728e-03, 2.96296296e-03, 0.,
          5.92592591e-03, 8.88888910e-03, 2.96296296e-03, 1.48148148e-03,
          2.96296296e-03, 5.92592591e-03, 7.40740728e-03, 0.,
          1.48148148e-03, 2.96296296e-03, 1.48148148e-03, 1.48148148e-03,
          1.48148148e-03, 1.48148148e-03, 1.03703700e-02, 7.40740728e-03,
          5.92592591e-03, 1.18518518e-02, 2.96296296e-03, 1.48148148e-03,
          1.48148148e-03, 0., 2.96296296e-03, 1.03703700e-02,
          4.44444455e-02, 1.48148148e-03, 4.44444455e-03, 2.96296296e-03,
          1.48148148e-03, 5.92592591e-03, 0., 1.62962954e-02,
          5.92592591e-03, 7.40740728e-03, 1.48148148e-03, 4.44444455e-03,
          4.44444455e-03, 1.48148146e-02, 4.44444455e-03, 4.44444455e-03,
          2.96296296e-03, 5.92592591e-03, 4.44444455e-03, 5.92592591e-03,
          1.48148148e-03, 2.96296296e-03, 1.48148148e-03, 1.03703700e-02,
          1.48148148e-03, 5.92592591e-03, 5.92592591e-03, 7.40740728e-03,
          0., 1.03703700e-02, 1.03703700e-02, 2.96296296e-03,
          5.92592591e-03, 1.48148148e-03, 2.96296296e-03, 2.96296296e-03,
          0., 1.03703700e-02, 2.96296296e-03, 1.48148148e-03,
          1.48148146e-02, 2.96296296e-03, 1.48148148e-03, 1.18518518e-02,
          8.88888910e-03, 1.18518518e-02 ]
      - [ 6.78733084e-03, 2.26244354e-03, 6.78733084e-03, 5.65610873e-03,
          4.52488707e-03, 2.26244354e-03, 3.39366542e-03, 0.,
          5.65610873e-03, 6.78733084e-03, 3.39366542e-03, 0.,
          3.39366542e-03, 6.78733084e-03, 1.13122175e-02, 3.39366542e-03,
          9.04977415e-03, 4.52488707e-03, 1.13122177e-03, 3.39366542e-03,
          1.13122177e-03, 2.26244354e-03, 4.52488707e-03, 2.26244354e-03,
          1.13122177e-03, 2.26244354e-03, 4.52488707e-03, 6.78733084e-03,
          2.26244349e-02, 1.69683266e-02, 2.26244354e-03, 1.24434391e-02,
          2.26244354e-03, 1.13122177e-03, 1.13122177e-03, 2.26244354e-03,
          2.26244354e-03, 1.13122177e-03, 5.65610873e-03, 1.24434391e-02,
          1.13122177e-03, 9.04977415e-03, 2.26244354e-03, 6.78733084e-03,
          7.91855250e-03, 1.13122177e-03, 4.52488707e-03, 9.04977415e-03,
          1.13122177e-03, 1.13122177e-03, 4.52488707e-03, 9.04977415e-03,
          1.01809958e-02, 2.26244354e-03, 4.52488707e-03, 1.13122177e-03,
          2.26244354e-03, 1.13122177e-03, 1.13122175e-02, 9.04977415e-03,
          1.13122177e-03, 3.39366542e-03, 5.65610873e-03, 7.91855250e-03,
          3.39366542e-03, 3.39366542e-03, 6.78733084e-03, 1.01809958e-02,
          5.65610873e-03, 7.91855250e-03, 4.52488707e-03, 2.26244354e-03,
          6.78733084e-03, 3.39366542e-03, 4.52488707e-03, 2.26244354e-03,
          2.26244354e-03, 3.39366542e-03, 2.26244354e-03, 9.04977415e-03,
          1.13122177e-03, 2.26244354e-03, 1.13122177e-03, 1.13122177e-03,
          7.91855250e-03, 1.13122177e-03, 2.26244354e-03, 1.13122177e-03,
          7.91855250e-03, 2.26244354e-03, 9.04977415e-03, 6.78733084e-03,
          0., 7.91855250e-03, 1.24434391e-02, 6.78733084e-03,
          2.26244354e-03, 2.26244354e-03, 4.52488707e-03, 0.,
          2.26244354e-03, 7.91855250e-03, 2.26244354e-03, 0.,
          3.39366542e-03, 5.65610873e-03, 9.04977415e-03, 1.13122177e-03,
          4.52488707e-03, 1.24434391e-02, 2.26244354e-03, 2.26244354e-03,
          2.26244354e-03, 1.13122177e-03, 1.35746617e-02, 3.39366542e-03,
          1.13122177e-03, 6.78733084e-03, 1.13122177e-03, 1.13122177e-03,
          7.91855250e-03, 2.26244354e-03, 3.39366542e-03, 1.13122177e-03,
          4.52488707e-03, 7.91855250e-03, 2.26244354e-03, 2.26244354e-03,
          1.13122177e-03, 2.26244354e-03, 6.78733084e-03, 4.52488707e-03,
          1.13122177e-03, 1.13122177e-03, 1.13122177e-03, 0.,
          3.39366542e-03, 4.52488707e-03, 1.01809958e-02, 3.39366542e-03,
          1.13122177e-03, 7.91855250e-03, 3.39366542e-03, 4.52488707e-03,
          7.91855250e-03, 2.26244354e-03, 1.24434391e-02, 1.69683266e-02,
          1.13122177e-03, 1.13122177e-03, 3.39366542e-03, 4.52488707e-03,
          2.26244354e-03, 5.65610873e-03, 3.28054316e-02, 3.39366542e-03,
          1.01809958e-02, 3.39366542e-03, 1.35746617e-02, 6.78733084e-03,
          3.39366542e-03, 1.69683266e-02, 9.04977415e-03, 4.52488707e-03,
          0., 2.26244354e-03, 3.39366542e-03, 5.65610873e-03,
          1.01809958e-02, 1.01809958e-02, 2.26244354e-03, 4.52488707e-03,
          4.52488707e-03, 3.39366542e-03, 6.78733084e-03, 2.26244354e-03,
          1.13122177e-03, 5.65610873e-03, 4.52488707e-03, 4.52488707e-03,
          3.39366542e-03, 5.65610873e-03, 1.13122177e-03, 1.24434391e-02,
          6.78733084e-03, 7.91855250e-03, 7.91855250e-03, 6.78733084e-03,
          3.39366542e-03, 1.24434391e-02, 5.65610873e-03, 3.39366542e-03,
          2.26244354e-03, 4.52488707e-03, 1.01809958e-02, 0.,
          2.26244354e-03, 5.65610873e-03, 9.04977415e-03, 1.01809958e-02 ]
      - [ 4.93218238e-03, 2.46609119e-03, 2.46609119e-03, 9.86436475e-03,
          1.23304559e-03, 1.23304559e-03, 1.23304559e-03, 0.,
          7.39827380e-03, 9.86436475e-03, 6.16522785e-03, 1.23304559e-03,
          7.39827380e-03, 1.23304559e-03, 4.93218238e-03, 3.69913690e-03,
          3.69913690e-03, 3.69913690e-03, 3.69913690e-03, 2.46609119e-03,
          4.93218238e-03, 7.39827380e-03, 3.69913690e-03, 4.93218238e-03,
          2.46609119e-03, 2.46609119e-03, 3.69913690e-03, 8.63131881e-03,
          1.60295926e-02, 1.35635016e-02, 2.46609119e-03, 7.39827380e-03,
          1.23304559e-03, 4.93218238e-03, 3.69913690e-03, 6.16522785e-03,
          2.46609119e-03, 3.69913690e-03, 3.69913690e-03, 1.35635016e-02,
          2.46609119e-03, 8.63131881e-03, 7.39827380e-03, 2.46609119e-03,
          4.93218238e-03, 3.69913690e-03, 8.63131881e-03, 6.16522785e-03,
          3.69913690e-03, 1.23304559e-03, 1.35635016e-02, 7.39827380e-03,
          8.63131881e-03, 2.46609119e-03, 0., 2.46609119e-03,
          2.46609119e-03, 1.23304559e-03, 3.69913690e-03, 7.39827380e-03,
          0., 1.97287295e-02, 9.86436475e-03, 8.63131881e-03, 0.,
          4.93218238e-03, 4.93218238e-03, 6.16522785e-03, 1.23304557e-02,
          0., 6.16522785e-03, 1.23304559e-03, 9.86436475e-03,
          3.69913690e-03, 6.16522785e-03, 0., 2.46609119e-03, 0.,
          4.93218238e-03, 4.93218238e-03, 2.46609119e-03, 0., 0.,
          1.23304559e-03, 7.39827380e-03, 2.46609119e-03, 1.23304559e-03,
          7.39827380e-03, 4.93218238e-03, 0., 2.46609119e-03,
          3.69913690e-03, 1.23304559e-03, 7.39827380e-03, 1.84956845e-02,
          1.23304559e-03, 3.69913690e-03, 6.16522785e-03, 1.23304559e-03,
          2.46609119e-03, 9.86436475e-03, 4.93218238e-03, 1.23304557e-02,
          4.93218238e-03, 0., 0., 4.93218238e-03, 7.39827380e-03,
          4.93218238e-03, 2.09617745e-02, 1.23304559e-03, 3.69913690e-03,
          4.93218238e-03, 0., 7.39827380e-03, 1.23304559e-03,
          7.39827380e-03, 1.10974107e-02, 6.16522785e-03, 1.23304559e-03,
          8.63131881e-03, 6.16522785e-03, 3.69913690e-03, 2.46609119e-03,
          4.93218238e-03, 4.93218238e-03, 2.46609119e-03, 8.63131881e-03,
          1.23304559e-03, 6.16522785e-03, 1.84956845e-02, 7.39827380e-03,
          0., 1.23304559e-03, 0., 1.23304559e-03, 6.16522785e-03,
          1.23304559e-03, 3.69913690e-03, 2.46609119e-03, 3.69913690e-03,
          3.69913690e-03, 2.46609119e-03, 2.46609119e-03, 1.35635016e-02,
          2.46609119e-03, 3.69913690e-03, 1.60295926e-02, 1.23304559e-03,
          0., 1.23304559e-03, 3.69913690e-03, 0., 4.93218238e-03,
          4.43896428e-02, 1.23304559e-03, 3.69913690e-03, 1.23304559e-03,
          4.93218238e-03, 6.16522785e-03, 6.16522785e-03, 1.10974107e-02,
          3.69913690e-03, 1.35635016e-02, 4.93218238e-03, 2.46609119e-03,
          7.39827380e-03, 2.46609119e-03, 3.69913690e-03, 9.86436475e-03,
          7.39827380e-03, 4.93218238e-03, 2.46609119e-03, 3.69913690e-03,
          7.39827380e-03, 0., 1.23304559e-03, 4.93218238e-03,
          2.46609119e-03, 4.93218238e-03, 3.69913690e-03, 7.39827380e-03,
          1.23304559e-03, 1.84956845e-02, 8.63131881e-03, 1.60295926e-02,
          4.93218238e-03, 2.46609119e-03, 2.46609119e-03, 4.93218238e-03,
          1.23304559e-03, 1.23304559e-03, 0., 2.46609119e-03,
          4.93218238e-03, 1.23304559e-03, 0., 4.93218238e-03,
          2.46609119e-03, 3.69913690e-03 ]
      - [ 5.30973449e-03, 7.07964599e-03, 1.76991150e-03, 5.30973449e-03,
          5.30973449e-03, 1.76991150e-03, 7.07964599e-03, 0.,
          7.07964599e-03, 1.94690265e-02, 5.30973449e-03, 5.30973449e-03,
          8.84955749e-03, 0., 8.84955749e-03, 1.76991150e-03, 0.,
          3.53982300e-03, 0., 1.76991150e-03, 1.76991150e-03,
          3.53982300e-03, 8.84955749e-03, 5.30973449e-03, 1.76991150e-03,
          8.84955749e-03, 7.07964599e-03, 0., 1.76991150e-03,
          2.30088495e-02, 3.53982300e-03, 8.84955749e-03, 1.76991150e-03,
          3.53982300e-03, 5.30973449e-03, 0., 7.07964599e-03, 0.,
          3.53982300e-03, 1.59292035e-02, 0., 8.84955749e-03,
          1.76991150e-03, 5.30973449e-03, 0., 3.53982300e-03,
          8.84955749e-03, 1.23893805e-02, 3.53982300e-03, 5.30973449e-03,
          1.76991150e-02, 5.30973449e-03, 5.30973449e-03, 1.76991150e-03,
          1.76991150e-03, 1.76991150e-03, 0., 0., 7.07964599e-03,
          1.59292035e-02, 1.76991150e-03, 1.41592920e-02, 8.84955749e-03,
          1.06194690e-02, 8.84955749e-03, 1.76991150e-03, 1.06194690e-02,
          1.23893805e-02, 1.76991150e-03, 7.07964599e-03, 1.76991150e-03,
          3.53982300e-03, 1.76991150e-03, 0., 5.30973449e-03, 0.,
          1.76991150e-03, 7.07964599e-03, 0., 8.84955749e-03,
          3.53982300e-03, 0., 1.76991150e-03, 7.07964599e-03,
          1.06194690e-02, 3.53982300e-03, 1.76991150e-03, 8.84955749e-03,
          3.53982300e-03, 1.76991150e-03, 5.30973449e-03, 7.07964599e-03,
          0., 1.76991150e-02, 8.84955749e-03, 1.76991150e-03,
          1.76991150e-03, 0., 7.07964599e-03, 1.06194690e-02,
          3.53982300e-03, 7.07964599e-03, 5.30973449e-03, 0.,
          3.53982300e-03, 1.76991150e-03, 1.76991150e-03, 1.76991150e-03,
          0., 1.59292035e-02, 0., 1.76991150e-03, 8.84955749e-03, 0.,
          1.23893805e-02, 0., 0., 1.06194690e-02, 3.53982300e-03,
          1.76991150e-03, 5.30973449e-03, 0., 1.76991150e-03, 0.,
          3.53982300e-03, 3.53982300e-03, 5.30973449e-03, 7.07964599e-03,
          1.76991150e-03, 3.53982300e-03, 3.53982300e-03, 3.53982300e-03,
          1.76991150e-03, 1.76991150e-03, 0., 0., 5.30973449e-03, 0.,
          1.76991150e-03, 3.53982300e-03, 5.30973449e-03, 3.53982300e-03,
          1.76991150e-03, 1.06194690e-02, 7.07964599e-03, 3.53982300e-03,
          1.76991150e-03, 7.07964599e-03, 0., 0., 0., 3.53982300e-03,
          3.53982300e-03, 7.07964599e-03, 2.65486725e-02, 1.76991150e-03,
          8.84955749e-03, 1.76991150e-03, 1.76991150e-03, 8.84955749e-03,
          7.07964599e-03, 2.12389380e-02, 3.53982300e-03, 3.53982300e-03,
          0., 7.07964599e-03, 1.23893805e-02, 5.30973449e-03,
          8.84955749e-03, 8.84955749e-03, 1.76991150e-03, 5.30973449e-03,
          1.76991150e-03, 5.30973449e-03, 5.30973449e-03, 1.76991150e-03,
          0., 3.53982300e-03, 1.76991150e-03, 3.53982300e-03,
          5.30973449e-03, 3.53982300e-03, 0., 2.83185840e-02,
          1.23893805e-02, 5.30973449e-03, 5.30973449e-03, 3.53982300e-03,
          5.30973449e-03, 5.30973449e-03, 0., 8.84955749e-03,
          1.76991150e-03, 1.76991150e-03, 1.23893805e-02, 3.53982300e-03,
          0., 1.06194690e-02, 1.23893805e-02, 5.30973449e-03 ]
      - [ 0., 0., 0., 0., 0., 0., 0., 0., 1.58730168e-02, 0., 0., 0., 0.,
          0., 1.58730168e-02, 0., 0., 1.58730168e-02, 1.58730168e-02,
          3.17460336e-02, 0., 0., 0., 0., 0., 0., 0., 0., 1.58730168e-02,
          3.17460336e-02, 0., 0., 0., 0., 1.58730168e-02, 4.76190522e-02,
          1.58730168e-02, 0., 0., 1.58730168e-02, 0., 0., 0., 0., 0.,
          1.58730168e-02, 0., 0., 0., 0., 0., 0., 1.58730168e-02, 0., 0.,
          0., 0., 1.58730168e-02, 0., 0., 0., 0., 0., 1.58730168e-02,
          1.58730168e-02, 0., 0., 0., 1.58730168e-02, 0., 0., 0., 0., 0.,
          0., 0., 0., 3.17460336e-02, 0., 0., 0., 0., 0., 0., 0., 0., 0.,
          0., 1.58730168e-02, 0., 0., 0., 0., 0., 0., 0., 0., 0.,
          1.58730168e-02, 0., 0., 6.34920672e-02, 0., 0., 0.,
          1.58730168e-02, 0., 0., 0., 0., 0., 0., 0., 0., 0., 0.,
          4.76190522e-02, 4.76190522e-02, 6.34920672e-02, 0., 0., 0., 0.,
          0., 0., 0., 0., 0., 0., 0., 0., 1.58730168e-02, 0.,
          1.58730168e-02, 0., 0., 1.58730168e-02, 0., 0., 1.58730168e-02,
          1.58730168e-02, 0., 0., 0., 0., 0., 0., 0., 0., 1.58730168e-02,
          0., 0., 0., 0., 3.17460336e-02, 0., 0., 1.58730168e-02, 0., 0.,
          0., 3.17460336e-02, 0., 0., 0., 1.58730168e-02, 4.76190522e-02,
          0., 0., 0., 1.58730168e-02, 0., 0., 0., 0., 0., 0.,
          1.58730168e-02, 0., 1.58730168e-02, 1.58730168e-02, 0.,
          3.17460336e-02, 0., 0., 0., 0., 0., 0., 0., 0., 1.58730168e-02,
          0., 1.58730168e-02, 0., 0., 0., 0., 0., 0. ]
      - [ 0., 0., 0., 0., 0., 0., 0., 0., 0., 0., 0., 0., 0., 0., 0., 0.,
          0., 0., 3.57142873e-02, 3.57142873e-02, 0., 3.57142873e-02, 0.,
          3.57142873e-02, 0., 0., 0., 0., 7.14285746e-02, 0., 0., 0., 0.,
          3.57142873e-02, 0., 0., 0., 0., 0., 7.14285746e-02, 0., 0.,
          7.14285746e-02, 0., 0., 0., 0., 0., 0., 0., 0., 0., 0., 0., 0.,
          0., 0., 0., 0., 0., 0., 0., 0., 0., 0., 0., 0., 0., 0., 0., 0.,
          0., 0., 0., 0., 0., 0., 3.57142873e-02, 0., 0., 0., 0., 0., 0.,
          0., 0., 0., 3.57142873e-02, 0., 0., 0., 0., 0., 3.57142873e-02,
          0., 0., 0., 0., 0., 0., 0., 0., 0., 0., 0., 0., 0., 0.,
          7.14285746e-02, 0., 0., 0., 0., 0., 0., 0., 0., 0., 0., 0., 0.,
          0., 0., 0., 0., 0., 0., 0., 0., 0., 0., 0., 0., 0., 0., 0., 0.,
          0., 0., 0., 3.57142873e-02, 0., 0., 0., 0., 1.07142866e-01, 0.,
          0., 0., 0., 0., 0., 0., 0., 1.78571433e-01, 0., 0., 0., 0., 0.,
          0., 0., 0., 0., 0., 0., 0., 0., 0., 0., 0., 0., 0., 0., 0., 0.,
          0., 0., 0., 0., 0., 0., 0., 7.14285746e-02, 0., 0., 0., 0., 0.,
          0., 3.57142873e-02, 0., 0., 0., 0., 0., 0., 0., 0., 0. ]
      - [ 0., 0., 0., 0., 0., 0., 0., 0., 0., 0., 0., 0., 0., 0., 0., 0.,
          0., 0., 0., 1.25000000e-01, 0., 0., 0., 0., 0., 0., 0., 0., 0.,
          0., 0., 0., 0., 0., 0., 1.25000000e-01, 0., 0., 0., 0.,
          4.16666679e-02, 0., 4.16666679e-02, 0., 0., 0., 0., 0., 0., 0.,
          0., 0., 0., 0., 0., 0., 0., 0., 0., 0., 0., 0., 0., 0., 0., 0.,
          0., 0., 4.16666679e-02, 0., 0., 0., 0., 0., 0., 0., 0., 0., 0.,
          4.16666679e-02, 0., 0., 0., 0., 0., 0., 0., 0., 0., 0., 0., 0.,
          0., 4.16666679e-02, 0., 0., 0., 0., 0., 0., 0., 0., 0., 0., 0.,
          0., 0., 0., 0., 0., 0., 0., 0., 0., 0., 0., 8.33333358e-02, 0.,
          8.33333358e-02, 0., 0., 0., 0., 0., 0., 0., 0., 0., 0., 0., 0.,
          0., 0., 0., 0., 0., 0., 0., 4.16666679e-02, 0., 0., 0., 0., 0.,
          0., 0., 4.16666679e-02, 0., 0., 0., 0., 0., 0., 0.,
          1.66666672e-01, 0., 0., 0., 0., 0., 0., 4.16666679e-02, 0., 0.,
          0., 0., 0., 0., 0., 0., 0., 0., 0., 0., 0., 0., 0., 0., 0., 0.,
          0., 0., 0., 0., 4.16666679e-02, 0., 0., 0., 0., 0., 0., 0.,
          4.16666679e-02, 0., 0., 0., 0., 0., 0., 0. ]
      - [ 0., 0., 1.38888890e-02, 0., 2.77777780e-02, 1.38888890e-02, 0.,
          0., 0., 0., 0., 0., 0., 0., 0., 0., 0., 0., 0., 6.94444478e-02,
          0., 1.38888890e-02, 0., 0., 0., 0., 1.38888890e-02,
          1.38888890e-02, 2.77777780e-02, 0., 0., 0., 0., 1.38888890e-02,
          0., 2.77777780e-02, 0., 0., 0., 0., 0., 1.38888890e-02,
          6.94444478e-02, 0., 0., 0., 0., 0., 0., 0., 0., 0., 0., 0., 0.,
          0., 0., 0., 0., 0., 1.38888890e-02, 0., 0., 0., 0., 0., 0., 0.,
          2.77777780e-02, 0., 1.38888890e-02, 0., 0., 0., 0., 0., 0., 0.,
          0., 0., 6.94444478e-02, 0., 0., 1.38888890e-02, 0., 0., 0.,
          1.38888890e-02, 0., 0., 0., 0., 6.94444478e-02, 0., 0., 0., 0.,
          0., 0., 0., 8.33333358e-02, 1.38888890e-02, 0., 2.77777780e-02,
          0., 0., 0., 2.77777780e-02, 0., 1.38888890e-02, 0., 0., 0., 0.,
          0., 0., 2.77777780e-02, 0., 0., 0., 0., 0., 0., 1.38888890e-02,
          0., 0., 0., 0., 0., 1.38888890e-02, 0., 0., 0., 0., 0., 0., 0.,
          0., 0., 0., 0., 0., 0., 1.38888890e-02, 0., 1.38888890e-02, 0.,
          0., 0., 0., 1.38888890e-02, 2.77777780e-02, 0., 0.,
          2.77777780e-02, 0., 0., 0., 0., 0., 0., 0., 0., 1.38888890e-02,
          0., 0., 1.38888890e-02, 0., 0., 0., 0., 0., 0., 0., 0., 0., 0.,
          1.38888890e-02, 0., 1.38888890e-02, 0., 1.38888890e-02, 0., 0.,
          0., 1.38888890e-02, 0., 0., 0., 0., 0., 0., 0., 0.,
          2.77777780e-02, 0., 0., 0., 0., 2.77777780e-02 ]
      - [ 1.08695654e-02, 0., 0., 0., 0., 0., 0., 0., 0., 0.,
          1.08695654e-02, 1.08695654e-02, 1.08695654e-02, 0., 0., 0., 0.,
          1.08695654e-02, 0., 1.08695654e-02, 0., 0., 0., 0.,
          1.08695654e-02, 0., 0., 0., 1.08695654e-02, 3.26086953e-02, 0.,
          0., 0., 0., 2.17391308e-02, 1.08695654e-02, 0., 0., 0.,
          2.17391308e-02, 0., 0., 0., 0., 1.08695654e-02, 0.,
          2.17391308e-02, 0., 0., 0., 1.08695654e-02, 1.08695654e-02,
          1.08695654e-02, 1.08695654e-02, 0., 0., 1.08695654e-02, 0.,
          1.08695654e-02, 1.08695654e-02, 0., 1.08695654e-02,
          2.17391308e-02, 0., 0., 2.17391308e-02, 3.26086953e-02, 0.,
          4.34782617e-02, 2.17391308e-02, 0., 1.08695654e-02, 0., 0., 0.,
          0., 0., 1.08695654e-02, 0., 2.17391308e-02, 1.08695654e-02, 0.,
          1.08695654e-02, 0., 0., 1.08695654e-02, 0., 1.08695654e-02, 0.,
          0., 0., 0., 0., 1.08695654e-02, 0., 1.08695654e-02, 0., 0., 0.,
          0., 0., 4.34782617e-02, 4.34782617e-02, 0., 0., 0., 0.,
          1.08695654e-02, 1.08695654e-02, 1.08695654e-02, 0., 0., 0., 0.,
          0., 0., 1.08695654e-02, 2.17391308e-02, 0., 0., 0., 0., 0., 0.,
          0., 1.08695654e-02, 0., 0., 0., 0., 1.08695654e-02, 0.,
          2.17391308e-02, 1.08695654e-02, 0., 0., 0., 0., 2.17391308e-02,
          1.08695654e-02, 0., 0., 0., 0., 0., 0., 0., 0., 0., 0.,
          1.08695654e-02, 0., 0., 1.08695654e-02, 0., 0., 0., 0.,
          1.08695654e-02, 0., 0., 4.34782617e-02, 0., 0., 0.,
          1.08695654e-02, 1.08695654e-02, 0., 0., 2.17391308e-02, 0., 0.,
          0., 0., 1.08695654e-02, 0., 0., 0., 1.08695654e-02, 0., 0., 0.,
          0., 1.08695654e-02, 0., 0., 0., 0., 0., 0., 0., 1.08695654e-02,
          0., 0., 3.26086953e-02, 0., 0., 2.17391308e-02, 0., 0. ]
      - [ 0., 0., 0., 9.70873795e-03, 0., 0., 9.70873795e-03, 0., 0., 0.,
          0., 0., 0., 9.70873795e-03, 1.94174759e-02, 0., 0.,
          9.70873795e-03, 0., 0., 0., 0., 0., 9.70873795e-03,
          1.94174759e-02, 0., 0., 0., 9.70873795e-03, 1.94174759e-02, 0.,
          0., 9.70873795e-03, 9.70873795e-03, 0., 0., 9.70873795e-03,
          1.94174759e-02, 0., 0., 0., 1.94174759e-02, 9.70873795e-03, 0.,
          9.70873795e-03, 0., 1.94174759e-02, 9.70873795e-03, 0.,
          1.94174759e-02, 9.70873795e-03, 9.70873795e-03, 0., 0., 0., 0.,
          0., 0., 1.94174759e-02, 0., 0., 0., 0., 0., 0., 0.,
          2.91262139e-02, 0., 3.88349518e-02, 0., 1.94174759e-02, 0.,
          1.94174759e-02, 0., 9.70873795e-03, 0., 0., 0., 0.,
          2.91262139e-02, 0., 9.70873795e-03, 0., 0., 0., 0., 0.,
          9.70873795e-03, 0., 9.70873795e-03, 9.70873795e-03, 0., 0., 0.,
          0., 0., 0., 0., 0., 0., 0., 5.82524277e-02, 1.94174759e-02, 0.,
          0., 0., 9.70873795e-03, 9.70873795e-03, 0., 9.70873795e-03, 0.,
          0., 0., 0., 0., 0., 0., 2.91262139e-02, 0., 9.70873795e-03, 0.,
          9.70873795e-03, 0., 0., 0., 0., 0., 0., 0., 0., 1.94174759e-02,
          1.94174759e-02, 0., 0., 9.70873795e-03, 1.94174759e-02, 0., 0.,
          2.91262139e-02, 0., 0., 9.70873795e-03, 0., 0., 0.,
          9.70873795e-03, 9.70873795e-03, 9.70873795e-03, 9.70873795e-03,
          0., 0., 0., 0., 0., 0., 9.70873795e-03, 0., 0., 9.70873795e-03,
          0., 9.70873795e-03, 1.94174759e-02, 0., 1.94174759e-02, 0.,
          9.70873795e-03, 0., 0., 0., 0., 0., 9.70873795e-03, 0.,
          9.70873795e-03, 0., 0., 0., 1.94174759e-02, 9.70873795e-03, 0.,
          0., 9.70873795e-03, 9.70873795e-03, 9.70873795e-03, 0., 0., 0.,
          0., 0., 0., 9.70873795e-03, 0., 9.70873795e-03, 0., 0.,
          9.70873795e-03, 0., 9.70873795e-03, 2.91262139e-02, 0. ]
      - [ 0., 1.01010101e-02, 0., 0., 0., 0., 0., 0., 2.02020202e-02,
          1.01010101e-02, 1.01010101e-02, 0., 0., 1.01010101e-02,
          3.03030312e-02, 0., 0., 0., 2.02020202e-02, 3.03030312e-02, 0.,
          0., 1.01010101e-02, 0., 1.01010101e-02, 0., 0., 0.,
          2.02020202e-02, 3.03030312e-02, 1.01010101e-02, 0., 0., 0.,
          1.01010101e-02, 0., 0., 0., 0., 4.04040404e-02, 0.,
          4.04040404e-02, 3.03030312e-02, 0., 0., 0., 0., 0., 0., 0.,
          2.02020202e-02, 0., 3.03030312e-02, 0., 1.01010101e-02, 0., 0.,
          0., 0., 2.02020202e-02, 0., 1.01010101e-02, 1.01010101e-02, 0.,
          0., 0., 8.08080807e-02, 0., 1.01010101e-02, 0., 0.,
          1.01010101e-02, 1.01010101e-02, 0., 0., 0., 0., 0., 0., 0., 0.,
          0., 0., 2.02020202e-02, 0., 0., 0., 0., 1.01010101e-02, 0.,
          1.01010101e-02, 0., 0., 0., 0., 0., 0., 0., 1.01010101e-02,
          1.01010101e-02, 0., 2.02020202e-02, 2.02020202e-02, 0.,
          1.01010101e-02, 0., 0., 0., 1.01010101e-02, 0., 1.01010101e-02,
          0., 0., 0., 1.01010101e-02, 0., 2.02020202e-02, 0., 0., 0., 0.,
          0., 0., 0., 0., 0., 0., 1.01010101e-02, 0., 0., 1.01010101e-02,
          1.01010101e-02, 0., 0., 0., 0., 0., 0., 0., 0., 0., 0., 0., 0.,
          0., 2.02020202e-02, 0., 0., 0., 0., 0., 0., 0., 0.,
          3.03030312e-02, 1.01010101e-02, 1.01010101e-02, 0., 0., 0.,
          3.03030312e-02, 2.02020202e-02, 0., 0., 0., 0., 1.01010101e-02,
          0., 0., 0., 0., 1.01010101e-02, 0., 0., 0., 0., 0.,
          4.04040404e-02, 0., 0., 0., 0., 0., 0., 0., 2.02020202e-02, 0.,
          0., 0., 2.02020202e-02, 0., 0., 1.01010101e-02, 0.,
          1.01010101e-02, 0., 0., 1.01010101e-02, 0., 0. ]
      - [ 0., 6.49350649e-03, 0., 0., 6.49350649e-03, 0., 0.,
          1.29870130e-02, 2.59740259e-02, 0., 6.49350649e-03, 0., 0.,
          6.49350649e-03, 0., 0., 0., 0., 6.49350649e-03, 1.94805190e-02,
          0., 0., 0., 0., 6.49350649e-03, 6.49350649e-03, 6.49350649e-03,
          0., 0., 1.94805190e-02, 6.49350649e-03, 0., 0., 0.,
          6.49350649e-03, 6.49350649e-03, 0., 0., 0., 0., 1.29870130e-02,
          0., 1.29870130e-02, 0., 0., 0., 2.59740259e-02, 0., 0., 0.,
          6.49350649e-03, 0., 6.49350649e-03, 0., 0., 0., 6.49350649e-03,
          6.49350649e-03, 0., 6.49350649e-03, 6.49350649e-03,
          1.29870130e-02, 6.49350649e-03, 6.49350649e-03, 0.,
          6.49350649e-03, 4.54545468e-02, 6.49350649e-03, 1.94805190e-02,
          1.29870130e-02, 0., 0., 0., 0., 6.49350649e-03, 0., 0.,
          1.29870130e-02, 0., 1.94805190e-02, 0., 0., 0., 0., 0.,
          6.49350649e-03, 6.49350649e-03, 6.49350649e-03, 1.29870130e-02,
          6.49350649e-03, 0., 0., 0., 0., 0., 0., 0., 0., 2.59740259e-02,
          6.49350649e-03, 0., 1.29870130e-02, 3.24675329e-02, 0., 0., 0.,
          6.49350649e-03, 0., 6.49350649e-03, 1.29870130e-02,
          1.29870130e-02, 6.49350649e-03, 0., 0., 0., 6.49350649e-03,
          1.29870130e-02, 1.94805190e-02, 0., 0., 6.49350649e-03,
          6.49350649e-03, 1.29870130e-02, 0., 6.49350649e-03,
          1.29870130e-02, 1.29870130e-02, 6.49350649e-03, 0., 0.,
          1.29870130e-02, 6.49350649e-03, 0., 0., 0., 0., 0., 0., 0., 0.,
          0., 0., 1.29870130e-02, 6.49350649e-03, 0., 0., 1.29870130e-02,
          6.49350649e-03, 6.49350649e-03, 0., 0., 0., 6.49350649e-03,
          6.49350649e-03, 2.59740259e-02, 6.49350649e-03, 6.49350649e-03,
          1.29870130e-02, 6.49350649e-03, 0., 6.49350649e-03,
          1.94805190e-02, 1.29870130e-02, 0., 0., 0., 6.49350649e-03, 0.,
          0., 0., 0., 1.29870130e-02, 0., 1.29870130e-02, 0.,
          6.49350649e-03, 0., 6.49350649e-03, 6.49350649e-03, 0., 0., 0.,
          0., 0., 0., 6.49350649e-03, 0., 6.49350649e-03, 1.29870130e-02,
          6.49350649e-03, 2.59740259e-02, 1.29870130e-02, 0., 0.,
          1.29870130e-02, 1.29870130e-02, 0., 0., 1.29870130e-02, 0. ]
      - [ 0., 0., 2.17391308e-02, 0., 0., 0., 0., 0., 0., 0.,
          2.17391308e-02, 0., 0., 0., 2.17391308e-02, 0., 2.17391308e-02,
          0., 0., 0., 0., 0., 0., 0., 2.17391308e-02, 0., 0.,
          4.34782617e-02, 2.17391308e-02, 4.34782617e-02, 0., 0., 0., 0.,
          0., 0., 0., 0., 0., 2.17391308e-02, 0., 0., 2.17391308e-02, 0.,
          0., 0., 0., 0., 0., 0., 0., 2.17391308e-02, 0., 0., 0., 0., 0.,
          0., 0., 4.34782617e-02, 0., 0., 0., 0., 2.17391308e-02, 0.,
          1.73913047e-01, 0., 0., 0., 0., 0., 0., 2.17391308e-02, 0., 0.,
          0., 0., 0., 0., 0., 0., 0., 4.34782617e-02, 0., 0., 0., 0.,
          2.17391308e-02, 0., 0., 0., 0., 2.17391308e-02, 2.17391308e-02,
          0., 0., 0., 2.17391308e-02, 2.17391308e-02, 0., 2.17391308e-02,
          0., 0., 0., 0., 0., 0., 0., 0., 0., 0., 0., 0., 0., 0., 0., 0.,
          0., 0., 0., 0., 0., 0., 0., 0., 0., 0., 0., 0., 0., 0., 0., 0.,
          0., 0., 0., 0., 0., 0., 0., 0., 0., 0., 0., 0., 0., 0., 0., 0.,
          0., 2.17391308e-02, 0., 0., 0., 2.17391308e-02, 0., 0., 0., 0.,
          0., 1.08695656e-01, 0., 0., 0., 0., 2.17391308e-02, 0., 0., 0.,
          0., 2.17391308e-02, 0., 0., 0., 0., 0., 0., 0., 0., 0., 0., 0.,
          2.17391308e-02, 0., 0., 0., 0., 0., 2.17391308e-02,
          2.17391308e-02, 0., 2.17391308e-02, 0., 0., 0., 0., 0., 0., 0. ]
      - [ 0., 0., 0., 0., 0., 0., 0., 0., 1.99999996e-02, 0., 0., 0., 0.,
          0., 0., 0., 0., 0., 0., 0., 0., 1.99999996e-02, 0., 0., 0., 0.,
          0., 0., 5.99999987e-02, 1.99999996e-02, 1.99999996e-02, 0., 0.,
          0., 1.99999996e-02, 0., 0., 0., 0., 9.99999940e-02, 0., 0.,
          1.99999996e-02, 0., 0., 1.99999996e-02, 0., 0., 1.99999996e-02,
          0., 1.99999996e-02, 0., 0., 0., 0., 0., 1.99999996e-02, 0., 0.,
          7.99999982e-02, 0., 0., 0., 0., 0., 0., 1.19999997e-01, 0.,
          3.99999991e-02, 0., 0., 0., 0., 3.99999991e-02, 0., 0., 0., 0.,
          0., 0., 0., 0., 0., 0., 0., 0., 0., 0., 0., 0., 0., 0., 0., 0.,
          0., 0., 0., 0., 3.99999991e-02, 0., 0., 1.99999996e-02, 0., 0.,
          0., 0., 0., 0., 1.99999996e-02, 0., 0., 0., 0., 0., 0., 0., 0.,
          3.99999991e-02, 5.99999987e-02, 0., 0., 1.99999996e-02, 0., 0.,
          0., 0., 0., 0., 0., 0., 1.99999996e-02, 0., 0., 0., 0., 0., 0.,
          0., 0., 0., 1.99999996e-02, 0., 0., 0., 0., 0., 0., 0., 0., 0.,
          0., 0., 0., 0., 0., 0., 0., 0., 1.99999996e-02, 0.,
          1.99999996e-02, 1.99999996e-02, 0., 0., 0., 0., 0., 0., 0., 0.,
          0., 0., 0., 0., 0., 0., 0., 0., 0., 0., 0., 0., 0., 0., 0., 0.,
          0., 0., 0., 3.99999991e-02, 0., 0., 0., 0., 1.99999996e-02, 0.,
          0., 0., 0., 0. ]
      - [ 7.67754298e-03, 3.83877149e-03, 3.83877149e-03, 5.75815700e-03,
          0., 1.91938574e-03, 9.59692895e-03, 5.75815700e-03,
          1.53550860e-02, 7.67754298e-03, 3.83877149e-03, 3.83877149e-03,
          0., 3.83877149e-03, 9.59692895e-03, 1.91938574e-03,
          3.83877149e-03, 3.83877149e-03, 7.67754298e-03, 7.67754298e-03,
          5.75815700e-03, 5.75815700e-03, 5.75815700e-03, 3.83877149e-03,
          1.91938574e-03, 3.83877149e-03, 5.75815700e-03, 1.91938574e-03,
          0., 1.15163140e-02, 7.67754298e-03, 1.91938574e-03,
          3.83877149e-03, 5.75815700e-03, 9.59692895e-03, 1.91938574e-03,
          1.91938574e-03, 1.91938574e-03, 3.83877149e-03, 1.91938574e-03,
          3.83877149e-03, 1.91938579e-02, 1.72744710e-02, 7.67754298e-03,
          1.34357000e-02, 3.83877149e-03, 7.67754298e-03, 5.75815700e-03,
          1.91938574e-03, 1.91938574e-03, 1.91938579e-02, 3.83877149e-03,
          3.83877149e-03, 0., 3.83877149e-03, 9.59692895e-03, 0.,
          1.91938574e-03, 7.67754298e-03, 1.91938574e-03, 7.67754298e-03,
          3.83877149e-03, 1.91938574e-03, 3.83877149e-03, 1.91938574e-03,
          3.83877149e-03, 7.67754298e-03, 0., 2.11132430e-02,
          1.91938574e-03, 1.91938574e-03, 7.67754298e-03, 9.59692895e-03,
          0., 0., 1.91938574e-03, 5.75815700e-03, 0., 0., 7.67754298e-03,
          0., 5.75815700e-03, 0., 0., 5.75815700e-03, 3.83877149e-03, 0.,
          1.91938574e-03, 1.91938574e-03, 1.91938574e-03, 9.59692895e-03,
          1.91938574e-03, 0., 5.75815700e-03, 7.67754298e-03,
          3.83877149e-03, 1.91938574e-03, 3.83877149e-03, 3.83877149e-03,
          5.75815700e-03, 0., 1.53550860e-02, 2.30326280e-02, 0.,
          1.91938574e-03, 1.91938574e-03, 3.83877149e-03, 1.91938574e-03,
          2.11132430e-02, 7.67754298e-03, 1.91938574e-03, 5.75815700e-03,
          1.91938574e-03, 0., 3.83877149e-03, 9.59692895e-03, 0.,
          1.15163140e-02, 1.91938574e-03, 0., 1.91938574e-03,
          1.91938574e-03, 1.91938574e-03, 1.91938574e-03, 3.83877149e-03,
          1.34357000e-02, 7.67754298e-03, 9.59692895e-03, 1.91938574e-03,
          0., 7.67754298e-03, 5.75815700e-03, 3.83877149e-03,
          3.83877149e-03, 1.91938574e-03, 0., 3.83877149e-03,
          5.75815700e-03, 1.15163140e-02, 0., 1.15163140e-02, 0.,
          5.75815700e-03, 3.83877149e-03, 2.11132430e-02, 9.59692895e-03,
          0., 3.83877149e-03, 1.91938574e-03, 3.83877149e-03, 0., 0., 0.,
          0., 9.59692895e-03, 5.75815700e-03, 1.91938574e-03,
          7.67754298e-03, 5.75815700e-03, 1.91938574e-03, 5.75815700e-03,
          1.15163140e-02, 1.91938574e-03, 5.75815700e-03, 1.91938574e-03,
          7.67754298e-03, 1.15163140e-02, 1.91938574e-03, 0., 0.,
          1.15163140e-02, 5.75815700e-03, 3.83877149e-03, 3.83877149e-03,
          1.34357000e-02, 5.75815700e-03, 3.83877149e-03, 7.67754298e-03,
          3.83877149e-03, 3.83877149e-03, 1.91938574e-03, 7.67754298e-03,
          0., 1.34357000e-02, 3.83877149e-03, 5.75815700e-03, 0.,
          5.75815700e-03, 3.83877149e-03, 1.91938574e-03, 3.83877149e-03,
          3.83877149e-03, 9.59692895e-03, 7.67754298e-03, 7.67754298e-03,
          1.15163140e-02, 1.91938574e-03, 5.75815700e-03, 7.67754298e-03,
          7.67754298e-03 ]
      - [ 0., 0., 0., 0., 0., 2.05479451e-02, 0., 0., 6.84931502e-03,
          6.84931502e-03, 2.05479451e-02, 0., 0., 0., 0., 0., 0., 0.,
          1.36986300e-02, 5.47945201e-02, 0., 1.36986300e-02, 0., 0., 0.,
          0., 0., 0., 0., 0., 6.84931502e-03, 0., 0., 0., 0.,
          4.79452051e-02, 0., 0., 0., 0., 1.36986300e-02, 2.73972601e-02,
          5.47945201e-02, 0., 0., 0., 0., 0., 0., 0., 0., 0., 0.,
          6.84931502e-03, 0., 0., 0., 2.05479451e-02, 0., 0.,
          2.05479451e-02, 0., 0., 0., 0., 0., 0., 0., 3.42465751e-02, 0.,
          0., 0., 0., 0., 0., 1.36986300e-02, 0., 0., 0., 6.84931502e-03,
          1.36986300e-02, 6.84931502e-03, 0., 0., 0., 6.84931502e-03, 0.,
          0., 0., 1.36986300e-02, 0., 0., 0., 0., 6.84931502e-03, 0., 0.,
          0., 0., 0., 2.05479451e-02, 6.84931502e-03, 2.05479451e-02, 0.,
          0., 0., 2.05479451e-02, 0., 6.84931502e-03, 0., 0.,
          6.84931502e-03, 0., 6.84931502e-03, 0., 0., 2.73972601e-02,
          2.73972601e-02, 0., 0., 0., 6.84931502e-03, 0., 0., 0.,
          1.36986300e-02, 6.84931502e-03, 1.36986300e-02, 0., 0.,
          6.84931502e-03, 1.36986300e-02, 0., 3.42465751e-02,
          2.05479451e-02, 0., 0., 0., 2.05479451e-02, 0., 0.,
          6.84931502e-03, 6.84931502e-03, 0., 0., 7.53424615e-02,
          6.84931502e-03, 0., 1.36986300e-02, 0., 0., 6.84931502e-03, 0.,
          0., 0., 0., 0., 0., 0., 0., 0., 0., 0., 0., 0., 0.,
          2.05479451e-02, 0., 0., 0., 6.84931502e-03, 6.84931502e-03, 0.,
          6.84931502e-03, 0., 0., 6.84931502e-03, 6.84931502e-03,
          6.84931502e-03, 0., 0., 6.84931502e-03, 2.73972601e-02, 0., 0.,
          6.84931502e-03, 0., 0., 0., 0., 0., 0., 1.36986300e-02, 0., 0.,
          6.84931502e-03, 2.05479451e-02, 6.84931502e-03, 6.84931502e-03,
          6.84931502e-03 ]
      - [ 0., 1.23456791e-02, 0., 1.85185187e-02, 0., 0., 0., 0.,
          1.23456791e-02, 0., 0., 0., 0., 0., 6.17283955e-03,
          6.17283955e-03, 0., 0., 6.17283955e-03, 1.23456791e-02, 0., 0.,
          0., 6.17283955e-03, 0., 0., 0., 0., 1.23456791e-02,
          1.23456791e-02, 3.08641978e-02, 0., 6.17283955e-03, 0.,
          1.23456791e-02, 2.46913582e-02, 6.17283955e-03, 0., 0.,
          6.17283955e-03, 1.85185187e-02, 2.46913582e-02, 1.85185187e-02,
          0., 0., 6.17283955e-03, 0., 0., 0., 6.17283955e-03,
          1.23456791e-02, 0., 0., 1.23456791e-02, 0., 0., 0., 0., 0., 0.,
          2.46913582e-02, 3.08641978e-02, 0., 6.17283955e-03, 0., 0.,
          1.23456791e-02, 6.17283955e-03, 5.55555560e-02, 0., 0., 0.,
          1.23456791e-02, 0., 0., 1.85185187e-02, 0., 6.17283955e-03, 0.,
          1.23456791e-02, 0., 0., 0., 0., 0., 0., 0., 6.17283955e-03, 0.,
          6.17283955e-03, 0., 6.17283955e-03, 0., 6.17283955e-03, 0.,
          1.23456791e-02, 0., 0., 0., 6.17283955e-03, 0., 2.46913582e-02,
          5.55555560e-02, 0., 0., 0., 0., 1.23456791e-02, 3.08641978e-02,
          6.17283955e-03, 0., 0., 0., 0., 0., 0., 2.46913582e-02,
          1.23456791e-02, 0., 0., 1.23456791e-02, 0., 0., 6.17283955e-03,
          0., 0., 6.17283955e-03, 0., 0., 6.17283955e-03, 6.17283955e-03,
          6.17283955e-03, 0., 1.23456791e-02, 6.17283955e-03, 0., 0., 0.,
          1.23456791e-02, 0., 0., 0., 0., 0., 0., 3.70370373e-02,
          6.17283955e-03, 0., 1.23456791e-02, 0., 0., 0., 0., 0.,
          2.46913582e-02, 0., 0., 0., 0., 0., 0., 1.23456791e-02, 0.,
          6.17283955e-03, 6.17283955e-03, 0., 1.23456791e-02, 0., 0., 0.,
          2.46913582e-02, 6.17283955e-03, 6.17283955e-03, 0., 0., 0., 0.,
          0., 0., 0., 6.17283955e-03, 6.17283955e-03, 0., 6.17283955e-03,
          0., 6.17283955e-03, 0., 6.17283955e-03, 0., 6.17283955e-03,
          6.17283955e-03, 1.23456791e-02, 1.23456791e-02, 0., 0., 0.,
          6.17283955e-03, 6.17283955e-03, 6.17283955e-03, 0. ]
      - [ 0., 0., 0., 0., 0., 1.01522841e-02, 0., 0., 0., 0.,
          1.52284261e-02, 5.07614203e-03, 0., 0., 0., 5.07614203e-03, 0.,
          0., 1.01522841e-02, 4.56852764e-02, 0., 0., 0., 0., 0., 0., 0.,
          3.55329961e-02, 0., 0., 0., 0., 0., 2.03045681e-02, 0.,
          1.26903549e-01, 0., 0., 0., 0., 1.01522841e-02, 0.,
          3.04568522e-02, 0., 0., 0., 5.07614203e-03, 0., 0.,
          5.07614203e-03, 0., 0., 1.01522841e-02, 1.52284261e-02, 0., 0.,
          0., 0., 0., 1.01522841e-02, 1.52284261e-02, 0., 0., 0.,
          1.01522841e-02, 5.07614203e-03, 0., 0., 3.04568522e-02, 0., 0.,
          0., 0., 0., 0., 0., 0., 0., 0., 5.07614203e-03, 0., 0., 0., 0.,
          0., 0., 0., 0., 0., 1.52284261e-02, 5.07614203e-03, 0., 0., 0.,
          0., 0., 0., 5.07614203e-03, 0., 0., 3.55329961e-02,
          2.53807101e-02, 2.03045681e-02, 2.53807101e-02, 5.07614203e-03,
          0., 0., 0., 5.07614203e-03, 5.07614203e-03, 0., 0., 0., 0., 0.,
          0., 2.03045681e-02, 3.04568522e-02, 0., 0., 1.01522841e-02, 0.,
          0., 3.55329961e-02, 0., 0., 0., 0., 1.01522841e-02, 0., 0.,
          5.07614203e-03, 0., 0., 2.53807101e-02, 0., 0., 5.07614203e-03,
          2.53807101e-02, 0., 0., 0., 0., 0., 0., 0., 0., 0., 0., 0.,
          2.03045681e-02, 1.01522841e-02, 0., 0., 5.07614203e-03, 0., 0.,
          0., 0., 0., 0., 5.07614203e-03, 0., 0., 0., 0., 2.03045681e-02,
          0., 0., 0., 0., 1.01522841e-02, 0., 0., 0., 0., 5.07614203e-03,
          1.01522841e-02, 5.07614203e-03, 2.03045681e-02, 0.,
          1.52284261e-02, 6.09137043e-02, 5.07614203e-03, 0.,
          1.01522841e-02, 0., 0., 0., 0., 0., 0., 2.53807101e-02, 0., 0.,
          0., 1.01522841e-02, 0., 1.01522841e-02, 1.01522841e-02 ]
      - [ 1.12219453e-02, 9.97506268e-03, 0., 1.24688284e-03,
          3.74064851e-03, 8.72818008e-03, 1.24688284e-03, 0.,
          7.48129701e-03, 1.24688284e-03, 4.98753134e-03, 3.74064851e-03,
          1.24688284e-03, 7.48129701e-03, 1.24688279e-02, 0., 0.,
          7.48129701e-03, 2.49376567e-03, 1.37157114e-02, 3.74064851e-03,
          3.74064851e-03, 4.98753134e-03, 3.74064851e-03, 3.74064851e-03,
          2.49376567e-03, 3.74064851e-03, 1.49625940e-02, 2.49376567e-03,
          1.99501254e-02, 8.72818008e-03, 4.98753134e-03, 3.74064851e-03,
          2.49376567e-03, 0., 3.74064851e-03, 0., 2.49376567e-03, 0.,
          1.24688284e-03, 2.49376567e-03, 1.12219453e-02, 4.98753134e-03,
          3.74064851e-03, 0., 4.98753134e-03, 1.49625940e-02,
          1.24688284e-03, 1.24688284e-03, 2.49376567e-03, 7.48129701e-03,
          6.23441394e-03, 1.49625940e-02, 2.49376567e-03, 3.74064851e-03,
          2.49376567e-03, 1.24688284e-03, 3.74064851e-03, 4.98753134e-03,
          8.72818008e-03, 1.24688284e-03, 2.49376567e-03, 6.23441394e-03,
          1.12219453e-02, 3.74064851e-03, 6.23441394e-03, 1.24688279e-02,
          4.98753134e-03, 7.48129701e-03, 2.49376567e-03, 6.23441394e-03,
          1.12219453e-02, 1.24688284e-03, 0., 1.24688284e-03,
          1.24688284e-03, 4.98753134e-03, 3.74064851e-03, 3.74064851e-03,
          1.49625940e-02, 6.23441394e-03, 3.74064851e-03, 1.24688284e-03,
          6.23441394e-03, 6.23441394e-03, 3.74064851e-03, 3.74064851e-03,
          3.74064851e-03, 9.97506268e-03, 8.72818008e-03, 2.49376567e-03,
          0., 1.24688284e-03, 1.12219453e-02, 4.98753134e-03,
          1.24688284e-03, 1.24688284e-03, 3.74064851e-03, 1.12219453e-02,
          1.24688284e-03, 7.48129701e-03, 4.73815463e-02, 1.12219453e-02,
          0., 7.48129701e-03, 4.98753134e-03, 3.74064851e-03,
          3.74064851e-03, 2.49376567e-03, 1.24688284e-03, 2.49376567e-03,
          0., 0., 2.49376567e-03, 1.24688284e-03, 1.24688284e-03,
          4.98753134e-03, 3.74064851e-03, 4.98753134e-03, 2.49376567e-03,
          0., 0., 1.24688284e-03, 1.24688284e-03, 9.97506268e-03,
          3.74064851e-03, 3.74064851e-03, 7.48129701e-03, 1.24688284e-03,
          1.24688284e-03, 0., 1.24688284e-03, 1.24688284e-03,
          6.23441394e-03, 1.24688284e-03, 0., 8.72818008e-03,
          8.72818008e-03, 1.12219453e-02, 1.24688284e-03, 3.74064851e-03,
          6.23441394e-03, 2.49376567e-03, 1.12219453e-02, 4.98753134e-03,
          9.97506268e-03, 2.49376567e-03, 0., 3.74064851e-03,
          6.23441394e-03, 4.98753134e-03, 2.49376567e-03, 6.23441394e-03,
          1.24688284e-03, 2.49376567e-03, 6.23441394e-03, 3.74064851e-03,
          3.74064851e-03, 6.23441394e-03, 1.24688284e-03, 9.97506268e-03,
          1.62094776e-02, 9.97506268e-03, 2.49376567e-03, 4.98753134e-03,
          4.98753134e-03, 1.12219453e-02, 3.74064851e-03, 0., 0.,
          3.74064851e-03, 8.72818008e-03, 8.72818008e-03, 6.23441394e-03,
          0., 6.23441394e-03, 1.24688284e-03, 3.74064851e-03, 0.,
          6.23441394e-03, 8.72818008e-03, 2.49376567e-03, 0.,
          2.36907732e-02, 1.24688284e-03, 4.98753134e-03, 3.74064851e-03,
          9.97506268e-03, 2.49376567e-03, 7.48129701e-03, 3.74064851e-03,
          4.98753134e-03, 1.37157114e-02, 3.74064851e-03, 3.74064851e-03,
          3.74064851e-03, 2.49376567e-03, 1.24688279e-02, 9.97506268e-03,
          2.49376567e-03 ]
      - [ 0., 3.40909101e-02, 1.70454551e-02, 0., 0., 5.68181835e-03, 0.,
          0., 1.70454551e-02, 0., 5.68181835e-03, 0., 0., 5.68181835e-03,
          0., 0., 0., 0., 0., 3.97727266e-02, 0., 1.13636367e-02,
          1.13636367e-02, 0., 5.68181835e-03, 0., 0., 5.11363670e-02,
          5.68181835e-03, 1.70454551e-02, 0., 0., 0., 2.84090918e-02, 0.,
          1.13636367e-02, 0., 0., 0., 0., 5.68181835e-03, 1.70454551e-02,
          1.13636367e-02, 0., 0., 0., 5.68181835e-03, 0., 0.,
          1.13636367e-02, 5.68181835e-03, 0., 1.13636367e-02,
          5.68181835e-03, 0., 0., 0., 0., 0., 1.70454551e-02,
          1.13636367e-02, 0., 0., 0., 5.68181835e-03, 0., 5.68181835e-03,
          0., 1.70454551e-02, 0., 5.68181835e-03, 0., 0., 0., 0., 0., 0.,
          1.13636367e-02, 0., 1.13636367e-02, 5.68181835e-03, 0., 0., 0.,
          0., 5.68181835e-03, 0., 5.68181835e-03, 0., 1.13636367e-02, 0.,
          0., 1.13636367e-02, 0., 0., 0., 0., 5.68181835e-03, 0., 0.,
          5.11363670e-02, 5.68181835e-03, 5.68181835e-03, 5.68181835e-03,
          0., 0., 0., 0., 0., 0., 0., 5.68181835e-03, 0., 0., 0., 0.,
          2.27272734e-02, 2.84090918e-02, 0., 5.68181835e-03, 0., 0., 0.,
          5.68181835e-03, 0., 0., 0., 0., 0., 0., 0., 5.68181835e-03,
          5.68181835e-03, 1.13636367e-02, 5.68181835e-03, 0.,
          5.68181835e-03, 0., 2.84090918e-02, 0., 5.68181835e-03, 0.,
          5.68181835e-03, 0., 5.68181835e-03, 3.97727266e-02, 0., 0., 0.,
          0., 1.70454551e-02, 1.70454551e-02, 0., 0., 0., 0., 0.,
          5.68181835e-03, 0., 0., 0., 0., 5.68181835e-03, 0.,
          5.68181835e-03, 5.68181835e-03, 1.70454551e-02, 0., 0., 0.,
          5.68181835e-03, 1.13636367e-02, 5.68181835e-03, 0.,
          1.13636367e-02, 0., 0., 5.68181835e-03, 0., 3.97727266e-02, 0.,
          0., 5.68181835e-03, 0., 0., 5.68181835e-03, 0., 5.68181835e-03,
          0., 0., 5.68181835e-03, 0., 3.97727266e-02, 0., 0.,
          5.68181835e-03, 1.70454551e-02, 1.70454551e-02, 1.13636367e-02,
          5.68181835e-03 ]
