%YAML:1.0
---
opencv_ml_svm:
   format: 3
   svmType: C_SVC
   kernel:
      type: LINEAR
   C: 3.1250000000000000e+02
   term_criteria: { epsilon:9.9999999999999995e-07, iterations:1000 }
   var_count: 160
   class_count: 2
   class_labels: !!opencv-matrix
      rows: 2
      cols: 1
      dt: i
      data: [ -1, 1 ]
   sv_total: 1
   support_vectors:
      - [ -3.40347176e+01, -3.73200607e+01, -4.80174446e+00,
          -4.62333298e+00, -1.27357693e+01, 3.84152722e+00,
          3.42003512e+00, -2.98171158e+01, -1.86177385e+00,
          3.29740639e+01, -4.95021152e+00, -5.64421463e+00,
          7.74430752e+00, -7.95938635e+00, 1.45410042e+01,
          1.28852520e+01, -2.33881879e+00, -3.42019043e+01,
          -1.75609612e+00, 5.36431789e+00, 5.56048393e+00,
          8.34564209e+00, 1.18462439e+01, -9.53362846e+00,
          1.42940664e+01, 1.17568293e+01, -1.80559902e+01,
          3.91411209e+01, -1.16377745e+01, 4.15155334e+01,
          8.73759842e+00, 3.51391792e+01, -3.22625656e+01,
          -6.90805435e+00, -2.29813061e+01, 9.52244759e+00,
          3.24206276e+01, -3.21364784e+00, 6.31687403e+00,
          1.14392891e+01, -1.17468090e+01, -1.75821590e+01,
          1.79875851e+00, -1.61255860e+00, -2.01050911e+01,
          -1.08100719e+01, 9.82201672e+00, -2.21748276e+01,
          -2.44807415e+01, -2.05926304e+01, -8.29592133e+00,
          -2.42786393e-01, -4.80080891e+00, 2.34534035e+01,
          5.72748871e+01, -1.71426716e+01, 4.39863443e+00,
          -1.01414137e+01, -2.15463066e+01, -3.18890285e+00,
          -8.77535248e+00, 4.33761090e-01, 6.67731094e+00,
          1.75059204e+01, -2.82506180e+01, -2.90829239e+01,
          2.84219875e+01, -7.85935736e+00, -3.86490189e-02,
          1.11380615e+01, -3.00815678e+01, 3.97393303e+01,
          2.98764973e+01, 2.21785221e+01, 1.25425549e+01, 3.17256641e+01,
          1.12339611e+01, -1.51105986e+01, -2.84905224e+01,
          3.27519745e-01, 1.82636566e+01, -5.67535305e+00,
          -2.07595730e+00, 1.03910942e+01, -1.38717067e+00,
          -1.78230095e+01, 1.89037285e+01, 3.16079664e+00,
          1.27030313e+00, 6.38533401e+00, -1.59662600e+01,
          1.78078690e+01, -7.29747486e+00, -2.20543504e+00,
          -2.33230686e+00, 5.28321409e+00, 1.23254538e+01,
          1.55641336e+01, -1.70448494e+01, -5.02636909e+00,
          2.28818970e+01, -2.90737572e+01, 1.56125002e+01,
          3.29325256e+01, -1.61178055e+01, 3.01114864e+01,
          -5.63239288e+00, 1.11376572e+01, 7.36771464e-01,
          -1.78351898e+01, -1.12963629e+01, 1.42408133e+01,
          -6.27461374e-01, 1.04362507e+01, 9.31231499e+00,
          1.56818542e+01, 3.26085243e+01, -2.14647722e+00,
          6.29191589e+01, -8.88023186e+00, -2.12697678e+01,
          -2.20587788e+01, -3.40477180e+01, -4.75391083e+01,
          -2.37882748e+01, -1.73140144e+01, -1.51926289e+01,
          -3.43111076e+01, -9.42188072e+00, -6.92782974e+00,
          -1.44410801e+01, 4.06021690e+01, 3.99920988e+00,
          -1.71863365e+01, 1.53743134e+01, -1.39257545e+01,
          4.59083443e+01, 4.30656481e+00, -1.60082970e+01,
          3.43802214e+00, 7.43739319e+00, -2.54588270e+00,
          -1.25948439e+01, 3.38754730e+01, -3.47520798e-01,
          -8.26095104e-01, -1.14434319e+01, -2.58583012e+01,
          1.97937489e+01, 2.47284603e+01, 1.19371557e+01, 2.71916504e+01,
          -5.16320152e+01, 4.67291403e+00, -2.31155562e+00,
          8.73860836e+00, 1.55921097e+01, -2.97671623e+01,
          -2.58781872e+01, -7.04610062e+00 ]
   uncompressed_sv_total: 544
   uncompressed_support_vectors:
      - [ 9.15564597e-03, 2.03458802e-03, 2.37368606e-03, 6.10376429e-03,
          9.15564597e-03, 9.83384252e-03, 8.47745035e-03, 7.46015646e-03,
          6.44286210e-03, 7.79925426e-03, 7.79925426e-03, 3.05188214e-03,
          1.42421164e-02, 3.05188214e-03, 7.12105818e-03, 4.06917604e-03,
          4.74737212e-03, 7.79925426e-03, 1.15293320e-02, 1.18684303e-02,
          3.39098019e-03, 1.01729408e-02, 8.13835207e-03, 4.74737212e-03,
          3.05188214e-03, 2.37368606e-03, 1.01729408e-02, 4.40827431e-03,
          9.15564597e-03, 6.78196037e-03, 7.79925426e-03, 1.05120381e-02,
          2.03458802e-03, 4.74737212e-03, 8.47745035e-03, 2.71278410e-03,
          4.74737212e-03, 3.73007823e-03, 5.42556820e-03, 1.45812146e-02,
          3.73007823e-03, 1.35639207e-02, 9.83384252e-03, 9.49474424e-03,
          5.76466601e-03, 2.71278410e-03, 6.78196037e-03, 9.15564597e-03,
          7.46015646e-03, 7.79925426e-03, 2.37368606e-03, 7.46015646e-03,
          4.40827431e-03, 1.08511364e-02, 4.74737212e-03, 1.55985085e-02,
          2.71278410e-03, 5.42556820e-03, 6.10376429e-03, 4.74737212e-03,
          5.08647040e-03, 1.52594103e-02, 3.39098019e-03, 4.74737212e-03,
          8.47745035e-03, 9.49474424e-03, 7.46015646e-03, 1.62767041e-02,
          5.42556820e-03, 4.40827431e-03, 5.42556820e-03, 7.46015646e-03,
          1.62767041e-02, 5.76466601e-03, 3.05188214e-03, 5.08647040e-03,
          1.59376059e-02, 5.42556820e-03, 9.49474424e-03, 6.44286210e-03,
          4.06917604e-03, 7.79925426e-03, 6.10376429e-03, 4.06917604e-03,
          7.12105818e-03, 2.71278410e-03, 2.71278410e-03, 3.05188214e-03,
          5.08647040e-03, 6.78196037e-03, 5.42556820e-03, 2.71278410e-03,
          4.74737212e-03, 2.03458802e-03, 5.76466601e-03, 2.03458802e-03,
          6.44286210e-03, 4.06917604e-03, 5.08647040e-03, 2.37368606e-03,
          6.44286210e-03, 4.06917604e-03, 4.06917604e-03, 5.76466601e-03,
          3.39098019e-03, 5.08647040e-03, 7.12105818e-03, 3.39098019e-03,
          2.71278410e-03, 5.08647040e-03, 1.22075286e-02, 6.10376429e-03,
          2.71278410e-03, 1.69549009e-03, 2.03458802e-03, 3.73007823e-03,
          5.42556820e-03, 3.39098019e-03, 7.79925426e-03, 2.03458802e-03,
          2.37368606e-03, 4.40827431e-03, 8.81654862e-03, 4.06917604e-03,
          4.06917604e-03, 4.06917604e-03, 5.42556820e-03, 6.10376429e-03,
          3.39098019e-03, 6.10376429e-03, 8.47745035e-03, 4.74737212e-03,
          4.40827431e-03, 1.01729408e-02, 3.39098019e-03, 6.10376429e-03,
          7.12105818e-03, 6.78196037e-03, 6.10376429e-03, 7.46015646e-03,
          4.40827431e-03, 4.06917604e-03, 3.05188214e-03, 2.71278410e-03,
          8.81654862e-03, 9.15564597e-03, 1.01729401e-03, 8.47745035e-03,
          3.73007823e-03, 6.44286210e-03, 7.12105818e-03, 5.08647040e-03,
          1.42421164e-02, 5.08647040e-03, 9.83384252e-03, 2.37368606e-03,
          1.28857242e-02, 8.47745035e-03, 6.44286210e-03, 6.10376429e-03 ]
      - [ 6.87499996e-03, 2.18750001e-03, 3.12499981e-03, 6.56249980e-03,
          7.81250000e-03, 8.12499970e-03, 6.56249980e-03, 9.99999978e-03,
          5.62499976e-03, 5.31250006e-03, 6.24999963e-03, 3.12499981e-03,
          1.06250001e-02, 3.74999992e-03, 3.43749998e-03, 4.99999989e-03,
          3.43749998e-03, 6.24999963e-03, 1.03124995e-02, 1.21874996e-02,
          4.99999989e-03, 8.75000004e-03, 8.43749940e-03, 4.68749972e-03,
          5.93749993e-03, 4.68749972e-03, 1.12499995e-02, 7.81250000e-03,
          9.99999978e-03, 6.56249980e-03, 4.68749972e-03, 6.87499996e-03,
          6.56249980e-03, 5.93749993e-03, 6.87499996e-03, 4.37500002e-03,
          7.18749966e-03, 4.99999989e-03, 5.93749993e-03, 1.15625001e-02,
          2.18750001e-03, 1.18749999e-02, 9.68750007e-03, 5.62499976e-03,
          3.74999992e-03, 2.18750001e-03, 5.31250006e-03, 4.68749972e-03,
          5.93749993e-03, 6.87499996e-03, 3.74999992e-03, 4.99999989e-03,
          8.12499970e-03, 1.15625001e-02, 7.49999983e-03, 8.75000004e-03,
          5.93749993e-03, 6.24999963e-03, 8.43749940e-03, 4.37500002e-03,
          3.43749998e-03, 1.12499995e-02, 5.62499976e-03, 6.87499996e-03,
          9.06249974e-03, 6.56249980e-03, 1.12499995e-02, 1.03124995e-02,
          3.74999992e-03, 6.24999963e-03, 8.12499970e-03, 7.81250000e-03,
          1.03124995e-02, 9.37499944e-03, 4.68749972e-03, 5.31250006e-03,
          4.68749972e-03, 5.93749993e-03, 9.37499944e-03, 4.37500002e-03,
          4.68749972e-03, 8.12499970e-03, 3.43749998e-03, 3.43749998e-03,
          9.68750007e-03, 2.18750001e-03, 4.06249985e-03, 4.99999989e-03,
          5.62499976e-03, 4.68749972e-03, 3.74999992e-03, 3.74999992e-03,
          4.37500002e-03, 3.12499981e-03, 5.93749993e-03, 2.81249988e-03,
          6.24999963e-03, 6.24999963e-03, 6.56249980e-03, 2.18750001e-03,
          5.31250006e-03, 2.49999994e-03, 4.06249985e-03, 7.18749966e-03,
          6.24999963e-03, 5.93749993e-03, 6.56249980e-03, 6.56249980e-03,
          2.81249988e-03, 4.06249985e-03, 8.12499970e-03, 5.62499976e-03,
          7.81250000e-03, 5.31250006e-03, 3.74999992e-03, 2.18750001e-03,
          6.24999963e-03, 5.93749993e-03, 9.06249974e-03, 3.43749998e-03,
          6.56249980e-03, 4.37500002e-03, 7.49999983e-03, 5.31250006e-03,
          5.62499976e-03, 5.62499976e-03, 6.87499996e-03, 7.81250000e-03,
          9.06249974e-03, 6.87499996e-03, 4.99999989e-03, 1.87499996e-03,
          3.74999992e-03, 6.56249980e-03, 4.99999989e-03, 9.99999978e-03,
          5.93749993e-03, 7.18749966e-03, 5.93749993e-03, 7.49999983e-03,
          3.12499981e-03, 4.37500002e-03, 4.37500002e-03, 4.37500002e-03,
          7.81250000e-03, 9.99999978e-03, 3.12499981e-03, 8.43749940e-03,
          2.49999994e-03, 6.87499996e-03, 5.62499976e-03, 5.62499976e-03,
          9.68750007e-03, 6.87499996e-03, 8.12499970e-03, 1.56249991e-03,
          1.03124995e-02, 1.09374998e-02, 1.31249996e-02, 7.18749966e-03 ]
      - [ 6.12557447e-03, 2.29709037e-03, 1.91424205e-03, 4.97702928e-03,
          8.42266530e-03, 9.57121048e-03, 4.59418073e-03, 6.89127110e-03,
          7.27411965e-03, 5.74272592e-03, 5.74272592e-03, 2.29709037e-03,
          7.65696820e-03, 2.67993892e-03, 4.59418073e-03, 4.59418073e-03,
          5.35987783e-03, 6.50842302e-03, 6.12557447e-03, 1.45482393e-02,
          3.44563555e-03, 1.26339970e-02, 1.26339970e-02, 2.67993892e-03,
          6.12557447e-03, 3.06278723e-03, 7.27411965e-03, 4.21133265e-03,
          1.56967845e-02, 4.97702928e-03, 9.95405857e-03, 1.26339970e-02,
          7.27411965e-03, 7.65696820e-03, 6.12557447e-03, 4.21133265e-03,
          1.26339970e-02, 4.59418073e-03, 4.21133265e-03, 1.56967845e-02,
          3.82848404e-04, 1.26339970e-02, 1.22511489e-02, 6.50842302e-03,
          5.35987783e-03, 4.97702928e-03, 7.27411965e-03, 4.21133265e-03,
          6.50842302e-03, 5.74272592e-03, 6.12557447e-03, 8.80551338e-03,
          5.74272592e-03, 1.22511489e-02, 5.74272592e-03, 9.18836147e-03,
          3.44563555e-03, 1.14854518e-02, 7.27411965e-03, 8.03981628e-03,
          7.65696820e-03, 1.30168460e-02, 3.06278723e-03, 4.97702928e-03,
          1.68453306e-02, 8.80551338e-03, 5.35987783e-03, 1.07197557e-02,
          4.21133265e-03, 5.74272592e-03, 4.97702928e-03, 8.42266530e-03,
          8.80551338e-03, 7.65696820e-03, 5.74272592e-03, 4.97702928e-03,
          8.42266530e-03, 1.53139362e-03, 7.27411965e-03, 2.67993892e-03,
          5.35987783e-03, 1.03369066e-02, 2.29709037e-03, 2.67993892e-03,
          3.82848410e-03, 4.97702928e-03, 1.91424205e-03, 6.50842302e-03,
          5.35987783e-03, 3.82848410e-03, 2.67993892e-03, 3.06278723e-03,
          1.91424205e-03, 5.74272592e-03, 2.67993892e-03, 5.35987783e-03,
          5.35987783e-03, 6.12557447e-03, 3.82848410e-03, 3.44563555e-03,
          3.82848410e-03, 4.59418073e-03, 4.59418073e-03, 6.89127110e-03,
          4.21133265e-03, 3.44563555e-03, 2.29709037e-03, 2.29709037e-03,
          1.14854518e-03, 1.53139362e-03, 2.29709037e-02, 6.89127110e-03,
          4.97702928e-03, 4.59418073e-03, 3.82848410e-03, 3.82848410e-03,
          8.80551338e-03, 3.44563555e-03, 4.97702928e-03, 1.91424205e-03,
          3.44563555e-03, 4.97702928e-03, 8.42266530e-03, 3.82848410e-03,
          2.29709037e-03, 8.03981628e-03, 2.67993892e-03, 4.59418073e-03,
          9.57121048e-03, 7.27411965e-03, 3.44563555e-03, 4.21133265e-03,
          1.53139362e-03, 8.42266530e-03, 4.21133265e-03, 1.45482393e-02,
          3.82848410e-03, 8.03981628e-03, 1.53139362e-03, 5.35987783e-03,
          3.44563555e-03, 4.21133265e-03, 4.59418073e-03, 6.12557447e-03,
          9.57121048e-03, 1.26339970e-02, 2.67993892e-03, 4.21133265e-03,
          4.97702928e-03, 3.82848410e-03, 9.57121048e-03, 3.82848410e-03,
          1.60796326e-02, 5.35987783e-03, 7.27411965e-03, 3.06278723e-03,
          1.26339970e-02, 1.18683008e-02, 1.03369066e-02, 4.59418073e-03 ]
      - [ 4.67794202e-03, 3.95825831e-03, 2.51889182e-03, 6.11730851e-03,
          5.75746689e-03, 8.99604242e-03, 8.99604242e-03, 5.75746689e-03,
          3.95825831e-03, 5.03778365e-03, 1.07952505e-02, 3.23857507e-03,
          5.75746689e-03, 3.59841669e-03, 5.75746689e-03, 4.67794202e-03,
          6.47715013e-03, 5.39762527e-03, 7.19683338e-03, 1.29543003e-02,
          3.23857507e-03, 6.11730851e-03, 6.47715013e-03, 3.23857507e-03,
          5.75746689e-03, 4.31810040e-03, 1.29543003e-02, 6.47715013e-03,
          1.15149338e-02, 7.19683338e-03, 5.39762527e-03, 7.55667547e-03,
          6.83699176e-03, 7.55667547e-03, 5.39762527e-03, 3.59841669e-03,
          8.99604242e-03, 5.03778365e-03, 6.11730851e-03, 1.04354089e-02,
          1.79920834e-03, 1.29543003e-02, 9.71572567e-03, 6.47715013e-03,
          1.07952505e-02, 3.23857507e-03, 4.67794202e-03, 7.55667547e-03,
          6.47715013e-03, 8.63620080e-03, 5.39762527e-03, 5.03778365e-03,
          4.31810040e-03, 1.40338251e-02, 7.55667547e-03, 9.35588405e-03,
          5.75746689e-03, 3.59841669e-03, 5.75746689e-03, 3.23857507e-03,
          5.03778365e-03, 5.75746689e-03, 6.11730851e-03, 5.75746689e-03,
          6.47715013e-03, 9.71572567e-03, 1.15149338e-02, 1.18747754e-02,
          8.99604242e-03, 5.75746689e-03, 6.47715013e-03, 7.55667547e-03,
          1.11550922e-02, 6.47715013e-03, 5.39762527e-03, 3.23857507e-03,
          6.83699176e-03, 4.67794202e-03, 1.11550922e-02, 2.87873344e-03,
          3.95825831e-03, 9.35588405e-03, 6.11730851e-03, 2.51889182e-03,
          5.75746689e-03, 2.51889182e-03, 6.11730851e-03, 9.71572567e-03,
          5.75746689e-03, 4.67794202e-03, 5.75746689e-03, 1.43936672e-03,
          5.03778365e-03, 5.39762527e-03, 4.67794202e-03, 4.67794202e-03,
          8.27635825e-03, 3.95825831e-03, 9.35588405e-03, 3.95825831e-03,
          7.91651662e-03, 1.43936672e-03, 6.47715013e-03, 5.39762527e-03,
          6.11730851e-03, 5.03778365e-03, 6.83699176e-03, 2.87873344e-03,
          4.31810040e-03, 1.79920834e-03, 9.71572567e-03, 6.47715013e-03,
          6.47715013e-03, 2.87873344e-03, 3.95825831e-03, 4.67794202e-03,
          5.75746689e-03, 3.95825831e-03, 6.83699176e-03, 1.79920834e-03,
          3.95825831e-03, 3.95825831e-03, 8.27635825e-03, 2.51889182e-03,
          3.95825831e-03, 6.83699176e-03, 3.95825831e-03, 8.27635825e-03,
          5.39762527e-03, 3.95825831e-03, 9.71572567e-03, 3.23857507e-03,
          3.59841669e-03, 7.91651662e-03, 2.51889182e-03, 9.35588405e-03,
          7.19683338e-03, 6.83699176e-03, 3.23857507e-03, 6.47715013e-03,
          4.31810040e-03, 4.31810040e-03, 5.03778365e-03, 4.31810040e-03,
          9.71572567e-03, 6.83699176e-03, 3.59841669e-03, 6.47715013e-03,
          1.07952510e-03, 6.83699176e-03, 6.83699176e-03, 3.59841669e-03,
          1.04354089e-02, 1.04354089e-02, 1.04354089e-02, 5.03778365e-03,
          1.43936668e-02, 1.25944586e-02, 1.11550922e-02, 6.47715013e-03 ]
      - [ 4.47227200e-03, 1.78890873e-03, 4.91949916e-03, 3.57781746e-03,
          4.47227200e-03, 1.29695879e-02, 7.60286208e-03, 2.68336316e-03,
          3.57781746e-03, 1.34168158e-03, 4.91949916e-03, 4.47227200e-03,
          8.94454366e-04, 5.81395347e-03, 2.23613600e-03, 2.23613600e-03,
          5.36672631e-03, 3.13059031e-03, 7.15563493e-03, 9.83899832e-03,
          5.81395347e-03, 8.49731639e-03, 8.94454401e-03, 8.49731639e-03,
          5.36672631e-03, 2.68336316e-03, 1.52057242e-02, 4.02504485e-03,
          1.52057242e-02, 6.70840777e-03, 7.15563493e-03, 9.39177070e-03,
          8.94454401e-03, 9.39177070e-03, 6.70840777e-03, 2.68336316e-03,
          6.26118062e-03, 3.13059031e-03, 7.15563493e-03, 7.15563493e-03,
          2.23613600e-03, 1.56529509e-02, 1.11806793e-02, 6.26118062e-03,
          6.26118062e-03, 3.57781746e-03, 1.11806793e-02, 5.36672631e-03,
          4.47227200e-03, 1.20751336e-02, 1.47584975e-02, 1.78890873e-03,
          1.78890873e-03, 2.50447225e-02, 7.15563493e-03, 6.70840777e-03,
          3.57781746e-03, 4.91949916e-03, 4.02504485e-03, 6.26118062e-03,
          6.26118062e-03, 5.36672631e-03, 8.05008970e-03, 4.91949916e-03,
          1.16279069e-02, 8.49731639e-03, 7.60286208e-03, 1.38640422e-02,
          9.83899832e-03, 2.23613600e-03, 7.15563493e-03, 6.26118062e-03,
          1.43112699e-02, 7.60286208e-03, 4.47227200e-03, 3.57781746e-03,
          8.05008970e-03, 5.36672631e-03, 1.47584975e-02, 4.47227200e-03,
          4.91949916e-03, 8.49731639e-03, 1.34168158e-03, 3.13059031e-03,
          6.26118062e-03, 7.15563493e-03, 7.60286208e-03, 6.70840777e-03,
          4.02504485e-03, 2.23613600e-03, 8.05008970e-03, 1.78890873e-03,
          2.23613600e-03, 2.23613600e-03, 6.70840777e-03, 6.26118062e-03,
          5.81395347e-03, 3.57781746e-03, 6.70840777e-03, 1.20751336e-02,
          1.78890873e-03, 2.23613600e-03, 7.60286208e-03, 1.34168158e-03,
          1.78890873e-03, 3.13059031e-03, 4.47227200e-03, 3.13059031e-03,
          2.23613600e-03, 7.15563493e-03, 1.16279069e-02, 8.94454366e-04,
          4.47227200e-03, 2.23613600e-03, 3.13059031e-03, 5.36672631e-03,
          5.81395347e-03, 7.60286208e-03, 5.81395347e-03, 4.91949916e-03,
          2.68336316e-03, 5.81395347e-03, 4.47227200e-03, 1.78890873e-03,
          1.34168158e-03, 1.25223612e-02, 2.68336316e-03, 1.78890873e-03,
          9.83899832e-03, 2.68336316e-03, 4.91949916e-03, 1.34168158e-03,
          9.39177070e-03, 1.07334526e-02, 4.47227200e-03, 5.81395347e-03,
          6.70840777e-03, 7.15563493e-03, 6.70840777e-03, 4.02504485e-03,
          3.57781746e-03, 4.91949916e-03, 1.29695879e-02, 7.60286208e-03,
          3.57781746e-03, 8.49731639e-03, 2.68336316e-03, 3.13059031e-03,
          4.47227183e-04, 7.60286208e-03, 4.02504485e-03, 3.57781746e-03,
          8.94454401e-03, 1.43112699e-02, 6.70840777e-03, 3.13059031e-03,
          2.14669053e-02, 1.52057242e-02, 6.70840777e-03, 8.94454401e-03 ]
      - [ 2.09731539e-03, 3.35570471e-03, 4.61409381e-03, 4.19463078e-03,
          3.35570471e-03, 9.22818761e-03, 5.45302033e-03, 5.45302033e-03,
          6.29194640e-03, 6.29194640e-03, 5.87248337e-03, 5.45302033e-03,
          2.51677865e-03, 3.77516774e-03, 2.51677865e-03, 5.03355730e-03,
          6.71140943e-03, 1.67785236e-03, 6.71140943e-03, 9.22818761e-03,
          5.45302033e-03, 7.96979852e-03, 8.38926155e-03, 8.38926155e-03,
          7.13087246e-03, 8.80872458e-03, 1.25838928e-02, 2.51677865e-03,
          7.96979852e-03, 6.29194640e-03, 8.38926178e-04, 3.77516774e-03,
          9.64765064e-03, 9.64765064e-03, 4.19463078e-03, 3.77516774e-03,
          1.17449667e-02, 5.87248337e-03, 7.96979852e-03, 6.29194640e-03,
          1.67785236e-03, 1.30033558e-02, 8.80872458e-03, 9.64765064e-03,
          8.80872458e-03, 3.77516774e-03, 7.55033549e-03, 1.67785236e-03,
          2.09731539e-03, 1.13255037e-02, 4.19463078e-03, 2.93624168e-03,
          3.35570471e-03, 1.38422819e-02, 6.71140943e-03, 3.35570471e-03,
          5.03355730e-03, 8.38926155e-03, 5.45302033e-03, 6.71140943e-03,
          6.71140943e-03, 3.77516774e-03, 5.45302033e-03, 6.29194640e-03,
          1.21644298e-02, 1.21644298e-02, 5.87248337e-03, 9.22818761e-03,
          5.87248337e-03, 6.71140943e-03, 5.87248337e-03, 4.61409381e-03,
          5.03355730e-03, 1.09060407e-02, 4.61409381e-03, 3.77516774e-03,
          1.25838933e-03, 6.29194640e-03, 1.92953013e-02, 4.19463078e-03,
          6.29194640e-03, 5.45302033e-03, 5.45302033e-03, 2.93624168e-03,
          4.19463078e-03, 5.03355730e-03, 7.96979852e-03, 6.29194640e-03,
          5.03355730e-03, 6.29194640e-03, 1.67785236e-03, 2.93624168e-03,
          2.09731539e-03, 9.64765064e-03, 6.29194640e-03, 5.87248337e-03,
          4.19463078e-03, 6.71140943e-03, 9.64765064e-03, 3.77516774e-03,
          6.29194640e-03, 4.61409381e-03, 1.67785231e-02, 2.09731539e-03,
          3.77516774e-03, 4.61409381e-03, 1.67785236e-03, 7.13087246e-03,
          2.51677865e-03, 3.77516774e-03, 1.46812079e-02, 5.45302033e-03,
          1.00671146e-02, 3.77516774e-03, 2.51677865e-03, 2.51677865e-03,
          7.55033549e-03, 5.45302033e-03, 7.96979852e-03, 3.77516774e-03,
          2.51677865e-03, 7.55033549e-03, 5.03355730e-03, 3.35570471e-03,
          7.13087246e-03, 1.38422819e-02, 4.19463078e-03, 3.77516774e-03,
          9.22818761e-03, 3.35570471e-03, 4.19463078e-03, 3.35570471e-03,
          5.03355730e-03, 1.09060407e-02, 3.35570471e-03, 1.04865776e-02,
          9.22818761e-03, 5.87248337e-03, 2.09731539e-03, 5.87248337e-03,
          3.77516774e-03, 5.03355730e-03, 5.45302033e-03, 1.00671146e-02,
          6.29194640e-03, 1.46812079e-02, 3.35570471e-03, 4.19463078e-03,
          3.77516774e-03, 5.03355730e-03, 5.03355730e-03, 3.77516774e-03,
          8.80872458e-03, 1.17449667e-02, 7.55033549e-03, 2.51677865e-03,
          1.51006710e-02, 1.00671146e-02, 1.09060407e-02, 1.00671146e-02 ]
      - [ 4.31778934e-03, 1.29533675e-03, 2.15889467e-03, 8.20379984e-03,
          5.61312586e-03, 6.90846285e-03, 5.61312586e-03, 7.34024169e-03,
          4.74956818e-03, 3.88601026e-03, 6.47668401e-03, 3.45423142e-03,
          4.31778934e-03, 3.45423142e-03, 3.02245258e-03, 3.45423142e-03,
          7.34024169e-03, 4.74956818e-03, 6.04490517e-03, 1.38169257e-02,
          4.31778934e-03, 9.49913636e-03, 9.49913636e-03, 6.47668401e-03,
          6.04490517e-03, 2.59067351e-03, 1.51122622e-02, 7.77202053e-03,
          1.20898103e-02, 8.63557868e-03, 4.31778934e-03, 5.18134702e-03,
          8.63557868e-03, 8.20379984e-03, 4.74956818e-03, 6.04490517e-03,
          1.38169257e-02, 3.45423142e-03, 7.34024169e-03, 1.85664948e-02,
          2.59067351e-03, 1.72711574e-02, 1.38169257e-02, 3.88601026e-03,
          9.93091520e-03, 4.74956818e-03, 9.93091520e-03, 2.15889467e-03,
          6.04490517e-03, 8.20379984e-03, 9.49913636e-03, 5.61312586e-03,
          5.18134702e-03, 1.16580315e-02, 5.18134702e-03, 6.90846285e-03,
          3.88601026e-03, 9.06735752e-03, 4.74956818e-03, 6.90846285e-03,
          3.45423142e-03, 9.49913636e-03, 5.18134702e-03, 3.88601026e-03,
          1.20898103e-02, 9.06735752e-03, 9.93091520e-03, 1.33851469e-02,
          6.04490517e-03, 7.34024169e-03, 3.88601026e-03, 1.16580315e-02,
          6.90846285e-03, 7.77202053e-03, 6.47668401e-03, 3.45423142e-03,
          6.04490517e-03, 6.47668401e-03, 1.42487045e-02, 2.15889467e-03,
          7.34024169e-03, 8.20379984e-03, 3.02245258e-03, 3.02245258e-03,
          5.18134702e-03, 3.02245258e-03, 3.88601026e-03, 8.63557868e-03,
          2.59067351e-03, 5.61312586e-03, 7.34024169e-03, 3.45423142e-03,
          4.31778934e-03, 6.04490517e-03, 5.61312586e-03, 3.88601026e-03,
          3.88601026e-03, 4.31778934e-03, 6.47668401e-03, 3.02245258e-03,
          3.45423142e-03, 3.45423142e-03, 8.20379984e-03, 5.18134702e-03,
          2.59067351e-03, 3.88601026e-03, 5.61312586e-03, 2.15889467e-03,
          3.88601026e-03, 2.59067351e-03, 1.59758199e-02, 4.74956818e-03,
          3.02245258e-03, 3.45423142e-03, 1.29533675e-03, 3.02245258e-03,
          7.77202053e-03, 4.74956818e-03, 7.77202053e-03, 4.31778934e-03,
          6.47668401e-03, 5.61312586e-03, 4.74956818e-03, 6.04490517e-03,
          4.74956818e-03, 4.31778934e-03, 3.88601026e-03, 3.88601026e-03,
          7.77202053e-03, 6.47668401e-03, 2.59067351e-03, 3.45423142e-03,
          3.45423142e-03, 9.49913636e-03, 5.61312586e-03, 1.03626940e-02,
          6.47668401e-03, 3.88601026e-03, 4.31778934e-03, 4.74956818e-03,
          6.90846285e-03, 3.88601026e-03, 7.77202053e-03, 8.20379984e-03,
          6.04490517e-03, 1.33851469e-02, 1.29533675e-03, 4.31778934e-03,
          3.02245258e-03, 4.31778934e-03, 4.31778934e-03, 2.59067351e-03,
          1.20898103e-02, 5.18134702e-03, 4.74956818e-03, 2.59067351e-03,
          1.68393776e-02, 9.49913636e-03, 8.20379984e-03, 5.61312586e-03 ]
      - [ 4.36681230e-03, 4.36681230e-03, 4.70272079e-03, 4.70272079e-03,
          4.70272079e-03, 1.17568020e-02, 4.70272079e-03, 4.70272079e-03,
          4.36681230e-03, 2.68726912e-03, 5.03862975e-03, 5.37453825e-03,
          3.69499507e-03, 4.03090380e-03, 6.04635570e-03, 5.71044674e-03,
          6.38226420e-03, 4.36681230e-03, 4.70272079e-03, 9.74135101e-03,
          5.37453825e-03, 4.36681230e-03, 3.35908635e-03, 5.03862975e-03,
          6.04635570e-03, 5.37453825e-03, 1.07490765e-02, 6.71817269e-03,
          9.74135101e-03, 8.06180760e-03, 3.02317785e-03, 4.70272079e-03,
          7.38999015e-03, 9.40544158e-03, 6.71817269e-03, 7.05408165e-03,
          1.04131680e-02, 4.36681230e-03, 8.73362459e-03, 6.04635570e-03,
          1.67954317e-03, 9.74135101e-03, 1.17568020e-02, 7.72589864e-03,
          6.38226420e-03, 2.68726912e-03, 6.71817269e-03, 4.36681230e-03,
          3.69499507e-03, 8.73362459e-03, 7.38999015e-03, 6.71817269e-03,
          5.37453825e-03, 7.38999015e-03, 8.06180760e-03, 7.38999015e-03,
          5.37453825e-03, 6.04635570e-03, 5.71044674e-03, 5.71044674e-03,
          6.71817269e-03, 7.05408165e-03, 7.05408165e-03, 4.70272079e-03,
          8.73362459e-03, 1.24286199e-02, 6.38226420e-03, 1.37722539e-02,
          8.39771610e-03, 6.04635570e-03, 8.39771610e-03, 9.06953309e-03,
          5.71044674e-03, 5.03862975e-03, 5.37453825e-03, 8.06180760e-03,
          3.02317785e-03, 6.04635570e-03, 1.31004369e-02, 7.72589864e-03,
          4.70272079e-03, 6.04635570e-03, 3.69499507e-03, 3.02317785e-03,
          7.38999015e-03, 4.03090380e-03, 4.36681230e-03, 4.36681230e-03,
          6.04635570e-03, 4.03090380e-03, 7.05408165e-03, 3.69499507e-03,
          3.69499507e-03, 4.70272079e-03, 7.38999015e-03, 8.06180760e-03,
          6.71817269e-03, 5.71044674e-03, 6.71817269e-03, 6.71817269e-03,
          4.36681230e-03, 6.38226420e-03, 6.71817269e-03, 4.03090380e-03,
          3.35908635e-03, 6.71817269e-03, 3.69499507e-03, 4.70272079e-03,
          4.70272079e-03, 5.03862975e-03, 1.10849850e-02, 5.71044674e-03,
          8.73362459e-03, 6.71817269e-03, 6.04635570e-03, 5.37453825e-03,
          6.71817269e-03, 4.36681230e-03, 6.38226420e-03, 3.69499507e-03,
          7.05408165e-03, 4.70272079e-03, 5.71044674e-03, 3.35908635e-03,
          5.71044674e-03, 5.03862975e-03, 4.03090380e-03, 5.37453825e-03,
          1.10849850e-02, 7.72589864e-03, 5.71044674e-03, 3.02317785e-03,
          3.69499507e-03, 1.00772595e-02, 4.70272079e-03, 7.05408165e-03,
          5.71044674e-03, 1.00772595e-02, 4.36681230e-03, 4.03090380e-03,
          4.70272079e-03, 7.05408165e-03, 6.38226420e-03, 7.72589864e-03,
          5.71044674e-03, 6.71817269e-03, 3.35908635e-03, 3.35908635e-03,
          4.70272079e-03, 8.39771610e-03, 7.72589864e-03, 7.38999015e-03,
          6.71817269e-03, 9.74135101e-03, 6.71817269e-03, 5.03862975e-03,
          7.05408165e-03, 9.40544158e-03, 1.10849850e-02, 9.74135101e-03 ]
      - [ 4.77489782e-03, 3.75170540e-03, 3.75170540e-03, 4.09276970e-03,
          5.79809025e-03, 1.02319233e-02, 6.13915408e-03, 2.72851298e-03,
          3.41064110e-03, 4.77489782e-03, 7.16234650e-03, 5.45702595e-03,
          2.38744891e-03, 6.13915408e-03, 5.45702595e-03, 4.43383353e-03,
          5.45702595e-03, 2.72851298e-03, 6.13915408e-03, 8.86766706e-03,
          6.48021838e-03, 5.45702595e-03, 6.48021838e-03, 6.48021838e-03,
          5.45702595e-03, 8.86766706e-03, 7.84447510e-03, 9.20873135e-03,
          8.52660276e-03, 8.18553939e-03, 4.43383353e-03, 6.48021838e-03,
          8.18553939e-03, 6.48021838e-03, 6.13915408e-03, 6.82128221e-03,
          1.05729876e-02, 7.84447510e-03, 8.18553939e-03, 6.48021838e-03,
          4.77489782e-03, 1.12551162e-02, 8.86766706e-03, 6.48021838e-03,
          7.50341080e-03, 6.82128221e-03, 7.84447510e-03, 2.72851298e-03,
          4.77489782e-03, 6.48021838e-03, 6.48021838e-03, 3.41064110e-03,
          6.82128221e-03, 1.15961805e-02, 7.84447510e-03, 6.13915408e-03,
          8.86766706e-03, 4.77489782e-03, 5.11596166e-03, 8.18553939e-03,
          6.48021838e-03, 3.75170540e-03, 7.84447510e-03, 5.79809025e-03,
          8.18553939e-03, 1.39836287e-02, 5.45702595e-03, 6.82128221e-03,
          5.45702595e-03, 3.75170540e-03, 6.82128221e-03, 5.79809025e-03,
          6.13915408e-03, 7.50341080e-03, 6.82128221e-03, 6.48021838e-03,
          2.72851298e-03, 8.52660276e-03, 1.19372439e-02, 5.79809025e-03,
          6.13915408e-03, 4.09276970e-03, 5.79809025e-03, 3.41064110e-03,
          6.13915408e-03, 5.45702595e-03, 8.18553939e-03, 3.75170540e-03,
          2.38744891e-03, 7.84447510e-03, 5.11596166e-03, 6.13915408e-03,
          5.45702595e-03, 4.77489782e-03, 9.20873135e-03, 3.41064110e-03,
          5.79809025e-03, 6.48021838e-03, 1.12551162e-02, 7.50341080e-03,
          5.79809025e-03, 5.11596166e-03, 7.16234650e-03, 3.41064110e-03,
          3.75170540e-03, 4.77489782e-03, 3.06957704e-03, 4.43383353e-03,
          6.13915408e-03, 4.09276970e-03, 6.13915408e-03, 5.79809025e-03,
          6.13915408e-03, 4.77489782e-03, 5.45702595e-03, 6.13915408e-03,
          8.18553939e-03, 5.79809025e-03, 6.13915408e-03, 4.09276970e-03,
          4.09276970e-03, 7.50341080e-03, 3.75170540e-03, 7.84447510e-03,
          4.43383353e-03, 1.05729876e-02, 5.79809025e-03, 4.77489782e-03,
          9.89085995e-03, 5.45702595e-03, 5.11596166e-03, 4.77489782e-03,
          8.18553939e-03, 6.48021838e-03, 4.09276970e-03, 5.79809025e-03,
          6.82128221e-03, 4.43383353e-03, 2.38744891e-03, 4.77489782e-03,
          4.09276970e-03, 3.41064110e-03, 6.48021838e-03, 5.45702595e-03,
          6.82128221e-03, 9.54979565e-03, 3.41064110e-03, 4.77489782e-03,
          4.09276970e-03, 7.16234650e-03, 5.79809025e-03, 3.75170540e-03,
          1.15961805e-02, 8.52660276e-03, 4.09276970e-03, 5.11596166e-03,
          1.19372439e-02, 1.22783082e-02, 9.20873135e-03, 9.54979565e-03 ]
      - [ 7.03443214e-03, 4.44279891e-03, 4.81303222e-03, 2.96186609e-03,
          9.99629777e-03, 9.99629777e-03, 3.70233273e-03, 4.81303222e-03,
          3.33209941e-03, 2.59163277e-03, 4.07256605e-03, 2.96186609e-03,
          3.33209941e-03, 6.29396550e-03, 5.92373218e-03, 3.70233273e-03,
          4.07256605e-03, 3.33209941e-03, 2.96186609e-03, 6.66419882e-03,
          8.88559781e-03, 6.66419882e-03, 8.14513210e-03, 5.55349886e-03,
          6.66419882e-03, 7.77489832e-03, 8.51536542e-03, 9.99629777e-03,
          6.66419882e-03, 8.51536542e-03, 1.48093305e-03, 5.92373218e-03,
          8.88559781e-03, 1.03665311e-02, 3.70233273e-03, 7.40466546e-03,
          9.99629777e-03, 8.88559781e-03, 9.99629777e-03, 9.25583113e-03,
          2.96186609e-03, 1.03665311e-02, 1.48093309e-02, 7.40466546e-03,
          3.33209941e-03, 3.70233273e-03, 5.18326554e-03, 4.44279891e-03,
          3.33209941e-03, 9.99629777e-03, 8.88559781e-03, 5.18326554e-03,
          3.70233273e-03, 9.99629777e-03, 5.55349886e-03, 7.40466546e-03,
          5.18326554e-03, 6.66419882e-03, 5.55349886e-03, 8.88559781e-03,
          8.88559781e-03, 7.40466546e-03, 5.92373218e-03, 6.29396550e-03,
          1.03665311e-02, 1.14772310e-02, 5.18326554e-03, 7.77489832e-03,
          6.66419882e-03, 6.29396550e-03, 6.29396550e-03, 7.03443214e-03,
          7.40466546e-03, 4.44279891e-03, 9.62606445e-03, 4.44279891e-03,
          2.22139945e-03, 7.40466546e-03, 1.25879310e-02, 4.44279891e-03,
          7.40466546e-03, 8.51536542e-03, 3.70233273e-03, 2.59163277e-03,
          7.40466546e-03, 5.18326554e-03, 5.18326554e-03, 5.18326554e-03,
          5.55349886e-03, 8.14513210e-03, 4.81303222e-03, 4.07256605e-03,
          5.55349886e-03, 5.92373218e-03, 6.66419882e-03, 4.44279891e-03,
          4.44279891e-03, 4.81303222e-03, 1.51795633e-02, 7.03443214e-03,
          4.81303222e-03, 4.07256605e-03, 7.77489832e-03, 2.59163277e-03,
          5.18326554e-03, 3.33209941e-03, 2.59163277e-03, 1.48093305e-03,
          5.55349886e-03, 4.81303222e-03, 9.25583113e-03, 4.81303222e-03,
          3.70233273e-03, 4.81303222e-03, 3.70233273e-03, 5.18326554e-03,
          7.03443214e-03, 5.92373218e-03, 8.51536542e-03, 4.44279891e-03,
          3.33209941e-03, 6.29396550e-03, 6.66419882e-03, 6.29396550e-03,
          5.18326554e-03, 1.03665311e-02, 7.40466546e-03, 3.70233273e-03,
          7.77489832e-03, 5.55349886e-03, 5.18326554e-03, 5.55349886e-03,
          5.92373218e-03, 7.77489832e-03, 4.07256605e-03, 9.99629777e-03,
          5.92373218e-03, 4.81303222e-03, 2.96186609e-03, 4.44279891e-03,
          3.33209941e-03, 5.18326554e-03, 8.51536542e-03, 8.14513210e-03,
          5.92373218e-03, 9.62606445e-03, 5.55349886e-03, 3.33209941e-03,
          4.07256605e-03, 5.55349886e-03, 4.07256605e-03, 5.92373218e-03,
          8.88559781e-03, 1.03665311e-02, 8.88559781e-03, 2.22139945e-03,
          7.77489832e-03, 9.99629777e-03, 9.99629777e-03, 7.03443214e-03 ]
      - [ 4.24219063e-03, 3.85653693e-03, 2.69957585e-03, 6.17045909e-03,
          7.71307386e-03, 1.04126502e-02, 6.55611278e-03, 3.08522955e-03,
          4.24219063e-03, 4.62784432e-03, 4.62784432e-03, 3.47088324e-03,
          4.62784432e-03, 2.69957585e-03, 4.62784432e-03, 5.01349801e-03,
          2.31392216e-03, 3.47088324e-03, 5.39915171e-03, 9.64134187e-03,
          5.78480540e-03, 9.25568864e-03, 1.00269960e-02, 9.25568864e-03,
          3.47088324e-03, 6.55611278e-03, 1.04126502e-02, 4.24219063e-03,
          9.64134187e-03, 9.25568864e-03, 2.69957585e-03, 2.31392216e-03,
          9.64134187e-03, 9.25568864e-03, 4.24219063e-03, 6.55611278e-03,
          6.17045909e-03, 6.94176648e-03, 8.09872709e-03, 1.77400708e-02,
          2.31392216e-03, 9.25568864e-03, 9.25568864e-03, 5.78480540e-03,
          3.85653693e-03, 5.01349801e-03, 4.24219063e-03, 2.69957585e-03,
          3.47088324e-03, 1.11839566e-02, 5.78480540e-03, 5.01349801e-03,
          3.85653693e-03, 1.15696108e-02, 5.78480540e-03, 7.71307386e-03,
          4.24219063e-03, 6.17045909e-03, 6.55611278e-03, 1.04126502e-02,
          5.01349801e-03, 9.25568864e-03, 4.24219063e-03, 5.39915171e-03,
          1.00269960e-02, 1.23409182e-02, 7.32742017e-03, 1.42691862e-02,
          7.32742017e-03, 3.47088324e-03, 6.17045909e-03, 5.78480540e-03,
          5.39915171e-03, 5.39915171e-03, 6.55611278e-03, 3.08522955e-03,
          3.08522955e-03, 5.01349801e-03, 1.81257240e-02, 3.85653693e-03,
          8.48438125e-03, 4.24219063e-03, 3.08522955e-03, 3.47088324e-03,
          4.62784432e-03, 3.85653693e-03, 6.17045909e-03, 4.24219063e-03,
          3.08522955e-03, 1.92826847e-03, 7.32742017e-03, 2.31392216e-03,
          5.01349801e-03, 7.32742017e-03, 4.24219063e-03, 8.48438125e-03,
          6.94176648e-03, 6.17045909e-03, 1.27265714e-02, 8.09872709e-03,
          4.62784432e-03, 3.85653693e-03, 6.94176648e-03, 3.08522955e-03,
          2.31392216e-03, 6.55611278e-03, 3.08522955e-03, 5.78480540e-03,
          3.08522955e-03, 3.47088324e-03, 1.81257240e-02, 5.39915171e-03,
          6.94176648e-03, 5.01349801e-03, 2.69957585e-03, 6.94176648e-03,
          6.17045909e-03, 4.24219063e-03, 9.64134187e-03, 4.62784432e-03,
          6.55611278e-03, 5.78480540e-03, 5.78480540e-03, 3.08522955e-03,
          2.69957585e-03, 1.00269960e-02, 5.01349801e-03, 5.39915171e-03,
          8.09872709e-03, 6.17045909e-03, 3.08522955e-03, 3.85653693e-03,
          5.78480540e-03, 1.38835330e-02, 3.85653693e-03, 1.23409182e-02,
          7.32742017e-03, 9.25568864e-03, 3.85653693e-03, 3.85653693e-03,
          6.55611278e-03, 3.85653693e-03, 7.32742017e-03, 6.94176648e-03,
          5.01349801e-03, 1.04126502e-02, 1.15696108e-03, 3.47088324e-03,
          4.62784432e-03, 4.24219063e-03, 6.17045909e-03, 4.62784432e-03,
          1.42691862e-02, 1.11839566e-02, 5.01349801e-03, 3.47088324e-03,
          8.09872709e-03, 9.64134187e-03, 8.48438125e-03, 8.87003541e-03 ]
      - [ 4.45235986e-03, 5.78806782e-03, 2.22617993e-03, 2.67141592e-03,
          4.89759585e-03, 1.15761356e-02, 4.00712388e-03, 2.67141592e-03,
          2.67141592e-03, 5.78806782e-03, 4.89759585e-03, 2.67141592e-03,
          4.45235986e-03, 7.12377578e-03, 8.90471973e-04, 4.00712388e-03,
          5.34283184e-03, 4.45235986e-04, 5.34283184e-03, 8.45948420e-03,
          6.23330381e-03, 8.45948420e-03, 8.45948420e-03, 6.67853979e-03,
          5.34283184e-03, 7.56901177e-03, 1.29118431e-02, 4.45235986e-03,
          1.20213721e-02, 8.01424775e-03, 4.45235986e-04, 4.89759585e-03,
          9.34995525e-03, 1.33570796e-02, 4.89759585e-03, 4.00712388e-03,
          1.46927871e-02, 6.67853979e-03, 9.34995525e-03, 8.90471973e-03,
          3.56188789e-03, 2.04808563e-02, 1.51380235e-02, 6.67853979e-03,
          6.23330381e-03, 4.45235986e-03, 8.01424775e-03, 1.78094395e-03,
          4.00712388e-03, 1.15761356e-02, 7.56901177e-03, 5.34283184e-03,
          4.00712388e-03, 1.82546750e-02, 7.12377578e-03, 4.45235986e-03,
          6.67853979e-03, 5.34283184e-03, 2.22617993e-03, 1.11308992e-02,
          6.67853979e-03, 8.45948420e-03, 4.89759585e-03, 6.23330381e-03,
          1.11308992e-02, 1.15761356e-02, 5.34283184e-03, 1.33570796e-02,
          5.78806782e-03, 6.67853979e-03, 8.01424775e-03, 6.67853979e-03,
          6.23330381e-03, 8.01424775e-03, 5.78806782e-03, 6.23330381e-03,
          4.45235986e-03, 7.56901177e-03, 1.95903834e-02, 4.89759585e-03,
          4.45235986e-03, 5.34283184e-03, 4.00712388e-03, 2.22617993e-03,
          5.34283184e-03, 3.56188789e-03, 4.00712388e-03, 5.34283184e-03,
          3.11665190e-03, 5.34283184e-03, 4.45235986e-03, 4.89759585e-03,
          4.00712388e-03, 5.78806782e-03, 7.56901177e-03, 1.33570796e-02,
          2.67141592e-03, 4.00712388e-03, 1.38023160e-02, 5.34283184e-03,
          3.11665190e-03, 4.45235986e-03, 1.02404281e-02, 4.45235986e-03,
          3.11665190e-03, 4.89759585e-03, 2.22617993e-03, 2.67141592e-03,
          2.22617993e-03, 4.45235986e-03, 1.42475516e-02, 2.67141592e-03,
          4.00712388e-03, 3.56188789e-03, 2.22617993e-03, 5.34283184e-03,
          6.23330381e-03, 6.23330381e-03, 5.34283184e-03, 2.22617993e-03,
          3.56188789e-03, 4.45235986e-03, 2.67141592e-03, 3.11665190e-03,
          1.33570796e-03, 1.29118431e-02, 2.67141592e-03, 4.00712388e-03,
          1.02404281e-02, 8.01424775e-03, 8.90471973e-04, 3.56188789e-03,
          6.67853979e-03, 1.29118431e-02, 3.56188789e-03, 8.90471973e-03,
          5.78806782e-03, 3.56188789e-03, 2.22617993e-03, 4.00712388e-03,
          3.56188789e-03, 3.56188789e-03, 8.90471973e-03, 6.67853979e-03,
          8.01424775e-03, 1.29118431e-02, 2.22617993e-03, 1.78094395e-03,
          1.33570796e-03, 7.12377578e-03, 6.67853979e-03, 3.56188789e-03,
          8.90471973e-03, 1.15761356e-02, 4.45235986e-03, 2.22617993e-03,
          1.29118431e-02, 1.11308992e-02, 9.34995525e-03, 6.67853979e-03 ]
      - [ 9.11546312e-03, 1.35043892e-03, 1.68804871e-03, 5.40175568e-03,
          9.79068223e-03, 8.44024308e-03, 6.41458482e-03, 1.01282923e-02,
          5.40175568e-03, 4.05131653e-03, 8.10263306e-03, 6.07697526e-03,
          6.75219484e-03, 4.05131653e-03, 6.41458482e-03, 4.38892655e-03,
          4.05131653e-03, 9.11546312e-03, 6.07697526e-03, 1.04659013e-02,
          4.05131653e-03, 1.31667797e-02, 7.08980439e-03, 5.40175568e-03,
          5.40175568e-03, 3.03848763e-03, 9.11546312e-03, 7.76502397e-03,
          9.11546312e-03, 6.41458482e-03, 4.72653611e-03, 1.51924379e-02,
          5.73936524e-03, 6.07697526e-03, 5.40175568e-03, 3.71370697e-03,
          4.72653611e-03, 5.40175568e-03, 5.73936524e-03, 1.08035114e-02,
          1.68804871e-03, 1.18163405e-02, 8.44024308e-03, 5.06414613e-03,
          4.72653611e-03, 2.36326805e-03, 1.11411214e-02, 7.08980439e-03,
          7.42741395e-03, 5.06414613e-03, 4.38892655e-03, 5.73936524e-03,
          8.77785310e-03, 1.51924379e-02, 5.06414613e-03, 1.01282923e-02,
          3.37609742e-03, 2.70087784e-03, 6.75219484e-03, 6.75219484e-03,
          3.71370697e-03, 1.14787305e-02, 2.70087784e-03, 3.37609742e-03,
          1.24915596e-02, 8.77785310e-03, 9.11546312e-03, 1.24915596e-02,
          6.41458482e-03, 5.40175568e-03, 4.05131653e-03, 6.07697526e-03,
          1.01282923e-02, 7.08980439e-03, 4.72653611e-03, 4.72653611e-03,
          8.44024308e-03, 4.05131653e-03, 1.24915596e-02, 4.38892655e-03,
          4.38892655e-03, 8.77785310e-03, 4.38892655e-03, 2.70087784e-03,
          5.73936524e-03, 3.03848763e-03, 4.05131653e-03, 3.37609742e-03,
          4.38892655e-03, 2.02565826e-03, 4.05131653e-03, 3.37609742e-03,
          3.71370697e-03, 4.38892655e-03, 3.37609742e-03, 3.71370697e-03,
          5.73936524e-03, 5.73936524e-03, 6.41458482e-03, 3.71370697e-03,
          8.77785310e-03, 5.40175568e-03, 6.07697526e-03, 4.38892655e-03,
          3.71370697e-03, 5.06414613e-03, 6.07697526e-03, 1.68804871e-03,
          3.37609742e-03, 3.71370697e-03, 9.79068223e-03, 7.42741395e-03,
          4.72653611e-03, 6.41458482e-03, 2.70087784e-03, 3.71370697e-03,
          4.38892655e-03, 6.41458482e-03, 7.42741395e-03, 3.03848763e-03,
          3.71370697e-03, 4.72653611e-03, 1.14787305e-02, 4.38892655e-03,
          6.07697526e-03, 5.40175568e-03, 3.71370697e-03, 9.45307221e-03,
          6.75219484e-03, 5.06414613e-03, 8.10263306e-03, 4.72653611e-03,
          4.38892655e-03, 1.01282923e-02, 4.38892655e-03, 1.01282923e-02,
          7.76502397e-03, 7.08980439e-03, 7.76502397e-03, 6.41458482e-03,
          4.38892655e-03, 6.41458482e-03, 4.72653611e-03, 7.08980439e-03,
          7.08980439e-03, 6.07697526e-03, 3.71370697e-03, 7.42741395e-03,
          3.03848763e-03, 6.41458482e-03, 6.41458482e-03, 2.02565826e-03,
          9.11546312e-03, 5.73936524e-03, 1.01282923e-02, 4.72653611e-03,
          1.95813645e-02, 8.10263306e-03, 8.44024308e-03, 5.06414613e-03 ]
      - [ 8.07635859e-03, 2.20264308e-03, 2.93685752e-03, 4.03817929e-03,
          4.77239350e-03, 8.44346546e-03, 7.34214392e-03, 5.13950083e-03,
          4.40528616e-03, 3.67107196e-03, 5.50660770e-03, 3.67107196e-03,
          2.56975042e-03, 5.13950083e-03, 8.07635859e-03, 4.03817929e-03,
          4.40528616e-03, 6.97503658e-03, 1.02790017e-02, 1.35829663e-02,
          2.20264308e-03, 9.17768013e-03, 5.87371504e-03, 4.03817929e-03,
          3.67107196e-03, 3.67107196e-03, 1.32158585e-02, 9.54478700e-03,
          1.65198240e-02, 6.24082237e-03, 1.06461085e-02, 1.02790017e-02,
          1.10132154e-02, 8.81057233e-03, 5.13950083e-03, 1.10132154e-03,
          3.67107196e-03, 4.77239350e-03, 5.50660770e-03, 2.93685752e-03,
          1.83553598e-03, 1.54185016e-02, 5.50660770e-03, 7.70925079e-03,
          8.07635859e-03, 1.46842876e-03, 6.97503658e-03, 5.13950083e-03,
          5.13950083e-03, 1.24816447e-02, 4.40528616e-03, 4.03817929e-03,
          4.03817929e-03, 2.53303964e-02, 8.44346546e-03, 1.35829663e-02,
          4.03817929e-03, 4.77239350e-03, 6.60792924e-03, 7.34214392e-03,
          4.77239350e-03, 3.30396462e-03, 6.60792924e-03, 5.13950083e-03,
          9.17768013e-03, 1.17474301e-02, 9.91189387e-03, 9.91189387e-03,
          6.60792924e-03, 4.77239350e-03, 5.50660770e-03, 1.10132154e-03,
          1.76211447e-02, 4.77239350e-03, 2.93685752e-03, 3.30396462e-03,
          1.35829663e-02, 5.13950083e-03, 1.61527172e-02, 5.87371504e-03,
          4.77239350e-03, 1.10132154e-02, 7.34214392e-03, 4.40528616e-03,
          4.03817929e-03, 2.93685752e-03, 5.13950083e-03, 4.03817929e-03,
          4.77239350e-03, 2.56975042e-03, 1.83553598e-03, 7.34214380e-04,
          3.67107196e-03, 6.60792924e-03, 5.87371504e-03, 5.87371504e-03,
          9.54478700e-03, 5.50660770e-03, 8.07635859e-03, 6.24082237e-03,
          9.91189387e-03, 1.46842876e-03, 6.60792924e-03, 1.83553598e-03,
          2.20264308e-03, 3.30396462e-03, 5.50660770e-03, 2.20264308e-03,
          2.56975042e-03, 2.56975042e-03, 1.24816447e-02, 6.97503658e-03,
          2.93685752e-03, 1.83553598e-03, 3.30396462e-03, 5.13950083e-03,
          1.83553598e-03, 3.30396462e-03, 6.97503658e-03, 3.30396462e-03,
          2.20264308e-03, 2.20264308e-03, 5.87371504e-03, 2.93685752e-03,
          9.54478700e-03, 1.17474301e-02, 2.93685752e-03, 8.07635859e-03,
          7.70925079e-03, 4.40528616e-03, 5.50660770e-03, 2.20264308e-03,
          7.34214392e-03, 8.81057233e-03, 1.10132154e-03, 4.77239350e-03,
          4.40528616e-03, 6.97503658e-03, 8.07635859e-03, 4.40528616e-03,
          4.77239350e-03, 8.44346546e-03, 6.97503658e-03, 4.03817929e-03,
          4.03817929e-03, 9.54478700e-03, 1.83553598e-03, 6.24082237e-03,
          1.10132154e-03, 6.24082237e-03, 4.77239350e-03, 1.83553598e-03,
          8.44346546e-03, 8.07635859e-03, 9.91189387e-03, 4.77239350e-03,
          2.31277533e-02, 1.32158585e-02, 1.13803232e-02, 5.13950083e-03 ]
      - [ 5.27169509e-03, 2.83860485e-03, 2.43309001e-03, 3.24411993e-03,
          4.86618001e-03, 9.32684448e-03, 6.89375494e-03, 2.02757493e-03,
          4.46066493e-03, 4.46066493e-03, 8.11029971e-03, 2.02757493e-03,
          6.48823986e-03, 2.02757493e-03, 2.83860485e-03, 4.46066493e-03,
          7.70478463e-03, 4.05514985e-03, 8.51581525e-03, 1.45985400e-02,
          7.29927002e-03, 8.92132986e-03, 8.92132986e-03, 5.67720970e-03,
          5.27169509e-03, 4.05514985e-03, 1.37875099e-02, 4.05514985e-03,
          1.05433902e-02, 8.11029971e-03, 3.24411993e-03, 5.27169509e-03,
          8.51581525e-03, 8.92132986e-03, 6.48823986e-03, 6.48823986e-03,
          6.89375494e-03, 3.64963501e-03, 1.05433902e-02, 1.54095693e-02,
          4.05514991e-04, 1.62205994e-02, 1.37875099e-02, 4.46066493e-03,
          5.27169509e-03, 4.46066493e-03, 7.29927002e-03, 1.62205996e-03,
          6.08272478e-03, 1.05433902e-02, 8.51581525e-03, 5.67720970e-03,
          3.24411993e-03, 1.09489048e-02, 6.89375494e-03, 6.08272478e-03,
          7.70478463e-03, 7.70478463e-03, 3.24411993e-03, 8.51581525e-03,
          4.86618001e-03, 7.70478463e-03, 3.64963501e-03, 7.29927002e-03,
          1.86536890e-02, 1.01378746e-02, 7.70478463e-03, 1.25709651e-02,
          5.67720970e-03, 7.29927002e-03, 5.67720970e-03, 4.86618001e-03,
          6.89375494e-03, 9.32684448e-03, 3.64963501e-03, 2.83860485e-03,
          2.83860485e-03, 5.67720970e-03, 1.50040546e-02, 4.46066493e-03,
          3.24411993e-03, 8.51581525e-03, 5.27169509e-03, 1.21654500e-03,
          4.05514985e-03, 3.24411993e-03, 4.05514985e-03, 8.11029971e-03,
          5.67720970e-03, 4.05514985e-03, 8.92132986e-03, 3.24411993e-03,
          4.05514985e-03, 4.86618001e-03, 6.89375494e-03, 3.24411993e-03,
          4.05514985e-03, 4.05514985e-03, 9.32684448e-03, 9.32684448e-03,
          4.05514985e-03, 2.83860485e-03, 8.11029971e-03, 4.05514985e-03,
          2.43309001e-03, 4.86618001e-03, 5.27169509e-03, 2.43309001e-03,
          2.02757493e-03, 3.24411993e-03, 1.66261140e-02, 5.27169509e-03,
          5.27169509e-03, 3.24411993e-03, 4.05514985e-03, 5.27169509e-03,
          7.29927002e-03, 3.24411993e-03, 9.32684448e-03, 2.83860485e-03,
          3.64963501e-03, 5.27169509e-03, 4.46066493e-03, 3.64963501e-03,
          3.24411993e-03, 1.09489048e-02, 2.83860485e-03, 4.46066493e-03,
          8.51581525e-03, 6.08272478e-03, 4.86618001e-03, 2.02757493e-03,
          4.46066493e-03, 8.51581525e-03, 3.64963501e-03, 1.13544194e-02,
          6.48823986e-03, 6.08272478e-03, 4.86618001e-03, 6.08272478e-03,
          3.24411993e-03, 4.46066493e-03, 4.86618001e-03, 8.51581525e-03,
          9.32684448e-03, 8.92132986e-03, 2.43309001e-03, 2.02757493e-03,
          1.21654500e-03, 4.46066493e-03, 6.48823986e-03, 5.67720970e-03,
          1.17599349e-02, 8.92132986e-03, 5.27169509e-03, 3.64963501e-03,
          1.37875099e-02, 1.66261140e-02, 1.01378746e-02, 5.27169509e-03 ]
      - [ 2.96589220e-03, 1.48294610e-03, 1.48294610e-03, 9.88630694e-04,
          2.96589220e-03, 9.39199142e-03, 5.43746864e-03, 3.46020749e-03,
          2.47157668e-03, 2.96589220e-03, 1.97726139e-03, 3.46020749e-03,
          2.47157668e-03, 5.93178440e-03, 2.96589220e-03, 5.43746864e-03,
          2.96589220e-03, 1.97726139e-03, 4.44883807e-03, 7.41473027e-03,
          5.93178440e-03, 8.89767613e-03, 8.40336084e-03, 6.92041498e-03,
          9.88630694e-04, 3.95452278e-03, 1.13692526e-02, 5.43746864e-03,
          1.23578841e-02, 4.94315336e-03, 2.47157668e-03, 2.47157668e-03,
          1.33465147e-02, 1.13692526e-02, 2.47157668e-03, 5.43746864e-03,
          1.18635688e-02, 1.08749373e-02, 1.33465147e-02, 6.42609969e-03,
          1.97726139e-03, 9.39199142e-03, 1.77953523e-02, 8.40336084e-03,
          9.39199142e-03, 1.48294610e-03, 1.03806220e-02, 4.44883807e-03,
          9.88630694e-04, 1.63124073e-02, 1.48294605e-02, 2.96589220e-03,
          5.93178440e-03, 2.32328214e-02, 5.93178440e-03, 3.95452278e-03,
          5.93178440e-03, 9.39199142e-03, 4.44883807e-03, 6.92041498e-03,
          7.90904555e-03, 2.96589220e-03, 5.43746864e-03, 7.41473027e-03,
          1.73010379e-02, 1.28521994e-02, 8.89767613e-03, 1.53237758e-02,
          5.93178440e-03, 7.41473027e-03, 5.93178440e-03, 4.44883807e-03,
          7.41473027e-03, 5.43746864e-03, 5.93178440e-03, 4.94315336e-03,
          5.43746864e-03, 4.44883807e-03, 2.17498746e-02, 6.92041498e-03,
          5.43746864e-03, 8.89767613e-03, 1.48294610e-03, 4.94315347e-04,
          3.46020749e-03, 9.88630671e-03, 5.43746864e-03, 5.93178440e-03,
          3.46020749e-03, 9.88630671e-03, 3.95452278e-03, 1.97726139e-03,
          2.96589220e-03, 3.46020749e-03, 3.46020749e-03, 7.90904555e-03,
          4.44883807e-03, 2.96589220e-03, 8.40336084e-03, 8.40336084e-03,
          5.43746864e-03, 2.96589220e-03, 1.33465147e-02, 4.94315347e-04,
          2.96589220e-03, 2.96589220e-03, 1.48294610e-03, 2.47157668e-03,
          4.44883807e-03, 3.95452278e-03, 1.48294605e-02, 6.42609969e-03,
          5.43746864e-03, 1.97726139e-03, 3.46020749e-03, 1.97726139e-03,
          2.47157668e-03, 4.94315336e-03, 8.89767613e-03, 3.46020749e-03,
          1.97726139e-03, 5.43746864e-03, 2.47157668e-03, 2.96589220e-03,
          2.47157668e-03, 1.23578841e-02, 1.97726139e-03, 1.97726139e-03,
          9.39199142e-03, 3.95452278e-03, 3.46020749e-03, 2.47157668e-03,
          1.03806220e-02, 1.77953523e-02, 2.47157668e-03, 5.43746864e-03,
          5.43746864e-03, 3.46020749e-03, 2.96589220e-03, 4.94315336e-03,
          4.94315336e-03, 4.44883807e-03, 1.38408300e-02, 8.89767613e-03,
          3.46020749e-03, 7.41473027e-03, 4.44883807e-03, 4.94315336e-03,
          4.94315347e-04, 7.41473027e-03, 4.94315336e-03, 1.97726139e-03,
          6.92041498e-03, 1.58180911e-02, 4.94315336e-03, 4.44883807e-03,
          2.17498746e-02, 1.13692526e-02, 8.89767613e-03, 7.90904555e-03 ]
      - [ 5.34402160e-03, 5.34402160e-03, 5.34402160e-03, 5.67802275e-03,
          5.34402160e-03, 1.13560455e-02, 8.35003331e-03, 4.34201770e-03,
          4.67601884e-03, 4.00801608e-03, 6.68002712e-03, 4.34201770e-03,
          3.00601218e-03, 4.00801608e-03, 7.34802987e-03, 3.00601218e-03,
          6.68002712e-03, 4.00801608e-03, 8.68403539e-03, 9.35203768e-03,
          5.01002045e-03, 7.68203102e-03, 6.68002712e-03, 7.34802987e-03,
          4.34201770e-03, 4.67601884e-03, 1.13560455e-02, 6.34602550e-03,
          1.06880432e-02, 7.01402826e-03, 4.34201770e-03, 5.67802275e-03,
          1.36940554e-02, 1.20240487e-02, 5.01002045e-03, 4.34201770e-03,
          9.35203768e-03, 5.67802275e-03, 1.03540421e-02, 3.00601218e-03,
          3.67401494e-03, 1.36940554e-02, 1.03540421e-02, 4.00801608e-03,
          1.03540421e-02, 1.33600540e-03, 7.68203102e-03, 4.00801608e-03,
          5.67802275e-03, 1.03540421e-02, 6.01202436e-03, 5.67802275e-03,
          2.33800942e-03, 1.93720777e-02, 8.35003331e-03, 8.68403539e-03,
          3.34001356e-03, 3.34001356e-03, 6.34602550e-03, 6.34602550e-03,
          7.01402826e-03, 5.34402160e-03, 6.68002712e-03, 6.01202436e-03,
          7.34802987e-03, 1.40280565e-02, 9.68603883e-03, 1.10220443e-02,
          5.34402160e-03, 6.01202436e-03, 4.67601884e-03, 2.67201080e-03,
          9.01803654e-03, 7.34802987e-03, 3.00601218e-03, 3.34001356e-03,
          4.67601884e-03, 5.67802275e-03, 1.50300609e-02, 6.68002712e-03,
          5.67802275e-03, 8.01603217e-03, 7.01402826e-03, 3.34001356e-03,
          5.01002045e-03, 3.34001356e-03, 8.68403539e-03, 5.01002045e-03,
          5.67802275e-03, 7.68203102e-03, 2.67201080e-03, 4.00801608e-03,
          6.34602550e-03, 6.34602550e-03, 5.67802275e-03, 4.67601884e-03,
          8.01603217e-03, 2.00400804e-03, 5.67802275e-03, 6.01202436e-03,
          7.34802987e-03, 2.33800942e-03, 5.01002045e-03, 4.34201770e-03,
          5.01002045e-03, 5.67802275e-03, 4.34201770e-03, 2.67201080e-03,
          4.34201770e-03, 1.33600540e-03, 1.03540421e-02, 6.34602550e-03,
          6.34602550e-03, 4.34201770e-03, 4.67601884e-03, 3.00601218e-03,
          7.34802987e-03, 5.67802275e-03, 6.01202436e-03, 2.33800942e-03,
          5.67802275e-03, 5.34402160e-03, 5.67802275e-03, 2.00400804e-03,
          5.01002045e-03, 7.01402826e-03, 4.00801608e-03, 4.34201770e-03,
          6.68002712e-03, 6.01202436e-03, 4.34201770e-03, 5.67802275e-03,
          6.01202436e-03, 1.00200409e-02, 5.01002045e-03, 6.01202436e-03,
          3.67401494e-03, 7.01402826e-03, 5.67802275e-03, 6.01202436e-03,
          4.00801608e-03, 7.68203102e-03, 7.01402826e-03, 5.34402160e-03,
          6.68002712e-03, 6.01202436e-03, 4.00801608e-03, 5.01002045e-03,
          2.33800942e-03, 5.34402160e-03, 5.34402160e-03, 2.67201080e-03,
          6.68002712e-03, 9.35203768e-03, 7.01402826e-03, 4.34201770e-03,
          1.63660664e-02, 1.36940554e-02, 9.68603883e-03, 7.34802987e-03 ]
      - [ 4.44444409e-03, 2.53968243e-03, 2.53968243e-03, 4.76190448e-03,
          4.76190448e-03, 8.25396832e-03, 8.88888817e-03, 4.44444409e-03,
          4.12698416e-03, 4.76190448e-03, 7.30158715e-03, 1.90476188e-03,
          3.49206338e-03, 3.49206338e-03, 5.07936487e-03, 5.07936487e-03,
          4.44444409e-03, 4.76190448e-03, 1.14285713e-02, 9.20634903e-03,
          2.85714283e-03, 6.34920597e-03, 4.12698416e-03, 3.49206338e-03,
          7.61904754e-03, 7.30158715e-03, 9.20634903e-03, 6.98412675e-03,
          1.30158728e-02, 6.98412675e-03, 6.03174558e-03, 9.52380896e-03,
          7.93650746e-03, 7.61904754e-03, 6.34920597e-03, 6.34920597e-03,
          5.39682526e-03, 4.76190448e-03, 8.57142825e-03, 4.76190448e-03,
          1.26984122e-03, 1.30158728e-02, 1.33333327e-02, 7.61904754e-03,
          8.88888817e-03, 5.07936487e-03, 9.20634903e-03, 4.12698416e-03,
          6.03174558e-03, 6.98412675e-03, 6.03174558e-03, 3.80952377e-03,
          3.80952377e-03, 1.87301580e-02, 7.61904754e-03, 1.20634912e-02,
          5.39682526e-03, 4.44444409e-03, 6.03174558e-03, 5.39682526e-03,
          6.03174558e-03, 5.07936487e-03, 6.03174558e-03, 5.71428565e-03,
          1.04761897e-02, 8.25396832e-03, 1.11111104e-02, 1.01587297e-02,
          5.71428565e-03, 4.12698416e-03, 8.57142825e-03, 4.44444409e-03,
          1.23809520e-02, 7.61904754e-03, 5.39682526e-03, 4.76190448e-03,
          3.80952377e-03, 5.71428565e-03, 9.84126981e-03, 3.17460299e-03,
          3.49206338e-03, 6.98412675e-03, 1.01587297e-02, 5.39682526e-03,
          8.57142825e-03, 2.53968243e-03, 3.80952377e-03, 4.76190448e-03,
          4.12698416e-03, 6.03174558e-03, 6.66666636e-03, 5.39682526e-03,
          5.07936487e-03, 6.98412675e-03, 6.03174558e-03, 4.12698416e-03,
          8.88888817e-03, 4.76190448e-03, 5.39682526e-03, 3.80952377e-03,
          4.76190448e-03, 4.76190448e-03, 4.76190448e-03, 4.12698416e-03,
          6.34920597e-03, 5.39682526e-03, 6.66666636e-03, 2.85714283e-03,
          3.17460299e-03, 6.66666636e-03, 6.34920597e-03, 4.44444409e-03,
          5.07936487e-03, 6.66666636e-03, 2.53968243e-03, 5.07936487e-03,
          4.76190448e-03, 3.80952377e-03, 5.39682526e-03, 3.49206338e-03,
          3.80952377e-03, 4.44444409e-03, 8.57142825e-03, 4.12698416e-03,
          6.03174558e-03, 4.76190448e-03, 5.71428565e-03, 7.30158715e-03,
          1.01587297e-02, 4.12698416e-03, 3.80952377e-03, 2.85714283e-03,
          3.49206338e-03, 1.07936505e-02, 4.76190448e-03, 8.88888817e-03,
          4.76190448e-03, 5.71428565e-03, 5.71428565e-03, 5.39682526e-03,
          5.71428565e-03, 2.53968243e-03, 5.39682526e-03, 4.12698416e-03,
          7.93650746e-03, 7.61904754e-03, 2.22222204e-03, 4.76190448e-03,
          2.53968243e-03, 6.03174558e-03, 7.30158715e-03, 6.03174558e-03,
          1.04761897e-02, 1.01587297e-02, 8.88888817e-03, 4.76190448e-03,
          1.42857134e-02, 1.36507927e-02, 1.30158728e-02, 8.88888817e-03 ]
      - [ 4.89323819e-03, 5.78291807e-03, 3.11387889e-03, 5.33807836e-03,
          7.11743766e-03, 1.15658361e-02, 7.11743766e-03, 5.78291807e-03,
          4.00355877e-03, 1.33451959e-03, 3.11387889e-03, 3.55871883e-03,
          6.22775778e-03, 4.00355877e-03, 3.11387889e-03, 1.33451959e-03,
          4.00355877e-03, 3.11387889e-03, 9.78647638e-03, 1.02313170e-02,
          3.55871883e-03, 1.77935939e-02, 3.55871883e-03, 6.22775778e-03,
          3.11387889e-03, 2.66903918e-03, 1.06761567e-02, 1.11209964e-02,
          1.37900356e-02, 1.29003562e-02, 8.00711755e-03, 1.02313170e-02,
          5.78291807e-03, 9.34163667e-03, 3.55871883e-03, 3.11387889e-03,
          9.34163667e-03, 4.89323819e-03, 9.78647638e-03, 1.02313170e-02,
          2.22419924e-03, 1.64590739e-02, 1.24555156e-02, 4.00355877e-03,
          5.33807836e-03, 4.44839854e-04, 8.89679696e-03, 3.11387889e-03,
          4.00355877e-03, 6.22775778e-03, 8.00711755e-03, 3.55871883e-03,
          3.55871883e-03, 2.44661923e-02, 7.11743766e-03, 1.06761567e-02,
          6.22775778e-03, 4.00355877e-03, 7.11743766e-03, 6.22775778e-03,
          3.55871883e-03, 8.00711755e-03, 4.89323819e-03, 7.11743766e-03,
          1.46797150e-02, 1.82384346e-02, 7.11743766e-03, 1.69039145e-02,
          5.78291807e-03, 3.55871883e-03, 2.66903918e-03, 5.78291807e-03,
          1.11209964e-02, 6.67259796e-03, 2.22419924e-03, 3.11387889e-03,
          1.02313170e-02, 2.66903918e-03, 2.00177934e-02, 3.55871883e-03,
          4.89323819e-03, 6.22775778e-03, 4.00355877e-03, 3.55871883e-03,
          2.66903918e-03, 6.22775778e-03, 5.33807836e-03, 4.00355877e-03,
          2.22419924e-03, 4.44839848e-03, 1.02313170e-02, 4.00355877e-03,
          3.55871883e-03, 4.44839848e-03, 3.55871883e-03, 6.22775778e-03,
          5.33807836e-03, 4.00355877e-03, 6.22775778e-03, 9.78647638e-03,
          4.44839848e-03, 1.33451959e-03, 8.45195726e-03, 2.22419924e-03,
          3.11387889e-03, 4.00355877e-03, 3.11387889e-03, 3.11387889e-03,
          1.33451959e-03, 4.00355877e-03, 1.33451959e-02, 4.44839848e-03,
          4.44839848e-03, 2.66903918e-03, 4.00355877e-03, 5.33807836e-03,
          3.55871883e-03, 3.11387889e-03, 5.78291807e-03, 2.66903918e-03,
          4.44839848e-03, 3.11387889e-03, 1.77935942e-03, 3.55871883e-03,
          5.33807836e-03, 8.89679696e-03, 8.89679708e-04, 4.44839848e-03,
          7.11743766e-03, 6.22775778e-03, 5.78291807e-03, 1.33451959e-03,
          3.55871883e-03, 1.15658361e-02, 2.66903918e-03, 1.11209964e-02,
          6.67259796e-03, 8.00711755e-03, 5.33807836e-03, 5.33807836e-03,
          5.78291807e-03, 6.22775778e-03, 5.78291807e-03, 4.89323819e-03,
          2.22419924e-03, 8.89679696e-03, 1.77935942e-03, 6.22775778e-03,
          0., 3.55871883e-03, 3.55871883e-03, 2.22419924e-03,
          1.73487552e-02, 8.89679696e-03, 7.56227737e-03, 3.11387889e-03,
          2.98042707e-02, 9.78647638e-03, 6.67259796e-03, 6.67259796e-03 ]
      - [ 2.35515786e-03, 3.29722092e-03, 5.65237878e-03, 2.82618939e-03,
          3.29722092e-03, 1.13047576e-02, 7.06547312e-03, 2.35515786e-03,
          2.82618939e-03, 1.88412622e-03, 6.59444183e-03, 8.00753664e-03,
          9.42063110e-04, 3.76825244e-03, 6.12341007e-03, 3.76825244e-03,
          5.18134702e-03, 4.23928397e-03, 8.94959923e-03, 8.47856794e-03,
          1.88412622e-03, 4.23928397e-03, 5.65237878e-03, 1.17757889e-02,
          5.65237878e-03, 2.35515786e-03, 1.46019785e-02, 6.59444183e-03,
          1.17757889e-02, 1.08337253e-02, 9.42063110e-04, 2.82618939e-03,
          1.93122942e-02, 1.31888837e-02, 3.29722092e-03, 5.18134702e-03,
          6.12341007e-03, 3.29722092e-03, 8.94959923e-03, 6.59444183e-03,
          3.76825244e-03, 6.59444183e-03, 1.08337253e-02, 1.03626940e-02,
          6.12341007e-03, 1.41309469e-03, 1.41309462e-02, 2.35515786e-03,
          2.82618939e-03, 1.27178524e-02, 5.65237878e-03, 3.76825244e-03,
          3.29722092e-03, 2.21384838e-02, 1.03626940e-02, 2.82618939e-03,
          6.59444183e-03, 5.18134702e-03, 2.35515786e-03, 8.47856794e-03,
          7.06547312e-03, 5.18134702e-03, 7.06547312e-03, 1.03626940e-02,
          1.55440411e-02, 1.03626940e-02, 7.53650488e-03, 1.60150733e-02,
          8.47856794e-03, 8.47856794e-03, 4.71031573e-03, 3.29722092e-03,
          3.76825244e-03, 6.59444183e-03, 6.12341007e-03, 1.41309469e-03,
          2.82618939e-03, 7.06547312e-03, 1.50730098e-02, 6.59444183e-03,
          3.29722092e-03, 7.53650488e-03, 4.23928397e-03, 3.76825244e-03,
          2.82618939e-03, 6.12341007e-03, 6.59444183e-03, 4.23928397e-03,
          1.88412622e-03, 4.71031573e-03, 6.59444183e-03, 1.41309469e-03,
          5.65237878e-03, 4.71031573e-03, 3.76825244e-03, 7.53650488e-03,
          3.76825244e-03, 4.71031573e-03, 1.08337253e-02, 7.53650488e-03,
          6.59444183e-03, 3.76825244e-03, 1.03626940e-02, 4.71031555e-04,
          2.82618939e-03, 4.23928397e-03, 7.06547312e-03, 1.41309469e-03,
          4.23928397e-03, 4.23928397e-03, 1.03626940e-02, 6.12341007e-03,
          4.71031573e-03, 3.29722092e-03, 2.82618939e-03, 5.18134702e-03,
          4.23928397e-03, 7.06547312e-03, 2.82618939e-03, 2.82618939e-03,
          2.35515786e-03, 4.71031573e-03, 1.88412622e-03, 1.41309469e-03,
          3.29722092e-03, 1.08337253e-02, 1.88412622e-03, 9.42063110e-04,
          8.47856794e-03, 6.59444183e-03, 4.71031573e-03, 3.76825244e-03,
          1.17757889e-02, 1.41309462e-02, 3.76825244e-03, 1.03626940e-02,
          5.65237878e-03, 8.47856794e-03, 3.76825244e-03, 5.18134702e-03,
          6.59444183e-03, 3.76825244e-03, 1.22468201e-02, 7.53650488e-03,
          4.71031573e-03, 8.00753664e-03, 3.29722092e-03, 4.71031573e-03,
          4.71031555e-04, 4.71031573e-03, 3.29722092e-03, 4.23928397e-03,
          1.17757889e-02, 1.55440411e-02, 4.71031573e-03, 3.29722092e-03,
          2.11964194e-02, 1.08337253e-02, 1.17757889e-02, 7.53650488e-03 ]
      - [ 5.55761391e-03, 2.22304557e-03, 4.07558354e-03, 3.70507594e-03,
          8.15116707e-03, 8.52167420e-03, 4.44609113e-03, 4.81659872e-03,
          7.03964429e-03, 5.18710632e-03, 6.29862910e-03, 1.48203038e-03,
          7.41015188e-03, 6.29862910e-03, 4.44609113e-03, 3.70507594e-03,
          4.81659872e-03, 2.59355316e-03, 4.81659872e-03, 1.25972582e-02,
          5.18710632e-03, 1.59318261e-02, 8.52167420e-03, 5.92812151e-03,
          3.33456835e-03, 4.07558354e-03, 9.63319745e-03, 8.15116707e-03,
          1.07447207e-02, 5.55761391e-03, 2.96406075e-03, 7.03964429e-03,
          5.92812151e-03, 7.03964429e-03, 5.92812151e-03, 2.59355316e-03,
          1.25972582e-02, 5.18710632e-03, 6.66913670e-03, 1.92663949e-02,
          1.85253797e-03, 1.22267511e-02, 1.29677653e-02, 6.29862910e-03,
          3.70507594e-03, 1.85253797e-03, 9.26269032e-03, 2.22304557e-03,
          4.81659872e-03, 5.55761391e-03, 5.92812151e-03, 8.15116707e-03,
          5.92812151e-03, 1.11152278e-02, 4.44609113e-03, 9.63319745e-03,
          4.07558354e-03, 7.78065948e-03, 5.55761391e-03, 7.78065948e-03,
          4.44609113e-03, 8.15116707e-03, 3.33456835e-03, 2.22304557e-03,
          1.33382734e-02, 9.26269032e-03, 5.92812151e-03, 1.25972582e-02,
          3.70507594e-03, 6.29862910e-03, 7.78065948e-03, 1.18562430e-02,
          6.66913670e-03, 6.29862910e-03, 4.81659872e-03, 4.07558354e-03,
          4.81659872e-03, 5.18710632e-03, 1.11152278e-02, 3.33456835e-03,
          5.18710632e-03, 1.33382734e-02, 4.44609113e-03, 2.96406075e-03,
          2.96406075e-03, 1.85253797e-03, 6.66913670e-03, 7.78065948e-03,
          5.55761391e-03, 4.07558354e-03, 3.70507594e-03, 3.33456835e-03,
          2.22304557e-03, 4.44609113e-03, 3.70507594e-03, 5.55761391e-03,
          5.18710632e-03, 2.59355316e-03, 1.11152278e-02, 7.78065948e-03,
          6.29862910e-03, 5.55761391e-03, 7.41015188e-03, 5.18710632e-03,
          2.96406075e-03, 5.92812151e-03, 5.18710632e-03, 2.59355316e-03,
          4.07558354e-03, 2.59355316e-03, 2.03779172e-02, 4.44609113e-03,
          4.07558354e-03, 2.96406075e-03, 3.70507594e-03, 2.59355316e-03,
          5.92812151e-03, 4.44609113e-03, 8.15116707e-03, 4.44609113e-03,
          2.96406075e-03, 4.44609113e-03, 5.55761391e-03, 3.70507594e-03,
          3.70507594e-03, 1.00037046e-02, 3.33456835e-03, 6.66913670e-03,
          7.03964429e-03, 7.41015188e-03, 3.70507594e-03, 5.55761391e-03,
          2.59355316e-03, 6.66913670e-03, 5.92812151e-03, 1.40792886e-02,
          4.81659872e-03, 5.18710632e-03, 4.44609113e-03, 8.52167420e-03,
          4.07558354e-03, 6.29862910e-03, 4.44609113e-03, 9.63319745e-03,
          8.15116707e-03, 1.18562430e-02, 2.59355316e-03, 4.81659872e-03,
          3.33456835e-03, 4.07558354e-03, 7.78065948e-03, 5.55761391e-03,
          1.22267511e-02, 5.18710632e-03, 7.03964429e-03, 3.70507594e-03,
          1.48203038e-02, 1.18562430e-02, 1.00037046e-02, 5.92812151e-03 ]
      - [ 4.64252545e-04, 3.71402036e-03, 6.03528321e-03, 4.17827303e-03,
          6.96378807e-03, 1.02135558e-02, 4.64252569e-03, 1.85701018e-03,
          5.10677788e-03, 1.85701018e-03, 7.42804073e-03, 2.32126284e-03,
          2.32126284e-03, 6.49953540e-03, 1.85701018e-03, 5.57103055e-03,
          6.49953540e-03, 2.78551527e-03, 5.57103055e-03, 1.16063133e-02,
          6.96378807e-03, 5.57103055e-03, 5.57103055e-03, 1.06778089e-02,
          4.17827303e-03, 6.49953540e-03, 1.62488390e-02, 6.49953540e-03,
          1.29990708e-02, 1.20705664e-02, 1.85701018e-03, 2.78551527e-03,
          1.43918293e-02, 1.29990708e-02, 1.85701018e-03, 5.10677788e-03,
          6.03528321e-03, 5.57103055e-03, 1.39275761e-02, 4.17827303e-03,
          2.32126284e-03, 1.29990708e-02, 9.28505138e-03, 5.10677788e-03,
          6.03528321e-03, 3.71402036e-03, 7.89229292e-03, 2.32126284e-03,
          2.78551527e-03, 1.25348186e-02, 1.43918293e-02, 4.64252569e-03,
          3.24976770e-03, 1.48560815e-02, 7.89229292e-03, 4.64252569e-03,
          6.03528321e-03, 6.49953540e-03, 3.71402036e-03, 1.29990708e-02,
          6.96378807e-03, 4.17827303e-03, 4.64252569e-03, 4.17827303e-03,
          1.43918293e-02, 8.35654605e-03, 2.32126284e-03, 1.43918293e-02,
          4.64252569e-03, 6.49953540e-03, 4.64252569e-03, 6.49953540e-03,
          3.24976770e-03, 5.10677788e-03, 6.96378807e-03, 6.03528321e-03,
          1.39275764e-03, 4.64252569e-03, 1.62488390e-02, 3.24976770e-03,
          4.64252569e-03, 8.35654605e-03, 1.39275764e-03, 2.32126284e-03,
          3.24976770e-03, 6.49953540e-03, 6.96378807e-03, 4.64252569e-03,
          3.24976770e-03, 5.57103055e-03, 6.96378807e-03, 2.32126284e-03,
          2.32126284e-03, 5.57103055e-03, 5.57103055e-03, 9.74930357e-03,
          3.71402036e-03, 9.28505091e-04, 1.48560815e-02, 7.42804073e-03,
          3.24976770e-03, 1.85701018e-03, 1.43918293e-02, 2.32126284e-03,
          4.64252569e-03, 2.32126284e-03, 3.24976770e-03, 3.71402036e-03,
          7.89229292e-03, 2.78551527e-03, 1.34633239e-02, 3.24976770e-03,
          4.17827303e-03, 6.49953540e-03, 1.85701018e-03, 5.57103055e-03,
          4.64252569e-03, 5.10677788e-03, 1.16063133e-02, 5.10677788e-03,
          2.78551527e-03, 1.11420611e-02, 2.78551527e-03, 2.32126284e-03,
          1.85701018e-03, 1.57845858e-02, 2.32126284e-03, 6.49953540e-03,
          7.89229292e-03, 6.03528321e-03, 1.39275764e-03, 3.71402036e-03,
          8.82079825e-03, 1.06778089e-02, 5.10677788e-03, 1.29990708e-02,
          6.49953540e-03, 4.17827303e-03, 3.71402036e-03, 4.64252569e-03,
          4.17827303e-03, 4.17827303e-03, 6.96378807e-03, 6.03528321e-03,
          6.03528321e-03, 9.74930357e-03, 2.78551527e-03, 3.24976770e-03,
          3.24976770e-03, 7.89229292e-03, 2.32126284e-03, 6.96378807e-03,
          6.96378807e-03, 1.34633239e-02, 3.24976770e-03, 1.85701018e-03,
          1.99628603e-02, 1.20705664e-02, 6.03528321e-03, 1.16063133e-02 ]
      - [ 5.74712642e-03, 4.15070215e-03, 7.02426536e-03, 7.98211992e-03,
          9.25925933e-03, 5.42784156e-03, 9.89782903e-03, 4.78927186e-03,
          8.30140430e-03, 7.02426536e-03, 1.05363978e-02, 3.51213268e-03,
          7.02426536e-03, 4.15070215e-03, 3.51213268e-03, 5.42784156e-03,
          5.74712642e-03, 4.46998700e-03, 7.98211992e-03, 6.70498051e-03,
          6.06641127e-03, 3.83141753e-03, 1.02171134e-02, 4.15070215e-03,
          7.98211992e-03, 4.78927186e-03, 9.25925933e-03, 7.34355021e-03,
          7.98211992e-03, 5.74712642e-03, 3.19284806e-03, 6.38569612e-03,
          4.78927186e-03, 6.06641127e-03, 6.70498051e-03, 5.74712642e-03,
          6.38569612e-03, 4.78927186e-03, 4.15070215e-03, 8.62068962e-03,
          2.55427836e-03, 8.30140430e-03, 6.06641127e-03, 3.83141753e-03,
          8.62068962e-03, 6.70498051e-03, 4.78927186e-03, 7.66283507e-03,
          5.74712642e-03, 7.02426536e-03, 4.78927186e-03, 6.38569612e-03,
          5.74712642e-03, 7.34355021e-03, 7.66283507e-03, 8.30140430e-03,
          6.06641127e-03, 8.62068962e-03, 1.02171134e-02, 3.51213268e-03,
          7.34355021e-03, 8.30140430e-03, 7.02426536e-03, 6.70498051e-03,
          7.02426536e-03, 8.62068962e-03, 7.34355021e-03, 8.62068962e-03,
          7.34355021e-03, 6.06641127e-03, 6.38569612e-03, 8.30140430e-03,
          8.30140430e-03, 7.34355021e-03, 5.42784156e-03, 6.06641127e-03,
          2.55427836e-03, 5.74712642e-03, 7.66283507e-03, 6.38569612e-03,
          4.15070215e-03, 4.78927186e-03, 1.05363978e-02, 5.10855671e-03,
          5.74712642e-03, 7.34355021e-03, 6.38569612e-03, 3.83141753e-03,
          6.70498051e-03, 8.62068962e-03, 4.46998700e-03, 6.38569612e-03,
          7.02426536e-03, 8.93997401e-03, 4.15070215e-03, 3.51213268e-03,
          5.74712642e-03, 3.83141753e-03, 4.78927186e-03, 4.78927186e-03,
          5.74712642e-03, 3.83141753e-03, 5.74712642e-03, 6.38569612e-03,
          5.10855671e-03, 5.74712642e-03, 5.10855671e-03, 5.10855671e-03,
          6.38569612e-03, 6.06641127e-03, 9.25925933e-03, 6.38569612e-03,
          5.10855671e-03, 6.38569612e-03, 5.10855671e-03, 7.34355021e-03,
          4.78927186e-03, 3.83141753e-03, 7.34355021e-03, 3.19284806e-03,
          6.38569612e-03, 4.46998700e-03, 4.78927186e-03, 6.06641127e-03,
          6.38569612e-03, 7.34355021e-03, 5.42784156e-03, 6.70498051e-03,
          7.02426536e-03, 6.06641127e-03, 3.51213268e-03, 2.55427836e-03,
          3.19284806e-03, 7.66283507e-03, 6.70498051e-03, 9.25925933e-03,
          7.66283507e-03, 7.34355021e-03, 4.78927186e-03, 5.10855671e-03,
          4.46998700e-03, 6.70498051e-03, 7.02426536e-03, 4.78927186e-03,
          5.74712642e-03, 5.42784156e-03, 4.78927186e-03, 4.46998700e-03,
          3.83141753e-03, 6.06641127e-03, 7.98211992e-03, 5.42784156e-03,
          1.27713922e-02, 7.66283507e-03, 7.02426536e-03, 7.66283507e-03,
          5.42784156e-03, 7.66283507e-03, 7.34355021e-03, 7.02426536e-03 ]
      - [ 1.90204475e-03, 7.60817900e-03, 4.75511188e-03, 3.80408950e-03,
          3.32857831e-03, 9.98573471e-03, 9.03471280e-03, 2.37755594e-03,
          3.80408950e-03, 3.32857831e-03, 4.27960046e-03, 5.23062330e-03,
          5.70613425e-03, 5.23062330e-03, 7.60817900e-03, 4.75511188e-03,
          4.27960046e-03, 3.32857831e-03, 4.75511188e-03, 8.55920091e-03,
          3.80408950e-03, 6.18164521e-03, 6.65715663e-03, 1.33143133e-02,
          3.80408950e-03, 4.27960046e-03, 9.51022375e-03, 5.70613425e-03,
          8.08368996e-03, 1.18877795e-02, 7.13266805e-03, 7.13266805e-03,
          9.98573471e-03, 1.04612466e-02, 3.32857831e-03, 4.75511188e-03,
          3.80408950e-03, 5.70613425e-03, 9.51022375e-03, 1.23632904e-02,
          1.42653356e-03, 1.09367575e-02, 1.04612466e-02, 4.75511188e-03,
          7.60817900e-03, 2.85306713e-03, 7.60817900e-03, 4.27960046e-03,
          4.27960046e-03, 1.18877795e-02, 3.32857831e-03, 3.80408950e-03,
          5.23062330e-03, 1.71184018e-02, 4.75511188e-03, 7.60817900e-03,
          5.70613425e-03, 7.60817900e-03, 4.75511188e-03, 1.14122685e-02,
          6.65715663e-03, 6.18164521e-03, 5.23062330e-03, 5.23062330e-03,
          1.66428909e-02, 5.23062330e-03, 6.18164521e-03, 9.98573471e-03,
          7.60817900e-03, 6.18164521e-03, 7.13266805e-03, 6.18164521e-03,
          8.08368996e-03, 5.23062330e-03, 6.65715663e-03, 2.85306713e-03,
          1.04612466e-02, 5.70613425e-03, 1.28388023e-02, 6.18164521e-03,
          6.18164521e-03, 7.13266805e-03, 3.80408950e-03, 4.27960046e-03,
          3.80408950e-03, 5.23062330e-03, 4.75511188e-03, 3.32857831e-03,
          8.08368996e-03, 6.65715663e-03, 8.55920091e-03, 1.90204475e-03,
          2.85306713e-03, 4.75511188e-03, 4.75511188e-03, 5.70613425e-03,
          9.03471280e-03, 5.70613425e-03, 1.94959585e-02, 6.65715663e-03,
          2.85306713e-03, 2.85306713e-03, 8.08368996e-03, 2.85306713e-03,
          4.27960046e-03, 5.23062330e-03, 6.65715663e-03, 1.90204475e-03,
          2.37755594e-03, 3.32857831e-03, 9.98573471e-03, 7.60817900e-03,
          3.80408950e-03, 2.85306713e-03, 3.80408950e-03, 7.60817900e-03,
          2.85306713e-03, 9.51022375e-03, 5.70613425e-03, 8.08368996e-03,
          4.75511188e-03, 4.75511188e-03, 4.75511188e-03, 2.85306713e-03,
          5.23062330e-03, 8.08368996e-03, 1.90204475e-03, 3.80408950e-03,
          5.23062330e-03, 5.23062330e-03, 2.85306713e-03, 2.85306713e-03,
          5.70613425e-03, 1.37898242e-02, 2.37755594e-03, 4.75511188e-03,
          5.70613425e-03, 6.65715663e-03, 4.27960046e-03, 4.75511188e-03,
          4.27960046e-03, 5.23062330e-03, 9.03471280e-03, 5.70613425e-03,
          6.65715663e-03, 1.04612466e-02, 3.32857831e-03, 2.37755594e-03,
          4.27960046e-03, 4.27960046e-03, 8.08368996e-03, 3.80408950e-03,
          9.03471280e-03, 1.28388023e-02, 4.75511188e-03, 6.18164521e-03,
          1.42653361e-02, 9.98573471e-03, 8.55920091e-03, 6.65715663e-03 ]
      - [ 7.99543131e-03, 2.56996020e-03, 5.13992039e-03, 7.70988036e-03,
          5.13992039e-03, 5.71102276e-03, 5.13992039e-03, 7.42432941e-03,
          8.28098226e-03, 8.28098226e-03, 7.99543131e-03, 5.71102276e-03,
          6.56767609e-03, 4.28326707e-03, 7.70988036e-03, 2.56996020e-03,
          5.99657372e-03, 5.99657372e-03, 7.42432941e-03, 1.11364936e-02,
          5.99657372e-03, 7.70988036e-03, 6.28212467e-03, 5.13992039e-03,
          5.13992039e-03, 3.71216470e-03, 6.28212467e-03, 8.85208510e-03,
          5.99657372e-03, 8.56653415e-03, 5.71102276e-03, 6.85322704e-03,
          7.13877799e-03, 6.28212467e-03, 6.85322704e-03, 6.85322704e-03,
          7.70988036e-03, 6.85322704e-03, 5.13992039e-03, 5.13992039e-03,
          3.14106233e-03, 9.70873795e-03, 5.99657372e-03, 6.56767609e-03,
          7.99543131e-03, 1.99885783e-03, 9.70873795e-03, 7.70988036e-03,
          9.42318700e-03, 4.56881803e-03, 5.13992039e-03, 1.02798408e-02,
          8.28098226e-03, 9.42318700e-03, 6.28212467e-03, 8.85208510e-03,
          4.85436898e-03, 5.99657372e-03, 8.56653415e-03, 3.99771566e-03,
          3.71216470e-03, 1.05653917e-02, 5.71102276e-03, 4.56881803e-03,
          8.85208510e-03, 5.99657372e-03, 7.70988036e-03, 9.13763605e-03,
          6.85322704e-03, 7.42432941e-03, 6.85322704e-03, 5.71102276e-03,
          5.42547135e-03, 7.42432941e-03, 3.99771566e-03, 4.28326707e-03,
          4.56881803e-03, 8.28098226e-03, 6.85322704e-03, 5.71102276e-03,
          5.42547135e-03, 5.42547135e-03, 4.56881803e-03, 7.99543131e-03,
          8.85208510e-03, 1.99885783e-03, 5.13992039e-03, 5.99657372e-03,
          7.42432941e-03, 7.13877799e-03, 9.13763605e-03, 6.56767609e-03,
          3.99771566e-03, 5.42547135e-03, 3.14106233e-03, 3.71216470e-03,
          3.99771566e-03, 6.56767609e-03, 4.56881803e-03, 3.71216470e-03,
          7.99543131e-03, 4.85436898e-03, 6.56767609e-03, 7.70988036e-03,
          7.13877799e-03, 4.85436898e-03, 5.99657372e-03, 5.13992039e-03,
          3.71216470e-03, 3.99771566e-03, 4.85436898e-03, 8.28098226e-03,
          5.71102276e-03, 3.99771566e-03, 6.28212467e-03, 4.85436898e-03,
          5.42547135e-03, 5.13992039e-03, 1.08509427e-02, 2.56996020e-03,
          6.56767609e-03, 6.85322704e-03, 6.56767609e-03, 6.28212467e-03,
          7.99543131e-03, 6.28212467e-03, 6.56767609e-03, 1.02798408e-02,
          5.42547135e-03, 5.42547135e-03, 6.85322704e-03, 3.42661352e-03,
          4.85436898e-03, 5.71102276e-03, 2.85551138e-03, 5.13992039e-03,
          7.99543131e-03, 5.99657372e-03, 5.99657372e-03, 8.28098226e-03,
          5.42547135e-03, 5.71102276e-03, 5.13992039e-03, 2.85551138e-03,
          6.28212467e-03, 4.85436898e-03, 4.28326707e-03, 7.99543131e-03,
          3.14106233e-03, 7.13877799e-03, 7.42432941e-03, 3.42661352e-03,
          8.85208510e-03, 6.56767609e-03, 9.13763605e-03, 6.56767609e-03,
          8.28098226e-03, 8.28098226e-03, 6.28212467e-03, 5.13992039e-03 ]
      - [ 6.24133181e-03, 2.77392520e-03, 3.81414709e-03, 5.20110969e-03,
          6.93481322e-03, 9.01525654e-03, 5.20110969e-03, 6.24133181e-03,
          6.58807252e-03, 7.28155347e-03, 7.28155347e-03, 4.85436898e-03,
          4.16088756e-03, 3.81414709e-03, 3.46740661e-03, 7.62829417e-03,
          5.89459110e-03, 6.58807252e-03, 9.70873795e-03, 1.10957008e-02,
          5.20110969e-03, 6.93481322e-03, 1.04022194e-02, 3.12066590e-03,
          4.16088756e-03, 4.85436898e-03, 8.66851583e-03, 5.54785039e-03,
          8.32177512e-03, 7.97503535e-03, 4.16088756e-03, 6.58807252e-03,
          9.70873795e-03, 3.81414709e-03, 6.24133181e-03, 3.81414709e-03,
          9.70873795e-03, 4.50762827e-03, 6.24133181e-03, 7.62829417e-03,
          1.73370331e-03, 1.10957008e-02, 9.36199725e-03, 5.89459110e-03,
          4.85436898e-03, 4.85436898e-03, 5.89459110e-03, 7.28155347e-03,
          7.28155347e-03, 6.93481322e-03, 4.85436898e-03, 4.50762827e-03,
          5.20110969e-03, 1.42163662e-02, 6.24133181e-03, 5.54785039e-03,
          4.85436898e-03, 6.58807252e-03, 5.20110969e-03, 8.32177512e-03,
          4.16088756e-03, 6.24133181e-03, 2.77392520e-03, 4.16088756e-03,
          9.01525654e-03, 1.14424415e-02, 6.58807252e-03, 1.17891822e-02,
          6.58807252e-03, 3.81414709e-03, 6.58807252e-03, 4.50762827e-03,
          1.14424415e-02, 9.36199725e-03, 5.54785039e-03, 4.85436898e-03,
          6.58807252e-03, 9.01525654e-03, 8.32177512e-03, 5.20110969e-03,
          4.16088756e-03, 4.50762827e-03, 7.28155347e-03, 4.85436898e-03,
          7.28155347e-03, 5.20110969e-03, 5.89459110e-03, 5.89459110e-03,
          6.24133181e-03, 4.50762827e-03, 7.97503535e-03, 5.20110969e-03,
          3.81414709e-03, 5.54785039e-03, 5.54785039e-03, 4.50762827e-03,
          6.93481322e-03, 5.20110969e-03, 9.01525654e-03, 7.28155347e-03,
          6.93481322e-03, 2.42718449e-03, 9.70873795e-03, 5.54785039e-03,
          2.77392520e-03, 3.81414709e-03, 6.24133181e-03, 6.24133181e-03,
          4.85436898e-03, 3.12066590e-03, 1.17891822e-02, 4.16088756e-03,
          6.58807252e-03, 4.16088756e-03, 3.12066590e-03, 4.50762827e-03,
          8.32177512e-03, 6.24133181e-03, 9.36199725e-03, 5.20110969e-03,
          4.16088756e-03, 2.77392520e-03, 5.20110969e-03, 4.50762827e-03,
          4.50762827e-03, 6.58807252e-03, 3.46740661e-03, 9.01525654e-03,
          6.58807252e-03, 6.24133181e-03, 3.12066590e-03, 4.50762827e-03,
          5.89459110e-03, 4.85436898e-03, 3.46740661e-03, 4.16088756e-03,
          5.89459110e-03, 8.32177512e-03, 5.54785039e-03, 7.62829417e-03,
          4.50762827e-03, 6.58807252e-03, 7.62829417e-03, 6.93481322e-03,
          6.93481322e-03, 6.93481322e-03, 2.08044378e-03, 7.28155347e-03,
          5.20110969e-03, 2.42718449e-03, 9.36199725e-03, 4.50762827e-03,
          1.17891822e-02, 8.32177512e-03, 7.97503535e-03, 3.12066590e-03,
          1.45631069e-02, 1.07489601e-02, 9.36199725e-03, 5.20110969e-03 ]
      - [ 8.39489605e-03, 1.67897914e-03, 5.03693754e-03, 3.35795828e-03,
          7.38750817e-03, 4.36534593e-03, 7.38750817e-03, 4.70114173e-03,
          6.71591656e-03, 8.73069186e-03, 7.38750817e-03, 4.36534593e-03,
          5.37273334e-03, 4.70114173e-03, 6.71591656e-03, 5.70852915e-03,
          6.38012076e-03, 1.24244457e-02, 9.06648766e-03, 8.73069186e-03,
          3.69375409e-03, 6.04432495e-03, 6.71591656e-03, 2.35057087e-03,
          5.70852915e-03, 3.35795828e-03, 8.05910025e-03, 8.05910025e-03,
          8.39489605e-03, 7.38750817e-03, 1.24244457e-02, 1.20886499e-02,
          6.04432495e-03, 5.37273334e-03, 7.72330398e-03, 4.02955012e-03,
          5.70852915e-03, 6.38012076e-03, 3.35795828e-03, 1.00738751e-02,
          2.35057087e-03, 1.30960373e-02, 6.71591656e-03, 5.37273334e-03,
          4.70114173e-03, 3.69375409e-03, 6.04432495e-03, 1.20886499e-02,
          8.05910025e-03, 3.35795828e-03, 3.35795828e-03, 6.38012076e-03,
          5.70852915e-03, 1.14170583e-02, 2.68636667e-03, 8.73069186e-03,
          3.35795828e-03, 8.05910025e-03, 1.17528541e-02, 5.37273334e-03,
          4.36534593e-03, 6.38012076e-03, 7.72330398e-03, 7.72330398e-03,
          1.14170583e-02, 8.05910025e-03, 9.40228347e-03, 8.39489605e-03,
          9.06648766e-03, 5.37273334e-03, 5.37273334e-03, 6.38012076e-03,
          8.39489605e-03, 7.72330398e-03, 3.69375409e-03, 4.70114173e-03,
          5.70852915e-03, 7.38750817e-03, 8.73069186e-03, 4.02955012e-03,
          3.69375409e-03, 6.71591656e-03, 7.72330398e-03, 8.05910025e-03,
          5.03693754e-03, 3.35795828e-03, 4.36534593e-03, 4.36534593e-03,
          6.04432495e-03, 4.02955012e-03, 8.39489605e-03, 7.38750817e-03,
          4.02955012e-03, 3.69375409e-03, 5.37273334e-03, 2.01477506e-03,
          6.71591656e-03, 5.03693754e-03, 3.35795828e-03, 3.69375409e-03,
          5.70852915e-03, 3.35795828e-03, 4.36534593e-03, 4.70114173e-03,
          3.69375409e-03, 5.37273334e-03, 5.03693754e-03, 5.03693754e-03,
          5.70852915e-03, 3.02216248e-03, 9.73807927e-03, 1.14170583e-02,
          4.02955012e-03, 4.36534593e-03, 2.01477506e-03, 6.04432495e-03,
          4.70114173e-03, 2.35057087e-03, 8.05910025e-03, 3.69375409e-03,
          4.36534593e-03, 4.02955012e-03, 7.38750817e-03, 1.67897914e-03,
          9.73807927e-03, 5.70852915e-03, 5.03693754e-03, 1.04096709e-02,
          7.38750817e-03, 4.70114173e-03, 7.38750817e-03, 5.37273334e-03,
          4.70114173e-03, 5.03693754e-03, 5.70852915e-03, 6.04432495e-03,
          4.36534593e-03, 7.38750817e-03, 9.40228347e-03, 6.38012076e-03,
          5.70852915e-03, 5.37273334e-03, 4.02955012e-03, 2.68636667e-03,
          7.72330398e-03, 5.37273334e-03, 7.05171237e-03, 7.72330398e-03,
          4.02955012e-03, 4.02955012e-03, 7.05171237e-03, 5.70852915e-03,
          1.77971795e-02, 3.35795828e-03, 6.71591656e-03, 8.73069186e-03,
          1.04096709e-02, 9.40228347e-03, 8.73069186e-03, 6.71591656e-03 ]
      - [ 6.35838136e-03, 3.46820801e-03, 6.64739870e-03, 7.22543336e-03,
          1.01156067e-02, 6.93641603e-03, 6.64739870e-03, 6.06936403e-03,
          1.06936414e-02, 6.93641603e-03, 8.67052004e-03, 6.93641603e-03,
          5.20231202e-03, 4.04624268e-03, 4.91329469e-03, 3.17919068e-03,
          6.64739870e-03, 7.22543336e-03, 8.09248537e-03, 7.80346803e-03,
          6.35838136e-03, 5.49132936e-03, 5.49132936e-03, 6.93641603e-03,
          4.91329469e-03, 4.33526002e-03, 5.78034669e-03, 9.24855471e-03,
          4.91329469e-03, 5.78034669e-03, 4.91329469e-03, 6.35838136e-03,
          4.62427735e-03, 5.20231202e-03, 8.67052004e-03, 2.02312134e-03,
          8.38150270e-03, 4.04624268e-03, 7.22543336e-03, 7.51445070e-03,
          2.89017335e-03, 6.93641603e-03, 6.06936403e-03, 5.20231202e-03,
          7.22543336e-03, 5.78034669e-03, 7.80346803e-03, 8.38150270e-03,
          6.06936403e-03, 3.17919068e-03, 3.46820801e-03, 7.80346803e-03,
          5.78034669e-03, 9.53757204e-03, 7.22543336e-03, 9.53757204e-03,
          4.91329469e-03, 9.24855471e-03, 6.35838136e-03, 5.78034669e-03,
          3.75722535e-03, 1.12716760e-02, 6.93641603e-03, 5.78034669e-03,
          8.95953737e-03, 6.93641603e-03, 5.49132936e-03, 8.38150270e-03,
          7.51445070e-03, 6.35838136e-03, 6.64739870e-03, 5.20231202e-03,
          9.82658938e-03, 6.35838136e-03, 3.46820801e-03, 5.78034669e-03,
          3.17919068e-03, 5.78034669e-03, 8.95953737e-03, 5.78034669e-03,
          4.91329469e-03, 9.82658938e-03, 7.51445070e-03, 5.49132936e-03,
          1.01156067e-02, 1.73410401e-03, 4.91329469e-03, 2.31213868e-03,
          4.04624268e-03, 3.17919068e-03, 6.06936403e-03, 5.49132936e-03,
          6.93641603e-03, 4.04624268e-03, 5.78034669e-03, 8.38150270e-03,
          7.22543336e-03, 2.89017335e-03, 6.93641603e-03, 5.20231202e-03,
          6.93641603e-03, 3.17919068e-03, 7.51445070e-03, 5.20231202e-03,
          8.09248537e-03, 8.38150270e-03, 5.78034669e-03, 2.31213868e-03,
          2.89017335e-03, 3.75722535e-03, 6.06936403e-03, 8.67052004e-03,
          4.91329469e-03, 5.78034669e-03, 3.75722535e-03, 5.49132936e-03,
          4.62427735e-03, 4.62427735e-03, 6.93641603e-03, 4.91329469e-03,
          5.78034669e-03, 6.35838136e-03, 6.93641603e-03, 6.06936403e-03,
          6.35838136e-03, 7.22543336e-03, 8.95953737e-03, 1.18497107e-02,
          4.62427735e-03, 8.38150270e-03, 6.64739870e-03, 4.04624268e-03,
          4.91329469e-03, 6.64739870e-03, 3.46820801e-03, 6.64739870e-03,
          6.93641603e-03, 7.22543336e-03, 6.64739870e-03, 7.80346803e-03,
          5.49132936e-03, 6.64739870e-03, 3.75722535e-03, 3.75722535e-03,
          4.62427735e-03, 6.06936403e-03, 5.20231202e-03, 1.04046240e-02,
          4.91329469e-03, 6.93641603e-03, 5.20231202e-03, 6.35838136e-03,
          1.12716760e-02, 5.78034669e-03, 9.24855471e-03, 9.53757204e-03,
          6.06936403e-03, 6.93641603e-03, 5.78034669e-03, 6.06936403e-03 ]
      - [ 4.60829493e-03, 4.03225794e-03, 6.62442390e-03, 6.04838692e-03,
          5.47235040e-03, 6.91244239e-03, 8.06451589e-03, 4.89631342e-03,
          8.35253485e-03, 6.91244239e-03, 6.33640541e-03, 7.48847937e-03,
          3.74423969e-03, 7.20046088e-03, 8.64055287e-03, 5.76036889e-03,
          6.04838692e-03, 5.76036889e-03, 6.62442390e-03, 6.04838692e-03,
          2.88018445e-03, 4.89631342e-03, 4.89631342e-03, 9.79262684e-03,
          4.32027644e-03, 4.89631342e-03, 8.06451589e-03, 5.76036889e-03,
          6.91244239e-03, 1.03686638e-02, 2.59216595e-03, 4.60829493e-03,
          8.06451589e-03, 7.77649786e-03, 6.62442390e-03, 5.76036889e-03,
          3.74423969e-03, 5.76036889e-03, 8.64055287e-03, 4.32027644e-03,
          5.18433191e-03, 6.91244239e-03, 6.91244239e-03, 5.76036889e-03,
          6.62442390e-03, 3.45622119e-03, 5.18433191e-03, 7.20046088e-03,
          4.60829493e-03, 6.33640541e-03, 6.33640541e-03, 6.04838692e-03,
          3.16820270e-03, 7.48847937e-03, 4.60829493e-03, 4.60829493e-03,
          6.62442390e-03, 6.33640541e-03, 5.76036889e-03, 5.76036889e-03,
          6.62442390e-03, 4.32027644e-03, 5.18433191e-03, 6.33640541e-03,
          5.76036889e-03, 8.06451589e-03, 5.76036889e-03, 4.60829493e-03,
          5.47235040e-03, 5.18433191e-03, 4.32027644e-03, 3.16820270e-03,
          7.20046088e-03, 1.06566818e-02, 6.62442390e-03, 6.33640541e-03,
          1.15207373e-03, 6.91244239e-03, 7.48847937e-03, 7.48847937e-03,
          6.62442390e-03, 8.06451589e-03, 7.20046088e-03, 7.20046088e-03,
          8.06451589e-03, 4.03225794e-03, 6.33640541e-03, 3.74423969e-03,
          8.35253485e-03, 8.35253485e-03, 8.06451589e-03, 6.04838692e-03,
          5.76036889e-03, 4.60829493e-03, 7.77649786e-03, 6.33640541e-03,
          5.18433191e-03, 5.18433191e-03, 9.50460788e-03, 6.33640541e-03,
          7.77649786e-03, 7.48847937e-03, 7.77649786e-03, 5.18433191e-03,
          6.33640541e-03, 7.77649786e-03, 5.76036889e-03, 4.89631342e-03,
          6.91244239e-03, 6.62442390e-03, 4.89631342e-03, 7.20046088e-03,
          5.76036889e-03, 6.04838692e-03, 5.18433191e-03, 5.18433191e-03,
          4.03225794e-03, 6.62442390e-03, 6.91244239e-03, 4.89631342e-03,
          7.77649786e-03, 5.18433191e-03, 9.50460788e-03, 8.35253485e-03,
          7.48847937e-03, 7.48847937e-03, 5.76036889e-03, 6.62442390e-03,
          8.06451589e-03, 5.47235040e-03, 6.62442390e-03, 3.16820270e-03,
          5.47235040e-03, 6.62442390e-03, 4.60829493e-03, 6.33640541e-03,
          9.50460788e-03, 6.62442390e-03, 6.62442390e-03, 6.33640541e-03,
          8.35253485e-03, 7.48847937e-03, 7.77649786e-03, 2.88018445e-03,
          6.33640541e-03, 5.18433191e-03, 5.76036889e-03, 6.04838692e-03,
          3.16820270e-03, 7.77649786e-03, 7.77649786e-03, 4.89631342e-03,
          1.03686638e-02, 8.35253485e-03, 7.48847937e-03, 6.91244239e-03,
          6.33640541e-03, 5.76036889e-03, 4.89631342e-03, 6.91244239e-03 ]
      - [ 5.02809789e-03, 5.91540942e-03, 7.09849130e-03, 7.69003201e-03,
          5.32386824e-03, 1.03519661e-02, 5.91540942e-03, 1.18308188e-03,
          7.39426166e-03, 6.80272095e-03, 5.61963907e-03, 6.21117977e-03,
          3.54924565e-03, 6.80272095e-03, 6.80272095e-03, 7.09849130e-03,
          8.28157365e-03, 4.73232754e-03, 5.02809789e-03, 8.28157365e-03,
          2.66193412e-03, 4.43655718e-03, 4.43655718e-03, 8.28157365e-03,
          5.02809789e-03, 8.28157365e-03, 7.69003201e-03, 9.16888472e-03,
          6.21117977e-03, 8.87311436e-03, 1.18308188e-03, 2.66193412e-03,
          9.16888472e-03, 9.16888472e-03, 7.09849130e-03, 8.28157365e-03,
          6.21117977e-03, 8.28157365e-03, 7.69003201e-03, 3.54924565e-03,
          5.91540942e-03, 7.98580237e-03, 6.80272095e-03, 7.09849130e-03,
          6.80272095e-03, 5.02809789e-03, 7.69003201e-03, 2.36616377e-03,
          3.54924565e-03, 5.32386824e-03, 7.69003201e-03, 4.43655718e-03,
          7.98580237e-03, 4.14078683e-03, 6.50695059e-03, 6.80272095e-03,
          8.57734401e-03, 6.21117977e-03, 6.21117977e-03, 5.91540942e-03,
          8.87311436e-03, 3.25347530e-03, 5.91540942e-03, 5.32386824e-03,
          6.80272095e-03, 1.21265892e-02, 8.87311436e-03, 8.57734401e-03,
          5.02809789e-03, 8.28157365e-03, 5.32386824e-03, 3.84501601e-03,
          4.14078683e-03, 5.91540942e-03, 8.57734401e-03, 3.84501601e-03,
          5.91540942e-04, 1.21265892e-02, 7.09849130e-03, 3.84501601e-03,
          6.80272095e-03, 5.91540942e-03, 6.50695059e-03, 4.73232754e-03,
          5.32386824e-03, 4.43655718e-03, 6.80272095e-03, 5.61963907e-03,
          4.73232754e-03, 6.21117977e-03, 9.16888472e-03, 3.84501601e-03,
          5.91540942e-03, 5.91540942e-03, 9.16888472e-03, 5.91540942e-03,
          7.09849130e-03, 4.73232754e-03, 8.28157365e-03, 7.09849130e-03,
          5.32386824e-03, 2.95770471e-03, 7.39426166e-03, 5.61963907e-03,
          5.02809789e-03, 7.09849130e-03, 7.09849130e-03, 4.73232754e-03,
          6.50695059e-03, 9.46465507e-03, 5.32386824e-03, 5.61963907e-03,
          6.50695059e-03, 7.39426166e-03, 7.98580237e-03, 5.91540942e-03,
          8.28157365e-03, 5.91540942e-03, 6.80272095e-03, 5.02809789e-03,
          9.46465507e-03, 5.02809789e-03, 6.50695059e-03, 4.73232754e-03,
          4.73232754e-03, 4.43655718e-03, 4.14078683e-03, 4.14078683e-03,
          7.09849130e-03, 5.61963907e-03, 7.69003201e-03, 2.95770471e-03,
          6.21117977e-03, 8.57734401e-03, 7.98580237e-03, 5.32386824e-03,
          7.98580237e-03, 5.32386824e-03, 5.02809789e-03, 4.43655718e-03,
          6.50695059e-03, 5.61963907e-03, 1.06477365e-02, 4.14078683e-03,
          6.50695059e-03, 9.16888472e-03, 5.61963907e-03, 4.14078683e-03,
          3.54924565e-03, 6.50695059e-03, 5.61963907e-03, 7.39426166e-03,
          3.54924565e-03, 8.87311436e-03, 6.21117977e-03, 2.95770471e-03,
          5.91540942e-03, 6.80272095e-03, 9.76042543e-03, 7.98580237e-03 ]
      - [ 7.79293012e-03, 5.84469782e-03, 6.67965459e-03, 6.40133582e-03,
          7.51461135e-03, 8.34956858e-03, 5.28805982e-03, 4.73142182e-03,
          9.46284365e-03, 5.56637906e-03, 7.23629259e-03, 6.12301659e-03,
          5.56637906e-03, 4.73142182e-03, 4.17478429e-03, 5.28805982e-03,
          5.28805982e-03, 6.67965459e-03, 3.61814629e-03, 7.51461135e-03,
          5.56637906e-03, 4.45310306e-03, 6.12301659e-03, 5.28805982e-03,
          4.73142182e-03, 5.28805982e-03, 6.40133582e-03, 8.07124935e-03,
          8.34956858e-03, 9.74116288e-03, 1.66991365e-03, 4.45310306e-03,
          6.95797335e-03, 7.51461135e-03, 8.90620612e-03, 4.73142182e-03,
          6.67965459e-03, 5.00974106e-03, 6.40133582e-03, 6.95797335e-03,
          6.95797335e-03, 6.12301659e-03, 3.06150829e-03, 3.89646506e-03,
          7.79293012e-03, 6.12301659e-03, 5.56637906e-03, 4.73142182e-03,
          4.17478429e-03, 5.28805982e-03, 5.00974106e-03, 9.74116288e-03,
          5.84469782e-03, 6.67965459e-03, 6.67965459e-03, 5.00974106e-03,
          5.84469782e-03, 5.28805982e-03, 5.28805982e-03, 5.00974106e-03,
          5.00974106e-03, 9.46284365e-03, 6.40133582e-03, 5.56637906e-03,
          9.18452535e-03, 9.46284365e-03, 8.07124935e-03, 9.46284365e-03,
          8.90620612e-03, 5.28805982e-03, 5.84469782e-03, 6.95797335e-03,
          5.28805982e-03, 6.67965459e-03, 5.00974106e-03, 5.00974106e-03,
          1.11327576e-03, 1.02978004e-02, 3.89646506e-03, 6.67965459e-03,
          5.84469782e-03, 9.46284365e-03, 8.90620612e-03, 7.51461135e-03,
          6.95797335e-03, 5.28805982e-03, 6.40133582e-03, 3.06150829e-03,
          5.56637906e-03, 3.61814629e-03, 6.67965459e-03, 4.45310306e-03,
          4.45310306e-03, 7.23629259e-03, 5.84469782e-03, 6.40133582e-03,
          3.89646506e-03, 5.56637906e-03, 6.40133582e-03, 5.00974106e-03,
          8.90620612e-03, 4.17478429e-03, 7.23629259e-03, 6.95797335e-03,
          8.90620612e-03, 7.23629259e-03, 7.51461135e-03, 6.67965459e-03,
          3.89646506e-03, 8.07124935e-03, 6.95797335e-03, 6.95797335e-03,
          5.28805982e-03, 5.28805982e-03, 6.40133582e-03, 5.28805982e-03,
          6.40133582e-03, 5.84469782e-03, 8.34956858e-03, 5.84469782e-03,
          1.05761196e-02, 5.00974106e-03, 6.40133582e-03, 4.17478429e-03,
          8.07124935e-03, 5.56637906e-03, 5.84469782e-03, 6.40133582e-03,
          5.84469782e-03, 4.73142182e-03, 8.07124935e-03, 5.84469782e-03,
          3.89646506e-03, 5.56637906e-03, 6.67965459e-03, 7.79293012e-03,
          7.51461135e-03, 7.51461135e-03, 5.56637906e-03, 7.23629259e-03,
          4.17478429e-03, 9.46284365e-03, 4.17478429e-03, 3.33982729e-03,
          5.84469782e-03, 8.07124935e-03, 6.12301659e-03, 3.89646506e-03,
          4.45310306e-03, 5.28805982e-03, 6.12301659e-03, 5.56637906e-03,
          1.22460332e-02, 6.12301659e-03, 6.67965459e-03, 7.51461135e-03,
          5.00974106e-03, 6.95797335e-03, 7.79293012e-03, 7.23629259e-03 ]
      - [ 6.22591190e-03, 3.85413598e-03, 4.74355184e-03, 9.19063203e-03,
          8.00474361e-03, 7.41179986e-03, 7.41179986e-03, 5.63296769e-03,
          9.48710367e-03, 5.33649605e-03, 7.41179986e-03, 6.52238354e-03,
          5.33649605e-03, 3.85413598e-03, 7.41179986e-03, 6.81885565e-03,
          4.15060762e-03, 6.81885565e-03, 7.41179986e-03, 8.30121525e-03,
          2.37177592e-03, 4.44707973e-03, 7.41179986e-03, 6.52238354e-03,
          5.63296769e-03, 4.44707973e-03, 9.78357531e-03, 6.52238354e-03,
          5.33649605e-03, 7.11532775e-03, 3.55766388e-03, 5.33649605e-03,
          5.63296769e-03, 6.52238354e-03, 7.11532775e-03, 5.04002394e-03,
          5.92943979e-03, 5.33649605e-03, 5.33649605e-03, 8.00474361e-03,
          5.63296769e-03, 1.18588796e-02, 5.63296769e-03, 6.52238354e-03,
          1.00800479e-02, 3.55766388e-03, 8.30121525e-03, 7.41179986e-03,
          5.04002394e-03, 5.92943979e-03, 6.81885565e-03, 1.06729921e-02,
          3.85413598e-03, 7.41179986e-03, 7.11532775e-03, 9.48710367e-03,
          5.04002394e-03, 7.70827197e-03, 4.74355184e-03, 4.44707973e-03,
          2.07530381e-03, 8.59768782e-03, 8.59768782e-03, 6.22591190e-03,
          7.41179986e-03, 5.33649605e-03, 6.81885565e-03, 9.19063203e-03,
          8.30121525e-03, 7.41179986e-03, 9.19063203e-03, 6.81885565e-03,
          3.85413598e-03, 7.41179986e-03, 3.55766388e-03, 4.15060762e-03,
          2.37177592e-03, 7.70827197e-03, 7.11532775e-03, 3.85413598e-03,
          7.11532775e-03, 8.00474361e-03, 8.00474361e-03, 4.15060762e-03,
          6.22591190e-03, 5.04002394e-03, 4.15060762e-03, 1.77883194e-03,
          6.52238354e-03, 6.52238354e-03, 6.52238354e-03, 6.52238354e-03,
          6.22591190e-03, 5.63296769e-03, 7.11532775e-03, 3.26119177e-03,
          6.52238354e-03, 6.81885565e-03, 7.70827197e-03, 2.07530381e-03,
          9.78357531e-03, 3.85413598e-03, 5.63296769e-03, 3.55766388e-03,
          6.52238354e-03, 6.81885565e-03, 5.33649605e-03, 3.26119177e-03,
          2.37177592e-03, 6.22591190e-03, 7.41179986e-03, 9.19063203e-03,
          6.81885565e-03, 2.66824802e-03, 5.04002394e-03, 5.04002394e-03,
          6.22591190e-03, 5.04002394e-03, 7.11532775e-03, 5.63296769e-03,
          6.22591190e-03, 3.55766388e-03, 5.33649605e-03, 2.66824802e-03,
          8.00474361e-03, 8.00474361e-03, 5.92943979e-03, 5.92943979e-03,
          7.70827197e-03, 5.63296769e-03, 8.59768782e-03, 2.96471990e-03,
          4.15060762e-03, 7.11532775e-03, 9.19063203e-03, 6.52238354e-03,
          9.19063203e-03, 7.70827197e-03, 5.33649605e-03, 7.70827197e-03,
          5.04002394e-03, 6.52238354e-03, 3.55766388e-03, 4.15060762e-03,
          8.89415946e-03, 5.92943979e-03, 5.33649605e-03, 3.85413598e-03,
          4.15060762e-03, 6.52238354e-03, 5.33649605e-03, 6.81885565e-03,
          1.21553512e-02, 8.00474361e-03, 6.52238354e-03, 6.22591190e-03,
          5.92943979e-03, 7.70827197e-03, 8.30121525e-03, 1.00800479e-02 ]
      - [ 1.32625992e-03, 8.28912482e-03, 7.95755908e-03, 3.97877954e-03,
          4.97347489e-03, 7.95755908e-03, 3.31564993e-03, 2.32095481e-03,
          1.16047747e-02, 5.30503970e-03, 3.64721473e-03, 4.97347489e-03,
          2.32095481e-03, 8.62068962e-03, 8.95225443e-03, 9.28381924e-03,
          7.29442947e-03, 1.98938977e-03, 4.64190962e-03, 5.96816977e-03,
          7.62599474e-03, 1.98938977e-03, 7.95755908e-03, 1.12732090e-02,
          4.97347489e-03, 6.29973458e-03, 8.62068962e-03, 1.09416442e-02,
          4.64190962e-03, 8.28912482e-03, 3.31564981e-04, 2.98408489e-03,
          1.42572941e-02, 1.06100794e-02, 5.63660450e-03, 5.96816977e-03,
          7.95755908e-03, 8.62068962e-03, 7.62599474e-03, 3.97877954e-03,
          5.96816977e-03, 5.30503970e-03, 6.96286466e-03, 6.96286466e-03,
          8.95225443e-03, 8.28912482e-03, 7.95755908e-03, 2.32095481e-03,
          2.65251985e-03, 7.95755908e-03, 1.09416442e-02, 6.96286466e-03,
          4.97347489e-03, 5.30503970e-03, 6.29973458e-03, 2.98408489e-03,
          5.96816977e-03, 7.95755908e-03, 4.31034481e-03, 9.28381924e-03,
          9.61538404e-03, 4.31034481e-03, 5.30503970e-03, 9.28381924e-03,
          5.96816977e-03, 7.29442947e-03, 6.29973458e-03, 6.63129985e-03,
          6.29973458e-03, 5.96816977e-03, 5.30503970e-03, 3.64721473e-03,
          2.32095481e-03, 4.97347489e-03, 6.63129985e-03, 2.98408489e-03,
          9.94694885e-04, 1.12732090e-02, 1.02785146e-02, 8.28912482e-03,
          5.96816977e-03, 6.63129985e-03, 4.31034481e-03, 6.63129985e-03,
          4.97347489e-03, 6.96286466e-03, 7.95755908e-03, 2.98408489e-03,
