%YAML:1.0
---
opencv_ml_svm:
   format: 3
   svmType: C_SVC
   kernel:
      type: LINEAR
   C: 1.2500000000000000e+01
   term_criteria: { epsilon:9.9999999999999995e-07, iterations:1000 }
   var_count: 200
   class_count: 2
   class_labels: !!opencv-matrix
      rows: 2
      cols: 1
      dt: i
      data: [ -1, 1 ]
   sv_total: 1
   support_vectors:
      - [ -3.26116443e+00, 1.96966970e+00, 3.57771963e-01,
          2.27302980e+00, -4.64932108e+00, -4.27290678e+00,
          -2.15709686e+00, 4.36819315e-01, 6.53543091e+00,
          -4.72083998e+00, -5.29609871e+00, -3.26226473e+00,
          -5.98344040e+00, 6.25623822e-01, -5.73771620e+00,
          -1.37447774e+00, 4.49015284e+00, 4.67453432e+00,
          3.55338287e+00, 3.86969185e+00, 1.67882419e+00, 3.52286601e+00,
          -1.50104988e+00, -1.80031109e+00, -8.10534120e-01,
          -4.64275360e+00, -1.90277207e+00, -8.55038643e+00,
          -4.95243549e+00, -6.30483210e-01, -2.67476130e+00,
          -3.53285170e+00, 4.24739027e+00, 1.12228107e+00,
          3.05492997e+00, -3.17880535e+00, 5.67553711e+00,
          -3.43090868e+00, 1.41926146e+00, 2.09778714e+00,
          -4.45067763e-01, 6.87161732e+00, 5.39618254e+00,
          3.22964740e+00, 2.31338429e+00, 6.73012078e-01,
          -2.47303748e+00, 1.30754006e+00, -3.78328705e+00,
          -5.17387533e+00, -4.33524466e+00, -6.46838093e+00,
          -1.12797427e+00, -8.92654181e-01, -8.25865626e-01,
          6.23887062e-01, -7.14109755e+00, 1.12085450e+00,
          2.60910439e+00, -2.79384422e+00, -4.68202829e-01,
          -3.63085413e+00, -5.10044050e+00, 9.15625274e-01,
          5.02193832e+00, -5.16418314e+00, 6.67198277e+00,
          7.53833961e+00, 5.56173468e+00, -9.82558918e+00,
          2.99626994e+00, 3.57225418e+00, -3.66234612e+00,
          2.98927784e+00, 1.65596640e+00, 3.04222107e+00,
          -5.30212045e-01, 1.10002649e+00, -4.31651115e+00,
          3.26893640e+00, 1.05234423e+01, 5.90982771e+00, 2.83701825e+00,
          5.25934410e+00, 3.09536624e+00, 4.72571230e+00, 1.65354025e+00,
          -8.17326248e-01, 1.29250239e-03, 7.78606319e+00,
          -3.36757731e+00, 8.93540001e+00, 6.01538563e+00,
          -2.96607733e-01, -4.56210089e+00, 1.20929085e-01,
          5.27583313e+00, -7.35240126e+00, 3.09211397e+00,
          -7.13501883e+00, -3.64456344e+00, 6.91321671e-01,
          4.05443764e+00, 3.28933167e+00, -7.94916439e+00,
          -5.41691732e+00, -1.01922607e+00, -3.68528813e-01,
          1.34883976e+00, -4.98964691e+00, 1.11645401e+00,
          7.32667160e+00, -5.71047878e+00, 3.21948624e+00,
          -2.52343225e+00, 2.35545325e+00, 2.24164748e+00,
          7.86663175e-01, 3.00249910e+00, -2.33952832e+00,
          1.13491678e+00, 1.74183369e+00, 1.73457062e+00,
          -4.61822653e+00, 1.80815309e-01, 4.12711191e+00,
          4.59588385e+00, 2.26423478e+00, 5.97776794e+00,
          -2.48050427e+00, 3.77851248e+00, -1.19992816e+00,
          3.88163424e+00, 6.43783474e+00, 4.44578695e+00,
          -5.42001438e+00, 2.55154464e-02, 1.32299733e+00,
          3.19491673e+00, 3.53261232e+00, 1.10916691e+01,
          -2.00916147e+00, -8.32210732e+00, -1.48214889e+00,
          6.10673428e-01, -2.17934632e+00, -3.66976976e+00,
          -2.07702780e+00, 3.10698700e+00, 2.78354597e+00,
          -5.96297216e+00, -6.37726212e+00, -2.68938279e+00,
          8.23357627e-02, -3.93220806e+00, -7.81567812e-01,
          -3.29525352e+00, 1.51485205e+00, -3.69575596e+00,
          1.08122611e+00, 1.94351654e-03, -2.76412272e+00,
          -3.60826874e+00, 8.89928627e+00, -3.49955201e+00,
          -9.65001822e-01, -3.28725004e+00, -1.33111572e+00,
          -4.61093616e+00, 3.87588191e+00, 3.98921728e+00,
          3.02452207e+00, 2.22831798e+00, -3.72424078e+00,
          -7.89777470e+00, 2.43517852e+00, -1.57345748e+00,
          8.92499268e-01, 1.46722853e+00, -2.57673120e+00,
          5.10796547e-01, 1.71167944e-02, -5.74235058e+00,
          3.78267670e+00, 1.62088171e-01, -2.92014265e+00,
          -4.55398846e+00, -7.19867229e+00, 4.24525785e+00,
          -2.91839957e+00, -1.40571940e+00, -5.05244493e+00,
          1.55356646e+00, 1.61837792e+00, -2.12707773e-01,
          4.64822006e+00, 1.92506872e-02, 2.10658813e+00, 1.68330789e+00,
          -5.48335135e-01 ]
   uncompressed_sv_total: 617
   uncompressed_support_vectors:
      - [ 0., 4.76190485e-02, 0., 0., 0., 0., 0., 0., 0., 0., 0., 0., 0.,
          0., 0., 0., 0., 0., 0., 0., 0., 0., 0., 0., 0., 0., 0., 0.,
          4.76190485e-02, 0., 4.76190485e-02, 0., 0., 0., 0., 0., 0., 0.,
          0., 4.76190485e-02, 0., 0., 0., 0., 0., 0., 0., 0., 0., 0., 0.,
          0., 0., 0., 0., 0., 0., 0., 0., 1.90476194e-01, 0., 0., 0., 0.,
          0., 0., 0., 0., 0., 0., 0., 0., 0., 0., 0., 0., 0., 0., 0., 0.,
          0., 0., 0., 0., 0., 0., 0., 0., 0., 0., 0., 0., 0., 0., 0., 0.,
          0., 0., 0., 0., 0., 0., 0., 0., 0., 0., 0., 0., 0., 0., 0., 0.,
          0., 9.52380970e-02, 0., 0., 0., 0., 0., 0., 4.76190485e-02, 0.,
          0., 0., 0., 0., 2.38095239e-01, 0., 0., 0., 0., 0., 0., 0., 0.,
          0., 0., 0., 0., 0., 1.42857149e-01, 0., 4.76190485e-02, 0.,
          4.76190485e-02, 0., 0., 0., 0., 0., 0., 0., 0., 0., 0., 0., 0.,
          0., 0., 0., 0., 0., 0., 0., 0., 0., 0., 0., 0., 0., 0., 0., 0.,
          0., 0., 0., 0., 0., 0., 0., 0., 0., 0., 0., 0., 0., 0., 0., 0.,
          0., 0., 0., 0., 0., 0., 0., 0., 0., 0., 0. ]
      - [ 0., 0., 1.36986300e-02, 1.36986300e-02, 0., 1.36986300e-02, 0.,
          6.84931502e-02, 0., 0., 0., 0., 0., 0., 1.36986300e-02, 0., 0.,
          0., 2.73972601e-02, 0., 0., 0., 0., 1.36986300e-02, 0., 0., 0.,
          1.36986300e-02, 0., 0., 1.36986300e-02, 0., 0., 0., 0., 0.,
          1.36986300e-02, 0., 0., 0., 0., 0., 0., 0., 0., 5.47945201e-02,
          0., 0., 0., 0., 0., 0., 0., 0., 0., 0., 0., 0., 0.,
          1.36986300e-02, 2.73972601e-02, 0., 0., 0., 0., 0., 0., 0., 0.,
          0., 0., 0., 0., 0., 0., 0., 0., 0., 0., 0., 0., 1.36986300e-02,
          1.36986300e-02, 0., 0., 0., 0., 0., 2.73972601e-02, 0.,
          1.36986300e-02, 0., 1.36986300e-02, 0., 0., 6.84931502e-02,
          1.36986300e-02, 0., 0., 0., 0., 0., 0., 4.10958901e-02,
          2.73972601e-02, 0., 0., 0., 0., 0., 0., 0., 4.10958901e-02,
          1.36986300e-02, 0., 0., 0., 1.36986300e-02, 0., 1.36986300e-02,
          0., 0., 0., 1.36986300e-02, 0., 0., 0., 1.36986300e-02, 0., 0.,
          0., 0., 0., 0., 0., 0., 0., 0., 0., 0., 0., 0., 5.47945201e-02,
          0., 1.36986300e-02, 0., 1.36986300e-02, 0., 0., 1.36986300e-02,
          1.36986300e-02, 1.36986300e-02, 1.36986300e-02, 0., 0., 0., 0.,
          1.36986300e-02, 4.10958901e-02, 4.10958901e-02, 0.,
          1.36986300e-02, 1.36986300e-02, 0., 0., 0., 1.36986300e-02, 0.,
          1.36986300e-02, 0., 0., 0., 0., 0., 0., 0., 0., 0., 0.,
          1.36986300e-02, 1.36986300e-02, 0., 0., 0., 0., 0.,
          2.73972601e-02, 1.36986300e-02, 0., 0., 0., 0., 0., 0., 0., 0.,
          0., 0., 0., 0. ]
      - [ 3.86100379e-03, 1.93050187e-02, 3.86100379e-03, 0., 0., 0.,
          7.72200758e-03, 1.15830116e-02, 1.15830116e-02, 3.86100379e-03,
          7.72200758e-03, 3.86100379e-03, 3.86100379e-03, 3.86100379e-03,
          3.86100379e-03, 0., 3.86100379e-03, 0., 3.86100379e-03,
          1.15830116e-02, 3.86100379e-03, 7.72200758e-03, 0.,
          1.15830116e-02, 7.72200758e-03, 1.15830116e-02, 3.86100379e-03,
          1.93050187e-02, 0., 3.86100379e-03, 7.72200758e-03,
          3.86100379e-03, 3.86100379e-03, 3.86100379e-03, 3.86100379e-03,
          0., 3.86100379e-03, 0., 0., 0., 0., 7.72200758e-03, 0., 0., 0.,
          3.86100379e-03, 7.72200758e-03, 3.86100379e-03, 0.,
          1.15830116e-02, 0., 3.86100379e-03, 0., 0., 7.72200758e-03,
          3.86100379e-03, 0., 3.86100379e-03, 0., 1.15830116e-02,
          1.15830116e-02, 7.72200758e-03, 0., 7.72200758e-03, 0.,
          7.72200758e-03, 3.86100379e-03, 3.86100379e-03, 7.72200758e-03,
          0., 3.86100379e-03, 3.86100379e-03, 0., 0., 7.72200758e-03,
          3.86100379e-03, 7.72200758e-03, 0., 0., 7.72200758e-03,
          3.86100379e-03, 7.72200758e-03, 3.86100379e-03, 0.,
          7.72200758e-03, 0., 0., 7.72200758e-03, 3.86100379e-03,
          3.86100379e-03, 7.72200758e-03, 1.15830116e-02, 7.72200758e-03,
          3.86100379e-03, 3.86100379e-03, 4.63320464e-02, 0., 0.,
          7.72200758e-03, 7.72200758e-03, 3.86100379e-03, 7.72200758e-03,
          0., 0., 0., 0., 3.86100379e-03, 3.86100379e-03, 3.86100379e-03,
          3.86100379e-03, 3.86100379e-03, 7.72200758e-03, 1.93050187e-02,
          1.54440152e-02, 3.86100379e-03, 0., 3.86100379e-03,
          7.72200758e-03, 3.86100379e-03, 0., 0., 0., 3.86100379e-03,
          2.31660232e-02, 0., 1.54440152e-02, 0., 3.86100379e-03,
          3.86100379e-03, 0., 0., 0., 7.72200758e-03, 0., 0., 0.,
          1.54440152e-02, 0., 0., 1.15830116e-02, 7.72200758e-03,
          3.86100379e-03, 2.70270258e-02, 3.86100379e-03, 7.72200758e-03,
          0., 7.72200758e-03, 1.54440152e-02, 0., 0., 1.15830116e-02,
          1.54440152e-02, 1.15830116e-02, 7.72200758e-03, 3.86100379e-03,
          3.86100379e-03, 3.86100379e-03, 0., 7.72200758e-03,
          3.86100379e-03, 0., 1.54440152e-02, 3.86100379e-03,
          3.86100379e-03, 0., 0., 7.72200758e-03, 1.15830116e-02,
          7.72200758e-03, 7.72200758e-03, 7.72200758e-03, 1.15830116e-02,
          7.72200758e-03, 0., 7.72200758e-03, 3.86100379e-03,
          7.72200758e-03, 0., 7.72200758e-03, 0., 0., 3.86100379e-03, 0.,
          0., 3.86100379e-03, 1.15830116e-02, 7.72200758e-03, 0.,
          1.93050187e-02, 0., 3.86100379e-03, 0., 3.86100379e-03,
          7.72200758e-03, 3.86100379e-03, 3.86100379e-03, 3.86100379e-03,
          0., 0., 7.72200758e-03 ]
      - [ 0., 0., 0., 0., 0., 0., 0., 0., 0., 0., 0., 0., 2.08333340e-02,
          2.08333340e-02, 0., 0., 0., 0., 0., 0., 0., 0., 0.,
          2.08333340e-02, 0., 2.08333340e-02, 0., 6.25000000e-02, 0., 0.,
          0., 0., 0., 0., 0., 0., 2.08333340e-02, 0., 8.33333358e-02,
          2.08333340e-02, 0., 0., 0., 0., 0., 2.08333340e-02, 0., 0., 0.,
          0., 0., 0., 0., 0., 0., 0., 0., 0., 0., 8.33333358e-02, 0., 0.,
          0., 0., 0., 0., 0., 0., 0., 0., 0., 0., 0., 0., 0., 0., 0., 0.,
          0., 0., 0., 0., 0., 0., 0., 0., 0., 0., 0., 0., 0., 0., 0., 0.,
          0., 1.04166672e-01, 0., 0., 0., 0., 2.08333340e-02, 0., 0., 0.,
          0., 0., 0., 0., 0., 0., 0., 0., 2.08333340e-02, 6.25000000e-02,
          0., 0., 0., 0., 0., 2.08333340e-02, 2.08333340e-02, 0., 0., 0.,
          0., 0., 6.25000000e-02, 0., 0., 0., 0., 0., 0., 0., 0., 0., 0.,
          0., 0., 0., 0., 0., 1.04166672e-01, 0., 0., 0., 0., 0., 0., 0.,
          0., 2.08333340e-02, 0., 0., 0., 0., 0., 0., 2.08333340e-02,
          2.08333340e-02, 0., 2.08333340e-02, 2.08333340e-02, 0., 0., 0.,
          2.08333340e-02, 0., 0., 8.33333358e-02, 0., 0., 0., 0., 0., 0.,
          0., 0., 0., 0., 0., 0., 0., 0., 0., 0., 0., 0., 0., 0., 0., 0.,
          0., 0., 0., 0., 0., 0., 0., 0. ]
      - [ 0., 3.46153863e-02, 3.84615408e-03, 2.56410264e-03,
          1.28205132e-03, 1.28205132e-03, 8.97435937e-03, 5.12820529e-03,
          5.12820529e-03, 0., 8.97435937e-03, 1.28205132e-03,
          7.69230817e-03, 1.28205132e-03, 5.12820529e-03, 7.69230817e-03,
          3.84615408e-03, 2.56410264e-03, 5.12820529e-03, 3.84615408e-03,
          5.12820529e-03, 1.66666675e-02, 1.28205132e-03, 5.12820529e-03,
          1.28205132e-03, 3.84615408e-03, 5.12820529e-03, 5.12820529e-03,
          1.28205132e-03, 8.97435937e-03, 2.43589748e-02, 5.12820529e-03,
          2.56410264e-03, 1.28205132e-03, 3.84615408e-03, 3.84615408e-03,
          2.56410264e-03, 3.84615408e-03, 6.41025649e-03, 1.92307699e-02,
          0., 1.28205132e-03, 8.97435937e-03, 1.28205132e-03,
          5.12820529e-03, 1.15384618e-02, 0., 0., 1.28205132e-03,
          3.84615408e-03, 0., 1.28205132e-03, 2.05128212e-02, 0.,
          1.28205132e-03, 0., 5.12820529e-03, 1.28205132e-03,
          3.84615408e-03, 1.41025642e-02, 2.56410264e-03, 0.,
          1.28205132e-03, 1.28205132e-03, 6.41025649e-03, 5.12820529e-03,
          1.28205132e-03, 0., 1.28205132e-03, 7.69230817e-03,
          1.41025642e-02, 2.56410264e-03, 3.84615408e-03, 3.84615408e-03,
          0., 5.12820529e-03, 1.28205132e-03, 2.56410264e-03,
          6.41025649e-03, 6.41025649e-03, 0., 0., 8.97435937e-03,
          3.84615408e-03, 1.28205132e-03, 0., 2.56410264e-03,
          2.56410264e-03, 7.69230817e-03, 1.28205132e-03, 6.41025649e-03,
          3.84615408e-03, 1.28205132e-03, 2.56410264e-03, 5.12820529e-03,
          1.15384618e-02, 7.69230817e-03, 1.02564106e-02, 6.41025649e-03,
          6.41025649e-03, 3.84615408e-03, 2.56410264e-03, 2.56410264e-03,
          3.84615408e-03, 2.56410264e-03, 2.56410264e-03, 2.56410264e-03,
          1.28205132e-03, 6.41025649e-03, 3.84615408e-03, 2.56410264e-03,
          1.28205132e-03, 1.28205130e-02, 2.17948724e-02, 1.28205130e-02,
          1.28205132e-03, 8.97435937e-03, 3.84615408e-03, 1.15384618e-02,
          1.53846163e-02, 2.17948724e-02, 0., 2.56410264e-03,
          5.12820529e-03, 1.28205132e-03, 3.84615408e-03, 5.12820529e-03,
          5.12820529e-03, 3.84615408e-03, 6.41025649e-03, 1.28205132e-03,
          1.28205132e-03, 1.28205132e-03, 1.28205132e-03, 1.92307699e-02,
          1.28205132e-03, 3.84615408e-03, 0., 2.56410264e-03,
          1.28205132e-03, 2.05128212e-02, 8.97435937e-03, 1.53846163e-02,
          1.28205132e-03, 6.41025649e-03, 0., 6.41025649e-03,
          3.84615408e-03, 1.28205132e-03, 8.97435937e-03, 7.69230817e-03,
          1.28205130e-02, 1.53846163e-02, 2.56410264e-03, 1.28205130e-02,
          0., 0., 1.28205132e-03, 1.15384618e-02, 3.84615408e-03,
          1.28205130e-02, 0., 7.69230817e-03, 3.84615408e-03,
          2.56410264e-03, 2.56410264e-03, 3.84615408e-03, 1.28205132e-03,
          5.12820529e-03, 5.12820529e-03, 2.56410264e-03, 5.12820529e-03,
          1.28205132e-03, 1.28205132e-03, 7.69230817e-03, 2.56410264e-03,
          2.56410264e-03, 1.66666675e-02, 3.84615408e-03, 5.12820529e-03,
          2.56410264e-03, 2.56410264e-03, 2.56410264e-03, 1.28205132e-03,
          5.12820529e-03, 5.12820529e-03, 2.56410264e-03, 6.41025649e-03,
          5.12820529e-03, 5.12820529e-03, 1.28205132e-03, 3.84615408e-03,
          2.56410264e-03, 1.28205132e-03, 1.28205132e-03, 2.56410264e-03,
          7.69230817e-03, 5.12820529e-03, 1.28205132e-03, 6.41025649e-03 ]
      - [ 0., 1.33333337e-02, 0., 0., 0., 0., 1.33333337e-02,
          1.33333337e-02, 0., 1.33333337e-02, 0., 0., 0., 0., 0., 0.,
          3.99999991e-02, 0., 1.33333337e-02, 1.33333337e-02,
          1.33333337e-02, 0., 0., 1.33333337e-02, 0., 0., 0.,
          2.66666673e-02, 0., 0., 0., 0., 0., 1.33333337e-02, 0., 0.,
          1.33333337e-02, 0., 0., 0., 0., 0., 0., 0., 0., 2.66666673e-02,
          0., 0., 1.33333337e-02, 0., 0., 0., 0., 0., 0., 0., 0., 0., 0.,
          1.33333337e-02, 0., 0., 0., 1.33333337e-02, 0., 0.,
          1.33333337e-02, 0., 0., 0., 0., 2.66666673e-02, 0.,
          1.33333337e-02, 0., 0., 3.99999991e-02, 0., 0., 0., 0., 0.,
          1.33333337e-02, 0., 0., 0., 0., 0., 0., 0., 0., 1.33333337e-02,
          1.33333337e-02, 1.33333337e-02, 0., 2.66666673e-02, 0., 0.,
          1.33333337e-02, 0., 2.66666673e-02, 1.33333337e-02, 0.,
          1.33333337e-02, 1.33333337e-02, 0., 2.66666673e-02, 0., 0., 0.,
          0., 0., 1.33333337e-02, 0., 0., 1.33333337e-02, 0., 0., 0.,
          1.33333337e-02, 1.33333337e-02, 0., 0., 0., 0., 1.33333337e-02,
          1.33333337e-02, 1.33333337e-02, 0., 0., 0., 0., 0., 0.,
          1.33333337e-02, 0., 0., 0., 0., 1.33333337e-02, 0., 0.,
          3.99999991e-02, 0., 0., 0., 3.99999991e-02, 1.33333337e-02, 0.,
          0., 0., 1.33333337e-02, 0., 1.33333337e-02, 1.33333337e-02,
          1.33333337e-02, 0., 0., 0., 0., 0., 0., 1.33333337e-02, 0., 0.,
          0., 0., 0., 0., 1.33333337e-02, 2.66666673e-02, 0.,
          1.33333337e-02, 0., 0., 0., 1.33333337e-02, 5.33333346e-02, 0.,
          0., 1.33333337e-02, 0., 0., 0., 0., 0., 1.33333337e-02, 0., 0.,
          0., 0., 0., 0., 0., 0., 0., 1.33333337e-02, 0., 1.33333337e-02,
          0. ]
      - [ 0., 0., 2.02020202e-02, 5.05050505e-03, 0., 5.05050505e-03, 0.,
          2.02020202e-02, 5.05050505e-03, 0., 5.05050505e-03, 0.,
          3.53535339e-02, 5.05050505e-03, 0., 0., 1.01010101e-02, 0., 0.,
          0., 0., 0., 1.01010101e-02, 2.52525248e-02, 1.51515156e-02, 0.,
          0., 5.05050495e-02, 5.05050505e-03, 1.51515156e-02,
          5.05050505e-03, 1.01010101e-02, 0., 5.05050505e-03, 0., 0.,
          5.05050505e-03, 5.05050505e-03, 1.01010101e-02, 1.01010101e-02,
          0., 1.01010101e-02, 5.05050505e-03, 1.51515156e-02, 0.,
          2.02020202e-02, 5.05050505e-03, 0., 0., 0., 0., 0., 0., 0., 0.,
          0., 0., 0., 0., 1.51515156e-02, 0., 0., 5.05050505e-03,
          5.05050505e-03, 0., 5.05050505e-03, 0., 0., 0., 2.52525248e-02,
          1.01010101e-02, 0., 5.05050505e-03, 0., 0., 0., 5.05050505e-03,
          5.05050505e-03, 1.51515156e-02, 0., 0., 5.05050505e-03,
          5.05050505e-03, 5.05050505e-03, 5.05050505e-03, 5.05050505e-03,
          0., 5.05050505e-03, 1.01010101e-02, 0., 5.05050505e-03, 0.,
          5.05050505e-03, 5.05050505e-03, 5.05050505e-03, 1.01010101e-02,
          5.05050505e-03, 0., 1.01010101e-02, 0., 1.01010101e-02, 0., 0.,
          1.01010101e-02, 1.01010101e-02, 0., 0., 1.51515156e-02, 0., 0.,
          0., 0., 1.01010101e-02, 0., 0., 0., 5.05050505e-03, 0.,
          5.05050505e-03, 5.05050505e-03, 0., 5.05050505e-03, 0.,
          1.01010101e-02, 0., 1.01010101e-02, 5.05050505e-03,
          5.05050505e-03, 5.05050505e-03, 1.01010101e-02, 0.,
          1.01010101e-02, 0., 0., 0., 0., 0., 0., 1.01010101e-02, 0.,
          5.05050505e-03, 1.01010101e-02, 5.05050505e-03, 0.,
          5.05050505e-03, 5.05050505e-03, 0., 0., 0., 3.03030312e-02,
          1.51515156e-02, 5.05050505e-03, 1.51515156e-02, 0., 0.,
          1.01010101e-02, 0., 0., 0., 5.05050505e-03, 0., 1.51515156e-02,
          5.05050505e-03, 0., 5.05050505e-03, 1.01010101e-02,
          5.05050505e-03, 0., 5.05050505e-03, 5.05050505e-03,
          1.01010101e-02, 1.51515156e-02, 0., 0., 1.01010101e-02,
          1.01010101e-02, 5.05050505e-03, 2.02020202e-02, 0.,
          5.05050505e-03, 5.05050505e-03, 5.05050505e-03, 5.05050505e-03,
          0., 5.05050505e-03, 1.01010101e-02, 1.51515156e-02,
          5.05050505e-03, 5.05050505e-03, 2.02020202e-02, 1.01010101e-02,
          0., 0., 5.05050505e-03, 5.05050505e-03, 5.05050505e-03, 0., 0.,
          0., 0. ]
      - [ 1.52671756e-03, 1.67938937e-02, 0., 0., 3.05343512e-03,
          3.05343512e-03, 9.16030537e-03, 9.16030537e-03, 0.,
          1.52671756e-03, 0., 3.05343512e-03, 1.52671756e-03,
          2.13740468e-02, 7.63358781e-03, 4.58015269e-03, 4.58015269e-03,
          0., 1.22137405e-02, 6.10687025e-03, 3.05343512e-03,
          3.05343512e-03, 0., 3.05343512e-03, 1.52671756e-03,
          4.58015269e-03, 3.05343512e-03, 2.13740468e-02, 4.58015269e-03,
          0., 1.37404576e-02, 0., 3.05343512e-03, 4.58015269e-03,
          1.52671756e-03, 4.58015269e-03, 7.63358781e-03, 0.,
          3.05343512e-03, 1.83206107e-02, 0., 4.58015269e-03,
          4.58015269e-03, 0., 1.52671756e-03, 9.16030537e-03,
          1.52671756e-03, 3.05343512e-03, 0., 1.52671756e-03,
          1.52671756e-03, 0., 1.06870234e-02, 0., 7.63358781e-03,
          1.52671756e-03, 0., 0., 4.58015269e-03, 2.13740468e-02,
          7.63358781e-03, 1.52671756e-02, 0., 4.58015269e-03,
          3.05343512e-03, 3.05343512e-03, 1.52671756e-03, 1.52671756e-03,
          1.52671756e-03, 0., 0., 1.06870234e-02, 0., 1.52671756e-03, 0.,
          6.10687025e-03, 1.22137405e-02, 0., 1.52671756e-03,
          9.16030537e-03, 0., 3.05343512e-03, 7.63358781e-03, 0.,
          1.52671756e-03, 0., 0., 1.52671756e-03, 6.10687025e-03,
          6.10687025e-03, 0., 6.10687025e-03, 3.05343512e-03,
          4.58015269e-03, 6.10687025e-03, 1.67938937e-02, 6.10687025e-03,
          3.05343512e-03, 3.05343512e-03, 1.52671756e-03, 0.,
          3.05343512e-03, 1.52671756e-03, 4.58015269e-03, 1.06870234e-02,
          3.05343512e-03, 7.63358781e-03, 1.52671756e-03, 0.,
          6.10687025e-03, 3.05343512e-03, 4.58015269e-03, 3.05343512e-03,
          2.29007639e-02, 1.98473278e-02, 0., 7.63358781e-03,
          9.16030537e-03, 1.22137405e-02, 3.05343512e-03, 2.59541981e-02,
          0., 0., 7.63358781e-03, 3.05343512e-03, 6.10687025e-03,
          1.83206107e-02, 6.10687025e-03, 0., 4.58015269e-03,
          3.05343512e-03, 0., 3.05343512e-03, 0., 3.66412215e-02, 0.,
          3.05343512e-03, 0., 1.52671756e-03, 1.37404576e-02,
          1.83206107e-02, 1.52671756e-03, 1.22137405e-02, 0.,
          3.05343512e-03, 0., 1.52671756e-03, 1.37404576e-02,
          4.58015269e-03, 0., 6.10687025e-03, 6.10687025e-03,
          9.16030537e-03, 1.22137405e-02, 1.52671756e-02, 4.58015269e-03,
          1.52671756e-03, 4.58015269e-03, 1.06870234e-02, 7.63358781e-03,
          1.67938937e-02, 9.16030537e-03, 1.52671756e-03, 0.,
          1.52671756e-03, 1.52671756e-03, 3.05343512e-03, 1.52671756e-03,
          6.10687025e-03, 3.05343512e-03, 1.52671756e-03, 7.63358781e-03,
          4.58015269e-03, 0., 0., 4.58015269e-03, 1.52671756e-02,
          2.90076341e-02, 4.58015269e-03, 4.58015269e-03, 6.10687025e-03,
          0., 0., 3.05343512e-03, 1.52671756e-03, 1.52671756e-03,
          6.10687025e-03, 0., 0., 3.05343512e-03, 3.05343512e-03,
          1.52671756e-03, 0., 7.63358781e-03, 0., 3.05343512e-03,
          1.52671756e-02, 0., 0., 7.63358781e-03 ]
      - [ 0., 7.69230798e-02, 0., 0., 0., 0., 3.84615399e-02, 0., 0., 0.,
          0., 0., 0., 0., 0., 0., 0., 0., 3.84615399e-02, 0., 0., 0., 0.,
          0., 3.84615399e-02, 0., 0., 0., 0., 0., 0., 0., 0.,
          3.84615399e-02, 0., 0., 0., 0., 0., 3.84615399e-02, 0.,
          3.84615399e-02, 0., 0., 3.84615399e-02, 0., 0., 0., 0., 0., 0.,
          0., 0., 0., 0., 0., 0., 3.84615399e-02, 0., 0., 0., 0., 0., 0.,
          0., 0., 0., 0., 0., 0., 0., 0., 0., 0., 0., 0., 0., 0., 0.,
          3.84615399e-02, 0., 0., 0., 0., 0., 0., 0., 0., 0., 0., 0., 0.,
          0., 0., 0., 0., 3.84615399e-02, 0., 0., 0., 0., 0., 0., 0., 0.,
          0., 0., 0., 3.84615399e-02, 0., 0., 0., 0., 3.84615399e-02,
          3.84615399e-02, 0., 3.84615399e-02, 0., 0., 3.84615399e-02, 0.,
          0., 0., 3.84615399e-02, 0., 0., 3.84615399e-02, 0., 0., 0., 0.,
          0., 0., 0., 0., 0., 3.84615399e-02, 0., 0., 0., 0., 0., 0., 0.,
          0., 0., 0., 0., 0., 0., 0., 0., 0., 0., 0., 0., 0., 0., 0.,
          3.84615399e-02, 0., 0., 0., 0., 0., 0., 0., 3.84615399e-02,
          3.84615399e-02, 0., 0., 0., 0., 0., 3.84615399e-02, 0., 0., 0.,
          0., 0., 0., 0., 0., 0., 3.84615399e-02, 3.84615399e-02, 0., 0.,
          0., 0., 0., 0., 0., 0., 0., 0., 0., 0., 0., 0. ]
      - [ 0., 2.05278583e-02, 0., 2.93255132e-03, 0., 2.93255132e-03,
          8.79765395e-03, 8.79765395e-03, 0., 0., 0., 8.79765395e-03,
          2.93255132e-03, 3.81231681e-02, 1.17302053e-02, 0., 0., 0.,
          1.46627566e-02, 0., 2.93255132e-03, 0., 0., 1.46627566e-02,
          1.46627566e-02, 2.93255132e-03, 0., 2.05278583e-02, 0.,
          5.86510263e-03, 5.86510263e-03, 0., 5.86510263e-03,
          1.17302053e-02, 1.17302053e-02, 5.86510263e-03, 2.93255132e-03,
          2.93255132e-03, 8.79765395e-03, 1.17302053e-02, 2.93255132e-03,
          2.93255132e-03, 0., 0., 0., 8.79765395e-03, 2.93255132e-03, 0.,
          2.93255132e-03, 0., 0., 0., 1.17302053e-02, 2.93255132e-03,
          5.86510263e-03, 0., 2.93255132e-03, 0., 0., 8.79765395e-03,
          2.93255132e-03, 8.79765395e-03, 0., 5.86510263e-03, 0.,
          5.86510263e-03, 2.93255132e-03, 0., 2.93255132e-03, 0.,
          5.86510263e-03, 0., 0., 0., 0., 2.93255132e-03, 8.79765395e-03,
          0., 0., 8.79765395e-03, 2.93255132e-03, 2.93255132e-03,
          2.93255132e-03, 2.93255132e-03, 2.93255132e-02, 0., 0.,
          5.86510263e-03, 2.93255132e-03, 0., 0., 0., 0., 5.86510263e-03,
          2.93255132e-03, 2.93255132e-02, 2.93255132e-03, 0.,
          5.86510263e-03, 0., 2.93255132e-03, 2.93255132e-03,
          2.93255132e-03, 2.93255132e-03, 1.17302053e-02, 0.,
          8.79765395e-03, 8.79765395e-03, 2.93255132e-03, 5.86510263e-03,
          2.93255132e-03, 2.93255132e-03, 8.79765395e-03, 1.75953079e-02,
          2.63929628e-02, 0., 1.17302053e-02, 2.93255132e-03,
          8.79765395e-03, 5.86510263e-03, 2.63929628e-02, 0., 0.,
          2.93255132e-03, 2.93255132e-03, 8.79765395e-03, 2.34604105e-02,
          1.75953079e-02, 0., 2.93255132e-03, 0., 0., 0., 5.86510263e-03,
          2.05278583e-02, 0., 5.86510263e-03, 0., 0., 1.46627566e-02,
          2.34604105e-02, 0., 2.34604105e-02, 2.93255132e-03,
          8.79765395e-03, 0., 1.46627566e-02, 8.79765395e-03, 0.,
          2.93255132e-03, 8.79765395e-03, 1.17302053e-02, 5.86510263e-03,
          1.17302053e-02, 1.75953079e-02, 0., 2.93255132e-03,
          2.93255132e-03, 5.86510263e-03, 2.93255132e-03, 0.,
          8.79765395e-03, 8.79765395e-03, 0., 0., 0., 0., 0., 0., 0.,
          1.17302053e-02, 0., 8.79765395e-03, 0., 0., 0., 2.34604105e-02,
          2.63929628e-02, 2.93255132e-03, 0., 5.86510263e-03, 0., 0., 0.,
          5.86510263e-03, 0., 0., 0., 0., 0., 0., 0., 0., 5.86510263e-03,
          0., 0., 5.86510263e-03, 0., 0., 5.86510263e-03 ]
      - [ 0., 1.02040814e-02, 5.10204071e-03, 0., 0., 1.53061226e-02,
          5.10204071e-03, 1.53061226e-02, 0., 0., 5.10204071e-03,
          5.10204071e-03, 0., 2.04081628e-02, 5.10204071e-03,
          1.53061226e-02, 1.02040814e-02, 5.10204071e-03, 5.10204071e-03,
          5.10204071e-03, 5.10204071e-03, 0., 0., 0., 1.02040814e-02, 0.,
          0., 3.06122452e-02, 0., 0., 0., 0., 5.10204071e-03, 0., 0.,
          5.10204071e-03, 1.02040814e-02, 5.10204071e-03, 0.,
          1.02040814e-02, 0., 5.10204071e-03, 0., 0., 2.04081628e-02,
          3.57142836e-02, 0., 5.10204071e-03, 0., 0., 0., 0.,
          2.55102031e-02, 0., 5.10204071e-03, 0., 0., 0., 0.,
          2.04081628e-02, 5.10204071e-03, 5.10204071e-03, 0.,
          5.10204071e-03, 0., 0., 1.02040814e-02, 5.10204071e-03, 0., 0.,
          0., 1.02040814e-02, 1.02040814e-02, 1.02040814e-02, 0.,
          5.10204071e-03, 0., 0., 0., 3.06122452e-02, 0., 5.10204071e-03,
          0., 0., 5.10204071e-03, 5.10204071e-03, 5.10204071e-03, 0.,
          1.02040814e-02, 5.10204071e-03, 0., 5.10204071e-03, 0., 0.,
          1.53061226e-02, 4.08163257e-02, 1.02040814e-02, 0., 0.,
          5.10204071e-03, 0., 1.53061226e-02, 0., 1.02040814e-02, 0., 0.,
          1.53061226e-02, 5.10204071e-03, 0., 1.53061226e-02,
          5.10204071e-03, 5.10204071e-03, 0., 1.02040814e-02,
          1.02040814e-02, 0., 1.02040814e-02, 5.10204071e-03,
          5.10204071e-03, 5.10204071e-03, 5.10204071e-03, 0., 0., 0., 0.,
          5.10204071e-03, 5.10204071e-03, 1.53061226e-02, 0., 0., 0.,
          5.10204071e-03, 1.02040814e-02, 1.02040814e-02, 5.10204071e-03,
          0., 5.10204071e-03, 0., 1.02040814e-02, 1.02040814e-02,
          1.53061226e-02, 0., 1.02040814e-02, 0., 1.02040814e-02,
          5.10204071e-03, 0., 0., 0., 5.10204071e-03, 5.10204071e-03,
          5.10204071e-03, 5.10204071e-03, 0., 0., 2.04081628e-02, 0., 0.,
          1.02040814e-02, 5.10204071e-03, 5.10204071e-03, 1.53061226e-02,
          1.02040814e-02, 0., 5.10204071e-03, 0., 5.10204071e-03,
          5.10204071e-03, 0., 0., 1.53061226e-02, 0., 0., 0.,
          5.10204071e-03, 0., 1.02040814e-02, 3.06122452e-02,
          5.10204071e-03, 0., 5.10204071e-03, 5.10204071e-03, 0., 0., 0.,
          0., 0., 0., 0., 5.10204071e-03, 0., 0., 5.10204071e-03,
          1.02040814e-02, 0., 5.10204071e-03, 1.53061226e-02, 0., 0., 0. ]
      - [ 4.09836043e-03, 2.04918012e-02, 1.63934417e-02, 8.19672085e-03,
          1.22950813e-02, 0., 1.63934417e-02, 8.19672085e-03, 0.,
          4.09836043e-03, 4.09836043e-03, 0., 0., 4.09836043e-03,
          4.09836043e-03, 0., 4.09836043e-03, 4.09836043e-03,
          1.22950813e-02, 4.09836043e-03, 4.09836043e-03, 0., 0.,
          1.22950813e-02, 4.09836043e-03, 1.63934417e-02, 4.09836043e-03,
          1.02459013e-01, 4.09836043e-03, 0., 8.19672085e-03, 0., 0.,
          4.09836043e-03, 0., 4.09836043e-03, 0., 0., 0., 0.,
          8.19672085e-03, 2.86885239e-02, 0., 0., 0., 1.63934417e-02,
          4.09836043e-03, 4.09836043e-03, 4.09836043e-03, 0., 0., 0., 0.,
          0., 8.19672085e-03, 0., 0., 0., 4.09836043e-03, 8.19672085e-03,
          1.22950813e-02, 0., 0., 0., 0., 0., 4.09836043e-03, 0., 0., 0.,
          0., 1.63934417e-02, 0., 0., 0., 0., 8.19672085e-03, 0.,
          8.19672085e-03, 4.09836043e-03, 0., 4.09836043e-03,
          1.63934417e-02, 0., 1.63934417e-02, 0., 4.09836043e-03, 0., 0.,
          4.09836043e-03, 0., 8.19672085e-03, 4.09836043e-03,
          8.19672085e-03, 4.09836043e-03, 2.45901626e-02, 8.19672085e-03,
          8.19672085e-03, 0., 8.19672085e-03, 4.09836043e-03,
          4.09836043e-03, 8.19672085e-03, 8.19672085e-03, 4.09836043e-03,
          0., 0., 1.22950813e-02, 0., 0., 8.19672085e-03, 4.09836043e-03,
          8.19672085e-03, 8.19672085e-03, 0., 0., 0., 0., 4.09836043e-03,
          0., 4.09836043e-03, 0., 0., 8.19672085e-03, 4.09836043e-03, 0.,
          4.09836043e-03, 4.09836043e-03, 0., 4.09836043e-03, 0.,
          8.19672085e-03, 0., 0., 0., 4.09836043e-03, 1.63934417e-02,
          4.09836043e-03, 0., 1.22950813e-02, 0., 0., 4.09836043e-03,
          4.09836043e-03, 4.09836043e-03, 0., 1.22950813e-02,
          4.09836043e-03, 0., 4.09836043e-03, 4.09836043e-03,
          1.22950813e-02, 0., 8.19672085e-03, 0., 0., 1.22950813e-02, 0.,
          4.09836043e-03, 2.45901626e-02, 4.09836043e-03, 2.04918012e-02,
          4.09836043e-03, 0., 8.19672085e-03, 0., 0., 0., 0.,
          8.19672085e-03, 2.04918012e-02, 8.19672085e-03, 2.04918012e-02,
          4.09836043e-03, 4.09836043e-03, 0., 0., 8.19672085e-03,
          4.09836043e-03, 0., 4.09836043e-03, 0., 1.22950813e-02, 0.,
          1.22950813e-02, 0., 0., 0., 0., 0., 1.63934417e-02,
          4.09836043e-03, 0., 4.09836043e-03, 4.09836043e-03,
          1.22950813e-02, 1.22950813e-02, 4.09836043e-03, 0.,
          4.09836043e-03 ]
      - [ 0., 9.45626479e-03, 7.09219836e-03, 0., 7.09219836e-03, 0.,
          7.09219836e-03, 1.18203312e-02, 0., 2.36406620e-03,
          2.36406620e-03, 4.72813239e-03, 0., 1.18203312e-02,
          7.09219836e-03, 0., 7.09219836e-03, 0., 9.45626479e-03, 0., 0.,
          0., 2.36406620e-03, 2.36406620e-03, 1.41843967e-02,
          2.36406620e-03, 2.36406620e-03, 2.60047279e-02, 0., 0.,
          4.72813239e-03, 0., 2.36406620e-03, 1.18203312e-02,
          7.09219836e-03, 7.09219836e-03, 0., 2.36406620e-03, 0.,
          7.09219836e-03, 0., 2.36406620e-03, 2.36406620e-03,
          2.36406620e-03, 2.36406620e-03, 2.36406624e-02, 0.,
          7.09219836e-03, 2.36406620e-03, 0., 4.72813239e-03, 0.,
          4.72813239e-03, 2.36406620e-03, 1.41843967e-02, 2.36406620e-03,
          0., 2.36406620e-03, 0., 2.12765951e-02, 1.18203312e-02, 0.,
          7.09219836e-03, 4.72813239e-03, 0., 4.72813239e-03,
          4.72813239e-03, 2.36406620e-03, 0., 0., 0., 4.72813239e-03,
          4.72813239e-03, 2.36406620e-03, 0., 9.45626479e-03,
          1.18203312e-02, 2.36406620e-03, 0., 7.09219836e-03, 0., 0.,
          7.09219836e-03, 0., 1.41843967e-02, 2.36406620e-03, 0.,
          4.72813239e-03, 1.41843967e-02, 7.09219836e-03, 4.72813239e-03,
          2.36406620e-03, 2.36406620e-03, 4.72813239e-03, 4.72813239e-03,
          1.89125296e-02, 7.09219836e-03, 0., 4.72813239e-03,
          4.72813239e-03, 4.72813239e-03, 1.41843967e-02, 4.72813239e-03,
          7.09219836e-03, 1.18203312e-02, 0., 2.36406620e-03,
          2.36406620e-03, 2.36406620e-03, 0., 9.45626479e-03,
          2.36406620e-03, 1.65484641e-02, 2.12765951e-02, 1.41843967e-02,
          0., 9.45626479e-03, 4.72813239e-03, 0., 0., 1.18203312e-02, 0.,
          0., 0., 0., 7.09219836e-03, 7.09219836e-03, 1.89125296e-02, 0.,
          0., 4.72813239e-03, 2.36406620e-03, 0., 2.36406620e-03,
          2.36406620e-03, 2.36406620e-03, 7.09219836e-03, 4.72813239e-03,
          4.72813239e-03, 1.18203312e-02, 2.36406620e-03, 0.,
          9.45626479e-03, 4.72813239e-03, 4.72813239e-03, 2.36406620e-03,
          7.09219836e-03, 4.72813239e-03, 0., 0., 9.45626479e-03,
          9.45626479e-03, 9.45626479e-03, 1.65484641e-02, 1.41843967e-02,
          7.09219836e-03, 0., 4.72813239e-03, 1.89125296e-02,
          1.18203312e-02, 7.09219836e-03, 0., 0., 0., 7.09219836e-03, 0.,
          4.72813239e-03, 0., 9.45626479e-03, 0., 1.65484641e-02, 0.,
          2.36406620e-03, 4.72813239e-03, 0., 4.72813239e-03,
          7.09219836e-03, 2.83687934e-02, 9.45626479e-03, 4.72813239e-03,
          7.09219836e-03, 4.72813239e-03, 0., 7.09219836e-03,
          9.45626479e-03, 0., 0., 2.36406620e-03, 2.36406620e-03, 0.,
          9.45626479e-03, 4.72813239e-03, 7.09219836e-03, 1.18203312e-02,
          0., 2.36406620e-03, 9.45626479e-03, 2.36406620e-03,
          2.36406620e-03, 2.36406620e-03 ]
      - [ 0., 0., 0., 9.90098994e-03, 0., 4.95049497e-03, 9.90098994e-03,
          4.95049497e-03, 0., 4.95049497e-03, 0., 4.95049497e-03, 0.,
          9.90098994e-03, 0., 1.98019799e-02, 4.95049497e-03,
          9.90098994e-03, 0., 4.95049497e-03, 4.95049497e-03,
          9.90098994e-03, 0., 0., 0., 9.90098994e-03, 0., 7.42574260e-02,
          0., 0., 4.95049497e-03, 4.95049497e-03, 9.90098994e-03, 0.,
          9.90098994e-03, 4.95049497e-03, 9.90098994e-03, 0.,
          4.95049497e-03, 4.95049497e-03, 0., 0., 9.90098994e-03, 0., 0.,
          0., 4.95049497e-03, 1.48514844e-02, 0., 4.95049497e-03,
          4.95049497e-03, 0., 2.97029689e-02, 0., 0., 0., 1.48514844e-02,
          0., 0., 4.95049497e-03, 0., 0., 4.95049497e-03, 1.48514844e-02,
          0., 4.95049497e-03, 1.48514844e-02, 4.95049497e-03,
          9.90098994e-03, 0., 0., 4.95049497e-03, 0., 4.95049497e-03,
          4.95049497e-03, 9.90098994e-03, 0., 0., 0., 1.98019799e-02, 0.,
          9.90098994e-03, 0., 0., 4.95049497e-03, 0., 0., 4.95049497e-03,
          0., 0., 4.95049497e-03, 0., 1.48514844e-02, 4.95049497e-03,
          4.95049497e-03, 1.48514844e-02, 0., 0., 4.95049497e-03,
          4.95049497e-03, 0., 9.90098994e-03, 0., 4.95049497e-03,
          4.95049497e-03, 9.90098994e-03, 0., 4.95049497e-03,
          1.48514844e-02, 4.95049497e-03, 9.90098994e-03, 4.95049497e-03,
          9.90098994e-03, 9.90098994e-03, 1.48514844e-02, 0.,
          1.98019799e-02, 0., 0., 0., 1.98019799e-02, 0., 0., 0.,
          4.95049497e-03, 0., 4.95049497e-03, 4.95049497e-03, 0., 0.,
          1.48514844e-02, 0., 0., 0., 3.46534662e-02, 0., 4.95049497e-03,
          0., 0., 4.95049497e-03, 0., 0., 2.47524753e-02, 0., 0., 0.,
          9.90098994e-03, 1.48514844e-02, 0., 0., 0., 9.90098994e-03,
          4.95049497e-03, 9.90098994e-03, 2.47524753e-02, 0., 0.,
          4.95049497e-03, 0., 4.95049497e-03, 4.95049497e-03,
          4.95049497e-03, 0., 4.95049497e-03, 0., 0., 9.90098994e-03,
          4.95049497e-03, 0., 4.95049497e-03, 1.48514844e-02, 0., 0.,
          9.90098994e-03, 0., 9.90098994e-03, 9.90098994e-03,
          1.98019799e-02, 9.90098994e-03, 0., 0., 4.95049497e-03,
          9.90098994e-03, 4.95049497e-03, 9.90098994e-03, 4.95049497e-03,
          4.95049497e-03, 0., 4.95049497e-03, 0., 0., 0., 0.,
          9.90098994e-03, 0., 0., 0., 0., 4.95049497e-03, 0. ]
      - [ 3.62318847e-03, 1.44927539e-02, 9.05797072e-03, 1.81159424e-03,
          1.81159424e-03, 0., 7.24637695e-03, 2.17391308e-02, 0., 0.,
          3.62318847e-03, 1.26811601e-02, 5.43478271e-03, 1.26811601e-02,
          7.24637695e-03, 1.81159424e-03, 1.81159424e-03, 1.81159424e-03,
          1.81159424e-03, 5.43478271e-03, 0., 7.24637695e-03,
          3.62318847e-03, 1.08695654e-02, 9.05797072e-03, 1.81159424e-03,
          9.05797072e-03, 3.62318829e-02, 1.81159424e-03, 5.43478271e-03,
          9.05797072e-03, 5.43478271e-03, 3.62318847e-03, 9.05797072e-03,
          1.81159424e-03, 9.05797072e-03, 1.81159424e-03, 5.43478271e-03,
          0., 1.81159424e-03, 1.81159424e-03, 9.05797072e-03,
          1.81159424e-03, 3.62318847e-03, 1.81159424e-03, 3.62318847e-03,
          0., 1.81159424e-03, 5.43478271e-03, 0., 7.24637695e-03,
          1.81159424e-03, 7.24637695e-03, 5.43478271e-03, 5.43478271e-03,
          1.81159424e-03, 7.24637695e-03, 0., 0., 7.24637695e-03,
          3.62318847e-03, 5.43478271e-03, 0., 1.81159424e-03, 0.,
          9.05797072e-03, 3.62318847e-03, 3.62318847e-03, 1.81159424e-03,
          5.43478271e-03, 0., 5.43478271e-03, 7.24637695e-03, 0.,
          1.81159424e-03, 1.81159424e-03, 1.81159424e-03, 3.62318847e-03,
          1.81159424e-03, 1.26811601e-02, 7.24637695e-03, 1.81159424e-03,
          1.81159424e-03, 1.81159424e-03, 7.24637695e-03, 3.62318847e-03,
          0., 1.81159424e-03, 3.62318847e-03, 1.81159424e-03, 0.,
          7.24637695e-03, 5.43478271e-03, 3.62318847e-03, 5.43478271e-03,
          2.17391308e-02, 5.43478271e-03, 1.08695654e-02, 1.81159424e-03,
          1.81159424e-03, 7.24637695e-03, 5.43478271e-03, 3.62318847e-03,
          7.24637695e-03, 3.62318847e-03, 7.24637695e-03, 7.24637695e-03,
          9.05797072e-03, 1.81159424e-03, 1.81159424e-03, 3.62318847e-03,
          1.08695654e-02, 9.05797072e-03, 1.44927539e-02, 1.08695654e-02,
          3.62318847e-03, 5.43478271e-03, 1.08695654e-02, 1.81159424e-03,
          1.81159424e-03, 3.62318847e-03, 3.62318847e-03, 3.62318847e-03,
          3.62318847e-03, 0., 7.24637695e-03, 1.08695654e-02,
          1.08695654e-02, 0., 0., 3.62318847e-03, 1.81159424e-03,
          1.81159424e-03, 9.05797072e-03, 9.05797072e-03, 1.81159424e-03,
          3.62318847e-03, 5.43478271e-03, 3.62318847e-03, 3.62318847e-03,
          1.81159424e-03, 0., 1.99275371e-02, 1.81159424e-03,
          3.62318847e-03, 1.81159424e-03, 3.62318847e-03, 3.62318847e-03,
          0., 1.81159424e-03, 9.05797072e-03, 1.08695654e-02,
          1.08695654e-02, 9.05797072e-03, 7.24637695e-03, 7.24637695e-03,
          7.24637695e-03, 9.05797072e-03, 5.43478271e-03, 1.81159424e-03,
          1.08695654e-02, 5.43478271e-03, 3.62318847e-03, 3.62318847e-03,
          3.62318847e-03, 0., 1.81159424e-03, 3.62318847e-03,
          9.05797072e-03, 0., 0., 3.62318847e-03, 5.43478271e-03,
          1.81159424e-03, 5.43478271e-03, 1.44927539e-02, 1.26811601e-02,
          1.81159414e-02, 3.62318847e-03, 5.43478271e-03, 1.08695654e-02,
          0., 1.81159424e-03, 0., 0., 0., 9.05797072e-03, 3.62318847e-03,
          1.81159424e-03, 1.81159424e-03, 9.05797072e-03, 5.43478271e-03,
          1.81159424e-03, 7.24637695e-03, 0., 1.81159424e-03,
          9.05797072e-03, 1.81159424e-03, 3.62318847e-03, 5.43478271e-03 ]
      - [ 7.63358781e-03, 0., 0., 0., 0., 0., 2.29007639e-02,
          7.63358781e-03, 0., 0., 0., 0., 0., 1.52671756e-02,
          7.63358781e-03, 0., 1.52671756e-02, 0., 7.63358781e-03, 0., 0.,
          0., 0., 0., 0., 0., 0., 5.34351133e-02, 0., 0., 0.,
          7.63358781e-03, 0., 0., 7.63358781e-03, 1.52671756e-02, 0.,
          2.29007639e-02, 0., 0., 0., 1.52671756e-02, 7.63358781e-03, 0.,
          7.63358781e-03, 1.52671756e-02, 0., 0., 0., 0., 0., 0., 0., 0.,
          0., 0., 0., 0., 0., 2.29007639e-02, 7.63358781e-03, 0., 0.,
          7.63358781e-03, 0., 0., 0., 0., 0., 0., 0., 7.63358781e-03,
          7.63358781e-03, 1.52671756e-02, 0., 0., 0., 0., 0., 0., 0., 0.,
          7.63358781e-03, 0., 0., 0., 0., 0., 1.52671756e-02, 0., 0., 0.,
          0., 1.52671756e-02, 3.05343512e-02, 7.63358781e-03,
          7.63358781e-03, 7.63358781e-03, 7.63358781e-03, 7.63358781e-03,
          0., 7.63358781e-03, 0., 0., 0., 0., 0., 7.63358781e-03, 0., 0.,
          2.29007639e-02, 0., 7.63358781e-03, 5.34351133e-02,
          2.29007639e-02, 0., 7.63358781e-03, 7.63358781e-03,
          3.05343512e-02, 0., 1.52671756e-02, 0., 0., 0., 7.63358781e-03,
          7.63358781e-03, 1.52671756e-02, 0., 0., 7.63358781e-03, 0., 0.,
          0., 0., 2.29007639e-02, 0., 0., 0., 0., 1.52671756e-02,
          1.52671756e-02, 0., 2.29007639e-02, 7.63358781e-03,
          1.52671756e-02, 0., 7.63358781e-03, 0., 0., 0., 0., 0.,
          1.52671756e-02, 7.63358781e-03, 7.63358781e-03, 7.63358781e-03,
          0., 1.52671756e-02, 0., 7.63358781e-03, 7.63358781e-03,
          1.52671756e-02, 0., 0., 0., 0., 0., 7.63358781e-03,
          7.63358781e-03, 0., 0., 0., 7.63358781e-03, 7.63358781e-03,
          7.63358781e-03, 0., 1.52671756e-02, 1.52671756e-02,
          7.63358781e-03, 7.63358781e-03, 7.63358781e-03, 0., 0., 0.,
          1.52671756e-02, 0., 0., 1.52671756e-02, 0., 0., 1.52671756e-02,
          0., 7.63358781e-03, 0., 0., 0., 1.52671756e-02, 0., 0.,
          1.52671756e-02 ]
      - [ 0., 1.12359552e-02, 0., 0., 2.24719103e-02, 0., 1.12359552e-02,
          1.12359552e-02, 0., 0., 0., 0., 0., 2.24719103e-02,
          1.12359552e-02, 4.49438207e-02, 1.12359552e-02, 0.,
          1.12359552e-02, 0., 1.12359552e-02, 0., 0., 0., 1.12359552e-02,
          0., 0., 3.37078646e-02, 0., 0., 0., 0., 0., 0., 0., 0.,
          1.12359552e-02, 1.12359552e-02, 0., 0., 0., 0., 2.24719103e-02,
          0., 0., 1.12359552e-02, 0., 0., 0., 0., 0., 0., 0., 0., 0., 0.,
          0., 0., 0., 1.12359552e-02, 0., 0., 0., 0., 0., 1.12359552e-02,
          0., 1.12359552e-02, 0., 0., 0., 0., 0., 0., 0., 0.,
          2.24719103e-02, 0., 0., 0., 0., 0., 1.12359552e-02, 0.,
          1.12359552e-02, 0., 0., 0., 0., 0., 0., 1.12359552e-02, 0.,
          1.12359552e-02, 2.24719103e-02, 4.49438207e-02, 0., 0.,
          1.12359552e-02, 0., 0., 0., 0., 0., 0., 0., 0., 1.12359552e-02,
          0., 0., 2.24719103e-02, 0., 2.24719103e-02, 2.24719103e-02,
          2.24719103e-02, 0., 1.12359552e-02, 0., 0., 1.12359552e-02,
          4.49438207e-02, 0., 0., 0., 1.12359552e-02, 1.12359552e-02,
          2.24719103e-02, 0., 0., 0., 1.12359552e-02, 0., 0., 0., 0., 0.,
          0., 0., 0., 0., 0., 0., 1.12359552e-02, 0., 2.24719103e-02, 0.,
          0., 1.12359552e-02, 0., 1.12359552e-02, 3.37078646e-02, 0.,
          3.37078646e-02, 1.12359552e-02, 2.24719103e-02, 0., 0., 0., 0.,
          0., 1.12359552e-02, 0., 0., 0., 0., 0., 0., 0., 0., 0., 0., 0.,
          1.12359552e-02, 0., 0., 0., 3.37078646e-02, 5.61797768e-02, 0.,
          0., 1.12359552e-02, 0., 0., 0., 0., 0., 0., 0., 0., 0., 0., 0.,
          1.12359552e-02, 1.12359552e-02, 0., 0., 0., 0., 0.,
          2.24719103e-02 ]
      - [ 0., 2.32558139e-02, 2.32558139e-03, 0., 4.65116277e-03, 0.,
          1.16279069e-02, 6.97674416e-03, 0., 2.32558139e-03,
          2.32558139e-03, 9.30232555e-03, 0., 4.65116277e-03,
          6.97674416e-03, 0., 6.97674416e-03, 4.65116277e-03,
          6.97674416e-03, 2.32558139e-03, 2.32558139e-03, 0., 0.,
          4.65116277e-03, 4.65116277e-03, 2.32558139e-03, 4.65116277e-03,
          9.30232555e-03, 2.32558139e-03, 0., 9.30232555e-03,
          4.65116277e-03, 2.32558139e-03, 6.97674416e-03, 2.32558139e-03,
          6.97674416e-03, 2.32558139e-03, 4.65116277e-03, 4.65116277e-03,
          2.32558139e-02, 0., 0., 4.65116277e-03, 0., 4.65116277e-03,
          9.30232555e-03, 2.32558139e-03, 1.16279069e-02, 1.16279069e-02,
          2.32558139e-03, 0., 0., 9.30232555e-03, 0., 4.65116277e-03, 0.,
          0., 0., 2.32558139e-03, 2.55813953e-02, 6.97674416e-03,
          4.65116277e-03, 2.32558139e-03, 0., 2.32558139e-03,
          6.97674416e-03, 2.32558139e-03, 0., 2.32558139e-03, 0.,
          6.97674416e-03, 6.97674416e-03, 4.65116277e-03, 2.32558139e-03,
          0., 9.30232555e-03, 9.30232555e-03, 0., 2.32558139e-03,
          1.16279069e-02, 2.32558139e-03, 2.32558139e-03, 2.32558139e-03,
          0., 1.16279069e-02, 4.65116277e-03, 0., 0., 4.65116277e-03,
          2.32558139e-03, 0., 9.30232555e-03, 0., 6.97674416e-03,
          4.65116277e-03, 1.39534883e-02, 9.30232555e-03, 6.97674416e-03,
          0., 2.32558139e-03, 2.32558139e-03, 6.97674416e-03,
          2.32558139e-03, 4.65116277e-03, 1.16279069e-02, 6.97674416e-03,
          2.32558139e-03, 0., 2.32558139e-03, 0., 4.65116277e-03, 0.,
          1.39534883e-02, 3.25581394e-02, 9.30232555e-03, 0.,
          4.65116277e-03, 4.65116277e-03, 6.97674416e-03, 2.32558139e-03,
          4.41860482e-02, 2.32558139e-03, 0., 4.65116277e-03, 0.,
          9.30232555e-03, 2.79069766e-02, 4.65116277e-03, 0.,
          2.32558139e-03, 2.32558139e-03, 0., 0., 2.32558139e-03,
          2.09302325e-02, 2.32558139e-03, 4.65116277e-03, 0.,
          2.32558139e-03, 6.97674416e-03, 1.62790697e-02, 0.,
          3.02325580e-02, 2.32558139e-03, 1.16279069e-02, 6.97674416e-03,
          0., 6.97674416e-03, 2.32558139e-03, 2.32558139e-03,
          2.32558139e-03, 9.30232555e-03, 1.62790697e-02, 6.97674416e-03,
          6.97674416e-03, 9.30232555e-03, 4.65116277e-03, 2.32558139e-03,
          1.39534883e-02, 9.30232555e-03, 4.65116277e-03, 1.39534883e-02,
          2.32558139e-03, 0., 0., 0., 2.32558139e-03, 2.32558139e-03,
          4.65116277e-03, 0., 6.97674416e-03, 2.32558139e-03,
          6.97674416e-03, 0., 0., 2.32558139e-03, 2.32558139e-03,
          2.32558139e-02, 9.30232555e-03, 4.65116277e-03, 2.32558139e-03,
          0., 4.65116277e-03, 4.65116277e-03, 1.39534883e-02, 0.,
          2.32558139e-03, 2.32558139e-03, 0., 0., 0., 0., 2.32558139e-03,
          6.97674416e-03, 0., 0., 6.97674416e-03, 2.32558139e-03, 0., 0. ]
      - [ 1.14942528e-02, 1.14942528e-02, 0., 0., 0., 0., 0., 0., 0., 0.,
          1.14942528e-02, 0., 0., 2.29885057e-02, 2.29885057e-02, 0.,
          1.14942528e-02, 0., 1.14942528e-02, 0., 3.44827585e-02, 0., 0.,
          0., 0., 0., 0., 0., 0., 0., 0., 0., 1.14942528e-02, 0.,
          2.29885057e-02, 0., 0., 0., 0., 0., 0., 1.14942528e-02,
          1.14942528e-02, 0., 1.14942528e-02, 0., 0., 0., 1.14942528e-02,
          1.14942528e-02, 0., 0., 0., 1.14942528e-02, 1.14942528e-02, 0.,
          1.14942528e-02, 0., 0., 0., 0., 0., 0., 0., 0., 0.,
          1.14942528e-02, 0., 1.14942528e-02, 2.29885057e-02, 0.,
          2.29885057e-02, 0., 0., 0., 0., 2.29885057e-02, 0., 0., 0., 0.,
          0., 0., 0., 1.14942528e-02, 0., 0., 0., 0., 0., 0., 0., 0.,
          4.59770113e-02, 2.29885057e-02, 0., 0., 1.14942528e-02,
          5.74712642e-02, 0., 2.29885057e-02, 0., 1.14942528e-02, 0., 0.,
          0., 0., 1.14942528e-02, 2.29885057e-02, 0., 0., 0., 0., 0.,
          2.29885057e-02, 1.14942528e-02, 1.14942528e-02, 0.,
          1.14942528e-02, 0., 2.29885057e-02, 0., 0., 0., 0., 0., 0., 0.,
          0., 0., 0., 0., 0., 0., 1.14942528e-02, 0., 0., 1.14942528e-02,
          0., 2.29885057e-02, 0., 0., 1.14942528e-02, 0., 0., 0.,
          1.14942528e-02, 1.14942528e-02, 0., 0., 1.14942528e-02,
          1.14942528e-02, 0., 1.14942528e-02, 4.59770113e-02,
          1.14942528e-02, 0., 1.14942528e-02, 1.14942528e-02,
          1.14942528e-02, 0., 1.14942528e-02, 0., 1.14942528e-02, 0., 0.,
          0., 0., 1.14942528e-02, 0., 0., 0., 0., 0., 1.14942528e-02, 0.,
          2.29885057e-02, 3.44827585e-02, 0., 0., 0., 0., 0.,
          1.14942528e-02, 0., 0., 0., 0., 0., 0., 0., 0., 0.,
          1.14942528e-02, 0., 1.14942528e-02, 0., 0., 0., 0. ]
      - [ 0., 0., 0., 0., 0., 0., 0., 0., 0., 0., 0., 0., 0., 0., 0., 1.,
          0., 0., 0., 0., 0., 0., 0., 0., 0., 0., 0., 0., 0., 0., 0., 0.,
          0., 0., 0., 0., 0., 0., 0., 0., 0., 0., 0., 0., 0., 0., 0., 0.,
          0., 0., 0., 0., 0., 0., 0., 0., 0., 0., 0., 0., 0., 0., 0., 0.,
          0., 0., 0., 0., 0., 0., 0., 0., 0., 0., 0., 0., 0., 0., 0., 0.,
          0., 0., 0., 0., 0., 0., 0., 0., 0., 0., 0., 0., 0., 0., 0., 0.,
          0., 0., 0., 0., 0., 0., 0., 0., 0., 0., 0., 0., 0., 0., 0., 0.,
          0., 0., 0., 0., 0., 0., 0., 0., 0., 0., 0., 0., 0., 0., 0., 0.,
          0., 0., 0., 0., 0., 0., 0., 0., 0., 0., 0., 0., 0., 0., 0., 0.,
          0., 0., 0., 0., 0., 0., 0., 0., 0., 0., 0., 0., 0., 0., 0., 0.,
          0., 0., 0., 0., 0., 0., 0., 0., 0., 0., 0., 0., 0., 0., 0., 0.,
          0., 0., 0., 0., 0., 0., 0., 0., 0., 0., 0., 0., 0., 0., 0., 0.,
          0., 0., 0., 0., 0., 0., 0., 0. ]
      - [ 0., 0., 0., 0., 0., 0., 0., 0., 0., 0., 0., 0., 0., 0., 0.,
          1.33333340e-01, 0., 0., 6.66666701e-02, 0., 0., 0., 0., 0., 0.,
          0., 0., 0., 0., 0., 0., 0., 0., 0., 0., 0., 0., 0., 0., 0., 0.,
          0., 0., 0., 0., 0., 0., 0., 0., 0., 0., 0., 0., 0., 0., 0., 0.,
          0., 0., 0., 0., 0., 0., 0., 0., 0., 0., 0., 0., 0., 0., 0., 0.,
          0., 0., 0., 0., 0., 0., 0., 0., 0., 0., 0., 0., 0., 0., 0., 0.,
          0., 0., 0., 0., 6.66666701e-02, 0., 6.66666701e-02, 0., 0., 0.,
          0., 0., 0., 0., 0., 0., 0., 0., 0., 0., 0., 0., 0.,
          2.00000018e-01, 6.66666701e-02, 0., 0., 0., 0., 0., 0.,
          6.66666701e-02, 0., 0., 0., 0., 0., 0., 0., 0., 0., 0., 0., 0.,
          0., 0., 0., 0., 0., 0., 0., 0., 0., 0., 0., 0., 0., 0., 0., 0.,
          0., 0., 0., 0., 0., 0., 6.66666701e-02, 0., 0., 0.,
          6.66666701e-02, 0., 0., 0., 0., 0., 0., 0., 0., 0., 0.,
          6.66666701e-02, 0., 0., 0., 0., 0., 0., 0., 0., 0., 0., 0., 0.,
          0., 6.66666701e-02, 0., 0., 0., 0., 0., 0., 0., 0., 0., 0., 0.,
          6.66666701e-02, 0., 0., 0. ]
      - [ 2.94550811e-03, 1.03092780e-02, 2.94550811e-03, 5.89101622e-03,
          2.94550811e-03, 4.41826228e-03, 7.36377016e-03, 8.83652456e-03,
          0., 4.41826228e-03, 4.41826228e-03, 4.41826228e-03, 0.,
          1.03092780e-02, 5.89101622e-03, 2.94550811e-03, 0.,
          4.41826228e-03, 1.47275405e-03, 2.94550811e-03, 1.47275405e-03,
          1.47275405e-03, 2.94550811e-03, 5.89101622e-03, 2.94550811e-03,
          2.94550811e-03, 1.47275405e-03, 6.33284226e-02, 2.94550811e-03,
          1.47275405e-03, 7.36377016e-03, 0., 4.41826228e-03,
          7.36377016e-03, 4.41826228e-03, 1.17820324e-02, 5.89101622e-03,
          4.41826228e-03, 2.94550811e-03, 0., 1.47275405e-03,
          1.47275405e-03, 1.47275405e-03, 2.94550811e-03, 0.,
          2.35640649e-02, 1.47275405e-03, 1.17820324e-02, 2.94550811e-03,
          4.41826228e-03, 1.47275405e-03, 2.94550811e-03, 8.83652456e-03,
          1.47275405e-03, 5.89101622e-03, 0., 1.47275405e-03,
          2.94550811e-03, 0., 1.03092780e-02, 2.94550811e-03,
          4.41826228e-03, 1.47275405e-03, 1.47275405e-03, 0.,
          5.89101622e-03, 0., 5.89101622e-03, 1.47275405e-03, 0.,
          5.89101622e-03, 8.83652456e-03, 0., 2.94550811e-03, 0.,
          1.91458035e-02, 2.94550811e-03, 0., 1.47275405e-03,
          4.41826228e-03, 0., 1.47275405e-03, 7.36377016e-03,
          1.47275405e-03, 1.17820324e-02, 2.94550811e-03, 2.94550811e-03,
          4.41826228e-03, 1.17820324e-02, 7.36377016e-03, 0.,
          5.89101622e-03, 2.94550811e-03, 7.36377016e-03, 4.41826228e-03,
          1.47275403e-02, 8.83652456e-03, 5.89101622e-03, 4.41826228e-03,
          5.89101622e-03, 1.47275405e-03, 7.36377016e-03, 5.89101622e-03,
          1.47275405e-03, 5.89101622e-03, 7.36377016e-03, 1.47275405e-03,
          4.41826228e-03, 2.94550811e-03, 7.36377016e-03, 1.47275405e-03,
          1.47275405e-03, 5.89101622e-03, 1.91458035e-02, 8.83652456e-03,
          1.47275405e-03, 5.89101622e-03, 4.41826228e-03, 1.03092780e-02,
          0., 1.47275403e-02, 0., 2.94550811e-03, 8.83652456e-03,
          2.94550811e-03, 4.41826228e-03, 1.03092780e-02, 1.17820324e-02,
          1.47275405e-03, 1.47275405e-03, 1.47275405e-03, 0.,
          1.47275405e-03, 2.94550811e-03, 1.03092780e-02, 2.94550811e-03,
          1.17820324e-02, 1.47275405e-03, 1.47275405e-03, 8.83652456e-03,
          5.89101622e-03, 0., 1.17820324e-02, 5.89101622e-03,
          1.17820324e-02, 1.47275405e-03, 1.17820324e-02, 2.94550811e-03,
          0., 2.94550811e-03, 2.94550811e-03, 1.03092780e-02,
          7.36377016e-03, 8.83652456e-03, 8.83652456e-03, 8.83652456e-03,
          2.94550811e-03, 1.47275405e-03, 1.03092780e-02, 1.17820324e-02,
          7.36377016e-03, 1.47275403e-02, 2.94550811e-03, 2.94550811e-03,
          8.83652456e-03, 1.47275405e-03, 2.94550811e-03, 1.47275405e-03,
          1.47275405e-03, 1.47275405e-03, 4.41826228e-03, 1.47275405e-03,
          2.94550811e-03, 1.47275405e-03, 1.47275405e-03, 8.83652456e-03,
          7.36377016e-03, 1.03092780e-02, 7.36377016e-03, 7.36377016e-03,
          5.89101622e-03, 0., 0., 5.89101622e-03, 7.36377016e-03,
          1.47275405e-03, 1.47275405e-03, 5.89101622e-03, 1.47275405e-03,
          0., 4.41826228e-03, 5.89101622e-03, 2.94550811e-03,
          5.89101622e-03, 1.47275405e-03, 2.94550811e-03, 1.03092780e-02,
          1.47275405e-03, 1.47275405e-03, 1.03092780e-02 ]
      - [ 4.19463078e-03, 2.51677865e-03, 3.35570471e-03, 3.35570471e-03,
          3.35570471e-03, 6.71140943e-03, 5.87248337e-03, 4.19463078e-03,
          0., 1.67785236e-03, 8.38926178e-04, 2.51677865e-03,
          5.87248337e-03, 5.87248337e-03, 7.55033549e-03, 1.84563752e-02,
          7.55033549e-03, 4.19463078e-03, 4.19463078e-03, 5.03355730e-03,
          1.51006710e-02, 1.67785236e-03, 1.17449667e-02, 5.03355730e-03,
          4.19463078e-03, 2.51677865e-03, 3.35570471e-03, 4.44630869e-02,
          8.38926178e-04, 5.87248337e-03, 8.38926178e-04, 2.51677865e-03,
          1.17449667e-02, 1.67785236e-03, 5.03355730e-03, 8.38926178e-04,
          4.19463078e-03, 3.35570471e-03, 1.67785236e-03, 2.51677865e-03,
          1.67785236e-03, 8.38926155e-03, 2.51677865e-03, 9.22818761e-03,
          3.35570471e-03, 1.34228189e-02, 3.35570471e-03, 1.67785236e-03,
          2.51677865e-03, 4.19463078e-03, 4.19463078e-03, 5.03355730e-03,
          1.67785236e-03, 1.34228189e-02, 1.67785236e-03, 5.87248337e-03,
          8.38926155e-03, 7.55033549e-03, 1.17449667e-02, 0.,
          5.03355730e-03, 3.35570471e-03, 3.35570471e-03, 3.35570471e-03,
          0., 3.35570471e-03, 7.55033549e-03, 2.51677865e-03,
          2.51677865e-03, 5.87248337e-03, 2.51677865e-03, 5.87248337e-03,
          8.38926178e-04, 7.55033549e-03, 1.84563752e-02, 2.51677865e-03,
          7.55033549e-03, 6.71140943e-03, 8.38926178e-04, 8.38926178e-04,
          5.87248337e-03, 2.51677865e-03, 1.00671146e-02, 8.38926155e-03,
          3.35570471e-03, 8.38926178e-04, 6.71140943e-03, 9.22818761e-03,
          3.35570471e-03, 0., 5.03355730e-03, 2.51677865e-03,
          8.38926155e-03, 5.03355730e-03, 1.09060407e-02, 7.55033549e-03,
          5.87248337e-03, 2.51677865e-03, 1.51006710e-02, 2.51677865e-03,
          5.03355730e-03, 3.35570471e-03, 4.19463078e-03, 5.03355730e-03,
          1.17449667e-02, 5.03355730e-03, 5.03355730e-03, 5.03355730e-03,
          1.67785231e-02, 0., 8.38926155e-03, 8.38926178e-04,
          1.42617449e-02, 1.67785236e-03, 1.17449667e-02, 4.19463078e-03,
          6.71140943e-03, 5.03355730e-03, 4.19463078e-03, 8.38926178e-04,
          5.03355730e-03, 2.51677865e-03, 3.35570471e-03, 1.67785236e-03,
          1.67785236e-03, 2.51677865e-03, 0., 8.38926178e-04,
          5.87248337e-03, 8.38926178e-04, 1.67785236e-03, 7.55033549e-03,
          5.03355730e-03, 1.67785236e-03, 7.55033549e-03, 8.38926155e-03,
          6.71140943e-03, 3.35570471e-03, 8.38926178e-04, 5.03355730e-03,
          0., 0., 1.67785236e-03, 4.19463078e-03, 1.67785236e-03,
          3.35570471e-03, 7.55033549e-03, 5.87248337e-03, 2.51677865e-03,
          8.38926178e-04, 3.35570471e-03, 0., 5.03355730e-03,
          7.55033549e-03, 3.35570471e-03, 9.22818761e-03, 2.51677865e-03,
          5.03355730e-03, 2.51677865e-03, 1.00671146e-02, 3.35570471e-03,
          8.38926155e-03, 5.87248337e-03, 3.35570471e-03, 5.03355730e-03,
          8.38926178e-04, 2.51677865e-03, 9.22818761e-03, 6.71140943e-03,
          8.38926178e-04, 5.03355730e-03, 4.19463078e-03, 5.87248337e-03,
          4.19463078e-03, 4.19463078e-03, 8.38926178e-04, 5.87248337e-03,
          8.38926155e-03, 5.03355730e-03, 2.51677865e-03, 3.35570471e-03,
          6.71140943e-03, 3.35570471e-03, 5.03355730e-03, 5.87248337e-03,
          2.51677865e-03, 1.67785236e-03, 1.67785236e-03, 9.22818761e-03,
          2.51677865e-03, 5.87248337e-03, 3.35570471e-03, 3.35570471e-03,
          6.71140943e-03, 7.55033549e-03, 0., 2.51677865e-03,
          5.03355730e-03, 1.84563752e-02, 2.51677865e-03 ]
      - [ 3.89105058e-03, 2.59403372e-03, 3.89105058e-03, 3.89105058e-03,
          1.16731515e-02, 1.29701686e-03, 5.18806744e-03, 1.29701686e-03,
          0., 3.89105058e-03, 3.89105058e-03, 1.29701686e-03,
          1.29701686e-03, 7.78210117e-03, 7.78210117e-03, 0.,
          7.78210117e-03, 1.29701686e-03, 6.48508407e-03, 3.89105058e-03,
          1.29701681e-02, 1.29701686e-03, 1.16731515e-02, 3.89105058e-03,
          3.89105058e-03, 3.89105058e-03, 2.59403372e-03, 5.31776920e-02,
          0., 2.59403372e-03, 0., 2.59403372e-03, 6.48508407e-03,
          2.59403372e-03, 0., 1.29701686e-03, 2.59403372e-03,
          6.48508407e-03, 1.29701686e-03, 2.59403372e-03, 2.59403372e-03,
          3.89105058e-03, 1.29701686e-03, 7.78210117e-03, 5.18806744e-03,
          1.03761349e-02, 2.59403372e-03, 1.29701686e-03, 5.18806744e-03,
          6.48508407e-03, 9.07911826e-03, 3.89105058e-03, 7.78210117e-03,
          6.48508407e-03, 3.89105058e-03, 6.48508407e-03, 1.29701686e-03,
          1.16731515e-02, 1.03761349e-02, 1.29701686e-03, 5.18806744e-03,
          1.29701686e-03, 3.89105058e-03, 3.89105058e-03, 0.,
          2.59403372e-03, 1.29701686e-03, 2.59403372e-03, 3.89105058e-03,
          2.59403372e-03, 1.29701686e-03, 1.29701686e-03, 1.29701686e-03,
          2.59403372e-03, 1.29701681e-02, 6.48508407e-03, 7.78210117e-03,
          3.89105058e-03, 0., 0., 5.18806744e-03, 9.07911826e-03,
          1.16731515e-02, 6.48508407e-03, 3.89105058e-03, 1.29701686e-03,
          6.48508407e-03, 6.48508407e-03, 2.59403372e-03, 0.,
          7.78210117e-03, 1.29701686e-03, 7.78210117e-03, 1.68612190e-02,
          5.18806744e-03, 9.07911826e-03, 1.03761349e-02, 5.18806744e-03,
          1.03761349e-02, 0., 1.03761349e-02, 2.59403372e-03,
          6.48508407e-03, 0., 6.48508407e-03, 1.29701686e-03,
          5.18806744e-03, 9.07911826e-03, 2.59403372e-03, 0.,
          5.18806744e-03, 2.59403372e-03, 9.07911826e-03, 0.,
          6.48508407e-03, 1.29701686e-03, 7.78210117e-03, 9.07911826e-03,
          7.78210117e-03, 3.89105058e-03, 1.29701686e-03, 0.,
          1.29701686e-03, 0., 5.18806744e-03, 3.89105058e-03, 0.,
          1.29701686e-03, 0., 6.48508407e-03, 2.59403372e-03,
          7.78210117e-03, 2.59403372e-03, 3.89105058e-03, 1.29701686e-03,
          1.16731515e-02, 1.16731515e-02, 1.29701686e-03, 2.59403372e-03,
          1.03761349e-02, 0., 0., 7.78210117e-03, 0., 0., 0.,
          1.81582365e-02, 1.03761349e-02, 5.18806744e-03, 1.29701686e-03,
          6.48508407e-03, 3.89105058e-03, 3.89105058e-03, 9.07911826e-03,
          1.03761349e-02, 6.48508407e-03, 2.59403372e-03, 1.16731515e-02,
          3.89105058e-03, 2.07522698e-02, 5.18806744e-03, 1.29701681e-02,
          1.29701686e-03, 3.89105058e-03, 0., 3.89105058e-03,
          3.89105058e-03, 6.48508407e-03, 7.78210117e-03, 0.,
          1.42671857e-02, 6.48508407e-03, 3.89105058e-03, 2.59403372e-03,
          3.89105058e-03, 1.29701686e-03, 3.89105058e-03, 1.68612190e-02,
          3.89105058e-03, 5.18806744e-03, 2.59403372e-03, 1.29701686e-03,
          3.89105058e-03, 3.89105058e-03, 1.55642023e-02, 1.29701686e-03,
          2.59403372e-03, 2.59403372e-03, 1.16731515e-02, 0.,
          1.16731515e-02, 3.89105058e-03, 6.48508407e-03, 2.59403372e-03,
          5.18806744e-03, 0., 2.59403372e-03, 3.89105058e-03,
          9.07911826e-03, 5.18806744e-03 ]
      - [ 0., 6.65778946e-03, 3.99467349e-03, 5.32623148e-03,
          6.65778946e-03, 7.98934698e-03, 2.66311574e-03, 5.32623148e-03,
          0., 0., 2.66311574e-03, 5.32623148e-03, 9.32090543e-03,
          3.99467349e-03, 1.19840205e-02, 1.73102524e-02, 1.19840205e-02,
          2.66311574e-03, 5.32623148e-03, 3.99467349e-03, 3.99467349e-03,
          0., 1.59786940e-02, 7.98934698e-03, 3.99467349e-03,
          2.66311574e-03, 2.66311574e-03, 9.32090506e-02, 0.,
          9.32090543e-03, 9.32090543e-03, 2.66311574e-03, 3.99467349e-03,
          1.33155787e-03, 1.33155787e-03, 1.33155787e-03, 0.,
          7.98934698e-03, 1.59786940e-02, 3.99467349e-03, 2.66311574e-03,
          7.98934698e-03, 2.66311574e-03, 9.32090543e-03, 2.66311574e-03,
          1.19840205e-02, 1.33155787e-03, 3.99467349e-03, 2.66311574e-03,
          3.99467349e-03, 6.65778946e-03, 0., 6.65778946e-03,
          3.99467349e-03, 1.33155787e-03, 1.33155787e-03, 6.65778946e-03,
          6.65778946e-03, 1.33155789e-02, 2.66311574e-03, 2.66311574e-03,
          0., 2.66311574e-03, 1.33155787e-03, 5.32623148e-03,
          5.32623148e-03, 2.66311574e-03, 2.66311574e-03, 3.99467349e-03,
          2.66311574e-03, 3.99467349e-03, 6.65778946e-03, 2.66311574e-03,
          1.33155787e-03, 5.32623148e-03, 2.66311574e-03, 1.19840205e-02,
          0., 0., 2.66311574e-03, 2.66311574e-03, 2.66311574e-03,
          5.32623148e-03, 6.65778946e-03, 3.99467349e-03, 1.33155787e-03,
          9.32090543e-03, 1.19840205e-02, 1.33155787e-03, 1.33155787e-03,
          5.32623148e-03, 3.99467349e-03, 2.66311574e-03, 1.19840205e-02,
          2.66311574e-03, 6.65778946e-03, 7.98934698e-03, 2.66311574e-03,
          2.66311574e-03, 3.99467349e-03, 3.99467349e-03, 1.33155787e-03,
          1.06524630e-02, 2.66311574e-03, 6.65778946e-03, 2.66311574e-03,
          2.66311574e-03, 5.32623148e-03, 3.99467349e-03, 1.33155787e-03,
          2.66311574e-03, 1.33155787e-03, 9.32090543e-03, 1.33155787e-03,
          1.33155789e-02, 3.99467349e-03, 1.33155787e-03, 3.99467349e-03,
          9.32090543e-03, 7.98934698e-03, 7.98934698e-03, 1.33155787e-03,
          2.66311574e-03, 1.33155787e-03, 2.66311574e-03, 7.98934698e-03,
          5.32623148e-03, 2.66311574e-03, 3.99467349e-03, 0.,
          3.99467349e-03, 1.33155787e-03, 5.32623148e-03, 3.99467349e-03,
          6.65778946e-03, 7.98934698e-03, 5.32623148e-03, 0.,
          3.99467349e-03, 7.98934698e-03, 7.98934698e-03, 0.,
          5.32623148e-03, 3.99467349e-03, 2.66311574e-03, 2.66311574e-03,
          1.46471364e-02, 0., 1.33155787e-03, 5.32623148e-03,
          3.99467349e-03, 0., 2.66311574e-03, 7.98934698e-03,
          3.99467349e-03, 7.98934698e-03, 1.33155787e-03, 5.32623148e-03,
          5.32623148e-03, 7.98934698e-03, 3.99467349e-03, 7.98934698e-03,
          1.33155787e-03, 5.32623148e-03, 0., 3.99467349e-03,
          2.66311574e-03, 6.65778946e-03, 1.19840205e-02, 5.32623148e-03,
          6.65778946e-03, 0., 3.99467349e-03, 0., 5.32623148e-03,
          2.66311574e-03, 9.32090543e-03, 9.32090543e-03, 5.32623148e-03,
          6.65778946e-03, 5.32623148e-03, 2.66311574e-03, 2.66311574e-03,
          7.98934698e-03, 7.98934698e-03, 1.33155787e-03, 0., 0.,
          2.66311574e-03, 3.99467349e-03, 6.65778946e-03, 1.33155787e-03,
          3.99467349e-03, 1.33155787e-03, 5.32623148e-03, 0.,
          1.33155787e-03, 3.99467349e-03, 7.98934698e-03, 2.66311574e-03 ]
      - [ 3.59897176e-03, 1.54241652e-03, 3.59897176e-03, 6.16966607e-03,
          4.62724967e-03, 9.25449934e-03, 2.57069431e-03, 3.59897176e-03,
          0., 4.11311071e-03, 5.14138862e-03, 3.59897176e-03,
          7.19794352e-03, 3.08483304e-03, 1.18251937e-02, 9.25449934e-03,
          6.68380503e-03, 3.08483304e-03, 5.14138862e-03, 4.62724967e-03,
          7.71208247e-03, 2.57069431e-03, 1.13110542e-02, 3.59897176e-03,
          4.62724967e-03, 5.14138839e-04, 1.02827768e-03, 4.37018014e-02,
          5.14138839e-04, 3.59897176e-03, 2.57069431e-03, 5.14138862e-03,
          4.11311071e-03, 3.59897176e-03, 5.65552711e-03, 3.59897176e-03,
          1.54241652e-03, 9.76863783e-03, 5.14138839e-04, 1.54241652e-03,
          2.05655536e-03, 5.14138862e-03, 3.08483304e-03, 6.68380503e-03,
          3.08483304e-03, 7.19794352e-03, 3.59897176e-03, 2.57069431e-03,
          5.14138862e-03, 4.11311071e-03, 1.13110542e-02, 5.14138862e-03,
          1.02827768e-03, 7.19794352e-03, 2.57069431e-03, 6.68380503e-03,
          6.68380503e-03, 1.02827772e-02, 1.02827772e-02, 0.,
          3.08483304e-03, 2.57069431e-03, 2.57069431e-03, 6.16966607e-03,
          0., 6.16966607e-03, 7.71208247e-03, 1.02827768e-03,
          4.62724967e-03, 9.25449934e-03, 2.05655536e-03, 2.05655536e-03,
          3.59897176e-03, 8.22622143e-03, 1.33676101e-02, 2.57069431e-03,
          9.25449934e-03, 5.14138862e-03, 1.54241652e-03, 2.57069431e-03,
          9.25449934e-03, 8.74035992e-03, 9.76863783e-03, 4.62724967e-03,
          3.59897176e-03, 3.59897176e-03, 7.19794352e-03, 1.28534706e-02,
          3.59897176e-03, 3.59897176e-03, 6.16966607e-03, 4.11311071e-03,
          7.19794352e-03, 5.65552711e-03, 1.18251937e-02, 2.57069431e-03,
          6.68380503e-03, 7.71208247e-03, 1.13110542e-02, 3.08483304e-03,
          6.16966607e-03, 3.59897176e-03, 6.16966607e-03, 2.05655536e-03,
          1.23393321e-02, 3.08483304e-03, 6.16966607e-03, 5.14138862e-03,
          7.71208247e-03, 2.57069431e-03, 1.28534706e-02, 2.57069431e-03,
          4.11311071e-03, 1.54241652e-03, 4.62724967e-03, 6.68380503e-03,
          4.11311071e-03, 4.11311071e-03, 3.59897176e-03, 1.02827768e-03,
          1.02827768e-03, 4.11311071e-03, 2.05655536e-03, 1.02827768e-03,
          6.16966607e-03, 4.11311071e-03, 0., 2.05655536e-03,
          4.11311071e-03, 2.57069431e-03, 2.05655536e-03, 6.16966607e-03,
          5.65552711e-03, 3.08483304e-03, 2.05655536e-03, 9.76863783e-03,
          7.19794352e-03, 4.11311071e-03, 2.05655536e-03, 8.22622143e-03,
          0., 2.05655536e-03, 1.54241652e-03, 2.05655536e-03,
          5.14138839e-04, 4.11311071e-03, 1.38817485e-02, 3.59897176e-03,
          4.11311071e-03, 5.14138839e-04, 4.62724967e-03, 3.08483304e-03,
          5.14138862e-03, 7.19794352e-03, 6.68380503e-03, 4.62724967e-03,
          2.57069431e-03, 8.74035992e-03, 1.54241652e-03, 1.07969157e-02,
          3.08483304e-03, 6.16966607e-03, 2.05655536e-03, 3.08483304e-03,
          3.08483304e-03, 3.59897176e-03, 5.14138862e-03, 1.18251937e-02,
          1.02827772e-02, 0., 1.07969157e-02, 4.62724967e-03,
          3.59897176e-03, 5.14138862e-03, 4.62724967e-03, 4.62724967e-03,
          1.54241652e-03, 1.07969157e-02, 3.08483304e-03, 6.68380503e-03,
          4.11311071e-03, 4.11311071e-03, 2.57069431e-03, 3.59897176e-03,
          8.22622143e-03, 3.59897176e-03, 4.11311071e-03, 1.54241652e-03,
          7.71208247e-03, 0., 6.16966607e-03, 3.59897176e-03,
          2.05655536e-03, 3.08483304e-03, 5.65552711e-03, 2.05655536e-03,
          2.05655536e-03, 4.11311071e-03, 1.07969157e-02, 5.14138862e-03 ]
      - [ 4.02414473e-03, 1.00603618e-03, 3.01810866e-03, 4.02414473e-03,
          1.71026159e-02, 1.00603616e-02, 2.01207236e-03, 6.03621732e-03,
          0., 4.02414473e-03, 1.00603618e-03, 3.01810866e-03,
          1.00603618e-03, 4.02414473e-03, 2.01207232e-02, 4.02414473e-03,
          1.20724346e-02, 0., 9.05432552e-03, 4.02414473e-03,
          8.04828946e-03, 0., 2.51509044e-02, 8.04828946e-03,
          5.03018079e-03, 2.01207236e-03, 2.01207236e-03, 9.45674032e-02,
          0., 9.05432552e-03, 0., 7.04225339e-03, 4.02414473e-03,
          5.03018079e-03, 3.01810866e-03, 6.03621732e-03, 1.00603618e-03,
          2.01207236e-03, 3.01810866e-03, 2.01207236e-03, 1.00603618e-03,
          1.00603616e-02, 3.01810866e-03, 6.03621732e-03, 3.01810866e-03,
          1.81086510e-02, 4.02414473e-03, 3.01810866e-03, 2.01207236e-03,
          4.02414473e-03, 9.05432552e-03, 0., 2.01207236e-03,
          5.03018079e-03, 4.02414473e-03, 2.01207236e-03, 0.,
          7.04225339e-03, 6.03621732e-03, 1.00603618e-03, 3.01810866e-03,
          5.03018079e-03, 3.01810866e-03, 2.01207236e-03, 0.,
          5.03018079e-03, 2.01207236e-03, 4.02414473e-03, 4.02414473e-03,
          0., 3.01810866e-03, 6.03621732e-03, 2.01207236e-03,
          7.04225339e-03, 8.04828946e-03, 3.01810866e-03, 1.00603616e-02,
          6.03621732e-03, 2.01207236e-03, 2.01207236e-03, 1.00603618e-03,
          0., 8.04828946e-03, 3.01810866e-03, 4.02414473e-03,
          4.02414473e-03, 6.03621732e-03, 7.04225339e-03, 2.01207236e-03,
          1.00603618e-03, 4.02414473e-03, 4.02414473e-03, 0.,
          1.40845068e-02, 9.05432552e-03, 8.04828946e-03, 6.03621732e-03,
          3.01810866e-03, 5.03018079e-03, 2.01207236e-03, 7.04225339e-03,
          5.03018079e-03, 1.00603616e-02, 2.01207236e-03, 1.60965789e-02,
          7.04225339e-03, 0., 1.00603616e-02, 0., 3.01810866e-03,
          8.04828946e-03, 0., 1.30784707e-02, 2.01207236e-03,
          7.04225339e-03, 5.03018079e-03, 3.01810866e-03, 2.01207236e-03,
          2.01207236e-03, 1.00603618e-03, 3.01810866e-03, 3.01810866e-03,
          2.01207236e-03, 1.00603618e-03, 2.01207236e-03, 2.01207236e-03,
          0., 4.02414473e-03, 9.05432552e-03, 2.01207236e-03,
          1.00603618e-03, 4.02414473e-03, 4.02414473e-03, 3.01810866e-03,
          3.01810866e-03, 1.00603616e-02, 4.02414473e-03, 1.00603618e-03,
          1.00603618e-03, 1.30784707e-02, 0., 0., 3.01810866e-03, 0.,
          2.01207236e-03, 1.00603618e-03, 1.00603616e-02, 3.01810866e-03,
          2.01207236e-03, 0., 6.03621732e-03, 1.00603618e-03,
          4.02414473e-03, 1.20724346e-02, 6.03621732e-03, 1.00603616e-02,
          1.00603618e-03, 7.04225339e-03, 0., 1.10663977e-02,
          1.00603618e-03, 6.03621732e-03, 2.01207236e-03, 5.03018079e-03,
          8.04828946e-03, 3.01810866e-03, 4.02414473e-03, 1.00603616e-02,
          1.00603616e-02, 0., 4.02414473e-03, 3.01810866e-03,
          5.03018079e-03, 2.01207236e-03, 1.00603618e-03, 4.02414473e-03,
          6.03621732e-03, 1.71026159e-02, 4.02414473e-03, 1.20724346e-02,
          2.01207236e-03, 2.01207236e-03, 4.02414473e-03, 5.03018079e-03,
          1.30784707e-02, 0., 2.01207236e-03, 1.00603618e-03,
          1.20724346e-02, 1.00603618e-03, 6.03621732e-03, 3.01810866e-03,
          3.01810866e-03, 1.00603618e-03, 6.03621732e-03, 3.01810866e-03,
          3.01810866e-03, 4.02414473e-03, 7.04225339e-03, 2.01207236e-03 ]
      - [ 3.37349391e-03, 6.26506004e-03, 3.37349391e-03, 2.40963860e-03,
          7.22891558e-03, 7.71084335e-03, 6.74698781e-03, 5.78313228e-03,
          9.63855418e-04, 2.40963860e-03, 4.81927721e-03, 5.30120498e-03,
          2.40963860e-03, 6.74698781e-03, 9.63855442e-03, 1.06024100e-02,
          3.85542167e-03, 1.92771084e-03, 2.40963860e-03, 6.74698781e-03,
          6.74698781e-03, 3.85542167e-03, 4.33734944e-03, 7.22891558e-03,
          6.74698781e-03, 3.37349391e-03, 7.71084335e-03, 2.12048199e-02,
          2.40963860e-03, 3.85542167e-03, 3.85542167e-03, 5.78313228e-03,
          2.40963860e-03, 4.33734944e-03, 2.40963860e-03, 5.30120498e-03,
          3.37349391e-03, 6.26506004e-03, 2.40963860e-03, 2.89156614e-03,
          3.37349391e-03, 4.81927721e-03, 5.30120498e-03, 5.78313228e-03,
          2.89156614e-03, 1.06024100e-02, 4.33734944e-03, 2.89156614e-03,
          3.37349391e-03, 9.15662665e-03, 3.85542167e-03, 5.30120498e-03,
          8.19277111e-03, 1.01204822e-02, 3.85542167e-03, 3.37349391e-03,
          7.71084335e-03, 4.33734944e-03, 2.89156614e-03, 4.33734944e-03,
          3.37349391e-03, 2.40963860e-03, 4.33734944e-03, 3.85542167e-03,
          1.44578307e-03, 2.89156614e-03, 2.40963860e-03, 1.92771084e-03,
          4.33734944e-03, 7.22891558e-03, 3.85542167e-03, 3.37349391e-03,
          3.85542167e-03, 5.78313228e-03, 1.44578312e-02, 4.33734944e-03,
          1.01204822e-02, 5.78313228e-03, 1.92771084e-03, 1.44578307e-03,
          6.26506004e-03, 6.26506004e-03, 1.01204822e-02, 5.78313228e-03,
          4.81927721e-03, 3.37349391e-03, 4.81927721e-03, 5.78313228e-03,
          5.30120498e-03, 1.92771084e-03, 6.26506004e-03, 1.92771084e-03,
          6.74698781e-03, 6.26506004e-03, 5.78313228e-03, 6.74698781e-03,
          7.22891558e-03, 6.26506004e-03, 6.26506004e-03, 5.78313228e-03,
          4.33734944e-03, 3.85542167e-03, 3.85542167e-03, 5.30120498e-03,
          8.19277111e-03, 4.33734944e-03, 3.85542167e-03, 3.37349391e-03,
          7.22891558e-03, 2.40963860e-03, 8.19277111e-03, 3.85542167e-03,
          7.71084335e-03, 6.26506004e-03, 9.15662665e-03, 3.37349391e-03,
          6.74698781e-03, 6.74698781e-03, 5.78313228e-03, 4.81927721e-03,
          4.33734944e-03, 6.26506004e-03, 2.89156614e-03, 3.37349391e-03,
          3.85542167e-03, 4.33734944e-03, 1.92771084e-03, 3.37349391e-03,
          1.92771084e-03, 4.81927721e-03, 4.33734944e-03, 4.81927721e-03,
          4.81927721e-03, 1.92771084e-03, 3.37349391e-03, 7.22891558e-03,
          3.37349391e-03, 4.81927721e-03, 1.92771084e-03, 3.85542167e-03,
          3.37349391e-03, 7.22891558e-03, 4.33734944e-03, 4.33734944e-03,
          4.33734944e-03, 3.37349391e-03, 8.19277111e-03, 6.74698781e-03,
          3.85542167e-03, 1.44578307e-03, 4.33734944e-03, 3.85542167e-03,
          4.81927721e-03, 9.63855442e-03, 6.26506004e-03, 6.74698781e-03,
          2.89156614e-03, 4.81927721e-03, 5.78313228e-03, 4.81927721e-03,
          5.30120498e-03, 1.15662646e-02, 3.37349391e-03, 4.81927721e-03,
          3.37349391e-03, 3.37349391e-03, 5.78313228e-03, 5.78313228e-03,
          4.81927721e-03, 2.89156614e-03, 3.85542167e-03, 2.89156614e-03,
          5.30120498e-03, 1.44578307e-03, 6.26506004e-03, 3.85542167e-03,
          4.33734944e-03, 8.67469888e-03, 4.33734944e-03, 5.78313228e-03,
          3.37349391e-03, 5.30120498e-03, 4.81927721e-03, 3.85542167e-03,
          3.85542167e-03, 4.33734944e-03, 7.22891558e-03, 2.89156614e-03,
          5.30120498e-03, 5.78313228e-03, 4.33734944e-03, 4.33734944e-03,
          5.30120498e-03, 1.92771084e-03, 4.81927721e-03, 4.33734944e-03,
          4.81927721e-03, 4.81927721e-03, 1.10843377e-02, 4.81927721e-03 ]
      - [ 1.43472024e-03, 4.30416083e-03, 5.73888095e-03, 4.30416083e-03,
          6.45624101e-03, 9.32568125e-03, 7.17360107e-03, 4.30416083e-03,
          0., 2.86944048e-03, 3.58680054e-03, 5.73888095e-03,
          3.58680054e-03, 6.45624101e-03, 1.14777619e-02, 4.30416083e-03,
          6.45624101e-03, 2.15208041e-03, 9.32568125e-03, 2.86944048e-03,
          1.79340038e-02, 1.43472024e-03, 6.45624101e-03, 5.73888095e-03,
          2.15208041e-03, 7.17360119e-04, 1.43472024e-03, 3.80200855e-02,
          1.43472024e-03, 7.17360107e-03, 2.86944048e-03, 2.15208041e-03,
          6.45624101e-03, 7.17360107e-03, 8.60832166e-03, 1.43472024e-03,
          0., 7.17360107e-03, 6.45624101e-03, 2.86944048e-03,
          7.17360119e-04, 7.17360107e-03, 3.58680054e-03, 4.30416083e-03,
          5.02152089e-03, 7.17360107e-03, 1.43472024e-03, 4.30416083e-03,
          1.43472024e-03, 6.45624101e-03, 1.43472024e-03, 2.86944048e-03,
          7.17360119e-04, 8.60832166e-03, 1.43472024e-03, 5.73888095e-03,
          8.60832166e-03, 1.07604014e-02, 6.45624101e-03, 7.17360119e-04,
          7.17360107e-03, 1.43472024e-03, 4.30416083e-03, 2.86944048e-03,
          0., 5.02152089e-03, 8.60832166e-03, 7.17360119e-04,
          4.30416083e-03, 6.45624101e-03, 1.43472024e-03, 7.89096113e-03,
          2.15208041e-03, 8.60832166e-03, 1.29124820e-02, 2.15208041e-03,
          1.07604014e-02, 6.45624101e-03, 2.15208041e-03, 2.15208041e-03,
          3.58680054e-03, 3.58680054e-03, 1.07604014e-02, 1.00430418e-02,
          2.86944048e-03, 7.17360119e-04, 5.73888095e-03, 1.36298425e-02,
          7.17360119e-04, 2.15208041e-03, 3.58680054e-03, 7.17360119e-04,
          3.58680054e-03, 7.89096113e-03, 9.32568125e-03, 5.02152089e-03,
          5.73888095e-03, 3.58680054e-03, 1.72166433e-02, 2.86944048e-03,
          7.89096113e-03, 3.58680054e-03, 8.60832166e-03, 1.43472024e-03,
          1.14777619e-02, 1.43472024e-03, 1.43472024e-03, 5.73888095e-03,
          8.60832166e-03, 0., 9.32568125e-03, 7.17360119e-04,
          7.17360107e-03, 7.17360119e-04, 1.43472021e-02, 1.00430418e-02,
          2.86944048e-03, 5.02152089e-03, 2.86944048e-03, 1.43472024e-03,
          4.30416083e-03, 4.30416083e-03, 1.43472024e-03, 1.43472024e-03,
          2.15208041e-03, 2.15208041e-03, 7.17360119e-04, 7.17360119e-04,
          4.30416083e-03, 1.43472024e-03, 3.58680054e-03, 9.32568125e-03,
          7.17360107e-03, 3.58680054e-03, 5.02152089e-03, 1.14777619e-02,
          7.89096113e-03, 3.58680054e-03, 7.17360119e-04, 7.89096113e-03,
          7.17360119e-04, 7.17360119e-04, 2.86944048e-03, 1.43472024e-03,
          2.15208041e-03, 4.30416083e-03, 1.07604014e-02, 8.60832166e-03,
          2.15208041e-03, 1.43472024e-03, 7.17360107e-03, 2.86944048e-03,
          2.86944048e-03, 7.17360107e-03, 8.60832166e-03, 8.60832166e-03,
          0., 6.45624101e-03, 1.43472024e-03, 1.43472021e-02,
          5.73888095e-03, 6.45624101e-03, 4.30416083e-03, 4.30416083e-03,
          4.30416083e-03, 1.43472024e-03, 3.58680054e-03, 7.17360107e-03,
          7.89096113e-03, 2.15208041e-03, 4.30416083e-03, 7.17360119e-04,
          9.32568125e-03, 1.43472024e-03, 2.15208041e-03, 4.30416083e-03,
          5.02152089e-03, 7.89096113e-03, 5.02152089e-03, 7.89096113e-03,
          3.58680054e-03, 7.17360119e-04, 2.86944048e-03, 5.73888095e-03,
          1.07604014e-02, 2.15208041e-03, 5.02152089e-03, 1.43472024e-03,
          9.32568125e-03, 5.02152089e-03, 2.15208041e-03, 2.86944048e-03,
          5.73888095e-03, 4.30416083e-03, 5.73888095e-03, 2.86944048e-03,
          1.43472024e-03, 4.30416083e-03, 1.36298425e-02, 2.86944048e-03 ]
      - [ 3.46260378e-03, 5.54016605e-03, 2.77008303e-03, 6.23268681e-03,
          1.10803321e-02, 4.84764529e-03, 8.31024908e-03, 7.61772832e-03,
          0., 2.07756227e-03, 3.46260378e-03, 1.38504151e-03,
          3.46260378e-03, 2.07756227e-03, 1.86980609e-02, 1.24653736e-02,
          8.31024908e-03, 6.92520756e-04, 6.92520756e-03, 7.61772832e-03,
          1.03878118e-02, 1.38504151e-03, 1.52354566e-02, 1.03878118e-02,
          6.92520756e-03, 3.46260378e-03, 1.38504151e-03, 4.22437675e-02,
          0., 3.46260378e-03, 0., 1.38504151e-03, 5.54016605e-03,
          4.15512454e-03, 2.77008303e-03, 1.38504151e-03, 4.15512454e-03,
          2.77008303e-03, 3.46260378e-03, 6.92520756e-04, 1.38504151e-03,
          6.92520756e-03, 4.15512454e-03, 3.46260378e-03, 4.15512454e-03,
          9.69529059e-03, 1.38504151e-03, 2.77008303e-03, 5.54016605e-03,
          5.54016605e-03, 6.92520756e-03, 3.46260378e-03, 1.38504151e-03,
          6.23268681e-03, 6.92520756e-03, 4.84764529e-03, 4.15512454e-03,
          8.31024908e-03, 8.31024908e-03, 1.38504151e-03, 5.54016605e-03,
          1.38504151e-03, 3.46260378e-03, 4.84764529e-03, 0.,
          2.77008303e-03, 1.38504151e-03, 2.07756227e-03, 3.46260378e-03,
          2.77008303e-03, 3.46260378e-03, 4.84764529e-03, 2.77008303e-03,
          6.92520756e-03, 6.92520756e-03, 8.31024908e-03, 6.92520756e-03,
          6.92520756e-03, 2.07756227e-03, 1.38504151e-03, 2.77008303e-03,
          7.61772832e-03, 8.31024908e-03, 6.23268681e-03, 9.00276937e-03,
          2.07756227e-03, 2.07756227e-03, 9.00276937e-03, 6.23268681e-03,
          6.92520756e-04, 2.07756227e-03, 3.46260378e-03, 8.31024908e-03,
          4.84764529e-03, 9.69529059e-03, 1.03878118e-02, 4.15512454e-03,
          5.54016605e-03, 7.61772832e-03, 1.38504151e-03, 1.45429354e-02,
          4.15512454e-03, 4.15512454e-03, 2.77008303e-03, 1.24653736e-02,
          2.77008303e-03, 7.61772832e-03, 2.07756227e-03, 4.15512454e-03,
          1.38504151e-03, 4.84764529e-03, 1.38504151e-03, 1.03878118e-02,
          1.38504151e-03, 1.17728524e-02, 4.15512454e-03, 7.61772832e-03,
          1.38504151e-03, 6.92520756e-03, 2.07756227e-03, 2.77008303e-03,
          2.77008303e-03, 1.38504151e-03, 1.38504151e-03, 1.38504151e-03,
          5.54016605e-03, 0., 1.38504151e-03, 4.84764529e-03,
          2.77008303e-03, 2.07756227e-03, 5.54016605e-03, 6.23268681e-03,
          2.07756227e-03, 2.77008303e-03, 1.38504151e-02, 6.92520756e-03,
          3.46260378e-03, 1.38504151e-03, 5.54016605e-03, 0.,
          6.92520756e-04, 3.46260378e-03, 1.38504151e-03, 0.,
          1.38504151e-03, 1.31578948e-02, 6.23268681e-03, 5.54016605e-03,
          0., 8.31024908e-03, 3.46260378e-03, 4.15512454e-03,
          1.24653736e-02, 9.00276937e-03, 9.69529059e-03, 2.77008303e-03,
          6.92520756e-03, 2.77008303e-03, 1.38504151e-02, 6.23268681e-03,
          9.69529059e-03, 3.46260378e-03, 4.84764529e-03, 9.00276937e-03,
          3.46260378e-03, 2.07756227e-03, 4.84764529e-03, 1.31578948e-02,
          6.92520756e-04, 4.84764529e-03, 2.77008303e-03, 3.46260378e-03,
          2.77008303e-03, 6.92520756e-04, 4.84764529e-03, 6.92520756e-03,
          8.31024908e-03, 5.54016605e-03, 4.84764529e-03, 5.54016605e-03,
          3.46260378e-03, 1.38504151e-03, 3.46260378e-03, 6.92520756e-03,
          2.07756227e-03, 6.92520756e-04, 2.77008303e-03, 4.84764529e-03,
          1.38504151e-03, 1.03878118e-02, 2.07756227e-03, 5.54016605e-03,
          5.54016605e-03, 4.84764529e-03, 4.15512454e-03, 2.07756227e-03,
          4.15512454e-03, 8.31024908e-03, 5.54016605e-03 ]
      - [ 6.48379046e-03, 3.99002479e-03, 3.49127175e-03, 4.98753088e-03,
          6.98254351e-03, 1.09725678e-02, 3.99002479e-03, 6.48379046e-03,
          0., 4.98753088e-03, 3.99002479e-03, 1.99501240e-03,
          2.49376544e-03, 2.49376544e-03, 9.47630871e-03, 1.24688279e-02,
          3.99002479e-03, 1.49625936e-03, 0., 4.48877783e-03,
          4.98753088e-03, 9.97506198e-04, 1.04738148e-02, 4.48877783e-03,
          3.49127175e-03, 3.99002479e-03, 2.99251871e-03, 4.18952592e-02,
          4.98753099e-04, 4.98753088e-03, 9.97506198e-04, 3.99002479e-03,
          3.49127175e-03, 4.48877783e-03, 2.49376544e-03, 2.49376544e-03,
          1.99501240e-03, 1.04738148e-02, 4.98753099e-04, 0.,
          2.49376544e-03, 3.49127175e-03, 3.49127175e-03, 7.48129655e-03,
          4.98753088e-03, 1.14713209e-02, 2.49376544e-03, 2.99251871e-03,
          6.98254351e-03, 7.98004959e-03, 3.99002479e-03, 2.49376544e-03,
          2.49376544e-03, 6.48379046e-03, 2.49376544e-03, 4.48877783e-03,
          1.04738148e-02, 8.97755567e-03, 9.97506175e-03, 1.99501240e-03,
          4.48877783e-03, 1.99501240e-03, 2.99251871e-03, 4.98753088e-03,
          0., 7.48129655e-03, 9.97506198e-04, 1.99501240e-03,
          5.48628392e-03, 4.48877783e-03, 9.97506198e-04, 9.97506198e-04,
          3.99002479e-03, 5.48628392e-03, 1.24688279e-02, 4.48877783e-03,
          7.48129655e-03, 8.47880263e-03, 0., 9.97506198e-04,
          5.48628392e-03, 6.98254351e-03, 7.48129655e-03, 8.97755567e-03,
          1.04738148e-02, 2.49376544e-03, 8.47880263e-03, 7.48129655e-03,
          5.48628392e-03, 2.49376544e-03, 7.98004959e-03, 4.98753088e-03,
          1.59600992e-02, 3.49127175e-03, 6.98254351e-03, 9.47630871e-03,
          2.99251871e-03, 5.98503742e-03, 4.48877783e-03, 3.49127175e-03,
          1.09725678e-02, 4.98753088e-03, 5.48628392e-03, 1.49625936e-03,
          1.44638401e-02, 1.99501240e-03, 5.98503742e-03, 5.98503742e-03,
          1.09725678e-02, 3.49127175e-03, 7.98004959e-03, 3.49127175e-03,
          9.97506175e-03, 1.99501240e-03, 4.48877783e-03, 4.48877783e-03,
          1.49625936e-03, 5.98503742e-03, 1.49625936e-03, 4.98753099e-04,
          4.98753099e-04, 1.49625936e-03, 2.49376544e-03, 2.49376544e-03,
          4.98753088e-03, 3.49127175e-03, 0., 1.99501240e-03,
          2.99251871e-03, 5.48628392e-03, 3.49127175e-03, 8.97755567e-03,
          4.98753088e-03, 1.49625936e-03, 4.98753099e-04, 1.09725678e-02,
          5.98503742e-03, 2.49376544e-03, 9.97506198e-04, 4.98753088e-03,
          0., 9.97506198e-04, 3.99002479e-03, 6.48379046e-03, 0.,
          9.97506198e-04, 1.04738148e-02, 2.99251871e-03, 4.98753088e-03,
          4.98753099e-04, 9.47630871e-03, 2.99251871e-03, 4.48877783e-03,
          5.48628392e-03, 4.98753088e-03, 2.49376544e-03, 1.99501240e-03,
          8.97755567e-03, 2.49376544e-03, 7.98004959e-03, 5.48628392e-03,
          1.34663340e-02, 5.98503742e-03, 4.48877783e-03, 3.49127175e-03,
          4.48877783e-03, 3.49127175e-03, 9.47630871e-03, 1.09725678e-02,
          9.97506198e-04, 6.98254351e-03, 4.48877783e-03, 1.49625936e-03,
          3.49127175e-03, 5.98503742e-03, 3.49127175e-03, 2.99251871e-03,
          5.48628392e-03, 4.48877783e-03, 6.48379046e-03, 5.98503742e-03,
          7.48129655e-03, 4.98753088e-03, 2.99251871e-03, 9.97506175e-03,
          1.49625936e-03, 6.98254351e-03, 2.49376544e-03, 1.09725678e-02,
          0., 4.98753088e-03, 2.49376544e-03, 6.98254351e-03,
          3.49127175e-03, 7.48129655e-03, 3.49127175e-03, 1.99501240e-03,
          6.48379046e-03, 1.24688279e-02, 2.99251871e-03 ]
      - [ 0., 5.71428565e-03, 3.80952377e-03, 1.90476188e-03,
          7.61904754e-03, 5.71428565e-03, 9.52380896e-03, 9.52380896e-03,
          0., 0., 5.71428565e-03, 0., 0., 9.52380896e-03, 1.71428565e-02,
          9.52380896e-03, 5.71428565e-03, 1.90476188e-03, 5.71428565e-03,
          0., 0., 0., 1.71428565e-02, 9.52380896e-03, 5.71428565e-03,
          5.71428565e-03, 0., 6.85714260e-02, 0., 0., 3.80952377e-03,
          3.80952377e-03, 3.80952377e-03, 1.90476188e-03, 1.90476188e-03,
          0., 1.90476188e-03, 5.71428565e-03, 3.80952377e-03,
          3.80952377e-03, 0., 1.14285713e-02, 1.90476188e-03,
          1.52380951e-02, 9.52380896e-03, 1.33333337e-02, 0., 0.,
          1.90476188e-03, 5.71428565e-03, 1.90476188e-03, 1.90476188e-03,
          1.90476188e-03, 0., 0., 3.80952377e-03, 5.71428565e-03,
          1.52380951e-02, 1.14285713e-02, 1.90476188e-03, 1.90476188e-03,
          3.80952377e-03, 0., 1.90476188e-03, 0., 5.71428565e-03, 0.,
          1.90476188e-03, 1.90476188e-03, 3.80952377e-03, 0.,
          1.14285713e-02, 1.90476188e-03, 5.71428565e-03, 1.90476188e-03,
          9.52380896e-03, 5.71428565e-03, 1.90476188e-03, 0., 0., 0.,
          7.61904754e-03, 5.71428565e-03, 5.71428565e-03, 1.90476188e-03,
          1.90476188e-03, 1.90476188e-03, 1.90476188e-03, 3.80952377e-03,
          1.90476188e-03, 7.61904754e-03, 1.90476188e-03, 1.90476188e-03,
          2.09523812e-02, 9.52380896e-03, 9.52380896e-03, 3.80952377e-03,
          9.52380896e-03, 7.61904754e-03, 7.61904754e-03, 9.52380896e-03,
          3.80952377e-03, 1.52380951e-02, 5.71428565e-03, 1.71428565e-02,
          0., 1.90476188e-03, 7.61904754e-03, 5.71428565e-03, 0.,
          5.71428565e-03, 1.90476188e-03, 1.71428565e-02, 3.80952377e-03,
          1.14285713e-02, 7.61904754e-03, 5.71428565e-03, 0.,
          3.80952377e-03, 3.80952377e-03, 1.90476188e-03, 0., 0., 0.,
          1.90476188e-03, 1.90476188e-03, 3.80952377e-03, 7.61904754e-03,
          1.90476188e-03, 5.71428565e-03, 1.90476188e-03, 5.71428565e-03,
          5.71428565e-03, 1.90476188e-03, 5.71428565e-03, 1.14285713e-02,
          9.52380896e-03, 0., 0., 9.52380896e-03, 1.90476188e-03,
          1.90476188e-03, 1.90476188e-03, 3.80952377e-03, 3.80952377e-03,
          0., 1.52380951e-02, 3.80952377e-03, 3.80952377e-03, 0., 0.,
          5.71428565e-03, 3.80952377e-03, 7.61904754e-03, 5.71428565e-03,
          1.33333337e-02, 1.90476188e-03, 1.14285713e-02, 1.90476188e-03,
          9.52380896e-03, 7.61904754e-03, 9.52380896e-03, 5.71428565e-03,
          3.80952377e-03, 3.80952377e-03, 1.90476188e-03, 0.,
          1.14285713e-02, 1.14285713e-02, 0., 1.14285713e-02,
          7.61904754e-03, 0., 0., 0., 1.90476188e-03, 1.33333337e-02,
          2.28571426e-02, 3.80952377e-03, 0., 1.90476188e-03,
          1.90476188e-03, 5.71428565e-03, 7.61904754e-03, 1.14285713e-02,
          1.90476188e-03, 0., 1.90476188e-03, 5.71428565e-03, 0.,
          3.80952377e-03, 0., 7.61904754e-03, 3.80952377e-03,
          9.52380896e-03, 0., 1.90476188e-03, 1.90476188e-03,
          3.80952377e-03, 1.90476188e-03 ]
      - [ 2.36220472e-03, 6.29921257e-03, 3.14960629e-03, 5.51181100e-03,
          6.29921257e-03, 1.02362204e-02, 3.93700786e-03, 7.08661415e-03,
          7.87401572e-04, 3.14960629e-03, 3.93700786e-03, 3.93700786e-03,
          3.93700786e-03, 3.93700786e-03, 1.10236220e-02, 9.44881886e-03,
          8.66141729e-03, 2.36220472e-03, 4.72440943e-03, 6.29921257e-03,
          1.02362204e-02, 5.51181100e-03, 7.87401572e-03, 1.18110236e-02,
          6.29921257e-03, 1.57480314e-03, 3.93700786e-03, 4.48818877e-02,
          1.57480314e-03, 1.57480314e-03, 2.36220472e-03, 3.93700786e-03,
          7.87401572e-03, 3.14960629e-03, 5.51181100e-03, 7.87401572e-04,
          7.87401572e-04, 8.66141729e-03, 2.36220472e-03, 7.87401572e-04,
          7.87401572e-04, 6.29921257e-03, 4.72440943e-03, 3.93700786e-03,
          3.93700786e-03, 1.18110236e-02, 1.57480314e-03, 2.36220472e-03,
          5.51181100e-03, 5.51181100e-03, 6.29921257e-03, 5.51181100e-03,
          3.93700786e-03, 8.66141729e-03, 1.57480314e-03, 4.72440943e-03,
          7.08661415e-03, 6.29921257e-03, 3.93700786e-03, 1.57480314e-03,
          3.14960629e-03, 5.51181100e-03, 2.36220472e-03, 3.93700786e-03,
          7.87401572e-04, 1.18110236e-02, 2.36220472e-03, 7.87401572e-04,
          3.93700786e-03, 7.87401572e-03, 0., 5.51181100e-03,
          2.36220472e-03, 1.10236220e-02, 1.10236220e-02, 7.87401572e-03,
          7.08661415e-03, 2.36220472e-03, 7.87401572e-04, 7.87401572e-04,
          4.72440943e-03, 6.29921257e-03, 1.02362204e-02, 9.44881886e-03,
          3.93700786e-03, 3.93700786e-03, 5.51181100e-03, 6.29921257e-03,
          4.72440943e-03, 7.87401572e-04, 1.02362204e-02, 0.,
          4.72440943e-03, 6.29921257e-03, 9.44881886e-03, 1.02362204e-02,
          6.29921257e-03, 7.08661415e-03, 1.25984251e-02, 2.36220472e-03,
          7.08661415e-03, 3.93700786e-03, 2.36220472e-03, 1.57480314e-03,
          1.57480314e-02, 7.87401572e-04, 3.93700786e-03, 9.44881886e-03,
          5.51181100e-03, 1.57480314e-03, 1.02362204e-02, 2.36220472e-03,
          1.02362204e-02, 1.57480314e-03, 8.66141729e-03, 7.08661415e-03,
          3.14960629e-03, 7.87401572e-04, 4.72440943e-03, 3.14960629e-03,
          7.87401572e-04, 1.57480314e-03, 1.57480314e-03, 2.36220472e-03,
          2.36220472e-03, 5.51181100e-03, 0., 2.36220472e-03,
          4.72440943e-03, 2.36220472e-03, 3.14960629e-03, 3.93700786e-03,
          5.51181100e-03, 7.87401572e-04, 2.36220472e-03, 1.02362204e-02,
          4.72440943e-03, 7.87401572e-04, 7.87401572e-04, 3.93700786e-03,
          0., 7.87401572e-04, 2.36220472e-03, 2.36220472e-03,
          1.57480314e-03, 0., 1.18110236e-02, 1.57480314e-03,
          3.93700786e-03, 2.36220472e-03, 1.33858267e-02, 3.14960629e-03,
          7.87401572e-03, 1.25984251e-02, 7.08661415e-03, 6.29921257e-03,
          3.14960629e-03, 1.02362204e-02, 1.57480314e-03, 7.08661415e-03,
          4.72440943e-03, 1.02362204e-02, 2.36220472e-03, 7.08661415e-03,
          2.36220472e-03, 2.36220472e-03, 2.36220472e-03, 1.02362204e-02,
          1.10236220e-02, 7.87401572e-04, 5.51181100e-03, 3.93700786e-03,
          7.08661415e-03, 7.87401572e-04, 2.36220472e-03, 7.87401572e-04,
          3.93700786e-03, 1.33858267e-02, 2.36220472e-03, 4.72440943e-03,
          2.36220472e-03, 2.36220472e-03, 3.93700786e-03, 1.57480314e-03,
          1.18110236e-02, 0., 2.36220472e-03, 2.36220472e-03,
          4.72440943e-03, 0., 8.66141729e-03, 3.93700786e-03,
          5.51181100e-03, 4.72440943e-03, 4.72440943e-03, 0.,
          2.36220472e-03, 7.08661415e-03, 1.33858267e-02, 5.51181100e-03 ]
      - [ 1.35226501e-03, 0., 2.02839752e-03, 5.40906005e-03,
          6.76132506e-03, 4.73292731e-03, 2.70453002e-03, 6.08519278e-03,
          0., 2.02839752e-03, 2.02839752e-03, 6.08519278e-03,
          4.05679503e-03, 4.73292731e-03, 1.41987829e-02, 1.35226501e-02,
          1.08181201e-02, 4.05679503e-03, 4.05679503e-03, 2.70453002e-03,
          1.41987829e-02, 6.76132506e-04, 1.35226501e-02, 4.05679503e-03,
          4.05679503e-03, 2.70453002e-03, 6.76132506e-04, 5.81473969e-02,
          6.76132506e-04, 6.76132506e-03, 6.76132506e-04, 4.05679503e-03,
          1.21703856e-02, 2.70453002e-03, 9.46585461e-03, 2.02839752e-03,
          6.76132506e-04, 3.38066253e-03, 7.43745733e-03, 6.76132506e-04,
          6.76132506e-04, 8.78972281e-03, 2.02839752e-03, 6.76132506e-03,
          8.11359007e-03, 4.73292731e-03, 1.35226501e-03, 3.38066253e-03,
          2.02839752e-03, 5.40906005e-03, 5.40906005e-03, 6.76132506e-04,
          2.70453002e-03, 6.08519278e-03, 2.02839752e-03, 6.76132506e-03,
          5.40906005e-03, 7.43745733e-03, 8.11359007e-03, 0.,
          5.40906005e-03, 3.38066253e-03, 1.35226501e-03, 6.76132506e-04,
          0., 7.43745733e-03, 3.38066253e-03, 2.70453002e-03,
          3.38066253e-03, 3.38066253e-03, 1.35226501e-03, 4.05679503e-03,
          6.76132506e-04, 9.46585461e-03, 1.41987829e-02, 2.02839752e-03,
          8.78972281e-03, 1.01419874e-02, 1.35226501e-03, 1.35226501e-03,
          5.40906005e-03, 2.70453002e-03, 7.43745733e-03, 1.14942528e-02,
          2.70453002e-03, 1.35226501e-03, 6.08519278e-03, 1.14942528e-02,
          2.70453002e-03, 2.02839752e-03, 1.35226501e-03, 3.38066253e-03,
          6.76132506e-03, 6.08519278e-03, 1.21703856e-02, 5.40906005e-03,
          5.40906005e-03, 4.73292731e-03, 1.55510474e-02, 1.35226501e-03,
          1.01419874e-02, 1.35226501e-03, 6.08519278e-03, 2.02839752e-03,
          1.41987829e-02, 2.02839752e-03, 8.11359007e-03, 5.40906005e-03,
          5.40906005e-03, 2.02839752e-03, 9.46585461e-03, 6.76132506e-04,
          4.73292731e-03, 6.76132506e-04, 1.14942528e-02, 8.78972281e-03,
          6.08519278e-03, 3.38066253e-03, 4.05679503e-03, 6.76132506e-04,
          1.35226501e-03, 6.76132506e-03, 2.02839752e-03, 0.,
          2.70453002e-03, 3.38066253e-03, 0., 1.35226501e-03,
          6.08519278e-03, 3.38066253e-03, 2.02839752e-03, 8.11359007e-03,
          5.40906005e-03, 3.38066253e-03, 6.76132506e-04, 1.28465174e-02,
          7.43745733e-03, 2.02839752e-03, 1.35226501e-03, 6.08519278e-03,
          0., 1.35226501e-03, 2.02839752e-03, 4.73292731e-03,
          6.76132506e-04, 2.02839752e-03, 1.41987829e-02, 5.40906005e-03,
          1.35226501e-03, 1.35226501e-03, 4.05679503e-03, 2.02839752e-03,
          3.38066253e-03, 8.11359007e-03, 8.78972281e-03, 8.11359007e-03,
          4.05679503e-03, 8.11359007e-03, 1.35226501e-03, 9.46585461e-03,
          4.05679503e-03, 4.73292731e-03, 2.70453002e-03, 8.78972281e-03,
          4.73292731e-03, 6.08519278e-03, 4.05679503e-03, 1.14942528e-02,
          4.73292731e-03, 0., 5.40906005e-03, 1.35226501e-03,
          5.40906005e-03, 3.38066253e-03, 6.08519278e-03, 2.70453002e-03,
          4.05679503e-03, 4.73292731e-03, 6.76132506e-03, 4.05679503e-03,
          4.05679503e-03, 8.11359007e-03, 1.35226501e-03, 5.40906005e-03,
          1.35226501e-02, 0., 2.70453002e-03, 2.02839752e-03,
          9.46585461e-03, 6.76132506e-04, 3.38066253e-03, 4.05679503e-03,
          9.46585461e-03, 1.35226501e-03, 3.38066253e-03, 1.35226501e-03,
          0., 9.46585461e-03, 1.14942528e-02, 5.40906005e-03 ]
      - [ 3.42633389e-03, 3.42633389e-03, 4.89476230e-03, 2.93685752e-03,
          7.34214392e-03, 7.34214392e-03, 4.40528616e-03, 4.40528616e-03,
          0., 3.91581003e-03, 1.95790501e-03, 3.42633389e-03,
          4.89476230e-03, 1.95790501e-03, 1.17474301e-02, 1.02790017e-02,
          7.83162005e-03, 1.95790501e-03, 1.95790501e-03, 2.93685752e-03,
          8.32109619e-03, 1.46842876e-03, 9.78952460e-03, 7.83162005e-03,
          7.34214392e-03, 9.78952507e-04, 1.95790501e-03, 5.58002926e-02,
          4.89476253e-04, 4.40528616e-03, 0., 2.93685752e-03,
          5.38423890e-03, 1.95790501e-03, 1.95790501e-03, 9.78952507e-04,
          0., 3.91581003e-03, 2.93685752e-03, 0., 4.89476253e-04,
          4.89476230e-03, 1.46842876e-03, 1.07684778e-02, 4.89476230e-03,
          1.27263824e-02, 9.78952507e-04, 3.91581003e-03, 5.38423890e-03,
          9.30004846e-03, 4.89476230e-03, 3.91581003e-03, 0.,
          1.37053356e-02, 1.95790501e-03, 6.85266778e-03, 9.78952460e-03,
          8.81057233e-03, 7.34214392e-03, 0., 4.89476230e-03,
          4.40528616e-03, 1.46842876e-03, 1.46842876e-03, 0.,
          1.66421924e-02, 2.93685752e-03, 9.78952507e-04, 5.38423890e-03,
          7.83162005e-03, 1.95790501e-03, 2.44738115e-03, 1.46842876e-03,
          7.34214392e-03, 1.32158585e-02, 4.89476230e-03, 5.87371504e-03,
          6.85266778e-03, 0., 9.78952507e-04, 3.91581003e-03,
          7.34214392e-03, 7.83162005e-03, 9.78952460e-03, 3.91581003e-03,
          2.44738115e-03, 5.87371504e-03, 1.17474301e-02, 2.44738115e-03,
          1.46842876e-03, 4.40528616e-03, 2.44738115e-03, 6.85266778e-03,
          3.91581003e-03, 9.78952460e-03, 5.38423890e-03, 5.38423890e-03,
          5.38423890e-03, 1.17474301e-02, 9.78952507e-04, 1.37053356e-02,
          5.87371504e-03, 3.42633389e-03, 1.95790501e-03, 1.95790492e-02,
          4.89476253e-04, 3.91581003e-03, 5.87371504e-03, 1.12579539e-02,
          1.46842876e-03, 8.32109619e-03, 9.78952507e-04, 6.85266778e-03,
          4.89476253e-04, 8.32109619e-03, 6.36319118e-03, 4.89476230e-03,
          4.89476230e-03, 2.44738115e-03, 4.89476253e-04, 0.,
          3.42633389e-03, 9.78952507e-04, 0., 5.38423890e-03,
          4.40528616e-03, 0., 2.44738115e-03, 4.40528616e-03,
          3.91581003e-03, 2.93685752e-03, 7.34214392e-03, 3.91581003e-03,
          1.95790501e-03, 1.46842876e-03, 1.71316694e-02, 7.83162005e-03,
          2.93685752e-03, 4.89476253e-04, 6.36319118e-03, 0.,
          9.78952507e-04, 2.44738115e-03, 2.44738115e-03, 9.78952507e-04,
          1.95790501e-03, 1.76211447e-02, 6.85266778e-03, 3.91581003e-03,
          4.89476253e-04, 8.32109619e-03, 2.93685752e-03, 6.36319118e-03,
          7.34214392e-03, 6.85266778e-03, 3.91581003e-03, 0.,
          9.78952460e-03, 4.89476253e-04, 1.32158585e-02, 5.87371504e-03,
          9.78952460e-03, 1.95790501e-03, 5.87371504e-03, 2.44738115e-03,
          1.95790501e-03, 1.95790501e-03, 7.34214392e-03, 1.12579539e-02,
          4.89476253e-04, 6.36319118e-03, 4.89476230e-03, 4.89476230e-03,
          4.40528616e-03, 2.44738115e-03, 9.78952507e-04, 2.93685752e-03,
          7.34214392e-03, 5.38423890e-03, 6.36319118e-03, 9.78952507e-04,
          6.36319118e-03, 4.40528616e-03, 3.42633389e-03, 9.78952460e-03,
          9.78952507e-04, 2.44738115e-03, 2.44738115e-03, 5.38423890e-03,
          2.93685752e-03, 4.89476230e-03, 9.78952507e-04, 5.38423890e-03,
          6.36319118e-03, 6.36319118e-03, 1.46842876e-03, 1.95790501e-03,
          4.40528616e-03, 1.66421924e-02, 5.87371504e-03 ]
      - [ 3.63372080e-03, 4.36046533e-03, 7.26744183e-04, 4.36046533e-03,
          8.72093067e-03, 7.99418613e-03, 5.81395347e-03, 4.36046533e-03,
          7.26744183e-04, 5.81395347e-03, 1.45348837e-03, 1.45348837e-03,
          5.08720940e-03, 7.99418613e-03, 1.38081396e-02, 1.38081396e-02,
          6.54069753e-03, 3.63372080e-03, 5.08720940e-03, 5.08720940e-03,
          7.99418613e-03, 2.90697673e-03, 9.44767427e-03, 8.72093067e-03,
          6.54069753e-03, 7.26744183e-04, 2.18023267e-03, 4.94186059e-02,
          7.26744183e-04, 6.54069753e-03, 2.18023267e-03, 7.26744183e-04,
          4.36046533e-03, 2.18023267e-03, 2.18023267e-03, 3.63372080e-03,
          2.90697673e-03, 3.63372080e-03, 3.63372080e-03, 7.26744183e-04,
          2.18023267e-03, 7.26744160e-03, 7.26744183e-04, 5.08720940e-03,
          0., 1.09011624e-02, 2.90697673e-03, 2.90697673e-03,
          6.54069753e-03, 7.26744160e-03, 2.18023267e-03, 7.99418613e-03,
          7.26744183e-04, 8.72093067e-03, 1.45348837e-03, 3.63372080e-03,
          1.16279069e-02, 5.81395347e-03, 8.72093067e-03, 1.45348837e-03,
          4.36046533e-03, 0., 3.63372080e-03, 4.36046533e-03, 0.,
