%YAML:1.0
---
opencv_ml_svm:
   format: 3
   svmType: C_SVC
   kernel:
      type: RBF
      gamma: 5.0625000000000009e-01
   C: 6.2500000000000000e+01
   term_criteria: { epsilon:1.1920928955078125e-07, iterations:1000 }
   var_count: 200
   class_count: 2
   class_labels: !!opencv-matrix
      rows: 2
      cols: 1
      dt: i
      data: [ -1, 1 ]
   sv_total: 376
   support_vectors:
      - [ 0., 4.76190485e-02, 0., 0., 0., 0., 0., 0., 0., 0., 0., 0., 0.,
          0., 0., 0., 0., 0., 0., 0., 0., 0., 0., 0., 0., 0., 0., 0.,
          4.76190485e-02, 0., 4.76190485e-02, 0., 0., 0., 0., 0., 0., 0.,
          0., 4.76190485e-02, 0., 0., 0., 0., 0., 0., 0., 0., 0., 0., 0.,
          0., 0., 0., 0., 0., 0., 0., 0., 1.90476194e-01, 0., 0., 0., 0.,
          0., 0., 0., 0., 0., 0., 0., 0., 0., 0., 0., 0., 0., 0., 0., 0.,
          0., 0., 0., 0., 0., 0., 0., 0., 0., 0., 0., 0., 0., 0., 0., 0.,
          0., 0., 0., 0., 0., 0., 0., 0., 0., 0., 0., 0., 0., 0., 0., 0.,
          0., 9.52380970e-02, 0., 0., 0., 0., 0., 0., 4.76190485e-02, 0.,
          0., 0., 0., 0., 2.38095239e-01, 0., 0., 0., 0., 0., 0., 0., 0.,
          0., 0., 0., 0., 0., 1.42857149e-01, 0., 4.76190485e-02, 0.,
          4.76190485e-02, 0., 0., 0., 0., 0., 0., 0., 0., 0., 0., 0., 0.,
          0., 0., 0., 0., 0., 0., 0., 0., 0., 0., 0., 0., 0., 0., 0., 0.,
          0., 0., 0., 0., 0., 0., 0., 0., 0., 0., 0., 0., 0., 0., 0., 0.,
          0., 0., 0., 0., 0., 0., 0., 0., 0., 0., 0. ]
      - [ 3.86100379e-03, 1.93050187e-02, 3.86100379e-03, 0., 0., 0.,
          7.72200758e-03, 1.15830116e-02, 1.15830116e-02, 3.86100379e-03,
          7.72200758e-03, 3.86100379e-03, 3.86100379e-03, 3.86100379e-03,
          3.86100379e-03, 0., 3.86100379e-03, 0., 3.86100379e-03,
          1.15830116e-02, 3.86100379e-03, 7.72200758e-03, 0.,
          1.15830116e-02, 7.72200758e-03, 1.15830116e-02, 3.86100379e-03,
          1.93050187e-02, 0., 3.86100379e-03, 7.72200758e-03,
          3.86100379e-03, 3.86100379e-03, 3.86100379e-03, 3.86100379e-03,
          0., 3.86100379e-03, 0., 0., 0., 0., 7.72200758e-03, 0., 0., 0.,
          3.86100379e-03, 7.72200758e-03, 3.86100379e-03, 0.,
          1.15830116e-02, 0., 3.86100379e-03, 0., 0., 7.72200758e-03,
          3.86100379e-03, 0., 3.86100379e-03, 0., 1.15830116e-02,
          1.15830116e-02, 7.72200758e-03, 0., 7.72200758e-03, 0.,
          7.72200758e-03, 3.86100379e-03, 3.86100379e-03, 7.72200758e-03,
          0., 3.86100379e-03, 3.86100379e-03, 0., 0., 7.72200758e-03,
          3.86100379e-03, 7.72200758e-03, 0., 0., 7.72200758e-03,
          3.86100379e-03, 7.72200758e-03, 3.86100379e-03, 0.,
          7.72200758e-03, 0., 0., 7.72200758e-03, 3.86100379e-03,
          3.86100379e-03, 7.72200758e-03, 1.15830116e-02, 7.72200758e-03,
          3.86100379e-03, 3.86100379e-03, 4.63320464e-02, 0., 0.,
          7.72200758e-03, 7.72200758e-03, 3.86100379e-03, 7.72200758e-03,
          0., 0., 0., 0., 3.86100379e-03, 3.86100379e-03, 3.86100379e-03,
          3.86100379e-03, 3.86100379e-03, 7.72200758e-03, 1.93050187e-02,
          1.54440152e-02, 3.86100379e-03, 0., 3.86100379e-03,
          7.72200758e-03, 3.86100379e-03, 0., 0., 0., 3.86100379e-03,
          2.31660232e-02, 0., 1.54440152e-02, 0., 3.86100379e-03,
          3.86100379e-03, 0., 0., 0., 7.72200758e-03, 0., 0., 0.,
          1.54440152e-02, 0., 0., 1.15830116e-02, 7.72200758e-03,
          3.86100379e-03, 2.70270258e-02, 3.86100379e-03, 7.72200758e-03,
          0., 7.72200758e-03, 1.54440152e-02, 0., 0., 1.15830116e-02,
          1.54440152e-02, 1.15830116e-02, 7.72200758e-03, 3.86100379e-03,
          3.86100379e-03, 3.86100379e-03, 0., 7.72200758e-03,
          3.86100379e-03, 0., 1.54440152e-02, 3.86100379e-03,
          3.86100379e-03, 0., 0., 7.72200758e-03, 1.15830116e-02,
          7.72200758e-03, 7.72200758e-03, 7.72200758e-03, 1.15830116e-02,
          7.72200758e-03, 0., 7.72200758e-03, 3.86100379e-03,
          7.72200758e-03, 0., 7.72200758e-03, 0., 0., 3.86100379e-03, 0.,
          0., 3.86100379e-03, 1.15830116e-02, 7.72200758e-03, 0.,
          1.93050187e-02, 0., 3.86100379e-03, 0., 3.86100379e-03,
          7.72200758e-03, 3.86100379e-03, 3.86100379e-03, 3.86100379e-03,
          0., 0., 7.72200758e-03 ]
      - [ 0., 3.46153863e-02, 3.84615408e-03, 2.56410264e-03,
          1.28205132e-03, 1.28205132e-03, 8.97435937e-03, 5.12820529e-03,
          5.12820529e-03, 0., 8.97435937e-03, 1.28205132e-03,
          7.69230817e-03, 1.28205132e-03, 5.12820529e-03, 7.69230817e-03,
          3.84615408e-03, 2.56410264e-03, 5.12820529e-03, 3.84615408e-03,
          5.12820529e-03, 1.66666675e-02, 1.28205132e-03, 5.12820529e-03,
          1.28205132e-03, 3.84615408e-03, 5.12820529e-03, 5.12820529e-03,
          1.28205132e-03, 8.97435937e-03, 2.43589748e-02, 5.12820529e-03,
          2.56410264e-03, 1.28205132e-03, 3.84615408e-03, 3.84615408e-03,
          2.56410264e-03, 3.84615408e-03, 6.41025649e-03, 1.92307699e-02,
          0., 1.28205132e-03, 8.97435937e-03, 1.28205132e-03,
          5.12820529e-03, 1.15384618e-02, 0., 0., 1.28205132e-03,
          3.84615408e-03, 0., 1.28205132e-03, 2.05128212e-02, 0.,
          1.28205132e-03, 0., 5.12820529e-03, 1.28205132e-03,
          3.84615408e-03, 1.41025642e-02, 2.56410264e-03, 0.,
          1.28205132e-03, 1.28205132e-03, 6.41025649e-03, 5.12820529e-03,
          1.28205132e-03, 0., 1.28205132e-03, 7.69230817e-03,
          1.41025642e-02, 2.56410264e-03, 3.84615408e-03, 3.84615408e-03,
          0., 5.12820529e-03, 1.28205132e-03, 2.56410264e-03,
          6.41025649e-03, 6.41025649e-03, 0., 0., 8.97435937e-03,
          3.84615408e-03, 1.28205132e-03, 0., 2.56410264e-03,
          2.56410264e-03, 7.69230817e-03, 1.28205132e-03, 6.41025649e-03,
          3.84615408e-03, 1.28205132e-03, 2.56410264e-03, 5.12820529e-03,
          1.15384618e-02, 7.69230817e-03, 1.02564106e-02, 6.41025649e-03,
          6.41025649e-03, 3.84615408e-03, 2.56410264e-03, 2.56410264e-03,
          3.84615408e-03, 2.56410264e-03, 2.56410264e-03, 2.56410264e-03,
          1.28205132e-03, 6.41025649e-03, 3.84615408e-03, 2.56410264e-03,
          1.28205132e-03, 1.28205130e-02, 2.17948724e-02, 1.28205130e-02,
          1.28205132e-03, 8.97435937e-03, 3.84615408e-03, 1.15384618e-02,
          1.53846163e-02, 2.17948724e-02, 0., 2.56410264e-03,
          5.12820529e-03, 1.28205132e-03, 3.84615408e-03, 5.12820529e-03,
          5.12820529e-03, 3.84615408e-03, 6.41025649e-03, 1.28205132e-03,
          1.28205132e-03, 1.28205132e-03, 1.28205132e-03, 1.92307699e-02,
          1.28205132e-03, 3.84615408e-03, 0., 2.56410264e-03,
          1.28205132e-03, 2.05128212e-02, 8.97435937e-03, 1.53846163e-02,
          1.28205132e-03, 6.41025649e-03, 0., 6.41025649e-03,
          3.84615408e-03, 1.28205132e-03, 8.97435937e-03, 7.69230817e-03,
          1.28205130e-02, 1.53846163e-02, 2.56410264e-03, 1.28205130e-02,
          0., 0., 1.28205132e-03, 1.15384618e-02, 3.84615408e-03,
          1.28205130e-02, 0., 7.69230817e-03, 3.84615408e-03,
          2.56410264e-03, 2.56410264e-03, 3.84615408e-03, 1.28205132e-03,
          5.12820529e-03, 5.12820529e-03, 2.56410264e-03, 5.12820529e-03,
          1.28205132e-03, 1.28205132e-03, 7.69230817e-03, 2.56410264e-03,
          2.56410264e-03, 1.66666675e-02, 3.84615408e-03, 5.12820529e-03,
          2.56410264e-03, 2.56410264e-03, 2.56410264e-03, 1.28205132e-03,
          5.12820529e-03, 5.12820529e-03, 2.56410264e-03, 6.41025649e-03,
          5.12820529e-03, 5.12820529e-03, 1.28205132e-03, 3.84615408e-03,
          2.56410264e-03, 1.28205132e-03, 1.28205132e-03, 2.56410264e-03,
          7.69230817e-03, 5.12820529e-03, 1.28205132e-03, 6.41025649e-03 ]
      - [ 0., 0., 0., 0., 0., 0., 0., 0., 0., 0., 0., 0., 0., 0., 0., 0.,
          0., 0., 0., 0., 0., 0., 0., 0., 3.84615399e-02, 0., 0.,
          7.69230798e-02, 0., 0., 0., 0., 0., 0., 0., 0., 0., 0., 0., 0.,
          0., 0., 0., 0., 0., 0., 0., 0., 0., 0., 0., 0., 0., 0., 0., 0.,
          0., 0., 0., 1.15384623e-01, 0., 0., 0., 0., 0., 0., 0., 0., 0.,
          0., 0., 0., 0., 0., 0., 0., 0., 0., 0., 0., 0., 0., 0., 0., 0.,
          0., 0., 0., 0., 0., 0., 0., 0., 0., 0., 7.69230798e-02, 0., 0.,
          0., 0., 0., 0., 0., 0., 0., 0., 0., 0., 0., 0., 0., 0.,
          3.84615399e-02, 1.53846160e-01, 0., 0., 0., 0., 0., 0., 0., 0.,
          0., 0., 0., 0., 1.15384623e-01, 0., 0., 0., 0., 0., 0., 0., 0.,
          0., 0., 0., 0., 0., 0., 0., 2.69230783e-01, 0., 3.84615399e-02,
          0., 0., 0., 0., 0., 0., 0., 0., 0., 0., 0., 0., 0., 0., 0., 0.,
          3.84615399e-02, 0., 0., 0., 0., 0., 0., 0., 3.84615399e-02, 0.,
          0., 0., 0., 0., 0., 0., 0., 0., 0., 0., 0., 0., 0., 0., 0., 0.,
          0., 0., 0., 0., 0., 0., 0., 0., 0., 0., 0., 0., 0. ]
      - [ 0., 3.22580636e-02, 0., 0., 0., 0., 0., 9.67741907e-02, 0., 0.,
          3.22580636e-02, 0., 0., 0., 0., 9.67741907e-02, 0., 0., 0., 0.,
          0., 0., 0., 0., 0., 3.22580636e-02, 0., 3.22580636e-02, 0., 0.,
          0., 0., 0., 0., 0., 0., 0., 0., 0., 0., 0., 0., 0., 0., 0.,
          3.22580636e-02, 0., 0., 0., 0., 3.22580636e-02, 0., 0., 0., 0.,
          0., 0., 0., 0., 6.45161271e-02, 0., 0., 0., 0., 0., 0., 0., 0.,
          0., 0., 0., 0., 0., 0., 0., 0., 0., 0., 0., 0., 0., 0., 0., 0.,
          3.22580636e-02, 0., 0., 0., 0., 0., 0., 3.22580636e-02, 0., 0.,
          0., 3.22580636e-02, 0., 0., 0., 0., 0., 0., 0., 0.,
          3.22580636e-02, 0., 0., 0., 0., 0., 0., 0., 9.67741907e-02,
          6.45161271e-02, 0., 0., 0., 0., 0., 0., 0., 0., 0., 0., 0., 0.,
          6.45161271e-02, 0., 0., 0., 0., 0., 0., 0., 0., 0., 0., 0., 0.,
          0., 0., 0., 6.45161271e-02, 0., 0., 0., 0., 0., 0., 0., 0., 0.,
          0., 0., 0., 0., 0., 0., 0., 0., 0., 0., 0., 0., 0., 0., 0., 0.,
          3.22580636e-02, 0., 0., 0., 0., 0., 0., 0., 0., 0., 0., 0.,
          6.45161271e-02, 0., 3.22580636e-02, 0., 0., 0., 0., 0., 0., 0.,
          0., 0., 0., 0., 0., 0., 0., 0., 0., 0. ]
      - [ 0., 1.33333337e-02, 0., 0., 0., 0., 1.33333337e-02,
          1.33333337e-02, 0., 1.33333337e-02, 0., 0., 0., 0., 0., 0.,
          3.99999991e-02, 0., 1.33333337e-02, 1.33333337e-02,
          1.33333337e-02, 0., 0., 1.33333337e-02, 0., 0., 0.,
          2.66666673e-02, 0., 0., 0., 0., 0., 1.33333337e-02, 0., 0.,
          1.33333337e-02, 0., 0., 0., 0., 0., 0., 0., 0., 2.66666673e-02,
          0., 0., 1.33333337e-02, 0., 0., 0., 0., 0., 0., 0., 0., 0., 0.,
          1.33333337e-02, 0., 0., 0., 1.33333337e-02, 0., 0.,
          1.33333337e-02, 0., 0., 0., 0., 2.66666673e-02, 0.,
          1.33333337e-02, 0., 0., 3.99999991e-02, 0., 0., 0., 0., 0.,
          1.33333337e-02, 0., 0., 0., 0., 0., 0., 0., 0., 1.33333337e-02,
          1.33333337e-02, 1.33333337e-02, 0., 2.66666673e-02, 0., 0.,
          1.33333337e-02, 0., 2.66666673e-02, 1.33333337e-02, 0.,
          1.33333337e-02, 1.33333337e-02, 0., 2.66666673e-02, 0., 0., 0.,
          0., 0., 1.33333337e-02, 0., 0., 1.33333337e-02, 0., 0., 0.,
          1.33333337e-02, 1.33333337e-02, 0., 0., 0., 0., 1.33333337e-02,
          1.33333337e-02, 1.33333337e-02, 0., 0., 0., 0., 0., 0.,
          1.33333337e-02, 0., 0., 0., 0., 1.33333337e-02, 0., 0.,
          3.99999991e-02, 0., 0., 0., 3.99999991e-02, 1.33333337e-02, 0.,
          0., 0., 1.33333337e-02, 0., 1.33333337e-02, 1.33333337e-02,
          1.33333337e-02, 0., 0., 0., 0., 0., 0., 1.33333337e-02, 0., 0.,
          0., 0., 0., 0., 1.33333337e-02, 2.66666673e-02, 0.,
          1.33333337e-02, 0., 0., 0., 1.33333337e-02, 5.33333346e-02, 0.,
          0., 1.33333337e-02, 0., 0., 0., 0., 0., 1.33333337e-02, 0., 0.,
          0., 0., 0., 0., 0., 0., 0., 1.33333337e-02, 0., 1.33333337e-02,
          0. ]
      - [ 0., 0., 0., 0., 0., 0., 0., 0., 0., 0., 0., 0., 0., 0., 0., 0.,
          0., 0., 0., 0., 0., 0., 0., 0., 0., 0., 0., 0., 0., 0., 0., 0.,
          0., 0., 0., 0., 0., 0., 0., 0., 0., 0., 0., 0., 0., 0., 0., 0.,
          0., 0., 0., 0., 0., 0., 0., 0., 0., 0., 0., 0., 0., 0., 0., 0.,
          0., 0., 0., 0., 0., 0., 0., 0., 0., 0., 0., 0., 0., 0., 0., 0.,
          0., 0., 0., 0., 3.33333343e-01, 0., 0., 0., 0., 0., 0., 0., 0.,
          0., 0., 0., 0., 0., 0., 0., 0., 0., 0., 0., 0., 0., 0., 0., 0.,
          0., 0., 0., 0., 0., 0., 0., 0., 0., 0., 0., 0., 0., 0., 0., 0.,
          0., 0., 0., 0., 0., 0., 0., 0., 0., 0., 0., 0., 0., 0., 0., 0.,
          0., 3.33333343e-01, 0., 0., 0., 0., 0., 0., 0., 0., 0., 0., 0.,
          0., 0., 0., 0., 3.33333343e-01, 0., 0., 0., 0., 0., 0., 0., 0.,
          0., 0., 0., 0., 0., 0., 0., 0., 0., 0., 0., 0., 0., 0., 0., 0.,
          0., 0., 0., 0., 0., 0., 0., 0., 0., 0., 0., 0., 0., 0., 0., 0.,
          0. ]
      - [ 1.52671756e-03, 1.67938937e-02, 0., 0., 3.05343512e-03,
          3.05343512e-03, 9.16030537e-03, 9.16030537e-03, 0.,
          1.52671756e-03, 0., 3.05343512e-03, 1.52671756e-03,
          2.13740468e-02, 7.63358781e-03, 4.58015269e-03, 4.58015269e-03,
          0., 1.22137405e-02, 6.10687025e-03, 3.05343512e-03,
          3.05343512e-03, 0., 3.05343512e-03, 1.52671756e-03,
          4.58015269e-03, 3.05343512e-03, 2.13740468e-02, 4.58015269e-03,
          0., 1.37404576e-02, 0., 3.05343512e-03, 4.58015269e-03,
          1.52671756e-03, 4.58015269e-03, 7.63358781e-03, 0.,
          3.05343512e-03, 1.83206107e-02, 0., 4.58015269e-03,
          4.58015269e-03, 0., 1.52671756e-03, 9.16030537e-03,
          1.52671756e-03, 3.05343512e-03, 0., 1.52671756e-03,
          1.52671756e-03, 0., 1.06870234e-02, 0., 7.63358781e-03,
          1.52671756e-03, 0., 0., 4.58015269e-03, 2.13740468e-02,
          7.63358781e-03, 1.52671756e-02, 0., 4.58015269e-03,
          3.05343512e-03, 3.05343512e-03, 1.52671756e-03, 1.52671756e-03,
          1.52671756e-03, 0., 0., 1.06870234e-02, 0., 1.52671756e-03, 0.,
          6.10687025e-03, 1.22137405e-02, 0., 1.52671756e-03,
          9.16030537e-03, 0., 3.05343512e-03, 7.63358781e-03, 0.,
          1.52671756e-03, 0., 0., 1.52671756e-03, 6.10687025e-03,
          6.10687025e-03, 0., 6.10687025e-03, 3.05343512e-03,
          4.58015269e-03, 6.10687025e-03, 1.67938937e-02, 6.10687025e-03,
          3.05343512e-03, 3.05343512e-03, 1.52671756e-03, 0.,
          3.05343512e-03, 1.52671756e-03, 4.58015269e-03, 1.06870234e-02,
          3.05343512e-03, 7.63358781e-03, 1.52671756e-03, 0.,
          6.10687025e-03, 3.05343512e-03, 4.58015269e-03, 3.05343512e-03,
          2.29007639e-02, 1.98473278e-02, 0., 7.63358781e-03,
          9.16030537e-03, 1.22137405e-02, 3.05343512e-03, 2.59541981e-02,
          0., 0., 7.63358781e-03, 3.05343512e-03, 6.10687025e-03,
          1.83206107e-02, 6.10687025e-03, 0., 4.58015269e-03,
          3.05343512e-03, 0., 3.05343512e-03, 0., 3.66412215e-02, 0.,
          3.05343512e-03, 0., 1.52671756e-03, 1.37404576e-02,
          1.83206107e-02, 1.52671756e-03, 1.22137405e-02, 0.,
          3.05343512e-03, 0., 1.52671756e-03, 1.37404576e-02,
          4.58015269e-03, 0., 6.10687025e-03, 6.10687025e-03,
          9.16030537e-03, 1.22137405e-02, 1.52671756e-02, 4.58015269e-03,
          1.52671756e-03, 4.58015269e-03, 1.06870234e-02, 7.63358781e-03,
          1.67938937e-02, 9.16030537e-03, 1.52671756e-03, 0.,
          1.52671756e-03, 1.52671756e-03, 3.05343512e-03, 1.52671756e-03,
          6.10687025e-03, 3.05343512e-03, 1.52671756e-03, 7.63358781e-03,
          4.58015269e-03, 0., 0., 4.58015269e-03, 1.52671756e-02,
          2.90076341e-02, 4.58015269e-03, 4.58015269e-03, 6.10687025e-03,
          0., 0., 3.05343512e-03, 1.52671756e-03, 1.52671756e-03,
          6.10687025e-03, 0., 0., 3.05343512e-03, 3.05343512e-03,
          1.52671756e-03, 0., 7.63358781e-03, 0., 3.05343512e-03,
          1.52671756e-02, 0., 0., 7.63358781e-03 ]
      - [ 0., 7.69230798e-02, 0., 0., 0., 0., 3.84615399e-02, 0., 0., 0.,
          0., 0., 0., 0., 0., 0., 0., 0., 3.84615399e-02, 0., 0., 0., 0.,
          0., 3.84615399e-02, 0., 0., 0., 0., 0., 0., 0., 0.,
          3.84615399e-02, 0., 0., 0., 0., 0., 3.84615399e-02, 0.,
          3.84615399e-02, 0., 0., 3.84615399e-02, 0., 0., 0., 0., 0., 0.,
          0., 0., 0., 0., 0., 0., 3.84615399e-02, 0., 0., 0., 0., 0., 0.,
          0., 0., 0., 0., 0., 0., 0., 0., 0., 0., 0., 0., 0., 0., 0.,
          3.84615399e-02, 0., 0., 0., 0., 0., 0., 0., 0., 0., 0., 0., 0.,
          0., 0., 0., 0., 3.84615399e-02, 0., 0., 0., 0., 0., 0., 0., 0.,
          0., 0., 0., 3.84615399e-02, 0., 0., 0., 0., 3.84615399e-02,
          3.84615399e-02, 0., 3.84615399e-02, 0., 0., 3.84615399e-02, 0.,
          0., 0., 3.84615399e-02, 0., 0., 3.84615399e-02, 0., 0., 0., 0.,
          0., 0., 0., 0., 0., 3.84615399e-02, 0., 0., 0., 0., 0., 0., 0.,
          0., 0., 0., 0., 0., 0., 0., 0., 0., 0., 0., 0., 0., 0., 0.,
          3.84615399e-02, 0., 0., 0., 0., 0., 0., 0., 3.84615399e-02,
          3.84615399e-02, 0., 0., 0., 0., 0., 3.84615399e-02, 0., 0., 0.,
          0., 0., 0., 0., 0., 0., 3.84615399e-02, 3.84615399e-02, 0., 0.,
          0., 0., 0., 0., 0., 0., 0., 0., 0., 0., 0., 0. ]
      - [ 0., 2.05278583e-02, 0., 2.93255132e-03, 0., 2.93255132e-03,
          8.79765395e-03, 8.79765395e-03, 0., 0., 0., 8.79765395e-03,
          2.93255132e-03, 3.81231681e-02, 1.17302053e-02, 0., 0., 0.,
          1.46627566e-02, 0., 2.93255132e-03, 0., 0., 1.46627566e-02,
          1.46627566e-02, 2.93255132e-03, 0., 2.05278583e-02, 0.,
          5.86510263e-03, 5.86510263e-03, 0., 5.86510263e-03,
          1.17302053e-02, 1.17302053e-02, 5.86510263e-03, 2.93255132e-03,
          2.93255132e-03, 8.79765395e-03, 1.17302053e-02, 2.93255132e-03,
          2.93255132e-03, 0., 0., 0., 8.79765395e-03, 2.93255132e-03, 0.,
          2.93255132e-03, 0., 0., 0., 1.17302053e-02, 2.93255132e-03,
          5.86510263e-03, 0., 2.93255132e-03, 0., 0., 8.79765395e-03,
          2.93255132e-03, 8.79765395e-03, 0., 5.86510263e-03, 0.,
          5.86510263e-03, 2.93255132e-03, 0., 2.93255132e-03, 0.,
          5.86510263e-03, 0., 0., 0., 0., 2.93255132e-03, 8.79765395e-03,
          0., 0., 8.79765395e-03, 2.93255132e-03, 2.93255132e-03,
          2.93255132e-03, 2.93255132e-03, 2.93255132e-02, 0., 0.,
          5.86510263e-03, 2.93255132e-03, 0., 0., 0., 0., 5.86510263e-03,
          2.93255132e-03, 2.93255132e-02, 2.93255132e-03, 0.,
          5.86510263e-03, 0., 2.93255132e-03, 2.93255132e-03,
          2.93255132e-03, 2.93255132e-03, 1.17302053e-02, 0.,
          8.79765395e-03, 8.79765395e-03, 2.93255132e-03, 5.86510263e-03,
          2.93255132e-03, 2.93255132e-03, 8.79765395e-03, 1.75953079e-02,
          2.63929628e-02, 0., 1.17302053e-02, 2.93255132e-03,
          8.79765395e-03, 5.86510263e-03, 2.63929628e-02, 0., 0.,
          2.93255132e-03, 2.93255132e-03, 8.79765395e-03, 2.34604105e-02,
          1.75953079e-02, 0., 2.93255132e-03, 0., 0., 0., 5.86510263e-03,
          2.05278583e-02, 0., 5.86510263e-03, 0., 0., 1.46627566e-02,
          2.34604105e-02, 0., 2.34604105e-02, 2.93255132e-03,
          8.79765395e-03, 0., 1.46627566e-02, 8.79765395e-03, 0.,
          2.93255132e-03, 8.79765395e-03, 1.17302053e-02, 5.86510263e-03,
          1.17302053e-02, 1.75953079e-02, 0., 2.93255132e-03,
          2.93255132e-03, 5.86510263e-03, 2.93255132e-03, 0.,
          8.79765395e-03, 8.79765395e-03, 0., 0., 0., 0., 0., 0., 0.,
          1.17302053e-02, 0., 8.79765395e-03, 0., 0., 0., 2.34604105e-02,
          2.63929628e-02, 2.93255132e-03, 0., 5.86510263e-03, 0., 0., 0.,
          5.86510263e-03, 0., 0., 0., 0., 0., 0., 0., 0., 5.86510263e-03,
          0., 0., 5.86510263e-03, 0., 0., 5.86510263e-03 ]
      - [ 0., 1.02040814e-02, 5.10204071e-03, 0., 0., 1.53061226e-02,
          5.10204071e-03, 1.53061226e-02, 0., 0., 5.10204071e-03,
          5.10204071e-03, 0., 2.04081628e-02, 5.10204071e-03,
          1.53061226e-02, 1.02040814e-02, 5.10204071e-03, 5.10204071e-03,
          5.10204071e-03, 5.10204071e-03, 0., 0., 0., 1.02040814e-02, 0.,
          0., 3.06122452e-02, 0., 0., 0., 0., 5.10204071e-03, 0., 0.,
          5.10204071e-03, 1.02040814e-02, 5.10204071e-03, 0.,
          1.02040814e-02, 0., 5.10204071e-03, 0., 0., 2.04081628e-02,
          3.57142836e-02, 0., 5.10204071e-03, 0., 0., 0., 0.,
          2.55102031e-02, 0., 5.10204071e-03, 0., 0., 0., 0.,
          2.04081628e-02, 5.10204071e-03, 5.10204071e-03, 0.,
          5.10204071e-03, 0., 0., 1.02040814e-02, 5.10204071e-03, 0., 0.,
          0., 1.02040814e-02, 1.02040814e-02, 1.02040814e-02, 0.,
          5.10204071e-03, 0., 0., 0., 3.06122452e-02, 0., 5.10204071e-03,
          0., 0., 5.10204071e-03, 5.10204071e-03, 5.10204071e-03, 0.,
          1.02040814e-02, 5.10204071e-03, 0., 5.10204071e-03, 0., 0.,
          1.53061226e-02, 4.08163257e-02, 1.02040814e-02, 0., 0.,
          5.10204071e-03, 0., 1.53061226e-02, 0., 1.02040814e-02, 0., 0.,
          1.53061226e-02, 5.10204071e-03, 0., 1.53061226e-02,
          5.10204071e-03, 5.10204071e-03, 0., 1.02040814e-02,
          1.02040814e-02, 0., 1.02040814e-02, 5.10204071e-03,
          5.10204071e-03, 5.10204071e-03, 5.10204071e-03, 0., 0., 0., 0.,
          5.10204071e-03, 5.10204071e-03, 1.53061226e-02, 0., 0., 0.,
          5.10204071e-03, 1.02040814e-02, 1.02040814e-02, 5.10204071e-03,
          0., 5.10204071e-03, 0., 1.02040814e-02, 1.02040814e-02,
          1.53061226e-02, 0., 1.02040814e-02, 0., 1.02040814e-02,
          5.10204071e-03, 0., 0., 0., 5.10204071e-03, 5.10204071e-03,
          5.10204071e-03, 5.10204071e-03, 0., 0., 2.04081628e-02, 0., 0.,
          1.02040814e-02, 5.10204071e-03, 5.10204071e-03, 1.53061226e-02,
          1.02040814e-02, 0., 5.10204071e-03, 0., 5.10204071e-03,
          5.10204071e-03, 0., 0., 1.53061226e-02, 0., 0., 0.,
          5.10204071e-03, 0., 1.02040814e-02, 3.06122452e-02,
          5.10204071e-03, 0., 5.10204071e-03, 5.10204071e-03, 0., 0., 0.,
          0., 0., 0., 0., 5.10204071e-03, 0., 0., 5.10204071e-03,
          1.02040814e-02, 0., 5.10204071e-03, 1.53061226e-02, 0., 0., 0. ]
      - [ 4.09836043e-03, 2.04918012e-02, 1.63934417e-02, 8.19672085e-03,
          1.22950813e-02, 0., 1.63934417e-02, 8.19672085e-03, 0.,
          4.09836043e-03, 4.09836043e-03, 0., 0., 4.09836043e-03,
          4.09836043e-03, 0., 4.09836043e-03, 4.09836043e-03,
          1.22950813e-02, 4.09836043e-03, 4.09836043e-03, 0., 0.,
          1.22950813e-02, 4.09836043e-03, 1.63934417e-02, 4.09836043e-03,
          1.02459013e-01, 4.09836043e-03, 0., 8.19672085e-03, 0., 0.,
          4.09836043e-03, 0., 4.09836043e-03, 0., 0., 0., 0.,
          8.19672085e-03, 2.86885239e-02, 0., 0., 0., 1.63934417e-02,
          4.09836043e-03, 4.09836043e-03, 4.09836043e-03, 0., 0., 0., 0.,
          0., 8.19672085e-03, 0., 0., 0., 4.09836043e-03, 8.19672085e-03,
          1.22950813e-02, 0., 0., 0., 0., 0., 4.09836043e-03, 0., 0., 0.,
          0., 1.63934417e-02, 0., 0., 0., 0., 8.19672085e-03, 0.,
          8.19672085e-03, 4.09836043e-03, 0., 4.09836043e-03,
          1.63934417e-02, 0., 1.63934417e-02, 0., 4.09836043e-03, 0., 0.,
          4.09836043e-03, 0., 8.19672085e-03, 4.09836043e-03,
          8.19672085e-03, 4.09836043e-03, 2.45901626e-02, 8.19672085e-03,
          8.19672085e-03, 0., 8.19672085e-03, 4.09836043e-03,
          4.09836043e-03, 8.19672085e-03, 8.19672085e-03, 4.09836043e-03,
          0., 0., 1.22950813e-02, 0., 0., 8.19672085e-03, 4.09836043e-03,
          8.19672085e-03, 8.19672085e-03, 0., 0., 0., 0., 4.09836043e-03,
          0., 4.09836043e-03, 0., 0., 8.19672085e-03, 4.09836043e-03, 0.,
          4.09836043e-03, 4.09836043e-03, 0., 4.09836043e-03, 0.,
          8.19672085e-03, 0., 0., 0., 4.09836043e-03, 1.63934417e-02,
          4.09836043e-03, 0., 1.22950813e-02, 0., 0., 4.09836043e-03,
          4.09836043e-03, 4.09836043e-03, 0., 1.22950813e-02,
          4.09836043e-03, 0., 4.09836043e-03, 4.09836043e-03,
          1.22950813e-02, 0., 8.19672085e-03, 0., 0., 1.22950813e-02, 0.,
          4.09836043e-03, 2.45901626e-02, 4.09836043e-03, 2.04918012e-02,
          4.09836043e-03, 0., 8.19672085e-03, 0., 0., 0., 0.,
          8.19672085e-03, 2.04918012e-02, 8.19672085e-03, 2.04918012e-02,
          4.09836043e-03, 4.09836043e-03, 0., 0., 8.19672085e-03,
          4.09836043e-03, 0., 4.09836043e-03, 0., 1.22950813e-02, 0.,
          1.22950813e-02, 0., 0., 0., 0., 0., 1.63934417e-02,
          4.09836043e-03, 0., 4.09836043e-03, 4.09836043e-03,
          1.22950813e-02, 1.22950813e-02, 4.09836043e-03, 0.,
          4.09836043e-03 ]
      - [ 0., 0., 0., 0., 0., 0., 0., 0., 0., 0., 0., 0., 0.,
          3.84615399e-02, 0., 0., 3.84615399e-02, 0., 0., 0., 0.,
          3.84615399e-02, 0., 0., 3.84615399e-02, 0., 0., 2.30769247e-01,
          0., 0., 3.84615399e-02, 0., 0., 0., 0., 0., 0., 3.84615399e-02,
          0., 0., 0., 3.84615399e-02, 0., 0., 0., 0., 0., 0., 0., 0., 0.,
          0., 3.84615399e-02, 0., 0., 0., 0., 0., 0., 0., 0., 0., 0., 0.,
          0., 0., 0., 0., 0., 0., 0., 0., 0., 0., 0., 0., 0., 0., 0., 0.,
          0., 0., 0., 0., 0., 0., 0., 0., 0., 0., 0., 0., 0.,
          7.69230798e-02, 0., 0., 7.69230798e-02, 0., 0., 0., 0., 0., 0.,
          0., 0., 0., 0., 0., 0., 0., 0., 0., 0., 0., 0., 0., 0., 0., 0.,
          0., 0., 0., 0., 0., 0., 0., 0., 0., 0., 0., 0., 0., 0., 0., 0.,
          0., 0., 0., 0., 0., 0., 0., 0., 0., 0., 0., 0., 0., 0., 0., 0.,
          0., 0., 3.84615399e-02, 3.84615399e-02, 0., 0., 0., 0., 0.,
          7.69230798e-02, 0., 0., 0., 0., 0., 0., 0., 3.84615399e-02, 0.,
          0., 0., 0., 0., 0., 0., 0., 0., 0., 0., 0., 0., 0., 0., 0., 0.,
          0., 0., 0., 0., 0., 0., 3.84615399e-02, 7.69230798e-02, 0., 0.,
          0., 0., 0., 0. ]
      - [ 0., 9.45626479e-03, 7.09219836e-03, 0., 7.09219836e-03, 0.,
          7.09219836e-03, 1.18203312e-02, 0., 2.36406620e-03,
          2.36406620e-03, 4.72813239e-03, 0., 1.18203312e-02,
          7.09219836e-03, 0., 7.09219836e-03, 0., 9.45626479e-03, 0., 0.,
          0., 2.36406620e-03, 2.36406620e-03, 1.41843967e-02,
          2.36406620e-03, 2.36406620e-03, 2.60047279e-02, 0., 0.,
          4.72813239e-03, 0., 2.36406620e-03, 1.18203312e-02,
          7.09219836e-03, 7.09219836e-03, 0., 2.36406620e-03, 0.,
          7.09219836e-03, 0., 2.36406620e-03, 2.36406620e-03,
          2.36406620e-03, 2.36406620e-03, 2.36406624e-02, 0.,
          7.09219836e-03, 2.36406620e-03, 0., 4.72813239e-03, 0.,
          4.72813239e-03, 2.36406620e-03, 1.41843967e-02, 2.36406620e-03,
          0., 2.36406620e-03, 0., 2.12765951e-02, 1.18203312e-02, 0.,
          7.09219836e-03, 4.72813239e-03, 0., 4.72813239e-03,
          4.72813239e-03, 2.36406620e-03, 0., 0., 0., 4.72813239e-03,
          4.72813239e-03, 2.36406620e-03, 0., 9.45626479e-03,
          1.18203312e-02, 2.36406620e-03, 0., 7.09219836e-03, 0., 0.,
          7.09219836e-03, 0., 1.41843967e-02, 2.36406620e-03, 0.,
          4.72813239e-03, 1.41843967e-02, 7.09219836e-03, 4.72813239e-03,
          2.36406620e-03, 2.36406620e-03, 4.72813239e-03, 4.72813239e-03,
          1.89125296e-02, 7.09219836e-03, 0., 4.72813239e-03,
          4.72813239e-03, 4.72813239e-03, 1.41843967e-02, 4.72813239e-03,
          7.09219836e-03, 1.18203312e-02, 0., 2.36406620e-03,
          2.36406620e-03, 2.36406620e-03, 0., 9.45626479e-03,
          2.36406620e-03, 1.65484641e-02, 2.12765951e-02, 1.41843967e-02,
          0., 9.45626479e-03, 4.72813239e-03, 0., 0., 1.18203312e-02, 0.,
          0., 0., 0., 7.09219836e-03, 7.09219836e-03, 1.89125296e-02, 0.,
          0., 4.72813239e-03, 2.36406620e-03, 0., 2.36406620e-03,
          2.36406620e-03, 2.36406620e-03, 7.09219836e-03, 4.72813239e-03,
          4.72813239e-03, 1.18203312e-02, 2.36406620e-03, 0.,
          9.45626479e-03, 4.72813239e-03, 4.72813239e-03, 2.36406620e-03,
          7.09219836e-03, 4.72813239e-03, 0., 0., 9.45626479e-03,
          9.45626479e-03, 9.45626479e-03, 1.65484641e-02, 1.41843967e-02,
          7.09219836e-03, 0., 4.72813239e-03, 1.89125296e-02,
          1.18203312e-02, 7.09219836e-03, 0., 0., 0., 7.09219836e-03, 0.,
          4.72813239e-03, 0., 9.45626479e-03, 0., 1.65484641e-02, 0.,
          2.36406620e-03, 4.72813239e-03, 0., 4.72813239e-03,
          7.09219836e-03, 2.83687934e-02, 9.45626479e-03, 4.72813239e-03,
          7.09219836e-03, 4.72813239e-03, 0., 7.09219836e-03,
          9.45626479e-03, 0., 0., 2.36406620e-03, 2.36406620e-03, 0.,
          9.45626479e-03, 4.72813239e-03, 7.09219836e-03, 1.18203312e-02,
          0., 2.36406620e-03, 9.45626479e-03, 2.36406620e-03,
          2.36406620e-03, 2.36406620e-03 ]
      - [ 0., 0., 0., 9.90098994e-03, 0., 4.95049497e-03, 9.90098994e-03,
          4.95049497e-03, 0., 4.95049497e-03, 0., 4.95049497e-03, 0.,
          9.90098994e-03, 0., 1.98019799e-02, 4.95049497e-03,
          9.90098994e-03, 0., 4.95049497e-03, 4.95049497e-03,
          9.90098994e-03, 0., 0., 0., 9.90098994e-03, 0., 7.42574260e-02,
          0., 0., 4.95049497e-03, 4.95049497e-03, 9.90098994e-03, 0.,
          9.90098994e-03, 4.95049497e-03, 9.90098994e-03, 0.,
          4.95049497e-03, 4.95049497e-03, 0., 0., 9.90098994e-03, 0., 0.,
          0., 4.95049497e-03, 1.48514844e-02, 0., 4.95049497e-03,
          4.95049497e-03, 0., 2.97029689e-02, 0., 0., 0., 1.48514844e-02,
          0., 0., 4.95049497e-03, 0., 0., 4.95049497e-03, 1.48514844e-02,
          0., 4.95049497e-03, 1.48514844e-02, 4.95049497e-03,
          9.90098994e-03, 0., 0., 4.95049497e-03, 0., 4.95049497e-03,
          4.95049497e-03, 9.90098994e-03, 0., 0., 0., 1.98019799e-02, 0.,
          9.90098994e-03, 0., 0., 4.95049497e-03, 0., 0., 4.95049497e-03,
          0., 0., 4.95049497e-03, 0., 1.48514844e-02, 4.95049497e-03,
          4.95049497e-03, 1.48514844e-02, 0., 0., 4.95049497e-03,
          4.95049497e-03, 0., 9.90098994e-03, 0., 4.95049497e-03,
          4.95049497e-03, 9.90098994e-03, 0., 4.95049497e-03,
          1.48514844e-02, 4.95049497e-03, 9.90098994e-03, 4.95049497e-03,
          9.90098994e-03, 9.90098994e-03, 1.48514844e-02, 0.,
          1.98019799e-02, 0., 0., 0., 1.98019799e-02, 0., 0., 0.,
          4.95049497e-03, 0., 4.95049497e-03, 4.95049497e-03, 0., 0.,
          1.48514844e-02, 0., 0., 0., 3.46534662e-02, 0., 4.95049497e-03,
          0., 0., 4.95049497e-03, 0., 0., 2.47524753e-02, 0., 0., 0.,
          9.90098994e-03, 1.48514844e-02, 0., 0., 0., 9.90098994e-03,
          4.95049497e-03, 9.90098994e-03, 2.47524753e-02, 0., 0.,
          4.95049497e-03, 0., 4.95049497e-03, 4.95049497e-03,
          4.95049497e-03, 0., 4.95049497e-03, 0., 0., 9.90098994e-03,
          4.95049497e-03, 0., 4.95049497e-03, 1.48514844e-02, 0., 0.,
          9.90098994e-03, 0., 9.90098994e-03, 9.90098994e-03,
          1.98019799e-02, 9.90098994e-03, 0., 0., 4.95049497e-03,
          9.90098994e-03, 4.95049497e-03, 9.90098994e-03, 4.95049497e-03,
          4.95049497e-03, 0., 4.95049497e-03, 0., 0., 0., 0.,
          9.90098994e-03, 0., 0., 0., 0., 4.95049497e-03, 0. ]
      - [ 3.62318847e-03, 1.44927539e-02, 9.05797072e-03, 1.81159424e-03,
          1.81159424e-03, 0., 7.24637695e-03, 2.17391308e-02, 0., 0.,
          3.62318847e-03, 1.26811601e-02, 5.43478271e-03, 1.26811601e-02,
          7.24637695e-03, 1.81159424e-03, 1.81159424e-03, 1.81159424e-03,
          1.81159424e-03, 5.43478271e-03, 0., 7.24637695e-03,
          3.62318847e-03, 1.08695654e-02, 9.05797072e-03, 1.81159424e-03,
          9.05797072e-03, 3.62318829e-02, 1.81159424e-03, 5.43478271e-03,
          9.05797072e-03, 5.43478271e-03, 3.62318847e-03, 9.05797072e-03,
          1.81159424e-03, 9.05797072e-03, 1.81159424e-03, 5.43478271e-03,
          0., 1.81159424e-03, 1.81159424e-03, 9.05797072e-03,
          1.81159424e-03, 3.62318847e-03, 1.81159424e-03, 3.62318847e-03,
          0., 1.81159424e-03, 5.43478271e-03, 0., 7.24637695e-03,
          1.81159424e-03, 7.24637695e-03, 5.43478271e-03, 5.43478271e-03,
          1.81159424e-03, 7.24637695e-03, 0., 0., 7.24637695e-03,
          3.62318847e-03, 5.43478271e-03, 0., 1.81159424e-03, 0.,
          9.05797072e-03, 3.62318847e-03, 3.62318847e-03, 1.81159424e-03,
          5.43478271e-03, 0., 5.43478271e-03, 7.24637695e-03, 0.,
          1.81159424e-03, 1.81159424e-03, 1.81159424e-03, 3.62318847e-03,
          1.81159424e-03, 1.26811601e-02, 7.24637695e-03, 1.81159424e-03,
          1.81159424e-03, 1.81159424e-03, 7.24637695e-03, 3.62318847e-03,
          0., 1.81159424e-03, 3.62318847e-03, 1.81159424e-03, 0.,
          7.24637695e-03, 5.43478271e-03, 3.62318847e-03, 5.43478271e-03,
          2.17391308e-02, 5.43478271e-03, 1.08695654e-02, 1.81159424e-03,
          1.81159424e-03, 7.24637695e-03, 5.43478271e-03, 3.62318847e-03,
          7.24637695e-03, 3.62318847e-03, 7.24637695e-03, 7.24637695e-03,
          9.05797072e-03, 1.81159424e-03, 1.81159424e-03, 3.62318847e-03,
          1.08695654e-02, 9.05797072e-03, 1.44927539e-02, 1.08695654e-02,
          3.62318847e-03, 5.43478271e-03, 1.08695654e-02, 1.81159424e-03,
          1.81159424e-03, 3.62318847e-03, 3.62318847e-03, 3.62318847e-03,
          3.62318847e-03, 0., 7.24637695e-03, 1.08695654e-02,
          1.08695654e-02, 0., 0., 3.62318847e-03, 1.81159424e-03,
          1.81159424e-03, 9.05797072e-03, 9.05797072e-03, 1.81159424e-03,
          3.62318847e-03, 5.43478271e-03, 3.62318847e-03, 3.62318847e-03,
          1.81159424e-03, 0., 1.99275371e-02, 1.81159424e-03,
          3.62318847e-03, 1.81159424e-03, 3.62318847e-03, 3.62318847e-03,
          0., 1.81159424e-03, 9.05797072e-03, 1.08695654e-02,
          1.08695654e-02, 9.05797072e-03, 7.24637695e-03, 7.24637695e-03,
          7.24637695e-03, 9.05797072e-03, 5.43478271e-03, 1.81159424e-03,
          1.08695654e-02, 5.43478271e-03, 3.62318847e-03, 3.62318847e-03,
          3.62318847e-03, 0., 1.81159424e-03, 3.62318847e-03,
          9.05797072e-03, 0., 0., 3.62318847e-03, 5.43478271e-03,
          1.81159424e-03, 5.43478271e-03, 1.44927539e-02, 1.26811601e-02,
          1.81159414e-02, 3.62318847e-03, 5.43478271e-03, 1.08695654e-02,
          0., 1.81159424e-03, 0., 0., 0., 9.05797072e-03, 3.62318847e-03,
          1.81159424e-03, 1.81159424e-03, 9.05797072e-03, 5.43478271e-03,
          1.81159424e-03, 7.24637695e-03, 0., 1.81159424e-03,
          9.05797072e-03, 1.81159424e-03, 3.62318847e-03, 5.43478271e-03 ]
      - [ 0., 1.12359552e-02, 0., 0., 2.24719103e-02, 0., 1.12359552e-02,
          1.12359552e-02, 0., 0., 0., 0., 0., 2.24719103e-02,
          1.12359552e-02, 4.49438207e-02, 1.12359552e-02, 0.,
          1.12359552e-02, 0., 1.12359552e-02, 0., 0., 0., 1.12359552e-02,
          0., 0., 3.37078646e-02, 0., 0., 0., 0., 0., 0., 0., 0.,
          1.12359552e-02, 1.12359552e-02, 0., 0., 0., 0., 2.24719103e-02,
          0., 0., 1.12359552e-02, 0., 0., 0., 0., 0., 0., 0., 0., 0., 0.,
          0., 0., 0., 1.12359552e-02, 0., 0., 0., 0., 0., 1.12359552e-02,
          0., 1.12359552e-02, 0., 0., 0., 0., 0., 0., 0., 0.,
          2.24719103e-02, 0., 0., 0., 0., 0., 1.12359552e-02, 0.,
          1.12359552e-02, 0., 0., 0., 0., 0., 0., 1.12359552e-02, 0.,
          1.12359552e-02, 2.24719103e-02, 4.49438207e-02, 0., 0.,
          1.12359552e-02, 0., 0., 0., 0., 0., 0., 0., 0., 1.12359552e-02,
          0., 0., 2.24719103e-02, 0., 2.24719103e-02, 2.24719103e-02,
          2.24719103e-02, 0., 1.12359552e-02, 0., 0., 1.12359552e-02,
          4.49438207e-02, 0., 0., 0., 1.12359552e-02, 1.12359552e-02,
          2.24719103e-02, 0., 0., 0., 1.12359552e-02, 0., 0., 0., 0., 0.,
          0., 0., 0., 0., 0., 0., 1.12359552e-02, 0., 2.24719103e-02, 0.,
          0., 1.12359552e-02, 0., 1.12359552e-02, 3.37078646e-02, 0.,
          3.37078646e-02, 1.12359552e-02, 2.24719103e-02, 0., 0., 0., 0.,
          0., 1.12359552e-02, 0., 0., 0., 0., 0., 0., 0., 0., 0., 0., 0.,
          1.12359552e-02, 0., 0., 0., 3.37078646e-02, 5.61797768e-02, 0.,
          0., 1.12359552e-02, 0., 0., 0., 0., 0., 0., 0., 0., 0., 0., 0.,
          1.12359552e-02, 1.12359552e-02, 0., 0., 0., 0., 0.,
          2.24719103e-02 ]
      - [ 0., 2.32558139e-02, 2.32558139e-03, 0., 4.65116277e-03, 0.,
          1.16279069e-02, 6.97674416e-03, 0., 2.32558139e-03,
          2.32558139e-03, 9.30232555e-03, 0., 4.65116277e-03,
          6.97674416e-03, 0., 6.97674416e-03, 4.65116277e-03,
          6.97674416e-03, 2.32558139e-03, 2.32558139e-03, 0., 0.,
          4.65116277e-03, 4.65116277e-03, 2.32558139e-03, 4.65116277e-03,
          9.30232555e-03, 2.32558139e-03, 0., 9.30232555e-03,
          4.65116277e-03, 2.32558139e-03, 6.97674416e-03, 2.32558139e-03,
          6.97674416e-03, 2.32558139e-03, 4.65116277e-03, 4.65116277e-03,
          2.32558139e-02, 0., 0., 4.65116277e-03, 0., 4.65116277e-03,
          9.30232555e-03, 2.32558139e-03, 1.16279069e-02, 1.16279069e-02,
          2.32558139e-03, 0., 0., 9.30232555e-03, 0., 4.65116277e-03, 0.,
          0., 0., 2.32558139e-03, 2.55813953e-02, 6.97674416e-03,
          4.65116277e-03, 2.32558139e-03, 0., 2.32558139e-03,
          6.97674416e-03, 2.32558139e-03, 0., 2.32558139e-03, 0.,
          6.97674416e-03, 6.97674416e-03, 4.65116277e-03, 2.32558139e-03,
          0., 9.30232555e-03, 9.30232555e-03, 0., 2.32558139e-03,
          1.16279069e-02, 2.32558139e-03, 2.32558139e-03, 2.32558139e-03,
          0., 1.16279069e-02, 4.65116277e-03, 0., 0., 4.65116277e-03,
          2.32558139e-03, 0., 9.30232555e-03, 0., 6.97674416e-03,
          4.65116277e-03, 1.39534883e-02, 9.30232555e-03, 6.97674416e-03,
          0., 2.32558139e-03, 2.32558139e-03, 6.97674416e-03,
          2.32558139e-03, 4.65116277e-03, 1.16279069e-02, 6.97674416e-03,
          2.32558139e-03, 0., 2.32558139e-03, 0., 4.65116277e-03, 0.,
          1.39534883e-02, 3.25581394e-02, 9.30232555e-03, 0.,
          4.65116277e-03, 4.65116277e-03, 6.97674416e-03, 2.32558139e-03,
          4.41860482e-02, 2.32558139e-03, 0., 4.65116277e-03, 0.,
          9.30232555e-03, 2.79069766e-02, 4.65116277e-03, 0.,
          2.32558139e-03, 2.32558139e-03, 0., 0., 2.32558139e-03,
          2.09302325e-02, 2.32558139e-03, 4.65116277e-03, 0.,
          2.32558139e-03, 6.97674416e-03, 1.62790697e-02, 0.,
          3.02325580e-02, 2.32558139e-03, 1.16279069e-02, 6.97674416e-03,
          0., 6.97674416e-03, 2.32558139e-03, 2.32558139e-03,
          2.32558139e-03, 9.30232555e-03, 1.62790697e-02, 6.97674416e-03,
          6.97674416e-03, 9.30232555e-03, 4.65116277e-03, 2.32558139e-03,
          1.39534883e-02, 9.30232555e-03, 4.65116277e-03, 1.39534883e-02,
          2.32558139e-03, 0., 0., 0., 2.32558139e-03, 2.32558139e-03,
          4.65116277e-03, 0., 6.97674416e-03, 2.32558139e-03,
          6.97674416e-03, 0., 0., 2.32558139e-03, 2.32558139e-03,
          2.32558139e-02, 9.30232555e-03, 4.65116277e-03, 2.32558139e-03,
          0., 4.65116277e-03, 4.65116277e-03, 1.39534883e-02, 0.,
          2.32558139e-03, 2.32558139e-03, 0., 0., 0., 0., 2.32558139e-03,
          6.97674416e-03, 0., 0., 6.97674416e-03, 2.32558139e-03, 0., 0. ]
      - [ 1.14942528e-02, 1.14942528e-02, 0., 0., 0., 0., 0., 0., 0., 0.,
          1.14942528e-02, 0., 0., 2.29885057e-02, 2.29885057e-02, 0.,
          1.14942528e-02, 0., 1.14942528e-02, 0., 3.44827585e-02, 0., 0.,
          0., 0., 0., 0., 0., 0., 0., 0., 0., 1.14942528e-02, 0.,
          2.29885057e-02, 0., 0., 0., 0., 0., 0., 1.14942528e-02,
          1.14942528e-02, 0., 1.14942528e-02, 0., 0., 0., 1.14942528e-02,
          1.14942528e-02, 0., 0., 0., 1.14942528e-02, 1.14942528e-02, 0.,
          1.14942528e-02, 0., 0., 0., 0., 0., 0., 0., 0., 0.,
          1.14942528e-02, 0., 1.14942528e-02, 2.29885057e-02, 0.,
          2.29885057e-02, 0., 0., 0., 0., 2.29885057e-02, 0., 0., 0., 0.,
          0., 0., 0., 1.14942528e-02, 0., 0., 0., 0., 0., 0., 0., 0.,
          4.59770113e-02, 2.29885057e-02, 0., 0., 1.14942528e-02,
          5.74712642e-02, 0., 2.29885057e-02, 0., 1.14942528e-02, 0., 0.,
          0., 0., 1.14942528e-02, 2.29885057e-02, 0., 0., 0., 0., 0.,
          2.29885057e-02, 1.14942528e-02, 1.14942528e-02, 0.,
          1.14942528e-02, 0., 2.29885057e-02, 0., 0., 0., 0., 0., 0., 0.,
          0., 0., 0., 0., 0., 0., 1.14942528e-02, 0., 0., 1.14942528e-02,
          0., 2.29885057e-02, 0., 0., 1.14942528e-02, 0., 0., 0.,
          1.14942528e-02, 1.14942528e-02, 0., 0., 1.14942528e-02,
          1.14942528e-02, 0., 1.14942528e-02, 4.59770113e-02,
          1.14942528e-02, 0., 1.14942528e-02, 1.14942528e-02,
          1.14942528e-02, 0., 1.14942528e-02, 0., 1.14942528e-02, 0., 0.,
          0., 0., 1.14942528e-02, 0., 0., 0., 0., 0., 1.14942528e-02, 0.,
          2.29885057e-02, 3.44827585e-02, 0., 0., 0., 0., 0.,
          1.14942528e-02, 0., 0., 0., 0., 0., 0., 0., 0., 0.,
          1.14942528e-02, 0., 1.14942528e-02, 0., 0., 0., 0. ]
      - [ 0., 0., 0., 0., 0., 0., 0., 0., 0., 0., 0., 0., 0., 0., 0.,
          1.33333340e-01, 0., 0., 6.66666701e-02, 0., 0., 0., 0., 0., 0.,
          0., 0., 0., 0., 0., 0., 0., 0., 0., 0., 0., 0., 0., 0., 0., 0.,
          0., 0., 0., 0., 0., 0., 0., 0., 0., 0., 0., 0., 0., 0., 0., 0.,
          0., 0., 0., 0., 0., 0., 0., 0., 0., 0., 0., 0., 0., 0., 0., 0.,
          0., 0., 0., 0., 0., 0., 0., 0., 0., 0., 0., 0., 0., 0., 0., 0.,
          0., 0., 0., 0., 6.66666701e-02, 0., 6.66666701e-02, 0., 0., 0.,
          0., 0., 0., 0., 0., 0., 0., 0., 0., 0., 0., 0., 0.,
          2.00000018e-01, 6.66666701e-02, 0., 0., 0., 0., 0., 0.,
          6.66666701e-02, 0., 0., 0., 0., 0., 0., 0., 0., 0., 0., 0., 0.,
          0., 0., 0., 0., 0., 0., 0., 0., 0., 0., 0., 0., 0., 0., 0., 0.,
          0., 0., 0., 0., 0., 0., 6.66666701e-02, 0., 0., 0.,
          6.66666701e-02, 0., 0., 0., 0., 0., 0., 0., 0., 0., 0.,
          6.66666701e-02, 0., 0., 0., 0., 0., 0., 0., 0., 0., 0., 0., 0.,
          0., 6.66666701e-02, 0., 0., 0., 0., 0., 0., 0., 0., 0., 0., 0.,
          6.66666701e-02, 0., 0., 0. ]
      - [ 2.94550811e-03, 1.03092780e-02, 2.94550811e-03, 5.89101622e-03,
          2.94550811e-03, 4.41826228e-03, 7.36377016e-03, 8.83652456e-03,
          0., 4.41826228e-03, 4.41826228e-03, 4.41826228e-03, 0.,
          1.03092780e-02, 5.89101622e-03, 2.94550811e-03, 0.,
          4.41826228e-03, 1.47275405e-03, 2.94550811e-03, 1.47275405e-03,
          1.47275405e-03, 2.94550811e-03, 5.89101622e-03, 2.94550811e-03,
          2.94550811e-03, 1.47275405e-03, 6.33284226e-02, 2.94550811e-03,
          1.47275405e-03, 7.36377016e-03, 0., 4.41826228e-03,
          7.36377016e-03, 4.41826228e-03, 1.17820324e-02, 5.89101622e-03,
          4.41826228e-03, 2.94550811e-03, 0., 1.47275405e-03,
          1.47275405e-03, 1.47275405e-03, 2.94550811e-03, 0.,
          2.35640649e-02, 1.47275405e-03, 1.17820324e-02, 2.94550811e-03,
          4.41826228e-03, 1.47275405e-03, 2.94550811e-03, 8.83652456e-03,
          1.47275405e-03, 5.89101622e-03, 0., 1.47275405e-03,
          2.94550811e-03, 0., 1.03092780e-02, 2.94550811e-03,
          4.41826228e-03, 1.47275405e-03, 1.47275405e-03, 0.,
          5.89101622e-03, 0., 5.89101622e-03, 1.47275405e-03, 0.,
          5.89101622e-03, 8.83652456e-03, 0., 2.94550811e-03, 0.,
          1.91458035e-02, 2.94550811e-03, 0., 1.47275405e-03,
          4.41826228e-03, 0., 1.47275405e-03, 7.36377016e-03,
          1.47275405e-03, 1.17820324e-02, 2.94550811e-03, 2.94550811e-03,
          4.41826228e-03, 1.17820324e-02, 7.36377016e-03, 0.,
          5.89101622e-03, 2.94550811e-03, 7.36377016e-03, 4.41826228e-03,
          1.47275403e-02, 8.83652456e-03, 5.89101622e-03, 4.41826228e-03,
          5.89101622e-03, 1.47275405e-03, 7.36377016e-03, 5.89101622e-03,
          1.47275405e-03, 5.89101622e-03, 7.36377016e-03, 1.47275405e-03,
          4.41826228e-03, 2.94550811e-03, 7.36377016e-03, 1.47275405e-03,
          1.47275405e-03, 5.89101622e-03, 1.91458035e-02, 8.83652456e-03,
          1.47275405e-03, 5.89101622e-03, 4.41826228e-03, 1.03092780e-02,
          0., 1.47275403e-02, 0., 2.94550811e-03, 8.83652456e-03,
          2.94550811e-03, 4.41826228e-03, 1.03092780e-02, 1.17820324e-02,
          1.47275405e-03, 1.47275405e-03, 1.47275405e-03, 0.,
          1.47275405e-03, 2.94550811e-03, 1.03092780e-02, 2.94550811e-03,
          1.17820324e-02, 1.47275405e-03, 1.47275405e-03, 8.83652456e-03,
          5.89101622e-03, 0., 1.17820324e-02, 5.89101622e-03,
          1.17820324e-02, 1.47275405e-03, 1.17820324e-02, 2.94550811e-03,
          0., 2.94550811e-03, 2.94550811e-03, 1.03092780e-02,
          7.36377016e-03, 8.83652456e-03, 8.83652456e-03, 8.83652456e-03,
          2.94550811e-03, 1.47275405e-03, 1.03092780e-02, 1.17820324e-02,
          7.36377016e-03, 1.47275403e-02, 2.94550811e-03, 2.94550811e-03,
          8.83652456e-03, 1.47275405e-03, 2.94550811e-03, 1.47275405e-03,
          1.47275405e-03, 1.47275405e-03, 4.41826228e-03, 1.47275405e-03,
          2.94550811e-03, 1.47275405e-03, 1.47275405e-03, 8.83652456e-03,
          7.36377016e-03, 1.03092780e-02, 7.36377016e-03, 7.36377016e-03,
          5.89101622e-03, 0., 0., 5.89101622e-03, 7.36377016e-03,
          1.47275405e-03, 1.47275405e-03, 5.89101622e-03, 1.47275405e-03,
          0., 4.41826228e-03, 5.89101622e-03, 2.94550811e-03,
          5.89101622e-03, 1.47275405e-03, 2.94550811e-03, 1.03092780e-02,
          1.47275405e-03, 1.47275405e-03, 1.03092780e-02 ]
      - [ 0., 0., 0., 0., 0., 0., 0., 0., 0., 0., 0., 0., 0., 0., 0.,
          7.33333349e-01, 0., 0., 0., 0., 0., 0., 0., 0., 0., 0., 0., 0.,
          0., 0., 0., 0., 0., 0., 0., 0., 0., 0., 0., 0., 0., 0., 0., 0.,
          0., 0., 0., 0., 0., 0., 0., 0., 0., 0., 0., 0., 0., 0., 0., 0.,
          0., 6.66666701e-02, 0., 0., 0., 0., 0., 0., 0., 0., 0., 0., 0.,
          0., 0., 0., 0., 0., 0., 0., 0., 0., 0., 0., 0., 0., 0., 0., 0.,
          0., 0., 0., 0., 0., 0., 0., 0., 0., 0., 0., 0., 0., 0., 0., 0.,
          0., 0., 0., 0., 0., 0., 0., 6.66666701e-02, 0., 0., 0., 0., 0.,
          0., 0., 0., 0., 0., 0., 0., 0., 0., 0., 0., 0., 0., 0., 0., 0.,
          0., 0., 0., 0., 0., 0., 0., 0., 0., 0., 0., 0., 0., 0., 0., 0.,
          0., 0., 0., 0., 0., 0., 0., 0., 0., 0., 0., 0., 0., 0., 0., 0.,
          0., 0., 6.66666701e-02, 0., 6.66666701e-02, 0., 0., 0., 0., 0.,
          0., 0., 0., 0., 0., 0., 0., 0., 0., 0., 0., 0., 0., 0., 0., 0.,
          0., 0., 0., 0., 0., 0., 0., 0. ]
      - [ 4.19463078e-03, 2.51677865e-03, 3.35570471e-03, 3.35570471e-03,
          3.35570471e-03, 6.71140943e-03, 5.87248337e-03, 4.19463078e-03,
          0., 1.67785236e-03, 8.38926178e-04, 2.51677865e-03,
          5.87248337e-03, 5.87248337e-03, 7.55033549e-03, 1.84563752e-02,
          7.55033549e-03, 4.19463078e-03, 4.19463078e-03, 5.03355730e-03,
          1.51006710e-02, 1.67785236e-03, 1.17449667e-02, 5.03355730e-03,
          4.19463078e-03, 2.51677865e-03, 3.35570471e-03, 4.44630869e-02,
          8.38926178e-04, 5.87248337e-03, 8.38926178e-04, 2.51677865e-03,
          1.17449667e-02, 1.67785236e-03, 5.03355730e-03, 8.38926178e-04,
          4.19463078e-03, 3.35570471e-03, 1.67785236e-03, 2.51677865e-03,
          1.67785236e-03, 8.38926155e-03, 2.51677865e-03, 9.22818761e-03,
          3.35570471e-03, 1.34228189e-02, 3.35570471e-03, 1.67785236e-03,
          2.51677865e-03, 4.19463078e-03, 4.19463078e-03, 5.03355730e-03,
          1.67785236e-03, 1.34228189e-02, 1.67785236e-03, 5.87248337e-03,
          8.38926155e-03, 7.55033549e-03, 1.17449667e-02, 0.,
          5.03355730e-03, 3.35570471e-03, 3.35570471e-03, 3.35570471e-03,
          0., 3.35570471e-03, 7.55033549e-03, 2.51677865e-03,
          2.51677865e-03, 5.87248337e-03, 2.51677865e-03, 5.87248337e-03,
          8.38926178e-04, 7.55033549e-03, 1.84563752e-02, 2.51677865e-03,
          7.55033549e-03, 6.71140943e-03, 8.38926178e-04, 8.38926178e-04,
          5.87248337e-03, 2.51677865e-03, 1.00671146e-02, 8.38926155e-03,
          3.35570471e-03, 8.38926178e-04, 6.71140943e-03, 9.22818761e-03,
          3.35570471e-03, 0., 5.03355730e-03, 2.51677865e-03,
          8.38926155e-03, 5.03355730e-03, 1.09060407e-02, 7.55033549e-03,
          5.87248337e-03, 2.51677865e-03, 1.51006710e-02, 2.51677865e-03,
          5.03355730e-03, 3.35570471e-03, 4.19463078e-03, 5.03355730e-03,
          1.17449667e-02, 5.03355730e-03, 5.03355730e-03, 5.03355730e-03,
          1.67785231e-02, 0., 8.38926155e-03, 8.38926178e-04,
          1.42617449e-02, 1.67785236e-03, 1.17449667e-02, 4.19463078e-03,
          6.71140943e-03, 5.03355730e-03, 4.19463078e-03, 8.38926178e-04,
          5.03355730e-03, 2.51677865e-03, 3.35570471e-03, 1.67785236e-03,
          1.67785236e-03, 2.51677865e-03, 0., 8.38926178e-04,
          5.87248337e-03, 8.38926178e-04, 1.67785236e-03, 7.55033549e-03,
          5.03355730e-03, 1.67785236e-03, 7.55033549e-03, 8.38926155e-03,
          6.71140943e-03, 3.35570471e-03, 8.38926178e-04, 5.03355730e-03,
          0., 0., 1.67785236e-03, 4.19463078e-03, 1.67785236e-03,
          3.35570471e-03, 7.55033549e-03, 5.87248337e-03, 2.51677865e-03,
          8.38926178e-04, 3.35570471e-03, 0., 5.03355730e-03,
          7.55033549e-03, 3.35570471e-03, 9.22818761e-03, 2.51677865e-03,
          5.03355730e-03, 2.51677865e-03, 1.00671146e-02, 3.35570471e-03,
          8.38926155e-03, 5.87248337e-03, 3.35570471e-03, 5.03355730e-03,
          8.38926178e-04, 2.51677865e-03, 9.22818761e-03, 6.71140943e-03,
          8.38926178e-04, 5.03355730e-03, 4.19463078e-03, 5.87248337e-03,
          4.19463078e-03, 4.19463078e-03, 8.38926178e-04, 5.87248337e-03,
          8.38926155e-03, 5.03355730e-03, 2.51677865e-03, 3.35570471e-03,
          6.71140943e-03, 3.35570471e-03, 5.03355730e-03, 5.87248337e-03,
          2.51677865e-03, 1.67785236e-03, 1.67785236e-03, 9.22818761e-03,
          2.51677865e-03, 5.87248337e-03, 3.35570471e-03, 3.35570471e-03,
          6.71140943e-03, 7.55033549e-03, 0., 2.51677865e-03,
          5.03355730e-03, 1.84563752e-02, 2.51677865e-03 ]
      - [ 0., 6.65778946e-03, 3.99467349e-03, 5.32623148e-03,
          6.65778946e-03, 7.98934698e-03, 2.66311574e-03, 5.32623148e-03,
          0., 0., 2.66311574e-03, 5.32623148e-03, 9.32090543e-03,
          3.99467349e-03, 1.19840205e-02, 1.73102524e-02, 1.19840205e-02,
          2.66311574e-03, 5.32623148e-03, 3.99467349e-03, 3.99467349e-03,
          0., 1.59786940e-02, 7.98934698e-03, 3.99467349e-03,
          2.66311574e-03, 2.66311574e-03, 9.32090506e-02, 0.,
          9.32090543e-03, 9.32090543e-03, 2.66311574e-03, 3.99467349e-03,
          1.33155787e-03, 1.33155787e-03, 1.33155787e-03, 0.,
          7.98934698e-03, 1.59786940e-02, 3.99467349e-03, 2.66311574e-03,
          7.98934698e-03, 2.66311574e-03, 9.32090543e-03, 2.66311574e-03,
          1.19840205e-02, 1.33155787e-03, 3.99467349e-03, 2.66311574e-03,
          3.99467349e-03, 6.65778946e-03, 0., 6.65778946e-03,
          3.99467349e-03, 1.33155787e-03, 1.33155787e-03, 6.65778946e-03,
          6.65778946e-03, 1.33155789e-02, 2.66311574e-03, 2.66311574e-03,
          0., 2.66311574e-03, 1.33155787e-03, 5.32623148e-03,
          5.32623148e-03, 2.66311574e-03, 2.66311574e-03, 3.99467349e-03,
          2.66311574e-03, 3.99467349e-03, 6.65778946e-03, 2.66311574e-03,
          1.33155787e-03, 5.32623148e-03, 2.66311574e-03, 1.19840205e-02,
          0., 0., 2.66311574e-03, 2.66311574e-03, 2.66311574e-03,
          5.32623148e-03, 6.65778946e-03, 3.99467349e-03, 1.33155787e-03,
          9.32090543e-03, 1.19840205e-02, 1.33155787e-03, 1.33155787e-03,
          5.32623148e-03, 3.99467349e-03, 2.66311574e-03, 1.19840205e-02,
          2.66311574e-03, 6.65778946e-03, 7.98934698e-03, 2.66311574e-03,
          2.66311574e-03, 3.99467349e-03, 3.99467349e-03, 1.33155787e-03,
          1.06524630e-02, 2.66311574e-03, 6.65778946e-03, 2.66311574e-03,
          2.66311574e-03, 5.32623148e-03, 3.99467349e-03, 1.33155787e-03,
          2.66311574e-03, 1.33155787e-03, 9.32090543e-03, 1.33155787e-03,
          1.33155789e-02, 3.99467349e-03, 1.33155787e-03, 3.99467349e-03,
          9.32090543e-03, 7.98934698e-03, 7.98934698e-03, 1.33155787e-03,
          2.66311574e-03, 1.33155787e-03, 2.66311574e-03, 7.98934698e-03,
          5.32623148e-03, 2.66311574e-03, 3.99467349e-03, 0.,
          3.99467349e-03, 1.33155787e-03, 5.32623148e-03, 3.99467349e-03,
          6.65778946e-03, 7.98934698e-03, 5.32623148e-03, 0.,
          3.99467349e-03, 7.98934698e-03, 7.98934698e-03, 0.,
          5.32623148e-03, 3.99467349e-03, 2.66311574e-03, 2.66311574e-03,
          1.46471364e-02, 0., 1.33155787e-03, 5.32623148e-03,
          3.99467349e-03, 0., 2.66311574e-03, 7.98934698e-03,
          3.99467349e-03, 7.98934698e-03, 1.33155787e-03, 5.32623148e-03,
          5.32623148e-03, 7.98934698e-03, 3.99467349e-03, 7.98934698e-03,
          1.33155787e-03, 5.32623148e-03, 0., 3.99467349e-03,
          2.66311574e-03, 6.65778946e-03, 1.19840205e-02, 5.32623148e-03,
          6.65778946e-03, 0., 3.99467349e-03, 0., 5.32623148e-03,
          2.66311574e-03, 9.32090543e-03, 9.32090543e-03, 5.32623148e-03,
          6.65778946e-03, 5.32623148e-03, 2.66311574e-03, 2.66311574e-03,
          7.98934698e-03, 7.98934698e-03, 1.33155787e-03, 0., 0.,
          2.66311574e-03, 3.99467349e-03, 6.65778946e-03, 1.33155787e-03,
          3.99467349e-03, 1.33155787e-03, 5.32623148e-03, 0.,
          1.33155787e-03, 3.99467349e-03, 7.98934698e-03, 2.66311574e-03 ]
      - [ 3.37349391e-03, 6.26506004e-03, 3.37349391e-03, 2.40963860e-03,
          7.22891558e-03, 7.71084335e-03, 6.74698781e-03, 5.78313228e-03,
          9.63855418e-04, 2.40963860e-03, 4.81927721e-03, 5.30120498e-03,
          2.40963860e-03, 6.74698781e-03, 9.63855442e-03, 1.06024100e-02,
          3.85542167e-03, 1.92771084e-03, 2.40963860e-03, 6.74698781e-03,
          6.74698781e-03, 3.85542167e-03, 4.33734944e-03, 7.22891558e-03,
          6.74698781e-03, 3.37349391e-03, 7.71084335e-03, 2.12048199e-02,
          2.40963860e-03, 3.85542167e-03, 3.85542167e-03, 5.78313228e-03,
          2.40963860e-03, 4.33734944e-03, 2.40963860e-03, 5.30120498e-03,
          3.37349391e-03, 6.26506004e-03, 2.40963860e-03, 2.89156614e-03,
          3.37349391e-03, 4.81927721e-03, 5.30120498e-03, 5.78313228e-03,
          2.89156614e-03, 1.06024100e-02, 4.33734944e-03, 2.89156614e-03,
          3.37349391e-03, 9.15662665e-03, 3.85542167e-03, 5.30120498e-03,
          8.19277111e-03, 1.01204822e-02, 3.85542167e-03, 3.37349391e-03,
          7.71084335e-03, 4.33734944e-03, 2.89156614e-03, 4.33734944e-03,
          3.37349391e-03, 2.40963860e-03, 4.33734944e-03, 3.85542167e-03,
          1.44578307e-03, 2.89156614e-03, 2.40963860e-03, 1.92771084e-03,
          4.33734944e-03, 7.22891558e-03, 3.85542167e-03, 3.37349391e-03,
          3.85542167e-03, 5.78313228e-03, 1.44578312e-02, 4.33734944e-03,
          1.01204822e-02, 5.78313228e-03, 1.92771084e-03, 1.44578307e-03,
          6.26506004e-03, 6.26506004e-03, 1.01204822e-02, 5.78313228e-03,
          4.81927721e-03, 3.37349391e-03, 4.81927721e-03, 5.78313228e-03,
          5.30120498e-03, 1.92771084e-03, 6.26506004e-03, 1.92771084e-03,
          6.74698781e-03, 6.26506004e-03, 5.78313228e-03, 6.74698781e-03,
          7.22891558e-03, 6.26506004e-03, 6.26506004e-03, 5.78313228e-03,
          4.33734944e-03, 3.85542167e-03, 3.85542167e-03, 5.30120498e-03,
          8.19277111e-03, 4.33734944e-03, 3.85542167e-03, 3.37349391e-03,
          7.22891558e-03, 2.40963860e-03, 8.19277111e-03, 3.85542167e-03,
          7.71084335e-03, 6.26506004e-03, 9.15662665e-03, 3.37349391e-03,
          6.74698781e-03, 6.74698781e-03, 5.78313228e-03, 4.81927721e-03,
          4.33734944e-03, 6.26506004e-03, 2.89156614e-03, 3.37349391e-03,
          3.85542167e-03, 4.33734944e-03, 1.92771084e-03, 3.37349391e-03,
          1.92771084e-03, 4.81927721e-03, 4.33734944e-03, 4.81927721e-03,
          4.81927721e-03, 1.92771084e-03, 3.37349391e-03, 7.22891558e-03,
          3.37349391e-03, 4.81927721e-03, 1.92771084e-03, 3.85542167e-03,
          3.37349391e-03, 7.22891558e-03, 4.33734944e-03, 4.33734944e-03,
          4.33734944e-03, 3.37349391e-03, 8.19277111e-03, 6.74698781e-03,
          3.85542167e-03, 1.44578307e-03, 4.33734944e-03, 3.85542167e-03,
          4.81927721e-03, 9.63855442e-03, 6.26506004e-03, 6.74698781e-03,
          2.89156614e-03, 4.81927721e-03, 5.78313228e-03, 4.81927721e-03,
          5.30120498e-03, 1.15662646e-02, 3.37349391e-03, 4.81927721e-03,
          3.37349391e-03, 3.37349391e-03, 5.78313228e-03, 5.78313228e-03,
          4.81927721e-03, 2.89156614e-03, 3.85542167e-03, 2.89156614e-03,
          5.30120498e-03, 1.44578307e-03, 6.26506004e-03, 3.85542167e-03,
          4.33734944e-03, 8.67469888e-03, 4.33734944e-03, 5.78313228e-03,
          3.37349391e-03, 5.30120498e-03, 4.81927721e-03, 3.85542167e-03,
          3.85542167e-03, 4.33734944e-03, 7.22891558e-03, 2.89156614e-03,
          5.30120498e-03, 5.78313228e-03, 4.33734944e-03, 4.33734944e-03,
          5.30120498e-03, 1.92771084e-03, 4.81927721e-03, 4.33734944e-03,
          4.81927721e-03, 4.81927721e-03, 1.10843377e-02, 4.81927721e-03 ]
      - [ 1.43472024e-03, 4.30416083e-03, 5.73888095e-03, 4.30416083e-03,
          6.45624101e-03, 9.32568125e-03, 7.17360107e-03, 4.30416083e-03,
          0., 2.86944048e-03, 3.58680054e-03, 5.73888095e-03,
          3.58680054e-03, 6.45624101e-03, 1.14777619e-02, 4.30416083e-03,
          6.45624101e-03, 2.15208041e-03, 9.32568125e-03, 2.86944048e-03,
          1.79340038e-02, 1.43472024e-03, 6.45624101e-03, 5.73888095e-03,
          2.15208041e-03, 7.17360119e-04, 1.43472024e-03, 3.80200855e-02,
          1.43472024e-03, 7.17360107e-03, 2.86944048e-03, 2.15208041e-03,
          6.45624101e-03, 7.17360107e-03, 8.60832166e-03, 1.43472024e-03,
          0., 7.17360107e-03, 6.45624101e-03, 2.86944048e-03,
          7.17360119e-04, 7.17360107e-03, 3.58680054e-03, 4.30416083e-03,
          5.02152089e-03, 7.17360107e-03, 1.43472024e-03, 4.30416083e-03,
          1.43472024e-03, 6.45624101e-03, 1.43472024e-03, 2.86944048e-03,
          7.17360119e-04, 8.60832166e-03, 1.43472024e-03, 5.73888095e-03,
          8.60832166e-03, 1.07604014e-02, 6.45624101e-03, 7.17360119e-04,
          7.17360107e-03, 1.43472024e-03, 4.30416083e-03, 2.86944048e-03,
          0., 5.02152089e-03, 8.60832166e-03, 7.17360119e-04,
          4.30416083e-03, 6.45624101e-03, 1.43472024e-03, 7.89096113e-03,
          2.15208041e-03, 8.60832166e-03, 1.29124820e-02, 2.15208041e-03,
          1.07604014e-02, 6.45624101e-03, 2.15208041e-03, 2.15208041e-03,
          3.58680054e-03, 3.58680054e-03, 1.07604014e-02, 1.00430418e-02,
          2.86944048e-03, 7.17360119e-04, 5.73888095e-03, 1.36298425e-02,
          7.17360119e-04, 2.15208041e-03, 3.58680054e-03, 7.17360119e-04,
          3.58680054e-03, 7.89096113e-03, 9.32568125e-03, 5.02152089e-03,
          5.73888095e-03, 3.58680054e-03, 1.72166433e-02, 2.86944048e-03,
          7.89096113e-03, 3.58680054e-03, 8.60832166e-03, 1.43472024e-03,
          1.14777619e-02, 1.43472024e-03, 1.43472024e-03, 5.73888095e-03,
          8.60832166e-03, 0., 9.32568125e-03, 7.17360119e-04,
          7.17360107e-03, 7.17360119e-04, 1.43472021e-02, 1.00430418e-02,
          2.86944048e-03, 5.02152089e-03, 2.86944048e-03, 1.43472024e-03,
          4.30416083e-03, 4.30416083e-03, 1.43472024e-03, 1.43472024e-03,
          2.15208041e-03, 2.15208041e-03, 7.17360119e-04, 7.17360119e-04,
          4.30416083e-03, 1.43472024e-03, 3.58680054e-03, 9.32568125e-03,
          7.17360107e-03, 3.58680054e-03, 5.02152089e-03, 1.14777619e-02,
          7.89096113e-03, 3.58680054e-03, 7.17360119e-04, 7.89096113e-03,
          7.17360119e-04, 7.17360119e-04, 2.86944048e-03, 1.43472024e-03,
          2.15208041e-03, 4.30416083e-03, 1.07604014e-02, 8.60832166e-03,
          2.15208041e-03, 1.43472024e-03, 7.17360107e-03, 2.86944048e-03,
          2.86944048e-03, 7.17360107e-03, 8.60832166e-03, 8.60832166e-03,
          0., 6.45624101e-03, 1.43472024e-03, 1.43472021e-02,
          5.73888095e-03, 6.45624101e-03, 4.30416083e-03, 4.30416083e-03,
          4.30416083e-03, 1.43472024e-03, 3.58680054e-03, 7.17360107e-03,
          7.89096113e-03, 2.15208041e-03, 4.30416083e-03, 7.17360119e-04,
          9.32568125e-03, 1.43472024e-03, 2.15208041e-03, 4.30416083e-03,
          5.02152089e-03, 7.89096113e-03, 5.02152089e-03, 7.89096113e-03,
          3.58680054e-03, 7.17360119e-04, 2.86944048e-03, 5.73888095e-03,
          1.07604014e-02, 2.15208041e-03, 5.02152089e-03, 1.43472024e-03,
          9.32568125e-03, 5.02152089e-03, 2.15208041e-03, 2.86944048e-03,
          5.73888095e-03, 4.30416083e-03, 5.73888095e-03, 2.86944048e-03,
          1.43472024e-03, 4.30416083e-03, 1.36298425e-02, 2.86944048e-03 ]
      - [ 3.46260378e-03, 5.54016605e-03, 2.77008303e-03, 6.23268681e-03,
          1.10803321e-02, 4.84764529e-03, 8.31024908e-03, 7.61772832e-03,
          0., 2.07756227e-03, 3.46260378e-03, 1.38504151e-03,
          3.46260378e-03, 2.07756227e-03, 1.86980609e-02, 1.24653736e-02,
          8.31024908e-03, 6.92520756e-04, 6.92520756e-03, 7.61772832e-03,
          1.03878118e-02, 1.38504151e-03, 1.52354566e-02, 1.03878118e-02,
          6.92520756e-03, 3.46260378e-03, 1.38504151e-03, 4.22437675e-02,
          0., 3.46260378e-03, 0., 1.38504151e-03, 5.54016605e-03,
          4.15512454e-03, 2.77008303e-03, 1.38504151e-03, 4.15512454e-03,
          2.77008303e-03, 3.46260378e-03, 6.92520756e-04, 1.38504151e-03,
          6.92520756e-03, 4.15512454e-03, 3.46260378e-03, 4.15512454e-03,
          9.69529059e-03, 1.38504151e-03, 2.77008303e-03, 5.54016605e-03,
          5.54016605e-03, 6.92520756e-03, 3.46260378e-03, 1.38504151e-03,
          6.23268681e-03, 6.92520756e-03, 4.84764529e-03, 4.15512454e-03,
          8.31024908e-03, 8.31024908e-03, 1.38504151e-03, 5.54016605e-03,
          1.38504151e-03, 3.46260378e-03, 4.84764529e-03, 0.,
          2.77008303e-03, 1.38504151e-03, 2.07756227e-03, 3.46260378e-03,
          2.77008303e-03, 3.46260378e-03, 4.84764529e-03, 2.77008303e-03,
          6.92520756e-03, 6.92520756e-03, 8.31024908e-03, 6.92520756e-03,
          6.92520756e-03, 2.07756227e-03, 1.38504151e-03, 2.77008303e-03,
          7.61772832e-03, 8.31024908e-03, 6.23268681e-03, 9.00276937e-03,
          2.07756227e-03, 2.07756227e-03, 9.00276937e-03, 6.23268681e-03,
          6.92520756e-04, 2.07756227e-03, 3.46260378e-03, 8.31024908e-03,
          4.84764529e-03, 9.69529059e-03, 1.03878118e-02, 4.15512454e-03,
          5.54016605e-03, 7.61772832e-03, 1.38504151e-03, 1.45429354e-02,
          4.15512454e-03, 4.15512454e-03, 2.77008303e-03, 1.24653736e-02,
          2.77008303e-03, 7.61772832e-03, 2.07756227e-03, 4.15512454e-03,
          1.38504151e-03, 4.84764529e-03, 1.38504151e-03, 1.03878118e-02,
          1.38504151e-03, 1.17728524e-02, 4.15512454e-03, 7.61772832e-03,
          1.38504151e-03, 6.92520756e-03, 2.07756227e-03, 2.77008303e-03,
          2.77008303e-03, 1.38504151e-03, 1.38504151e-03, 1.38504151e-03,
          5.54016605e-03, 0., 1.38504151e-03, 4.84764529e-03,
          2.77008303e-03, 2.07756227e-03, 5.54016605e-03, 6.23268681e-03,
          2.07756227e-03, 2.77008303e-03, 1.38504151e-02, 6.92520756e-03,
          3.46260378e-03, 1.38504151e-03, 5.54016605e-03, 0.,
          6.92520756e-04, 3.46260378e-03, 1.38504151e-03, 0.,
          1.38504151e-03, 1.31578948e-02, 6.23268681e-03, 5.54016605e-03,
          0., 8.31024908e-03, 3.46260378e-03, 4.15512454e-03,
          1.24653736e-02, 9.00276937e-03, 9.69529059e-03, 2.77008303e-03,
          6.92520756e-03, 2.77008303e-03, 1.38504151e-02, 6.23268681e-03,
          9.69529059e-03, 3.46260378e-03, 4.84764529e-03, 9.00276937e-03,
          3.46260378e-03, 2.07756227e-03, 4.84764529e-03, 1.31578948e-02,
          6.92520756e-04, 4.84764529e-03, 2.77008303e-03, 3.46260378e-03,
          2.77008303e-03, 6.92520756e-04, 4.84764529e-03, 6.92520756e-03,
          8.31024908e-03, 5.54016605e-03, 4.84764529e-03, 5.54016605e-03,
          3.46260378e-03, 1.38504151e-03, 3.46260378e-03, 6.92520756e-03,
          2.07756227e-03, 6.92520756e-04, 2.77008303e-03, 4.84764529e-03,
          1.38504151e-03, 1.03878118e-02, 2.07756227e-03, 5.54016605e-03,
          5.54016605e-03, 4.84764529e-03, 4.15512454e-03, 2.07756227e-03,
          4.15512454e-03, 8.31024908e-03, 5.54016605e-03 ]
      - [ 1.35226501e-03, 0., 2.02839752e-03, 5.40906005e-03,
          6.76132506e-03, 4.73292731e-03, 2.70453002e-03, 6.08519278e-03,
          0., 2.02839752e-03, 2.02839752e-03, 6.08519278e-03,
          4.05679503e-03, 4.73292731e-03, 1.41987829e-02, 1.35226501e-02,
          1.08181201e-02, 4.05679503e-03, 4.05679503e-03, 2.70453002e-03,
          1.41987829e-02, 6.76132506e-04, 1.35226501e-02, 4.05679503e-03,
          4.05679503e-03, 2.70453002e-03, 6.76132506e-04, 5.81473969e-02,
          6.76132506e-04, 6.76132506e-03, 6.76132506e-04, 4.05679503e-03,
          1.21703856e-02, 2.70453002e-03, 9.46585461e-03, 2.02839752e-03,
          6.76132506e-04, 3.38066253e-03, 7.43745733e-03, 6.76132506e-04,
          6.76132506e-04, 8.78972281e-03, 2.02839752e-03, 6.76132506e-03,
          8.11359007e-03, 4.73292731e-03, 1.35226501e-03, 3.38066253e-03,
          2.02839752e-03, 5.40906005e-03, 5.40906005e-03, 6.76132506e-04,
          2.70453002e-03, 6.08519278e-03, 2.02839752e-03, 6.76132506e-03,
          5.40906005e-03, 7.43745733e-03, 8.11359007e-03, 0.,
          5.40906005e-03, 3.38066253e-03, 1.35226501e-03, 6.76132506e-04,
          0., 7.43745733e-03, 3.38066253e-03, 2.70453002e-03,
          3.38066253e-03, 3.38066253e-03, 1.35226501e-03, 4.05679503e-03,
          6.76132506e-04, 9.46585461e-03, 1.41987829e-02, 2.02839752e-03,
          8.78972281e-03, 1.01419874e-02, 1.35226501e-03, 1.35226501e-03,
          5.40906005e-03, 2.70453002e-03, 7.43745733e-03, 1.14942528e-02,
          2.70453002e-03, 1.35226501e-03, 6.08519278e-03, 1.14942528e-02,
          2.70453002e-03, 2.02839752e-03, 1.35226501e-03, 3.38066253e-03,
          6.76132506e-03, 6.08519278e-03, 1.21703856e-02, 5.40906005e-03,
          5.40906005e-03, 4.73292731e-03, 1.55510474e-02, 1.35226501e-03,
          1.01419874e-02, 1.35226501e-03, 6.08519278e-03, 2.02839752e-03,
          1.41987829e-02, 2.02839752e-03, 8.11359007e-03, 5.40906005e-03,
          5.40906005e-03, 2.02839752e-03, 9.46585461e-03, 6.76132506e-04,
          4.73292731e-03, 6.76132506e-04, 1.14942528e-02, 8.78972281e-03,
          6.08519278e-03, 3.38066253e-03, 4.05679503e-03, 6.76132506e-04,
          1.35226501e-03, 6.76132506e-03, 2.02839752e-03, 0.,
          2.70453002e-03, 3.38066253e-03, 0., 1.35226501e-03,
          6.08519278e-03, 3.38066253e-03, 2.02839752e-03, 8.11359007e-03,
          5.40906005e-03, 3.38066253e-03, 6.76132506e-04, 1.28465174e-02,
          7.43745733e-03, 2.02839752e-03, 1.35226501e-03, 6.08519278e-03,
          0., 1.35226501e-03, 2.02839752e-03, 4.73292731e-03,
          6.76132506e-04, 2.02839752e-03, 1.41987829e-02, 5.40906005e-03,
          1.35226501e-03, 1.35226501e-03, 4.05679503e-03, 2.02839752e-03,
          3.38066253e-03, 8.11359007e-03, 8.78972281e-03, 8.11359007e-03,
          4.05679503e-03, 8.11359007e-03, 1.35226501e-03, 9.46585461e-03,
          4.05679503e-03, 4.73292731e-03, 2.70453002e-03, 8.78972281e-03,
          4.73292731e-03, 6.08519278e-03, 4.05679503e-03, 1.14942528e-02,
          4.73292731e-03, 0., 5.40906005e-03, 1.35226501e-03,
          5.40906005e-03, 3.38066253e-03, 6.08519278e-03, 2.70453002e-03,
          4.05679503e-03, 4.73292731e-03, 6.76132506e-03, 4.05679503e-03,
          4.05679503e-03, 8.11359007e-03, 1.35226501e-03, 5.40906005e-03,
          1.35226501e-02, 0., 2.70453002e-03, 2.02839752e-03,
          9.46585461e-03, 6.76132506e-04, 3.38066253e-03, 4.05679503e-03,
          9.46585461e-03, 1.35226501e-03, 3.38066253e-03, 1.35226501e-03,
          0., 9.46585461e-03, 1.14942528e-02, 5.40906005e-03 ]
      - [ 0., 1.51724145e-02, 2.75862077e-03, 1.37931039e-03,
          8.27586278e-03, 8.27586278e-03, 2.75862077e-03, 6.89655170e-03,
          1.37931039e-03, 0., 1.10344831e-02, 2.75862077e-03,
          1.10344831e-02, 4.13793139e-03, 5.51724155e-03, 6.89655170e-03,
          9.65517294e-03, 6.89655170e-03, 0., 2.75862077e-03,
          9.65517294e-03, 6.89655170e-03, 5.51724155e-03, 5.51724155e-03,
          2.75862077e-03, 6.89655170e-03, 4.13793139e-03, 2.75862068e-02,
          5.51724155e-03, 5.51724155e-03, 8.27586278e-03, 5.51724155e-03,
          6.89655170e-03, 0., 8.27586278e-03, 4.13793139e-03, 0.,
          4.13793139e-03, 6.89655170e-03, 2.75862077e-03, 1.37931039e-03,
          5.51724155e-03, 4.13793139e-03, 1.37931039e-03, 1.37931039e-03,
          9.65517294e-03, 4.13793139e-03, 5.51724155e-03, 1.37931039e-03,
          5.51724155e-03, 6.89655170e-03, 1.37931039e-03, 5.51724155e-03,
          5.51724155e-03, 1.37931039e-03, 5.51724155e-03, 9.65517294e-03,
          4.13793139e-03, 4.13793139e-03, 6.89655170e-03, 1.37931039e-03,
          1.37931039e-03, 1.37931039e-03, 0., 2.75862077e-03,
          4.13793139e-03, 1.37931039e-03, 1.37931039e-03, 6.89655170e-03,
          2.75862077e-03, 1.37931039e-03, 1.51724145e-02, 2.75862077e-03,
          5.51724155e-03, 5.51724155e-03, 8.27586278e-03, 2.75862077e-03,
          1.37931039e-03, 6.89655170e-03, 0., 4.13793139e-03,
          4.13793139e-03, 5.51724155e-03, 2.75862077e-03, 2.75862077e-03,
          0., 2.75862077e-03, 2.75862077e-03, 4.13793139e-03,
          1.37931039e-03, 4.13793139e-03, 1.37931039e-03, 2.75862077e-03,
          5.51724155e-03, 8.27586278e-03, 8.27586278e-03, 9.65517294e-03,
          5.51724155e-03, 1.24137932e-02, 0., 8.27586278e-03,
          1.37931039e-03, 6.89655170e-03, 1.37931039e-03, 1.24137932e-02,
          1.37931039e-03, 8.27586278e-03, 5.51724155e-03, 4.13793139e-03,
          4.13793139e-03, 6.89655170e-03, 1.37931039e-03, 1.24137932e-02,
          4.13793139e-03, 8.27586278e-03, 2.75862077e-03, 1.37931039e-03,
          2.75862077e-03, 1.37931039e-03, 1.10344831e-02, 2.06896551e-02,
          1.37931039e-03, 4.13793139e-03, 6.89655170e-03, 1.37931039e-03,
          4.13793139e-03, 1.37931039e-03, 4.13793139e-03, 4.13793139e-03,
          4.13793139e-03, 0., 4.13793139e-03, 2.75862077e-03,
          4.13793139e-03, 3.03448290e-02, 6.89655170e-03, 8.27586278e-03,
          0., 1.37931039e-03, 6.89655170e-03, 6.89655170e-03,
          9.65517294e-03, 2.75862077e-03, 2.75862077e-03, 0.,
          4.13793139e-03, 9.65517294e-03, 2.75862077e-03, 5.51724155e-03,
          1.37931039e-03, 4.13793139e-03, 2.75862077e-03, 6.89655170e-03,
          1.37931039e-03, 1.10344831e-02, 5.51724155e-03, 2.75862077e-03,
          0., 1.37931039e-03, 1.51724145e-02, 1.37931039e-03,
          5.51724155e-03, 4.13793139e-03, 4.13793139e-03, 4.13793139e-03,
          1.37931039e-03, 4.13793139e-03, 4.13793139e-03, 6.89655170e-03,
          5.51724155e-03, 9.65517294e-03, 2.75862077e-03, 2.75862077e-03,
          0., 8.27586278e-03, 2.75862077e-03, 5.51724155e-03,
          1.37931034e-02, 8.27586278e-03, 5.51724155e-03, 4.13793139e-03,
          4.13793139e-03, 2.75862077e-03, 2.75862077e-03, 8.27586278e-03,
          9.65517294e-03, 5.51724155e-03, 2.75862077e-03, 8.27586278e-03,
          8.27586278e-03, 9.65517294e-03, 4.13793139e-03, 5.51724155e-03,
          2.75862077e-03, 1.37931039e-03, 2.75862077e-03, 1.37931039e-03,
          1.37931039e-03, 2.75862077e-03, 4.13793139e-03 ]
      - [ 3.23974062e-03, 2.15982716e-03, 3.23974062e-03, 5.39956801e-03,
          1.07991358e-03, 7.55939493e-03, 9.71922185e-03, 6.47948124e-03,
          0., 3.23974062e-03, 5.39956801e-03, 2.15982716e-03,
          5.39956801e-03, 1.18790492e-02, 8.63930862e-03, 1.07991360e-02,
          4.31965431e-03, 1.07991358e-03, 2.15982716e-03, 0.,
          8.63930862e-03, 1.07991358e-03, 4.31965431e-03, 5.39956801e-03,
          6.47948124e-03, 1.07991358e-03, 1.07991358e-03, 2.59179249e-02,
          2.15982716e-03, 7.55939493e-03, 6.47948124e-03, 2.15982716e-03,
          2.15982716e-03, 4.31965431e-03, 2.15982716e-03, 1.07991358e-03,
          1.07991358e-03, 5.39956801e-03, 4.31965431e-03, 1.07991358e-03,
          1.07991358e-03, 3.23974062e-03, 3.23974062e-03, 5.39956801e-03,
          4.31965431e-03, 1.07991360e-02, 2.15982716e-03, 4.31965431e-03,
          5.39956801e-03, 3.23974062e-03, 4.31965431e-03, 1.07991358e-03,
          1.07991358e-03, 5.39956801e-03, 1.07991358e-03, 3.23974062e-03,
          6.47948124e-03, 5.39956801e-03, 6.47948124e-03, 1.07991358e-03,
          6.47948124e-03, 1.07991358e-03, 5.39956801e-03, 5.39956801e-03,
          0., 7.55939493e-03, 2.15982716e-03, 0., 7.55939493e-03,
          8.63930862e-03, 2.15982716e-03, 6.47948124e-03, 1.07991358e-03,
          2.15982716e-03, 5.39956801e-03, 8.63930862e-03, 5.39956801e-03,
          8.63930862e-03, 2.15982716e-03, 4.31965431e-03, 5.39956801e-03,
          4.31965431e-03, 1.18790492e-02, 5.39956801e-03, 8.63930862e-03,
          2.15982716e-03, 7.55939493e-03, 7.55939493e-03, 1.07991358e-03,
          0., 6.47948124e-03, 4.31965431e-03, 8.63930862e-03,
          3.23974062e-03, 1.07991360e-02, 6.47948124e-03, 4.31965431e-03,
          6.47948124e-03, 8.63930862e-03, 1.07991358e-03, 1.07991360e-02,
          2.15982716e-03, 3.23974062e-03, 1.07991358e-03, 9.71922185e-03,
          1.07991358e-03, 4.31965431e-03, 9.71922185e-03, 3.23974062e-03,
          3.23974062e-03, 4.31965431e-03, 3.23974062e-03, 4.31965431e-03,
          2.15982716e-03, 2.69978400e-02, 3.23974062e-03, 8.63930862e-03,
          2.15982716e-03, 4.31965431e-03, 5.39956801e-03, 1.40388766e-02,
          4.31965431e-03, 0., 1.07991358e-03, 5.39956801e-03,
          5.39956801e-03, 0., 0., 3.23974062e-03, 4.31965431e-03,
          3.23974062e-03, 4.31965431e-03, 3.23974062e-03, 2.15982716e-03,
          2.26781853e-02, 3.23974062e-03, 1.18790492e-02, 0.,
          2.15982716e-03, 5.39956801e-03, 0., 3.23974062e-03,
          9.71922185e-03, 4.31965431e-03, 1.07991358e-03, 2.15982716e-03,
          8.63930862e-03, 7.55939493e-03, 3.23974062e-03, 2.15982716e-03,
          3.23974062e-03, 2.15982716e-03, 8.63930862e-03, 2.26781853e-02,
          6.47948124e-03, 3.23974062e-03, 5.39956801e-03, 1.18790492e-02,
          1.07991358e-03, 9.71922185e-03, 7.55939493e-03, 8.63930862e-03,
          4.31965431e-03, 5.39956801e-03, 4.31965431e-03, 1.07991358e-03,
          2.15982716e-03, 6.47948124e-03, 3.23974062e-03, 3.23974062e-03,
          7.55939493e-03, 6.47948124e-03, 4.31965431e-03, 3.23974062e-03,
          5.39956801e-03, 2.15982716e-03, 5.39956801e-03, 2.37580985e-02,
          5.39956801e-03, 3.23974062e-03, 2.15982716e-03, 6.47948124e-03,
          2.15982716e-03, 5.39956801e-03, 8.63930862e-03, 6.47948124e-03,
          6.47948124e-03, 1.07991358e-03, 4.31965431e-03, 4.31965431e-03,
          4.31965431e-03, 2.15982716e-03, 8.63930862e-03, 0.,
          5.39956801e-03, 2.15982716e-03, 1.07991358e-03, 4.31965431e-03,
          8.63930862e-03, 4.31965431e-03 ]
      - [ 2.96296296e-03, 5.92592591e-03, 5.92592591e-03, 1.18518518e-02,
          2.96296296e-03, 7.40740728e-03, 7.40740728e-03, 1.03703700e-02,
          0., 5.92592591e-03, 0., 1.48148148e-03, 1.48148148e-03,
          4.44444455e-03, 5.92592591e-03, 5.92592591e-03, 1.33333337e-02,
          2.96296296e-03, 1.48148148e-03, 1.48148148e-03, 8.88888910e-03,
          2.96296296e-03, 1.33333337e-02, 7.40740728e-03, 5.92592591e-03,
          1.48148148e-03, 1.48148148e-03, 4.74074073e-02, 0.,
          4.44444455e-03, 2.96296296e-03, 1.48148148e-03, 2.96296296e-03,
          5.92592591e-03, 1.48148148e-03, 2.96296296e-03, 1.48148148e-03,
          8.88888910e-03, 1.48148148e-03, 1.48148148e-03, 2.96296296e-03,
          8.88888910e-03, 2.96296296e-03, 1.03703700e-02, 2.96296296e-03,
          1.18518518e-02, 1.48148148e-03, 1.48148148e-03, 2.96296296e-03,
          5.92592591e-03, 0., 4.44444455e-03, 4.44444455e-03,
          2.96296296e-03, 1.48148148e-03, 8.88888910e-03, 4.44444455e-03,
          4.44444455e-03, 1.48148148e-03, 1.48148148e-03, 2.96296296e-03,
          5.92592591e-03, 1.48148148e-03, 5.92592591e-03, 0., 0.,
          1.48148148e-03, 4.44444455e-03, 0., 2.96296296e-03, 0.,
          2.96296296e-03, 0., 5.92592591e-03, 8.88888910e-03,
          5.92592591e-03, 8.88888910e-03, 5.92592591e-03, 1.48148148e-03,
          0., 2.96296296e-03, 0., 1.48148146e-02, 4.44444455e-03,
          1.18518518e-02, 1.48148148e-03, 2.96296296e-03, 0.,
          7.40740728e-03, 1.48148148e-03, 1.48148148e-03, 5.92592591e-03,
          4.44444455e-03, 8.88888910e-03, 2.07407400e-02, 1.62962954e-02,
          7.40740728e-03, 5.92592591e-03, 2.96296296e-03, 2.96296296e-03,
          7.40740728e-03, 1.48148148e-03, 4.44444455e-03, 2.96296296e-03,
          7.40740728e-03, 0., 4.44444455e-03, 5.92592591e-03,
          2.96296296e-03, 1.48148148e-03, 4.44444455e-03, 1.48148148e-03,
          5.92592591e-03, 2.96296296e-03, 1.33333337e-02, 4.44444455e-03,
          4.44444455e-03, 4.44444455e-03, 5.92592591e-03, 1.48148148e-03,
          2.22222228e-02, 2.96296296e-03, 1.48148148e-03, 2.96296296e-03,
          4.44444455e-03, 4.44444455e-03, 0., 2.96296296e-03,
          1.48148148e-03, 2.96296296e-03, 1.48148148e-03, 4.44444455e-03,
          1.48148148e-03, 1.48148148e-03, 2.96296291e-02, 7.40740728e-03,
          1.18518518e-02, 0., 1.48148148e-03, 2.96296296e-03, 0.,
          4.44444455e-03, 1.48148148e-03, 2.96296296e-03, 4.44444455e-03,
          1.48148148e-03, 1.18518518e-02, 4.44444455e-03, 1.18518518e-02,
          1.48148148e-03, 1.03703700e-02, 5.92592591e-03, 7.40740728e-03,
          1.18518518e-02, 4.44444455e-03, 5.92592591e-03, 5.92592591e-03,
          2.96296296e-03, 5.92592591e-03, 1.03703700e-02, 2.96296296e-03,
          1.03703700e-02, 5.92592591e-03, 1.48148148e-03, 0.,
          4.44444455e-03, 1.48148148e-03, 5.92592591e-03, 5.92592591e-03,
          1.48148148e-03, 1.33333337e-02, 1.48148148e-03, 7.40740728e-03,
          4.44444455e-03, 5.92592591e-03, 2.96296296e-03, 7.40740728e-03,
          1.48148146e-02, 0., 5.92592591e-03, 1.48148148e-03,
          5.92592591e-03, 2.96296296e-03, 4.44444455e-03, 7.40740728e-03,
          7.40740728e-03, 4.44444455e-03, 1.48148148e-03, 1.48148148e-03,
          0., 2.96296296e-03, 5.92592591e-03, 1.18518518e-02,
          2.96296296e-03, 2.96296296e-03, 0., 0., 8.88888910e-03,
          8.88888910e-03, 4.44444455e-03 ]
      - [ 0., 6.64451811e-03, 0., 3.32225906e-03, 0., 6.64451811e-03,
          1.66112948e-02, 6.64451811e-03, 0., 3.32225906e-03,
          6.64451811e-03, 0., 3.32225906e-03, 3.32225906e-03,
          9.96677764e-03, 9.96677764e-03, 1.32890362e-02, 3.32225906e-03,
          6.64451811e-03, 3.32225906e-03, 9.96677764e-03, 9.96677764e-03,
          3.32225906e-03, 3.32225906e-03, 3.32225906e-03, 0., 0.,
          6.31229207e-02, 3.32225906e-03, 3.32225906e-03, 0., 0.,
          3.32225906e-03, 3.32225906e-03, 6.64451811e-03, 0.,
          6.64451811e-03, 0., 0., 6.64451811e-03, 0., 1.66112948e-02, 0.,
          0., 3.32225906e-03, 1.32890362e-02, 0., 6.64451811e-03, 0., 0.,
          0., 0., 0., 6.64451811e-03, 0., 0., 3.32225906e-03, 0.,
          9.96677764e-03, 3.32225906e-03, 0., 3.32225906e-03, 0.,
          3.32225906e-03, 0., 6.64451811e-03, 6.64451811e-03, 0., 0., 0.,
          0., 6.64451811e-03, 0., 0., 0., 3.32225906e-03, 1.99335553e-02,
          3.32225906e-03, 0., 0., 3.32225906e-03, 3.32225906e-03,
          1.66112948e-02, 0., 6.64451811e-03, 6.64451811e-03,
          3.32225906e-03, 3.32225906e-03, 9.96677764e-03, 3.32225906e-03,
          0., 0., 3.32225906e-03, 0., 0., 6.64451811e-03, 9.96677764e-03,
          3.32225906e-03, 1.32890362e-02, 0., 6.64451811e-03,
          6.64451811e-03, 6.64451811e-03, 0., 1.66112948e-02, 0.,
          6.64451811e-03, 9.96677764e-03, 9.96677764e-03, 3.32225906e-03,
          9.96677764e-03, 0., 6.64451811e-03, 0., 2.65780725e-02,
          3.32225906e-03, 0., 6.64451811e-03, 3.32225906e-03, 0.,
          9.96677764e-03, 0., 3.32225906e-03, 0., 9.96677764e-03,
          3.32225906e-03, 3.32225906e-03, 0., 6.64451811e-03,
          3.32225906e-03, 0., 6.64451811e-03, 1.66112948e-02,
          6.64451811e-03, 1.32890362e-02, 1.32890362e-02, 6.64451811e-03,
          0., 0., 9.96677764e-03, 0., 0., 3.32225906e-03, 0., 0.,
          3.32225906e-03, 9.96677764e-03, 3.32225906e-03, 0., 0.,
          6.64451811e-03, 6.64451811e-03, 1.32890362e-02, 6.64451811e-03,
          1.99335553e-02, 6.64451811e-03, 0., 1.66112948e-02,
          9.96677764e-03, 2.65780725e-02, 9.96677764e-03, 9.96677764e-03,
          6.64451811e-03, 6.64451811e-03, 3.32225906e-03, 3.32225906e-03,
          3.32225906e-03, 6.64451811e-03, 6.64451811e-03, 3.32225906e-03,
          6.64451811e-03, 0., 6.64451811e-03, 0., 3.32225906e-03,
          3.32225906e-03, 9.96677764e-03, 3.98671106e-02, 3.32225906e-03,
          3.32225906e-03, 0., 0., 0., 6.64451811e-03, 1.32890362e-02, 0.,
          3.32225906e-03, 0., 6.64451811e-03, 0., 0., 3.32225906e-03, 0.,
          3.32225906e-03, 9.96677764e-03, 3.32225906e-03, 0., 0.,
          3.32225906e-03, 3.32225906e-03 ]
      - [ 4.52488707e-03, 7.91855250e-03, 1.13122177e-03, 9.04977415e-03,
          3.39366542e-03, 6.78733084e-03, 7.91855250e-03, 3.39366542e-03,
          0., 3.39366542e-03, 5.65610873e-03, 2.26244354e-03,
          2.26244354e-03, 5.65610873e-03, 4.52488707e-03, 2.14932133e-02,
          5.65610873e-03, 3.39366542e-03, 2.26244354e-03, 3.39366542e-03,
          7.91855250e-03, 2.26244354e-03, 6.78733084e-03, 5.65610873e-03,
          6.78733084e-03, 2.26244354e-03, 4.52488707e-03, 2.71493234e-02,
          1.13122177e-03, 1.13122177e-03, 6.78733084e-03, 1.13122177e-03,
          7.91855250e-03, 3.39366542e-03, 6.78733084e-03, 1.13122177e-03,
          1.13122177e-03, 4.52488707e-03, 5.65610873e-03, 1.13122177e-03,
          4.52488707e-03, 1.01809958e-02, 5.65610873e-03, 1.24434391e-02,
          9.04977415e-03, 1.13122175e-02, 3.39366542e-03, 2.26244354e-03,
          5.65610873e-03, 1.13122175e-02, 1.13122177e-03, 3.39366542e-03,
          2.26244354e-03, 2.26244354e-03, 7.91855250e-03, 2.26244354e-03,
          2.26244354e-03, 1.13122177e-03, 1.01809958e-02, 3.39366542e-03,
          3.39366542e-03, 0., 3.39366542e-03, 5.65610873e-03, 0.,
          2.26244354e-03, 2.26244354e-03, 1.13122177e-03, 1.01809958e-02,
          1.13122177e-03, 1.13122177e-03, 7.91855250e-03, 2.26244354e-03,
          2.26244354e-03, 6.78733084e-03, 1.01809958e-02, 6.78733084e-03,
          1.13122175e-02, 4.52488707e-03, 1.13122177e-03, 4.52488707e-03,
          5.65610873e-03, 7.91855250e-03, 2.26244354e-03, 6.78733084e-03,
          4.52488707e-03, 4.52488707e-03, 4.52488707e-03, 1.13122177e-03,
          1.13122177e-03, 4.52488707e-03, 1.13122177e-03, 9.04977415e-03,
          5.65610873e-03, 7.91855250e-03, 4.52488707e-03, 2.26244354e-03,
          1.13122175e-02, 4.52488707e-03, 5.65610873e-03, 3.39366542e-03,
          1.13122177e-03, 6.78733084e-03, 1.13122177e-03, 7.91855250e-03,
          1.13122177e-03, 4.52488707e-03, 9.04977415e-03, 3.39366542e-03,
          3.39366542e-03, 9.04977415e-03, 7.91855250e-03, 4.52488707e-03,
          3.39366542e-03, 1.24434391e-02, 6.78733084e-03, 4.52488707e-03,
          5.65610873e-03, 7.91855250e-03, 4.52488707e-03, 9.04977415e-03,
          5.65610873e-03, 1.13122177e-03, 2.26244354e-03, 0.,
          5.65610873e-03, 1.13122177e-03, 5.65610873e-03, 5.65610873e-03,
          1.13122177e-03, 3.39366542e-03, 2.26244354e-03, 6.78733084e-03,
          0., 1.35746617e-02, 5.65610873e-03, 5.65610873e-03,
          2.26244354e-03, 3.39366542e-03, 5.65610873e-03, 2.26244354e-03,
          1.13122177e-03, 4.52488707e-03, 7.91855250e-03, 2.26244354e-03,
          2.26244354e-03, 7.91855250e-03, 4.52488707e-03, 7.91855250e-03,
          1.13122177e-03, 7.91855250e-03, 4.52488707e-03, 4.52488707e-03,
          1.35746617e-02, 1.24434391e-02, 1.13122177e-03, 2.26244354e-03,
          1.58371050e-02, 3.39366542e-03, 7.91855250e-03, 9.04977415e-03,
          2.26244354e-03, 7.91855250e-03, 2.26244354e-03, 0.,
          4.52488707e-03, 3.39366542e-03, 1.13122175e-02, 7.91855250e-03,
          1.13122177e-03, 5.65610873e-03, 3.39366542e-03, 7.91855250e-03,
          3.39366542e-03, 3.39366542e-03, 3.39366542e-03, 6.78733084e-03,
          1.47058833e-02, 1.13122177e-03, 6.78733084e-03, 6.78733084e-03,
          1.13122177e-03, 2.26244354e-03, 4.52488707e-03, 6.78733084e-03,
          2.26244354e-03, 6.78733084e-03, 1.13122177e-03, 7.91855250e-03,
          2.26244354e-03, 3.39366542e-03, 5.65610873e-03, 7.91855250e-03,
          0., 3.39366542e-03, 2.26244354e-03, 1.13122177e-03,
          3.39366542e-03, 6.78733084e-03, 3.39366542e-03 ]
      - [ 3.69003695e-03, 5.53505542e-03, 1.84501847e-03, 3.69003695e-03,
          1.84501847e-03, 9.22509283e-03, 5.53505542e-03, 1.10701108e-02,
          0., 0., 3.69003695e-03, 5.53505542e-03, 0., 1.10701108e-02,
          1.10701108e-02, 1.10701108e-02, 9.22509283e-03, 1.84501847e-03,
          3.69003695e-03, 3.69003695e-03, 1.84501847e-03, 0.,
          1.29151288e-02, 1.29151288e-02, 5.53505542e-03, 5.53505542e-03,
          0., 2.02952027e-02, 0., 3.69003695e-03, 0., 0., 5.53505542e-03,
          7.38007389e-03, 3.69003695e-03, 1.84501847e-03, 5.53505542e-03,
          0., 0., 0., 0., 1.66051667e-02, 1.84501847e-03, 7.38007389e-03,
          3.69003695e-03, 1.10701108e-02, 0., 3.69003695e-03,
          3.69003695e-03, 7.38007389e-03, 7.38007389e-03, 1.84501847e-03,
          3.69003695e-03, 5.53505542e-03, 9.22509283e-03, 3.69003695e-03,
          1.29151288e-02, 5.53505542e-03, 7.38007389e-03, 3.69003695e-03,
          1.84501847e-03, 5.53505542e-03, 1.84501847e-03, 7.38007389e-03,
          0., 5.53505542e-03, 1.84501847e-03, 1.84501847e-03,
          1.84501847e-03, 5.53505542e-03, 0., 3.69003695e-03, 0.,
          3.69003695e-03, 1.10701108e-02, 3.69003695e-03, 5.53505542e-03,
          5.53505542e-03, 0., 0., 1.84501847e-03, 3.69003695e-03,
          1.29151288e-02, 7.38007389e-03, 1.84501847e-03, 1.84501847e-03,
          7.38007389e-03, 3.69003695e-03, 3.69003695e-03, 0.,
          3.69003695e-03, 1.84501847e-03, 9.22509283e-03, 1.10701108e-02,
          1.10701108e-02, 1.10701108e-02, 7.38007389e-03, 9.22509283e-03,
          3.69003695e-03, 1.84501847e-03, 1.10701108e-02, 0.,
          9.22509283e-03, 3.69003695e-03, 7.38007389e-03, 1.84501847e-03,
          0., 1.10701108e-02, 7.38007389e-03, 3.69003695e-03,
          7.38007389e-03, 3.69003695e-03, 9.22509283e-03, 0.,
          9.22509283e-03, 1.10701108e-02, 1.84501847e-03, 9.22509283e-03,
          0., 0., 1.10701108e-02, 1.84501847e-03, 1.84501847e-03,
          5.53505542e-03, 3.69003695e-03, 5.53505542e-03, 0.,
          1.84501847e-03, 1.84501847e-03, 1.84501847e-03, 3.69003695e-03,
          7.38007389e-03, 1.84501847e-03, 3.69003695e-03, 1.84501857e-02,
          9.22509283e-03, 7.38007389e-03, 0., 5.53505542e-03, 0., 0.,
          5.53505542e-03, 7.38007389e-03, 0., 1.84501847e-03,
          1.84501847e-03, 1.47601478e-02, 0., 3.69003695e-03,
          1.84501847e-03, 7.38007389e-03, 1.10701108e-02, 5.53505542e-03,
          9.22509283e-03, 1.10701108e-02, 3.69003695e-03, 1.84501847e-03,
          9.22509283e-03, 1.84501847e-03, 7.38007389e-03, 5.53505542e-03,
          1.10701108e-02, 3.69003695e-03, 7.38007389e-03, 1.84501847e-03,
          1.29151288e-02, 3.69003695e-03, 7.38007389e-03, 5.53505542e-03,
          1.84501847e-03, 7.38007389e-03, 0., 3.69003695e-03,
          1.84501847e-03, 0., 1.84501847e-03, 7.38007389e-03,
          2.76752766e-02, 5.53505542e-03, 3.69003695e-03, 1.84501847e-03,
          0., 1.84501847e-03, 9.22509283e-03, 7.38007389e-03,
          5.53505542e-03, 0., 3.69003695e-03, 0., 3.69003695e-03,
          1.84501847e-03, 7.38007389e-03, 5.53505542e-03, 3.69003695e-03,
          1.10701108e-02, 1.84501847e-03, 1.84501847e-03, 9.22509283e-03,
          1.10701108e-02, 1.84501847e-03 ]
      - [ 1.76991150e-03, 1.23893805e-02, 0., 5.30973449e-03,
          7.07964599e-03, 1.41592920e-02, 8.84955749e-03, 8.84955749e-03,
          0., 0., 1.76991150e-03, 5.30973449e-03, 7.07964599e-03,
          7.07964599e-03, 7.07964599e-03, 1.76991150e-03, 1.23893805e-02,
          0., 5.30973449e-03, 1.76991150e-03, 1.06194690e-02,
          1.76991150e-03, 7.07964599e-03, 5.30973449e-03, 3.53982300e-03,
          7.07964599e-03, 0., 2.12389380e-02, 1.76991150e-03,
          8.84955749e-03, 0., 1.76991150e-03, 1.06194690e-02,
          1.76991150e-03, 5.30973449e-03, 1.76991150e-03, 0.,
          5.30973449e-03, 1.76991150e-03, 5.30973449e-03, 3.53982300e-03,
          5.30973449e-03, 1.76991150e-03, 7.07964599e-03, 1.76991150e-03,
          1.23893805e-02, 0., 0., 5.30973449e-03, 8.84955749e-03,
          1.76991150e-03, 3.53982300e-03, 8.84955749e-03, 0.,
          3.53982300e-03, 3.53982300e-03, 0., 8.84955749e-03,
          3.53982300e-03, 1.76991150e-03, 7.07964599e-03, 1.76991150e-03,
          3.53982300e-03, 1.06194690e-02, 0., 3.53982300e-03,
          5.30973449e-03, 1.76991150e-03, 3.53982300e-03, 3.53982300e-03,
          5.30973449e-03, 1.76991150e-03, 0., 8.84955749e-03,
          3.53982300e-03, 1.41592920e-02, 1.06194690e-02, 0.,
          1.76991150e-03, 0., 0., 3.53982300e-03, 2.30088495e-02,
          7.07964599e-03, 5.30973449e-03, 0., 1.76991150e-03,
          5.30973449e-03, 0., 1.76991150e-03, 3.53982300e-03,
          3.53982300e-03, 5.30973449e-03, 1.59292035e-02, 1.23893805e-02,
          3.53982300e-03, 3.53982300e-03, 5.30973449e-03, 7.07964599e-03,
          0., 3.53982300e-03, 3.53982300e-03, 8.84955749e-03,
          1.76991150e-03, 1.76991150e-03, 5.30973449e-03, 3.53982300e-03,
          7.07964599e-03, 3.53982300e-03, 0., 8.84955749e-03,
          5.30973449e-03, 3.53982300e-03, 0., 1.59292035e-02,
          5.30973449e-03, 7.07964599e-03, 3.53982300e-03, 5.30973449e-03,
          1.76991150e-03, 1.41592920e-02, 0., 1.76991150e-03,
          1.76991150e-03, 1.76991150e-03, 3.53982300e-03, 0.,
          1.76991150e-03, 3.53982300e-03, 0., 1.76991150e-03,
          1.76991150e-03, 8.84955749e-03, 0., 1.41592920e-02,
          5.30973449e-03, 1.59292035e-02, 0., 1.76991150e-03,
          3.53982300e-03, 0., 3.53982300e-03, 1.76991150e-03,
          3.53982300e-03, 0., 1.76991150e-03, 5.30973449e-03,
          8.84955749e-03, 1.76991150e-03, 3.53982300e-03, 3.53982300e-03,
          1.76991150e-03, 5.30973449e-03, 8.84955749e-03, 1.06194690e-02,
          7.07964599e-03, 3.53982300e-03, 1.41592920e-02, 1.76991150e-03,
          2.47787610e-02, 3.53982300e-03, 5.30973449e-03, 5.30973449e-03,
          1.76991150e-03, 1.76991150e-03, 8.84955749e-03, 1.76991150e-03,
          1.59292035e-02, 5.30973449e-03, 1.76991150e-03, 8.84955749e-03,
          0., 3.53982300e-03, 1.76991150e-03, 3.53982300e-03,
          3.53982300e-03, 5.30973449e-03, 3.00884955e-02, 1.76991150e-03,
          3.53982300e-03, 3.53982300e-03, 5.30973449e-03, 7.07964599e-03,
          5.30973449e-03, 1.76991150e-02, 8.84955749e-03, 1.06194690e-02,
          0., 1.06194690e-02, 3.53982300e-03, 3.53982300e-03,
          7.07964599e-03, 8.84955749e-03, 1.76991150e-03, 7.07964599e-03,
          1.76991150e-03, 0., 1.76991150e-03, 1.76991150e-03,
          7.07964599e-03 ]
      - [ 0., 4.76190522e-02, 0., 0., 0., 1.58730168e-02, 1.58730168e-02,
          0., 0., 0., 0., 0., 1.58730168e-02, 1.58730168e-02, 0.,
          1.58730168e-02, 0., 0., 3.17460336e-02, 0., 0., 0., 0.,
          1.58730168e-02, 0., 0., 0., 3.17460336e-02, 0., 1.58730168e-02,
          0., 0., 0., 0., 1.58730168e-02, 3.17460336e-02, 0., 0.,
          1.58730168e-02, 0., 1.58730168e-02, 0., 0., 0., 0.,
          1.58730168e-02, 0., 0., 0., 0., 0., 0., 0., 0., 1.58730168e-02,
          0., 0., 0., 0., 3.17460336e-02, 0., 0., 0., 1.58730168e-02, 0.,
          0., 0., 0., 0., 0., 0., 0., 0., 0., 0., 1.58730168e-02, 0., 0.,
          0., 0., 0., 1.58730168e-02, 0., 0., 0., 0., 0., 0., 0.,
          1.58730168e-02, 0., 0., 0., 0., 0., 0., 0., 1.58730168e-02, 0.,
          0., 0., 0., 0., 1.58730168e-02, 0., 0., 0., 0., 0., 0., 0., 0.,
          4.76190522e-02, 9.52381045e-02, 3.17460336e-02, 0., 0.,
          1.58730168e-02, 0., 0., 0., 0., 0., 0., 0., 0., 1.58730168e-02,
          1.58730168e-02, 0., 0., 0., 0., 0., 0., 1.58730168e-02, 0., 0.,
          0., 0., 0., 3.17460336e-02, 0., 3.17460336e-02, 0.,
          1.58730168e-02, 0., 0., 0., 0., 0., 1.58730168e-02, 0., 0.,
          1.58730168e-02, 1.58730168e-02, 1.58730168e-02, 0., 0., 0., 0.,
          1.58730168e-02, 0., 0., 0., 0., 0., 0., 0., 0., 0., 0., 0., 0.,
          0., 0., 0., 1.58730168e-02, 1.58730168e-02, 1.58730168e-02, 0.,
          0., 0., 1.58730168e-02, 0., 0., 1.58730168e-02, 0., 0., 0.,
          6.34920672e-02, 0., 0., 0., 0., 0., 0., 0., 0., 0., 0. ]
      - [ 0., 9.25925933e-03, 1.85185187e-02, 9.25925933e-03, 0.,
          2.77777780e-02, 0., 9.25925933e-03, 0., 9.25925933e-03, 0.,
          9.25925933e-03, 0., 1.85185187e-02, 1.85185187e-02, 0.,
          1.85185187e-02, 9.25925933e-03, 0., 0., 9.25925933e-03,
          9.25925933e-03, 0., 0., 0., 0., 9.25925933e-03, 3.70370373e-02,
          0., 0., 0., 0., 0., 0., 0., 0., 1.85185187e-02, 1.85185187e-02,
          9.25925933e-03, 1.85185187e-02, 0., 0., 0., 0., 9.25925933e-03,
          9.25925933e-03, 0., 0., 9.25925933e-03, 9.25925933e-03, 0., 0.,
          0., 0., 0., 9.25925933e-03, 9.25925933e-03, 9.25925933e-03, 0.,
          0., 0., 0., 0., 0., 0., 9.25925933e-03, 0., 0., 0., 0., 0., 0.,
          0., 9.25925933e-03, 0., 0., 9.25925933e-03, 0., 0.,
          9.25925933e-03, 0., 0., 0., 0., 9.25925933e-03, 0.,
          9.25925933e-03, 0., 0., 0., 0., 0., 0., 9.25925933e-03, 0.,
          9.25925933e-03, 0., 1.85185187e-02, 0., 9.25925933e-03,
          1.85185187e-02, 9.25925933e-03, 0., 9.25925933e-03, 0., 0.,
          9.25925933e-03, 9.25925933e-03, 0., 0., 1.85185187e-02,
          9.25925933e-03, 9.25925933e-03, 0., 4.62962985e-02, 0.,
          9.25925933e-03, 0., 9.25925933e-03, 0., 1.85185187e-02, 0., 0.,
          0., 0., 0., 0., 1.85185187e-02, 0., 0., 0., 9.25925933e-03,
          9.25925933e-03, 0., 0., 0., 1.85185187e-02, 9.25925933e-03, 0.,
          0., 0., 0., 0., 0., 0., 0., 1.85185187e-02, 9.25925933e-03, 0.,
          0., 1.85185187e-02, 0., 9.25925933e-03, 1.85185187e-02, 0., 0.,
          0., 9.25925933e-03, 0., 0., 9.25925933e-03, 9.25925933e-03,
          9.25925933e-03, 0., 0., 9.25925933e-03, 0., 9.25925933e-03, 0.,
          0., 9.25925933e-03, 9.25925933e-03, 0., 9.25925933e-03, 0., 0.,
          9.25925933e-03, 3.70370373e-02, 0., 0., 0., 0., 9.25925933e-03,
          0., 2.77777780e-02, 0., 9.25925933e-03, 0., 1.85185187e-02,
          9.25925933e-03, 0., 0., 0., 9.25925933e-03, 0., 0.,
          9.25925933e-03, 9.25925933e-03, 0., 0. ]
      - [ 0., 0., 0., 0., 0., 0., 0., 3.57142873e-02, 0., 0., 0., 0., 0.,
          0., 0., 7.14285746e-02, 0., 0., 0., 0., 0., 0., 0., 0., 0., 0.,
          0., 1.78571433e-01, 0., 0., 0., 0., 0., 0., 0., 0., 0., 0., 0.,
          3.57142873e-02, 0., 0., 0., 0., 0., 0., 0., 0., 0., 0., 0., 0.,
          0., 0., 0., 0., 0., 0., 0., 7.14285746e-02, 0., 0., 0., 0., 0.,
          0., 0., 0., 0., 3.57142873e-02, 0., 0., 0., 3.57142873e-02, 0.,
          0., 0., 0., 3.57142873e-02, 0., 0., 0., 0., 0., 0., 0., 0., 0.,
          0., 0., 0., 0., 0., 0., 0., 7.14285746e-02, 0., 0., 0., 0., 0.,
          0., 0., 0., 0., 0., 0., 0., 0., 0., 0., 0., 0., 0., 0., 0., 0.,
          0., 0., 0., 0., 0., 0., 0., 0., 0., 0., 0., 7.14285746e-02, 0.,
          0., 0., 0., 0., 7.14285746e-02, 0., 0., 0., 0., 0., 0., 0.,
          3.57142873e-02, 0., 0., 0., 0., 0., 0., 0., 0., 3.57142873e-02,
          0., 0., 0., 0., 0., 0., 0., 3.57142873e-02, 0., 7.14285746e-02,
          0., 0., 0., 0., 0., 0., 0., 0., 0., 0., 0., 0., 0., 0., 0., 0.,
          0., 0., 0., 0., 0., 3.57142873e-02, 3.57142873e-02, 0., 0., 0.,
          0., 0., 0., 0., 0., 3.57142873e-02, 0., 0., 0., 0., 0., 0. ]
      - [ 0., 0., 0., 0., 0., 0., 0., 0., 0., 0., 0., 0., 0., 0., 0., 0.,
          0., 0., 0., 4.16666679e-02, 0., 0., 0., 0., 0., 0., 0.,
          1.66666672e-01, 0., 0., 0., 0., 0., 0., 0., 0., 4.16666679e-02,
          0., 0., 0., 0., 0., 0., 4.16666679e-02, 0., 0., 0., 0., 0., 0.,
          0., 0., 0., 0., 0., 0., 0., 0., 0., 1.25000000e-01, 0., 0., 0.,
          0., 0., 0., 0., 0., 0., 0., 0., 0., 0., 0., 0., 4.16666679e-02,
          0., 0., 0., 4.16666679e-02, 0., 0., 0., 0., 0., 0., 0., 0., 0.,
          0., 0., 0., 0., 0., 0., 0., 0., 0., 0., 0., 0., 0., 0., 0., 0.,
          0., 0., 0., 0., 0., 0., 0., 8.33333358e-02, 1.25000000e-01,
          4.16666679e-02, 0., 0., 0., 0., 0., 0., 0., 0., 0., 0., 0.,
          8.33333358e-02, 0., 0., 0., 0., 0., 0., 0., 0., 0., 0., 0., 0.,
          0., 0., 0., 0., 0., 0., 0., 0., 0., 0., 0., 0., 0., 0., 0., 0.,
          0., 0., 0., 4.16666679e-02, 0., 0., 0., 0., 0., 0., 0., 0., 0.,
          0., 0., 0., 0., 0., 0., 0., 0., 0., 0., 0., 0., 0., 0., 0., 0.,
          4.16666679e-02, 0., 0., 0., 0., 8.33333358e-02, 0., 0., 0., 0.,
          0., 0., 0., 0., 0., 0. ]
      - [ 0., 1.38888890e-02, 0., 0., 0., 0., 0., 0., 5.55555560e-02, 0.,
          0., 0., 0., 0., 1.38888890e-02, 1.38888890e-02, 0., 0., 0., 0.,
          1.38888890e-02, 0., 0., 0., 0., 0., 0., 2.77777780e-02, 0., 0.,
          1.38888890e-02, 0., 0., 0., 0., 0., 1.38888890e-02, 0., 0.,
          2.77777780e-02, 1.38888890e-02, 0., 0., 0., 0., 1.38888890e-02,
          1.38888890e-02, 0., 0., 0., 0., 0., 1.38888890e-02, 0., 0., 0.,
          2.77777780e-02, 0., 0., 5.55555560e-02, 0., 0., 0., 0.,
          4.16666679e-02, 0., 0., 0., 0., 1.38888890e-02, 0., 0.,
          1.38888890e-02, 2.77777780e-02, 0., 0., 0., 0., 0., 0., 0., 0.,
          0., 0., 0., 0., 0., 0., 0., 0., 0., 0., 0., 0., 1.38888890e-02,
          1.38888890e-02, 1.38888890e-02, 1.38888890e-02, 0., 0., 0., 0.,
          0., 0., 1.38888890e-02, 0., 0., 0., 0., 0., 0., 0.,
          1.38888890e-02, 2.77777780e-02, 0., 1.38888890e-02, 0., 0., 0.,
          2.77777780e-02, 0., 0., 0., 1.38888890e-02, 0., 0.,
          2.77777780e-02, 0., 1.38888890e-02, 0., 0., 0., 0., 0., 0., 0.,
          0., 0., 0., 0., 0., 2.77777780e-02, 6.94444478e-02,
          1.38888890e-02, 0., 0., 0., 0., 0., 6.94444478e-02,
          4.16666679e-02, 0., 0., 1.38888890e-02, 0., 0., 0., 0., 0., 0.,
          0., 0., 1.38888890e-02, 0., 0., 1.38888890e-02, 0., 0.,
          1.38888890e-02, 6.94444478e-02, 0., 0., 0., 0., 0., 0., 0., 0.,
          0., 0., 0., 0., 0., 0., 0., 0., 0., 0., 0., 0., 0., 0., 0.,
          1.38888890e-02, 0., 0., 0., 0., 0., 0. ]
      - [ 1.38888890e-02, 3.70370373e-02, 4.62962966e-03, 4.62962966e-03,
          0., 4.62962966e-03, 9.25925933e-03, 9.25925933e-03, 0.,
          4.62962966e-03, 0., 4.62962966e-03, 4.62962966e-03,
          2.31481493e-02, 0., 4.62962966e-03, 4.62962966e-03,
          4.62962966e-03, 1.38888890e-02, 4.62962966e-03, 1.38888890e-02,
          4.62962966e-03, 4.62962966e-03, 4.62962966e-03, 1.38888890e-02,
          0., 0., 6.48148134e-02, 4.62962966e-03, 0., 4.62962966e-03,
          4.62962966e-03, 9.25925933e-03, 0., 0., 9.25925933e-03, 0., 0.,
          0., 0., 0., 9.25925933e-03, 1.38888890e-02, 0., 0.,
          9.25925933e-03, 4.62962966e-03, 0., 4.62962966e-03,
          4.62962966e-03, 4.62962966e-03, 0., 4.62962966e-03,
          4.62962966e-03, 1.38888890e-02, 9.25925933e-03, 0., 0., 0.,
          4.62962966e-03, 4.62962966e-03, 0., 0., 4.62962966e-03,
          4.62962966e-03, 0., 0., 4.62962966e-03, 4.62962966e-03, 0., 0.,
          9.25925933e-03, 0., 1.38888890e-02, 4.62962966e-03,
          9.25925933e-03, 1.38888890e-02, 9.25925933e-03, 0., 0., 0.,
          4.62962966e-03, 9.25925933e-03, 4.62962966e-03, 1.38888890e-02,
          0., 0., 0., 9.25925933e-03, 0., 0., 0., 0., 0., 0.,
          2.31481493e-02, 1.85185187e-02, 4.62962966e-03, 4.62962966e-03,
          9.25925933e-03, 4.62962966e-03, 4.62962966e-03, 9.25925933e-03,
