%YAML:1.0
---
opencv_ml_svm:
   format: 3
   svmType: C_SVC
   kernel:
      type: LINEAR
   C: 3.1250000000000000e+02
   term_criteria: { epsilon:9.9999999999999995e-07, iterations:1000 }
   var_count: 300
   class_count: 2
   class_labels: !!opencv-matrix
      rows: 2
      cols: 1
      dt: i
      data: [ -1, 1 ]
   sv_total: 1
   support_vectors:
      - [ 1.35067492e+01, -2.64477074e-01, -2.89955544e+00,
          7.86665058e+00, 1.18892488e+01, 1.13872900e+01,
          -9.45019913e+00, 2.72051830e+01, -4.94424772e+00,
          -1.45270863e+01, -1.34551125e+01, -4.30592632e+00,
          4.77677822e+00, 1.09544830e+01, 2.04154282e+01,
          -7.24089622e+00, 5.51539946e+00, -5.40941143e+00,
          1.64921417e+01, -1.72979283e+00, 2.78314590e+01,
          -8.33528614e+00, 1.31739581e+00, 3.41519928e+01,
          6.88740158e+00, 1.66270390e+01, -4.42978668e+00,
          7.15845442e+00, -4.52148628e+00, -9.41640663e+00,
          -1.62495689e+01, 1.05106926e+01, -2.63268685e+00,
          -4.10458422e+00, 1.46390524e+01, -1.26851826e+01,
          2.82850609e+01, -9.53885365e+00, 2.47321701e+01,
          1.47883058e+00, -7.62714291e+00, 1.30066824e+00,
          3.08784351e+01, 2.28688469e+01, 2.51866794e+00,
          -9.19874763e+00, 3.04675808e+01, -1.29242496e+01,
          -1.64137878e+01, 9.26972628e-01, -8.06167507e+00,
          -1.53707256e+01, 8.76993465e+00, 1.17458181e+01,
          -2.12577367e+00, -1.86656246e+01, 1.49318657e+01,
          -4.72866583e+00, 1.39046726e+01, 4.74245796e+01,
          7.31325626e+00, -2.19863529e+01, 1.71392727e+01,
          3.46875877e+01, -1.89807835e+01, 3.96142393e-01,
          -1.61140275e+00, -1.64082298e+01, -4.72137594e+00,
          -7.34770823e+00, 4.61097765e+00, 8.09762001e+00,
          1.82708073e+01, 3.10284543e+00, -4.11590195e+00,
          -3.75225353e+00, -1.57682157e+00, -7.13641167e-01,
          6.16275930e+00, 1.26640821e+00, 3.99708328e+01, 1.34462750e+00,
          -3.43908424e+01, -1.69995461e+01, 8.07220697e-01,
          -2.63500690e+00, 9.04076672e+00, -4.09499025e+00,
          -2.67198849e+01, 2.04950886e+01, -1.57676001e+01,
          -5.40958023e+00, 1.06671488e+00, 4.87916470e+00,
          -2.25825138e+01, 5.32468939e+00, -3.12031040e+01,
          -3.16659222e+01, 2.02762470e+01, -2.80672703e+01,
          8.96575809e-01, 1.30542785e-01, -2.32305908e+01,
          -1.33345966e+01, -2.40237789e+01, 6.62058353e-01,
          -2.58249016e+01, 2.07223148e+01, 6.75612867e-01,
          -1.77169514e+01, 7.37893486e+00, 6.30417109e+00,
          -1.20087910e+00, -2.53782368e+01, -1.40617170e+01,
          -2.13414421e+01, 1.66608105e+01, -5.28760767e+00,
          -3.82481503e+00, 6.74457693e+00, -1.00761919e+01,
          -2.65404720e+01, 2.47488079e+01, 2.73010464e+01,
          -2.75736022e+00, 3.33868103e+01, -8.77092934e+00,
          -2.22304039e+01, 2.03464565e+01, -5.60437012e+00,
          1.98627889e+00, -1.79798336e+01, 1.20750456e+01,
          1.21226053e+01, 2.40587759e+00, -2.98931522e+01,
          -4.19589920e+01, 1.82888355e+01, -1.12358751e+01,
          1.08424797e+01, -1.66068196e+00, -2.12505875e+01,
          1.47317724e+01, -1.07105865e+01, -8.37119293e+00,
          -4.07635403e+00, 1.16134434e+01, -9.65404987e+00,
          2.08419724e+01, 7.34983253e+00, 2.05443835e+00, 5.75414562e+00,
          -7.62109518e+00, -1.62357311e+01, 1.17377317e+00,
          4.41365719e+00, 2.13757439e+01, 1.71976223e+01, 5.27526236e+00,
          2.28603477e+01, -8.26987648e+00, -2.00856762e+01,
          1.25199366e+01, -2.42373905e+01, 2.58781338e+01,
          1.05590439e+01, -1.04759045e+01, -1.83726966e+00,
          -4.19725513e+00, 2.29181767e+01, 1.19037447e+01,
          2.39839077e+00, 4.37872696e+00, -1.48418903e+01,
          -2.23119850e+01, 1.87654743e+01, -2.78236580e+01,
          -1.18746290e+01, -5.50553560e-01, 1.23061152e+01,
          1.97357025e+01, -1.24568996e+01, -1.54954233e+01,
          1.10874753e-02, 4.20429153e+01, 1.64801521e+01,
          -2.83579731e+01, -2.11866169e+01, 1.50919647e+01,
          -1.34545507e+01, -3.47987342e+00, -1.53775415e+01,
          3.72087932e+00, -6.30402231e+00, 8.41076946e+00,
          3.23472557e+01, -1.70788682e+00, -1.61530228e+01,
          -1.41088667e+01, -1.56289873e+01, -2.18002338e+01,
          -1.23002315e+00, 3.81168747e+00, 5.80810261e+00,
          -1.91802731e+01, -9.16843128e+00, 2.78235664e+01,
          -1.08388300e+01, 2.86132908e+01, -8.14752483e+00,
          1.66771164e+01, -1.13795214e+01, -3.75604439e+01,
          3.03438358e+01, -2.85908737e+01, -5.19241095e+00,
          4.17583466e+00, 4.25996923e+00, -1.58674583e+01,
          3.89200568e+00, 9.30690384e+00, 1.20692425e+01,
          -7.26233578e+00, 1.37485323e+01, 4.16243076e+00,
          -4.20146990e+00, -5.20293617e+00, 2.10193348e+01,
          -1.36691976e+00, 1.37930596e+00, -2.50617170e+00,
          1.14056101e+01, -3.63163033e+01, -2.32389507e+01,
          5.67226219e+01, 1.95608177e+01, -5.44024229e-01,
          -2.41662788e+01, -3.77636647e+00, -6.97891295e-01,
          -1.44333601e+01, 9.89874780e-01, -4.76885414e+00,
          1.45297423e-01, 2.75697880e+01, 4.12177887e+01, 2.19037628e+01,
          -3.23900008e+00, -2.06746602e+00, -5.68286371e+00,
          3.07788014e+00, -1.91641057e+00, -1.47907858e+01,
          -2.75709743e+01, -4.53970623e+00, -2.92597771e+01,
          1.05996008e+01, -1.14534676e+00, -4.94606495e+00,
          3.55534959e+00, -2.47583580e+01, -7.18044090e+00,
          1.66976051e+01, -8.62046528e+00, 7.91827583e+00,
          1.24584637e+01, -6.05076408e+00, 2.26119537e+01,
          -5.01964188e+00, -6.09867954e+00, -1.90999355e+01,
          1.06174622e+01, -5.50250626e+00, 2.10384631e+00,
          -1.45377216e+01, -2.59999809e+01, -1.95235348e+01,
          2.66500874e+01, 2.59150486e+01, -1.05598316e+01,
          1.83356438e+01, -7.74420309e+00, 2.11274300e+01,
          -2.45923638e+00, 1.75944405e+01, -2.17951984e+01,
          1.45714960e+01, -9.19513130e+00, 2.02220106e+00,
          3.84300500e-01, 2.27606106e+01, 4.19003916e+00, 5.00539124e-01,
          1.56741104e+01, -1.23648777e+01, -2.02235374e+01,
          -2.90285549e+01, 1.79387627e+01, -5.91500425e+00,
          -2.69696083e+01 ]
   uncompressed_sv_total: 662
   uncompressed_support_vectors:
      - [ 5.50812460e-04, 4.95731225e-03, 3.02946847e-03, 3.02946847e-03,
          1.10162492e-03, 2.20324984e-03, 2.47865613e-03, 4.13109362e-03,
          2.75406241e-03, 1.10162492e-03, 6.60974951e-03, 1.37703121e-03,
          5.50812483e-03, 2.20324984e-03, 4.68190573e-03, 6.33434346e-03,
          2.20324984e-03, 2.47865613e-03, 1.65243738e-03, 2.47865613e-03,
          0., 2.75406241e-03, 4.13109362e-03, 1.10162492e-03,
          3.85568710e-03, 1.92784355e-03, 4.40649968e-03, 4.40649968e-03,
          4.95731225e-03, 2.75406241e-03, 8.53759330e-03, 1.21178739e-02,
          3.30487476e-03, 1.65243738e-03, 1.37703121e-03, 4.13109362e-03,
          1.10162492e-03, 8.26218724e-03, 7.16056209e-03, 3.30487476e-03,
          2.75406241e-03, 3.02946847e-03, 6.05893694e-03, 1.37703121e-03,
          3.85568710e-03, 7.16056209e-03, 7.98678026e-03, 1.65243738e-03,
          5.23271831e-03, 2.75406241e-03, 3.30487476e-03, 5.50812460e-04,
          6.60974951e-03, 3.02946847e-03, 1.37703121e-03, 3.58028105e-03,
          1.92784355e-03, 2.47865613e-03, 1.92784355e-03, 1.10162492e-03,
          6.05893694e-03, 3.85568710e-03, 2.47865613e-03, 1.65243738e-03,
          1.37703121e-03, 2.75406241e-03, 4.68190573e-03, 5.78353088e-03,
          1.92784355e-03, 4.95731225e-03, 4.68190573e-03, 3.30487476e-03,
          5.50812460e-04, 1.37703121e-03, 1.92784355e-03, 3.85568710e-03,
          6.88515557e-03, 1.92784355e-03, 2.75406241e-03, 5.23271831e-03,
          3.02946847e-03, 1.10162492e-03, 5.78353088e-03, 5.78353088e-03,
          1.92784355e-03, 8.26218689e-04, 5.50812460e-04, 2.20324984e-03,
          5.50812483e-03, 1.92784355e-03, 2.20324984e-03, 3.58028105e-03,
          2.47865613e-03, 4.13109362e-03, 3.85568710e-03, 2.75406241e-03,
          4.40649968e-03, 3.30487476e-03, 2.75406230e-04, 3.58028105e-03,
          1.10162492e-03, 1.92784355e-03, 8.26218689e-04, 3.02946847e-03,
          3.58028105e-03, 3.02946847e-03, 1.65243738e-03, 2.20324984e-03,
          1.92784355e-03, 4.68190573e-03, 9.63921845e-03, 3.58028105e-03,
          5.50812460e-04, 8.26218689e-04, 4.68190573e-03, 2.75406241e-03,
          4.13109362e-03, 3.02946847e-03, 4.40649968e-03, 2.75406241e-03,
          3.30487476e-03, 4.95731225e-03, 4.68190573e-03, 1.92784355e-03,
          4.40649968e-03, 3.85568710e-03, 1.37703121e-03, 8.26218689e-04,
          5.50812483e-03, 1.65243738e-03, 3.85568710e-03, 2.75406241e-03,
          3.02946847e-03, 3.02946847e-03, 3.58028105e-03, 2.75406241e-03,
          5.50812483e-03, 2.75406241e-03, 5.50812483e-03, 9.63921845e-03,
          3.58028105e-03, 4.40649968e-03, 2.20324984e-03, 1.65243738e-03,
          2.75406241e-03, 1.65243738e-03, 3.30487476e-03, 1.10162492e-03,
          3.02946847e-03, 3.30487476e-03, 8.26218689e-04, 1.65243738e-03,
          3.30487476e-03, 2.75406230e-04, 4.68190573e-03, 1.92784355e-03,
          3.02946847e-03, 4.40649968e-03, 2.75406230e-04, 2.75406241e-03,
          4.40649968e-03, 1.65243738e-03, 3.85568710e-03, 7.16056209e-03,
          1.10162492e-03, 1.65243738e-03, 4.95731225e-03, 1.37703121e-03,
          6.05893694e-03, 8.26218689e-04, 1.37703121e-03, 3.58028105e-03,
          3.58028105e-03, 2.20324984e-03, 1.15670618e-02, 3.85568710e-03,
          3.02946847e-03, 2.75406230e-04, 1.10162492e-03, 1.10162492e-03,
          3.02946847e-03, 3.85568710e-03, 6.33434346e-03, 4.68190573e-03,
          2.20324984e-03, 2.47865613e-03, 3.02946847e-03, 1.92784355e-03,
          2.20324984e-03, 3.02946847e-03, 1.65243738e-03, 2.20324984e-03,
          3.02946847e-03, 6.05893694e-03, 1.65243738e-03, 1.92784355e-03,
          3.58028105e-03, 4.68190573e-03, 4.68190573e-03, 2.75406241e-03,
          2.47865613e-03, 1.65243738e-03, 1.37703121e-03, 3.30487476e-03,
          2.20324984e-03, 1.92784355e-03, 4.13109362e-03, 1.10162492e-03,
          1.37703121e-03, 5.23271831e-03, 2.47865613e-03, 4.40649968e-03,
          4.68190573e-03, 1.37703121e-03, 4.13109362e-03, 3.58028105e-03,
          3.85568710e-03, 2.20324984e-03, 3.85568710e-03, 2.75406241e-03,
          2.75406241e-03, 4.95731225e-03, 3.02946847e-03, 9.91462450e-03,
          2.75406241e-03, 1.37703121e-03, 4.95731225e-03, 2.75406241e-03,
          8.26218724e-03, 2.47865613e-03, 8.26218689e-04, 6.88515557e-03,
          1.10162492e-03, 2.75406230e-04, 2.75406241e-03, 2.20324984e-03,
          5.78353088e-03, 2.20324984e-03, 1.10162492e-03, 3.02946847e-03,
          1.65243738e-03, 1.92784355e-03, 2.20324984e-03, 1.65243738e-03,
          4.95731225e-03, 1.37703121e-03, 3.02946847e-03, 4.13109362e-03,
          8.26218689e-04, 2.20324984e-03, 1.65243738e-03, 4.95731225e-03,
          5.50812460e-04, 8.53759330e-03, 2.47865613e-03, 6.33434346e-03,
          3.30487476e-03, 2.75406241e-03, 5.50812460e-04, 2.20324984e-03,
          5.78353088e-03, 3.02946847e-03, 1.07408427e-02, 2.20324984e-03,
          4.40649968e-03, 8.26218689e-04, 3.30487476e-03, 2.75406230e-04,
          3.85568710e-03, 5.23271831e-03, 2.47865613e-03, 3.30487476e-03,
          4.13109362e-03, 1.37703121e-03, 2.47865613e-03, 2.47865613e-03,
          1.01900306e-02, 1.65243738e-03, 8.26218689e-04, 2.47865613e-03,
          1.10162492e-03, 2.75406230e-04, 6.33434346e-03, 6.60974951e-03,
          4.95731225e-03, 4.13109362e-03, 2.20324984e-03, 1.37703121e-03,
          5.50812483e-03, 5.23271831e-03, 1.18424678e-02, 5.23271831e-03,
          3.30487476e-03, 1.37703121e-03, 3.30487476e-03, 4.40649968e-03,
          9.08840541e-03, 9.91462450e-03, 1.10162492e-03, 4.68190573e-03 ]
      - [ 6.78196026e-04, 4.06917604e-03, 6.78196026e-04, 5.42556820e-03,
          2.37368606e-03, 4.74737212e-03, 1.35639205e-03, 4.06917604e-03,
          2.03458802e-03, 3.05188214e-03, 7.79925426e-03, 1.69549009e-03,
          8.13835207e-03, 1.69549009e-03, 4.74737212e-03, 2.71278410e-03,
          2.03458802e-03, 2.03458802e-03, 2.37368606e-03, 4.06917604e-03,
          1.69549009e-03, 2.03458802e-03, 3.39098019e-03, 2.71278410e-03,
          1.69549009e-03, 3.73007823e-03, 3.05188214e-03, 3.05188214e-03,
          2.71278410e-03, 3.73007823e-03, 6.10376429e-03, 8.47745035e-03,
          5.76466601e-03, 6.78196026e-04, 3.73007823e-03, 5.76466601e-03,
          3.05188214e-03, 5.76466601e-03, 3.05188214e-03, 3.05188214e-03,
          6.78196026e-04, 3.39098019e-03, 4.40827431e-03, 3.39098013e-04,
          4.40827431e-03, 5.76466601e-03, 9.83384252e-03, 1.35639205e-03,
          6.78196037e-03, 2.71278410e-03, 2.71278410e-03, 2.03458802e-03,
          3.73007823e-03, 3.05188214e-03, 1.01729401e-03, 7.79925426e-03,
          2.71278410e-03, 4.74737212e-03, 2.71278410e-03, 2.37368606e-03,
          7.12105818e-03, 4.40827431e-03, 1.01729401e-03, 4.06917604e-03,
          3.73007823e-03, 2.71278410e-03, 6.10376429e-03, 4.06917604e-03,
          2.71278410e-03, 7.12105818e-03, 1.01729401e-03, 1.69549009e-03,
          1.35639205e-03, 6.78196026e-04, 2.03458802e-03, 2.37368606e-03,
          3.39098019e-03, 3.39098019e-03, 1.35639205e-03, 5.42556820e-03,
          3.73007823e-03, 2.03458802e-03, 7.12105818e-03, 5.08647040e-03,
          1.01729401e-03, 2.03458802e-03, 6.78196026e-04, 1.69549009e-03,
          7.79925426e-03, 1.69549009e-03, 1.69549009e-03, 2.37368606e-03,
          1.69549009e-03, 4.40827431e-03, 3.73007823e-03, 2.03458802e-03,
          5.76466601e-03, 5.08647040e-03, 1.35639205e-03, 3.39098019e-03,
          6.78196026e-04, 1.35639205e-03, 1.01729401e-03, 3.73007823e-03,
          4.06917604e-03, 3.05188214e-03, 6.78196026e-04, 4.06917604e-03,
          2.03458802e-03, 3.73007823e-03, 7.46015646e-03, 2.03458802e-03,
          3.73007823e-03, 1.35639205e-03, 1.69549009e-03, 3.39098019e-03,
          1.01729401e-03, 6.78196026e-04, 4.06917604e-03, 3.39098019e-03,
          3.39098019e-03, 2.37368606e-03, 3.73007823e-03, 3.39098013e-04,
          2.03458802e-03, 8.13835207e-03, 2.03458802e-03, 1.01729401e-03,
          3.39098019e-03, 3.05188214e-03, 2.03458802e-03, 1.69549009e-03,
          2.37368606e-03, 2.71278410e-03, 2.71278410e-03, 3.05188214e-03,
          4.74737212e-03, 2.03458802e-03, 7.12105818e-03, 6.10376429e-03,
          2.37368606e-03, 5.76466601e-03, 2.37368606e-03, 2.37368606e-03,
          1.35639205e-03, 2.03458802e-03, 2.71278410e-03, 1.01729401e-03,
          6.10376429e-03, 3.73007823e-03, 3.39098019e-03, 2.37368606e-03,
          1.35639205e-03, 1.35639205e-03, 5.08647040e-03, 3.05188214e-03,
          3.73007823e-03, 4.40827431e-03, 1.35639205e-03, 1.35639205e-03,
          3.73007823e-03, 4.06917604e-03, 3.39098013e-04, 6.44286210e-03,
          6.78196026e-04, 2.71278410e-03, 4.74737212e-03, 1.01729401e-03,
          6.44286210e-03, 6.78196026e-04, 5.42556820e-03, 2.71278410e-03,
          5.42556820e-03, 1.35639205e-03, 1.15293320e-02, 4.74737212e-03,
          2.37368606e-03, 2.03458802e-03, 2.71278410e-03, 3.05188214e-03,
          2.71278410e-03, 4.06917604e-03, 4.06917604e-03, 3.73007823e-03,
          3.73007823e-03, 1.69549009e-03, 4.06917604e-03, 6.78196026e-04,
          3.05188214e-03, 4.06917604e-03, 6.78196026e-04, 2.03458802e-03,
          2.37368606e-03, 6.10376429e-03, 2.03458802e-03, 4.74737212e-03,
          4.06917604e-03, 5.08647040e-03, 2.37368606e-03, 1.69549009e-03,
          6.78196026e-04, 3.39098019e-03, 1.01729401e-03, 3.05188214e-03,
          1.69549009e-03, 2.03458802e-03, 4.40827431e-03, 2.37368606e-03,
          2.71278410e-03, 3.39098019e-03, 4.06917604e-03, 5.76466601e-03,
          2.37368606e-03, 2.03458802e-03, 4.40827431e-03, 4.74737212e-03,
          2.71278410e-03, 4.74737212e-03, 4.06917604e-03, 3.39098019e-03,
          1.01729401e-03, 3.73007823e-03, 4.40827431e-03, 6.44286210e-03,
          2.03458802e-03, 3.05188214e-03, 3.39098019e-03, 2.37368606e-03,
          3.05188214e-03, 5.42556820e-03, 1.01729401e-03, 9.15564597e-03,
          1.69549009e-03, 6.78196026e-04, 4.40827431e-03, 2.37368606e-03,
          4.74737212e-03, 4.74737212e-03, 1.35639205e-03, 2.37368606e-03,
          1.35639205e-03, 4.74737212e-03, 3.05188214e-03, 3.05188214e-03,
          5.08647040e-03, 1.69549009e-03, 6.78196026e-04, 3.73007823e-03,
          3.39098019e-03, 2.71278410e-03, 2.71278410e-03, 4.06917604e-03,
          1.69549009e-03, 3.73007823e-03, 3.05188214e-03, 5.08647040e-03,
          3.73007823e-03, 4.40827431e-03, 3.39098019e-03, 2.03458802e-03,
          3.73007823e-03, 6.10376429e-03, 5.76466601e-03, 3.05188214e-03,
          2.71278410e-03, 2.71278410e-03, 3.05188214e-03, 1.35639205e-03,
          2.71278410e-03, 4.06917604e-03, 2.71278410e-03, 4.40827431e-03,
          4.40827431e-03, 2.37368606e-03, 4.06917604e-03, 2.37368606e-03,
          1.01729408e-02, 2.03458802e-03, 2.71278410e-03, 1.69549009e-03,
          1.35639205e-03, 1.35639205e-03, 4.74737212e-03, 5.76466601e-03,
          2.37368606e-03, 3.73007823e-03, 2.71278410e-03, 2.37368606e-03,
          3.05188214e-03, 7.12105818e-03, 8.13835207e-03, 5.42556820e-03,
          7.46015646e-03, 1.35639205e-03, 2.71278410e-03, 6.44286210e-03,
          2.71278410e-03, 7.12105818e-03, 1.35639205e-03, 4.74737212e-03 ]
      - [ 2.49999994e-03, 4.06249985e-03, 1.56249991e-03, 6.56249980e-03,
          9.37499979e-04, 3.12499981e-03, 9.37499979e-04, 2.49999994e-03,
          3.12499981e-03, 3.12499981e-03, 4.99999989e-03, 2.18750001e-03,
          6.87499996e-03, 4.37500002e-03, 5.62499976e-03, 4.37500002e-03,
          3.12499981e-03, 2.81249988e-03, 4.06249985e-03, 4.06249985e-03,
          2.49999994e-03, 3.43749998e-03, 1.87499996e-03, 2.81249988e-03,
          1.56249991e-03, 4.06249985e-03, 2.18750001e-03, 1.56249991e-03,
          3.43749998e-03, 4.06249985e-03, 9.06249974e-03, 2.18750001e-03,
          7.18749966e-03, 2.49999994e-03, 3.12499981e-03, 5.31250006e-03,
          9.37499979e-04, 5.93749993e-03, 3.43749998e-03, 1.87499996e-03,
          2.18750001e-03, 1.87499996e-03, 2.18750001e-03, 1.24999997e-03,
          1.87499996e-03, 2.81249988e-03, 6.87499996e-03, 3.43749998e-03,
          4.99999989e-03, 3.43749998e-03, 3.43749998e-03, 1.56249991e-03,
          4.37500002e-03, 2.81249988e-03, 1.56249991e-03, 3.74999992e-03,
          2.18750001e-03, 2.18750001e-03, 1.56249991e-03, 4.06249985e-03,
          5.62499976e-03, 3.43749998e-03, 4.68749972e-03, 4.68749972e-03,
          3.43749998e-03, 1.56249991e-03, 3.74999992e-03, 5.93749993e-03,
          4.37500002e-03, 6.87499996e-03, 2.81249988e-03, 1.56249991e-03,
          9.37499979e-04, 1.24999997e-03, 4.06249985e-03, 9.37499979e-04,
          1.56249991e-03, 4.06249985e-03, 2.81249988e-03, 5.31250006e-03,
          4.68749972e-03, 2.18750001e-03, 7.49999983e-03, 3.74999992e-03,
          1.87499996e-03, 1.24999997e-03, 2.18750001e-03, 9.37499979e-04,
          4.37500002e-03, 3.74999992e-03, 1.24999997e-03, 2.18750001e-03,
          2.49999994e-03, 3.74999992e-03, 2.81249988e-03, 2.18750001e-03,
          5.62499976e-03, 6.24999963e-03, 1.87499996e-03, 1.87499996e-03,
          9.37499979e-04, 2.18750001e-03, 1.87499996e-03, 2.81249988e-03,
          1.56249991e-03, 2.18750001e-03, 2.18750001e-03, 4.99999989e-03,
          1.87499996e-03, 6.87499996e-03, 4.06249985e-03, 3.12499981e-03,
          3.74999992e-03, 2.81249988e-03, 1.87499996e-03, 3.74999992e-03,
          3.12499981e-03, 2.81249988e-03, 5.31250006e-03, 1.56249991e-03,
          4.37500002e-03, 2.49999994e-03, 4.99999989e-03, 3.12499981e-03,
          3.12499981e-03, 2.81249988e-03, 2.18750001e-03, 6.24999986e-04,
          4.37500002e-03, 2.49999994e-03, 2.18750001e-03, 3.43749998e-03,
          2.81249988e-03, 2.18750001e-03, 2.81249988e-03, 1.87499996e-03,
          3.43749998e-03, 4.06249985e-03, 5.31250006e-03, 4.99999989e-03,
          2.81249988e-03, 3.43749998e-03, 1.87499996e-03, 2.81249988e-03,
          3.12499981e-03, 1.87499996e-03, 4.06249985e-03, 1.24999997e-03,
          4.06249985e-03, 4.37500002e-03, 2.81249988e-03, 2.49999994e-03,
          3.74999992e-03, 1.24999997e-03, 5.31250006e-03, 1.56249991e-03,
          4.06249985e-03, 4.37500002e-03, 1.56249991e-03, 2.18750001e-03,
          3.74999992e-03, 4.68749972e-03, 3.12499981e-03, 4.99999989e-03,
          3.12499981e-03, 1.87499996e-03, 4.37500002e-03, 9.37499979e-04,
          7.18749966e-03, 3.12499981e-03, 3.74999992e-03, 2.81249988e-03,
          4.68749972e-03, 1.87499996e-03, 4.99999989e-03, 4.37500002e-03,
          9.37499979e-04, 1.24999997e-03, 2.18750001e-03, 1.87499996e-03,
          3.12499981e-03, 3.12499981e-03, 3.12499981e-03, 3.43749998e-03,
          2.49999994e-03, 3.74999992e-03, 2.49999994e-03, 9.37499979e-04,
          5.62499976e-03, 6.56249980e-03, 9.37499979e-04, 1.87499996e-03,
          4.99999989e-03, 2.81249988e-03, 2.49999994e-03, 2.81249988e-03,
          6.56249980e-03, 2.49999994e-03, 3.12499981e-03, 2.49999994e-03,
          2.81249988e-03, 1.87499996e-03, 2.81249988e-03, 3.12499981e-03,
          3.74999992e-03, 2.81249988e-03, 4.68749972e-03, 4.06249985e-03,
          1.87499996e-03, 3.74999992e-03, 3.43749998e-03, 5.62499976e-03,
          4.99999989e-03, 2.49999994e-03, 3.74999992e-03, 3.12499981e-03,
          4.99999989e-03, 3.12499981e-03, 3.12499981e-03, 2.49999994e-03,
          2.81249988e-03, 3.43749998e-03, 4.06249985e-03, 6.87499996e-03,
          1.87499996e-03, 4.68749972e-03, 4.99999989e-03, 4.99999989e-03,
          3.43749998e-03, 4.06249985e-03, 2.18750001e-03, 5.62499976e-03,
          9.37499979e-04, 9.37499979e-04, 4.06249985e-03, 5.31250006e-03,
          4.99999989e-03, 4.99999989e-03, 1.56249991e-03, 1.87499996e-03,
          1.56249991e-03, 5.93749993e-03, 2.49999994e-03, 4.68749972e-03,
          5.62499976e-03, 1.24999997e-03, 1.24999997e-03, 4.37500002e-03,
          4.37500002e-03, 4.37500002e-03, 4.06249985e-03, 2.49999994e-03,
          1.87499996e-03, 6.87499996e-03, 2.81249988e-03, 1.87499996e-03,
          3.43749998e-03, 3.74999992e-03, 1.24999997e-03, 2.49999994e-03,
          3.12499981e-03, 4.99999989e-03, 7.81250000e-03, 5.31250006e-03,
          3.74999992e-03, 1.56249991e-03, 4.37500002e-03, 2.81249988e-03,
          4.06249985e-03, 3.43749998e-03, 1.87499996e-03, 5.93749993e-03,
          5.93749993e-03, 3.12499981e-03, 4.99999989e-03, 2.81249988e-03,
          4.99999989e-03, 4.99999989e-03, 2.81249988e-03, 6.24999986e-04,
          2.49999994e-03, 1.24999997e-03, 9.37499979e-04, 4.68749972e-03,
          4.99999989e-03, 1.56249991e-03, 3.12499981e-03, 1.56249991e-03,
          2.49999994e-03, 4.68749972e-03, 4.37500002e-03, 3.43749998e-03,
          5.31250006e-03, 1.87499996e-03, 4.06249985e-03, 4.68749972e-03,
          3.12499981e-03, 6.87499996e-03, 2.18750001e-03, 2.81249988e-03 ]
      - [ 1.91424205e-03, 1.91424205e-03, 3.82848410e-03, 8.42266530e-03,
          1.91424205e-03, 3.82848410e-03, 2.29709037e-03, 3.82848410e-03,
          1.53139362e-03, 2.29709037e-03, 9.57121048e-03, 1.91424205e-03,
          5.74272592e-03, 1.14854518e-03, 2.29709037e-03, 4.97702928e-03,
          7.65696808e-04, 3.06278723e-03, 3.44563555e-03, 2.29709037e-03,
          1.53139362e-03, 1.14854518e-03, 1.91424205e-03, 3.44563555e-03,
          2.29709037e-03, 5.35987783e-03, 1.53139362e-03, 3.44563555e-03,
          3.06278723e-03, 3.44563555e-03, 2.29709037e-03, 3.44563555e-03,
          9.18836147e-03, 7.65696808e-04, 4.21133265e-03, 8.42266530e-03,
          6.12557447e-03, 8.03981628e-03, 3.82848410e-03, 1.14854518e-03,
          4.59418073e-03, 1.53139362e-03, 2.29709037e-03, 7.65696808e-04,
          2.67993892e-03, 1.53139362e-03, 1.18683008e-02, 1.14854518e-03,
          7.27411965e-03, 1.14854518e-03, 4.21133265e-03, 2.67993892e-03,
          3.82848410e-03, 1.53139362e-03, 3.06278723e-03, 4.97702928e-03,
          3.06278723e-03, 1.53139362e-03, 1.91424205e-03, 4.21133265e-03,
          3.44563555e-03, 3.44563555e-03, 5.74272592e-03, 2.29709037e-03,
          4.97702928e-03, 3.82848404e-04, 3.44563555e-03, 5.35987783e-03,
          3.82848404e-04, 3.44563555e-03, 1.14854518e-03, 1.91424205e-03,
          7.65696808e-04, 1.53139362e-03, 1.91424205e-03, 7.65696808e-04,
          3.82848410e-03, 7.65696820e-03, 2.67993892e-03, 1.53139362e-03,
          3.06278723e-03, 1.91424205e-03, 6.12557447e-03, 3.82848410e-03,
          2.29709037e-03, 1.91424205e-03, 1.53139362e-03, 7.65696808e-04,
          4.97702928e-03, 1.53139362e-03, 2.67993892e-03, 2.67993892e-03,
          1.91424205e-03, 3.82848410e-03, 1.14854518e-03, 2.67993892e-03,
          5.35987783e-03, 4.59418073e-03, 3.82848410e-03, 4.97702928e-03,
          3.82848404e-04, 1.91424205e-03, 1.53139362e-03, 1.14854518e-03,
          7.65696808e-04, 1.14854518e-03, 1.91424205e-03, 7.27411965e-03,
          1.14854518e-03, 6.50842302e-03, 7.27411965e-03, 4.59418073e-03,
          4.97702928e-03, 1.53139362e-03, 1.14854518e-03, 7.65696808e-04,
          2.29709037e-03, 1.14854518e-03, 3.44563555e-03, 1.91424205e-03,
          4.21133265e-03, 2.67993892e-03, 6.50842302e-03, 3.06278723e-03,
          1.91424205e-03, 1.49310874e-02, 2.29709037e-03, 1.91424205e-03,
          2.29709037e-03, 1.53139362e-03, 1.91424205e-03, 3.06278723e-03,
          1.53139362e-03, 5.35987783e-03, 7.65696808e-04, 3.06278723e-03,
          2.67993892e-03, 2.67993892e-03, 1.11026037e-02, 5.74272592e-03,
          3.82848410e-03, 8.03981628e-03, 2.67993892e-03, 2.29709037e-03,
          2.67993892e-03, 1.14854518e-03, 5.74272592e-03, 1.53139362e-03,
          5.74272592e-03, 1.53139362e-03, 4.59418073e-03, 1.53139362e-03,
          2.29709037e-03, 1.53139362e-03, 2.67993892e-03, 1.91424205e-03,
          3.44563555e-03, 4.21133265e-03, 3.44563555e-03, 4.97702928e-03,
          4.59418073e-03, 3.82848410e-03, 3.06278723e-03, 4.97702928e-03,
          2.67993892e-03, 1.14854518e-03, 8.42266530e-03, 2.67993892e-03,
          6.12557447e-03, 1.91424205e-03, 4.59418073e-03, 2.29709037e-03,
          5.35987783e-03, 3.06278723e-03, 5.35987783e-03, 2.67993892e-03,
          3.44563555e-03, 1.91424205e-03, 3.44563555e-03, 3.06278723e-03,
          1.53139362e-03, 7.65696808e-04, 3.06278723e-03, 7.65696820e-03,
          1.91424205e-03, 2.67993892e-03, 7.65696808e-04, 1.91424205e-03,
          4.59418073e-03, 1.11026037e-02, 4.21133265e-03, 1.14854518e-03,
          4.21133265e-03, 6.50842302e-03, 1.14854518e-03, 2.67993892e-03,
          9.18836147e-03, 2.67993892e-03, 2.29709037e-03, 1.53139362e-03,
          1.14854518e-03, 7.65696808e-04, 1.14854518e-03, 3.06278723e-03,
          2.67993892e-03, 3.44563555e-03, 3.44563555e-03, 1.53139362e-03,
          7.65696808e-04, 1.14854518e-03, 2.67993892e-03, 4.21133265e-03,
          4.59418073e-03, 3.06278723e-03, 2.29709037e-03, 7.65696808e-04,
          4.21133265e-03, 3.06278723e-03, 1.14854518e-03, 2.29709037e-03,
          4.59418073e-03, 1.14854518e-03, 6.50842302e-03, 7.65696820e-03,
          3.82848404e-04, 3.82848410e-03, 6.50842302e-03, 1.91424205e-03,
          3.06278723e-03, 2.29709037e-03, 1.91424205e-03, 6.50842302e-03,
          0., 1.53139362e-03, 1.14854518e-03, 2.67993892e-03,
          2.29709037e-03, 1.91424205e-03, 2.67993892e-03, 1.53139362e-03,
          7.65696808e-04, 4.97702928e-03, 4.21133265e-03, 1.53139362e-03,
          4.59418073e-03, 3.82848404e-04, 1.14854518e-03, 4.21133265e-03,
          7.65696808e-04, 1.91424205e-03, 3.44563555e-03, 3.82848410e-03,
          2.67993892e-03, 7.27411965e-03, 2.67993892e-03, 2.67993892e-03,
          4.21133265e-03, 2.67993892e-03, 1.91424205e-03, 3.06278723e-03,
          2.67993892e-03, 6.50842302e-03, 6.50842302e-03, 4.21133265e-03,
          4.59418073e-03, 3.82848410e-03, 1.53139362e-03, 2.29709037e-03,
          3.82848404e-04, 7.27411965e-03, 2.29709037e-03, 6.50842302e-03,
          2.29709037e-03, 2.67993892e-03, 7.27411965e-03, 4.21133265e-03,
          1.30168460e-02, 3.06278723e-03, 1.53139362e-03, 2.29709037e-03,
          2.29709037e-03, 1.14854518e-03, 1.14854518e-03, 6.89127110e-03,
          3.44563555e-03, 2.29709037e-03, 3.44563555e-03, 1.53139362e-03,
          2.29709037e-03, 8.80551338e-03, 6.12557447e-03, 2.67993892e-03,
          6.12557447e-03, 1.53139362e-03, 4.21133265e-03, 5.35987783e-03,
          3.82848410e-03, 8.03981628e-03, 1.14854518e-03, 6.12557447e-03 ]
      - [ 3.59841669e-03, 5.03778365e-03, 2.51889182e-03, 6.11730851e-03,
          2.15905020e-03, 3.95825831e-03, 1.07952510e-03, 2.15905020e-03,
          2.87873344e-03, 2.51889182e-03, 8.27635825e-03, 3.59841669e-03,
          2.51889182e-03, 2.15905020e-03, 6.11730851e-03, 3.59841669e-03,
          7.19683361e-04, 1.43936672e-03, 3.23857507e-03, 3.23857507e-03,
          1.79920834e-03, 3.23857507e-03, 3.95825831e-03, 2.51889182e-03,
          2.15905020e-03, 3.23857507e-03, 3.95825831e-03, 2.87873344e-03,
          7.55667547e-03, 2.87873344e-03, 5.75746689e-03, 3.23857507e-03,
          5.03778365e-03, 3.59841669e-03, 4.31810040e-03, 5.39762527e-03,
          3.23857507e-03, 7.55667547e-03, 3.59841669e-03, 2.15905020e-03,
          7.19683361e-04, 4.67794202e-03, 3.95825831e-03, 3.59841681e-04,
          1.07952510e-03, 4.67794202e-03, 5.75746689e-03, 3.95825831e-03,
          6.83699176e-03, 2.87873344e-03, 1.43936672e-03, 2.51889182e-03,
          5.75746689e-03, 1.79920834e-03, 1.79920834e-03, 5.39762527e-03,
          2.15905020e-03, 1.79920834e-03, 2.15905020e-03, 2.51889182e-03,
          5.03778365e-03, 2.15905020e-03, 1.43936672e-03, 3.23857507e-03,
          2.15905020e-03, 1.79920834e-03, 6.83699176e-03, 4.31810040e-03,
          2.87873344e-03, 3.59841669e-03, 3.59841681e-04, 3.95825831e-03,
          3.59841681e-04, 2.51889182e-03, 4.31810040e-03, 4.67794202e-03,
          1.07952510e-03, 3.59841669e-03, 2.51889182e-03, 2.87873344e-03,
          2.87873344e-03, 2.51889182e-03, 6.83699176e-03, 2.51889182e-03,
          1.43936672e-03, 7.19683361e-04, 2.15905020e-03, 1.43936672e-03,
          3.59841669e-03, 2.15905020e-03, 2.15905020e-03, 2.15905020e-03,
          4.31810040e-03, 5.75746689e-03, 2.51889182e-03, 1.79920834e-03,
          7.91651662e-03, 3.59841669e-03, 1.79920834e-03, 7.55667547e-03,
          3.23857507e-03, 1.43936672e-03, 1.79920834e-03, 2.51889182e-03,
          4.67794202e-03, 2.15905020e-03, 1.79920834e-03, 3.95825831e-03,
          1.43936672e-03, 3.59841669e-03, 6.11730851e-03, 1.79920834e-03,
          1.79920834e-03, 2.51889182e-03, 3.59841681e-04, 3.95825831e-03,
          2.51889182e-03, 1.79920834e-03, 7.91651662e-03, 2.15905020e-03,
          5.75746689e-03, 4.31810040e-03, 4.67794202e-03, 2.15905020e-03,
          1.79920834e-03, 4.31810040e-03, 3.95825831e-03, 1.43936672e-03,
          2.87873344e-03, 1.79920834e-03, 2.15905020e-03, 2.51889182e-03,
          3.59841669e-03, 2.51889182e-03, 7.19683361e-04, 1.43936672e-03,
          3.23857507e-03, 2.87873344e-03, 8.27635825e-03, 5.75746689e-03,
          2.51889182e-03, 2.15905020e-03, 4.31810040e-03, 2.51889182e-03,
          1.79920834e-03, 3.59841681e-04, 2.87873344e-03, 3.59841669e-03,
          4.67794202e-03, 3.23857507e-03, 5.39762527e-03, 2.87873344e-03,
          3.59841669e-03, 7.19683361e-04, 7.55667547e-03, 5.75746689e-03,
          4.67794202e-03, 4.67794202e-03, 1.79920834e-03, 2.51889182e-03,
          3.23857507e-03, 5.39762527e-03, 2.87873344e-03, 6.47715013e-03,
          3.23857507e-03, 2.15905020e-03, 6.11730851e-03, 2.15905020e-03,
          5.75746689e-03, 2.15905020e-03, 3.23857507e-03, 1.79920834e-03,
          2.15905020e-03, 1.79920834e-03, 4.31810040e-03, 6.11730851e-03,
          2.87873344e-03, 2.15905020e-03, 3.23857507e-03, 1.43936672e-03,
          3.59841669e-03, 2.15905020e-03, 2.51889182e-03, 3.95825831e-03,
          4.31810040e-03, 3.59841669e-03, 1.79920834e-03, 7.19683361e-04,
          6.11730851e-03, 6.47715013e-03, 2.15905020e-03, 3.59841669e-03,
          1.79920834e-03, 2.87873344e-03, 2.87873344e-03, 5.39762527e-03,
          3.59841669e-03, 6.47715013e-03, 5.03778365e-03, 2.15905020e-03,
          1.07952510e-03, 7.19683361e-04, 1.07952510e-03, 2.51889182e-03,
          4.67794202e-03, 5.03778365e-03, 4.31810040e-03, 3.23857507e-03,
          2.15905020e-03, 4.67794202e-03, 2.51889182e-03, 4.67794202e-03,
          6.47715013e-03, 2.87873344e-03, 1.43936672e-03, 2.15905020e-03,
          4.31810040e-03, 7.19683361e-04, 2.51889182e-03, 2.15905020e-03,
          5.75746689e-03, 5.03778365e-03, 4.67794202e-03, 8.63620080e-03,
          1.43936672e-03, 4.31810040e-03, 2.15905020e-03, 1.43936672e-03,
          7.19683338e-03, 6.11730851e-03, 1.43936672e-03, 3.95825831e-03,
          1.07952510e-03, 7.19683361e-04, 5.03778365e-03, 3.95825831e-03,
          6.11730851e-03, 3.59841669e-03, 1.43936672e-03, 2.51889182e-03,
          7.19683361e-04, 5.39762527e-03, 3.95825831e-03, 2.51889182e-03,
          4.67794202e-03, 2.15905020e-03, 1.43936672e-03, 2.87873344e-03,
          2.51889182e-03, 1.79920834e-03, 3.95825831e-03, 5.75746689e-03,
          1.07952510e-03, 7.91651662e-03, 1.07952510e-03, 2.15905020e-03,
          4.67794202e-03, 2.51889182e-03, 1.07952510e-03, 2.87873344e-03,
          3.23857507e-03, 5.03778365e-03, 7.55667547e-03, 4.31810040e-03,
          2.87873344e-03, 2.87873344e-03, 1.43936672e-03, 1.79920834e-03,
          1.79920834e-03, 3.95825831e-03, 7.19683361e-04, 2.51889182e-03,
          3.59841669e-03, 2.87873344e-03, 3.59841669e-03, 1.79920834e-03,
          6.47715013e-03, 4.67794202e-03, 1.79920834e-03, 1.43936672e-03,
          1.79920834e-03, 1.79920834e-03, 1.43936672e-03, 5.39762527e-03,
          4.67794202e-03, 2.87873344e-03, 2.87873344e-03, 1.79920834e-03,
          2.51889182e-03, 6.83699176e-03, 4.31810040e-03, 3.59841669e-03,
          5.03778365e-03, 3.59841669e-03, 2.87873344e-03, 6.47715013e-03,
          3.59841669e-03, 6.47715013e-03, 2.15905020e-03, 3.95825831e-03 ]
      - [ 3.57781746e-03, 1.78890873e-03, 6.70840777e-03, 2.68336316e-03,
          1.78890873e-03, 1.34168158e-03, 4.47227183e-04, 2.23613600e-03,
          8.94454366e-04, 5.81395347e-03, 1.02862250e-02, 2.23613600e-03,
          8.94454366e-04, 1.78890873e-03, 4.02504485e-03, 4.02504485e-03,
          1.78890873e-03, 2.23613600e-03, 3.13059031e-03, 3.13059031e-03,
          1.78890873e-03, 1.34168158e-03, 1.78890873e-03, 1.78890873e-03,
          3.13059031e-03, 4.02504485e-03, 8.94454366e-04, 4.47227200e-03,
          4.47227200e-03, 8.94454366e-04, 4.47227200e-03, 4.91949916e-03,
          8.05008970e-03, 4.47227183e-04, 8.94454366e-04, 2.23613600e-03,
          3.13059031e-03, 1.16279069e-02, 4.47227200e-03, 1.34168158e-03,
          3.13059031e-03, 1.78890873e-03, 1.78890873e-03, 2.23613600e-03,
          6.26118062e-03, 3.13059031e-03, 3.57781746e-03, 3.13059031e-03,
          1.78890873e-03, 4.91949916e-03, 4.02504485e-03, 8.94454366e-04,
          4.02504485e-03, 1.34168158e-03, 7.60286208e-03, 6.70840777e-03,
          8.94454366e-04, 3.13059031e-03, 2.68336316e-03, 2.68336316e-03,
          3.13059031e-03, 2.23613600e-03, 2.68336316e-03, 6.26118062e-03,
          8.94454366e-04, 1.34168158e-03, 1.34168158e-03, 4.02504485e-03,
          1.34168158e-03, 4.91949916e-03, 8.94454366e-04, 3.13059031e-03,
          8.94454366e-04, 4.02504485e-03, 2.23613600e-03, 4.02504485e-03,
          1.78890873e-03, 4.91949916e-03, 6.26118062e-03, 3.57781746e-03,
          3.13059031e-03, 3.57781746e-03, 7.60286208e-03, 1.78890873e-03,
          1.78890873e-03, 4.02504485e-03, 2.68336316e-03, 1.34168158e-03,
          3.13059031e-03, 2.68336316e-03, 8.49731639e-03, 1.78890873e-03,
          3.57781746e-03, 4.02504485e-03, 4.47227183e-04, 0.,
          7.15563493e-03, 4.02504485e-03, 0., 8.49731639e-03,
          8.94454366e-04, 1.78890873e-03, 8.94454366e-04, 1.78890873e-03,
          8.94454366e-04, 3.57781746e-03, 8.94454366e-04, 4.47227200e-03,
          8.94454366e-04, 3.13059031e-03, 2.68336316e-03, 3.57781746e-03,
          8.94454366e-04, 1.78890873e-03, 8.94454366e-04, 9.83899832e-03,
          4.47227200e-03, 8.94454366e-04, 6.70840777e-03, 3.13059031e-03,
          4.47227200e-03, 3.13059031e-03, 4.47227200e-03, 1.34168158e-03,
          4.47227183e-04, 5.36672631e-03, 2.23613600e-03, 3.13059031e-03,
          2.23613600e-03, 3.57781746e-03, 1.34168158e-03, 2.23613600e-03,
          1.34168158e-03, 1.34168158e-03, 7.15563493e-03, 8.94454366e-04,
          2.23613600e-03, 2.68336316e-03, 7.15563493e-03, 8.94454401e-03,
          2.23613600e-03, 4.02504485e-03, 1.78890873e-03, 5.81395347e-03,
          4.47227183e-04, 1.34168158e-03, 1.34168158e-03, 3.57781746e-03,
          4.02504485e-03, 5.36672631e-03, 4.02504485e-03, 1.34168158e-03,
          2.68336316e-03, 1.34168158e-03, 4.91949916e-03, 5.81395347e-03,
          6.26118062e-03, 6.26118062e-03, 2.23613600e-03, 5.36672631e-03,
          2.68336316e-03, 8.05008970e-03, 3.13059031e-03, 7.15563493e-03,
          8.94454366e-04, 4.47227183e-04, 7.15563493e-03, 3.13059031e-03,
          9.83899832e-03, 3.57781746e-03, 8.94454366e-04, 0.,
          4.47227183e-04, 4.02504485e-03, 4.91949916e-03, 3.57781746e-03,
          2.23613600e-03, 2.68336316e-03, 2.23613600e-03, 8.94454366e-04,
          1.34168158e-03, 4.47227183e-04, 2.68336316e-03, 4.91949916e-03,
          2.23613600e-03, 4.47227200e-03, 2.68336316e-03, 1.78890873e-03,
          3.13059031e-03, 7.15563493e-03, 3.13059031e-03, 2.23613600e-03,
          2.23613600e-03, 9.83899832e-03, 4.47227200e-03, 8.94454366e-04,
          1.78890873e-03, 4.47227200e-03, 2.23613600e-03, 3.13059031e-03,
          3.57781746e-03, 3.57781746e-03, 1.78890873e-03, 1.78890873e-03,
          5.81395347e-03, 1.78890873e-03, 4.91949916e-03, 5.36672631e-03,
          8.94454366e-04, 2.23613600e-03, 2.23613600e-03, 1.78890873e-03,
          7.15563493e-03, 2.23613600e-03, 4.47227200e-03, 4.47227183e-04,
          3.57781746e-03, 1.78890873e-03, 1.78890873e-03, 4.47227183e-04,
          6.26118062e-03, 2.68336316e-03, 4.47227200e-03, 1.52057242e-02,
          2.23613600e-03, 2.23613600e-03, 4.91949916e-03, 2.23613600e-03,
          3.57781746e-03, 7.15563493e-03, 3.13059031e-03, 3.57781746e-03,
          2.68336316e-03, 1.34168158e-03, 2.23613600e-03, 4.47227200e-03,
          6.26118062e-03, 7.15563493e-03, 3.57781746e-03, 3.13059031e-03,
          4.47227183e-04, 1.78890873e-03, 1.78890873e-03, 4.91949916e-03,
          6.70840777e-03, 0., 2.23613600e-03, 1.34168158e-03,
          8.94454366e-04, 3.13059031e-03, 3.57781746e-03, 2.23613600e-03,
          1.34168158e-03, 5.81395347e-03, 3.57781746e-03, 1.78890873e-03,
          6.26118062e-03, 3.57781746e-03, 1.34168158e-03, 3.13059031e-03,
          1.78890873e-03, 9.39177070e-03, 1.47584975e-02, 4.02504485e-03,
          2.23613600e-03, 2.68336316e-03, 2.68336316e-03, 2.68336316e-03,
          1.34168158e-03, 3.57781746e-03, 1.78890873e-03, 2.68336316e-03,
          3.57781746e-03, 4.02504485e-03, 1.20751336e-02, 4.47227183e-04,
          8.49731639e-03, 4.91949916e-03, 2.23613600e-03, 3.57781746e-03,
          8.94454366e-04, 3.13059031e-03, 1.78890873e-03, 4.91949916e-03,
          1.78890873e-03, 1.78890873e-03, 3.13059031e-03, 4.47227183e-04,
          1.34168158e-03, 4.91949916e-03, 5.36672631e-03, 3.57781746e-03,
          1.78890873e-03, 2.23613600e-03, 8.94454366e-04, 6.26118062e-03,
          1.78890873e-03, 1.07334526e-02, 8.94454366e-04, 5.36672631e-03 ]
      - [ 4.19463078e-03, 3.35570471e-03, 7.55033549e-03, 7.13087246e-03,
          2.09731539e-03, 3.77516774e-03, 3.35570471e-03, 4.19463078e-03,
          4.19463089e-04, 1.17449667e-02, 6.29194640e-03, 4.61409381e-03,
          0., 5.45302033e-03, 2.51677865e-03, 3.77516774e-03,
          4.19463078e-03, 2.93624168e-03, 3.77516774e-03, 4.19463078e-03,
          2.09731539e-03, 2.51677865e-03, 2.51677865e-03, 2.09731539e-03,
          1.67785236e-03, 2.93624168e-03, 8.38926178e-04, 5.03355730e-03,
          2.93624168e-03, 8.38926178e-04, 1.25838933e-03, 4.19463089e-04,
          5.45302033e-03, 2.51677865e-03, 2.51677865e-03, 3.35570471e-03,
          7.13087246e-03, 5.87248337e-03, 2.09731539e-03, 2.09731539e-03,
          2.09731539e-03, 2.09731539e-03, 2.51677865e-03, 8.38926178e-04,
          4.19463078e-03, 2.51677865e-03, 4.19463089e-04, 5.03355730e-03,
          5.45302033e-03, 2.09731539e-03, 2.09731539e-03, 2.09731539e-03,
          4.19463078e-03, 1.67785236e-03, 1.67785236e-03, 7.13087246e-03,
          2.09731539e-03, 2.09731539e-03, 3.77516774e-03, 2.51677865e-03,
          2.51677865e-03, 1.25838933e-03, 3.35570471e-03, 2.09731539e-03,
          1.67785236e-03, 2.09731539e-03, 2.51677865e-03, 2.93624168e-03,
          2.09731539e-03, 3.77516774e-03, 4.19463089e-04, 1.25838933e-03,
          1.25838933e-03, 3.77516774e-03, 2.51677865e-03, 5.45302033e-03,
          8.38926178e-04, 2.09731539e-03, 4.19463078e-03, 4.19463078e-03,
          6.71140943e-03, 4.19463078e-03, 8.80872458e-03, 0.,
          2.51677865e-03, 2.51677865e-03, 1.67785236e-03, 2.09731539e-03,
          1.67785236e-03, 4.19463078e-03, 4.19463078e-03, 2.51677865e-03,
          4.19463078e-03, 2.93624168e-03, 8.38926178e-04, 4.19463078e-03,
          1.00671146e-02, 3.35570471e-03, 2.51677865e-03, 1.04865776e-02,
          1.25838933e-03, 2.09731539e-03, 1.25838933e-03, 1.67785236e-03,
          1.25838933e-03, 8.38926178e-04, 8.38926178e-04, 4.19463078e-03,
          1.25838933e-03, 5.87248337e-03, 6.29194640e-03, 8.38926178e-04,
          2.09731539e-03, 2.51677865e-03, 0., 5.87248337e-03,
          2.93624168e-03, 1.67785236e-03, 5.45302033e-03, 1.67785236e-03,
          4.19463078e-03, 2.09731539e-03, 3.35570471e-03, 2.09731539e-03,
          1.67785236e-03, 6.29194640e-03, 2.51677865e-03, 8.38926178e-04,
          1.67785236e-03, 2.09731539e-03, 2.09731539e-03, 5.87248337e-03,
          2.51677865e-03, 3.35570471e-03, 3.35570471e-03, 1.67785236e-03,
          1.67785236e-03, 4.61409381e-03, 5.03355730e-03, 2.51677865e-03,
          3.77516774e-03, 2.09731539e-03, 2.09731539e-03, 5.03355730e-03,
          4.61409381e-03, 2.51677865e-03, 4.61409381e-03, 2.09731539e-03,
          1.25838933e-03, 2.09731539e-03, 5.45302033e-03, 2.93624168e-03,
          4.61409381e-03, 3.35570471e-03, 4.61409381e-03, 2.51677865e-03,
          2.09731539e-03, 4.61409381e-03, 1.67785236e-03, 5.03355730e-03,
          1.67785236e-03, 4.61409381e-03, 3.77516774e-03, 7.96979852e-03,
          5.45302033e-03, 1.25838933e-03, 7.96979852e-03, 5.03355730e-03,
          6.29194640e-03, 3.35570471e-03, 1.67785236e-03, 2.51677865e-03,
          2.09731539e-03, 2.51677865e-03, 3.35570471e-03, 2.93624168e-03,
          8.38926178e-04, 2.09731539e-03, 4.61409381e-03, 2.93624168e-03,
          5.87248337e-03, 3.35570471e-03, 4.19463078e-03, 6.71140943e-03,
          4.19463078e-03, 6.29194640e-03, 2.51677865e-03, 2.51677865e-03,
          4.19463078e-03, 8.80872458e-03, 2.93624168e-03, 5.03355730e-03,
          2.09731539e-03, 3.35570471e-03, 3.35570471e-03, 2.51677865e-03,
          3.35570471e-03, 5.03355730e-03, 3.35570471e-03, 4.19463078e-03,
          1.67785236e-03, 4.19463089e-04, 3.35570471e-03, 3.35570471e-03,
          5.87248337e-03, 3.35570471e-03, 4.61409381e-03, 2.93624168e-03,
          8.38926178e-04, 3.77516774e-03, 1.67785236e-03, 2.09731539e-03,
          5.87248337e-03, 4.19463078e-03, 1.25838933e-03, 2.09731539e-03,
          5.03355730e-03, 2.93624168e-03, 8.38926178e-04, 1.25838933e-03,
          4.61409381e-03, 2.51677865e-03, 1.67785236e-03, 8.80872458e-03,
          1.25838933e-03, 2.93624168e-03, 7.13087246e-03, 3.35570471e-03,
          3.35570471e-03, 6.29194640e-03, 3.77516774e-03, 5.03355730e-03,
          1.67785236e-03, 2.09731539e-03, 4.61409381e-03, 3.77516774e-03,
          3.35570471e-03, 3.35570471e-03, 2.09731539e-03, 4.61409381e-03,
          8.38926178e-04, 2.51677865e-03, 2.51677865e-03, 6.29194640e-03,
          4.61409381e-03, 8.38926178e-04, 8.38926178e-04, 2.93624168e-03,
          2.09731539e-03, 2.93624168e-03, 2.93624168e-03, 3.35570471e-03,
          2.09731539e-03, 6.71140943e-03, 3.77516774e-03, 4.19463089e-04,
          2.93624168e-03, 2.93624168e-03, 8.38926178e-04, 3.77516774e-03,
          1.25838933e-03, 8.38926155e-03, 8.38926155e-03, 2.51677865e-03,
          2.51677865e-03, 2.09731539e-03, 2.93624168e-03, 2.09731539e-03,
          3.35570471e-03, 2.09731539e-03, 1.67785236e-03, 2.93624168e-03,
          2.09731539e-03, 5.03355730e-03, 1.17449667e-02, 2.51677865e-03,
          4.19463078e-03, 3.77516774e-03, 7.55033549e-03, 2.09731539e-03,
          5.03355730e-03, 2.09731539e-03, 0., 7.55033549e-03,
          1.25838933e-03, 8.38926178e-04, 5.03355730e-03, 0.,
          2.93624168e-03, 1.17449667e-02, 3.77516774e-03, 3.35570471e-03,
          8.38926178e-04, 2.93624168e-03, 4.19463089e-04, 6.29194640e-03,
          2.09731539e-03, 1.67785236e-03, 2.93624168e-03, 7.96979852e-03 ]
      - [ 2.42033089e-03, 4.03388450e-03, 5.64743858e-03, 5.64743858e-03,
          1.21016544e-03, 2.42033089e-03, 4.03388462e-04, 8.06776900e-03,
          1.61355385e-03, 5.24405017e-03, 9.27793421e-03, 3.22710769e-03,
          1.61355385e-03, 2.42033089e-03, 3.22710769e-03, 4.03388450e-03,
          2.82371929e-03, 2.42033089e-03, 2.42033089e-03, 3.63049610e-03,
          3.63049610e-03, 2.42033089e-03, 2.01694225e-03, 8.06776923e-04,
          3.22710769e-03, 2.42033089e-03, 2.82371929e-03, 1.61355385e-03,
          4.03388450e-03, 8.06776923e-04, 4.43727290e-03, 2.01694225e-03,
          2.82371929e-03, 1.61355385e-03, 4.03388450e-03, 2.82371929e-03,
          3.22710769e-03, 9.27793421e-03, 2.82371929e-03, 2.82371929e-03,
          8.06776923e-04, 2.01694225e-03, 1.61355385e-03, 2.42033089e-03,
          3.63049610e-03, 3.63049610e-03, 1.21016544e-03, 4.03388450e-03,
          2.01694225e-03, 2.01694225e-03, 3.63049610e-03, 2.82371929e-03,
          4.43727290e-03, 2.01694225e-03, 4.03388450e-03, 7.66438060e-03,
          2.82371929e-03, 2.82371929e-03, 2.82371929e-03, 1.21016544e-03,
          4.03388450e-03, 1.61355385e-03, 4.84066177e-03, 2.82371929e-03,
          1.61355385e-03, 2.42033089e-03, 5.24405017e-03, 3.22710769e-03,
          2.82371929e-03, 3.22710769e-03, 5.64743858e-03, 8.06776923e-04,
          2.42033089e-03, 2.82371929e-03, 1.61355385e-03, 5.64743858e-03,
          0., 4.84066177e-03, 2.42033089e-03, 3.22710769e-03,
          4.84066177e-03, 2.82371929e-03, 8.06776900e-03, 2.42033089e-03,
          1.61355385e-03, 8.06776923e-04, 2.82371929e-03, 1.61355385e-03,
          5.64743858e-03, 3.63049610e-03, 4.84066177e-03, 2.82371929e-03,
          5.24405017e-03, 4.43727290e-03, 8.06776923e-04, 2.01694225e-03,
          9.27793421e-03, 4.03388450e-03, 2.01694225e-03, 9.27793421e-03,
          8.06776923e-04, 1.61355385e-03, 2.42033089e-03, 2.42033089e-03,
          2.01694225e-03, 8.06776923e-04, 2.01694225e-03, 3.22710769e-03,
          1.61355385e-03, 3.63049610e-03, 4.03388450e-03, 3.22710769e-03,
          2.01694225e-03, 3.22710769e-03, 8.06776923e-04, 4.03388450e-03,
          2.82371929e-03, 2.82371929e-03, 7.26099219e-03, 3.63049610e-03,
          4.43727290e-03, 2.82371929e-03, 3.22710769e-03, 8.06776923e-04,
          1.61355385e-03, 4.43727290e-03, 2.82371929e-03, 2.01694225e-03,
          2.82371929e-03, 1.61355385e-03, 2.01694225e-03, 3.63049610e-03,
          2.42033089e-03, 8.06776923e-04, 4.03388450e-03, 8.06776923e-04,
          1.21016544e-03, 6.85760379e-03, 2.82371929e-03, 5.64743858e-03,
          8.06776923e-04, 1.61355385e-03, 4.03388450e-03, 3.22710769e-03,
          2.01694225e-03, 3.22710769e-03, 4.03388450e-03, 8.06776923e-04,
          4.03388450e-03, 3.22710769e-03, 2.42033089e-03, 1.21016544e-03,
          6.45421539e-03, 1.21016544e-03, 4.43727290e-03, 3.22710769e-03,
          5.24405017e-03, 4.84066177e-03, 1.21016544e-03, 4.84066177e-03,
          2.82371929e-03, 5.64743858e-03, 2.82371929e-03, 4.84066177e-03,
          2.42033089e-03, 4.03388462e-04, 1.04881003e-02, 1.61355385e-03,
          7.26099219e-03, 2.42033089e-03, 1.61355385e-03, 8.06776923e-04,
          2.01694225e-03, 1.61355385e-03, 3.22710769e-03, 4.84066177e-03,
          2.42033089e-03, 1.21016544e-03, 2.82371929e-03, 3.63049610e-03,
          2.42033089e-03, 1.61355385e-03, 4.03388450e-03, 8.06776900e-03,
          4.84066177e-03, 4.03388450e-03, 3.63049610e-03, 4.03388462e-04,
          2.42033089e-03, 4.43727290e-03, 2.01694225e-03, 2.01694225e-03,
          2.42033089e-03, 9.27793421e-03, 2.42033089e-03, 8.06776923e-04,
          2.82371929e-03, 8.87454581e-03, 6.05082698e-03, 1.61355385e-03,
          4.03388450e-03, 2.01694225e-03, 2.42033089e-03, 2.82371929e-03,
          4.84066177e-03, 3.22710769e-03, 4.43727290e-03, 4.84066177e-03,
          2.01694225e-03, 7.66438060e-03, 2.42033089e-03, 2.82371929e-03,
          6.45421539e-03, 2.42033089e-03, 2.42033089e-03, 2.01694225e-03,
          3.22710769e-03, 1.61355385e-03, 6.05082698e-03, 2.42033089e-03,
          3.22710769e-03, 3.63049610e-03, 1.21016544e-03, 7.66438060e-03,
          3.22710769e-03, 4.03388450e-03, 9.27793421e-03, 4.43727290e-03,
          5.24405017e-03, 6.05082698e-03, 3.22710769e-03, 2.82371929e-03,
          4.03388462e-04, 8.06776923e-04, 3.22710769e-03, 4.84066177e-03,
          6.85760379e-03, 6.45421539e-03, 1.61355385e-03, 2.01694225e-03,
          1.21016544e-03, 3.22710769e-03, 2.42033089e-03, 5.64743858e-03,
          6.05082698e-03, 2.01694225e-03, 1.21016544e-03, 2.01694225e-03,
          1.61355385e-03, 2.42033089e-03, 2.01694225e-03, 4.03388450e-03,
          8.06776923e-04, 4.84066177e-03, 4.03388450e-03, 1.61355385e-03,
          5.64743858e-03, 3.63049610e-03, 1.61355385e-03, 5.24405017e-03,
          2.42033089e-03, 1.04881003e-02, 6.45421539e-03, 3.22710769e-03,
          1.61355385e-03, 1.21016544e-03, 1.61355385e-03, 1.21016544e-03,
          2.42033089e-03, 2.01694225e-03, 4.03388462e-04, 4.84066177e-03,
          3.63049610e-03, 6.85760379e-03, 8.47115740e-03, 3.22710769e-03,
          6.05082698e-03, 4.43727290e-03, 1.21016544e-03, 2.82371929e-03,
          4.43727290e-03, 2.01694225e-03, 8.06776923e-04, 5.24405017e-03,
          1.61355385e-03, 2.42033089e-03, 4.84066177e-03, 8.06776923e-04,
          2.01694225e-03, 4.03388450e-03, 4.03388450e-03, 3.22710769e-03,
          4.03388462e-04, 2.42033089e-03, 8.06776923e-04, 1.21016540e-02,
          4.43727290e-03, 6.85760379e-03, 2.01694225e-03, 6.85760379e-03 ]
      - [ 2.59067351e-03, 2.15889467e-03, 5.61312586e-03, 1.03626940e-02,
          8.63557856e-04, 2.15889467e-03, 8.63557856e-04, 3.02245258e-03,
          8.63557856e-04, 3.45423142e-03, 9.06735752e-03, 1.72711571e-03,
          2.15889467e-03, 2.15889467e-03, 4.74956818e-03, 1.72711571e-03,
          2.15889467e-03, 2.59067351e-03, 5.18134702e-03, 2.59067351e-03,
          2.15889467e-03, 2.59067351e-03, 1.72711571e-03, 2.15889467e-03,
          1.72711571e-03, 9.49913636e-03, 2.59067351e-03, 4.74956818e-03,
          2.15889467e-03, 2.59067351e-03, 1.72711571e-03, 2.15889467e-03,
          6.90846285e-03, 8.63557856e-04, 3.88601026e-03, 5.18134702e-03,
          6.47668401e-03, 6.90846285e-03, 2.59067351e-03, 8.63557856e-04,
          2.15889467e-03, 3.02245258e-03, 1.29533675e-03, 1.72711571e-03,
          6.47668401e-03, 2.15889467e-03, 7.77202053e-03, 4.74956818e-03,
          2.15889467e-03, 1.72711571e-03, 3.88601026e-03, 1.72711571e-03,
          5.61312586e-03, 3.02245258e-03, 2.15889467e-03, 6.47668401e-03,
          5.18134702e-03, 1.29533675e-03, 1.29533675e-03, 2.15889467e-03,
          5.18134702e-03, 1.29533675e-03, 5.18134702e-03, 3.45423142e-03,
          2.59067351e-03, 8.63557856e-04, 4.31778934e-03, 3.45423142e-03,
          8.63557856e-04, 1.29533675e-03, 3.02245258e-03, 2.15889467e-03,
          8.63557856e-04, 1.72711571e-03, 1.72711571e-03, 5.18134702e-03,
          8.63557856e-04, 4.31778934e-03, 2.15889467e-03, 2.59067351e-03,
          4.74956818e-03, 3.45423142e-03, 1.25215892e-02, 2.59067351e-03,
          1.72711571e-03, 1.29533675e-03, 2.15889467e-03, 3.02245258e-03,
          3.88601026e-03, 3.45423142e-03, 6.04490517e-03, 2.15889467e-03,
          2.15889467e-03, 1.72711571e-03, 8.63557856e-04, 1.29533675e-03,
          8.20379984e-03, 4.74956818e-03, 2.59067351e-03, 5.18134702e-03,
          1.29533675e-03, 8.63557856e-04, 0., 2.15889467e-03,
          1.72711571e-03, 3.02245258e-03, 3.02245258e-03, 4.31778934e-03,
          3.88601026e-03, 6.47668401e-03, 5.18134702e-03, 2.15889467e-03,
          4.31778934e-03, 8.63557856e-04, 4.31778928e-04, 3.45423142e-03,
          3.45423142e-03, 2.15889467e-03, 6.90846285e-03, 3.45423142e-03,
          1.29533675e-03, 2.15889467e-03, 3.02245258e-03, 2.59067351e-03,
          3.45423142e-03, 7.77202053e-03, 2.15889467e-03, 1.29533675e-03,
          6.90846285e-03, 1.72711571e-03, 2.59067351e-03, 4.74956818e-03,
          2.59067351e-03, 1.29533675e-03, 8.63557856e-04, 2.15889467e-03,
          2.59067351e-03, 5.61312586e-03, 7.34024169e-03, 5.61312586e-03,
          2.15889467e-03, 6.90846285e-03, 2.59067351e-03, 1.29533675e-03,
          3.45423142e-03, 1.29533675e-03, 6.04490517e-03, 0.,
          3.88601026e-03, 2.59067351e-03, 4.74956818e-03, 2.59067351e-03,
          1.72711571e-03, 1.29533675e-03, 4.74956818e-03, 3.45423142e-03,
          4.74956818e-03, 4.31778934e-03, 2.15889467e-03, 5.18134702e-03,
          3.45423142e-03, 8.63557868e-03, 2.15889467e-03, 3.88601026e-03,
          4.74956818e-03, 4.31778928e-04, 7.34024169e-03, 2.15889467e-03,
          8.20379984e-03, 1.29533675e-03, 3.88601026e-03, 2.15889467e-03,
          2.15889467e-03, 2.15889467e-03, 3.88601026e-03, 6.90846285e-03,
          2.59067351e-03, 2.15889467e-03, 3.02245258e-03, 3.02245258e-03,
          0., 1.72711571e-03, 3.88601026e-03, 4.74956818e-03,
          2.59067351e-03, 3.02245258e-03, 8.63557856e-04, 0.,
          3.02245258e-03, 1.03626940e-02, 3.88601026e-03, 3.02245258e-03,
          3.45423142e-03, 5.18134702e-03, 2.15889467e-03, 1.29533675e-03,
          6.47668401e-03, 3.88601026e-03, 3.45423142e-03, 3.45423142e-03,
          4.31778934e-03, 2.15889467e-03, 1.72711571e-03, 2.15889467e-03,
          3.02245258e-03, 2.59067351e-03, 3.45423142e-03, 4.74956818e-03,
          4.31778928e-04, 2.59067351e-03, 1.72711571e-03, 4.74956818e-03,
          6.90846285e-03, 3.45423142e-03, 3.02245258e-03, 8.63557856e-04,
          1.29533675e-03, 2.59067351e-03, 1.72711571e-03, 1.72711571e-03,
          6.47668401e-03, 2.15889467e-03, 4.31778934e-03, 9.93091520e-03,
          3.02245258e-03, 3.02245258e-03, 4.74956818e-03, 1.72711571e-03,
          3.02245258e-03, 7.34024169e-03, 2.59067351e-03, 6.04490517e-03,
          8.63557856e-04, 1.29533675e-03, 3.02245258e-03, 2.59067351e-03,
          2.59067351e-03, 4.74956818e-03, 4.74956818e-03, 3.45423142e-03,
          1.72711571e-03, 2.59067351e-03, 4.31778934e-03, 3.45423142e-03,
          5.61312586e-03, 1.29533675e-03, 2.15889467e-03, 8.63557856e-04,
          1.29533675e-03, 1.72711571e-03, 3.45423142e-03, 3.88601026e-03,
          1.29533675e-03, 3.02245258e-03, 3.88601026e-03, 8.63557856e-04,
          5.61312586e-03, 3.45423142e-03, 2.15889467e-03, 3.45423142e-03,
          2.15889467e-03, 6.47668401e-03, 6.47668401e-03, 1.29533675e-03,
          1.72711571e-03, 3.88601026e-03, 2.15889467e-03, 2.15889467e-03,
          2.15889467e-03, 1.16580315e-02, 1.72711571e-03, 3.02245258e-03,
          3.88601026e-03, 5.18134702e-03, 3.88601026e-03, 1.72711571e-03,
          9.06735752e-03, 3.88601026e-03, 1.29533675e-03, 3.02245258e-03,
          3.02245258e-03, 2.59067351e-03, 8.63557856e-04, 7.77202053e-03,
          3.02245258e-03, 1.72711571e-03, 3.45423142e-03, 8.63557856e-04,
          1.29533675e-03, 1.20898103e-02, 1.29533675e-03, 3.88601026e-03,
          5.61312586e-03, 3.45423142e-03, 2.15889467e-03, 6.04490517e-03,
          2.59067351e-03, 5.18134702e-03, 8.63557856e-04, 4.74956818e-03 ]
      - [ 2.35136040e-03, 4.03090380e-03, 4.03090380e-03, 6.71817269e-03,
          1.34363456e-03, 3.69499507e-03, 2.01545190e-03, 4.03090380e-03,
          2.68726912e-03, 4.70272079e-03, 6.04635570e-03, 4.70272079e-03,
          2.01545190e-03, 4.70272079e-03, 2.68726912e-03, 4.03090380e-03,
          4.03090380e-03, 4.70272079e-03, 4.03090380e-03, 4.36681230e-03,
          2.68726912e-03, 2.68726912e-03, 2.01545190e-03, 2.68726912e-03,
          2.68726912e-03, 3.69499507e-03, 4.03090380e-03, 4.36681230e-03,
          6.71817269e-03, 1.34363456e-03, 4.03090380e-03, 1.34363456e-03,
          2.35136040e-03, 1.67954317e-03, 3.69499507e-03, 3.35908635e-03,
          5.71044674e-03, 6.38226420e-03, 2.68726912e-03, 1.00772595e-03,
          1.34363456e-03, 2.35136040e-03, 2.68726912e-03, 3.02317785e-03,
          2.01545190e-03, 1.34363456e-03, 3.02317785e-03, 3.35908635e-03,
          3.35908635e-03, 4.70272079e-03, 4.36681230e-03, 2.68726912e-03,
          1.67954317e-03, 3.02317785e-03, 3.69499507e-03, 7.05408165e-03,
          1.67954317e-03, 3.35908635e-03, 2.01545190e-03, 1.00772595e-03,
          2.01545190e-03, 6.71817281e-04, 2.68726912e-03, 4.70272079e-03,
          3.02317785e-03, 3.35908635e-03, 2.68726912e-03, 6.04635570e-03,
          1.34363456e-03, 4.36681230e-03, 2.68726912e-03, 1.00772595e-03,
          1.34363456e-03, 2.01545190e-03, 1.34363456e-03, 5.37453825e-03,
          0., 5.37453825e-03, 2.68726912e-03, 3.35908635e-03,
          4.03090380e-03, 2.01545190e-03, 4.70272079e-03, 4.03090380e-03,
          4.03090380e-03, 2.68726912e-03, 3.35908635e-03, 2.68726912e-03,
          3.35908635e-03, 2.35136040e-03, 5.71044674e-03, 1.67954317e-03,
          4.03090380e-03, 3.35908635e-03, 1.67954317e-03, 2.01545190e-03,
          6.38226420e-03, 3.02317785e-03, 3.35908635e-03, 5.71044674e-03,
          2.35136040e-03, 1.67954317e-03, 1.67954317e-03, 3.02317785e-03,
          2.01545190e-03, 4.03090380e-03, 2.68726912e-03, 3.35908635e-03,
          6.71817281e-04, 3.69499507e-03, 1.34363456e-03, 3.35908640e-04,
          2.68726912e-03, 2.35136040e-03, 6.71817281e-04, 3.35908635e-03,
          2.35136040e-03, 1.67954317e-03, 4.03090380e-03, 3.35908635e-03,
          5.71044674e-03, 3.35908635e-03, 3.35908635e-03, 1.67954317e-03,
          3.02317785e-03, 4.70272079e-03, 2.01545190e-03, 2.01545190e-03,
          2.68726912e-03, 3.02317785e-03, 1.67954317e-03, 4.03090380e-03,
          2.01545190e-03, 2.01545190e-03, 2.68726912e-03, 2.01545190e-03,
          2.01545190e-03, 4.70272079e-03, 5.37453825e-03, 2.68726912e-03,
          4.70272079e-03, 3.35908635e-03, 3.69499507e-03, 3.69499507e-03,
          3.02317785e-03, 1.67954317e-03, 3.69499507e-03, 2.01545190e-03,
          2.01545190e-03, 3.35908635e-03, 4.70272079e-03, 2.68726912e-03,
          2.35136040e-03, 1.00772595e-03, 4.03090380e-03, 3.35908635e-03,
          6.71817269e-03, 4.70272079e-03, 1.34363456e-03, 2.68726912e-03,
          1.34363456e-03, 4.03090380e-03, 5.71044674e-03, 5.37453825e-03,
          1.00772595e-03, 2.01545190e-03, 7.72589864e-03, 2.01545190e-03,
          5.03862975e-03, 4.36681230e-03, 4.03090380e-03, 2.01545190e-03,
          2.01545190e-03, 2.01545190e-03, 4.36681230e-03, 5.03862975e-03,
          3.69499507e-03, 2.35136040e-03, 1.67954317e-03, 2.35136040e-03,
          2.01545190e-03, 5.71044674e-03, 4.36681230e-03, 4.03090380e-03,
          3.69499507e-03, 5.37453825e-03, 6.71817281e-04, 3.02317785e-03,
          4.03090380e-03, 4.70272079e-03, 4.70272079e-03, 4.03090380e-03,
          3.69499507e-03, 5.37453825e-03, 2.01545190e-03, 1.67954317e-03,
          4.03090380e-03, 3.35908635e-03, 4.36681230e-03, 3.02317785e-03,
          3.69499507e-03, 2.01545190e-03, 4.70272079e-03, 4.03090380e-03,
          4.70272079e-03, 4.70272079e-03, 3.69499507e-03, 3.69499507e-03,
          3.02317785e-03, 5.71044674e-03, 2.68726912e-03, 1.00772595e-03,
          7.05408165e-03, 3.02317785e-03, 3.69499507e-03, 2.35136040e-03,
          3.35908635e-03, 2.68726912e-03, 2.35136040e-03, 3.02317785e-03,
          3.02317785e-03, 4.36681230e-03, 3.35908635e-03, 4.03090380e-03,
          3.02317785e-03, 3.02317785e-03, 7.38999015e-03, 4.70272079e-03,
          3.69499507e-03, 5.71044674e-03, 2.01545190e-03, 2.68726912e-03,
          2.68726912e-03, 3.35908635e-03, 3.02317785e-03, 5.03862975e-03,
          6.71817269e-03, 5.71044674e-03, 3.69499507e-03, 2.35136040e-03,
          1.00772595e-03, 3.69499507e-03, 4.36681230e-03, 4.03090380e-03,
          3.69499507e-03, 3.35908635e-03, 1.34363456e-03, 3.02317785e-03,
          3.02317785e-03, 5.71044674e-03, 3.02317785e-03, 4.03090380e-03,
          3.02317785e-03, 5.37453825e-03, 3.69499507e-03, 1.34363456e-03,
          5.03862975e-03, 4.70272079e-03, 3.02317785e-03, 3.35908635e-03,
          2.35136040e-03, 8.73362459e-03, 4.03090380e-03, 3.69499507e-03,
          3.02317785e-03, 1.00772595e-03, 2.01545190e-03, 3.02317785e-03,
          3.02317785e-03, 4.03090380e-03, 2.35136040e-03, 4.70272079e-03,
          2.35136040e-03, 4.36681230e-03, 4.36681230e-03, 3.02317785e-03,
          6.71817269e-03, 4.03090380e-03, 5.03862975e-03, 2.01545190e-03,
          3.02317785e-03, 1.34363456e-03, 1.00772595e-03, 6.04635570e-03,
          2.35136040e-03, 2.01545190e-03, 3.69499507e-03, 2.68726912e-03,
          2.35136040e-03, 4.03090380e-03, 1.00772595e-03, 3.02317785e-03,
          2.01545190e-03, 4.36681230e-03, 2.35136040e-03, 8.39771610e-03,
          3.35908635e-03, 3.02317785e-03, 2.01545190e-03, 6.04635570e-03 ]
      - [ 3.41064110e-03, 2.72851298e-03, 5.79809025e-03, 4.43383353e-03,
          4.09276970e-03, 2.38744891e-03, 2.72851298e-03, 2.72851298e-03,
          3.41064122e-04, 3.41064110e-03, 4.77489782e-03, 4.09276970e-03,
          1.02319242e-03, 3.06957704e-03, 1.70532055e-03, 4.09276970e-03,
          3.06957704e-03, 5.11596166e-03, 3.06957704e-03, 3.41064110e-03,
          2.72851298e-03, 4.09276970e-03, 2.38744891e-03, 2.04638485e-03,
          2.04638485e-03, 2.72851298e-03, 2.72851298e-03, 2.72851298e-03,
          3.75170540e-03, 1.70532055e-03, 3.41064110e-03, 2.04638485e-03,
          3.06957704e-03, 6.82128221e-03, 2.04638485e-03, 4.77489782e-03,
          4.43383353e-03, 4.77489782e-03, 2.04638485e-03, 2.04638485e-03,
          2.04638485e-03, 2.38744891e-03, 3.06957704e-03, 4.09276970e-03,
          3.75170540e-03, 1.02319242e-03, 1.02319242e-03, 4.09276970e-03,
          3.75170540e-03, 4.43383353e-03, 4.43383353e-03, 2.04638485e-03,
          4.77489782e-03, 2.04638485e-03, 6.48021838e-03, 5.45702595e-03,
          2.04638485e-03, 1.36425649e-03, 1.70532055e-03, 3.75170540e-03,
          1.70532055e-03, 1.02319242e-03, 3.06957704e-03, 4.43383353e-03,
          2.72851298e-03, 3.06957704e-03, 3.41064110e-03, 6.13915408e-03,
          1.70532055e-03, 5.79809025e-03, 2.04638485e-03, 1.70532055e-03,
          3.06957704e-03, 5.11596166e-03, 4.09276970e-03, 2.04638485e-03,
          2.04638485e-03, 3.75170540e-03, 3.75170540e-03, 2.04638485e-03,
          4.09276970e-03, 2.38744891e-03, 5.11596166e-03, 1.36425649e-03,
          3.75170540e-03, 4.43383353e-03, 3.06957704e-03, 2.38744891e-03,
          1.36425649e-03, 4.09276970e-03, 3.41064110e-03, 3.06957704e-03,
          4.09276970e-03, 2.72851298e-03, 3.06957704e-03, 1.02319242e-03,
          5.45702595e-03, 2.38744891e-03, 1.70532055e-03, 5.79809025e-03,
          3.06957704e-03, 3.75170540e-03, 2.04638485e-03, 5.11596166e-03,
          1.36425649e-03, 4.09276970e-03, 2.38744891e-03, 3.75170540e-03,
          2.04638485e-03, 2.04638485e-03, 4.09276970e-03, 4.43383353e-03,
          4.09276970e-03, 3.06957704e-03, 0., 2.72851298e-03,
          3.75170540e-03, 1.02319242e-03, 5.79809025e-03, 3.41064110e-03,
          3.75170540e-03, 3.41064110e-03, 2.38744891e-03, 2.04638485e-03,
          2.04638485e-03, 2.04638485e-03, 3.06957704e-03, 1.70532055e-03,
          5.11596166e-03, 2.38744891e-03, 2.38744891e-03, 2.38744891e-03,
          2.38744891e-03, 2.38744891e-03, 5.11596166e-03, 1.70532055e-03,
          1.36425649e-03, 6.13915408e-03, 4.77489782e-03, 2.38744891e-03,
          3.06957704e-03, 2.72851298e-03, 4.09276970e-03, 5.45702595e-03,
          1.70532055e-03, 2.72851298e-03, 2.72851298e-03, 1.36425649e-03,
          1.36425649e-03, 5.45702595e-03, 4.43383353e-03, 3.41064110e-03,
          4.43383353e-03, 2.04638485e-03, 3.41064110e-03, 4.09276970e-03,
          4.43383353e-03, 6.13915408e-03, 2.72851298e-03, 4.43383353e-03,
          2.72851298e-03, 3.75170540e-03, 3.41064110e-03, 8.52660276e-03,
          2.72851298e-03, 2.72851298e-03, 5.45702595e-03, 1.70532055e-03,
          5.45702595e-03, 4.09276970e-03, 2.72851298e-03, 4.09276970e-03,
          2.38744891e-03, 2.38744891e-03, 4.43383353e-03, 6.13915408e-03,
          3.41064110e-03, 3.75170540e-03, 4.09276970e-03, 3.75170540e-03,
          3.06957704e-03, 3.75170540e-03, 2.04638485e-03, 4.09276970e-03,
          2.04638485e-03, 4.77489782e-03, 3.75170540e-03, 1.36425649e-03,
          2.72851298e-03, 8.18553939e-03, 3.06957704e-03, 3.75170540e-03,
          2.04638485e-03, 2.72851298e-03, 2.72851298e-03, 2.04638485e-03,
          4.77489782e-03, 4.43383353e-03, 2.04638485e-03, 4.09276970e-03,
          2.38744891e-03, 4.09276970e-03, 2.38744891e-03, 2.04638485e-03,
          5.11596166e-03, 5.11596166e-03, 3.41064110e-03, 4.77489782e-03,
          1.70532055e-03, 3.06957704e-03, 3.41064110e-03, 3.06957704e-03,
          5.79809025e-03, 4.77489782e-03, 2.04638485e-03, 3.06957704e-03,
          4.09276970e-03, 2.72851298e-03, 2.38744891e-03, 1.70532055e-03,
          6.48021838e-03, 1.70532055e-03, 3.41064110e-03, 5.79809025e-03,
          3.41064110e-03, 3.75170540e-03, 5.11596166e-03, 5.45702595e-03,
          2.38744891e-03, 3.06957704e-03, 2.04638485e-03, 3.75170540e-03,
          1.36425649e-03, 1.36425649e-03, 4.77489782e-03, 2.72851298e-03,
          3.06957704e-03, 8.18553939e-03, 2.72851298e-03, 2.72851298e-03,
          1.70532055e-03, 4.43383353e-03, 2.38744891e-03, 4.43383353e-03,
          5.11596166e-03, 2.38744891e-03, 1.36425649e-03, 2.04638485e-03,
          1.70532055e-03, 5.45702595e-03, 2.38744891e-03, 3.41064110e-03,
          3.75170540e-03, 4.77489782e-03, 3.41064110e-03, 2.04638485e-03,
          2.72851298e-03, 4.77489782e-03, 3.75170540e-03, 5.11596166e-03,
          1.36425649e-03, 6.82128221e-03, 7.50341080e-03, 3.75170540e-03,
          4.43383353e-03, 1.02319242e-03, 3.06957704e-03, 6.82128244e-04,
          1.70532055e-03, 2.38744891e-03, 2.72851298e-03, 4.09276970e-03,
          4.77489782e-03, 5.79809025e-03, 5.45702595e-03, 3.06957704e-03,
          2.38744891e-03, 4.09276970e-03, 1.02319242e-03, 5.11596166e-03,
          3.75170540e-03, 1.36425649e-03, 1.70532055e-03, 3.41064110e-03,
          2.38744891e-03, 1.36425649e-03, 3.41064110e-03, 2.72851298e-03,
          1.36425649e-03, 4.09276970e-03, 3.41064110e-03, 3.75170540e-03,
          1.36425649e-03, 3.75170540e-03, 1.70532055e-03, 6.48021838e-03,
          3.75170540e-03, 4.77489782e-03, 2.38744891e-03, 8.18553939e-03 ]
      - [ 3.70233273e-03, 2.96186609e-03, 3.70233273e-03, 6.66419882e-03,
          3.70233273e-03, 2.22139945e-03, 2.22139945e-03, 3.33209941e-03,
          3.70233261e-04, 4.81303222e-03, 7.03443214e-03, 5.18326554e-03,
          1.85116637e-03, 1.85116637e-03, 4.07256605e-03, 1.48093305e-03,
          4.81303222e-03, 4.44279891e-03, 4.44279891e-03, 4.81303222e-03,
          1.85116637e-03, 2.96186609e-03, 1.85116637e-03, 5.55349886e-03,
          2.22139945e-03, 2.59163277e-03, 2.22139945e-03, 3.33209941e-03,
          4.44279891e-03, 1.85116637e-03, 2.22139945e-03, 1.48093305e-03,
          4.44279891e-03, 2.96186609e-03, 4.07256605e-03, 4.81303222e-03,
          6.29396550e-03, 3.70233273e-03, 2.96186609e-03, 3.33209941e-03,
          2.96186609e-03, 3.70233273e-03, 3.33209941e-03, 2.22139945e-03,
          2.96186609e-03, 1.11069973e-03, 3.33209941e-03, 7.77489832e-03,
          3.33209941e-03, 2.96186609e-03, 3.70233273e-03, 1.48093305e-03,
          4.44279891e-03, 3.33209941e-03, 2.96186609e-03, 7.03443214e-03,
          2.59163277e-03, 4.07256605e-03, 2.96186609e-03, 1.85116637e-03,
          2.22139945e-03, 7.40466523e-04, 2.59163277e-03, 3.70233273e-03,
          1.48093305e-03, 1.48093305e-03, 7.40466523e-04, 5.55349886e-03,
          2.22139945e-03, 3.33209941e-03, 4.07256605e-03, 7.40466523e-04,
          2.59163277e-03, 2.59163277e-03, 2.59163277e-03, 5.18326554e-03,
          0., 2.96186609e-03, 4.07256605e-03, 1.85116637e-03,
          5.92373218e-03, 1.11069973e-03, 5.55349886e-03, 1.85116637e-03,
          1.85116637e-03, 5.18326554e-03, 4.07256605e-03, 1.85116637e-03,
          2.22139945e-03, 6.29396550e-03, 7.03443214e-03, 1.11069973e-03,
          2.96186609e-03, 4.07256605e-03, 2.96186609e-03, 1.85116637e-03,
          6.29396550e-03, 2.59163277e-03, 4.44279891e-03, 6.66419882e-03,
          1.85116637e-03, 2.96186609e-03, 1.85116637e-03, 3.33209941e-03,
          3.70233261e-04, 2.22139945e-03, 4.44279891e-03, 4.81303222e-03,
          2.96186609e-03, 3.33209941e-03, 2.96186609e-03, 4.07256605e-03,
          1.11069973e-03, 4.07256605e-03, 3.70233261e-04, 3.33209941e-03,
          2.22139945e-03, 7.40466523e-04, 7.03443214e-03, 3.70233273e-03,
          2.96186609e-03, 3.70233273e-03, 2.22139945e-03, 2.59163277e-03,
          1.11069973e-03, 4.07256605e-03, 4.44279891e-03, 1.85116637e-03,
          6.66419882e-03, 3.70233273e-03, 1.48093305e-03, 4.81303222e-03,
          1.85116637e-03, 4.44279891e-03, 3.70233273e-03, 4.44279891e-03,
          4.07256605e-03, 4.81303222e-03, 2.96186609e-03, 4.07256605e-03,
          2.96186609e-03, 2.59163277e-03, 1.48093305e-03, 5.55349886e-03,
          3.33209941e-03, 4.81303222e-03, 2.59163277e-03, 7.40466523e-04,
          2.22139945e-03, 3.33209941e-03, 4.44279891e-03, 2.59163277e-03,
          6.29396550e-03, 2.59163277e-03, 3.33209941e-03, 2.22139945e-03,
          3.33209941e-03, 4.44279891e-03, 2.96186609e-03, 5.18326554e-03,
          4.44279891e-03, 4.44279891e-03, 3.70233273e-03, 6.66419882e-03,
          7.40466523e-04, 1.85116637e-03, 6.66419882e-03, 2.96186609e-03,
          6.29396550e-03, 1.48093305e-03, 2.59163277e-03, 1.85116637e-03,
          2.59163277e-03, 1.11069973e-03, 4.44279891e-03, 3.70233273e-03,
          3.33209941e-03, 2.96186609e-03, 3.33209941e-03, 4.44279891e-03,
          2.22139945e-03, 1.48093305e-03, 1.48093305e-03, 7.40466546e-03,
          2.22139945e-03, 2.59163277e-03, 5.18326554e-03, 2.59163277e-03,
          4.07256605e-03, 7.03443214e-03, 4.07256605e-03, 2.22139945e-03,
          1.48093305e-03, 4.44279891e-03, 2.96186609e-03, 4.07256605e-03,
          5.55349886e-03, 3.33209941e-03, 4.81303222e-03, 5.55349886e-03,
          3.33209941e-03, 2.22139945e-03, 2.96186609e-03, 3.33209941e-03,
          4.81303222e-03, 4.07256605e-03, 2.59163277e-03, 5.92373218e-03,
          3.70233261e-04, 2.59163277e-03, 2.22139945e-03, 2.96186609e-03,
          8.14513210e-03, 5.18326554e-03, 3.70233273e-03, 2.59163277e-03,
          1.85116637e-03, 1.48093305e-03, 1.11069973e-03, 1.85116637e-03,
          2.22139945e-03, 2.22139945e-03, 4.07256605e-03, 4.44279891e-03,
          1.11069973e-03, 2.96186609e-03, 4.44279891e-03, 4.81303222e-03,
          1.11069973e-03, 2.59163277e-03, 2.96186609e-03, 3.33209941e-03,
          1.11069973e-03, 2.22139945e-03, 2.59163277e-03, 4.07256605e-03,
          7.40466546e-03, 5.92373218e-03, 2.22139945e-03, 4.07256605e-03,
          1.48093305e-03, 2.59163277e-03, 2.22139945e-03, 3.70233273e-03,
          3.33209941e-03, 2.96186609e-03, 1.85116637e-03, 2.96186609e-03,
          3.70233273e-03, 5.18326554e-03, 6.66419882e-03, 1.85116637e-03,
          2.96186609e-03, 5.18326554e-03, 2.96186609e-03, 1.48093305e-03,
          3.70233273e-03, 6.29396550e-03, 1.48093305e-03, 1.48093305e-03,
          1.85116637e-03, 7.03443214e-03, 4.44279891e-03, 6.66419882e-03,
          3.33209941e-03, 5.18326554e-03, 2.22139945e-03, 1.48093305e-03,
          3.33209941e-03, 4.44279891e-03, 2.96186609e-03, 3.33209941e-03,
          1.85116637e-03, 5.18326554e-03, 7.03443214e-03, 2.59163277e-03,
          2.59163277e-03, 3.33209941e-03, 3.33209941e-03, 3.33209941e-03,
          5.18326554e-03, 2.59163277e-03, 2.22139945e-03, 3.70233273e-03,
          2.59163277e-03, 2.96186609e-03, 1.85116637e-03, 2.22139945e-03,
          2.22139945e-03, 3.33209941e-03, 3.33209941e-03, 2.96186609e-03,
          1.85116637e-03, 2.22139945e-03, 1.48093305e-03, 4.81303222e-03,
          2.22139945e-03, 4.07256605e-03, 2.22139945e-03, 4.44279891e-03 ]
      - [ 5.78480540e-03, 2.69957585e-03, 4.24219063e-03, 6.17045909e-03,
          1.54261477e-03, 3.47088324e-03, 2.31392216e-03, 6.17045909e-03,
          7.71307386e-04, 5.39915171e-03, 7.71307386e-03, 3.85653693e-03,
          3.47088324e-03, 2.31392216e-03, 5.39915171e-03, 4.24219063e-03,
          3.85653693e-03, 2.31392216e-03, 2.69957585e-03, 2.31392216e-03,
          3.47088324e-03, 4.24219063e-03, 2.69957585e-03, 1.92826847e-03,
          3.47088324e-03, 5.78480540e-03, 1.92826847e-03, 3.85653693e-03,
          4.62784432e-03, 2.69957585e-03, 5.01349801e-03, 2.31392216e-03,
          5.39915171e-03, 1.54261477e-03, 3.08522955e-03, 4.62784432e-03,
          1.92826847e-03, 7.71307386e-03, 3.85653693e-03, 1.15696108e-03,
          2.31392216e-03, 1.54261477e-03, 1.54261477e-03, 1.54261477e-03,
          3.08522955e-03, 2.69957585e-03, 5.39915171e-03, 7.32742017e-03,
          3.47088324e-03, 2.69957585e-03, 1.15696108e-03, 3.85653693e-04,
          2.31392216e-03, 3.85653693e-04, 5.39915171e-03, 5.39915171e-03,
          2.69957585e-03, 1.92826847e-03, 3.08522955e-03, 2.31392216e-03,
          2.69957585e-03, 3.47088324e-03, 2.31392216e-03, 2.69957585e-03,
          2.69957585e-03, 1.54261477e-03, 1.92826847e-03, 2.69957585e-03,
          3.85653693e-04, 4.24219063e-03, 1.15696108e-03, 3.47088324e-03,
          7.71307386e-04, 4.62784432e-03, 1.92826847e-03, 3.85653693e-03,
          7.71307386e-04, 6.94176648e-03, 3.47088324e-03, 7.71307386e-04,
          5.01349801e-03, 3.85653693e-03, 5.78480540e-03, 1.15696108e-03,
          3.08522955e-03, 1.15696108e-03, 2.69957585e-03, 1.92826847e-03,
          1.92826847e-03, 3.47088324e-03, 4.24219063e-03, 1.54261477e-03,
          2.31392216e-03, 3.08522955e-03, 7.71307386e-04, 1.54261477e-03,
          9.25568864e-03, 4.24219063e-03, 1.92826847e-03, 6.55611278e-03,
          2.31392216e-03, 2.31392216e-03, 1.54261477e-03, 1.92826847e-03,
          1.54261477e-03, 4.24219063e-03, 1.54261477e-03, 3.08522955e-03,
          3.47088324e-03, 1.92826847e-03, 4.24219063e-03, 4.62784432e-03,
          3.47088324e-03, 2.31392216e-03, 0., 5.39915171e-03,
          3.47088324e-03, 7.71307386e-04, 5.01349801e-03, 1.92826847e-03,
          6.94176648e-03, 2.69957585e-03, 4.62784432e-03, 1.15696108e-03,
          3.85653693e-03, 8.48438125e-03, 2.69957585e-03, 1.54261477e-03,
          4.24219063e-03, 2.31392216e-03, 1.54261477e-03, 1.54261477e-03,
          3.08522955e-03, 1.92826847e-03, 4.62784432e-03, 3.85653693e-04,
          1.15696108e-03, 3.85653693e-03, 3.08522955e-03, 3.47088324e-03,
          2.69957585e-03, 3.08522955e-03, 3.47088324e-03, 3.85653693e-03,
          2.69957585e-03, 1.54261477e-03, 1.92826847e-03, 1.54261477e-03,
          3.85653693e-03, 5.39915171e-03, 5.01349801e-03, 3.08522955e-03,
          3.08522955e-03, 3.08522955e-03, 3.85653693e-03, 1.54261477e-03,
          5.01349801e-03, 5.01349801e-03, 2.31392216e-03, 3.08522955e-03,
          3.08522955e-03, 4.24219063e-03, 5.78480540e-03, 4.62784432e-03,
          1.92826847e-03, 1.54261477e-03, 3.47088324e-03, 1.15696108e-03,
          4.62784432e-03, 2.31392216e-03, 3.47088324e-03, 2.31392216e-03,
          1.92826847e-03, 3.47088324e-03, 2.69957585e-03, 5.78480540e-03,
          2.31392216e-03, 2.69957585e-03, 3.85653693e-03, 3.08522955e-03,
          1.15696108e-03, 1.15696108e-03, 1.54261477e-03, 7.32742017e-03,
          3.85653693e-03, 4.24219063e-03, 2.31392216e-03, 1.92826847e-03,
          4.62784432e-03, 8.48438125e-03, 3.08522955e-03, 1.54261477e-03,
          4.24219063e-03, 4.24219063e-03, 1.15696108e-03, 4.24219063e-03,
          1.04126502e-02, 6.17045909e-03, 4.62784432e-03, 1.92826847e-03,
          3.85653693e-03, 2.31392216e-03, 3.85653693e-03, 2.31392216e-03,
          5.01349801e-03, 1.92826847e-03, 7.71307386e-03, 5.78480540e-03,
          3.08522955e-03, 1.54261477e-03, 1.54261477e-03, 2.31392216e-03,
          5.78480540e-03, 4.24219063e-03, 2.31392216e-03, 2.69957585e-03,
          4.62784432e-03, 3.08522955e-03, 1.92826847e-03, 3.85653693e-03,
          3.08522955e-03, 2.69957585e-03, 2.69957585e-03, 5.01349801e-03,
          1.15696108e-03, 4.62784432e-03, 4.24219063e-03, 3.08522955e-03,
          2.31392216e-03, 4.62784432e-03, 1.92826847e-03, 5.01349801e-03,
          3.08522955e-03, 1.54261477e-03, 3.47088324e-03, 4.62784432e-03,
          4.24219063e-03, 7.71307386e-03, 2.69957585e-03, 2.31392216e-03,
          1.54261477e-03, 2.31392216e-03, 2.69957585e-03, 3.85653693e-03,
          4.24219063e-03, 2.31392216e-03, 2.31392216e-03, 3.47088324e-03,
          2.31392216e-03, 2.69957585e-03, 5.78480540e-03, 3.08522955e-03,
          3.47088324e-03, 4.62784432e-03, 3.85653693e-03, 3.08522955e-03,
          4.62784432e-03, 4.24219063e-03, 1.92826847e-03, 4.24219063e-03,
          1.15696108e-03, 8.87003541e-03, 6.55611278e-03, 4.24219063e-03,
          1.92826847e-03, 2.31392216e-03, 1.54261477e-03, 2.31392216e-03,
          3.08522955e-03, 1.27265714e-02, 2.31392216e-03, 3.47088324e-03,
          4.24219063e-03, 3.85653693e-03, 8.87003541e-03, 3.08522955e-03,
          7.32742017e-03, 3.08522955e-03, 1.92826847e-03, 2.31392216e-03,
          2.31392216e-03, 2.69957585e-03, 0., 5.01349801e-03,
          1.92826847e-03, 2.31392216e-03, 2.31392216e-03, 1.92826847e-03,
          2.31392216e-03, 7.71307386e-03, 2.31392216e-03, 2.31392216e-03,
          3.08522955e-03, 1.92826847e-03, 1.92826847e-03, 6.17045909e-03,
          3.08522955e-03, 2.31392216e-03, 1.54261477e-03, 5.78480540e-03 ]
      - [ 5.34283184e-03, 4.00712388e-03, 7.12377578e-03, 8.45948420e-03,
          3.11665190e-03, 4.00712388e-03, 2.22617993e-03, 1.78094395e-03,
          8.90471973e-04, 7.12377578e-03, 8.01424775e-03, 2.67141592e-03,
          3.56188789e-03, 4.45235986e-04, 2.22617993e-03, 2.67141592e-03,
          2.67141592e-03, 3.56188789e-03, 3.56188789e-03, 5.78806782e-03,
          2.67141592e-03, 1.78094395e-03, 1.78094395e-03, 6.23330381e-03,
          4.45235986e-04, 3.56188789e-03, 2.22617993e-03, 2.67141592e-03,
          2.67141592e-03, 4.45235986e-04, 4.00712388e-03, 2.22617993e-03,
          3.56188789e-03, 2.67141592e-03, 2.22617993e-03, 6.23330381e-03,
          5.78806782e-03, 7.56901177e-03, 8.90471973e-04, 1.78094395e-03,
          2.22617993e-03, 3.56188789e-03, 3.11665190e-03, 8.90471973e-04,
          3.56188789e-03, 1.33570796e-03, 5.34283184e-03, 7.56901177e-03,
          2.22617993e-03, 1.78094395e-03, 2.22617993e-03, 2.22617993e-03,
          2.67141592e-03, 1.78094395e-03, 6.23330381e-03, 1.02404281e-02,
          2.22617993e-03, 4.00712388e-03, 2.67141592e-03, 2.67141592e-03,
          1.78094395e-03, 8.90471973e-04, 2.67141592e-03, 4.89759585e-03,
          2.22617993e-03, 1.33570796e-03, 1.78094395e-03, 4.89759585e-03,
          2.22617993e-03, 5.78806782e-03, 2.67141592e-03, 2.67141592e-03,
          1.78094395e-03, 4.00712388e-03, 8.90471973e-04, 4.89759585e-03,
          0., 4.89759585e-03, 6.67853979e-03, 3.11665190e-03,
          4.00712388e-03, 4.00712388e-03, 9.79519170e-03, 4.45235986e-04,
          2.67141592e-03, 5.34283184e-03, 2.67141592e-03, 2.22617993e-03,
          4.45235986e-04, 3.56188789e-03, 6.23330381e-03, 1.78094395e-03,
          2.67141592e-03, 3.56188789e-03, 4.45235986e-04, 1.33570796e-03,
          1.06856637e-02, 1.33570796e-03, 8.90471973e-04, 1.02404281e-02,
          1.33570796e-03, 1.33570796e-03, 2.67141592e-03, 2.67141592e-03,
          4.45235986e-04, 3.56188789e-03, 4.45235986e-04, 2.22617993e-03,
          1.33570796e-03, 3.56188789e-03, 2.67141592e-03, 1.78094395e-03,
          2.22617993e-03, 3.56188789e-03, 8.90471973e-04, 5.78806782e-03,
          1.78094395e-03, 0., 5.78806782e-03, 3.56188789e-03,
          4.89759585e-03, 1.33570796e-03, 2.22617993e-03, 1.33570796e-03,
          1.33570796e-03, 7.56901177e-03, 1.78094395e-03, 2.67141592e-03,
          4.00712388e-03, 1.78094395e-03, 8.90471973e-04, 4.00712388e-03,
          2.67141592e-03, 3.56188789e-03, 5.78806782e-03, 8.90471973e-04,
          4.45235986e-04, 4.45235986e-03, 4.00712388e-03, 2.67141592e-03,
          4.45235986e-04, 2.67141592e-03, 4.00712388e-03, 4.45235986e-03,
          1.33570796e-03, 1.78094395e-03, 4.45235986e-03, 2.67141592e-03,
          1.78094395e-03, 1.78094395e-03, 5.78806782e-03, 1.78094395e-03,
          4.45235986e-03, 2.22617993e-03, 4.89759585e-03, 1.33570796e-03,
          3.56188789e-03, 4.89759585e-03, 3.11665190e-03, 4.89759585e-03,
          1.33570796e-03, 1.15761356e-02, 4.89759585e-03, 5.34283184e-03,
          1.78094395e-03, 1.33570796e-03, 8.45948420e-03, 2.67141592e-03,
          7.12377578e-03, 5.78806782e-03, 3.11665190e-03, 2.67141592e-03,
          8.90471973e-04, 5.34283184e-03, 2.22617993e-03, 3.11665190e-03,
          8.90471973e-04, 5.34283184e-03, 3.56188789e-03, 3.56188789e-03,
          2.22617993e-03, 1.33570796e-03, 2.22617993e-03, 6.23330381e-03,
          8.90471973e-04, 3.56188789e-03, 1.33570796e-03, 1.78094395e-03,
          3.11665190e-03, 6.67853979e-03, 6.23330381e-03, 1.78094395e-03,
          1.33570796e-03, 8.01424775e-03, 3.56188789e-03, 8.90471973e-04,
          3.56188789e-03, 8.45948420e-03, 3.11665190e-03, 3.11665190e-03,
          2.67141592e-03, 8.90471973e-04, 4.45235986e-04, 1.78094395e-03,
          7.12377578e-03, 8.01424775e-03, 6.23330381e-03, 7.56901177e-03,
          1.33570796e-03, 4.00712388e-03, 2.22617993e-03, 4.00712388e-03,
          6.23330381e-03, 4.00712388e-03, 0., 4.45235986e-04,
          3.56188789e-03, 1.33570796e-03, 8.90471973e-04, 1.33570796e-03,
          4.89759585e-03, 3.56188789e-03, 2.22617993e-03, 8.90471973e-03,
          3.11665190e-03, 2.67141592e-03, 1.02404281e-02, 4.00712388e-03,
          1.33570796e-03, 3.56188789e-03, 1.33570796e-03, 4.89759585e-03,
          0., 4.45235986e-04, 2.22617993e-03, 4.89759585e-03,
          4.00712388e-03, 5.34283184e-03, 2.67141592e-03, 2.22617993e-03,
          1.78094395e-03, 2.67141592e-03, 3.11665190e-03, 2.67141592e-03,
          4.00712388e-03, 2.22617993e-03, 8.90471973e-04, 1.78094395e-03,
          0., 5.34283184e-03, 4.45235986e-03, 2.22617993e-03,
          1.78094395e-03, 4.89759585e-03, 5.78806782e-03, 1.33570796e-03,
          2.67141592e-03, 1.33570796e-03, 2.22617993e-03, 4.00712388e-03,
          0., 6.67853979e-03, 9.34995525e-03, 2.67141592e-03,
          1.78094395e-03, 1.78094395e-03, 2.22617993e-03, 3.11665190e-03,
          4.45235986e-04, 8.90471973e-03, 1.33570796e-03, 4.89759585e-03,
          5.78806782e-03, 4.89759585e-03, 9.34995525e-03, 1.78094395e-03,
          1.02404281e-02, 4.00712388e-03, 1.33570796e-03, 5.34283184e-03,
          3.56188789e-03, 1.33570796e-03, 0., 4.00712388e-03,
          1.78094395e-03, 8.90471973e-04, 3.56188789e-03, 0.,
          2.67141592e-03, 7.12377578e-03, 4.00712388e-03, 3.56188789e-03,
          1.78094395e-03, 4.45235986e-03, 1.33570796e-03, 6.67853979e-03,
          2.22617993e-03, 3.56188789e-03, 4.45235986e-04, 6.67853979e-03 ]
      - [ 9.61538521e-04, 2.24358984e-03, 3.84615408e-03, 3.20512825e-03,
          1.28205132e-03, 3.52564105e-03, 1.92307704e-03, 5.76923089e-03,
          2.24358984e-03, 2.56410264e-03, 8.33333377e-03, 2.24358984e-03,
          1.92307704e-03, 6.41025661e-04, 4.16666688e-03, 5.44871809e-03,
          2.24358984e-03, 1.60256412e-03, 1.28205132e-03, 3.52564105e-03,
          1.28205132e-03, 3.20512825e-03, 3.84615408e-03, 2.56410264e-03,
          4.48717969e-03, 1.60256412e-03, 4.16666688e-03, 3.84615408e-03,
          5.12820529e-03, 9.61538521e-04, 3.20512825e-03, 1.92307704e-03,
          3.52564105e-03, 1.92307704e-03, 1.92307704e-03, 3.20512825e-03,
          1.60256412e-03, 1.08974362e-02, 4.16666688e-03, 2.24358984e-03,
          6.41025661e-04, 3.84615408e-03, 4.80769249e-03, 9.61538521e-04,
          3.20512825e-03, 5.12820529e-03, 2.24358984e-03, 1.92307704e-03,
          1.60256412e-03, 4.16666688e-03, 2.24358984e-03, 2.24358984e-03,
          6.08974369e-03, 1.60256412e-03, 5.76923089e-03, 6.08974369e-03,
          2.88461545e-03, 2.56410264e-03, 2.88461545e-03, 6.41025661e-04,
          2.24358984e-03, 1.60256412e-03, 2.56410264e-03, 2.56410264e-03,
          1.28205132e-03, 4.80769249e-03, 7.05128210e-03, 5.76923089e-03,
          3.20512825e-03, 3.84615408e-03, 1.28205132e-03, 3.20512825e-03,
          1.92307704e-03, 3.20512825e-03, 6.41025661e-04, 5.44871809e-03,
          6.41025661e-04, 3.20512825e-03, 2.88461545e-03, 6.08974369e-03,
          4.16666688e-03, 2.56410264e-03, 7.37179490e-03, 2.56410264e-03,
          2.56410264e-03, 2.88461545e-03, 1.60256412e-03, 1.60256412e-03,
          3.20512825e-03, 2.24358984e-03, 3.84615408e-03, 2.56410264e-03,
          9.61538521e-04, 5.12820529e-03, 1.92307704e-03, 3.20512825e-03,
          8.01282097e-03, 3.84615408e-03, 9.61538521e-04, 6.08974369e-03,
          1.92307704e-03, 3.20512825e-03, 1.28205132e-03, 1.92307704e-03,
          1.60256412e-03, 2.88461545e-03, 2.24358984e-03, 3.52564105e-03,
          1.28205132e-03, 5.44871809e-03, 2.88461545e-03, 2.56410264e-03,
          6.41025661e-04, 3.52564105e-03, 1.60256412e-03, 1.92307704e-03,
          4.48717969e-03, 9.61538521e-04, 4.80769249e-03, 4.80769249e-03,
          4.16666688e-03, 4.48717969e-03, 1.28205132e-03, 1.28205132e-03,
          4.48717969e-03, 2.24358984e-03, 3.84615408e-03, 9.61538521e-04,
          4.16666688e-03, 3.84615408e-03, 3.20512825e-03, 4.16666688e-03,
          2.88461545e-03, 9.61538521e-04, 2.24358984e-03, 6.41025661e-04,
          2.88461545e-03, 5.12820529e-03, 4.16666688e-03, 5.12820529e-03,
          2.56410264e-03, 2.88461545e-03, 4.80769249e-03, 2.24358984e-03,
          1.60256412e-03, 1.60256412e-03, 2.56410264e-03, 6.41025661e-04,
          2.24358984e-03, 4.48717969e-03, 2.88461545e-03, 2.56410264e-03,
          3.84615408e-03, 1.28205132e-03, 6.41025649e-03, 3.52564105e-03,
          5.44871809e-03, 4.80769249e-03, 2.24358984e-03, 2.24358984e-03,
          4.16666688e-03, 5.44871809e-03, 5.44871809e-03, 8.33333377e-03,
          9.61538521e-04, 1.28205132e-03, 8.97435937e-03, 1.92307704e-03,
          8.33333377e-03, 3.84615408e-03, 2.24358984e-03, 4.16666688e-03,
          3.84615408e-03, 2.56410264e-03, 6.73076930e-03, 6.73076930e-03,
          3.52564105e-03, 2.24358984e-03, 3.20512825e-03, 2.56410264e-03,
          2.56410264e-03, 3.52564105e-03, 3.52564105e-03, 4.16666688e-03,
          1.92307704e-03, 3.84615408e-03, 1.60256412e-03, 9.61538521e-04,
          3.52564105e-03, 6.08974369e-03, 1.60256412e-03, 4.48717969e-03,
          3.52564105e-03, 6.08974369e-03, 3.84615408e-03, 1.92307704e-03,
          6.41025661e-04, 5.12820529e-03, 8.65384657e-03, 2.24358984e-03,
          2.88461545e-03, 1.60256412e-03, 1.60256412e-03, 3.20512825e-03,
          7.37179490e-03, 3.84615408e-03, 4.48717969e-03, 5.12820529e-03,
          6.41025661e-04, 4.16666688e-03, 1.92307704e-03, 3.84615408e-03,
          6.41025649e-03, 1.60256412e-03, 3.52564105e-03, 3.52564105e-03,
          2.56410264e-03, 1.92307704e-03, 3.52564105e-03, 3.20512825e-03,
          2.88461545e-03, 3.52564105e-03, 1.92307704e-03, 9.29487217e-03,
          3.52564105e-03, 5.12820529e-03, 6.73076930e-03, 5.44871809e-03,
          4.48717969e-03, 5.44871809e-03, 1.92307704e-03, 3.52564105e-03,
          6.41025661e-04, 2.24358984e-03, 4.16666688e-03, 2.56410264e-03,
          4.80769249e-03, 2.24358984e-03, 1.60256412e-03, 2.88461545e-03,
          1.28205132e-03, 4.80769249e-03, 3.52564105e-03, 3.52564105e-03,
          3.52564105e-03, 2.24358984e-03, 1.28205132e-03, 2.56410264e-03,
          1.60256412e-03, 3.84615408e-03, 1.92307704e-03, 3.84615408e-03,
          2.56410264e-03, 8.65384657e-03, 3.84615408e-03, 2.56410264e-03,
          6.08974369e-03, 2.24358984e-03, 1.60256412e-03, 6.08974369e-03,
          2.56410264e-03, 6.73076930e-03, 7.69230817e-03, 3.20512825e-03,
          2.88461545e-03, 2.56410264e-03, 2.88461545e-03, 1.60256412e-03,
          1.92307704e-03, 6.41025661e-04, 2.24358984e-03, 4.48717969e-03,
          4.80769249e-03, 1.92307704e-03, 4.80769249e-03, 2.56410264e-03,
          7.69230817e-03, 5.12820529e-03, 2.88461545e-03, 1.92307704e-03,
          1.92307704e-03, 9.61538521e-04, 1.28205132e-03, 7.05128210e-03,
          3.52564105e-03, 2.56410264e-03, 1.92307704e-03, 1.60256412e-03,
          1.92307704e-03, 4.80769249e-03, 7.37179490e-03, 5.12820529e-03,
          1.28205132e-03, 1.92307704e-03, 6.41025661e-04, 7.37179490e-03,
          4.48717969e-03, 6.08974369e-03, 1.92307704e-03, 5.44871809e-03 ]
      - [ 3.71370697e-03, 2.70087784e-03, 3.03848763e-03, 3.71370697e-03,
          1.01282913e-03, 3.03848763e-03, 2.36326805e-03, 2.36326805e-03,
          2.02565826e-03, 4.72653611e-03, 6.41458482e-03, 3.37609742e-03,
          5.40175568e-03, 1.01282913e-03, 5.73936524e-03, 4.72653611e-03,
          2.36326805e-03, 2.36326805e-03, 2.70087784e-03, 3.37609742e-03,
          2.36326805e-03, 2.70087784e-03, 3.37609742e-03, 1.68804871e-03,
          2.70087784e-03, 3.37609742e-03, 4.05131653e-03, 4.05131653e-03,
          2.70087784e-03, 4.72653611e-03, 5.73936524e-03, 5.40175568e-03,
          5.06414613e-03, 6.75219460e-04, 3.37609742e-03, 6.75219484e-03,
          1.35043892e-03, 7.08980439e-03, 4.38892655e-03, 2.02565826e-03,
          2.02565826e-03, 3.03848763e-03, 3.03848763e-03, 1.68804871e-03,
          5.06414613e-03, 4.38892655e-03, 5.40175568e-03, 2.02565826e-03,
          4.05131653e-03, 2.36326805e-03, 3.37609742e-03, 2.02565826e-03,
          4.05131653e-03, 3.03848763e-03, 2.36326805e-03, 5.06414613e-03,
          2.02565826e-03, 3.03848763e-03, 3.71370697e-03, 1.35043892e-03,
          5.73936524e-03, 4.38892655e-03, 2.02565826e-03, 5.06414613e-03,
          4.38892655e-03, 3.03848763e-03, 5.06414613e-03, 2.70087784e-03,
          1.68804871e-03, 3.37609742e-03, 2.70087784e-03, 2.70087784e-03,
          6.75219460e-04, 6.75219460e-04, 3.71370697e-03, 1.35043892e-03,
          1.35043892e-03, 3.71370697e-03, 6.75219460e-04, 4.05131653e-03,
          5.06414613e-03, 3.03848763e-03, 6.41458482e-03, 5.06414613e-03,
          3.71370697e-03, 2.36326805e-03, 1.35043892e-03, 4.05131653e-03,
          4.72653611e-03, 1.68804871e-03, 2.02565826e-03, 3.03848763e-03,
          3.37609742e-03, 3.03848763e-03, 3.37609742e-03, 3.37609742e-03,
          3.71370697e-03, 4.05131653e-03, 1.68804871e-03, 7.42741395e-03,
          1.01282913e-03, 2.02565826e-03, 2.70087784e-03, 6.75219460e-04,
          1.35043892e-03, 2.70087784e-03, 1.35043892e-03, 1.35043892e-03,
          2.70087784e-03, 6.41458482e-03, 6.07697526e-03, 3.71370697e-03,
          6.07697526e-03, 1.01282913e-03, 2.02565826e-03, 4.05131653e-03,
          3.03848763e-03, 6.75219460e-04, 4.05131653e-03, 1.35043892e-03,
          3.03848763e-03, 3.71370697e-03, 3.37609742e-03, 3.03848763e-03,
          2.36326805e-03, 4.72653611e-03, 1.35043892e-03, 2.02565826e-03,
          4.05131653e-03, 5.06414613e-03, 2.02565826e-03, 2.70087784e-03,
          3.37609742e-03, 3.03848763e-03, 2.70087784e-03, 1.68804871e-03,
          5.73936524e-03, 3.71370697e-03, 5.73936524e-03, 5.73936524e-03,
          3.37609742e-03, 4.38892655e-03, 2.70087784e-03, 2.36326805e-03,
          2.02565826e-03, 3.03848763e-03, 2.70087784e-03, 2.70087784e-03,
          7.08980439e-03, 2.70087784e-03, 2.36326805e-03, 1.01282913e-03,
          2.36326805e-03, 3.37609730e-04, 5.06414613e-03, 2.02565826e-03,
          2.70087784e-03, 4.05131653e-03, 0., 5.73936524e-03,
          5.40175568e-03, 5.06414613e-03, 1.68804871e-03, 4.05131653e-03,
          2.70087784e-03, 2.36326805e-03, 7.42741395e-03, 2.70087784e-03,
          7.42741395e-03, 2.02565826e-03, 3.37609742e-03, 1.35043892e-03,
          3.37609742e-03, 2.36326805e-03, 6.07697526e-03, 4.05131653e-03,
          3.71370697e-03, 1.68804871e-03, 3.03848763e-03, 4.38892655e-03,
          1.35043892e-03, 3.37609742e-03, 2.36326805e-03, 6.75219484e-03,
          4.05131653e-03, 4.05131653e-03, 1.35043892e-03, 2.36326805e-03,
          4.38892655e-03, 5.73936524e-03, 3.37609742e-03, 1.01282913e-03,
          3.37609742e-03, 5.40175568e-03, 4.05131653e-03, 4.38892655e-03,
          3.37609742e-03, 4.38892655e-03, 3.71370697e-03, 2.70087784e-03,
          2.70087784e-03, 6.75219460e-04, 1.68804871e-03, 1.35043892e-03,
          3.71370697e-03, 3.03848763e-03, 6.75219484e-03, 3.37609742e-03,
          2.36326805e-03, 3.03848763e-03, 2.36326805e-03, 3.71370697e-03,
          4.72653611e-03, 2.70087784e-03, 3.37609742e-03, 3.37609742e-03,
          4.38892655e-03, 1.68804871e-03, 2.70087784e-03, 2.70087784e-03,
          2.02565826e-03, 2.02565826e-03, 4.72653611e-03, 1.24915596e-02,
          3.37609730e-04, 4.72653611e-03, 6.07697526e-03, 4.38892655e-03,
          6.41458482e-03, 3.71370697e-03, 2.36326805e-03, 7.42741395e-03,
          1.35043892e-03, 1.68804871e-03, 2.70087784e-03, 2.70087784e-03,
          4.72653611e-03, 3.37609742e-03, 1.35043892e-03, 2.02565826e-03,
          1.01282913e-03, 6.07697526e-03, 3.71370697e-03, 2.70087784e-03,
          4.72653611e-03, 2.36326805e-03, 1.01282913e-03, 4.38892655e-03,
          2.36326805e-03, 1.01282913e-03, 2.36326805e-03, 1.35043892e-03,
          6.75219460e-04, 7.76502397e-03, 1.35043892e-03, 4.38892655e-03,
          3.03848763e-03, 3.03848763e-03, 2.36326805e-03, 3.37609742e-03,
          3.37609742e-03, 4.38892655e-03, 8.77785310e-03, 3.03848763e-03,
          4.72653611e-03, 1.68804871e-03, 2.36326805e-03, 1.01282913e-03,
          3.37609742e-03, 4.72653611e-03, 1.68804871e-03, 5.73936524e-03,
          2.70087784e-03, 2.02565826e-03, 5.40175568e-03, 2.36326805e-03,
          8.77785310e-03, 3.37609742e-03, 6.75219460e-04, 1.01282913e-03,
          6.75219460e-04, 1.01282913e-03, 1.01282913e-03, 6.75219484e-03,
          2.70087784e-03, 4.38892655e-03, 3.03848763e-03, 1.01282913e-03,
          2.02565826e-03, 3.71370697e-03, 1.01282923e-02, 3.37609742e-03,
          5.73936524e-03, 2.36326805e-03, 2.02565826e-03, 2.02565826e-03,
          4.05131653e-03, 5.73936524e-03, 2.36326805e-03, 5.73936524e-03 ]
      - [ 2.99017504e-03, 2.56300718e-03, 5.55318221e-03, 3.84451076e-03,
          2.13583931e-03, 2.99017504e-03, 4.27167863e-04, 2.56300718e-03,
          4.27167863e-04, 4.69884649e-03, 7.68902153e-03, 1.70867145e-03,
          2.13583931e-03, 2.99017504e-03, 3.41734290e-03, 1.70867145e-03,
          1.70867145e-03, 2.99017504e-03, 2.99017504e-03, 2.56300718e-03,
          8.54335725e-04, 1.28150359e-03, 2.56300718e-03, 1.28150359e-03,
          2.99017504e-03, 2.56300718e-03, 3.41734290e-03, 4.69884649e-03,
          4.27167863e-03, 1.70867145e-03, 2.13583931e-03, 1.70867145e-03,
          5.55318221e-03, 1.28150359e-03, 1.70867145e-03, 4.69884649e-03,
          5.12601435e-03, 1.06791966e-02, 2.99017504e-03, 4.27167863e-04,
          2.56300718e-03, 2.56300718e-03, 3.41734290e-03, 2.13583931e-03,
          4.27167863e-03, 1.28150359e-03, 5.12601435e-03, 7.26185367e-03,
          2.99017504e-03, 4.69884649e-03, 2.99017504e-03, 1.70867145e-03,
          5.55318221e-03, 3.41734290e-03, 4.69884649e-03, 7.26185367e-03,
          5.55318221e-03, 2.99017504e-03, 1.70867145e-03, 1.70867145e-03,
          3.41734290e-03, 4.27167863e-04, 3.41734290e-03, 3.41734290e-03,
          1.70867145e-03, 1.70867145e-03, 5.12601435e-03, 3.41734290e-03,
          2.56300718e-03, 2.13583931e-03, 1.28150359e-03, 1.70867145e-03,
          1.70867145e-03, 3.41734290e-03, 2.56300718e-03, 4.69884649e-03,
          8.54335725e-04, 5.55318221e-03, 4.69884649e-03, 2.99017504e-03,
          2.99017504e-03, 2.56300718e-03, 1.19607002e-02, 8.54335725e-04,
          3.84451076e-03, 3.84451076e-03, 2.56300718e-03, 1.70867145e-03,
          1.28150359e-03, 3.41734290e-03, 7.26185367e-03, 1.28150359e-03,
          1.28150359e-03, 5.12601435e-03, 1.28150359e-03, 1.70867145e-03,
          9.39769298e-03, 8.54335725e-04, 8.54335725e-04, 1.23878680e-02,
          2.99017504e-03, 1.70867145e-03, 1.28150359e-03, 1.28150359e-03,
          8.54335725e-04, 8.54335725e-04, 1.70867145e-03, 4.69884649e-03,
          8.54335725e-04, 3.41734290e-03, 4.27167863e-04, 2.13583931e-03,
          8.54335725e-04, 5.98035008e-03, 8.54335725e-04, 3.84451076e-03,
          2.99017504e-03, 4.27167863e-04, 8.54335725e-03, 1.28150359e-03,
          2.56300718e-03, 2.13583931e-03, 2.99017504e-03, 1.28150359e-03,
          1.28150359e-03, 3.84451076e-03, 1.28150359e-03, 1.70867145e-03,
          4.69884649e-03, 4.27167863e-03, 3.41734290e-03, 1.70867145e-03,
          3.41734290e-03, 2.99017504e-03, 8.54335725e-03, 1.28150359e-03,
          2.13583931e-03, 5.55318221e-03, 5.12601435e-03, 1.70867145e-03,
          4.69884649e-03, 4.69884649e-03, 1.28150359e-03, 4.69884649e-03,
          4.27167863e-04, 2.56300718e-03, 3.84451076e-03, 2.13583931e-03,
          2.99017504e-03, 2.13583931e-03, 2.99017504e-03, 8.54335725e-04,
          2.99017504e-03, 2.99017504e-03, 6.40751794e-03, 1.70867145e-03,
          3.84451076e-03, 3.41734290e-03, 1.70867145e-03, 2.56300718e-03,
          4.27167863e-03, 4.27167863e-03, 3.84451076e-03, 7.26185367e-03,
          4.27167863e-04, 1.70867145e-03, 6.40751794e-03, 8.54335725e-04,
          7.26185367e-03, 3.84451076e-03, 1.28150359e-03, 1.28150359e-03,
          8.54335725e-04, 2.99017504e-03, 2.99017504e-03, 6.83468580e-03,
          4.27167863e-03, 1.28150359e-03, 5.12601435e-03, 2.99017504e-03,
          3.84451076e-03, 1.70867145e-03, 5.55318221e-03, 6.40751794e-03,
          2.56300718e-03, 3.84451076e-03, 1.70867145e-03, 2.13583931e-03,
          3.84451076e-03, 7.68902153e-03, 7.26185367e-03, 2.99017504e-03,
          2.99017504e-03, 8.54335725e-03, 2.99017504e-03, 4.27167863e-04,
          2.99017504e-03, 4.69884649e-03, 2.99017504e-03, 3.84451076e-03,
          5.98035008e-03, 2.56300718e-03, 1.28150359e-03, 5.55318221e-03,
          4.27167863e-03, 3.41734290e-03, 1.02520287e-02, 3.41734290e-03,
          1.28150359e-03, 3.84451076e-03, 1.70867145e-03, 5.55318221e-03,
          1.11063644e-02, 3.41734290e-03, 3.41734290e-03, 8.54335725e-04,
          2.13583931e-03, 1.28150359e-03, 2.13583931e-03, 2.99017504e-03,
          6.83468580e-03, 4.69884649e-03, 3.84451076e-03, 9.39769298e-03,
          3.84451076e-03, 4.27167863e-03, 5.55318221e-03, 2.13583931e-03,
          2.13583931e-03, 5.55318221e-03, 2.99017504e-03, 4.27167863e-03,
          8.54335725e-04, 1.28150359e-03, 2.56300718e-03, 6.83468580e-03,
          5.98035008e-03, 4.69884649e-03, 3.41734290e-03, 2.56300718e-03,
          1.28150359e-03, 2.56300718e-03, 3.41734290e-03, 4.27167863e-03,
          9.82486084e-03, 4.27167863e-04, 2.13583931e-03, 8.54335725e-04,
          2.99017504e-03, 3.41734290e-03, 3.41734290e-03, 4.27167863e-03,
          2.13583931e-03, 3.41734290e-03, 6.83468580e-03, 1.28150359e-03,
          4.27167863e-03, 3.41734290e-03, 1.28150359e-03, 2.99017504e-03,
          4.27167863e-04, 5.98035008e-03, 9.82486084e-03, 4.27167863e-03,
          2.99017504e-03, 2.13583931e-03, 1.28150359e-03, 8.54335725e-04,
          1.70867145e-03, 5.55318221e-03, 3.84451076e-03, 3.41734290e-03,
          3.41734290e-03, 4.69884649e-03, 7.26185367e-03, 1.28150359e-03,
