%YAML:1.0
---
opencv_ml_svm:
   format: 3
   svmType: C_SVC
   kernel:
      type: LINEAR
   C: 3.1250000000000000e+02
   term_criteria: { epsilon:9.9999999999999995e-07, iterations:1000 }
   var_count: 200
   class_count: 2
   class_labels: !!opencv-matrix
      rows: 2
      cols: 1
      dt: i
      data: [ -1, 1 ]
   sv_total: 1
   support_vectors:
      - [ -9.63430691e+00, -3.02729821e+00, 4.06896591e+00,
          9.03235149e+00, 1.38378887e+01, 1.72836323e+01,
          -2.33655415e+01, 4.78487778e+00, -1.34985952e+01,
          -1.57943621e+01, 1.28230381e+01, -1.60318203e+01,
          7.88792086e+00, 1.73447189e+01, 7.42389584e+00, 2.72633820e+01,
          1.68917828e+01, 1.97053947e+01, 2.80246544e+01,
          -1.59090586e+01, 1.23243599e+01, -5.98245573e+00,
          1.41773615e+01, -5.44520283e+00, 4.58742762e+00,
          -2.16244414e-01, -2.30634556e+01, 1.67336102e+01,
          -1.25659323e+01, 6.56516123e+00, -1.24920683e+01,
          1.78761292e+01, -7.20921040e+00, -1.51747122e+01,
          9.38574123e+00, -1.21121550e+01, 5.14034195e+01,
          -8.16223049e+00, -5.30543661e+00, -2.89166679e+01,
          3.15010619e+00, -1.87884569e+00, 9.44933128e+00,
          -9.15969658e+00, -2.93184710e+00, -1.81881561e+01,
          3.11236382e+01, -1.73797684e+01, -2.04636078e+01,
          6.80457163e+00, 8.07456589e+00, -1.38850851e+01,
          -1.79788475e+01, -1.22353954e+01, -2.40033150e+01,
          -2.77018166e+01, 1.76335335e+01, -7.08619213e+00,
          -1.43544703e+01, 2.39945579e+00, 1.19425097e+01,
          -4.49655800e+01, 3.79918480e+00, 2.19586563e+01,
          1.65355549e+01, -1.21873856e+01, -1.35040255e+01,
          -2.34962692e+01, -3.50618792e+00, 3.15595841e+00,
          2.35777454e+01, 1.26303988e+01, -1.54596510e+01,
          9.76390171e+00, 1.20153170e+01, -1.67677746e+01,
          -4.31402206e+00, -2.02769899e+00, 1.96213360e+01,
          -1.73520851e+01, 4.32013588e+01, 1.22409725e+01,
          -2.51659927e+01, -1.40463552e+01, -7.14963913e+00,
          7.43514252e+00, 1.48699636e+01, 3.17862167e+01, 6.51697397e+00,
          1.01581717e+01, -1.12693043e+01, -2.79409814e+00,
          -1.72147713e+01, 4.00319934e-01, -3.99853210e+01,
          5.62908590e-01, -9.96639061e+00, -3.03474045e+01,
          1.30795708e+01, -1.64743710e+01, 7.73371315e+00,
          -8.51052761e+00, 5.06171274e+00, 2.38337231e+00,
          1.81482792e+01, 1.72925508e+00, -3.15287628e+01,
          1.15388594e+01, 2.38291359e+00, -3.01022358e+01,
          -1.96068501e+00, -3.06300201e+01, -9.10600007e-01,
          -3.45835152e+01, -1.07647104e+01, -6.89142513e+00,
          6.65482235e+00, 2.70743299e+00, 9.99406052e+00,
          -1.25680046e+01, -8.93944168e+00, -2.49374466e+01,
          1.44774971e+01, 2.23124313e+01, -6.35717154e+00,
          2.96895065e+01, 1.36324835e+01, -1.16060448e+01,
          3.31503334e+01, -1.12693577e+01, 7.25036001e+00,
          -2.36272907e+01, 5.93619490e+00, -3.55967134e-01,
          9.74982834e+00, -1.61282730e+01, -1.37530203e+01,
          -4.44525862e+00, 8.90204620e+00, 1.33213167e+01,
          1.17253256e+01, 1.07943277e+01, 3.04260979e+01,
          -5.94363451e+00, -5.27454281e+00, -2.51631203e+01,
          -6.46296740e+00, -1.42844305e+01, 2.07014103e+01,
          1.74327793e+01, 1.28713636e+01, -2.64664326e+01,
          -5.45517683e+00, 8.00096750e-01, 5.71427488e+00,
          -1.05104780e+00, 1.61108685e+01, -2.41771841e+00,
          1.43035765e+01, 1.85285892e+01, 1.59155741e+01,
          -2.32057629e+01, -4.05048943e+00, -3.82379265e+01,
          3.97405052e+01, 1.99314823e+01, -4.42448902e+00,
          8.14378643e+00, 1.87386723e+01, 1.10687265e+01, 1.03438606e+01,
          3.20440178e+01, -1.82925014e+01, -6.17053986e+00,
          -1.65398941e+01, 3.15997620e+01, -1.88282719e+01,
          -2.54356251e+01, 1.23609746e+00, 1.31985798e+01,
          3.85863152e+01, 2.97487450e+00, -1.60332584e+01,
          -4.74637842e+00, 4.67284775e+01, 1.22463760e+01,
          -1.76578312e+01, 7.29967833e+00, -2.18526096e+01,
          -7.77798414e+00, 3.91600680e+00, -1.81863327e+01,
          -1.25380349e+00, -6.25284719e+00, -2.79134774e+00,
          4.14135323e+01, 1.36657250e+00, -1.98917141e+01,
          5.74301195e+00, -1.85476894e+01 ]
   uncompressed_sv_total: 638
   uncompressed_support_vectors:
      - [ 1.65243738e-03, 7.16056209e-03, 4.68190573e-03, 4.13109362e-03,
          1.65243738e-03, 5.78353088e-03, 1.10162492e-03, 3.58028105e-03,
          1.12916557e-02, 3.30487476e-03, 7.71137420e-03, 3.30487476e-03,
          6.60974951e-03, 3.58028105e-03, 7.43596815e-03, 2.75406241e-03,
          3.58028105e-03, 5.50812460e-04, 8.26218689e-04, 6.05893694e-03,
          1.10162492e-03, 6.05893694e-03, 7.98678026e-03, 3.85568710e-03,
          5.78353088e-03, 6.05893694e-03, 1.07408427e-02, 7.71137420e-03,
          6.33434346e-03, 4.40649968e-03, 1.26686869e-02, 1.70751866e-02,
          5.23271831e-03, 1.37703121e-03, 4.40649968e-03, 4.95731225e-03,
          2.47865613e-03, 1.34949051e-02, 7.98678026e-03, 8.53759330e-03,
          3.30487476e-03, 4.40649968e-03, 7.16056209e-03, 2.20324984e-03,
          5.23271831e-03, 1.04654366e-02, 8.81299935e-03, 2.20324984e-03,
          4.40649968e-03, 4.40649968e-03, 1.10162492e-03, 3.02946847e-03,
          7.71137420e-03, 5.23271831e-03, 2.20324984e-03, 4.68190573e-03,
          4.40649968e-03, 2.75406241e-03, 5.50812483e-03, 2.20324984e-03,
          5.23271831e-03, 6.88515557e-03, 2.20324984e-03, 2.75406241e-03,
          2.75406241e-03, 9.36381146e-03, 6.05893694e-03, 1.29440930e-02,
          3.30487476e-03, 1.43211242e-02, 4.95731225e-03, 6.88515557e-03,
          9.08840541e-03, 1.37703121e-03, 6.33434346e-03, 6.05893694e-03,
          8.26218724e-03, 3.30487476e-03, 4.13109362e-03, 4.13109362e-03,
          3.85568710e-03, 5.50812460e-04, 7.43596815e-03, 7.98678026e-03,
          4.40649968e-03, 5.78353088e-03, 5.23271831e-03, 4.95731225e-03,
          1.62489675e-02, 1.92784355e-03, 3.02946847e-03, 2.47865613e-03,
          2.20324984e-03, 8.53759330e-03, 6.60974951e-03, 2.75406241e-03,
          6.88515557e-03, 6.05893694e-03, 1.10162492e-03, 9.36381146e-03,
          1.65243738e-03, 2.75406241e-03, 1.92784355e-03, 4.95731225e-03,
          1.34949051e-02, 7.43596815e-03, 2.20324984e-03, 3.58028105e-03,
          2.47865613e-03, 6.05893694e-03, 1.04654366e-02, 1.92784355e-03,
          5.50812460e-04, 4.95731225e-03, 7.71137420e-03, 1.65243738e-03,
          7.43596815e-03, 1.37703121e-03, 6.33434346e-03, 3.02946847e-03,
          4.95731225e-03, 7.71137420e-03, 6.33434346e-03, 3.85568710e-03,
          5.23271831e-03, 7.43596815e-03, 3.30487476e-03, 1.65243738e-03,
          7.71137420e-03, 2.75406241e-03, 6.60974951e-03, 3.02946847e-03,
          5.23271831e-03, 4.68190573e-03, 5.50812483e-03, 1.92784355e-03,
          5.78353088e-03, 7.43596815e-03, 5.78353088e-03, 1.48719363e-02,
          2.20324984e-03, 3.85568710e-03, 6.05893694e-03, 2.75406241e-03,
          5.78353088e-03, 3.30487476e-03, 5.78353088e-03, 1.92784355e-03,
          6.60974951e-03, 3.58028105e-03, 8.26218689e-04, 1.65243738e-03,
          3.58028105e-03, 1.10162492e-03, 7.71137420e-03, 3.02946847e-03,
          3.02946847e-03, 4.40649968e-03, 1.92784355e-03, 2.47865613e-03,
          3.85568710e-03, 3.58028105e-03, 3.30487476e-03, 8.26218724e-03,
          1.65243738e-03, 4.40649968e-03, 7.16056209e-03, 4.13109362e-03,
          1.29440930e-02, 3.58028105e-03, 4.13109362e-03, 4.95731225e-03,
          3.30487476e-03, 3.85568710e-03, 1.37703111e-02, 5.50812483e-03,
          5.23271831e-03, 1.10162492e-03, 2.75406241e-03, 1.10162492e-03,
          4.13109362e-03, 4.13109362e-03, 7.98678026e-03, 4.68190573e-03,
          4.13109362e-03, 3.02946847e-03, 3.58028105e-03, 1.92784355e-03,
          8.81299935e-03, 3.30487476e-03, 3.85568710e-03, 3.58028105e-03,
          1.92784355e-03, 6.88515557e-03, 2.20324984e-03, 2.75406241e-03,
          2.75406241e-03, 4.95731225e-03, 4.40649968e-03, 2.75406241e-03 ]
      - [ 3.73885524e-03, 5.17687667e-03, 6.61489787e-03, 3.73885524e-03,
          5.75208513e-04, 7.19010644e-03, 2.01322976e-03, 4.31406405e-03,
          6.32729381e-03, 3.73885524e-03, 4.88927215e-03, 2.58843834e-03,
          1.06413579e-02, 4.88927215e-03, 5.75208524e-03, 4.02645953e-03,
          5.17687667e-03, 1.15041703e-03, 3.16364691e-03, 4.31406405e-03,
          3.16364691e-03, 5.75208524e-03, 9.77854431e-03, 2.30083405e-03,
          2.58843834e-03, 2.58843834e-03, 8.62812810e-03, 5.46448072e-03,
          7.47771049e-03, 3.73885524e-03, 1.03537533e-02, 1.40926084e-02,
          4.31406405e-03, 7.19010644e-03, 3.73885524e-03, 4.31406405e-03,
          3.73885524e-03, 8.62812810e-03, 4.60166810e-03, 8.05291906e-03,
          3.16364691e-03, 4.88927215e-03, 6.90250192e-03, 2.87604262e-03,
          6.03968929e-03, 1.06413579e-02, 1.06413579e-02, 4.60166810e-03,
          3.73885524e-03, 5.17687667e-03, 3.16364691e-03, 4.88927215e-03,
          1.03537533e-02, 4.60166810e-03, 4.02645953e-03, 4.02645953e-03,
          5.75208524e-03, 3.45125096e-03, 6.90250192e-03, 4.02645953e-03,
          6.61489787e-03, 5.46448072e-03, 3.73885524e-03, 3.45125096e-03,
          2.30083405e-03, 1.32297957e-02, 6.03968929e-03, 1.00661488e-02,
          3.45125096e-03, 5.46448072e-03, 5.17687667e-03, 4.31406405e-03,
          7.76531501e-03, 3.16364691e-03, 6.32729381e-03, 8.05291906e-03,
          1.15041705e-02, 5.46448072e-03, 4.02645953e-03, 5.17687667e-03,
          3.73885524e-03, 2.30083405e-03, 7.47771049e-03, 7.76531501e-03,
          2.87604262e-03, 4.88927215e-03, 4.31406405e-03, 6.90250192e-03,
          9.77854431e-03, 8.62812740e-04, 3.73885524e-03, 4.88927215e-03,
          2.01322976e-03, 5.75208524e-03, 8.91573168e-03, 3.16364691e-03,
          6.03968929e-03, 4.88927215e-03, 1.43802131e-03, 9.77854431e-03,
          2.87604262e-03, 2.01322976e-03, 3.45125096e-03, 4.02645953e-03,
          1.20793786e-02, 6.90250192e-03, 1.72562548e-03, 3.16364691e-03,
          3.45125096e-03, 3.73885524e-03, 6.90250192e-03, 2.87604262e-03,
          2.58843834e-03, 4.88927215e-03, 9.77854431e-03, 2.01322976e-03,
          1.00661488e-02, 3.16364691e-03, 5.46448072e-03, 4.60166810e-03,
          2.87604262e-03, 4.88927215e-03, 4.31406405e-03, 4.02645953e-03,
          6.03968929e-03, 1.72562548e-03, 3.16364691e-03, 4.31406405e-03,
          4.31406405e-03, 4.02645953e-03, 9.77854431e-03, 5.75208524e-03,
          6.32729381e-03, 2.58843834e-03, 3.45125096e-03, 4.31406405e-03,
          5.75208524e-03, 7.76531501e-03, 3.45125096e-03, 1.32297957e-02,
          2.87604262e-03, 2.87604262e-03, 5.46448072e-03, 3.73885524e-03,
          4.02645953e-03, 3.16364691e-03, 3.16364691e-03, 2.01322976e-03,
          8.05291906e-03, 2.87604262e-03, 3.16364691e-03, 2.30083405e-03,
          2.30083405e-03, 3.45125096e-03, 1.00661488e-02, 2.58843834e-03,
          3.73885524e-03, 6.03968929e-03, 1.72562548e-03, 8.62812740e-04,
          3.16364691e-03, 5.17687667e-03, 4.60166810e-03, 5.46448072e-03,
          4.02645953e-03, 2.01322976e-03, 3.45125096e-03, 2.87604262e-03,
          1.40926084e-02, 3.45125096e-03, 4.60166810e-03, 4.60166810e-03,
          3.16364691e-03, 2.87604262e-03, 7.76531501e-03, 5.46448072e-03,
          7.76531501e-03, 2.30083405e-03, 3.73885524e-03, 1.43802131e-03,
          6.32729381e-03, 5.75208524e-03, 9.49094072e-03, 4.88927215e-03,
          4.02645953e-03, 3.73885524e-03, 5.17687667e-03, 2.30083405e-03,
          1.09289614e-02, 2.87604262e-03, 4.88927215e-03, 3.73885524e-03,
          3.45125096e-03, 6.32729381e-03, 2.87604262e-03, 2.01322976e-03,
          2.87604262e-03, 4.60166810e-03, 3.16364691e-03, 3.45125096e-03 ]
      - [ 2.03458802e-03, 3.73007823e-03, 3.73007823e-03, 6.44286210e-03,
          4.40827431e-03, 6.10376429e-03, 1.01729401e-03, 5.08647040e-03,
          8.81654862e-03, 4.40827431e-03, 9.49474424e-03, 4.74737212e-03,
          1.42421164e-02, 4.40827431e-03, 6.10376429e-03, 3.39098019e-03,
          5.08647040e-03, 3.39098019e-03, 1.35639205e-03, 6.10376429e-03,
          4.74737212e-03, 6.10376429e-03, 5.76466601e-03, 2.37368606e-03,
          4.74737212e-03, 1.11902347e-02, 4.74737212e-03, 5.42556820e-03,
          3.39098019e-03, 5.42556820e-03, 7.46015646e-03, 1.18684303e-02,
          8.81654862e-03, 1.35639205e-03, 5.42556820e-03, 4.40827431e-03,
          2.71278410e-03, 1.05120381e-02, 2.71278410e-03, 5.42556820e-03,
          4.06917604e-03, 5.42556820e-03, 5.42556820e-03, 2.71278410e-03,
          5.42556820e-03, 8.47745035e-03, 1.18684303e-02, 4.06917604e-03,
          6.78196037e-03, 3.05188214e-03, 4.40827431e-03, 3.05188214e-03,
          8.47745035e-03, 4.40827431e-03, 3.05188214e-03, 8.13835207e-03,
          6.44286210e-03, 3.05188214e-03, 7.12105818e-03, 2.37368606e-03,
          4.06917604e-03, 5.42556820e-03, 3.73007823e-03, 2.03458802e-03,
          4.40827431e-03, 7.12105818e-03, 7.46015646e-03, 8.13835207e-03,
          2.03458802e-03, 1.25466269e-02, 3.73007823e-03, 3.39098019e-03,
          4.06917604e-03, 3.05188214e-03, 5.76466601e-03, 5.08647040e-03,
          6.44286210e-03, 7.46015646e-03, 4.06917604e-03, 4.40827431e-03,
          7.79925426e-03, 1.35639205e-03, 1.22075286e-02, 7.46015646e-03,
          4.74737212e-03, 4.74737212e-03, 2.37368606e-03, 4.74737212e-03,
          1.01729408e-02, 2.03458802e-03, 2.03458802e-03, 2.37368606e-03,
          3.39098019e-03, 7.79925426e-03, 6.10376429e-03, 1.69549009e-03,
          7.12105818e-03, 5.42556820e-03, 4.40827431e-03, 8.47745035e-03,
          1.35639205e-03, 3.73007823e-03, 2.71278410e-03, 7.12105818e-03,
          1.05120381e-02, 5.08647040e-03, 2.03458802e-03, 6.44286210e-03,
          2.03458802e-03, 7.12105818e-03, 1.11902347e-02, 2.37368606e-03,
          5.08647040e-03, 2.71278410e-03, 8.13835207e-03, 4.06917604e-03,
          3.73007823e-03, 1.35639205e-03, 6.78196037e-03, 5.08647040e-03,
          4.74737212e-03, 7.46015646e-03, 1.69549009e-03, 3.39098019e-03,
          2.37368606e-03, 1.08511364e-02, 4.74737212e-03, 1.35639205e-03,
          4.06917604e-03, 2.37368606e-03, 4.06917604e-03, 1.35639205e-03,
          4.40827431e-03, 3.39098019e-03, 4.40827431e-03, 3.73007823e-03,
          3.73007823e-03, 8.81654862e-03, 6.10376429e-03, 8.81654862e-03,
          3.05188214e-03, 6.10376429e-03, 7.12105818e-03, 3.39098019e-03,
          4.40827431e-03, 3.05188214e-03, 5.76466601e-03, 2.37368606e-03,
          5.76466601e-03, 1.69549009e-03, 2.71278410e-03, 2.37368606e-03,
          1.35639205e-03, 2.03458802e-03, 7.79925426e-03, 3.39098019e-03,
          4.06917604e-03, 8.47745035e-03, 2.71278410e-03, 2.71278410e-03,
          6.78196037e-03, 9.15564597e-03, 4.74737212e-03, 8.47745035e-03,
          2.03458802e-03, 1.69549009e-03, 7.79925426e-03, 1.69549009e-03,
          9.83384252e-03, 3.05188214e-03, 3.39098019e-03, 4.74737212e-03,
          3.73007823e-03, 1.35639205e-03, 1.42421164e-02, 5.08647040e-03,
          3.39098019e-03, 2.37368606e-03, 3.39098019e-03, 2.37368606e-03,
          5.42556820e-03, 5.08647040e-03, 6.44286210e-03, 6.10376429e-03,
          5.08647040e-03, 2.71278410e-03, 6.44286210e-03, 4.06917604e-03,
          5.76466601e-03, 5.42556820e-03, 3.05188214e-03, 3.39098019e-03,
          3.39098019e-03, 8.47745035e-03, 3.05188214e-03, 2.71278410e-03,
          3.73007823e-03, 6.44286210e-03, 4.06917604e-03, 1.35639205e-03 ]
      - [ 3.74999992e-03, 5.31250006e-03, 7.18749966e-03, 7.81250000e-03,
          2.18750001e-03, 6.24999963e-03, 1.87499996e-03, 5.62499976e-03,
          7.81250000e-03, 4.99999989e-03, 6.56249980e-03, 3.43749998e-03,
          8.75000004e-03, 5.31250006e-03, 8.12499970e-03, 3.43749998e-03,
          3.74999992e-03, 2.18750001e-03, 3.74999992e-03, 5.62499976e-03,
          4.68749972e-03, 5.93749993e-03, 4.37500002e-03, 4.06249985e-03,
          2.49999994e-03, 6.87499996e-03, 5.62499976e-03, 5.62499976e-03,
          5.31250006e-03, 6.87499996e-03, 9.68750007e-03, 4.68749972e-03,
          8.75000004e-03, 1.87499996e-03, 5.31250006e-03, 4.99999989e-03,
          5.62499976e-03, 8.12499970e-03, 6.56249980e-03, 4.99999989e-03,
          3.74999992e-03, 4.37500002e-03, 5.62499976e-03, 3.74999992e-03,
          2.81249988e-03, 5.31250006e-03, 1.09374998e-02, 5.62499976e-03,
          5.93749993e-03, 5.62499976e-03, 2.18750001e-03, 4.37500002e-03,
          6.87499996e-03, 3.43749998e-03, 2.18750001e-03, 6.24999963e-03,
          4.99999989e-03, 3.74999992e-03, 7.49999983e-03, 4.37500002e-03,
          2.81249988e-03, 7.49999983e-03, 6.24999963e-03, 4.68749972e-03,
          4.68749972e-03, 5.93749993e-03, 5.93749993e-03, 1.12499995e-02,
          3.43749998e-03, 8.43749940e-03, 4.06249985e-03, 3.12499981e-03,
          6.24999963e-03, 3.12499981e-03, 5.31250006e-03, 2.81249988e-03,
          2.81249988e-03, 7.81250000e-03, 4.99999989e-03, 2.81249988e-03,
          8.75000004e-03, 5.31250006e-03, 8.75000004e-03, 4.68749972e-03,
          5.31250006e-03, 4.37500002e-03, 4.68749972e-03, 6.56249980e-03,
          7.81250000e-03, 4.37500002e-03, 2.81249988e-03, 2.18750001e-03,
          2.18750001e-03, 5.62499976e-03, 6.56249980e-03, 3.74999992e-03,
          7.18749966e-03, 6.87499996e-03, 1.87499996e-03, 7.18749966e-03,
          2.18750001e-03, 5.31250006e-03, 6.87499996e-03, 6.24999963e-03,
          7.49999983e-03, 3.43749998e-03, 2.18750001e-03, 6.87499996e-03,
          3.12499981e-03, 9.06249974e-03, 5.31250006e-03, 1.87499996e-03,
          5.31250006e-03, 5.62499976e-03, 2.49999994e-03, 3.12499981e-03,
          5.62499976e-03, 3.12499981e-03, 4.68749972e-03, 2.81249988e-03,
          6.24999963e-03, 6.56249980e-03, 7.18749966e-03, 5.93749993e-03,
          4.06249985e-03, 4.37500002e-03, 3.43749998e-03, 2.18750001e-03,
          6.56249980e-03, 2.18750001e-03, 4.06249985e-03, 3.43749998e-03,
          4.06249985e-03, 4.68749972e-03, 3.12499981e-03, 3.43749998e-03,
          4.06249985e-03, 7.81250000e-03, 3.74999992e-03, 1.09374998e-02,
          6.87499996e-03, 4.99999989e-03, 5.93749993e-03, 3.12499981e-03,
          6.87499996e-03, 2.81249988e-03, 8.43749940e-03, 1.24999997e-03,
          5.62499976e-03, 3.12499981e-03, 2.81249988e-03, 1.56249991e-03,
          4.99999989e-03, 1.87499996e-03, 7.18749966e-03, 2.18750001e-03,
          4.68749972e-03, 5.62499976e-03, 3.12499981e-03, 1.87499996e-03,
          6.87499996e-03, 6.56249980e-03, 4.06249985e-03, 9.99999978e-03,
          3.43749998e-03, 1.87499996e-03, 7.18749966e-03, 3.43749998e-03,
          1.12499995e-02, 2.81249988e-03, 2.49999994e-03, 4.99999989e-03,
          4.37500002e-03, 3.12499981e-03, 7.81250000e-03, 7.49999983e-03,
          4.68749972e-03, 3.12499981e-03, 5.62499976e-03, 2.49999994e-03,
          4.68749972e-03, 3.74999992e-03, 6.24999963e-03, 6.56249980e-03,
          5.31250006e-03, 4.68749972e-03, 6.24999963e-03, 3.43749998e-03,
          3.12499981e-03, 8.75000004e-03, 2.81249988e-03, 4.37500002e-03,
          5.31250006e-03, 5.62499976e-03, 2.81249988e-03, 2.49999994e-03,
          7.49999983e-03, 3.12499981e-03, 3.74999992e-03, 2.81249988e-03 ]
      - [ 4.67508193e-03, 2.33754097e-03, 1.26227215e-02, 6.54511480e-03,
          2.33754097e-03, 2.33754097e-03, 9.35016375e-04, 5.14259003e-03,
          5.14259003e-03, 1.30902296e-02, 4.20757383e-03, 5.61009813e-03,
          9.35016375e-04, 4.67508193e-03, 5.61009813e-03, 3.74006550e-03,
          3.27255740e-03, 1.87003275e-03, 3.27255740e-03, 3.74006550e-03,
          9.35016375e-04, 1.40252458e-02, 1.87003275e-03, 2.33754097e-03,
          4.20757383e-03, 3.27255740e-03, 2.33754097e-03, 8.88265576e-03,
          6.54511480e-03, 1.40252453e-03, 4.67508193e-03, 1.40252453e-03,
          6.54511480e-03, 8.88265576e-03, 6.54511480e-03, 1.87003275e-03,
          2.80504907e-03, 7.94763956e-03, 1.40252453e-03, 1.87003275e-03,
          2.33754097e-03, 2.33754097e-03, 1.87003275e-03, 7.94763956e-03,
          3.27255740e-03, 3.74006550e-03, 7.01262290e-03, 2.10378692e-02,
          2.80504907e-03, 4.20757383e-03, 7.01262290e-03, 3.27255740e-03,
          8.41514766e-03, 2.80504907e-03, 5.61009813e-03, 8.88265576e-03,
          2.80504907e-03, 2.80504907e-03, 3.27255740e-03, 2.80504907e-03,
          3.27255740e-03, 2.33754097e-03, 4.20757383e-03, 2.33754097e-03,
          4.67508193e-03, 3.74006550e-03, 5.14259003e-03, 7.01262290e-03,
          9.35016375e-04, 6.54511480e-03, 2.33754097e-03, 4.67508193e-03,
          3.27255740e-03, 6.54511480e-03, 4.20757383e-03, 2.33754097e-03,
          2.33754097e-03, 6.54511480e-03, 5.61009813e-03, 1.26227215e-02,
          4.67508193e-03, 3.27255740e-03, 1.02851801e-02, 1.40252453e-03,
          4.20757383e-03, 4.67508193e-03, 5.14259003e-03, 6.54511480e-03,
          2.80504907e-03, 5.14259003e-03, 9.35016386e-03, 3.27255740e-03,
          4.67508193e-03, 2.80504907e-03, 2.33754097e-03, 4.20757383e-03,
          1.07526882e-02, 4.20757383e-03, 2.33754097e-03, 6.07760623e-03,
          1.35577377e-02, 1.63627863e-02, 2.80504907e-03, 4.20757383e-03,
          3.27255740e-03, 2.33754097e-03, 9.35016375e-04, 7.48013100e-03,
          3.74006550e-03, 2.80504907e-03, 5.61009813e-03, 5.14259003e-03,
          3.27255740e-03, 1.40252458e-02, 2.33754097e-03, 5.14259003e-03,
          3.27255740e-03, 1.87003275e-03, 7.48013100e-03, 3.27255740e-03,
          5.14259003e-03, 4.67508193e-03, 2.80504907e-03, 2.80504907e-03,
          4.67508187e-04, 1.02851801e-02, 1.40252453e-03, 7.01262290e-03,
          4.20757383e-03, 5.61009813e-03, 1.40252453e-03, 4.20757383e-03,
          3.27255740e-03, 4.20757383e-03, 5.14259003e-03, 2.33754097e-03,
          5.61009813e-03, 5.14259003e-03, 4.67508193e-03, 1.68302953e-02,
          3.27255740e-03, 5.14259003e-03, 4.67508193e-03, 8.88265576e-03,
          2.33754097e-03, 4.20757383e-03, 3.27255740e-03, 7.48013100e-03,
          1.40252453e-03, 5.61009813e-03, 1.87003275e-03, 2.33754097e-03,
          5.14259003e-03, 5.61009813e-03, 3.74006550e-03, 9.35016375e-04,
          6.07760623e-03, 1.21552125e-02, 4.20757383e-03, 5.61009813e-03,
          4.67508193e-03, 6.54511480e-03, 6.54511480e-03, 5.14259003e-03,
          2.33754097e-03, 6.07760623e-03, 9.35016386e-03, 4.20757383e-03,
          5.61009813e-03, 5.61009813e-03, 4.20757383e-03, 4.20757383e-03,
          1.40252458e-02, 8.41514766e-03, 1.87003275e-03, 7.94763956e-03,
          2.33754097e-03, 5.61009813e-03, 5.61009813e-03, 7.01262290e-03,
          5.14259003e-03, 4.20757383e-03, 5.61009813e-03, 8.41514766e-03,
          4.20757383e-03, 5.14259003e-03, 1.02851801e-02, 3.74006550e-03,
          4.67508193e-03, 8.88265576e-03, 9.35016386e-03, 6.54511480e-03,
          2.80504907e-03, 2.80504907e-03, 2.80504907e-03, 2.80504907e-03,
          5.61009813e-03, 6.07760623e-03, 4.67508193e-03, 3.74006550e-03 ]
      - [ 4.59418073e-03, 1.91424205e-03, 9.18836147e-03, 1.03369066e-02,
          5.35987783e-03, 6.12557447e-03, 1.91424205e-03, 7.27411965e-03,
          7.65696820e-03, 4.21133265e-03, 6.89127110e-03, 2.29709037e-03,
          8.03981628e-03, 4.21133265e-03, 6.89127110e-03, 3.44563555e-03,
          3.82848410e-03, 3.06278723e-03, 2.29709037e-03, 6.12557447e-03,
          4.59418073e-03, 4.97702928e-03, 4.21133265e-03, 2.67993892e-03,
          2.29709037e-03, 1.07197557e-02, 6.50842302e-03, 6.12557447e-03,
          3.44563555e-03, 6.89127110e-03, 4.97702928e-03, 7.65696820e-03,
          1.33996941e-02, 3.06278723e-03, 8.42266530e-03, 1.07197557e-02,
          9.18836147e-03, 1.18683008e-02, 4.59418073e-03, 3.82848410e-03,
          3.82848410e-03, 2.67993892e-03, 2.67993892e-03, 3.82848410e-03,
          4.97702928e-03, 3.82848410e-03, 1.26339970e-02, 4.59418073e-03,
          7.65696820e-03, 2.67993892e-03, 3.44563555e-03, 4.59418073e-03,
          8.42266530e-03, 2.67993892e-03, 4.21133265e-03, 5.74272592e-03,
          3.06278723e-03, 1.91424205e-03, 4.59418073e-03, 4.21133265e-03,
          4.21133265e-03, 4.97702928e-03, 3.06278723e-03, 2.67993892e-03,
          6.12557447e-03, 1.91424205e-03, 4.21133265e-03, 9.95405857e-03,
          1.53139362e-03, 1.18683008e-02, 3.82848410e-03, 2.29709037e-03,
          3.44563555e-03, 7.27411965e-03, 4.97702928e-03, 3.44563555e-03,
          5.74272592e-03, 1.07197557e-02, 2.67993892e-03, 5.35987783e-03,
          5.35987783e-03, 1.53139362e-03, 8.03981628e-03, 2.67993892e-03,
          1.53139362e-03, 5.35987783e-03, 5.74272592e-03, 3.06278723e-03,
          1.11026037e-02, 2.67993892e-03, 4.21133265e-03, 3.44563555e-03,
          4.21133265e-03, 5.35987783e-03, 3.82848410e-03, 1.14854518e-03,
          4.21133265e-03, 4.59418073e-03, 5.35987783e-03, 1.26339970e-02,
          3.82848404e-04, 5.74272592e-03, 1.91424205e-03, 4.97702928e-03,
          8.80551338e-03, 4.21133265e-03, 4.21133265e-03, 1.11026037e-02,
          2.67993892e-03, 8.03981628e-03, 1.18683008e-02, 7.65696808e-04,
          5.74272592e-03, 4.21133265e-03, 8.03981628e-03, 1.91424205e-03,
          1.91424205e-03, 1.91424205e-03, 4.59418073e-03, 0.,
          4.21133265e-03, 4.59418073e-03, 2.29709037e-03, 4.59418073e-03,
          1.91424205e-03, 2.14395113e-02, 4.59418073e-03, 2.67993892e-03,
          4.21133265e-03, 1.91424205e-03, 1.14854518e-03, 4.21133265e-03,
          3.44563555e-03, 3.82848410e-03, 2.67993892e-03, 4.59418073e-03,
          1.53139362e-03, 7.65696820e-03, 6.89127110e-03, 1.11026037e-02,
          4.59418073e-03, 7.27411965e-03, 5.74272592e-03, 3.06278723e-03,
          6.50842302e-03, 1.14854518e-03, 9.57121048e-03, 2.67993892e-03,
          3.82848410e-03, 4.97702928e-03, 4.21133265e-03, 1.53139362e-03,
          2.67993892e-03, 1.91424205e-03, 4.97702928e-03, 4.21133265e-03,
          3.82848410e-03, 7.27411965e-03, 4.59418073e-03, 4.97702928e-03,
          5.35987783e-03, 9.18836147e-03, 1.53139362e-03, 9.18836147e-03,
          2.29709037e-03, 1.91424205e-03, 9.57121048e-03, 7.27411965e-03,
          1.14854518e-02, 4.21133265e-03, 1.91424205e-03, 2.67993892e-03,
          3.44563555e-03, 4.21133265e-03, 6.89127110e-03, 4.21133265e-03,
          3.06278723e-03, 1.53139362e-03, 1.91424205e-03, 2.67993892e-03,
          6.50842302e-03, 3.82848404e-04, 4.97702928e-03, 1.14854518e-02,
          2.29709037e-03, 3.06278723e-03, 4.97702928e-03, 3.06278723e-03,
          4.21133265e-03, 1.11026037e-02, 6.50842302e-03, 2.67993892e-03,
          4.21133265e-03, 2.29709037e-03, 4.21133265e-03, 3.44563555e-03,
          1.14854518e-02, 3.44563555e-03, 5.35987783e-03, 3.06278723e-03 ]
      - [ 5.39762527e-03, 3.23857507e-03, 5.03778365e-03, 5.75746689e-03,
          2.87873344e-03, 7.19683338e-03, 1.43936672e-03, 7.91651662e-03,
          4.67794202e-03, 5.75746689e-03, 4.67794202e-03, 5.03778365e-03,
          4.31810040e-03, 4.31810040e-03, 1.79920834e-03, 3.59841669e-03,
          5.75746689e-03, 3.23857507e-03, 3.95825831e-03, 5.03778365e-03,
          3.23857507e-03, 8.63620080e-03, 4.67794202e-03, 1.43936672e-03,
          4.67794202e-03, 7.55667547e-03, 5.03778365e-03, 7.19683338e-03,
          7.19683338e-03, 4.31810040e-03, 8.99604242e-03, 6.11730851e-03,
          8.63620080e-03, 1.07952510e-03, 6.11730851e-03, 5.75746689e-03,
          4.67794202e-03, 1.11550922e-02, 3.59841669e-03, 3.23857507e-03,
          3.23857507e-03, 2.51889182e-03, 6.83699176e-03, 2.87873344e-03,
          3.59841669e-03, 7.19683338e-03, 6.83699176e-03, 7.91651662e-03,
          8.63620080e-03, 4.67794202e-03, 3.59841669e-03, 4.31810040e-03,
          6.11730851e-03, 2.87873344e-03, 3.59841669e-03, 6.83699176e-03,
          5.03778365e-03, 2.51889182e-03, 1.04354089e-02, 4.31810040e-03,
          6.11730851e-03, 4.31810040e-03, 4.67794202e-03, 5.75746689e-03,
          5.39762527e-03, 6.83699176e-03, 6.47715013e-03, 7.91651662e-03,
          1.79920834e-03, 1.22346170e-02, 1.79920834e-03, 3.23857507e-03,
          4.67794202e-03, 3.59841669e-03, 6.83699176e-03, 9.71572567e-03,
          1.79920834e-03, 5.39762527e-03, 3.59841669e-03, 9.71572567e-03,
          6.83699176e-03, 2.51889182e-03, 1.15149338e-02, 2.87873344e-03,
          4.31810040e-03, 4.31810040e-03, 5.03778365e-03, 7.19683338e-03,
          5.39762527e-03, 3.95825831e-03, 4.67794202e-03, 2.87873344e-03,
          6.83699176e-03, 5.75746689e-03, 5.39762527e-03, 2.51889182e-03,
          8.27635825e-03, 3.95825831e-03, 7.19683361e-04, 7.91651662e-03,
          3.59841669e-03, 5.75746689e-03, 3.95825831e-03, 4.67794202e-03,
          8.63620080e-03, 4.67794202e-03, 1.79920834e-03, 3.95825831e-03,
          6.11730851e-03, 5.75746689e-03, 7.19683338e-03, 1.43936672e-03,
          2.87873344e-03, 6.47715013e-03, 4.67794202e-03, 2.87873344e-03,
          2.87873344e-03, 2.87873344e-03, 7.91651662e-03, 2.15905020e-03,
          1.00755673e-02, 4.31810040e-03, 3.95825831e-03, 2.51889182e-03,
          2.51889182e-03, 8.27635825e-03, 4.31810040e-03, 3.23857507e-03,
          3.95825831e-03, 2.51889182e-03, 3.23857507e-03, 4.67794202e-03,
          4.31810040e-03, 6.11730851e-03, 2.51889182e-03, 2.51889182e-03,
          4.31810040e-03, 8.27635825e-03, 8.99604242e-03, 1.11550922e-02,
          1.43936672e-03, 5.39762527e-03, 9.71572567e-03, 3.23857507e-03,
          5.03778365e-03, 1.79920834e-03, 3.59841669e-03, 3.95825831e-03,
          6.47715013e-03, 4.67794202e-03, 2.15905020e-03, 4.31810040e-03,
          3.59841669e-03, 2.51889182e-03, 8.63620080e-03, 5.75746689e-03,
          5.39762527e-03, 8.99604242e-03, 3.23857507e-03, 3.59841669e-03,
          6.11730851e-03, 6.83699176e-03, 3.59841669e-03, 1.00755673e-02,
          2.87873344e-03, 2.15905020e-03, 8.27635825e-03, 5.75746689e-03,
          1.15149338e-02, 1.43936672e-03, 4.67794202e-03, 2.51889182e-03,
          3.95825831e-03, 3.59841669e-03, 6.83699176e-03, 7.19683338e-03,
          4.31810040e-03, 2.15905020e-03, 3.59841669e-03, 3.23857507e-03,
          7.19683338e-03, 5.03778365e-03, 5.75746689e-03, 4.31810040e-03,
          5.39762527e-03, 2.87873344e-03, 5.39762527e-03, 2.51889182e-03,
          6.11730851e-03, 7.19683338e-03, 1.79920834e-03, 3.95825831e-03,
          2.87873344e-03, 5.03778365e-03, 2.15905020e-03, 4.31810040e-03,
          3.95825831e-03, 7.55667547e-03, 5.39762527e-03, 1.43936672e-03 ]
      - [ 3.77516774e-03, 3.35570471e-03, 6.29194640e-03, 8.38926155e-03,
          2.93624168e-03, 6.71140943e-03, 1.67785236e-03, 3.35570471e-03,
          4.19463078e-03, 1.25838928e-02, 6.29194640e-03, 5.87248337e-03,
          2.51677865e-03, 6.71140943e-03, 2.51677865e-03, 2.51677865e-03,
          2.51677865e-03, 2.93624168e-03, 6.29194640e-03, 9.22818761e-03,
          3.35570471e-03, 7.55033549e-03, 2.93624168e-03, 2.51677865e-03,
          5.03355730e-03, 4.61409381e-03, 4.61409381e-03, 5.87248337e-03,
          5.45302033e-03, 4.19463078e-03, 2.51677865e-03, 4.19463089e-04,
          7.13087246e-03, 5.87248337e-03, 2.93624168e-03, 3.77516774e-03,
          9.64765064e-03, 6.71140943e-03, 2.93624168e-03, 1.25838933e-03,
          5.03355730e-03, 2.51677865e-03, 2.09731539e-03, 8.80872458e-03,
          4.61409381e-03, 2.51677865e-03, 8.38926178e-04, 9.64765064e-03,
          5.87248337e-03, 4.61409381e-03, 5.03355730e-03, 2.51677865e-03,
          9.22818761e-03, 3.35570471e-03, 8.38926178e-04, 8.80872458e-03,
          4.19463078e-03, 3.77516774e-03, 1.67785236e-03, 2.09731539e-03,
          5.03355730e-03, 2.93624168e-03, 5.87248337e-03, 3.35570471e-03,
          2.93624168e-03, 2.09731539e-03, 4.19463078e-03, 7.55033549e-03,
          8.38926178e-04, 1.25838928e-02, 2.93624168e-03, 2.93624168e-03,
          7.13087246e-03, 5.87248337e-03, 3.35570471e-03, 8.38926155e-03,
          8.38926178e-04, 1.13255037e-02, 4.19463078e-03, 1.09060407e-02,
          7.96979852e-03, 5.45302033e-03, 1.34228189e-02, 1.67785236e-03,
          5.45302033e-03, 4.19463078e-03, 5.03355730e-03, 5.03355730e-03,
          4.61409381e-03, 3.77516774e-03, 3.77516774e-03, 1.25838933e-03,
          7.13087246e-03, 6.29194640e-03, 2.09731539e-03, 1.67785236e-03,
          1.30033558e-02, 4.61409381e-03, 2.93624168e-03, 6.71140943e-03,
          2.09731539e-03, 1.09060407e-02, 4.19463078e-03, 4.19463078e-03,
          2.93624168e-03, 2.93624168e-03, 1.67785236e-03, 5.87248337e-03,
          2.51677865e-03, 7.55033549e-03, 7.96979852e-03, 1.67785236e-03,
          1.67785236e-03, 8.38926155e-03, 2.09731539e-03, 2.93624168e-03,
          1.67785236e-03, 3.35570471e-03, 7.13087246e-03, 2.51677865e-03,
          5.87248337e-03, 2.51677865e-03, 4.61409381e-03, 2.09731539e-03,
          2.09731539e-03, 1.17449667e-02, 2.93624168e-03, 2.09731539e-03,
          3.35570471e-03, 5.03355730e-03, 8.38926178e-04, 5.45302033e-03,
          3.35570471e-03, 4.19463078e-03, 4.19463078e-03, 4.61409381e-03,
          3.77516774e-03, 7.96979852e-03, 6.71140943e-03, 1.00671146e-02,
          5.87248337e-03, 8.80872458e-03, 6.29194640e-03, 5.03355730e-03,
          5.03355730e-03, 2.51677865e-03, 3.77516774e-03, 2.09731539e-03,
          4.19463078e-03, 7.55033549e-03, 3.77516774e-03, 1.67785236e-03,
          6.29194640e-03, 3.77516774e-03, 8.80872458e-03, 4.61409381e-03,
          7.13087246e-03, 1.00671146e-02, 5.03355730e-03, 4.19463078e-03,
          4.19463078e-03, 9.64765064e-03, 7.13087246e-03, 7.96979852e-03,
          5.87248337e-03, 5.45302033e-03, 8.80872458e-03, 8.38926155e-03,
          4.19463078e-03, 6.29194640e-03, 3.77516774e-03, 5.45302033e-03,
          1.04865776e-02, 6.29194640e-03, 4.19463078e-03, 3.35570471e-03,
          4.19463078e-03, 8.38926178e-04, 7.96979852e-03, 3.35570471e-03,
          9.64765064e-03, 2.93624168e-03, 4.61409381e-03, 7.96979852e-03,
          7.55033549e-03, 7.96979852e-03, 1.00671146e-02, 3.35570471e-03,
          2.09731539e-03, 8.38926155e-03, 6.71140943e-03, 7.55033549e-03,
          2.09731539e-03, 4.61409381e-03, 2.93624168e-03, 4.19463078e-03,
          4.19463078e-03, 6.71140943e-03, 2.93624168e-03, 1.67785236e-03 ]
      - [ 2.59067351e-03, 2.59067351e-03, 8.63557868e-03, 1.16580315e-02,
          2.59067351e-03, 3.88601026e-03, 2.59067351e-03, 4.31778934e-03,
          6.90846285e-03, 7.77202053e-03, 7.77202053e-03, 1.72711571e-03,
          2.59067351e-03, 6.04490517e-03, 3.45423142e-03, 4.31778934e-03,
          1.72711571e-03, 3.45423142e-03, 1.29533675e-03, 3.88601026e-03,
          4.74956818e-03, 6.90846285e-03, 3.02245258e-03, 2.15889467e-03,
          2.59067351e-03, 1.68393776e-02, 1.72711571e-03, 6.04490517e-03,
          7.34024169e-03, 3.88601026e-03, 3.88601026e-03, 5.18134702e-03,
          7.77202053e-03, 3.45423142e-03, 4.31778934e-03, 7.34024169e-03,
          5.61312586e-03, 6.90846285e-03, 4.31778934e-03, 1.72711571e-03,
          3.45423142e-03, 1.72711571e-03, 4.31778934e-03, 6.47668401e-03,
          6.04490517e-03, 5.18134702e-03, 7.34024169e-03, 5.18134702e-03,
          2.59067351e-03, 3.45423142e-03, 3.88601026e-03, 2.59067351e-03,
          8.63557868e-03, 2.15889467e-03, 3.02245258e-03, 7.34024169e-03,
          2.59067351e-03, 3.02245258e-03, 8.20379984e-03, 2.59067351e-03,
          4.74956818e-03, 1.29533675e-03, 5.18134702e-03, 3.88601026e-03,
          4.74956818e-03, 2.15889467e-03, 3.88601026e-03, 8.63557868e-03,
          1.72711571e-03, 1.38169257e-02, 3.02245258e-03, 2.15889467e-03,
          5.18134702e-03, 3.02245258e-03, 3.02245258e-03, 5.61312586e-03,
          1.29533675e-03, 1.16580315e-02, 6.47668401e-03, 7.34024169e-03,
          8.63557868e-03, 1.72711571e-03, 1.51122622e-02, 3.02245258e-03,
          5.18134702e-03, 3.88601026e-03, 6.90846285e-03, 8.63557868e-03,
          4.74956818e-03, 4.74956818e-03, 8.20379984e-03, 1.72711571e-03,
          3.88601026e-03, 2.15889467e-03, 5.18134702e-03, 2.15889467e-03,
          9.49913636e-03, 3.45423142e-03, 2.59067351e-03, 1.20898103e-02,
          3.88601026e-03, 3.88601026e-03, 1.72711571e-03, 7.34024169e-03,
          6.04490517e-03, 5.61312586e-03, 4.31778934e-03, 6.47668401e-03,
          2.15889467e-03, 8.63557868e-03, 6.90846285e-03, 2.15889467e-03,
          4.74956818e-03, 9.06735752e-03, 1.72711571e-03, 3.45423142e-03,
          3.45423142e-03, 1.29533675e-03, 1.07944729e-02, 2.59067351e-03,
          2.59067351e-03, 4.74956818e-03, 2.59067351e-03, 4.31778934e-03,
          4.74956818e-03, 1.25215892e-02, 3.02245258e-03, 1.72711571e-03,
          8.20379984e-03, 2.59067351e-03, 2.15889467e-03, 6.47668401e-03,
          3.45423142e-03, 2.15889467e-03, 3.45423142e-03, 3.02245258e-03,
          3.88601026e-03, 9.06735752e-03, 3.88601026e-03, 7.77202053e-03,
          2.15889467e-03, 6.90846285e-03, 3.88601026e-03, 2.59067351e-03,
          4.74956818e-03, 1.72711571e-03, 7.77202053e-03, 1.29533675e-03,
          3.45423142e-03, 4.31778934e-03, 2.15889467e-03, 3.45423142e-03,
          3.45423142e-03, 3.02245258e-03, 4.74956818e-03, 4.74956818e-03,
          5.61312586e-03, 7.77202053e-03, 2.59067351e-03, 5.61312586e-03,
          3.45423142e-03, 1.51122622e-02, 6.04490517e-03, 9.06735752e-03,
          6.47668401e-03, 6.04490517e-03, 1.12262517e-02, 8.20379984e-03,
          9.06735752e-03, 4.31778934e-03, 1.29533675e-03, 4.31778934e-03,
          6.04490517e-03, 3.88601026e-03, 6.47668401e-03, 8.20379984e-03,
          3.45423142e-03, 4.31778934e-03, 4.31778934e-03, 4.74956818e-03,
          6.47668401e-03, 3.88601026e-03, 6.04490517e-03, 8.20379984e-03,
          4.74956818e-03, 4.31778934e-03, 8.20379984e-03, 2.59067351e-03,
          4.31778934e-03, 1.16580315e-02, 6.90846285e-03, 3.02245258e-03,
          4.31778934e-03, 4.31778934e-03, 2.15889467e-03, 2.59067351e-03,
          8.20379984e-03, 5.61312586e-03, 3.88601026e-03, 3.88601026e-03 ]
      - [ 3.69499507e-03, 3.02317785e-03, 9.06953309e-03, 8.73362459e-03,
          2.68726912e-03, 6.71817269e-03, 3.35908635e-03, 6.04635570e-03,
          4.03090380e-03, 8.06180760e-03, 3.69499507e-03, 5.03862975e-03,
          3.69499507e-03, 3.69499507e-03, 3.69499507e-03, 4.03090380e-03,
          4.03090380e-03, 6.38226420e-03, 7.05408165e-03, 3.69499507e-03,
          3.02317785e-03, 1.07490765e-02, 5.03862975e-03, 3.35908635e-03,
          4.70272079e-03, 4.70272079e-03, 7.38999015e-03, 4.36681230e-03,
          7.38999015e-03, 2.01545190e-03, 6.04635570e-03, 2.01545190e-03,
          4.03090380e-03, 2.68726912e-03, 3.69499507e-03, 6.71817269e-03,
          6.38226420e-03, 7.05408165e-03, 6.71817269e-03, 2.35136040e-03,
          4.03090380e-03, 4.36681230e-03, 3.69499507e-03, 5.71044674e-03,
          5.03862975e-03, 4.70272079e-03, 5.71044674e-03, 6.38226420e-03,
          5.37453825e-03, 6.38226420e-03, 4.36681230e-03, 4.03090380e-03,
          9.40544158e-03, 4.03090380e-03, 4.70272079e-03, 9.06953309e-03,
          3.69499507e-03, 5.03862975e-03, 4.36681230e-03, 5.71044674e-03,
          4.70272079e-03, 3.02317785e-03, 6.38226420e-03, 5.71044674e-03,
          7.38999015e-03, 3.35908635e-03, 5.37453825e-03, 6.71817269e-03,
          6.71817281e-04, 6.04635570e-03, 3.69499507e-03, 3.69499507e-03,
          5.03862975e-03, 5.37453825e-03, 7.38999015e-03, 4.36681230e-03,
          1.34363456e-03, 4.03090380e-03, 4.36681230e-03, 9.74135101e-03,
          6.38226420e-03, 5.37453825e-03, 9.74135101e-03, 3.69499507e-03,
          6.04635570e-03, 4.36681230e-03, 4.36681230e-03, 5.71044674e-03,
          4.03090380e-03, 4.36681230e-03, 6.38226420e-03, 2.01545190e-03,
          5.03862975e-03, 4.70272079e-03, 1.67954317e-03, 3.69499507e-03,
          8.39771610e-03, 5.03862975e-03, 4.03090380e-03, 7.05408165e-03,
          4.36681230e-03, 4.70272079e-03, 3.02317785e-03, 5.03862975e-03,
          3.35908635e-03, 7.05408165e-03, 2.01545190e-03, 3.69499507e-03,
          2.68726912e-03, 6.38226420e-03, 3.69499507e-03, 2.68726912e-03,
          3.35908635e-03, 8.06180760e-03, 2.68726912e-03, 4.03090380e-03,
          3.69499507e-03, 2.35136040e-03, 6.71817269e-03, 3.35908635e-03,
          7.72589864e-03, 3.35908635e-03, 3.69499507e-03, 2.68726912e-03,
          4.70272079e-03, 8.73362459e-03, 4.03090380e-03, 1.67954317e-03,
          4.36681230e-03, 4.03090380e-03, 1.67954317e-03, 5.03862975e-03,
          3.02317785e-03, 5.03862975e-03, 3.35908635e-03, 5.71044674e-03,
          7.72589864e-03, 8.39771610e-03, 6.04635570e-03, 8.39771610e-03,
          6.71817269e-03, 5.37453825e-03, 6.38226420e-03, 7.38999015e-03,
          4.70272079e-03, 5.03862975e-03, 5.71044674e-03, 2.01545190e-03,
          5.71044674e-03, 7.72589864e-03, 2.35136040e-03, 2.01545190e-03,
          4.03090380e-03, 3.35908635e-03, 5.71044674e-03, 6.71817269e-03,
          4.70272079e-03, 1.04131680e-02, 2.35136040e-03, 4.03090380e-03,
          3.69499507e-03, 9.40544158e-03, 5.03862975e-03, 9.06953309e-03,
          2.68726912e-03, 3.35908635e-03, 1.17568020e-02, 3.35908635e-03,
          4.36681230e-03, 4.70272079e-03, 4.36681230e-03, 3.35908635e-03,
          5.71044674e-03, 6.71817269e-03, 6.04635570e-03, 6.04635570e-03,
          5.37453825e-03, 4.36681230e-03, 3.35908635e-03, 2.68726912e-03,
          6.04635570e-03, 4.03090380e-03, 4.03090380e-03, 6.38226420e-03,
          5.37453825e-03, 7.05408165e-03, 8.06180760e-03, 5.71044674e-03,
          3.35908635e-03, 5.37453825e-03, 4.70272079e-03, 6.04635570e-03,
          3.69499507e-03, 7.05408165e-03, 5.37453825e-03, 2.01545190e-03,
          4.36681230e-03, 5.37453825e-03, 4.36681230e-03, 4.03090380e-03 ]
      - [ 3.75170540e-03, 2.72851298e-03, 6.13915408e-03, 5.45702595e-03,
          5.79809025e-03, 3.41064110e-03, 3.75170540e-03, 5.45702595e-03,
          4.43383353e-03, 6.48021838e-03, 4.77489782e-03, 5.79809025e-03,
          1.36425649e-03, 3.75170540e-03, 2.38744891e-03, 4.77489782e-03,
          5.45702595e-03, 3.41064110e-03, 8.18553939e-03, 9.54979565e-03,
          3.75170540e-03, 9.89085995e-03, 6.48021838e-03, 2.38744891e-03,
          2.72851298e-03, 3.41064110e-03, 4.77489782e-03, 3.41064110e-03,
          4.43383353e-03, 1.36425649e-03, 5.11596166e-03, 2.72851298e-03,
          6.48021838e-03, 5.45702595e-03, 4.09276970e-03, 5.11596166e-03,
          5.11596166e-03, 6.48021838e-03, 3.41064110e-03, 4.09276970e-03,
          4.43383353e-03, 2.72851298e-03, 2.72851298e-03, 4.09276970e-03,
          6.48021838e-03, 4.09276970e-03, 3.41064110e-03, 9.20873135e-03,
          4.43383353e-03, 6.82128221e-03, 2.72851298e-03, 2.04638485e-03,
          5.79809025e-03, 5.79809025e-03, 3.06957704e-03, 7.84447510e-03,
          8.18553939e-03, 3.41064110e-03, 6.48021838e-03, 6.13915408e-03,
          3.75170540e-03, 2.04638485e-03, 8.86766706e-03, 3.75170540e-03,
          5.11596166e-03, 4.77489782e-03, 4.09276970e-03, 6.48021838e-03,
          1.70532055e-03, 7.50341080e-03, 5.11596166e-03, 3.06957704e-03,
          7.50341080e-03, 6.13915408e-03, 5.11596166e-03, 3.75170540e-03,
          2.04638485e-03, 6.82128221e-03, 2.04638485e-03, 8.18553939e-03,
          4.43383353e-03, 3.06957704e-03, 7.84447510e-03, 1.36425649e-03,
          4.43383353e-03, 3.06957704e-03, 4.09276970e-03, 6.48021838e-03,
          5.79809025e-03, 6.13915408e-03, 4.43383353e-03, 3.06957704e-03,
          4.43383353e-03, 5.11596166e-03, 3.06957704e-03, 4.09276970e-03,
          9.20873135e-03, 5.11596166e-03, 2.72851298e-03, 3.41064110e-03,
          4.09276970e-03, 8.18553939e-03, 3.41064110e-03, 5.11596166e-03,
          4.09276970e-03, 4.09276970e-03, 4.77489782e-03, 5.11596166e-03,
          2.04638485e-03, 3.06957704e-03, 5.79809025e-03, 4.77489782e-03,
          4.43383353e-03, 7.50341080e-03, 2.04638485e-03, 5.45702595e-03,
          2.72851298e-03, 3.06957704e-03, 5.45702595e-03, 5.11596166e-03,
          5.11596166e-03, 3.75170540e-03, 2.38744891e-03, 3.75170540e-03,
          3.06957704e-03, 4.77489782e-03, 4.09276970e-03, 5.11596166e-03,
          7.50341080e-03, 4.09276970e-03, 1.36425649e-03, 3.06957704e-03,
          4.77489782e-03, 5.45702595e-03, 6.48021838e-03, 5.79809025e-03,
          3.41064110e-03, 6.13915408e-03, 7.16234650e-03, 1.09140519e-02,
          4.09276970e-03, 5.79809025e-03, 6.48021838e-03, 8.18553939e-03,
          5.11596166e-03, 3.41064110e-03, 3.41064110e-03, 2.72851298e-03,
          3.75170540e-03, 4.43383353e-03, 7.16234650e-03, 6.13915408e-03,
          6.13915408e-03, 3.75170540e-03, 5.79809025e-03, 5.45702595e-03,
          4.77489782e-03, 1.19372439e-02, 5.11596166e-03, 2.04638485e-03,
          2.04638485e-03, 8.18553939e-03, 7.84447510e-03, 8.86766706e-03,
          4.43383353e-03, 4.43383353e-03, 8.18553939e-03, 5.79809025e-03,
          6.48021838e-03, 4.09276970e-03, 5.79809025e-03, 5.79809025e-03,
          6.13915408e-03, 4.09276970e-03, 5.11596166e-03, 7.50341080e-03,
          3.41064110e-03, 5.11596166e-03, 6.48021838e-03, 6.48021838e-03,
          6.82128221e-03, 4.09276970e-03, 5.79809025e-03, 7.16234650e-03,
          4.09276970e-03, 6.13915408e-03, 1.33015011e-02, 4.09276970e-03,
          2.04638485e-03, 9.89085995e-03, 6.82128221e-03, 5.79809025e-03,
          2.04638485e-03, 6.13915408e-03, 4.43383353e-03, 3.75170540e-03,
          5.11596166e-03, 5.79809025e-03, 6.13915408e-03, 3.06957704e-03 ]
      - [ 5.92373218e-03, 6.29396550e-03, 8.14513210e-03, 8.51536542e-03,
          4.81303222e-03, 5.18326554e-03, 2.22139945e-03, 3.70233273e-03,
          2.22139945e-03, 6.29396550e-03, 4.81303222e-03, 7.03443214e-03,
          1.85116637e-03, 4.07256605e-03, 4.81303222e-03, 3.70233273e-03,
          5.55349886e-03, 4.07256605e-03, 5.92373218e-03, 7.77489832e-03,
          4.07256605e-03, 8.51536542e-03, 4.07256605e-03, 4.81303222e-03,
          2.59163277e-03, 4.44279891e-03, 4.81303222e-03, 6.29396550e-03,
          3.70233273e-03, 2.22139945e-03, 2.96186609e-03, 1.85116637e-03,
          5.55349886e-03, 4.07256605e-03, 4.07256605e-03, 8.14513210e-03,
          7.77489832e-03, 5.92373218e-03, 4.81303222e-03, 4.07256605e-03,
          4.07256605e-03, 3.33209941e-03, 2.22139945e-03, 7.40466546e-03,
          6.29396550e-03, 2.22139945e-03, 3.70233273e-03, 1.22176977e-02,
          5.92373218e-03, 6.66419882e-03, 2.59163277e-03, 4.81303222e-03,
          6.66419882e-03, 5.55349886e-03, 4.81303222e-03, 8.88559781e-03,
          3.33209941e-03, 5.18326554e-03, 4.44279891e-03, 3.70233273e-03,
          4.81303222e-03, 3.70233273e-03, 7.40466546e-03, 4.07256605e-03,
          6.66419882e-03, 3.33209941e-03, 4.07256605e-03, 7.77489832e-03,
          1.85116637e-03, 7.40466546e-03, 3.70233273e-03, 2.22139945e-03,
          5.92373218e-03, 5.55349886e-03, 5.18326554e-03, 3.70233273e-03,
          3.70233261e-04, 5.92373218e-03, 3.33209941e-03, 8.14513210e-03,
          8.14513210e-03, 1.11069973e-03, 7.03443214e-03, 2.22139945e-03,
          4.07256605e-03, 2.96186609e-03, 7.03443214e-03, 5.55349886e-03,
          4.81303222e-03, 7.03443214e-03, 7.03443214e-03, 4.07256605e-03,
          5.18326554e-03, 7.40466546e-03, 5.55349886e-03, 2.22139945e-03,
          8.88559781e-03, 5.18326554e-03, 2.59163277e-03, 5.55349886e-03,
          5.55349886e-03, 8.14513210e-03, 5.55349886e-03, 3.33209941e-03,
          5.18326554e-03, 4.81303222e-03, 4.44279891e-03, 5.55349886e-03,
          1.85116637e-03, 4.81303222e-03, 5.18326554e-03, 4.07256605e-03,
          3.33209941e-03, 8.88559781e-03, 2.22139945e-03, 3.33209941e-03,
          1.85116637e-03, 2.59163277e-03, 1.07367644e-02, 2.22139945e-03,
          5.18326554e-03, 5.92373218e-03, 6.29396550e-03, 2.22139945e-03,
          1.11069973e-03, 5.92373218e-03, 3.70233273e-03, 4.07256605e-03,
          7.77489832e-03, 4.07256605e-03, 1.85116637e-03, 4.81303222e-03,
          3.33209941e-03, 6.29396550e-03, 5.92373218e-03, 2.59163277e-03,
          8.88559781e-03, 6.66419882e-03, 7.40466546e-03, 8.51536542e-03,
          4.07256605e-03, 6.29396550e-03, 1.11069973e-03, 7.40466546e-03,
          7.77489832e-03, 2.96186609e-03, 3.70233273e-03, 2.59163277e-03,
          3.33209941e-03, 7.40466546e-03, 3.70233273e-03, 2.96186609e-03,
          5.18326554e-03, 4.44279891e-03, 3.70233273e-03, 4.07256605e-03,
          4.44279891e-03, 9.25583113e-03, 5.92373218e-03, 3.70233273e-03,
          4.07256605e-03, 8.14513210e-03, 8.51536542e-03, 8.51536542e-03,
          2.59163277e-03, 2.96186609e-03, 9.62606445e-03, 4.07256605e-03,
          5.18326554e-03, 3.70233273e-03, 2.59163277e-03, 1.11069973e-03,
          5.55349886e-03, 4.44279891e-03, 5.92373218e-03, 5.55349886e-03,
          4.81303222e-03, 5.18326554e-03, 4.07256605e-03, 7.77489832e-03,
          5.18326554e-03, 3.33209941e-03, 3.70233273e-03, 8.14513210e-03,
          4.07256605e-03, 5.18326554e-03, 7.77489832e-03, 2.96186609e-03,
          4.81303222e-03, 7.03443214e-03, 8.88559781e-03, 4.07256605e-03,
          2.22139945e-03, 4.44279891e-03, 8.14513210e-03, 5.55349886e-03,
          6.66419882e-03, 4.07256605e-03, 3.70233273e-03, 4.81303222e-03 ]
      - [ 1.92826847e-03, 3.47088324e-03, 7.71307386e-03, 8.48438125e-03,
          2.31392216e-03, 3.85653693e-03, 2.31392216e-03, 5.39915171e-03,
          3.85653693e-03, 8.48438125e-03, 6.55611278e-03, 5.01349801e-03,
          3.08522955e-03, 3.47088324e-03, 5.78480540e-03, 5.39915171e-03,
          3.85653693e-03, 2.31392216e-03, 2.69957585e-03, 7.32742017e-03,
          4.62784432e-03, 1.19552650e-02, 4.24219063e-03, 3.08522955e-03,
          2.31392216e-03, 1.42691862e-02, 4.24219063e-03, 4.24219063e-03,
          4.24219063e-03, 3.47088324e-03, 5.78480540e-03, 2.31392216e-03,
          9.64134187e-03, 3.47088324e-03, 4.62784432e-03, 6.17045909e-03,
          3.08522955e-03, 1.00269960e-02, 5.01349801e-03, 3.47088324e-03,
          2.69957585e-03, 2.31392216e-03, 3.47088324e-03, 6.55611278e-03,
          5.39915171e-03, 4.24219063e-03, 7.32742017e-03, 1.04126502e-02,
          5.01349801e-03, 4.24219063e-03, 4.62784432e-03, 1.54261477e-03,
          8.09872709e-03, 3.47088324e-03, 3.85653693e-03, 6.94176648e-03,
          4.62784432e-03, 2.69957585e-03, 4.24219063e-03, 2.31392216e-03,
          3.85653693e-03, 3.85653693e-03, 3.47088324e-03, 5.39915171e-03,
          3.85653693e-03, 3.08522955e-03, 5.78480540e-03, 5.78480540e-03,
          7.71307386e-04, 6.55611278e-03, 2.69957585e-03, 4.62784432e-03,
          3.85653693e-03, 5.01349801e-03, 6.94176648e-03, 3.85653693e-03,
          7.71307386e-04, 7.71307386e-03, 3.85653693e-03, 1.00269960e-02,
          9.25568864e-03, 2.69957585e-03, 9.25568864e-03, 2.31392216e-03,
          3.08522955e-03, 4.62784432e-03, 4.62784432e-03, 6.55611278e-03,
          3.85653693e-03, 4.24219063e-03, 5.01349801e-03, 3.85653693e-04,
          1.92826847e-03, 5.01349801e-03, 3.08522955e-03, 3.85653693e-03,
          1.19552650e-02, 6.94176648e-03, 5.01349801e-03, 8.09872709e-03,
          3.85653693e-03, 9.25568864e-03, 4.24219063e-03, 5.01349801e-03,
          4.62784432e-03, 5.01349801e-03, 1.92826847e-03, 5.78480540e-03,
          3.85653693e-03, 4.24219063e-03, 7.71307386e-03, 3.08522955e-03,
          3.85653693e-03, 9.25568864e-03, 3.47088324e-03, 6.17045909e-03,
          3.47088324e-03, 1.15696108e-03, 6.94176648e-03, 1.92826847e-03,
          1.00269960e-02, 2.69957585e-03, 4.24219063e-03, 2.69957585e-03,
          5.39915171e-03, 1.42691862e-02, 3.08522955e-03, 2.31392216e-03,
          5.39915171e-03, 3.47088324e-03, 0., 3.85653693e-03,
          4.24219063e-03, 6.55611278e-03, 5.39915171e-03, 3.08522955e-03,
          6.55611278e-03, 6.55611278e-03, 4.24219063e-03, 8.48438125e-03,
          6.94176648e-03, 3.85653693e-03, 4.62784432e-03, 1.00269960e-02,
          5.01349801e-03, 2.69957585e-03, 2.69957585e-03, 3.47088324e-03,
          4.62784432e-03, 7.71307386e-03, 3.08522955e-03, 3.08522955e-03,
          5.78480540e-03, 3.08522955e-03, 5.01349801e-03, 4.24219063e-03,
          4.24219063e-03, 8.48438125e-03, 3.47088324e-03, 4.62784432e-03,
          3.85653693e-03, 8.48438125e-03, 4.62784432e-03, 7.71307386e-03,
          3.85653693e-03, 2.69957585e-03, 5.39915171e-03, 3.85653693e-03,
          6.55611278e-03, 4.62784432e-03, 3.08522955e-03, 3.47088324e-03,
          6.17045909e-03, 5.01349801e-03, 5.78480540e-03, 6.17045909e-03,
          3.47088324e-03, 3.08522955e-03, 6.17045909e-03, 3.47088324e-03,
          8.09872709e-03, 4.24219063e-03, 3.47088324e-03, 7.32742017e-03,
          5.78480540e-03, 6.55611278e-03, 9.25568864e-03, 2.31392216e-03,
          1.54261477e-03, 9.25568864e-03, 8.87003541e-03, 3.47088324e-03,
          4.24219063e-03, 3.85653693e-03, 5.01349801e-03, 3.47088324e-03,
          1.19552650e-02, 6.94176648e-03, 5.39915171e-03, 5.78480540e-03 ]
      - [ 4.89759585e-03, 2.22617993e-03, 8.45948420e-03, 9.79519170e-03,
          5.34283184e-03, 3.56188789e-03, 3.56188789e-03, 4.89759585e-03,
          3.56188789e-03, 1.02404281e-02, 4.89759585e-03, 5.34283184e-03,
          4.45235986e-03, 2.22617993e-03, 3.11665190e-03, 8.90471973e-04,
          8.90471973e-04, 4.89759585e-03, 4.00712388e-03, 5.78806782e-03,
          4.00712388e-03, 1.29118431e-02, 2.22617993e-03, 3.11665190e-03,
          1.78094395e-03, 1.11308992e-02, 3.56188789e-03, 5.34283184e-03,
          7.12377578e-03, 2.67141592e-03, 4.00712388e-03, 3.11665190e-03,
          4.89759585e-03, 3.11665190e-03, 3.11665190e-03, 7.12377578e-03,
          9.34995525e-03, 9.79519170e-03, 2.67141592e-03, 2.67141592e-03,
          3.11665190e-03, 4.00712388e-03, 1.78094395e-03, 3.56188789e-03,
          4.89759585e-03, 2.67141592e-03, 6.23330381e-03, 1.38023160e-02,
          4.45235986e-03, 4.45235986e-03, 1.78094395e-03, 3.56188789e-03,
          1.42475516e-02, 2.22617993e-03, 2.22617993e-03, 1.06856637e-02,
          5.34283184e-03, 3.11665190e-03, 8.01424775e-03, 5.78806782e-03,
          4.89759585e-03, 4.45235986e-04, 4.00712388e-03, 4.00712388e-03,
          4.00712388e-03, 8.90471973e-04, 3.56188789e-03, 8.01424775e-03,
          1.33570796e-03, 1.24666076e-02, 6.23330381e-03, 3.11665190e-03,
          4.89759585e-03, 4.89759585e-03, 2.22617993e-03, 4.00712388e-03,
          0., 9.34995525e-03, 4.89759585e-03, 1.15761356e-02,
          5.34283184e-03, 2.22617993e-03, 1.38023160e-02, 4.45235986e-04,
          4.89759585e-03, 3.11665190e-03, 3.56188789e-03, 4.89759585e-03,
          4.45235986e-03, 7.56901177e-03, 8.45948420e-03, 8.90471973e-04,
          4.89759585e-03, 4.45235986e-03, 1.78094395e-03, 1.78094395e-03,
          1.38023160e-02, 1.33570796e-03, 1.33570796e-03, 1.15761356e-02,
          1.78094395e-03, 1.20213721e-02, 3.56188789e-03, 4.45235986e-03,
          4.89759585e-03, 5.34283184e-03, 1.33570796e-03, 4.89759585e-03,
          2.22617993e-03, 5.78806782e-03, 4.45235986e-03, 1.78094395e-03,
          1.78094395e-03, 8.45948420e-03, 0., 4.45235986e-03,
          2.22617993e-03, 1.78094395e-03, 8.45948420e-03, 2.67141592e-03,
          5.34283184e-03, 3.11665190e-03, 3.56188789e-03, 3.56188789e-03,
          2.22617993e-03, 1.06856637e-02, 4.89759585e-03, 5.78806782e-03,
          5.34283184e-03, 1.78094395e-03, 0., 5.78806782e-03,
          4.00712388e-03, 3.56188789e-03, 7.12377578e-03, 3.11665190e-03,
          6.67853979e-03, 6.23330381e-03, 3.56188789e-03, 1.42475516e-02,
          1.78094395e-03, 6.23330381e-03, 4.89759585e-03, 6.67853979e-03,
          5.34283184e-03, 2.22617993e-03, 5.78806782e-03, 3.56188789e-03,
          4.89759585e-03, 5.78806782e-03, 2.67141592e-03, 8.90471973e-04,
          6.23330381e-03, 2.22617993e-03, 5.78806782e-03, 3.11665190e-03,
          3.56188789e-03, 1.20213721e-02, 5.78806782e-03, 4.45235986e-03,
          4.45235986e-03, 1.46927871e-02, 7.56901177e-03, 1.06856637e-02,
          4.00712388e-03, 1.78094395e-03, 1.11308992e-02, 6.67853979e-03,
          8.90471973e-03, 4.00712388e-03, 2.22617993e-03, 3.56188789e-03,
          7.12377578e-03, 1.20213721e-02, 4.00712388e-03, 4.00712388e-03,
          8.90471973e-04, 4.89759585e-03, 4.45235986e-03, 4.45235986e-03,
          8.90471973e-03, 1.78094395e-03, 3.11665190e-03, 8.90471973e-03,
          4.00712388e-03, 4.89759585e-03, 1.02404281e-02, 1.78094395e-03,
          1.33570796e-03, 8.45948420e-03, 9.79519170e-03, 4.89759585e-03,
          3.11665190e-03, 8.90471973e-04, 5.78806782e-03, 3.11665190e-03,
          3.56188789e-03, 9.34995525e-03, 4.45235986e-03, 4.89759585e-03 ]
      - [ 3.37609742e-03, 2.02565826e-03, 6.07697526e-03, 4.72653611e-03,
          2.02565826e-03, 4.05131653e-03, 4.05131653e-03, 6.75219484e-03,
          7.08980439e-03, 6.07697526e-03, 9.79068223e-03, 4.38892655e-03,
          5.73936524e-03, 5.06414613e-03, 5.40175568e-03, 2.02565826e-03,
          5.73936524e-03, 3.37609742e-03, 3.37609742e-03, 5.06414613e-03,
          4.72653611e-03, 6.75219484e-03, 4.05131653e-03, 2.70087784e-03,
          3.71370697e-03, 9.11546312e-03, 9.11546312e-03, 6.41458482e-03,
          5.40175568e-03, 7.42741395e-03, 8.44024308e-03, 6.75219484e-03,
          7.08980439e-03, 2.02565826e-03, 4.38892655e-03, 6.07697526e-03,
          2.70087784e-03, 8.44024308e-03, 6.07697526e-03, 5.40175568e-03,
          3.71370697e-03, 4.05131653e-03, 5.73936524e-03, 3.37609742e-03,
          6.75219484e-03, 8.77785310e-03, 1.04659013e-02, 6.07697526e-03,
          6.75219484e-03, 2.36326805e-03, 3.37609742e-03, 5.06414613e-03,
          9.79068223e-03, 3.71370697e-03, 1.35043892e-03, 8.77785310e-03,
          2.70087784e-03, 2.02565826e-03, 4.05131653e-03, 1.35043892e-03,
          3.03848763e-03, 7.76502397e-03, 3.71370697e-03, 3.37609742e-03,
          4.72653611e-03, 5.40175568e-03, 6.41458482e-03, 9.79068223e-03,
          2.36326805e-03, 1.65428761e-02, 2.36326805e-03, 3.37609742e-03,
          7.08980439e-03, 3.71370697e-03, 6.41458482e-03, 3.37609742e-03,
          2.36326805e-03, 4.38892655e-03, 5.40175568e-03, 9.79068223e-03,
          6.75219484e-03, 1.35043892e-03, 8.10263306e-03, 5.06414613e-03,
          2.36326805e-03, 3.03848763e-03, 4.05131653e-03, 8.10263306e-03,
          1.31667797e-02, 3.37609742e-03, 4.05131653e-03, 1.68804871e-03,
          3.37609742e-03, 6.75219484e-03, 9.11546312e-03, 4.72653611e-03,
          8.10263306e-03, 6.75219484e-03, 1.68804871e-03, 9.79068223e-03,
          3.37609742e-03, 6.07697526e-03, 2.70087784e-03, 3.03848763e-03,
          7.08980439e-03, 5.06414613e-03, 1.35043892e-03, 1.68804871e-03,
          3.03848763e-03, 7.42741395e-03, 7.08980439e-03, 1.01282913e-03,
          7.42741395e-03, 3.71370697e-03, 5.40175568e-03, 4.38892655e-03,
          3.71370697e-03, 4.05131653e-03, 4.05131653e-03, 1.68804871e-03,
          3.03848763e-03, 7.76502397e-03, 3.03848763e-03, 4.05131653e-03,
          3.03848763e-03, 7.42741395e-03, 4.38892655e-03, 2.36326805e-03,
          7.08980439e-03, 5.73936524e-03, 1.68804871e-03, 4.72653611e-03,
          3.71370697e-03, 4.05131653e-03, 4.05131653e-03, 2.36326805e-03,
          3.71370697e-03, 8.77785310e-03, 3.37609742e-03, 1.24915596e-02,
          5.06414613e-03, 3.71370697e-03, 8.10263306e-03, 3.03848763e-03,
          4.72653611e-03, 1.35043892e-03, 4.72653611e-03, 2.02565826e-03,
          4.05131653e-03, 3.03848763e-03, 3.71370697e-03, 1.01282913e-03,
          3.37609742e-03, 1.68804871e-03, 9.11546312e-03, 3.37609742e-03,
          5.06414613e-03, 6.07697526e-03, 2.02565826e-03, 5.73936524e-03,
          3.03848763e-03, 5.73936524e-03, 2.70087784e-03, 6.75219484e-03,
          4.05131653e-03, 3.71370697e-03, 1.14787305e-02, 3.03848763e-03,
          8.77785310e-03, 4.05131653e-03, 3.71370697e-03, 2.70087784e-03,
          5.40175568e-03, 3.03848763e-03, 7.76502397e-03, 5.06414613e-03,
          5.73936524e-03, 2.36326805e-03, 3.71370697e-03, 4.38892655e-03,
          7.08980439e-03, 5.06414613e-03, 5.06414613e-03, 9.45307221e-03,
          6.75219484e-03, 4.05131653e-03, 6.75219484e-03, 3.03848763e-03,
          6.41458482e-03, 5.40175568e-03, 5.73936524e-03, 2.70087784e-03,
          4.05131653e-03, 5.06414613e-03, 5.40175568e-03, 4.72653611e-03,
          3.71370697e-03, 4.72653611e-03, 6.41458482e-03, 3.71370697e-03 ]
      - [ 2.86669843e-03, 1.91113236e-03, 6.68896316e-03, 7.16674654e-03,
          3.34448158e-03, 3.34448158e-03, 2.86669843e-03, 5.73339686e-03,
          4.30004764e-03, 1.00334445e-02, 5.73339686e-03, 1.91113236e-03,
          9.55566182e-04, 1.91113236e-03, 6.68896316e-03, 4.77783103e-03,
          2.38891551e-03, 1.91113236e-03, 1.43334921e-03, 6.68896316e-03,
          1.91113236e-03, 1.14667937e-02, 4.30004764e-03, 1.91113236e-03,
          1.43334921e-03, 5.73339686e-03, 8.12231284e-03, 8.60009529e-03,
          3.82226473e-03, 9.55566182e-04, 2.86669843e-03, 9.55566182e-04,
          5.73339686e-03, 5.25561394e-03, 2.86669843e-03, 8.12231284e-03,
          6.21118024e-03, 9.55566205e-03, 2.38891551e-03, 1.91113236e-03,
          7.16674654e-03, 1.91113236e-03, 2.38891551e-03, 8.60009529e-03,
          5.25561394e-03, 2.38891551e-03, 3.34448158e-03, 1.19445771e-02,
          2.86669843e-03, 2.38891551e-03, 3.82226473e-03, 2.38891551e-03,
          1.14667937e-02, 1.91113236e-03, 2.38891551e-03, 8.12231284e-03,
          4.77783103e-03, 1.43334921e-03, 4.77783103e-03, 5.25561394e-03,
          5.25561394e-03, 1.43334921e-03, 3.82226473e-03, 1.91113236e-03,
          5.25561394e-03, 2.86669843e-03, 4.30004764e-03, 8.12231284e-03,
          4.77783091e-04, 1.81557573e-02, 2.86669843e-03, 2.86669843e-03,
          4.77783103e-03, 3.82226473e-03, 3.82226473e-03, 1.91113236e-03,
          2.86669843e-03, 1.00334445e-02, 5.25561394e-03, 1.43334931e-02,
          7.16674654e-03, 2.86669843e-03, 1.86335407e-02, 1.91113236e-03,
          2.38891551e-03, 4.30004764e-03, 3.82226473e-03, 3.82226473e-03,
          2.38891551e-03, 4.77783103e-03, 1.05112279e-02, 9.55566182e-04,
          3.34448158e-03, 6.21118024e-03, 1.91113236e-03, 1.43334921e-03,
          1.76779740e-02, 3.34448158e-03, 3.82226473e-03, 7.64452945e-03,
          4.77783103e-03, 1.43334931e-02, 2.38891551e-03, 5.25561394e-03,
          4.77783103e-03, 4.77783103e-03, 2.38891551e-03, 8.12231284e-03,
          1.43334921e-03, 3.34448158e-03, 5.73339686e-03, 1.91113236e-03,
          3.34448158e-03, 1.00334445e-02, 2.38891551e-03, 4.30004764e-03,
          4.30004764e-03, 2.86669843e-03, 6.68896316e-03, 2.86669843e-03,
          4.30004764e-03, 1.43334921e-03, 2.38891551e-03, 1.91113236e-03,
          2.38891551e-03, 1.09890113e-02, 2.86669843e-03, 4.77783103e-03,
          6.68896316e-03, 1.91113236e-03, 1.91113236e-03, 3.34448158e-03,
          2.38891551e-03, 4.30004764e-03, 6.21118024e-03, 2.86669843e-03,
          3.82226473e-03, 4.77783103e-03, 3.82226473e-03, 2.24558059e-02,
          2.38891551e-03, 6.68896316e-03, 4.77783103e-03, 7.16674654e-03,
          6.68896316e-03, 1.43334921e-03, 6.68896316e-03, 3.34448158e-03,
          2.86669843e-03, 7.16674654e-03, 3.34448158e-03, 9.55566182e-04,
          3.82226473e-03, 9.55566182e-04, 5.25561394e-03, 4.30004764e-03,
          3.34448158e-03, 8.12231284e-03, 3.34448158e-03, 3.82226473e-03,
          4.30004764e-03, 1.43334931e-02, 7.16674654e-03, 1.09890113e-02,
          2.38891551e-03, 1.43334921e-03, 1.09890113e-02, 6.21118024e-03,
          6.21118024e-03, 4.77783103e-03, 2.86669843e-03, 2.86669843e-03,
          8.12231284e-03, 5.25561394e-03, 6.21118024e-03, 4.30004764e-03,
          3.34448158e-03, 1.91113236e-03, 6.68896316e-03, 5.25561394e-03,
          6.21118024e-03, 1.91113236e-03, 2.86669843e-03, 1.72001906e-02,
          2.86669843e-03, 9.07787867e-03, 9.07787867e-03, 4.77783103e-03,
          1.43334921e-03, 1.09890113e-02, 8.12231284e-03, 3.34448158e-03,
          1.43334921e-03, 2.38891551e-03, 5.25561394e-03, 2.38891551e-03,
          7.64452945e-03, 1.09890113e-02, 5.25561394e-03, 8.60009529e-03 ]
      - [ 2.99017504e-03, 2.56300718e-03, 8.11618939e-03, 5.98035008e-03,
          2.56300718e-03, 4.27167863e-03, 2.99017504e-03, 7.26185367e-03,
          6.40751794e-03, 8.54335725e-03, 4.69884649e-03, 2.99017504e-03,
          4.27167863e-03, 4.27167863e-03, 7.26185367e-03, 5.12601435e-03,
          5.98035008e-03, 3.84451076e-03, 4.27167863e-03, 6.40751794e-03,
          1.70867145e-03, 1.19607002e-02, 2.13583931e-03, 2.56300718e-03,
          3.84451076e-03, 5.98035008e-03, 3.84451076e-03, 4.69884649e-03,
          8.54335725e-03, 2.56300718e-03, 3.84451076e-03, 2.13583931e-03,
          8.54335725e-03, 6.83468580e-03, 3.84451076e-03, 5.55318221e-03,
          4.69884649e-03, 1.15335323e-02, 3.41734290e-03, 1.70867145e-03,
          3.84451076e-03, 2.56300718e-03, 3.84451076e-03, 3.84451076e-03,
          3.84451076e-03, 3.41734290e-03, 5.98035008e-03, 9.82486084e-03,
          3.84451076e-03, 3.84451076e-03, 3.84451076e-03, 3.41734290e-03,
          8.97052512e-03, 3.41734290e-03, 5.12601435e-03, 9.82486084e-03,
          5.98035008e-03, 4.27167863e-03, 4.69884649e-03, 2.13583931e-03,
          6.40751794e-03, 1.70867145e-03, 5.98035008e-03, 2.99017504e-03,
          2.56300718e-03, 2.99017504e-03, 3.41734290e-03, 5.98035008e-03,
          2.13583931e-03, 1.28150359e-02, 2.56300718e-03, 5.98035008e-03,
          5.12601435e-03, 4.69884649e-03, 3.41734290e-03, 8.11618939e-03,
          8.54335725e-04, 7.26185367e-03, 6.40751794e-03, 1.36693716e-02,
          5.12601435e-03, 2.13583931e-03, 1.87953860e-02, 8.54335725e-04,
          2.99017504e-03, 2.99017504e-03, 3.84451076e-03, 1.28150359e-02,
          1.70867145e-03, 3.84451076e-03, 8.54335725e-03, 2.99017504e-03,
          1.70867145e-03, 5.12601435e-03, 2.99017504e-03, 3.41734290e-03,
          1.45237073e-02, 3.84451076e-03, 1.70867145e-03, 1.06791966e-02,
          5.12601435e-03, 7.68902153e-03, 2.99017504e-03, 3.41734290e-03,
          3.41734290e-03, 2.99017504e-03, 2.56300718e-03, 7.68902153e-03,
          2.99017504e-03, 3.84451076e-03, 4.27167863e-03, 2.13583931e-03,
          1.28150359e-03, 1.15335323e-02, 1.70867145e-03, 2.56300718e-03,
          1.70867145e-03, 8.54335725e-04, 1.02520287e-02, 3.41734290e-03,
          2.99017504e-03, 5.12601435e-03, 5.55318221e-03, 2.13583931e-03,
          2.99017504e-03, 1.06791966e-02, 2.56300718e-03, 2.56300718e-03,
          5.55318221e-03, 4.27167863e-03, 1.28150359e-03, 3.84451076e-03,
          2.56300718e-03, 4.27167863e-03, 8.54335725e-03, 1.70867145e-03,
          5.12601435e-03, 1.15335323e-02, 3.84451076e-03, 1.75138824e-02,
          3.41734290e-03, 4.27167863e-03, 4.27167863e-03, 6.40751794e-03,
          4.27167863e-03, 3.41734290e-03, 5.98035008e-03, 3.41734290e-03,
          5.12601435e-03, 4.69884649e-03, 5.12601435e-03, 1.28150359e-03,
          3.41734290e-03, 3.41734290e-03, 8.54335725e-03, 3.84451076e-03,
          4.27167863e-03, 9.82486084e-03, 4.27167863e-03, 3.41734290e-03,
          1.28150359e-03, 1.06791966e-02, 4.27167863e-03, 9.39769298e-03,
          1.70867145e-03, 5.12601435e-03, 8.54335725e-03, 7.26185367e-03,
          7.26185367e-03, 2.99017504e-03, 3.84451076e-03, 1.28150359e-03,
          5.55318221e-03, 1.02520287e-02, 3.84451076e-03, 7.68902153e-03,
          5.55318221e-03, 2.13583931e-03, 5.55318221e-03, 5.12601435e-03,
          1.06791966e-02, 2.99017504e-03, 3.41734290e-03, 8.11618939e-03,
          3.84451076e-03, 5.98035008e-03, 9.82486084e-03, 2.13583931e-03,
          2.56300718e-03, 7.26185367e-03, 5.98035008e-03, 2.13583931e-03,
          2.56300718e-03, 4.27167863e-03, 3.84451076e-03, 8.54335725e-04,
          3.84451076e-03, 7.68902153e-03, 4.27167863e-03, 5.55318221e-03 ]
      - [ 4.05514985e-03, 2.83860485e-03, 8.11029971e-03, 8.92132986e-03,
          2.83860485e-03, 8.92132986e-03, 8.11029982e-04, 4.86618001e-03,
          4.86618001e-03, 6.89375494e-03, 6.08272478e-03, 2.83860485e-03,
          5.27169509e-03, 5.27169509e-03, 6.08272478e-03, 2.02757493e-03,
          2.43309001e-03, 3.24411993e-03, 2.83860485e-03, 6.08272478e-03,
          4.05514985e-03, 7.70478463e-03, 4.86618001e-03, 2.83860485e-03,
          4.46066493e-03, 1.33819943e-02, 4.46066493e-03, 8.11029971e-03,
          6.48823986e-03, 1.62205996e-03, 3.24411993e-03, 2.02757493e-03,
          9.32684448e-03, 4.05514985e-03, 2.43309001e-03, 6.08272478e-03,
          4.05514985e-03, 1.01378746e-02, 2.43309001e-03, 2.83860485e-03,
          4.46066493e-03, 3.64963501e-03, 4.05514985e-03, 4.05514985e-03,
          6.48823986e-03, 3.64963501e-03, 5.67720970e-03, 7.70478463e-03,
          4.05514985e-03, 2.83860485e-03, 2.43309001e-03, 3.64963501e-03,
          1.13544194e-02, 2.83860485e-03, 3.64963501e-03, 9.73236002e-03,
          8.11029971e-03, 2.43309001e-03, 8.11029971e-03, 3.64963501e-03,
          4.05514985e-03, 2.83860485e-03, 4.05514985e-03, 2.02757493e-03,
          4.05514985e-03, 3.24411993e-03, 6.89375494e-03, 6.48823986e-03,
          4.05514991e-04, 1.45985400e-02, 3.64963501e-03, 8.11029982e-04,
          6.08272478e-03, 2.02757493e-03, 4.86618001e-03, 4.86618001e-03,
          4.05514991e-04, 5.67720970e-03, 6.89375494e-03, 9.32684448e-03,
          7.29927002e-03, 2.02757493e-03, 1.50040546e-02, 2.83860485e-03,
          4.86618001e-03, 2.43309001e-03, 7.70478463e-03, 7.29927002e-03,
          4.05514985e-03, 4.46066493e-03, 8.11029971e-03, 2.83860485e-03,
          4.46066493e-03, 2.43309001e-03, 1.21654500e-03, 2.83860485e-03,
          1.17599349e-02, 3.24411993e-03, 1.21654500e-03, 9.73236002e-03,
          2.02757493e-03, 1.29764797e-02, 5.27169509e-03, 4.46066493e-03,
          6.08272478e-03, 6.48823986e-03, 2.02757493e-03, 6.08272478e-03,
          1.62205996e-03, 6.48823986e-03, 7.29927002e-03, 1.21654500e-03,
          3.64963501e-03, 6.08272478e-03, 3.64963501e-03, 2.43309001e-03,
          3.24411993e-03, 1.21654500e-03, 8.11029971e-03, 2.02757493e-03,
          6.48823986e-03, 3.24411993e-03, 5.27169509e-03, 3.64963501e-03,
          2.83860485e-03, 1.13544194e-02, 2.83860485e-03, 2.43309001e-03,
          2.83860485e-03, 3.64963501e-03, 4.05514991e-04, 2.43309001e-03,
          3.64963501e-03, 3.64963501e-03, 4.86618001e-03, 3.24411993e-03,
          4.05514985e-03, 1.01378746e-02, 7.70478463e-03, 7.70478463e-03,
          3.64963501e-03, 6.08272478e-03, 4.05514985e-03, 7.29927002e-03,
          3.64963501e-03, 4.86618001e-03, 4.46066493e-03, 2.83860485e-03,
          4.46066493e-03, 4.46066493e-03, 2.43309001e-03, 2.43309001e-03,
          3.24411993e-03, 1.62205996e-03, 3.64963501e-03, 5.67720970e-03,
          4.05514985e-03, 9.73236002e-03, 4.86618001e-03, 7.29927002e-03,
          4.05514985e-03, 1.37875099e-02, 4.46066493e-03, 1.50040546e-02,
          4.05514985e-03, 4.05514985e-03, 1.25709651e-02, 6.48823986e-03,
          6.08272478e-03, 6.08272478e-03, 2.83860485e-03, 3.64963501e-03,
          6.08272478e-03, 3.64963501e-03, 6.48823986e-03, 6.08272478e-03,
          2.83860485e-03, 2.43309001e-03, 6.08272478e-03, 4.05514985e-03,
          1.01378746e-02, 2.83860485e-03, 5.27169509e-03, 1.25709651e-02,
          2.43309001e-03, 4.86618001e-03, 5.67720970e-03, 3.24411993e-03,
          2.43309001e-03, 9.32684448e-03, 7.29927002e-03, 1.62205996e-03,
          3.24411993e-03, 5.67720970e-03, 5.27169509e-03, 1.62205996e-03,
          6.89375494e-03, 5.67720970e-03, 2.83860485e-03, 2.83860485e-03 ]
      - [ 5.67802275e-03, 4.00801608e-03, 4.67601884e-03, 5.34402160e-03,
          2.67201080e-03, 5.67802275e-03, 6.68002700e-04, 4.67601884e-03,
          6.01202436e-03, 7.01402826e-03, 6.68002712e-03, 3.00601218e-03,
          3.00601218e-03, 4.67601884e-03, 2.67201080e-03, 3.00601218e-03,
          7.01402826e-03, 2.00400804e-03, 5.01002045e-03, 6.68002712e-03,
          4.00801608e-03, 8.35003331e-03, 6.68002712e-03, 1.33600540e-03,
          5.67802275e-03, 2.67201080e-03, 7.01402826e-03, 7.68203102e-03,
          6.34602550e-03, 2.67201080e-03, 7.01402826e-03, 4.34201770e-03,
          6.01202436e-03, 3.67401494e-03, 4.00801608e-03, 4.00801608e-03,
          6.34602550e-03, 8.68403539e-03, 4.34201770e-03, 2.33800942e-03,
          2.33800942e-03, 4.34201770e-03, 3.34001356e-03, 4.34201770e-03,
          5.01002045e-03, 5.01002045e-03, 3.67401494e-03, 8.35003331e-03,
          5.67802275e-03, 6.34602550e-03, 2.67201080e-03, 3.67401494e-03,
          9.35203768e-03, 2.00400804e-03, 3.34001356e-03, 1.03540421e-02,
          6.01202436e-03, 3.67401494e-03, 9.01803654e-03, 4.00801608e-03,
          4.67601884e-03, 3.67401494e-03, 4.00801608e-03, 5.34402160e-03,
          2.33800942e-03, 3.67401494e-03, 4.34201770e-03, 9.35203768e-03,
          1.33600540e-03, 1.40280565e-02, 4.00801608e-03, 3.00601218e-03,
          6.01202436e-03, 5.01002045e-03, 4.67601884e-03, 8.01603217e-03,
          3.00601218e-03, 4.34201770e-03, 3.34001356e-03, 7.34802987e-03,
          6.68002712e-03, 2.67201080e-03, 1.10220443e-02, 1.67000678e-03,
          4.00801608e-03, 6.68002712e-03, 7.34802987e-03, 7.34802987e-03,
          5.67802275e-03, 4.00801608e-03, 5.34402160e-03, 3.67401494e-03,
          4.34201770e-03, 6.34602550e-03, 4.67601884e-03, 3.00601218e-03,
          1.16900476e-02, 6.34602550e-03, 2.33800942e-03, 8.35003331e-03,
          3.67401494e-03, 7.01402826e-03, 2.33800942e-03, 4.67601884e-03,
          7.68203102e-03, 3.67401494e-03, 2.33800942e-03, 2.67201080e-03,
          3.00601218e-03, 4.34201770e-03, 3.34001356e-03, 2.67201080e-03,
          1.67000678e-03, 1.16900476e-02, 2.67201080e-03, 3.67401494e-03,
          4.34201770e-03, 3.67401494e-03, 9.68603883e-03, 4.34201770e-03,
          5.01002045e-03, 4.67601884e-03, 5.34402160e-03, 3.00601218e-03,
          3.67401494e-03, 9.01803654e-03, 3.00601218e-03, 3.34001356e-03,
          4.34201770e-03, 4.67601884e-03, 1.33600540e-03, 3.00601218e-03,
          5.67802275e-03, 4.34201770e-03, 6.68002712e-03, 2.33800942e-03,
          5.01002045e-03, 8.68403539e-03, 6.68002712e-03, 1.46960597e-02,
          2.67201080e-03, 2.33800942e-03, 7.34802987e-03, 5.34402160e-03,
          5.34402160e-03, 3.67401494e-03, 4.67601884e-03, 3.67401494e-03,
          4.34201770e-03, 9.01803654e-03, 2.33800942e-03, 4.00801608e-03,
          5.01002045e-03, 4.34201770e-03, 5.67802275e-03, 2.67201080e-03,
          4.00801608e-03, 1.00200409e-02, 3.00601218e-03, 5.01002045e-03,
          3.34001356e-03, 7.01402826e-03, 9.01803654e-03, 1.13560455e-02,
          5.01002045e-03, 4.00801608e-03, 8.01603217e-03, 4.34201770e-03,
          7.01402826e-03, 3.00601218e-03, 4.00801608e-03, 3.67401494e-03,
          7.01402826e-03, 4.67601884e-03, 7.01402826e-03, 6.34602550e-03,
          4.34201770e-03, 3.00601218e-03, 4.00801608e-03, 3.67401494e-03,
          5.67802275e-03, 4.00801608e-03, 6.01202436e-03, 7.01402826e-03,
          3.34001356e-03, 4.67601884e-03, 8.35003331e-03, 2.00400804e-03,
          2.67201080e-03, 7.01402826e-03, 4.00801608e-03, 3.34001356e-03,
          3.67401494e-03, 4.67601884e-03, 3.67401494e-03, 5.34402160e-03,
          2.00400804e-03, 6.34602550e-03, 3.34001356e-03, 4.00801608e-03 ]
      - [ 3.80952377e-03, 4.44444409e-03, 8.57142825e-03, 3.49206338e-03,
          2.85714283e-03, 5.71428565e-03, 2.53968243e-03, 4.12698416e-03,
          6.66666636e-03, 5.39682526e-03, 4.12698416e-03, 5.07936487e-03,
          3.80952377e-03, 2.85714283e-03, 4.44444409e-03, 4.12698416e-03,
          5.71428565e-03, 3.17460299e-03, 3.49206338e-03, 7.93650746e-03,
          3.80952377e-03, 1.01587297e-02, 4.76190448e-03, 1.90476188e-03,
          5.71428565e-03, 4.12698416e-03, 5.71428565e-03, 4.12698416e-03,
          6.34920597e-03, 2.22222204e-03, 7.30158715e-03, 3.49206338e-03,
          4.44444409e-03, 3.49206338e-03, 4.76190448e-03, 5.07936487e-03,
          4.12698416e-03, 1.11111104e-02, 3.49206338e-03, 4.44444409e-03,
          3.80952377e-03, 5.71428565e-03, 5.39682526e-03, 2.85714283e-03,
          5.71428565e-03, 4.44444409e-03, 6.34920597e-03, 5.39682526e-03,
          5.71428565e-03, 6.03174558e-03, 5.39682526e-03, 3.17460299e-03,
          7.61904754e-03, 5.07936487e-03, 1.26984122e-03, 7.30158715e-03,
          6.34920597e-03, 4.12698416e-03, 8.57142825e-03, 3.17460299e-03,
          4.12698416e-03, 2.85714283e-03, 4.12698416e-03, 5.07936487e-03,
          2.22222204e-03, 6.03174558e-03, 3.49206338e-03, 1.07936505e-02,
          2.53968243e-03, 1.26984119e-02, 6.34920597e-03, 4.44444409e-03,
          7.61904754e-03, 4.44444409e-03, 6.98412675e-03, 7.61904754e-03,
          2.22222204e-03, 6.03174558e-03, 2.22222204e-03, 7.61904754e-03,
          6.03174558e-03, 2.22222204e-03, 8.57142825e-03, 5.07936487e-03,
          4.12698416e-03, 5.07936487e-03, 1.07936505e-02, 8.25396832e-03,
          7.61904754e-03, 5.39682526e-03, 3.80952377e-03, 3.80952377e-03,
          4.12698416e-03, 6.34920597e-03, 4.44444409e-03, 4.76190448e-03,
          5.71428565e-03, 6.34920597e-03, 2.22222204e-03, 9.20634903e-03,
          2.53968243e-03, 4.76190448e-03, 3.17460299e-03, 4.12698416e-03,
          7.93650746e-03, 6.03174558e-03, 2.22222204e-03, 5.07936487e-03,
          3.80952377e-03, 5.71428565e-03, 6.34920597e-03, 1.90476188e-03,
          2.85714283e-03, 7.93650746e-03, 2.22222204e-03, 3.17460299e-03,
          6.03174558e-03, 2.22222204e-03, 6.98412675e-03, 1.90476188e-03,
          6.66666636e-03, 2.85714283e-03, 5.07936487e-03, 3.80952377e-03,
          3.80952377e-03, 5.07936487e-03, 5.07936487e-03, 3.80952377e-03,
          6.03174558e-03, 3.17460299e-03, 3.49206338e-03, 5.39682526e-03,
          6.34920597e-03, 5.39682526e-03, 2.85714283e-03, 4.12698416e-03,
          6.98412675e-03, 5.71428565e-03, 6.03174558e-03, 1.46031743e-02,
          3.17460299e-03, 3.80952377e-03, 6.98412675e-03, 3.49206338e-03,
          3.17460299e-03, 1.90476188e-03, 4.44444409e-03, 2.53968243e-03,
          6.34920597e-03, 5.39682526e-03, 4.12698416e-03, 2.85714283e-03,
          5.39682526e-03, 2.22222204e-03, 6.66666636e-03, 4.76190448e-03,
          4.44444409e-03, 6.66666636e-03, 3.17460299e-03, 1.58730149e-03,
          5.07936487e-03, 8.25396832e-03, 6.03174558e-03, 1.01587297e-02,
          2.85714283e-03, 1.90476188e-03, 9.84126981e-03, 2.85714283e-03,
          7.61904754e-03, 2.22222204e-03, 4.44444409e-03, 3.17460299e-03,
          5.39682526e-03, 3.49206338e-03, 8.57142825e-03, 4.76190448e-03,
          5.71428565e-03, 3.17460299e-03, 4.76190448e-03, 3.49206338e-03,
          9.84126981e-03, 5.39682526e-03, 8.25396832e-03, 6.66666636e-03,
          3.80952377e-03, 4.44444409e-03, 7.61904754e-03, 3.17460299e-03,
          3.80952377e-03, 6.03174558e-03, 3.80952377e-03, 5.07936487e-03,
          3.49206338e-03, 5.39682526e-03, 3.17460299e-03, 2.22222204e-03,
          2.22222204e-03, 8.25396832e-03, 2.85714283e-03, 4.12698416e-03 ]
      - [ 4.00355877e-03, 1.33451959e-03, 4.44839848e-03, 8.89679696e-03,
          3.11387889e-03, 3.11387889e-03, 8.89679708e-04, 4.44839848e-03,
          5.78291807e-03, 7.11743766e-03, 1.29003562e-02, 4.44839848e-03,
          5.78291807e-03, 5.33807836e-03, 6.22775778e-03, 2.22419924e-03,
          2.66903918e-03, 1.33451959e-03, 3.11387889e-03, 4.89323819e-03,
          3.11387889e-03, 8.00711755e-03, 7.11743766e-03, 3.55871883e-03,
          4.00355877e-03, 9.78647638e-03, 9.34163667e-03, 4.89323819e-03,
          8.45195726e-03, 2.22419924e-03, 4.44839848e-03, 9.34163667e-03,
          3.55871883e-03, 4.89323819e-03, 1.77935942e-03, 5.78291807e-03,
          4.00355877e-03, 1.20106759e-02, 7.11743766e-03, 4.44839848e-03,
          5.33807836e-03, 3.55871883e-03, 1.77935942e-03, 3.55871883e-03,
          3.11387889e-03, 5.78291807e-03, 5.78291807e-03, 4.89323819e-03,
          3.11387889e-03, 4.89323819e-03, 3.55871883e-03, 2.66903918e-03,
          1.11209964e-02, 1.77935942e-03, 1.33451959e-03, 8.45195726e-03,
          4.89323819e-03, 1.77935942e-03, 6.22775778e-03, 3.11387889e-03,
          3.55871883e-03, 3.11387889e-03, 2.66903918e-03, 2.66903918e-03,
          3.11387889e-03, 5.78291807e-03, 4.00355877e-03, 6.22775778e-03,
          8.89679708e-04, 2.71352306e-02, 8.89679708e-04, 2.66903918e-03,
          6.22775778e-03, 2.66903918e-03, 4.00355877e-03, 4.89323819e-03,
          5.33807836e-03, 5.78291807e-03, 1.33451959e-03, 1.29003562e-02,
          5.78291807e-03, 2.66903918e-03, 1.24555156e-02, 1.33451959e-03,
          2.66903918e-03, 4.00355877e-03, 5.78291807e-03, 7.11743766e-03,
          7.11743766e-03, 3.11387889e-03, 7.11743766e-03, 8.89679708e-04,
          2.66903918e-03, 5.78291807e-03, 1.77935942e-03, 2.22419924e-03,
          1.51245547e-02, 5.33807836e-03, 0., 1.33451959e-02,
          2.22419924e-03, 7.11743766e-03, 4.44839848e-03, 3.55871883e-03,
          7.56227737e-03, 5.78291807e-03, 4.44839854e-04, 3.55871883e-03,
          5.33807836e-03, 8.45195726e-03, 1.20106759e-02, 1.77935942e-03,
          1.77935942e-03, 6.22775778e-03, 1.77935942e-03, 4.44839848e-03,
          2.66903918e-03, 1.77935942e-03, 6.67259796e-03, 1.77935942e-03,
          4.00355877e-03, 4.00355877e-03, 2.66903918e-03, 1.77935942e-03,
          3.55871883e-03, 1.37900356e-02, 4.00355877e-03, 8.89679708e-04,
          8.00711755e-03, 2.22419924e-03, 2.22419924e-03, 3.11387889e-03,
          2.22419924e-03, 3.55871883e-03, 4.00355877e-03, 3.55871883e-03,
          3.55871883e-03, 6.67259796e-03, 2.22419924e-03, 2.00177934e-02,
          3.55871883e-03, 3.11387889e-03, 4.44839848e-03, 8.89679696e-03,
          3.55871883e-03, 4.44839848e-03, 5.78291807e-03, 5.33807836e-03,
          3.11387889e-03, 4.89323819e-03, 1.33451959e-03, 1.77935942e-03,
          2.22419924e-03, 3.55871883e-03, 6.67259796e-03, 4.89323819e-03,
          4.89323819e-03, 1.15658361e-02, 5.33807836e-03, 2.22419924e-03,
          2.66903918e-03, 9.34163667e-03, 3.11387889e-03, 1.20106759e-02,
          4.44839848e-03, 2.66903918e-03, 1.11209964e-02, 4.44839848e-03,
          1.37900356e-02, 3.11387889e-03, 4.00355877e-03, 3.11387889e-03,
          3.55871883e-03, 6.22775778e-03, 9.34163667e-03, 1.15658361e-02,
          4.00355877e-03, 1.33451959e-03, 4.89323819e-03, 4.44839848e-03,
          4.89323819e-03, 3.11387889e-03, 7.11743766e-03, 1.46797150e-02,
          3.55871883e-03, 3.55871883e-03, 8.89679696e-03, 8.89679708e-04,
          2.22419924e-03, 6.22775778e-03, 6.22775778e-03, 4.89323819e-03,
          8.89679708e-04, 4.89323819e-03, 2.22419924e-03, 1.33451959e-03,
          4.89323819e-03, 8.45195726e-03, 1.77935942e-03, 4.00355877e-03 ]
      - [ 1.49328029e-03, 2.48880032e-03, 7.96416122e-03, 9.95520130e-03,
          2.48880032e-03, 3.48432059e-03, 0., 5.47536090e-03,
          3.48432059e-03, 7.96416122e-03, 7.96416122e-03, 2.48880032e-03,
          1.49328029e-03, 2.98656058e-03, 4.97760065e-03, 3.98208061e-03,
          2.98656058e-03, 5.47536090e-03, 5.47536090e-03, 9.45744105e-03,
          9.95520153e-04, 1.29417619e-02, 6.47088094e-03, 1.99104031e-03,
          3.98208061e-03, 7.96416122e-03, 3.48432059e-03, 5.47536090e-03,
          5.97312115e-03, 9.95520153e-04, 3.98208061e-03, 4.97760065e-03,
          8.46192148e-03, 6.47088094e-03, 9.95520153e-04, 4.97760065e-03,
          3.98208061e-03, 1.34395221e-02, 2.48880032e-03, 1.99104031e-03,
          2.98656058e-03, 4.97760077e-04, 2.48880032e-03, 5.47536090e-03,
          6.47088094e-03, 2.98656058e-03, 7.46640097e-03, 7.96416122e-03,
          4.97760065e-03, 4.97760065e-03, 1.99104031e-03, 3.48432059e-03,
          9.95520130e-03, 2.48880032e-03, 2.98656058e-03, 1.29417619e-02,
          4.97760065e-03, 4.97760077e-04, 4.97760065e-03, 2.48880032e-03,
          4.47984086e-03, 0., 5.47536090e-03, 3.98208061e-03,
          3.98208061e-03, 2.98656058e-03, 1.49328029e-03, 5.47536090e-03,
          0., 1.79193635e-02, 2.98656058e-03, 2.48880032e-03,
          4.97760065e-03, 3.98208061e-03, 3.98208061e-03, 5.47536090e-03,
          9.95520153e-04, 8.46192148e-03, 1.99104031e-03, 1.59283224e-02,
          3.98208061e-03, 2.48880032e-03, 1.79193635e-02, 2.48880032e-03,
          4.47984086e-03, 4.47984086e-03, 7.46640097e-03, 5.47536090e-03,
          1.49328029e-03, 2.98656058e-03, 8.95968173e-03, 1.49328029e-03,
          2.48880032e-03, 3.48432059e-03, 2.98656058e-03, 1.49328029e-03,
          1.69238430e-02, 3.48432059e-03, 9.95520153e-04, 9.95520130e-03,
          5.47536090e-03, 1.64260827e-02, 4.47984086e-03, 3.48432059e-03,
          3.98208061e-03, 4.47984086e-03, 1.49328029e-03, 6.96864119e-03,
          1.49328029e-03, 2.48880032e-03, 4.97760065e-03, 5.47536090e-03,
          1.49328029e-03, 1.24440016e-02, 9.95520153e-04, 3.98208061e-03,
          2.98656058e-03, 1.99104031e-03, 9.95520130e-03, 2.48880032e-03,
          5.47536090e-03, 3.98208061e-03, 4.47984086e-03, 1.99104031e-03,
          1.49328029e-03, 1.59283224e-02, 2.48880032e-03, 2.98656058e-03,
          5.97312115e-03, 3.48432059e-03, 3.98208061e-03, 2.98656058e-03,
          9.95520153e-04, 3.48432059e-03, 7.96416122e-03, 2.48880032e-03,
          2.98656058e-03, 6.96864119e-03, 3.98208061e-03, 2.23992039e-02,
          4.47984086e-03, 3.98208061e-03, 4.47984086e-03, 1.29417619e-02,
          5.97312115e-03, 1.99104031e-03, 3.48432059e-03, 4.47984086e-03,
          3.98208061e-03, 5.97312115e-03, 2.98656058e-03, 1.99104031e-03,
          1.99104031e-03, 1.49328029e-03, 2.98656058e-03, 4.47984086e-03,
          4.97760065e-03, 1.49328019e-02, 3.48432059e-03, 4.97760065e-03,
          2.48880032e-03, 9.45744105e-03, 5.47536090e-03, 9.95520130e-03,
          9.95520153e-04, 2.98656058e-03, 1.14484821e-02, 8.95968173e-03,
          8.46192148e-03, 1.49328029e-03, 1.99104031e-03, 1.49328029e-03,
          6.47088094e-03, 6.96864119e-03, 7.96416122e-03, 6.96864119e-03,
          1.99104031e-03, 3.48432059e-03, 5.47536090e-03, 4.47984086e-03,
          3.48432059e-03, 2.48880032e-03, 3.98208061e-03, 1.59283224e-02,
          1.99104031e-03, 2.98656058e-03, 6.96864119e-03, 4.97760077e-04,
          2.98656058e-03, 8.95968173e-03, 9.95520130e-03, 4.47984086e-03,
          3.98208061e-03, 1.99104031e-03, 5.47536090e-03, 1.49328029e-03,
          3.48432059e-03, 7.46640097e-03, 3.98208061e-03, 8.46192148e-03 ]
      - [ 4.00600908e-03, 1.00150227e-03, 9.51427128e-03, 7.51126697e-03,
          5.50826266e-03, 3.00450670e-03, 2.00300454e-03, 3.50525789e-03,
          2.00300454e-03, 1.40210316e-02, 5.50826266e-03, 5.00751147e-03,
          1.50225335e-03, 3.50525789e-03, 3.50525789e-03, 1.50225335e-03,
          2.50375574e-03, 2.50375574e-03, 4.00600908e-03, 9.01352055e-03,
          4.50676028e-03, 8.51276889e-03, 3.00450670e-03, 3.00450670e-03,
          3.00450670e-03, 5.00751147e-03, 5.00751147e-03, 5.50826266e-03,
          6.00901339e-03, 1.00150227e-03, 3.50525789e-03, 2.00300454e-03,
          6.50976459e-03, 6.50976459e-03, 3.50525789e-03, 3.00450670e-03,
          3.00450670e-03, 1.00150229e-02, 2.00300454e-03, 2.00300454e-03,
          6.00901339e-03, 1.50225335e-03, 4.50676028e-03, 8.01201817e-03,
          5.00751147e-03, 2.50375574e-03, 5.00751135e-04, 1.75262894e-02,
          4.00600908e-03, 4.50676028e-03, 5.00751147e-03, 3.00450670e-03,
          1.10165253e-02, 2.00300454e-03, 2.50375574e-03, 1.15172761e-02,
          2.50375574e-03, 3.00450670e-03, 2.50375574e-03, 2.00300454e-03,
          3.50525789e-03, 1.00150227e-03, 4.00600908e-03, 4.00600908e-03,
          3.50525789e-03, 3.00450670e-03, 3.00450670e-03, 1.05157737e-02,
          5.00751135e-04, 1.85277928e-02, 3.50525789e-03, 5.50826266e-03,
          4.00600908e-03, 3.00450670e-03, 5.50826266e-03, 6.00901339e-03,
          0., 7.51126697e-03, 4.00600908e-03, 1.35202808e-02,
          6.50976459e-03, 3.50525789e-03, 1.65247880e-02, 0.,
          3.50525789e-03, 5.00751147e-03, 5.00751147e-03, 5.00751147e-03,
          1.50225335e-03, 4.50676028e-03, 6.50976459e-03, 4.50676028e-03,
          3.00450670e-03, 5.50826266e-03, 1.00150227e-03, 2.50375574e-03,
          1.40210316e-02, 2.50375574e-03, 1.00150227e-03, 1.00150229e-02,
          9.01352055e-03, 8.51276889e-03, 4.00600908e-03, 1.50225335e-03,
          5.00751147e-03, 8.01201817e-03, 2.50375574e-03, 6.50976459e-03,
          2.00300454e-03, 1.50225335e-03, 6.00901339e-03, 3.00450670e-03,
          2.50375574e-03, 1.05157737e-02, 5.00751135e-04, 6.50976459e-03,
          1.50225335e-03, 4.00600908e-03, 8.01201817e-03, 3.00450670e-03,
          5.00751147e-03, 1.50225335e-03, 4.50676028e-03, 1.50225335e-03,
          2.50375574e-03, 1.60240363e-02, 1.50225335e-03, 4.50676028e-03,
          3.00450670e-03, 4.50676028e-03, 5.00751135e-04, 2.00300454e-03,
          2.50375574e-03, 5.00751147e-03, 9.01352055e-03, 3.50525789e-03,
          4.00600908e-03, 6.00901339e-03, 4.50676028e-03, 1.75262894e-02,
          4.50676028e-03, 5.50826266e-03, 2.00300454e-03, 1.20180268e-02,
          5.00751147e-03, 5.00751135e-04, 5.50826266e-03, 9.01352055e-03,
          4.00600908e-03, 1.05157737e-02, 2.50375574e-03, 4.50676028e-03,
          1.50225335e-03, 1.00150227e-03, 4.50676028e-03, 3.50525789e-03,
          5.00751147e-03, 1.15172761e-02, 3.50525789e-03, 3.00450670e-03,
          4.00600908e-03, 8.51276889e-03, 5.50826266e-03, 9.51427128e-03,
          4.50676028e-03, 3.50525789e-03, 1.05157737e-02, 4.50676028e-03,
          8.01201817e-03, 6.00901339e-03, 2.00300454e-03, 2.00300454e-03,
          8.51276889e-03, 9.01352055e-03, 1.00150227e-03, 7.01051578e-03,
          2.00300454e-03, 4.50676028e-03, 4.50676028e-03, 3.00450670e-03,
          8.51276889e-03, 2.50375574e-03, 2.50375574e-03, 1.25187784e-02,
          3.50525789e-03, 7.51126697e-03, 7.01051578e-03, 3.50525789e-03,
          2.50375574e-03, 8.51276889e-03, 1.15172761e-02, 7.01051578e-03,
          1.50225335e-03, 3.50525789e-03, 8.01201817e-03, 3.00450670e-03,
          3.50525789e-03, 7.01051578e-03, 6.50976459e-03, 7.01051578e-03 ]
      - [ 1.85253797e-03, 1.85253797e-03, 4.81659872e-03, 1.22267511e-02,
          3.33456835e-03, 2.59355316e-03, 1.11152278e-03, 7.03964429e-03,
          6.66913670e-03, 7.03964429e-03, 1.40792886e-02, 2.96406075e-03,
          7.41015188e-03, 2.96406075e-03, 5.55761391e-03, 1.85253797e-03,
          2.22304557e-03, 3.70507594e-03, 3.70507594e-03, 4.81659872e-03,
          6.66913670e-03, 4.44609113e-03, 3.33456835e-03, 2.59355316e-03,
          4.81659872e-03, 1.48203038e-02, 4.07558354e-03, 8.52167420e-03,
          5.55761391e-03, 4.44609113e-03, 4.44609113e-03, 4.81659872e-03,
          7.03964429e-03, 3.70507594e-03, 5.92812151e-03, 9.63319745e-03,
          7.41015188e-03, 9.63319745e-03, 4.07558354e-03, 4.44609113e-03,
          7.41015188e-04, 2.59355316e-03, 3.70507594e-03, 4.81659872e-03,
          7.78065948e-03, 4.44609113e-03, 7.03964429e-03, 9.63319745e-03,
          3.70507594e-03, 2.22304557e-03, 3.33456835e-03, 4.07558354e-03,
          7.78065948e-03, 3.33456835e-03, 4.07558354e-03, 7.41015188e-03,
          3.33456835e-03, 3.70507594e-03, 6.29862910e-03, 1.85253797e-03,
          3.33456835e-03, 3.33456835e-03, 4.81659872e-03, 2.22304557e-03,
          7.03964429e-03, 3.70507594e-03, 5.18710632e-03, 8.52167420e-03,
          7.41015188e-04, 1.14857350e-02, 3.70507594e-03, 4.07558354e-03,
          5.92812151e-03, 4.44609113e-03, 5.55761391e-03, 3.70507594e-03,
          7.41015188e-04, 8.89218226e-03, 3.33456835e-03, 6.29862910e-03,
          7.03964429e-03, 1.11152278e-03, 1.03742126e-02, 2.22304557e-03,
          3.33456835e-03, 4.81659872e-03, 4.07558354e-03, 4.44609113e-03,
          6.66913670e-03, 3.33456835e-03, 3.70507594e-03, 1.11152278e-03,
          4.44609113e-03, 4.81659872e-03, 3.33456835e-03, 1.48203038e-03,
          1.00037046e-02, 5.92812151e-03, 3.70507594e-03, 1.11152278e-02,
          2.59355316e-03, 7.78065948e-03, 3.33456835e-03, 5.18710632e-03,
          4.44609113e-03, 7.78065948e-03, 2.22304557e-03, 9.63319745e-03,
          3.33456835e-03, 4.44609113e-03, 7.78065948e-03, 1.85253797e-03,
          4.07558354e-03, 5.55761391e-03, 1.48203038e-03, 3.70507594e-03,
          3.33456835e-03, 3.33456835e-03, 6.66913670e-03, 1.11152278e-03,
          4.07558354e-03, 3.70507594e-03, 2.59355316e-03, 3.70507594e-03,
          2.22304557e-03, 1.66728422e-02, 6.29862910e-03, 1.48203038e-03,
          8.15116707e-03, 2.59355316e-03, 1.48203038e-03, 6.66913670e-03,
          4.07558354e-03, 4.81659872e-03, 4.07558354e-03, 2.96406075e-03,
          5.55761391e-03, 8.52167420e-03, 5.92812151e-03, 8.89218226e-03,
          2.59355316e-03, 4.81659872e-03, 5.92812151e-03, 7.03964429e-03,
          5.92812151e-03, 2.96406075e-03, 7.03964429e-03, 2.22304557e-03,
          4.07558354e-03, 3.70507594e-03, 2.96406075e-03, 2.59355316e-03,
          3.33456835e-03, 4.07558354e-03, 7.03964429e-03, 2.96406075e-03,
          8.52167420e-03, 7.03964429e-03, 3.70507594e-03, 8.52167420e-03,
          4.81659872e-03, 8.89218226e-03, 2.59355316e-03, 1.00037046e-02,
          2.96406075e-03, 2.59355316e-03, 8.89218226e-03, 9.63319745e-03,
          8.89218226e-03, 2.59355316e-03, 3.70507594e-03, 3.33456835e-03,
          5.18710632e-03, 4.44609113e-03, 7.78065948e-03, 4.81659872e-03,
          3.70507594e-03, 1.85253797e-03, 2.96406075e-03, 2.22304557e-03,
          7.41015188e-03, 3.70507594e-03, 3.33456835e-03, 1.11152278e-02,
          3.33456835e-03, 4.07558354e-03, 5.92812151e-03, 2.22304557e-03,
          1.11152278e-03, 1.00037046e-02, 5.92812151e-03, 5.92812151e-03,
          3.70507594e-03, 4.44609113e-03, 4.81659872e-03, 2.96406075e-03,
          1.00037046e-02, 4.44609113e-03, 2.96406075e-03, 5.18710632e-03 ]
      - [ 2.78551527e-03, 1.85701018e-03, 6.96378807e-03, 8.35654605e-03,
          4.17827303e-03, 1.85701018e-03, 2.32126284e-03, 5.57103055e-03,
          3.24976770e-03, 9.74930357e-03, 5.10677788e-03, 4.64252569e-03,
          2.32126284e-03, 1.85701018e-03, 6.49953540e-03, 2.78551527e-03,
          1.85701018e-03, 3.71402036e-03, 2.78551527e-03, 2.32126284e-03,
          5.57103055e-03, 8.82079825e-03, 3.24976770e-03, 2.78551527e-03,
          1.85701018e-03, 3.71402036e-03, 3.24976770e-03, 7.89229292e-03,
          6.49953540e-03, 4.64252545e-04, 3.71402036e-03, 1.39275764e-03,
          6.49953540e-03, 3.24976770e-03, 5.10677788e-03, 6.96378807e-03,
          4.64252569e-03, 8.35654605e-03, 3.24976770e-03, 9.28505091e-04,
          4.64252569e-03, 9.28505091e-04, 3.71402036e-03, 9.74930357e-03,
          2.78551527e-03, 5.10677788e-03, 2.32126284e-03, 1.39275761e-02,
          5.10677788e-03, 2.32126284e-03, 3.71402036e-03, 2.32126284e-03,
          1.43918293e-02, 1.39275764e-03, 1.85701018e-03, 1.43918293e-02,
          4.17827303e-03, 3.71402036e-03, 1.85701018e-03, 1.85701018e-03,
          2.78551527e-03, 4.64252545e-04, 3.24976770e-03, 4.64252569e-03,
          5.10677788e-03, 2.32126284e-03, 3.71402036e-03, 6.49953540e-03,
          9.28505091e-04, 1.85701028e-02, 2.32126284e-03, 1.39275764e-03,
          2.78551527e-03, 5.10677788e-03, 5.10677788e-03, 6.03528321e-03,
          9.28505091e-04, 6.03528321e-03, 4.64252569e-03, 9.28505138e-03,
          9.74930357e-03, 3.71402036e-03, 1.43918293e-02, 1.39275764e-03,
          5.57103055e-03, 2.32126284e-03, 6.49953540e-03, 3.71402036e-03,
          2.32126284e-03, 5.10677788e-03, 1.11420611e-02, 2.32126284e-03,
          4.64252569e-03, 3.71402036e-03, 1.39275764e-03, 3.24976770e-03,
          1.20705664e-02, 2.32126284e-03, 2.32126284e-03, 1.02135558e-02,
          7.42804073e-03, 1.29990708e-02, 4.64252569e-03, 3.24976770e-03,
          1.85701018e-03, 5.10677788e-03, 9.28505091e-04, 4.17827303e-03,
          1.85701018e-03, 3.71402036e-03, 3.71402036e-03, 4.17827303e-03,
          2.32126284e-03, 1.11420611e-02, 2.78551527e-03, 5.57103055e-03,
          2.32126284e-03, 1.85701018e-03, 8.82079825e-03, 2.78551527e-03,
          6.49953540e-03, 5.10677788e-03, 6.03528321e-03, 1.39275764e-03,
          1.85701018e-03, 1.11420611e-02, 1.85701018e-03, 3.71402036e-03,
          8.35654605e-03, 2.32126284e-03, 0., 4.17827303e-03,
          1.39275764e-03, 4.64252569e-03, 9.74930357e-03, 1.39275764e-03,
          4.17827303e-03, 9.74930357e-03, 3.24976770e-03, 1.48560815e-02,
          2.32126284e-03, 5.10677788e-03, 6.49953540e-03, 7.42804073e-03,
          6.03528321e-03, 2.78551527e-03, 4.17827303e-03, 6.49953540e-03,
          2.78551527e-03, 6.96378807e-03, 3.71402036e-03, 2.78551527e-03,
          5.57103055e-03, 3.24976770e-03, 3.24976770e-03, 1.39275764e-03,
          6.96378807e-03, 9.28505138e-03, 6.96378807e-03, 2.32126284e-03,
          5.10677788e-03, 1.20705664e-02, 6.96378807e-03, 1.02135558e-02,
          6.03528321e-03, 1.85701018e-03, 9.74930357e-03, 6.49953540e-03,
          3.71402036e-03, 4.17827303e-03, 4.64252545e-04, 1.85701018e-03,
          1.16063133e-02, 1.02135558e-02, 3.24976770e-03, 1.02135558e-02,
          1.85701018e-03, 6.03528321e-03, 8.35654605e-03, 4.64252569e-03,
          1.06778089e-02, 2.32126284e-03, 5.10677788e-03, 1.16063133e-02,
          2.78551527e-03, 5.10677788e-03, 8.35654605e-03, 4.17827303e-03,
          3.24976770e-03, 9.28505138e-03, 9.28505138e-03, 2.78551527e-03,
          3.71402036e-03, 2.32126284e-03, 6.96378807e-03, 2.32126284e-03,
          4.64252569e-03, 6.96378807e-03, 6.03528321e-03, 8.82079825e-03 ]
      - [ 2.55427836e-03, 4.15070215e-03, 7.02426536e-03, 4.15070215e-03,
          3.83141753e-03, 6.06641127e-03, 4.15070215e-03, 4.15070215e-03,
          6.38569612e-03, 6.06641127e-03, 2.55427836e-03, 4.78927186e-03,
          7.98211992e-03, 3.83141753e-03, 6.06641127e-03, 7.02426536e-03,
          2.87356321e-03, 4.46998700e-03, 2.23499350e-03, 3.51213268e-03,
          4.78927186e-03, 7.66283507e-03, 6.70498051e-03, 4.78927186e-03,
          3.19284806e-03, 5.42784156e-03, 7.02426536e-03, 4.15070215e-03,
          9.89782903e-03, 3.83141753e-03, 6.06641127e-03, 1.59642403e-03,
          8.30140430e-03, 4.78927186e-03, 3.51213268e-03, 4.78927186e-03,
          6.70498051e-03, 6.38569612e-03, 6.38569612e-03, 5.74712642e-03,
          6.06641127e-03, 4.15070215e-03, 4.46998700e-03, 3.19284806e-03,
          5.42784156e-03, 6.70498051e-03, 7.66283507e-03, 5.42784156e-03,
          4.15070215e-03, 6.38569612e-03, 3.51213268e-03, 4.78927186e-03,
          5.10855671e-03, 4.46998700e-03, 2.55427836e-03, 5.10855671e-03,
          5.74712642e-03, 4.15070215e-03, 5.42784156e-03, 3.19284806e-03,
          5.74712642e-03, 3.83141753e-03, 3.83141753e-03, 5.74712642e-03,
          6.06641127e-03, 4.15070215e-03, 5.74712642e-03, 7.98211992e-03,
          2.55427836e-03, 5.42784156e-03, 5.74712642e-03, 5.42784156e-03,
          6.70498051e-03, 7.66283507e-03, 1.02171134e-02, 7.66283507e-03,
          2.55427836e-03, 4.15070215e-03, 5.74712642e-03, 5.42784156e-03,
          7.66283507e-03, 3.51213268e-03, 7.98211992e-03, 3.51213268e-03,
          3.83141753e-03, 4.15070215e-03, 4.46998700e-03, 3.19284806e-03,
          5.10855671e-03, 3.83141753e-03, 4.46998700e-03, 5.10855671e-03,
          5.74712642e-03, 6.38569612e-03, 3.51213268e-03, 5.42784156e-03,
          6.70498051e-03, 1.05363978e-02, 3.83141753e-03, 5.42784156e-03,
          4.78927186e-03, 6.70498051e-03, 4.15070215e-03, 7.34355021e-03,
          6.38569612e-03, 3.51213268e-03, 3.83141753e-03, 6.38569612e-03,
          4.15070215e-03, 4.78927186e-03, 8.62068962e-03, 3.83141753e-03,
          5.42784156e-03, 2.87356321e-03, 5.42784156e-03, 4.78927186e-03,
          4.78927186e-03, 3.19284806e-03, 7.02426536e-03, 2.55427836e-03,
          6.38569612e-03, 7.02426536e-03, 3.83141753e-03, 6.38569612e-03,
          3.83141753e-03, 6.06641127e-03, 5.42784156e-03, 2.87356321e-03,
          6.38569612e-03, 3.83141753e-03, 2.87356321e-03, 7.66283507e-03,
          7.66283507e-03, 4.78927186e-03, 4.46998700e-03, 2.55427836e-03,
          3.83141753e-03, 3.19284806e-03, 5.42784156e-03, 6.70498051e-03,
          4.15070215e-03, 6.70498051e-03, 4.46998700e-03, 4.78927186e-03,
          4.46998700e-03, 3.51213268e-03, 4.78927186e-03, 4.78927186e-03,
          4.15070215e-03, 7.98211992e-03, 2.55427836e-03, 4.46998700e-03,
          3.19284806e-03, 4.46998700e-03, 2.87356321e-03, 3.51213268e-03,
          5.10855671e-03, 5.10855671e-03, 3.83141753e-03, 2.23499350e-03,
          3.19284806e-03, 4.46998700e-03, 9.89782903e-03, 6.38569612e-03,
          4.78927186e-03, 3.19284806e-03, 7.34355021e-03, 4.15070215e-03,
          3.51213268e-03, 6.06641127e-03, 7.98211992e-03, 5.74712642e-03,
